################################################################################
# Neural network connection values (weights and biases).
################################################################################
# Col  Name       Description
################################################################################
# 1    connection Neural network connection value.
# 2    t          Connection type (a = weight, b = bias).
# 3    index      Index enumerating weights.
# 4    l_s        Starting point layer (end point layer for biases).
# 5    n_s        Starting point neuron in starting layer (end point neuron for biases).
# 6    l_e        End point layer.
# 7    n_e        End point neuron in end layer.
################################################################################
#                      1 2         3     4     5     6     7
#             connection t     index   l_s   n_s   l_e   n_e
############################################################
  1.3869857506002198E-01 a         1     0     1     1     1
 -3.1090447353669703E-01 a         2     0     1     1     2
  1.7559625295355405E-01 a         3     0     1     1     3
  3.1665051685088264E-02 a         4     0     1     1     4
  1.3050208939803254E-01 a         5     0     1     1     5
  1.5817456579675510E-01 a         6     0     1     1     6
 -2.2721660514802411E-01 a         7     0     1     1     7
 -1.3951582580322672E-01 a         8     0     1     1     8
 -2.0457715653513356E-01 a         9     0     1     1     9
  3.8871411915357590E-01 a        10     0     1     1    10
 -1.6722702518689903E-01 a        11     0     1     1    11
  3.3699123171360501E-01 a        12     0     1     1    12
  3.9631109205834382E-02 a        13     0     1     1    13
  2.6673717273529085E-01 a        14     0     1     1    14
  1.0233052607051894E-01 a        15     0     1     1    15
  1.6096176109866270E-01 a        16     0     1     1    16
 -1.3125586439190571E-02 a        17     0     1     1    17
  3.5007992221369105E-01 a        18     0     1     1    18
 -1.1070674234382703E-01 a        19     0     1     1    19
 -3.4845691348853192E-01 a        20     0     1     1    20
 -1.3519932851591576E-01 a        21     0     1     1    21
 -7.8579758074050945E-02 a        22     0     1     1    22
 -7.7021942127346352E-02 a        23     0     1     1    23
 -1.7947869308801873E-01 a        24     0     1     1    24
  2.7448151752394806E-01 a        25     0     1     1    25
 -2.7878563487393443E-01 a        26     0     2     1     1
  8.7925153115650558E-03 a        27     0     2     1     2
 -2.6938684964921367E-01 a        28     0     2     1     3
  4.0322235212005481E-01 a        29     0     2     1     4
  1.5276871457023718E-03 a        30     0     2     1     5
 -3.4114562495937645E-01 a        31     0     2     1     6
  3.1959425434203083E-02 a        32     0     2     1     7
 -2.7227743039463598E-01 a        33     0     2     1     8
 -8.3021431970726853E-02 a        34     0     2     1     9
  3.0582489285752212E-01 a        35     0     2     1    10
 -1.5110391328887693E-01 a        36     0     2     1    11
  2.0679054145732523E-01 a        37     0     2     1    12
  9.5114021748708755E-02 a        38     0     2     1    13
 -7.5076197074462284E-03 a        39     0     2     1    14
  2.5064171208186037E-01 a        40     0     2     1    15
 -4.4153824742528963E-02 a        41     0     2     1    16
  1.2297504051346009E-01 a        42     0     2     1    17
  5.5272823359426670E-01 a        43     0     2     1    18
 -1.9837021485126660E-01 a        44     0     2     1    19
 -2.9389211701969398E-01 a        45     0     2     1    20
  1.0309214537203513E-01 a        46     0     2     1    21
 -3.5198978543241122E-01 a        47     0     2     1    22
 -4.0384907112280372E-01 a        48     0     2     1    23
 -3.3438689151016221E-01 a        49     0     2     1    24
  9.7568979913487772E-02 a        50     0     2     1    25
 -3.6915770253848029E-01 a        51     0     3     1     1
  2.8121346063080654E-01 a        52     0     3     1     2
  1.4483890546806533E-01 a        53     0     3     1     3
 -9.1836705305207711E-02 a        54     0     3     1     4
  4.3119646168587938E-01 a        55     0     3     1     5
 -1.7231885483601536E-01 a        56     0     3     1     6
 -1.2559699674597008E-01 a        57     0     3     1     7
  1.6437066817624751E-01 a        58     0     3     1     8
  1.9592445039664858E-01 a        59     0     3     1     9
 -5.3616532497208609E-02 a        60     0     3     1    10
 -2.8678602878915460E-01 a        61     0     3     1    11
  1.8914684391350288E-03 a        62     0     3     1    12
 -1.0780687927456589E-01 a        63     0     3     1    13
 -4.3631303123768776E-03 a        64     0     3     1    14
  2.3907166161271368E-01 a        65     0     3     1    15
 -1.7392623701089113E-01 a        66     0     3     1    16
  2.3440500249230553E-01 a        67     0     3     1    17
 -4.2135049471036912E-02 a        68     0     3     1    18
  3.7047249677364780E-01 a        69     0     3     1    19
 -3.1449439847347677E-01 a        70     0     3     1    20
  5.2876733592645969E-02 a        71     0     3     1    21
  2.1668995626561094E-01 a        72     0     3     1    22
  4.1211642414634583E-02 a        73     0     3     1    23
  1.7439505694496021E-01 a        74     0     3     1    24
 -1.9582094610010589E-01 a        75     0     3     1    25
 -7.4697620480513385E-02 a        76     0     4     1     1
 -1.3473569852976153E-01 a        77     0     4     1     2
 -1.1214760300637594E-01 a        78     0     4     1     3
  2.7463354820240510E-01 a        79     0     4     1     4
  2.3651479589654287E-01 a        80     0     4     1     5
  2.4910918777405217E-01 a        81     0     4     1     6
 -1.8422137617297874E-03 a        82     0     4     1     7
 -6.2567712734166253E-02 a        83     0     4     1     8
 -7.6845016110630410E-02 a        84     0     4     1     9
  6.1558699949633078E-01 a        85     0     4     1    10
 -8.9919442179556011E-02 a        86     0     4     1    11
  3.8814755143311358E-01 a        87     0     4     1    12
  1.3811569830479936E-01 a        88     0     4     1    13
 -6.0297327532713711E-02 a        89     0     4     1    14
 -2.4478379657827706E-01 a        90     0     4     1    15
 -1.0464053185674436E-01 a        91     0     4     1    16
 -4.1739812654872040E-02 a        92     0     4     1    17
  3.9828502225246182E-01 a        93     0     4     1    18
  2.4052534237047765E-01 a        94     0     4     1    19
 -3.5400814043791728E-01 a        95     0     4     1    20
 -2.2968888815778626E-01 a        96     0     4     1    21
  2.1156058049568369E-01 a        97     0     4     1    22
 -2.5333927752940322E-01 a        98     0     4     1    23
 -4.7379569086872858E-01 a        99     0     4     1    24
 -3.3737463102522247E-01 a       100     0     4     1    25
 -3.0037832087294197E-01 a       101     0     5     1     1
  2.1835066482073584E-01 a       102     0     5     1     2
  3.1537554173781474E-01 a       103     0     5     1     3
  3.5586711590792447E-01 a       104     0     5     1     4
  3.3663458805491298E-01 a       105     0     5     1     5
  1.2895462868521324E-01 a       106     0     5     1     6
  3.3236951845786143E-03 a       107     0     5     1     7
  7.8788585462116999E-03 a       108     0     5     1     8
  1.9760678759182340E-01 a       109     0     5     1     9
  3.9874522844892180E-01 a       110     0     5     1    10
 -1.2743693310915361E-01 a       111     0     5     1    11
 -1.4466202672367812E-02 a       112     0     5     1    12
 -2.1874076657902078E-01 a       113     0     5     1    13
 -5.5299850802915801E-02 a       114     0     5     1    14
  2.9429841692114189E-01 a       115     0     5     1    15
  1.0400328344142093E-01 a       116     0     5     1    16
 -1.5352455511563926E-01 a       117     0     5     1    17
 -2.3047947793541237E-01 a       118     0     5     1    18
  3.4152452787768123E-01 a       119     0     5     1    19
 -8.2047709422389217E-02 a       120     0     5     1    20
  2.1519178598870758E-01 a       121     0     5     1    21
 -2.6911577356241173E-01 a       122     0     5     1    22
  1.9200275500458025E-01 a       123     0     5     1    23
 -2.5785452555041888E-01 a       124     0     5     1    24
  2.8467413987334778E-01 a       125     0     5     1    25
 -1.6478360988556778E-01 a       126     0     6     1     1
 -3.2577771149065876E-01 a       127     0     6     1     2
  1.6029630017661900E-01 a       128     0     6     1     3
  4.1349066363631987E-01 a       129     0     6     1     4
  2.7126603562406537E-01 a       130     0     6     1     5
 -2.0935344804204645E-01 a       131     0     6     1     6
  1.0055998397524532E-01 a       132     0     6     1     7
  1.1659655288284416E-01 a       133     0     6     1     8
  3.4122096275936570E-01 a       134     0     6     1     9
  5.3327442094496258E-01 a       135     0     6     1    10
 -1.0051967553307055E-01 a       136     0     6     1    11
 -5.3939704428687457E-03 a       137     0     6     1    12
  3.8841446904089294E-01 a       138     0     6     1    13
  1.0284041275526273E-02 a       139     0     6     1    14
  8.6622232065680718E-02 a       140     0     6     1    15
  1.6875263102124882E-01 a       141     0     6     1    16
  5.2246252550716754E-01 a       142     0     6     1    17
  3.4527920458816630E-01 a       143     0     6     1    18
  1.1710646444825511E-01 a       144     0     6     1    19
 -3.3618152030958032E-01 a       145     0     6     1    20
 -1.9030232253512375E-01 a       146     0     6     1    21
  1.1149438211519164E-01 a       147     0     6     1    22
 -1.4497143691133338E-01 a       148     0     6     1    23
  4.8499349659393912E-02 a       149     0     6     1    24
 -3.2448924096533138E-01 a       150     0     6     1    25
  9.1649860249643389E-02 a       151     0     7     1     1
  1.4560948007622546E-01 a       152     0     7     1     2
  4.8041391139373307E-02 a       153     0     7     1     3
  1.2071856033899168E-01 a       154     0     7     1     4
 -1.1193670957415325E-01 a       155     0     7     1     5
 -1.5414925224035242E-01 a       156     0     7     1     6
 -5.7330322971761431E-02 a       157     0     7     1     7
  3.5261564759511088E-01 a       158     0     7     1     8
  1.9348030726540694E-01 a       159     0     7     1     9
  1.8111371267299189E-01 a       160     0     7     1    10
  1.2718696582763619E-01 a       161     0     7     1    11
 -2.2027034999109402E-01 a       162     0     7     1    12
 -1.6547956258185492E-01 a       163     0     7     1    13
  4.3436815107238388E-02 a       164     0     7     1    14
 -1.1288598405169506E-01 a       165     0     7     1    15
  6.4402071027674021E-02 a       166     0     7     1    16
  3.3650118054428674E-01 a       167     0     7     1    17
  2.7945760071311915E-01 a       168     0     7     1    18
  4.8368376417445513E-02 a       169     0     7     1    19
  1.3452375811419021E-01 a       170     0     7     1    20
  1.0437747430709034E-01 a       171     0     7     1    21
  1.4736436309539436E-01 a       172     0     7     1    22
  1.2115342644581609E-01 a       173     0     7     1    23
  6.8942633062931760E-02 a       174     0     7     1    24
 -2.0265061443704269E-01 a       175     0     7     1    25
 -2.0463647384635206E-01 a       176     0     8     1     1
 -2.7236270178209715E-01 a       177     0     8     1     2
  2.1938895607454359E-01 a       178     0     8     1     3
  1.6384632758308387E-01 a       179     0     8     1     4
  4.4284219856109347E-01 a       180     0     8     1     5
  1.5478377796828712E-02 a       181     0     8     1     6
 -4.2748763653402266E-01 a       182     0     8     1     7
 -3.8523797031521909E-02 a       183     0     8     1     8
 -2.3978521471916200E-01 a       184     0     8     1     9
  4.0946551774811241E-01 a       185     0     8     1    10
  2.5197129583845534E-01 a       186     0     8     1    11
  3.9174482681207290E-01 a       187     0     8     1    12
  4.0445329611941217E-03 a       188     0     8     1    13
  3.7293176001396777E-01 a       189     0     8     1    14
 -5.9512401544902470E-02 a       190     0     8     1    15
 -1.6348333698339373E-01 a       191     0     8     1    16
  4.0378326010400811E-01 a       192     0     8     1    17
  4.3285784397564581E-01 a       193     0     8     1    18
 -1.0120014385974947E-02 a       194     0     8     1    19
 -2.8723760553200034E-01 a       195     0     8     1    20
  4.5580644818303921E-02 a       196     0     8     1    21
 -3.0016567915868503E-01 a       197     0     8     1    22
 -6.6676105566282645E-02 a       198     0     8     1    23
  1.0047604150180006E-01 a       199     0     8     1    24
 -2.2797995553053529E-01 a       200     0     8     1    25
 -8.8963711678860039E-03 a       201     0     9     1     1
  4.6642741653616857E-02 a       202     0     9     1     2
 -6.6841547545882177E-03 a       203     0     9     1     3
 -2.9107983916673669E-01 a       204     0     9     1     4
 -2.3142841690003313E-01 a       205     0     9     1     5
 -2.7268893613948997E-01 a       206     0     9     1     6
  1.8146171713245587E-01 a       207     0     9     1     7
 -1.9867011159028086E-01 a       208     0     9     1     8
  8.1535646933169628E-02 a       209     0     9     1     9
 -3.1891520141854390E-01 a       210     0     9     1    10
 -1.1654399651919842E-01 a       211     0     9     1    11
 -1.4059214861477859E-01 a       212     0     9     1    12
 -7.2849122895451451E-02 a       213     0     9     1    13
 -3.4919897567014446E-01 a       214     0     9     1    14
 -5.9869728265010608E-02 a       215     0     9     1    15
  8.4802663590201791E-02 a       216     0     9     1    16
 -8.6447121184057507E-02 a       217     0     9     1    17
  2.5027371792159575E-01 a       218     0     9     1    18
 -1.9382446891057747E-01 a       219     0     9     1    19
  4.2838421562046293E-02 a       220     0     9     1    20
  1.0155236990543940E-02 a       221     0     9     1    21
  3.8117293536312304E-02 a       222     0     9     1    22
 -2.4237139002418087E-01 a       223     0     9     1    23
 -1.8922722303919051E-01 a       224     0     9     1    24
 -2.7856832725162334E-01 a       225     0     9     1    25
 -4.6806386294914248E-01 a       226     0    10     1     1
  7.9923795810211765E-02 a       227     0    10     1     2
 -1.2257187365082055E-01 a       228     0    10     1     3
 -2.1845025706053545E-01 a       229     0    10     1     4
  3.6076144430377788E-01 a       230     0    10     1     5
 -3.2142918437169016E-01 a       231     0    10     1     6
 -3.9755924347597726E-02 a       232     0    10     1     7
  1.7562202946475886E-02 a       233     0    10     1     8
  7.1912768132886495E-02 a       234     0    10     1     9
  7.8170474574886262E-01 a       235     0    10     1    10
  2.3302310000688009E-01 a       236     0    10     1    11
 -1.5491870906490696E-01 a       237     0    10     1    12
  4.6552811595062610E-02 a       238     0    10     1    13
 -7.8957528690729153E-02 a       239     0    10     1    14
 -1.7911358943043071E-01 a       240     0    10     1    15
 -3.3147748144139078E-01 a       241     0    10     1    16
  2.4461905894456844E-02 a       242     0    10     1    17
  3.6149675115713292E-02 a       243     0    10     1    18
 -3.4358886444331316E-01 a       244     0    10     1    19
  1.4743293794814091E-01 a       245     0    10     1    20
 -4.6028821345313199E-02 a       246     0    10     1    21
 -2.2792119775808664E-01 a       247     0    10     1    22
 -4.2434645356882428E-01 a       248     0    10     1    23
 -2.1265538703633366E-01 a       249     0    10     1    24
  2.8918205810471487E-01 a       250     0    10     1    25
  2.0577829445779430E-01 a       251     0    11     1     1
  2.1622149266143881E-02 a       252     0    11     1     2
  5.2411408681936511E-01 a       253     0    11     1     3
  5.4442087248692227E-02 a       254     0    11     1     4
 -1.0134892911470812E-01 a       255     0    11     1     5
  2.2072475368873976E-01 a       256     0    11     1     6
 -2.0886278364493299E-01 a       257     0    11     1     7
  5.5788726877483819E-02 a       258     0    11     1     8
  2.9693982437927130E-01 a       259     0    11     1     9
 -4.0564368484349751E-03 a       260     0    11     1    10
  1.2468501161295732E-02 a       261     0    11     1    11
 -1.6763221067809150E-01 a       262     0    11     1    12
 -5.6609996175356482E-02 a       263     0    11     1    13
  1.8246662324601626E-01 a       264     0    11     1    14
 -1.2703623164755504E-01 a       265     0    11     1    15
  4.1056581577042176E-03 a       266     0    11     1    16
 -1.9727850267827252E-01 a       267     0    11     1    17
  4.4222839821065157E-01 a       268     0    11     1    18
 -1.6029961842202359E-01 a       269     0    11     1    19
 -3.2716238852846712E-02 a       270     0    11     1    20
 -2.3498267434912173E-01 a       271     0    11     1    21
 -1.5914192599133500E-01 a       272     0    11     1    22
 -4.6172315084807469E-01 a       273     0    11     1    23
 -5.2813310274828487E-03 a       274     0    11     1    24
  2.6620679095554228E-01 a       275     0    11     1    25
  6.9709438340366497E-02 a       276     0    12     1     1
  8.3710507429257272E-02 a       277     0    12     1     2
  2.6705112491136301E-01 a       278     0    12     1     3
 -1.6172861414841330E-01 a       279     0    12     1     4
  1.6963249255213869E-01 a       280     0    12     1     5
  3.4797865860338534E-01 a       281     0    12     1     6
 -3.8334850593213438E-01 a       282     0    12     1     7
 -4.8673444324174253E-02 a       283     0    12     1     8
 -1.4032420418081584E-02 a       284     0    12     1     9
  8.1085725955202437E-01 a       285     0    12     1    10
  3.5749409056181114E-01 a       286     0    12     1    11
  4.8750646028811649E-02 a       287     0    12     1    12
  3.9476897386872445E-01 a       288     0    12     1    13
  3.4893469096787172E-01 a       289     0    12     1    14
 -2.7161237908041541E-01 a       290     0    12     1    15
  7.5429819427260736E-02 a       291     0    12     1    16
  3.0826101196154837E-01 a       292     0    12     1    17
  2.9044555970417330E-01 a       293     0    12     1    18
 -1.3095782790168731E-01 a       294     0    12     1    19
 -3.0286644783079752E-01 a       295     0    12     1    20
  1.0500519833665943E-01 a       296     0    12     1    21
 -2.3376942400458656E-01 a       297     0    12     1    22
 -1.6557279287712928E-01 a       298     0    12     1    23
  1.4408832747065855E-02 a       299     0    12     1    24
 -2.3758020191520882E-01 a       300     0    12     1    25
  2.6683378681244357E-01 a       301     0    13     1     1
  4.6771193216742407E-01 a       302     0    13     1     2
  2.6917654339096542E-01 a       303     0    13     1     3
 -1.9396105316891898E-01 a       304     0    13     1     4
  3.7330895614262022E-01 a       305     0    13     1     5
 -2.5508796716268187E-03 a       306     0    13     1     6
 -3.1421234130435217E-02 a       307     0    13     1     7
 -5.3311524564967273E-02 a       308     0    13     1     8
 -1.8149513554905916E-01 a       309     0    13     1     9
 -2.2632630817167890E-02 a       310     0    13     1    10
  6.1512359130960259E-02 a       311     0    13     1    11
 -1.6944495530873807E-01 a       312     0    13     1    12
  1.2223077110722207E-01 a       313     0    13     1    13
 -1.5085266595274641E-01 a       314     0    13     1    14
  8.7698583740115604E-02 a       315     0    13     1    15
  5.2647379086146640E-01 a       316     0    13     1    16
  2.4323519653529507E-01 a       317     0    13     1    17
  3.5640421314052284E-01 a       318     0    13     1    18
 -2.4950437252717494E-01 a       319     0    13     1    19
  2.2183801740804182E-01 a       320     0    13     1    20
 -2.5762536366487887E-01 a       321     0    13     1    21
  4.6163200848734869E-02 a       322     0    13     1    22
  1.1888770620040459E-01 a       323     0    13     1    23
  2.9263427742523510E-02 a       324     0    13     1    24
 -5.5641132095413597E-02 a       325     0    13     1    25
  1.3355881008889464E-01 a       326     0    14     1     1
 -4.3522140499595885E-01 a       327     0    14     1     2
  2.3280533451979951E-01 a       328     0    14     1     3
  2.7194896534513979E-01 a       329     0    14     1     4
 -5.8922164699778332E-02 a       330     0    14     1     5
 -1.6002653468706310E-01 a       331     0    14     1     6
 -4.8864196202397608E-01 a       332     0    14     1     7
 -1.9658058937808057E-01 a       333     0    14     1     8
  1.0969084209812516E-01 a       334     0    14     1     9
  1.1004094412894088E+00 a       335     0    14     1    10
  1.3407469786856469E-01 a       336     0    14     1    11
  1.1410399149359961E-01 a       337     0    14     1    12
  3.4901342389954543E-01 a       338     0    14     1    13
 -1.7744878066658834E-01 a       339     0    14     1    14
 -1.1302043145045595E-01 a       340     0    14     1    15
 -1.3848354924767547E-01 a       341     0    14     1    16
  3.1038170399392584E-01 a       342     0    14     1    17
 -8.3932818454888411E-03 a       343     0    14     1    18
  3.0146551393055426E-01 a       344     0    14     1    19
  3.2512402412542413E-01 a       345     0    14     1    20
 -4.1152801544477813E-01 a       346     0    14     1    21
 -1.5631731817168756E-01 a       347     0    14     1    22
 -4.4378107491332815E-02 a       348     0    14     1    23
 -7.2963632054122152E-02 a       349     0    14     1    24
 -2.5530473735858944E-01 a       350     0    14     1    25
 -4.0029763932707692E-02 a       351     0    15     1     1
  1.8587595592819925E-01 a       352     0    15     1     2
  2.7468333195166361E-01 a       353     0    15     1     3
  2.0950882733034140E-01 a       354     0    15     1     4
  6.1287517402875058E-01 a       355     0    15     1     5
 -1.0271557346400818E-01 a       356     0    15     1     6
  3.1630617332862287E-01 a       357     0    15     1     7
 -3.0286759651455653E-01 a       358     0    15     1     8
 -1.6736671116086868E-01 a       359     0    15     1     9
 -6.0366154084272670E-02 a       360     0    15     1    10
  6.3815815912782170E-01 a       361     0    15     1    11
  2.1080110822544842E-01 a       362     0    15     1    12
  2.5400630095314164E-01 a       363     0    15     1    13
  1.2613290970672278E-01 a       364     0    15     1    14
 -7.0605444654755517E-02 a       365     0    15     1    15
  3.1233231961807162E-01 a       366     0    15     1    16
 -1.6772100426350514E-01 a       367     0    15     1    17
  5.4667591008365979E-01 a       368     0    15     1    18
  4.5690292082028994E-01 a       369     0    15     1    19
 -2.7279432309140994E-01 a       370     0    15     1    20
  6.4589592244673213E-02 a       371     0    15     1    21
 -1.1805812527875797E-01 a       372     0    15     1    22
  2.4539738185975876E-01 a       373     0    15     1    23
 -4.0761378175330804E-01 a       374     0    15     1    24
  4.4870836627299716E-02 a       375     0    15     1    25
  7.0970849830057081E-02 a       376     0    16     1     1
 -3.7624100489857176E-02 a       377     0    16     1     2
 -4.6033032904923621E-01 a       378     0    16     1     3
 -1.6904703090580991E-01 a       379     0    16     1     4
 -1.8149967994361318E-01 a       380     0    16     1     5
  1.0548588617933748E-01 a       381     0    16     1     6
  1.8199323216854474E-01 a       382     0    16     1     7
  1.6620021036208180E-01 a       383     0    16     1     8
 -2.5670821731824295E-01 a       384     0    16     1     9
  4.4581832308513170E-01 a       385     0    16     1    10
  3.5309651715020277E-02 a       386     0    16     1    11
  2.2873657069751535E-01 a       387     0    16     1    12
  4.4544448927231611E-02 a       388     0    16     1    13
 -1.7132012947306652E-02 a       389     0    16     1    14
  4.1822990861514908E-01 a       390     0    16     1    15
 -2.3182490658793695E-01 a       391     0    16     1    16
  1.7432318017084042E-01 a       392     0    16     1    17
 -1.1471948621364264E-01 a       393     0    16     1    18
  2.9074309469171916E-01 a       394     0    16     1    19
  1.6873525900474745E-01 a       395     0    16     1    20
  3.4166105640927114E-01 a       396     0    16     1    21
  2.8174714697112371E-03 a       397     0    16     1    22
  7.5765744594382928E-02 a       398     0    16     1    23
  8.9875101472624980E-02 a       399     0    16     1    24
 -1.4633153357272102E-01 a       400     0    16     1    25
 -1.7669938769916096E-01 a       401     0    17     1     1
 -8.3760862363509145E-02 a       402     0    17     1     2
 -1.9935379631353628E-01 a       403     0    17     1     3
  5.4677167095892598E-03 a       404     0    17     1     4
  1.5262314755822370E-01 a       405     0    17     1     5
 -7.3901169756132132E-02 a       406     0    17     1     6
 -3.1488820129736128E-01 a       407     0    17     1     7
 -1.8528306783799148E-01 a       408     0    17     1     8
  2.1596426085177423E-01 a       409     0    17     1     9
  1.1560351041537414E-01 a       410     0    17     1    10
  4.7301643811670277E-02 a       411     0    17     1    11
  5.8509215586071868E-02 a       412     0    17     1    12
 -1.5337145737415256E-01 a       413     0    17     1    13
 -9.4401023872655976E-02 a       414     0    17     1    14
  2.4536832006344364E-02 a       415     0    17     1    15
  1.6451191386645994E-01 a       416     0    17     1    16
 -1.3350392289279650E-01 a       417     0    17     1    17
 -4.7872318929206220E-01 a       418     0    17     1    18
  7.1951492008495762E-03 a       419     0    17     1    19
 -2.1614383615387858E-01 a       420     0    17     1    20
  1.5283180258565263E-01 a       421     0    17     1    21
 -1.7801271574331337E-01 a       422     0    17     1    22
 -9.5200122062120474E-02 a       423     0    17     1    23
  1.5615768642805045E-01 a       424     0    17     1    24
  2.6936278168122596E-01 a       425     0    17     1    25
 -5.8441850196265452E-02 a       426     0    18     1     1
  3.2542861542522714E-02 a       427     0    18     1     2
 -3.5630062321229827E-01 a       428     0    18     1     3
  4.1133418317313769E-01 a       429     0    18     1     4
  1.2150780189008670E-01 a       430     0    18     1     5
 -2.4425048152987291E-01 a       431     0    18     1     6
 -2.3480245953362092E-01 a       432     0    18     1     7
  2.5050883858727430E-01 a       433     0    18     1     8
 -8.2215530684507501E-02 a       434     0    18     1     9
  6.7338352776717469E-01 a       435     0    18     1    10
 -8.9576838749845067E-02 a       436     0    18     1    11
 -2.6235443670421194E-01 a       437     0    18     1    12
  3.6948587290149387E-01 a       438     0    18     1    13
 -1.3102735259281661E-01 a       439     0    18     1    14
 -1.0781708183240721E-01 a       440     0    18     1    15
 -3.7150497039243091E-01 a       441     0    18     1    16
  6.7083158498265183E-02 a       442     0    18     1    17
 -1.5192992234305955E-02 a       443     0    18     1    18
 -8.2400655835978866E-03 a       444     0    18     1    19
  2.3909369649539469E-01 a       445     0    18     1    20
  1.1711487635575735E-01 a       446     0    18     1    21
 -2.1523469442123674E-01 a       447     0    18     1    22
 -3.6846347032532839E-01 a       448     0    18     1    23
 -1.6370500690626696E-01 a       449     0    18     1    24
  2.7179002129833268E-01 a       450     0    18     1    25
 -3.1577545275044056E-01 a       451     0    19     1     1
  2.2146963891133450E-01 a       452     0    19     1     2
 -2.1844890756239372E-02 a       453     0    19     1     3
  2.5417210442785798E-01 a       454     0    19     1     4
 -1.1236570200244600E-02 a       455     0    19     1     5
 -3.4774993901433471E-01 a       456     0    19     1     6
 -4.8032081249556913E-01 a       457     0    19     1     7
  3.3387856643033377E-02 a       458     0    19     1     8
  1.1198953295379070E-02 a       459     0    19     1     9
  1.7202685766108050E-01 a       460     0    19     1    10
  2.1035480073211302E-01 a       461     0    19     1    11
  1.7355313761073670E-02 a       462     0    19     1    12
 -1.8477450768785889E-02 a       463     0    19     1    13
 -5.2168187871444224E-03 a       464     0    19     1    14
 -8.3988944631049584E-02 a       465     0    19     1    15
 -2.1650113223951536E-01 a       466     0    19     1    16
 -4.2315579914328612E-02 a       467     0    19     1    17
  5.2283045054851748E-02 a       468     0    19     1    18
  1.3376455000311951E-01 a       469     0    19     1    19
 -1.5771604179380183E-01 a       470     0    19     1    20
 -9.0518821473872274E-02 a       471     0    19     1    21
  1.7314856839109820E-02 a       472     0    19     1    22
  1.7989298421690231E-01 a       473     0    19     1    23
 -3.7940845665347844E-01 a       474     0    19     1    24
  2.4035182543426573E-01 a       475     0    19     1    25
 -3.0707044699048214E-01 a       476     0    20     1     1
 -2.6224362576734583E-01 a       477     0    20     1     2
 -2.1628083176016730E-01 a       478     0    20     1     3
  3.6985496910302468E-01 a       479     0    20     1     4
  3.2788090446955942E-01 a       480     0    20     1     5
 -2.5548534601916539E-01 a       481     0    20     1     6
 -5.5704925449049603E-01 a       482     0    20     1     7
  1.6814903681106838E-01 a       483     0    20     1     8
 -1.9978590941373953E-01 a       484     0    20     1     9
  5.9239174574217113E-01 a       485     0    20     1    10
  1.3566847765479365E-01 a       486     0    20     1    11
  2.5160149130641485E-01 a       487     0    20     1    12
 -7.9250128003893194E-03 a       488     0    20     1    13
 -3.1483089124956343E-01 a       489     0    20     1    14
 -3.8542787325678292E-02 a       490     0    20     1    15
 -4.6461378476386694E-01 a       491     0    20     1    16
  5.2169330984630902E-01 a       492     0    20     1    17
  5.8674543408077329E-01 a       493     0    20     1    18
  1.4708299338221537E-01 a       494     0    20     1    19
  3.2633400733604198E-02 a       495     0    20     1    20
  1.4710095674101356E-01 a       496     0    20     1    21
  3.7471328716161212E-01 a       497     0    20     1    22
 -2.4559090360131127E-03 a       498     0    20     1    23
 -4.7786746280952191E-01 a       499     0    20     1    24
 -3.5316012576466366E-01 a       500     0    20     1    25
 -3.2219345785244174E-01 a       501     0    21     1     1
 -1.5577758462143937E-01 a       502     0    21     1     2
 -2.9305047740234658E-01 a       503     0    21     1     3
 -2.2361166093700960E-01 a       504     0    21     1     4
  7.8639085115383894E-02 a       505     0    21     1     5
  5.6979154356739017E-02 a       506     0    21     1     6
 -1.0574563021263125E-02 a       507     0    21     1     7
  8.3252971840708054E-02 a       508     0    21     1     8
  3.4330335620859920E-01 a       509     0    21     1     9
  2.7416298714414855E-01 a       510     0    21     1    10
 -2.8801312779222654E-01 a       511     0    21     1    11
  1.8328744997865615E-01 a       512     0    21     1    12
  2.7641753303233110E-04 a       513     0    21     1    13
  8.8226338500060925E-02 a       514     0    21     1    14
 -3.7405637539752581E-02 a       515     0    21     1    15
 -4.5878237589091447E-01 a       516     0    21     1    16
  6.7186562711784026E-02 a       517     0    21     1    17
  1.6089152593692224E-01 a       518     0    21     1    18
 -9.7615486787000938E-02 a       519     0    21     1    19
  1.3921048047838794E-01 a       520     0    21     1    20
 -3.6432115320100844E-03 a       521     0    21     1    21
 -2.0618063953593932E-01 a       522     0    21     1    22
 -1.1551359056034176E-02 a       523     0    21     1    23
  5.9968699999283601E-02 a       524     0    21     1    24
 -2.3881619949548197E-02 a       525     0    21     1    25
 -1.0203471166822979E-01 a       526     0    22     1     1
  2.9236116662164929E-01 a       527     0    22     1     2
  8.5451536610475984E-02 a       528     0    22     1     3
  1.9962573904863154E-01 a       529     0    22     1     4
  6.2571032816301397E-01 a       530     0    22     1     5
  2.0526116057863006E-01 a       531     0    22     1     6
  3.1654504664559258E-01 a       532     0    22     1     7
  2.8037354059462966E-01 a       533     0    22     1     8
  1.4161532680424924E-01 a       534     0    22     1     9
 -4.8280825099016614E-02 a       535     0    22     1    10
  2.1108143318685033E-01 a       536     0    22     1    11
  3.8222707549534668E-01 a       537     0    22     1    12
  2.4753336449864063E-01 a       538     0    22     1    13
  1.9598291156324638E-01 a       539     0    22     1    14
  2.8639750541479297E-01 a       540     0    22     1    15
 -4.1798251873683684E-01 a       541     0    22     1    16
 -2.4406322088180724E-02 a       542     0    22     1    17
  6.1659632172665257E-01 a       543     0    22     1    18
  3.4947646171306163E-01 a       544     0    22     1    19
 -2.3575488752792870E-01 a       545     0    22     1    20
  1.4764868595847185E-02 a       546     0    22     1    21
 -3.9975680382826490E-01 a       547     0    22     1    22
  3.2492367183782406E-01 a       548     0    22     1    23
 -2.4991245743314655E-01 a       549     0    22     1    24
 -3.0253175879123062E-01 a       550     0    22     1    25
 -2.4453700664509473E-01 a       551     0    23     1     1
 -2.8898575345987410E-01 a       552     0    23     1     2
  2.0924574570947582E-01 a       553     0    23     1     3
  2.6641851239762376E-01 a       554     0    23     1     4
 -2.0093000267945271E-01 a       555     0    23     1     5
 -2.1151992397809580E-01 a       556     0    23     1     6
 -1.5303168602606715E-01 a       557     0    23     1     7
 -1.6366398215559994E-01 a       558     0    23     1     8
 -1.0999175512300367E-01 a       559     0    23     1     9
  1.5531561082140746E-01 a       560     0    23     1    10
  3.3872571303455434E-01 a       561     0    23     1    11
  2.0933918455504744E-01 a       562     0    23     1    12
  3.8962233242116007E-01 a       563     0    23     1    13
 -8.5316161249033955E-03 a       564     0    23     1    14
 -1.4018977191171622E-01 a       565     0    23     1    15
 -2.1397242752270951E-01 a       566     0    23     1    16
  7.9135945438911573E-02 a       567     0    23     1    17
 -3.5226659995360933E-02 a       568     0    23     1    18
  1.0530552557569717E-01 a       569     0    23     1    19
 -3.0134725107722804E-01 a       570     0    23     1    20
  3.8290706559193095E-02 a       571     0    23     1    21
  2.9714980663960161E-01 a       572     0    23     1    22
 -1.6040810703757535E-01 a       573     0    23     1    23
 -2.7923886296102390E-01 a       574     0    23     1    24
  2.4273595368765732E-01 a       575     0    23     1    25
 -9.8406543878840805E-02 a       576     0    24     1     1
  1.7044372214016812E-01 a       577     0    24     1     2
 -2.6820954354088389E-01 a       578     0    24     1     3
  2.9448503652800961E-01 a       579     0    24     1     4
 -1.3307407748114469E-01 a       580     0    24     1     5
  8.2980721025817342E-02 a       581     0    24     1     6
 -4.2222693713019682E-01 a       582     0    24     1     7
 -3.2074520145205887E-01 a       583     0    24     1     8
 -3.0082622791939895E-02 a       584     0    24     1     9
  7.0336306117420866E-01 a       585     0    24     1    10
 -1.4442968260783586E-02 a       586     0    24     1    11
  1.8812642423574519E-01 a       587     0    24     1    12
  2.4473603346723538E-01 a       588     0    24     1    13
 -5.2354719232345456E-02 a       589     0    24     1    14
 -2.3019535080566994E-01 a       590     0    24     1    15
 -2.8879992213411493E-01 a       591     0    24     1    16
  1.2937190881142452E-01 a       592     0    24     1    17
 -2.3287604968450532E-01 a       593     0    24     1    18
  5.0642574406103230E-02 a       594     0    24     1    19
 -3.1639139678143807E-01 a       595     0    24     1    20
 -4.7428608858723215E-01 a       596     0    24     1    21
  4.0667810298722423E-01 a       597     0    24     1    22
 -2.3428372333648462E-01 a       598     0    24     1    23
 -4.9978944771285866E-01 a       599     0    24     1    24
 -5.2423558804730153E-02 a       600     0    24     1    25
 -3.4023551171002903E-01 a       601     0    25     1     1
  6.1990728053300352E-02 a       602     0    25     1     2
  4.4122289476277346E-02 a       603     0    25     1     3
 -1.3105140977005689E-01 a       604     0    25     1     4
  4.4404937740829103E-01 a       605     0    25     1     5
 -1.6766690237923440E-01 a       606     0    25     1     6
 -6.3103114397341820E-01 a       607     0    25     1     7
 -3.7490166883621147E-02 a       608     0    25     1     8
 -1.2977951691619108E-01 a       609     0    25     1     9
  1.3742742915548616E+00 a       610     0    25     1    10
 -2.2598287516448112E-01 a       611     0    25     1    11
  1.8697537301176190E-01 a       612     0    25     1    12
 -5.2884190470244702E-02 a       613     0    25     1    13
 -1.4864462430940717E-01 a       614     0    25     1    14
 -3.5472751519977197E-01 a       615     0    25     1    15
  1.6327574327473279E-01 a       616     0    25     1    16
  1.1430970717350418E-01 a       617     0    25     1    17
  3.6911742749612753E-01 a       618     0    25     1    18
  7.6427871330457989E-02 a       619     0    25     1    19
  3.1043661258462996E-01 a       620     0    25     1    20
 -4.8887009995968383E-01 a       621     0    25     1    21
  3.7947597095961083E-01 a       622     0    25     1    22
 -3.0494148284921846E-01 a       623     0    25     1    23
 -3.4052260670342865E-01 a       624     0    25     1    24
 -1.2587648423899708E-01 a       625     0    25     1    25
 -3.1765034931724008E-02 a       626     0    26     1     1
  8.0023586143298858E-04 a       627     0    26     1     2
 -5.3555564236328304E-02 a       628     0    26     1     3
 -2.6939037327656379E-01 a       629     0    26     1     4
  3.3227185330732623E-01 a       630     0    26     1     5
  2.4922108785895406E-02 a       631     0    26     1     6
  4.5560394697794722E-02 a       632     0    26     1     7
 -2.0795722038518472E-01 a       633     0    26     1     8
  2.1563094549979289E-02 a       634     0    26     1     9
 -3.9384445802432227E-01 a       635     0    26     1    10
 -2.8464424350133394E-01 a       636     0    26     1    11
  3.9313762484861653E-01 a       637     0    26     1    12
  5.6845165689903637E-02 a       638     0    26     1    13
  2.4063463659496770E-01 a       639     0    26     1    14
 -1.8337989968688299E-02 a       640     0    26     1    15
  2.5180656764486531E-01 a       641     0    26     1    16
  1.9547534601800540E-01 a       642     0    26     1    17
  3.0088076885762088E-01 a       643     0    26     1    18
  1.1557830111421687E-01 a       644     0    26     1    19
 -2.0032350525955303E-01 a       645     0    26     1    20
  1.7629169434933303E-01 a       646     0    26     1    21
 -4.6974216152403131E-01 a       647     0    26     1    22
  2.4643786604005655E-01 a       648     0    26     1    23
  8.7844526710730633E-02 a       649     0    26     1    24
 -3.4709532482597483E-01 a       650     0    26     1    25
  2.4917681511022007E-02 a       651     0    27     1     1
 -1.3546668100496589E-01 a       652     0    27     1     2
 -2.2310745546944966E-01 a       653     0    27     1     3
  3.2743854586711529E-01 a       654     0    27     1     4
  2.2904666191223746E-01 a       655     0    27     1     5
  2.6641384820400416E-01 a       656     0    27     1     6
  6.1049577446801076E-02 a       657     0    27     1     7
 -2.1214537815781490E-01 a       658     0    27     1     8
  4.8756939880857435E-02 a       659     0    27     1     9
  5.5544695366399266E-01 a       660     0    27     1    10
  1.5845964938759952E-02 a       661     0    27     1    11
  8.1720647909577199E-02 a       662     0    27     1    12
 -2.0108508639912190E-01 a       663     0    27     1    13
 -3.0394468502165467E-01 a       664     0    27     1    14
  4.6893716174911504E-02 a       665     0    27     1    15
 -3.2516067283482003E-01 a       666     0    27     1    16
  1.8631577589844725E-01 a       667     0    27     1    17
 -1.2875739686114765E-01 a       668     0    27     1    18
  4.3033955715614178E-03 a       669     0    27     1    19
 -1.7900162374404080E-01 a       670     0    27     1    20
 -2.8719866011669654E-01 a       671     0    27     1    21
  2.0330316875520088E-01 a       672     0    27     1    22
  6.5387136825574774E-02 a       673     0    27     1    23
  9.6562832761636103E-02 a       674     0    27     1    24
  2.8193572752341844E-01 a       675     0    27     1    25
  1.6173730516090234E-01 a       676     0    28     1     1
 -4.8786362418946666E-01 a       677     0    28     1     2
 -2.5914539601146025E-01 a       678     0    28     1     3
 -1.3757931404504367E-01 a       679     0    28     1     4
  5.8417867403340440E-01 a       680     0    28     1     5
  2.3634895500223313E-01 a       681     0    28     1     6
 -8.8145241613892034E-02 a       682     0    28     1     7
 -4.5362373601076443E-02 a       683     0    28     1     8
  4.1013393302837525E-01 a       684     0    28     1     9
  9.4262789616678189E-01 a       685     0    28     1    10
  3.4604588520142654E-01 a       686     0    28     1    11
  7.7644805934652936E-02 a       687     0    28     1    12
  3.0461824862185299E-01 a       688     0    28     1    13
 -2.1382294439365124E-01 a       689     0    28     1    14
 -9.3280194004829647E-02 a       690     0    28     1    15
 -3.0765430717938641E-01 a       691     0    28     1    16
  3.0841270630831463E-01 a       692     0    28     1    17
  3.9593957385819561E-01 a       693     0    28     1    18
  6.2191634880223688E-02 a       694     0    28     1    19
 -1.0652483152742082E-01 a       695     0    28     1    20
 -2.4904557733876356E-01 a       696     0    28     1    21
  1.0239634136253623E-01 a       697     0    28     1    22
 -6.2007797417251287E-01 a       698     0    28     1    23
 -3.9205481815741544E-01 a       699     0    28     1    24
  2.4589587274033774E-02 a       700     0    28     1    25
 -2.3183403006739320E-01 a       701     0    29     1     1
  1.1544498162681129E-01 a       702     0    29     1     2
 -5.6497085461255488E-02 a       703     0    29     1     3
 -5.4844281744394777E-02 a       704     0    29     1     4
  2.4942046955012406E-01 a       705     0    29     1     5
  2.4824623295797490E-01 a       706     0    29     1     6
 -2.7031669326994434E-01 a       707     0    29     1     7
  3.7104520750923226E-01 a       708     0    29     1     8
 -5.0545230904535846E-02 a       709     0    29     1     9
 -1.3303926541997518E-01 a       710     0    29     1    10
  3.6438504270232874E-01 a       711     0    29     1    11
  9.6676706794085507E-02 a       712     0    29     1    12
 -1.9542334838550737E-03 a       713     0    29     1    13
 -4.6154733968046108E-01 a       714     0    29     1    14
  8.8978008220651356E-02 a       715     0    29     1    15
 -1.1974606462814519E-01 a       716     0    29     1    16
  1.3492912179681299E-01 a       717     0    29     1    17
  3.7470644923503449E-01 a       718     0    29     1    18
  4.5838808817869697E-01 a       719     0    29     1    19
 -2.0534615789987046E-01 a       720     0    29     1    20
  4.2340553891910004E-01 a       721     0    29     1    21
  3.3471366428902548E-02 a       722     0    29     1    22
 -1.2365648997544025E-01 a       723     0    29     1    23
 -1.2093267015994009E-01 a       724     0    29     1    24
 -1.0931051896192265E-01 a       725     0    29     1    25
 -3.7387820185567333E-01 a       726     0    30     1     1
 -4.1197393429553683E-02 a       727     0    30     1     2
 -1.1396474053562113E-01 a       728     0    30     1     3
 -1.5419002710560931E-01 a       729     0    30     1     4
  4.3105829116548156E-01 a       730     0    30     1     5
 -1.5965732133998198E-01 a       731     0    30     1     6
  5.2408926562064073E-01 a       732     0    30     1     7
  1.0377193229427943E-01 a       733     0    30     1     8
  2.3322478125082780E-01 a       734     0    30     1     9
 -6.1740668047779124E-01 a       735     0    30     1    10
 -9.1592582722192784E-02 a       736     0    30     1    11
 -4.8533497144404449E-02 a       737     0    30     1    12
 -3.7836030498209140E-02 a       738     0    30     1    13
  2.8491533189787127E-01 a       739     0    30     1    14
  2.4463772519484517E-01 a       740     0    30     1    15
 -1.8003634505376404E-01 a       741     0    30     1    16
 -9.4245041544408700E-02 a       742     0    30     1    17
  6.3359749492345974E-01 a       743     0    30     1    18
  3.7815901958767530E-02 a       744     0    30     1    19
 -2.3248783425753164E-01 a       745     0    30     1    20
  2.7486025020272631E-01 a       746     0    30     1    21
  1.8305054017363671E-02 a       747     0    30     1    22
  4.7984098482182308E-01 a       748     0    30     1    23
  3.3483401829967480E-01 a       749     0    30     1    24
  7.7280258343445776E-02 a       750     0    30     1    25
 -6.2319346077858973E-01 b       751     1     1
 -3.8817092378979701E-01 b       752     1     2
 -7.4310137737460391E-01 b       753     1     3
  3.6706677229364765E-01 b       754     1     4
  1.7174048606961760E+00 b       755     1     5
 -2.2676413906668869E-01 b       756     1     6
  4.6200988463251780E-01 b       757     1     7
 -3.6796671897674393E-01 b       758     1     8
 -5.1072446389246107E-01 b       759     1     9
 -2.9877802353843891E-01 b       760     1    10
 -1.8683548524008514E-01 b       761     1    11
  5.9136078035989559E-01 b       762     1    12
  3.0636804126420247E-01 b       763     1    13
  1.0313906644233313E+00 b       764     1    14
  7.5947533192086158E-01 b       765     1    15
 -7.4908221657191720E-01 b       766     1    16
  6.3419909860196344E-01 b       767     1    17
  2.7049350377836556E+00 b       768     1    18
  8.2449364109518508E-01 b       769     1    19
 -3.1897828197251760E-01 b       770     1    20
  5.8757380260615033E-01 b       771     1    21
 -7.3651523220481818E-01 b       772     1    22
  3.6753248693158819E-01 b       773     1    23
  4.2795623045354519E-01 b       774     1    24
 -6.7128597868367423E-01 b       775     1    25
 -7.3096158888277460E-02 a       776     1     1     2     1
  2.9309609420631322E-01 a       777     1     1     2     2
  6.1188395633751835E-01 a       778     1     1     2     3
 -2.2668556805586035E-02 a       779     1     1     2     4
  6.5030946887305818E-02 a       780     1     1     2     5
 -1.1866727995436725E-01 a       781     1     1     2     6
 -2.6711624545412038E-01 a       782     1     1     2     7
 -4.2376367627922118E-01 a       783     1     1     2     8
 -8.3535704228827695E-02 a       784     1     1     2     9
  2.8585457426380498E-02 a       785     1     1     2    10
  1.9979391498471660E-01 a       786     1     1     2    11
 -4.0097268710986922E-03 a       787     1     1     2    12
 -4.9830200209328560E-02 a       788     1     1     2    13
 -7.0667927239725814E-01 a       789     1     1     2    14
 -3.8074457567907433E-01 a       790     1     1     2    15
 -6.3551293667483411E-02 a       791     1     1     2    16
 -8.3289803406649668E-02 a       792     1     1     2    17
 -2.4698144536861816E-01 a       793     1     1     2    18
 -9.5350444263959167E-02 a       794     1     1     2    19
 -4.4671601081140197E-02 a       795     1     1     2    20
  1.8151669440769144E-01 a       796     1     1     2    21
 -2.1090652586061157E-01 a       797     1     1     2    22
 -2.2788680597141683E-01 a       798     1     1     2    23
 -1.5008659342755451E-01 a       799     1     1     2    24
  1.3031875237845780E-01 a       800     1     1     2    25
  5.6916732006142633E-02 a       801     1     2     2     1
 -4.2352331321664057E-02 a       802     1     2     2     2
  3.0404013600492041E-01 a       803     1     2     2     3
  3.3750852861357622E-01 a       804     1     2     2     4
  1.0305718555933717E-01 a       805     1     2     2     5
  5.4777692477602037E-02 a       806     1     2     2     6
  2.1384872580470440E-01 a       807     1     2     2     7
  1.3227736983304497E-01 a       808     1     2     2     8
  8.8396142302500230E-03 a       809     1     2     2     9
  1.5618282264826705E-01 a       810     1     2     2    10
  4.3462918659770505E-02 a       811     1     2     2    11
 -3.4750323158354296E-01 a       812     1     2     2    12
  1.9683533192579355E-02 a       813     1     2     2    13
 -5.1116207668949576E-01 a       814     1     2     2    14
  2.7973471612119510E-01 a       815     1     2     2    15
 -9.2613602349831368E-03 a       816     1     2     2    16
  4.6235626188692196E-02 a       817     1     2     2    17
 -1.1370035760593400E-01 a       818     1     2     2    18
  2.3677842221895828E-01 a       819     1     2     2    19
  1.7853726968131434E-01 a       820     1     2     2    20
 -1.6176213967811776E-01 a       821     1     2     2    21
  2.3349242522461613E-01 a       822     1     2     2    22
  3.9188200588209071E-01 a       823     1     2     2    23
  2.8518127976703339E-01 a       824     1     2     2    24
 -2.0218119902505442E-02 a       825     1     2     2    25
  1.7645814937826829E-01 a       826     1     3     2     1
  3.5193676190978840E-01 a       827     1     3     2     2
  3.6758323858566921E-01 a       828     1     3     2     3
  1.4545939585523984E-01 a       829     1     3     2     4
  1.5752908370339849E-02 a       830     1     3     2     5
  2.0753987251969264E-01 a       831     1     3     2     6
 -1.8772486059932031E-01 a       832     1     3     2     7
 -1.1534816427037936E-01 a       833     1     3     2     8
 -2.4114588862248340E-01 a       834     1     3     2     9
  8.1584335413944636E-02 a       835     1     3     2    10
 -1.5890018113526644E-01 a       836     1     3     2    11
 -1.0377432401092808E-01 a       837     1     3     2    12
 -1.8027766985522226E-01 a       838     1     3     2    13
 -6.7311053660672182E-01 a       839     1     3     2    14
 -2.3891416752750733E-01 a       840     1     3     2    15
  3.4684004870317431E-01 a       841     1     3     2    16
  2.2078408543354741E-01 a       842     1     3     2    17
  2.8599658500239733E-01 a       843     1     3     2    18
 -3.8526408649953775E-01 a       844     1     3     2    19
  1.6564689988254969E-01 a       845     1     3     2    20
 -3.4986522532238540E-01 a       846     1     3     2    21
 -1.6174730846195459E-01 a       847     1     3     2    22
  3.5800714068304279E-01 a       848     1     3     2    23
 -6.8404570530758407E-02 a       849     1     3     2    24
  2.0660467867781698E-01 a       850     1     3     2    25
  1.5874140620518037E-01 a       851     1     4     2     1
 -2.1065292093910018E-01 a       852     1     4     2     2
 -4.8106571474396698E-01 a       853     1     4     2     3
  1.5829823977722782E-01 a       854     1     4     2     4
 -1.3539953158113460E-01 a       855     1     4     2     5
 -1.1196689324410602E-01 a       856     1     4     2     6
 -3.9836758236605962E-03 a       857     1     4     2     7
  2.2830031036959044E-02 a       858     1     4     2     8
  1.8725318155072543E-01 a       859     1     4     2     9
  6.3531128047220622E-02 a       860     1     4     2    10
 -4.3039222266817745E-01 a       861     1     4     2    11
 -2.6398066944534149E-01 a       862     1     4     2    12
 -3.5898169377499001E-01 a       863     1     4     2    13
  3.3240878293774229E-01 a       864     1     4     2    14
 -7.9267521350214171E-02 a       865     1     4     2    15
  1.2670828670716708E-01 a       866     1     4     2    16
 -5.7381446217386334E-02 a       867     1     4     2    17
  2.9756679165503003E-01 a       868     1     4     2    18
  3.6215420532160963E-01 a       869     1     4     2    19
 -1.8012068279284565E-01 a       870     1     4     2    20
  1.6007478582603873E-01 a       871     1     4     2    21
 -8.3414493200676849E-03 a       872     1     4     2    22
  1.0555997621417444E-01 a       873     1     4     2    23
 -2.2218777627292166E-01 a       874     1     4     2    24
 -9.1698112002715181E-03 a       875     1     4     2    25
 -1.6919141577681554E-01 a       876     1     5     2     1
 -3.6026135418585420E-01 a       877     1     5     2     2
 -3.6839884735312461E-01 a       878     1     5     2     3
  3.0211241339426025E-02 a       879     1     5     2     4
 -4.0392316223233515E-01 a       880     1     5     2     5
  1.9972599381609379E-01 a       881     1     5     2     6
  4.9835394397732885E-01 a       882     1     5     2     7
  2.4400883036278004E-01 a       883     1     5     2     8
 -1.3201877950931284E-01 a       884     1     5     2     9
 -2.5044204080062832E-02 a       885     1     5     2    10
 -3.9153208791555899E-01 a       886     1     5     2    11
  1.2104783215411082E-01 a       887     1     5     2    12
 -3.5732178382873225E-01 a       888     1     5     2    13
  2.4864544772920427E-01 a       889     1     5     2    14
  1.5451403400692043E-01 a       890     1     5     2    15
 -6.0185776037923877E-01 a       891     1     5     2    16
  8.8122338850538523E-02 a       892     1     5     2    17
  3.8063774050104032E-01 a       893     1     5     2    18
 -6.8821371771331352E-02 a       894     1     5     2    19
 -4.2608392267414524E-01 a       895     1     5     2    20
  1.2752182858081812E-01 a       896     1     5     2    21
  2.9526908224150045E-01 a       897     1     5     2    22
 -3.8432634857013737E-01 a       898     1     5     2    23
  3.1528092302671262E-01 a       899     1     5     2    24
 -2.7213063798010800E-01 a       900     1     5     2    25
 -3.2733186032650713E-02 a       901     1     6     2     1
 -2.3622899263037598E-02 a       902     1     6     2     2
 -5.1505436581285674E-02 a       903     1     6     2     3
  2.2741255068317354E-01 a       904     1     6     2     4
 -2.8791595339159636E-03 a       905     1     6     2     5
 -2.9550960402453391E-01 a       906     1     6     2     6
 -5.4538574105562732E-02 a       907     1     6     2     7
  1.7923163725073926E-01 a       908     1     6     2     8
  1.7733463379785519E-01 a       909     1     6     2     9
  8.8507192072278418E-02 a       910     1     6     2    10
  2.3255800891235254E-01 a       911     1     6     2    11
  8.6438324910329462E-02 a       912     1     6     2    12
 -1.8575506301338812E-01 a       913     1     6     2    13
 -4.9950243389236748E-01 a       914     1     6     2    14
 -3.5585084772128056E-01 a       915     1     6     2    15
 -1.7048764052620827E-01 a       916     1     6     2    16
  1.4950664575564188E-01 a       917     1     6     2    17
  6.1646227246975591E-02 a       918     1     6     2    18
 -5.0214419943191001E-02 a       919     1     6     2    19
  2.4140743243201074E-01 a       920     1     6     2    20
 -8.5426141324212876E-02 a       921     1     6     2    21
  1.2089107251586816E-01 a       922     1     6     2    22
  1.6425457662477869E-01 a       923     1     6     2    23
  8.5235859713937101E-02 a       924     1     6     2    24
  2.2263949585893117E-02 a       925     1     6     2    25
 -2.6096558085050059E-01 a       926     1     7     2     1
 -2.5945909237991538E-01 a       927     1     7     2     2
  1.7625965005784539E-01 a       928     1     7     2     3
 -9.3302958071536546E-02 a       929     1     7     2     4
 -5.1949745391660487E-02 a       930     1     7     2     5
  5.2219463043535685E-01 a       931     1     7     2     6
  2.1454203152382481E-01 a       932     1     7     2     7
  2.2291010310657430E-01 a       933     1     7     2     8
  4.4272278566560086E-01 a       934     1     7     2     9
 -3.1369126826860183E-01 a       935     1     7     2    10
  7.7933722880590472E-02 a       936     1     7     2    11
 -2.7412505580552859E-01 a       937     1     7     2    12
 -9.9395197254252013E-02 a       938     1     7     2    13
 -9.5146593422084300E-03 a       939     1     7     2    14
 -2.5251145859348012E-01 a       940     1     7     2    15
 -1.0948525638785978E-01 a       941     1     7     2    16
 -1.4906558269972478E-01 a       942     1     7     2    17
  1.7404703516950784E-01 a       943     1     7     2    18
  2.8081028756916282E-01 a       944     1     7     2    19
 -5.7351724656900216E-01 a       945     1     7     2    20
 -1.9701194959621462E-01 a       946     1     7     2    21
  5.8353230075652553E-02 a       947     1     7     2    22
 -3.7770438180582078E-01 a       948     1     7     2    23
 -3.1380511270532471E-02 a       949     1     7     2    24
  2.5879434559341920E-03 a       950     1     7     2    25
 -2.0899527852209471E-01 a       951     1     8     2     1
  2.5182951736499010E-01 a       952     1     8     2     2
 -5.3999439407465943E-03 a       953     1     8     2     3
 -1.3907255853306458E-01 a       954     1     8     2     4
  9.4035948449017165E-02 a       955     1     8     2     5
 -3.2240101305730251E-01 a       956     1     8     2     6
  1.9090722482523395E-01 a       957     1     8     2     7
  4.6393472549380900E-02 a       958     1     8     2     8
  9.0293703877393924E-02 a       959     1     8     2     9
 -1.3091537720814467E-01 a       960     1     8     2    10
 -1.1646507698250209E-01 a       961     1     8     2    11
 -1.4046769259675390E-01 a       962     1     8     2    12
 -6.8238662631232710E-02 a       963     1     8     2    13
 -3.0696583080622947E-01 a       964     1     8     2    14
 -2.6834013336419560E-01 a       965     1     8     2    15
  2.3540847464868178E-01 a       966     1     8     2    16
 -8.5320801402580415E-02 a       967     1     8     2    17
  4.9854533362989534E-02 a       968     1     8     2    18
 -2.5375537783729996E-01 a       969     1     8     2    19
  5.1094155723787747E-02 a       970     1     8     2    20
  4.5477947301363994E-02 a       971     1     8     2    21
  1.8744502260233023E-01 a       972     1     8     2    22
  3.5484320010493786E-01 a       973     1     8     2    23
  3.4551251707309959E-02 a       974     1     8     2    24
  2.8356227833972147E-01 a       975     1     8     2    25
 -9.6241613574598900E-02 a       976     1     9     2     1
 -3.4520765873545994E-02 a       977     1     9     2     2
  2.2378151776428151E-01 a       978     1     9     2     3
 -9.3415509801961602E-02 a       979     1     9     2     4
  1.0555584771688478E-01 a       980     1     9     2     5
 -2.2447542580146232E-01 a       981     1     9     2     6
  7.1477816321497273E-02 a       982     1     9     2     7
 -1.0115149794323496E-02 a       983     1     9     2     8
 -3.4003904378527466E-01 a       984     1     9     2     9
  2.8149046918902576E-01 a       985     1     9     2    10
  1.2434718464563321E-01 a       986     1     9     2    11
 -4.4343110825282160E-02 a       987     1     9     2    12
  2.6708935550725016E-01 a       988     1     9     2    13
 -2.3940428760069377E-01 a       989     1     9     2    14
 -2.7808703724028805E-01 a       990     1     9     2    15
  3.0289517323586357E-01 a       991     1     9     2    16
  1.4305681053816538E-01 a       992     1     9     2    17
  3.1856527586907012E-02 a       993     1     9     2    18
 -2.8278650031054897E-01 a       994     1     9     2    19
  2.5533541160244433E-01 a       995     1     9     2    20
 -9.4061213237495209E-02 a       996     1     9     2    21
  2.7573727236244114E-02 a       997     1     9     2    22
 -1.1024324064644152E-01 a       998     1     9     2    23
  6.5224315771368307E-02 a       999     1     9     2    24
  5.2683613539151096E-02 a      1000     1     9     2    25
  9.0204969317890377E-02 a      1001     1    10     2     1
  5.0680115633220335E-01 a      1002     1    10     2     2
 -6.2207136463285273E-01 a      1003     1    10     2     3
  2.4769946361452211E-01 a      1004     1    10     2     4
  2.6387171669500574E-02 a      1005     1    10     2     5
 -2.7312751706874827E-01 a      1006     1    10     2     6
 -2.1858700173740980E-01 a      1007     1    10     2     7
 -3.7290048794169367E-01 a      1008     1    10     2     8
 -1.6878034610197226E-01 a      1009     1    10     2     9
  7.1043825369358127E-01 a      1010     1    10     2    10
  2.5996002238090010E-01 a      1011     1    10     2    11
 -4.5065637326560759E-01 a      1012     1    10     2    12
 -1.0982515754061979E-01 a      1013     1    10     2    13
  8.6663426883134209E-01 a      1014     1    10     2    14
 -5.8943537668869388E-02 a      1015     1    10     2    15
  3.2872859863750525E-01 a      1016     1    10     2    16
 -5.7393305493946101E-01 a      1017     1    10     2    17
 -7.5783415352765143E-02 a      1018     1    10     2    18
 -4.6389713973819469E-01 a      1019     1    10     2    19
  3.8547798232070662E-01 a      1020     1    10     2    20
 -9.7705688272305288E-02 a      1021     1    10     2    21
 -1.0702946185433306E-01 a      1022     1    10     2    22
  3.1449965667006635E-01 a      1023     1    10     2    23
 -5.2899219580316992E-01 a      1024     1    10     2    24
  3.4885924185008765E-01 a      1025     1    10     2    25
  8.3485751985569623E-02 a      1026     1    11     2     1
  3.8391405638125409E-01 a      1027     1    11     2     2
 -1.1057352490145397E-01 a      1028     1    11     2     3
  1.1919331542272688E-01 a      1029     1    11     2     4
 -1.0631629877788043E-01 a      1030     1    11     2     5
  3.1449801407337642E-02 a      1031     1    11     2     6
 -6.8676589030698842E-02 a      1032     1    11     2     7
  1.7390026255791494E-01 a      1033     1    11     2     8
 -2.1529869328438372E-01 a      1034     1    11     2     9
 -3.0915602844906420E-01 a      1035     1    11     2    10
 -3.4799384350503026E-01 a      1036     1    11     2    11
 -1.3831462463522443E-01 a      1037     1    11     2    12
 -2.6894885163984694E-01 a      1038     1    11     2    13
 -2.8044811724161550E-01 a      1039     1    11     2    14
 -1.2753527975530654E-01 a      1040     1    11     2    15
  5.3794491622569482E-02 a      1041     1    11     2    16
  5.3645343480011642E-01 a      1042     1    11     2    17
 -1.3240330439363932E-01 a      1043     1    11     2    18
 -1.8418019063357541E-01 a      1044     1    11     2    19
  2.1400758250007126E-01 a      1045     1    11     2    20
 -2.6776868146717758E-01 a      1046     1    11     2    21
  3.2519199084930323E-01 a      1047     1    11     2    22
  1.2111597866475159E-01 a      1048     1    11     2    23
  1.1815784327780235E-01 a      1049     1    11     2    24
 -5.8242577906319065E-03 a      1050     1    11     2    25
  3.1928762604527323E-02 a      1051     1    12     2     1
 -2.6295260401710336E-02 a      1052     1    12     2     2
 -6.0577925257972864E-01 a      1053     1    12     2     3
 -3.6356690316678231E-01 a      1054     1    12     2     4
 -3.4687064823061725E-01 a      1055     1    12     2     5
 -5.7270899996627558E-02 a      1056     1    12     2     6
 -9.5911266465246364E-02 a      1057     1    12     2     7
  6.2458892747932404E-01 a      1058     1    12     2     8
  3.2770929274503152E-01 a      1059     1    12     2     9
 -6.1980666332581008E-02 a      1060     1    12     2    10
 -1.1879584910610604E-01 a      1061     1    12     2    11
 -2.0232061556744588E-01 a      1062     1    12     2    12
 -1.9575424886886716E-01 a      1063     1    12     2    13
  4.0195106040120854E-01 a      1064     1    12     2    14
  8.1087892285172505E-02 a      1065     1    12     2    15
  1.7169457621274680E-03 a      1066     1    12     2    16
  1.1614467473341498E-01 a      1067     1    12     2    17
  4.6031005455974987E-02 a      1068     1    12     2    18
  1.7063402188763940E-01 a      1069     1    12     2    19
  2.6116517635129133E-01 a      1070     1    12     2    20
  8.5731429003155543E-02 a      1071     1    12     2    21
  1.5917670629439117E-02 a      1072     1    12     2    22
  1.1261913457978902E-01 a      1073     1    12     2    23
 -8.8956508654461475E-02 a      1074     1    12     2    24
 -4.6090329503200583E-01 a      1075     1    12     2    25
 -1.2929867565851549E-01 a      1076     1    13     2     1
  2.9363924165896109E-02 a      1077     1    13     2     2
 -2.9783976149090546E-01 a      1078     1    13     2     3
 -1.2308387913699320E-01 a      1079     1    13     2     4
 -1.0609980072501562E-01 a      1080     1    13     2     5
  3.1800112953537607E-01 a      1081     1    13     2     6
  2.3183308584653539E-01 a      1082     1    13     2     7
  8.9968361127088607E-03 a      1083     1    13     2     8
 -2.5979126582570476E-02 a      1084     1    13     2     9
  8.1512289949184441E-02 a      1085     1    13     2    10
  2.0400866948280677E-01 a      1086     1    13     2    11
 -1.8598616485841049E-01 a      1087     1    13     2    12
 -3.8512538738264168E-01 a      1088     1    13     2    13
  2.0509227505821623E-01 a      1089     1    13     2    14
  1.3164063851313274E-01 a      1090     1    13     2    15
 -6.4806636705486892E-02 a      1091     1    13     2    16
  5.2259750028677616E-02 a      1092     1    13     2    17
  3.8980548725334963E-01 a      1093     1    13     2    18
  3.5690740030604712E-01 a      1094     1    13     2    19
 -8.1811625721181905E-02 a      1095     1    13     2    20
  4.0313047480310123E-02 a      1096     1    13     2    21
 -1.7330810480633699E-01 a      1097     1    13     2    22
  1.1387133922487924E-01 a      1098     1    13     2    23
 -4.1822913504940003E-02 a      1099     1    13     2    24
 -2.7996787235500348E-01 a      1100     1    13     2    25
 -2.2248111987929869E-01 a      1101     1    14     2     1
 -3.2004769778324997E-02 a      1102     1    14     2     2
 -1.2308644464759215E-01 a      1103     1    14     2     3
 -1.1379393534401332E-01 a      1104     1    14     2     4
  4.4746597572374661E-02 a      1105     1    14     2     5
 -1.9219857558896314E-01 a      1106     1    14     2     6
  3.8834060394699894E-02 a      1107     1    14     2     7
  3.7563380863670065E-01 a      1108     1    14     2     8
  1.3130257384470589E-01 a      1109     1    14     2     9
  1.4240775486252275E-01 a      1110     1    14     2    10
 -1.3159579628157005E-02 a      1111     1    14     2    11
  2.9475017307850537E-01 a      1112     1    14     2    12
 -1.4837790469182363E-01 a      1113     1    14     2    13
  2.3317287451801727E-01 a      1114     1    14     2    14
 -3.5269897942892245E-02 a      1115     1    14     2    15
 -3.6246136812514257E-01 a      1116     1    14     2    16
 -9.6103995919934196E-02 a      1117     1    14     2    17
 -2.5428302068576991E-01 a      1118     1    14     2    18
  2.4359468183101793E-01 a      1119     1    14     2    19
 -4.6204219816593939E-01 a      1120     1    14     2    20
 -1.8139343687004619E-01 a      1121     1    14     2    21
  4.1617778868016803E-01 a      1122     1    14     2    22
 -4.3658414983359772E-01 a      1123     1    14     2    23
 -1.9264632990654944E-02 a      1124     1    14     2    24
 -3.4066161908927151E-01 a      1125     1    14     2    25
 -2.7348414963534484E-01 a      1126     1    15     2     1
 -6.6343118684521543E-02 a      1127     1    15     2     2
 -2.5923084123552664E-01 a      1128     1    15     2     3
  2.6503885726135143E-02 a      1129     1    15     2     4
 -5.1773584481572321E-02 a      1130     1    15     2     5
 -6.1393590037599109E-02 a      1131     1    15     2     6
  3.9808253587922060E-01 a      1132     1    15     2     7
  4.0271284700553334E-01 a      1133     1    15     2     8
  2.2418639000735685E-01 a      1134     1    15     2     9
 -3.0796693888009991E-01 a      1135     1    15     2    10
 -3.1403057352217295E-01 a      1136     1    15     2    11
  1.7168753064168352E-01 a      1137     1    15     2    12
  8.2294867205721184E-02 a      1138     1    15     2    13
  1.7007387704495200E-01 a      1139     1    15     2    14
 -7.2998962071909798E-02 a      1140     1    15     2    15
 -2.2568867663721015E-01 a      1141     1    15     2    16
 -1.2043575890031524E-01 a      1142     1    15     2    17
 -1.6218210027232427E-01 a      1143     1    15     2    18
 -6.8460609408980772E-02 a      1144     1    15     2    19
 -2.8485494894076302E-01 a      1145     1    15     2    20
  8.9890588147899159E-02 a      1146     1    15     2    21
  3.0141964349805561E-01 a      1147     1    15     2    22
 -2.0871663317876885E-01 a      1148     1    15     2    23
  2.9752995227890638E-01 a      1149     1    15     2    24
  2.0099922821233948E-01 a      1150     1    15     2    25
 -4.5493245211269163E-03 a      1151     1    16     2     1
  4.4574050400638998E-01 a      1152     1    16     2     2
  5.5760940836025907E-01 a      1153     1    16     2     3
  2.3892505241373423E-02 a      1154     1    16     2     4
  2.0559042455985096E-01 a      1155     1    16     2     5
 -1.6314195940923551E-01 a      1156     1    16     2     6
  6.2444708294620618E-03 a      1157     1    16     2     7
 -1.1834101268648560E-01 a      1158     1    16     2     8
  1.4075911544552944E-01 a      1159     1    16     2     9
 -1.7759813667697383E-01 a      1160     1    16     2    10
 -3.0156697262687121E-01 a      1161     1    16     2    11
 -2.3256128686564967E-01 a      1162     1    16     2    12
 -1.7325270293080314E-01 a      1163     1    16     2    13
 -9.1196134482887126E-01 a      1164     1    16     2    14
  3.8947719925589930E-01 a      1165     1    16     2    15
 -2.0077060919431949E-01 a      1166     1    16     2    16
  1.5450903392561882E-01 a      1167     1    16     2    17
  1.3621510730192676E-01 a      1168     1    16     2    18
 -3.7885136423532689E-01 a      1169     1    16     2    19
 -6.8479858205518385E-02 a      1170     1    16     2    20
  5.0573612797110146E-02 a      1171     1    16     2    21
  3.8924296974397685E-02 a      1172     1    16     2    22
  3.2588481267868508E-01 a      1173     1    16     2    23
 -2.5448568181738518E-01 a      1174     1    16     2    24
  4.5913307091277444E-01 a      1175     1    16     2    25
 -1.8510278209608602E-01 a      1176     1    17     2     1
 -2.4233618771474957E-01 a      1177     1    17     2     2
 -5.8768396709867110E-01 a      1178     1    17     2     3
  4.6926903130272576E-02 a      1179     1    17     2     4
 -1.2454407164949159E-01 a      1180     1    17     2     5
 -4.5376290714682355E-02 a      1181     1    17     2     6
  1.0944839401146425E-02 a      1182     1    17     2     7
  1.1010814647495869E-01 a      1183     1    17     2     8
  1.2197320263747674E-01 a      1184     1    17     2     9
 -6.1804891383325525E-02 a      1185     1    17     2    10
  9.5633492205308201E-02 a      1186     1    17     2    11
 -3.0828502564710147E-02 a      1187     1    17     2    12
  1.6473034008746534E-01 a      1188     1    17     2    13
  6.6845406477611047E-01 a      1189     1    17     2    14
  2.5455842769489084E-01 a      1190     1    17     2    15
  7.4604398074983383E-02 a      1191     1    17     2    16
  2.6307735632763368E-01 a      1192     1    17     2    17
  1.4851460378720160E-01 a      1193     1    17     2    18
  2.6432628980197111E-02 a      1194     1    17     2    19
 -3.8034476528979531E-02 a      1195     1    17     2    20
 -2.7964983006229616E-01 a      1196     1    17     2    21
  8.5511505889617243E-02 a      1197     1    17     2    22
  3.8868275520204010E-03 a      1198     1    17     2    23
 -2.2978316540864110E-01 a      1199     1    17     2    24
 -1.3610792727745491E-01 a      1200     1    17     2    25
 -3.4471572265760794E-02 a      1201     1    18     2     1
 -4.3794661791562606E-01 a      1202     1    18     2     2
 -9.7794798637766675E-02 a      1203     1    18     2     3
  5.5125912056599224E-02 a      1204     1    18     2     4
 -1.1561656813047623E-01 a      1205     1    18     2     5
  3.5123117801326792E-01 a      1206     1    18     2     6
  5.2859590547913027E-01 a      1207     1    18     2     7
  2.3931065335704105E-01 a      1208     1    18     2     8
  3.5478329553102861E-01 a      1209     1    18     2     9
 -6.9117311570348478E-02 a      1210     1    18     2    10
 -3.4936580639375808E-01 a      1211     1    18     2    11
  2.5669727503880624E-01 a      1212     1    18     2    12
 -2.6470147611104805E-01 a      1213     1    18     2    13
  8.4461316813404380E-02 a      1214     1    18     2    14
 -5.0228749614157478E-02 a      1215     1    18     2    15
 -8.0029277998997794E-01 a      1216     1    18     2    16
  3.0424270024700345E-01 a      1217     1    18     2    17
  2.7061269080119021E-01 a      1218     1    18     2    18
  1.1433834748740854E-01 a      1219     1    18     2    19
 -7.8783415189065598E-01 a      1220     1    18     2    20
 -1.5078117111011102E-01 a      1221     1    18     2    21
  1.4458134119401075E-01 a      1222     1    18     2    22
 -2.3898924233828889E-01 a      1223     1    18     2    23
 -8.7126510308450339E-02 a      1224     1    18     2    24
 -4.2859282957418371E-01 a      1225     1    18     2    25
 -1.3796065849132480E-01 a      1226     1    19     2     1
 -7.0566158264032050E-02 a      1227     1    19     2     2
 -1.3467287655707499E-01 a      1228     1    19     2     3
  5.1136220759172749E-02 a      1229     1    19     2     4
  3.4438589864203568E-02 a      1230     1    19     2     5
 -2.5099407412105551E-01 a      1231     1    19     2     6
 -6.0801419172212566E-02 a      1232     1    19     2     7
 -2.7269709775060286E-02 a      1233     1    19     2     8
  4.6234770420872373E-02 a      1234     1    19     2     9
  4.2202929136244613E-03 a      1235     1    19     2    10
  7.0441451857859064E-02 a      1236     1    19     2    11
  1.6034012471321346E-01 a      1237     1    19     2    12
  1.5812255393638133E-02 a      1238     1    19     2    13
  5.5607656912301340E-01 a      1239     1    19     2    14
  8.9435455983673445E-02 a      1240     1    19     2    15
 -2.5016815493058087E-01 a      1241     1    19     2    16
  1.8160281934731470E-01 a      1242     1    19     2    17
  4.1554236359533664E-01 a      1243     1    19     2    18
 -1.1986123200593544E-01 a      1244     1    19     2    19
 -1.8521718779880708E-01 a      1245     1    19     2    20
 -2.0936132442063057E-01 a      1246     1    19     2    21
  1.0657345630477387E-01 a      1247     1    19     2    22
 -2.9452271422357562E-01 a      1248     1    19     2    23
  2.8178579664140851E-01 a      1249     1    19     2    24
 -2.7891276586638253E-01 a      1250     1    19     2    25
  7.2442423205030346E-02 a      1251     1    20     2     1
 -1.1542210769219605E-01 a      1252     1    20     2     2
  2.8403224619422929E-01 a      1253     1    20     2     3
 -1.3853106476073204E-01 a      1254     1    20     2     4
  3.4681373265520904E-01 a      1255     1    20     2     5
  9.9251842805708604E-02 a      1256     1    20     2     6
 -1.9582854009735375E-03 a      1257     1    20     2     7
 -1.3513165401350363E-01 a      1258     1    20     2     8
 -1.0577321761124173E-01 a      1259     1    20     2     9
  1.8412438004028542E-01 a      1260     1    20     2    10
  1.6185870573928593E-01 a      1261     1    20     2    11
  1.5887401413649141E-01 a      1262     1    20     2    12
  3.4188226965907520E-01 a      1263     1    20     2    13
 -3.0691899196725775E-01 a      1264     1    20     2    14
 -1.5130898432462128E-01 a      1265     1    20     2    15
 -9.0305125476080689E-02 a      1266     1    20     2    16
  4.3735688903119380E-02 a      1267     1    20     2    17
 -7.4475786789925807E-02 a      1268     1    20     2    18
  1.1659425041469462E-01 a      1269     1    20     2    19
 -1.1356320871182485E-03 a      1270     1    20     2    20
  3.3747839597135026E-01 a      1271     1    20     2    21
 -5.2318759698857846E-02 a      1272     1    20     2    22
 -8.8409633751297789E-02 a      1273     1    20     2    23
 -8.8000150893823292E-02 a      1274     1    20     2    24
  4.7645986170244520E-01 a      1275     1    20     2    25
  1.5361062179666243E-01 a      1276     1    21     2     1
 -4.4486681909210968E-01 a      1277     1    21     2     2
  1.7828521901643904E-01 a      1278     1    21     2     3
 -3.4168340989185864E-01 a      1279     1    21     2     4
  9.0311000887972476E-02 a      1280     1    21     2     5
  3.8549388875725471E-01 a      1281     1    21     2     6
 -1.1654805552559634E-01 a      1282     1    21     2     7
 -8.2696361558577972E-02 a      1283     1    21     2     8
  1.7803827255313688E-02 a      1284     1    21     2     9
 -3.4623709403257436E-01 a      1285     1    21     2    10
  2.0191216442400933E-01 a      1286     1    21     2    11
  1.2861705293104223E-01 a      1287     1    21     2    12
  1.2064656030028399E-01 a      1288     1    21     2    13
  2.9015529442152777E-01 a      1289     1    21     2    14
 -4.0818830818434300E-02 a      1290     1    21     2    15
 -3.8256294056971424E-01 a      1291     1    21     2    16
 -2.9258248146570959E-01 a      1292     1    21     2    17
 -1.0516118571055899E-01 a      1293     1    21     2    18
  2.8948947891391485E-01 a      1294     1    21     2    19
 -8.6063781322930452E-02 a      1295     1    21     2    20
  2.5267364246323830E-02 a      1296     1    21     2    21
  3.1101487126166749E-01 a      1297     1    21     2    22
 -3.4600817406456830E-01 a      1298     1    21     2    23
  2.8786027883086589E-02 a      1299     1    21     2    24
 -1.0410732960604387E-01 a      1300     1    21     2    25
  2.5335118587750438E-01 a      1301     1    22     2     1
  3.0006022929505738E-01 a      1302     1    22     2     2
  3.2135309960990416E-01 a      1303     1    22     2     3
  1.7882812797363151E-01 a      1304     1    22     2     4
 -1.1109733842891137E-01 a      1305     1    22     2     5
  1.0381803280717780E-01 a      1306     1    22     2     6
 -4.1107345077416235E-01 a      1307     1    22     2     7
  1.6076802744181298E-01 a      1308     1    22     2     8
  7.1028847971773793E-02 a      1309     1    22     2     9
  1.5712108271671452E-01 a      1310     1    22     2    10
 -7.4405290484471462E-02 a      1311     1    22     2    11
 -3.4458239673508373E-01 a      1312     1    22     2    12
  2.8271198573807621E-01 a      1313     1    22     2    13
 -1.4384533132301211E-01 a      1314     1    22     2    14
 -2.2873781731967316E-01 a      1315     1    22     2    15
  7.1738824634668866E-02 a      1316     1    22     2    16
  3.9785470904798989E-02 a      1317     1    22     2    17
 -2.8837060506961981E-01 a      1318     1    22     2    18
 -2.0105260720097076E-01 a      1319     1    22     2    19
  3.3624894713573961E-01 a      1320     1    22     2    20
 -1.2970707525713451E-01 a      1321     1    22     2    21
 -2.9286250592872387E-01 a      1322     1    22     2    22
  3.8195100186146924E-01 a      1323     1    22     2    23
 -1.1451434034507424E-01 a      1324     1    22     2    24
  3.7077529476109394E-01 a      1325     1    22     2    25
 -3.1319809710756075E-01 a      1326     1    23     2     1
 -4.2898636400334267E-01 a      1327     1    23     2     2
 -9.4830178094288578E-02 a      1328     1    23     2     3
 -3.2555653677186547E-01 a      1329     1    23     2     4
 -1.2510646445024068E-01 a      1330     1    23     2     5
  1.4777964027811616E-01 a      1331     1    23     2     6
  2.0703582720852598E-01 a      1332     1    23     2     7
  5.2035175721142179E-01 a      1333     1    23     2     8
 -1.5428910671106216E-01 a      1334     1    23     2     9
 -2.7481719597941201E-01 a      1335     1    23     2    10
 -8.7983675641339160E-02 a      1336     1    23     2    11
  2.3117173499566972E-02 a      1337     1    23     2    12
 -1.4206629003193599E-01 a      1338     1    23     2    13
  3.6975050058071009E-02 a      1339     1    23     2    14
  2.1165606377489513E-01 a      1340     1    23     2    15
  1.0000893652493928E-01 a      1341     1    23     2    16
  1.6541623821654644E-01 a      1342     1    23     2    17
 -6.2466559646272915E-02 a      1343     1    23     2    18
 -1.4192180629981346E-01 a      1344     1    23     2    19
  2.3083478855311107E-01 a      1345     1    23     2    20
  1.5527925706526235E-01 a      1346     1    23     2    21
 -1.2585652573827430E-01 a      1347     1    23     2    22
  9.0641166589746122E-02 a      1348     1    23     2    23
 -1.7721196826987379E-01 a      1349     1    23     2    24
 -2.0038628169456829E-01 a      1350     1    23     2    25
 -2.3640865112341927E-01 a      1351     1    24     2     1
 -3.4846157904884392E-02 a      1352     1    24     2     2
 -3.7760049776862731E-02 a      1353     1    24     2     3
  8.8382841219934880E-02 a      1354     1    24     2     4
  3.2590987040694505E-02 a      1355     1    24     2     5
 -2.3507892754678783E-01 a      1356     1    24     2     6
  3.2820921631382516E-01 a      1357     1    24     2     7
 -1.8458674972369027E-01 a      1358     1    24     2     8
  5.8721484742348645E-02 a      1359     1    24     2     9
 -3.5436451964497129E-01 a      1360     1    24     2    10
  8.9371139349235781E-02 a      1361     1    24     2    11
  3.2500243874141782E-01 a      1362     1    24     2    12
  1.2884562038309186E-01 a      1363     1    24     2    13
  3.1938333392607245E-02 a      1364     1    24     2    14
 -3.1379078572900265E-01 a      1365     1    24     2    15
 -2.5512671323285041E-01 a      1366     1    24     2    16
 -1.1825273290863839E-01 a      1367     1    24     2    17
 -1.4050281443929868E-01 a      1368     1    24     2    18
 -1.8095038746862893E-01 a      1369     1    24     2    19
 -3.6854872786377196E-01 a      1370     1    24     2    20
  2.7749413652913030E-01 a      1371     1    24     2    21
 -1.0694003335512732E-01 a      1372     1    24     2    22
 -4.1881446077543960E-01 a      1373     1    24     2    23
  2.8041869327360136E-02 a      1374     1    24     2    24
 -9.6139131040623410E-02 a      1375     1    24     2    25
  5.3628251074261002E-01 a      1376     1    25     2     1
  7.7271519624237117E-02 a      1377     1    25     2     2
  6.2242193387454814E-01 a      1378     1    25     2     3
  2.3204910104972588E-02 a      1379     1    25     2     4
 -9.8748408239270932E-02 a      1380     1    25     2     5
  1.4983129301176787E-01 a      1381     1    25     2     6
 -1.8396571778551307E-01 a      1382     1    25     2     7
  1.6467117691330790E-01 a      1383     1    25     2     8
  2.1581754853998394E-02 a      1384     1    25     2     9
  8.7916127497967886E-02 a      1385     1    25     2    10
  3.5505416571843873E-01 a      1386     1    25     2    11
 -1.7627604301316130E-01 a      1387     1    25     2    12
  5.2649229780729105E-02 a      1388     1    25     2    13
 -2.2766959074905740E-01 a      1389     1    25     2    14
 -1.4067820175285664E-01 a      1390     1    25     2    15
  2.2401773392026414E-01 a      1391     1    25     2    16
  2.1469369493056531E-01 a      1392     1    25     2    17
  2.2592950865094735E-01 a      1393     1    25     2    18
 -3.5524392204650318E-01 a      1394     1    25     2    19
  1.7585482002062358E-01 a      1395     1    25     2    20
 -8.7169029994094094E-02 a      1396     1    25     2    21
 -2.4071605889620412E-01 a      1397     1    25     2    22
  3.4216457839538683E-01 a      1398     1    25     2    23
  3.9949181976338510E-02 a      1399     1    25     2    24
 -3.9790762502250207E-02 a      1400     1    25     2    25
 -9.7772400020185835E-02 b      1401     2     1
 -3.5343936781765867E-01 b      1402     2     2
 -4.1919365521189361E-01 b      1403     2     3
 -1.8637370507166778E-01 b      1404     2     4
 -8.0294124408612458E-02 b      1405     2     5
  9.3209777166402552E-02 b      1406     2     6
  4.7470293522868645E-01 b      1407     2     7
  4.8587584879755050E-02 b      1408     2     8
  1.0575036099290372E-01 b      1409     2     9
 -2.0887554302700020E-01 b      1410     2    10
 -4.1185241770852332E-01 b      1411     2    11
  2.9001862713747639E-01 b      1412     2    12
 -5.6295860509151441E-01 b      1413     2    13
  6.4891863726091825E-01 b      1414     2    14
  4.7107828350144298E-01 b      1415     2    15
 -7.9636210273655117E-01 b      1416     2    16
  2.5410653106727531E-02 b      1417     2    17
  1.4744919248881841E-01 b      1418     2    18
  1.0829376185913631E-01 b      1419     2    19
 -5.5592717721574614E-01 b      1420     2    20
 -1.3030458105925449E-01 b      1421     2    21
 -3.1243708392968146E-02 b      1422     2    22
 -4.6926357886808462E-01 b      1423     2    23
  1.8188592840465581E-01 b      1424     2    24
 -4.9822214654375863E-02 b      1425     2    25
 -8.8265773118481813E-02 a      1426     2     1     3     1
  2.8285590702273000E-01 a      1427     2     2     3     1
  2.8331765309658125E-01 a      1428     2     3     3     1
 -1.6476268156145085E-01 a      1429     2     4     3     1
 -4.0794110908699410E-01 a      1430     2     5     3     1
  2.7001751383471195E-01 a      1431     2     6     3     1
  7.9242021700333254E-01 a      1432     2     7     3     1
  3.8823460856086678E-01 a      1433     2     8     3     1
  1.1270397660557532E-01 a      1434     2     9     3     1
 -4.9847749485915654E-01 a      1435     2    10     3     1
 -6.8728850833252420E-01 a      1436     2    11     3     1
  3.3077125442256598E-02 a      1437     2    12     3     1
 -5.1830979589702331E-01 a      1438     2    13     3     1
 -5.9425366458795814E-01 a      1439     2    14     3     1
  4.8716632900930368E-01 a      1440     2    15     3     1
 -9.6450820218537126E-01 a      1441     2    16     3     1
  5.3989677793120749E-01 a      1442     2    17     3     1
  6.1656512500160010E-01 a      1443     2    18     3     1
  4.4126753213958897E-01 a      1444     2    19     3     1
 -7.5952170568150112E-01 a      1445     2    20     3     1
 -4.0008584021911475E-01 a      1446     2    21     3     1
  4.3906232325137579E-01 a      1447     2    22     3     1
 -1.6184748222679204E-01 a      1448     2    23     3     1
  2.9917235130192599E-01 a      1449     2    24     3     1
 -6.2702731003577772E-01 a      1450     2    25     3     1
  4.2133335453576215E-01 b      1451     3     1
