################################################################################
# Neural network connection values (weights and biases).
################################################################################
# Col  Name       Description
################################################################################
# 1    connection Neural network connection value.
# 2    t          Connection type (a = weight, b = bias).
# 3    index      Index enumerating weights.
# 4    l_s        Starting point layer (end point layer for biases).
# 5    n_s        Starting point neuron in starting layer (end point neuron for biases).
# 6    l_e        End point layer.
# 7    n_e        End point neuron in end layer.
################################################################################
#                      1 2         3     4     5     6     7
#             connection t     index   l_s   n_s   l_e   n_e
############################################################
  1.4493833140294410E-01 a         1     0     1     1     1
 -2.2586333254603996E-01 a         2     0     1     1     2
  2.2433917572356266E-01 a         3     0     1     1     3
  4.8178108583700259E-02 a         4     0     1     1     4
  1.8518673367983005E-01 a         5     0     1     1     5
  1.6060858453291571E-01 a         6     0     1     1     6
 -2.6733025253932502E-01 a         7     0     1     1     7
 -1.5533656257139111E-01 a         8     0     1     1     8
 -2.4669110902611158E-01 a         9     0     1     1     9
  4.0831740896799318E-01 a        10     0     1     1    10
 -1.6784367945002418E-01 a        11     0     1     1    11
  3.2725541361780808E-01 a        12     0     1     1    12
  7.5731567122031621E-02 a        13     0     1     1    13
  2.8428964573797488E-01 a        14     0     1     1    14
  7.5276896444514657E-02 a        15     0     1     1    15
  3.0759304933216375E-01 a        16     0     1     1    16
 -4.2095641788457420E-02 a        17     0     1     1    17
  3.5830707740339157E-01 a        18     0     1     1    18
 -1.2370242675838974E-01 a        19     0     1     1    19
 -3.8486294273647170E-01 a        20     0     1     1    20
 -1.4698248087309637E-01 a        21     0     1     1    21
 -1.0051585008397174E-01 a        22     0     1     1    22
 -1.1524728565583903E-01 a        23     0     1     1    23
 -2.2099523329152992E-01 a        24     0     1     1    24
  2.7256103671700571E-01 a        25     0     1     1    25
 -2.8140047263642087E-01 a        26     0     2     1     1
  7.1602578982178255E-02 a        27     0     2     1     2
 -2.5964946047908699E-01 a        28     0     2     1     3
  4.2144059512840409E-01 a        29     0     2     1     4
  4.5223351125393711E-02 a        30     0     2     1     5
 -3.6033922852488282E-01 a        31     0     2     1     6
  9.7480176191214844E-03 a        32     0     2     1     7
 -2.8949876727465124E-01 a        33     0     2     1     8
 -1.3440816770945432E-01 a        34     0     2     1     9
  3.6081387992102482E-01 a        35     0     2     1    10
 -1.5511284645294487E-01 a        36     0     2     1    11
  1.9606602895130146E-01 a        37     0     2     1    12
  1.2705799627659153E-01 a        38     0     2     1    13
  1.1504048978297817E-02 a        39     0     2     1    14
  2.4069010478317387E-01 a        40     0     2     1    15
  6.3156453904090956E-02 a        41     0     2     1    16
  9.7185649847666783E-02 a        42     0     2     1    17
  5.6176306807485976E-01 a        43     0     2     1    18
 -2.1484898406918665E-01 a        44     0     2     1    19
 -3.3335559763014355E-01 a        45     0     2     1    20
  1.0767536948079445E-01 a        46     0     2     1    21
 -3.7888994212239441E-01 a        47     0     2     1    22
 -4.2950842381593757E-01 a        48     0     2     1    23
 -3.8275641158018753E-01 a        49     0     2     1    24
  7.2047291982388739E-02 a        50     0     2     1    25
 -3.6015744295888397E-01 a        51     0     3     1     1
  3.5920602426730686E-01 a        52     0     3     1     2
  1.9109446787126369E-01 a        53     0     3     1     3
 -8.0035112643763021E-02 a        54     0     3     1     4
  4.8659662073585552E-01 a        55     0     3     1     5
 -1.6105982716788536E-01 a        56     0     3     1     6
 -1.6139750289438842E-01 a        57     0     3     1     7
  1.5251810174388281E-01 a        58     0     3     1     8
  1.6327767189723627E-01 a        59     0     3     1     9
 -4.5607241283376183E-02 a        60     0     3     1    10
 -2.8238297263893825E-01 a        61     0     3     1    11
 -7.7590350503181403E-03 a        62     0     3     1    12
 -7.6177388416963587E-02 a        63     0     3     1    13
  1.2439796225356865E-02 a        64     0     3     1    14
  2.1278031390435231E-01 a        65     0     3     1    15
 -3.6172227601529029E-02 a        66     0     3     1    16
  2.0933913408550370E-01 a        67     0     3     1    17
 -3.8383892758090572E-02 a        68     0     3     1    18
  3.5455890157063841E-01 a        69     0     3     1    19
 -3.4958015176636609E-01 a        70     0     3     1    20
  4.1592034425932699E-02 a        71     0     3     1    21
  1.9878624266292538E-01 a        72     0     3     1    22
  5.8471729601237447E-03 a        73     0     3     1    23
  1.3352743664890149E-01 a        74     0     3     1    24
 -1.9238597341104030E-01 a        75     0     3     1    25
 -8.1841069011685669E-02 a        76     0     4     1     1
 -8.2137612925954354E-02 a        77     0     4     1     2
 -1.1228686747252906E-01 a        78     0     4     1     3
  2.8989349043356244E-01 a        79     0     4     1     4
  2.8862679243619305E-01 a        80     0     4     1     5
  2.3446863563234591E-01 a        81     0     4     1     6
 -1.8519524187149961E-02 a        82     0     4     1     7
 -7.7916549941836721E-02 a        83     0     4     1     8
 -1.2175270703834794E-01 a        84     0     4     1     9
  6.7695148030706342E-01 a        85     0     4     1    10
 -9.1950077235208066E-02 a        86     0     4     1    11
  3.8175134331949823E-01 a        87     0     4     1    12
  1.6663010208668777E-01 a        88     0     4     1    13
 -4.0753448866306219E-02 a        89     0     4     1    14
 -2.5212794738057431E-01 a        90     0     4     1    15
 -1.3098403141032123E-02 a        91     0     4     1    16
 -6.1992903524458853E-02 a        92     0     4     1    17
  4.0826620485779319E-01 a        93     0     4     1    18
  2.2282059153326703E-01 a        94     0     4     1    19
 -3.9676213868896798E-01 a        95     0     4     1    20
 -2.2436779362747528E-01 a        96     0     4     1    21
  1.8762334313698023E-01 a        97     0     4     1    22
 -2.7416320625931473E-01 a        98     0     4     1    23
 -5.2407871361467517E-01 a        99     0     4     1    24
 -3.6069957456232565E-01 a       100     0     4     1    25
 -2.8221450077953653E-01 a       101     0     5     1     1
  2.7823889309722621E-01 a       102     0     5     1     2
  3.5506299021162746E-01 a       103     0     5     1     3
  3.5403966867171066E-01 a       104     0     5     1     4
  3.8531598469936834E-01 a       105     0     5     1     5
  1.5211492651817424E-01 a       106     0     5     1     6
 -2.4445192669550815E-02 a       107     0     5     1     7
  2.5132998884457042E-03 a       108     0     5     1     8
  1.8580412558981479E-01 a       109     0     5     1     9
  3.8521215714868834E-01 a       110     0     5     1    10
 -1.0653488629344780E-01 a       111     0     5     1    11
 -2.6416618154491180E-02 a       112     0     5     1    12
 -1.9874283485896257E-01 a       113     0     5     1    13
 -4.4855398477211192E-02 a       114     0     5     1    14
  2.7081810198622525E-01 a       115     0     5     1    15
  2.1419881741879029E-01 a       116     0     5     1    16
 -1.7363368773383109E-01 a       117     0     5     1    17
 -2.3868793549664899E-01 a       118     0     5     1    18
  3.1914065010739756E-01 a       119     0     5     1    19
 -1.0980689592434678E-01 a       120     0     5     1    20
  2.0786856021682124E-01 a       121     0     5     1    21
 -2.7719279439901778E-01 a       122     0     5     1    22
  1.6306076094027855E-01 a       123     0     5     1    23
 -2.9910078387192124E-01 a       124     0     5     1    24
  2.9473852499284292E-01 a       125     0     5     1    25
 -1.8097336188953489E-01 a       126     0     6     1     1
 -2.9722079333989310E-01 a       127     0     6     1     2
  1.4248138024847576E-01 a       128     0     6     1     3
  4.2113371076493772E-01 a       129     0     6     1     4
  3.3824698396546238E-01 a       130     0     6     1     5
 -2.1956831430932824E-01 a       131     0     6     1     6
  9.3018068067413626E-02 a       132     0     6     1     7
  9.9647789141536436E-02 a       133     0     6     1     8
  3.1039849386902335E-01 a       134     0     6     1     9
  6.0962791817900197E-01 a       135     0     6     1    10
 -8.6294796501428683E-02 a       136     0     6     1    11
 -2.7765953748943887E-03 a       137     0     6     1    12
  4.1129726029840363E-01 a       138     0     6     1    13
  2.9841138109902847E-02 a       139     0     6     1    14
  8.5415053145717179E-02 a       140     0     6     1    15
  2.2178537604144502E-01 a       141     0     6     1    16
  5.1494547078336739E-01 a       142     0     6     1    17
  3.6049064808790504E-01 a       143     0     6     1    18
  1.0116139546718390E-01 a       144     0     6     1    19
 -3.8459388028620550E-01 a       145     0     6     1    20
 -1.8394056649225901E-01 a       146     0     6     1    21
  9.3555571829786133E-02 a       147     0     6     1    22
 -1.5567039122354673E-01 a       148     0     6     1    23
 -7.7891940622255365E-03 a       149     0     6     1    24
 -3.4448949592689532E-01 a       150     0     6     1    25
  1.2938670047460882E-01 a       151     0     7     1     1
  1.8580653015899470E-01 a       152     0     7     1     2
  7.7562632724040487E-02 a       153     0     7     1     3
  8.9021428412446646E-02 a       154     0     7     1     4
 -7.5551624023504280E-02 a       155     0     7     1     5
 -1.2729476108408144E-01 a       156     0     7     1     6
 -7.1756046835929496E-02 a       157     0     7     1     7
  3.6030304356410836E-01 a       158     0     7     1     8
  2.0786042886053105E-01 a       159     0     7     1     9
  1.4606723792008999E-01 a       160     0     7     1    10
  1.6809064563384182E-01 a       161     0     7     1    11
 -2.4101131329025641E-01 a       162     0     7     1    12
 -1.6762453163144556E-01 a       163     0     7     1    13
  3.2784528316575537E-02 a       164     0     7     1    14
 -1.2784627792917805E-01 a       165     0     7     1    15
  1.3252845266171137E-01 a       166     0     7     1    16
  3.0823541871759746E-01 a       167     0     7     1    17
  2.6264362350260473E-01 a       168     0     7     1    18
  1.6590540303701731E-02 a       169     0     7     1    19
  1.2193671013093084E-01 a       170     0     7     1    20
  1.1388765140938575E-01 a       171     0     7     1    21
  1.5127580161138729E-01 a       172     0     7     1    22
  1.0323138814601289E-01 a       173     0     7     1    23
  2.6319530932331841E-02 a       174     0     7     1    24
 -1.9561084763735198E-01 a       175     0     7     1    25
 -2.2873663755141993E-01 a       176     0     8     1     1
 -2.7247592332786291E-01 a       177     0     8     1     2
  1.8027764573788241E-01 a       178     0     8     1     3
  1.6125118935038793E-01 a       179     0     8     1     4
  5.2396678816144393E-01 a       180     0     8     1     5
  2.0108232690564626E-03 a       181     0     8     1     6
 -4.2463726051598816E-01 a       182     0     8     1     7
 -6.1288112743599715E-02 a       183     0     8     1     8
 -2.5761889815998767E-01 a       184     0     8     1     9
  5.1168408636381346E-01 a       185     0     8     1    10
  2.9043514528664321E-01 a       186     0     8     1    11
  4.0064299334782777E-01 a       187     0     8     1    12
  2.0186200450723935E-02 a       188     0     8     1    13
  3.9297584533704644E-01 a       189     0     8     1    14
 -5.0987135365442957E-02 a       190     0     8     1    15
 -1.5533753438286585E-01 a       191     0     8     1    16
  4.0628785752973029E-01 a       192     0     8     1    17
  4.5737637647189905E-01 a       193     0     8     1    18
 -2.2656296427160869E-02 a       194     0     8     1    19
 -3.4393588424269961E-01 a       195     0     8     1    20
  5.6358325215084208E-02 a       196     0     8     1    21
 -3.1300191465261334E-01 a       197     0     8     1    22
 -6.8724960050109432E-02 a       198     0     8     1    23
  3.2634696623032429E-02 a       199     0     8     1    24
 -2.4965577344899947E-01 a       200     0     8     1    25
  5.3807127103569830E-02 a       201     0     9     1     1
  5.7725090993943580E-02 a       202     0     9     1     2
 -5.5567619286125145E-03 a       203     0     9     1     3
 -3.5990019028698123E-01 a       204     0     9     1     4
 -2.1891473573470527E-01 a       205     0     9     1     5
 -2.6178555247016821E-01 a       206     0     9     1     6
  1.9106075888730190E-01 a       207     0     9     1     7
 -1.7180183958977066E-01 a       208     0     9     1     8
  1.1862505590536866E-01 a       209     0     9     1     9
 -3.5837481195205206E-01 a       210     0     9     1    10
 -8.7166795945228040E-02 a       211     0     9     1    11
 -1.7598545501222324E-01 a       212     0     9     1    12
 -1.1061337724742497E-01 a       213     0     9     1    13
 -3.8778078932504434E-01 a       214     0     9     1    14
 -5.4369839768215092E-02 a       215     0     9     1    15
  7.9225033650790005E-02 a       216     0     9     1    16
 -1.3698830621474037E-01 a       217     0     9     1    17
  2.4150009148576174E-01 a       218     0     9     1    18
 -2.2961587993047736E-01 a       219     0     9     1    19
  5.6351084943346633E-02 a       220     0     9     1    20
  5.2660516843130577E-02 a       221     0     9     1    21
  5.3236945183617011E-02 a       222     0     9     1    22
 -2.4574214359161756E-01 a       223     0     9     1    23
 -2.1685461626005584E-01 a       224     0     9     1    24
 -2.8950966000170097E-01 a       225     0     9     1    25
 -4.9253050942580406E-01 a       226     0    10     1     1
  9.5846142934611966E-02 a       227     0    10     1     2
 -1.4689781903980878E-01 a       228     0    10     1     3
 -2.1519877734567688E-01 a       229     0    10     1     4
  4.4500393027120777E-01 a       230     0    10     1     5
 -3.2702504156152867E-01 a       231     0    10     1     6
 -4.8027506806208056E-02 a       232     0    10     1     7
 -4.7943154072625817E-03 a       233     0    10     1     8
  5.1279001246867829E-02 a       234     0    10     1     9
  8.6890415962932765E-01 a       235     0    10     1    10
  2.6653262719817133E-01 a       236     0    10     1    11
 -1.4330536810371775E-01 a       237     0    10     1    12
  7.1143862065970537E-02 a       238     0    10     1    13
 -6.0579188215379533E-02 a       239     0    10     1    14
 -1.8067443492633037E-01 a       240     0    10     1    15
 -2.9998542771106673E-01 a       241     0    10     1    16
  3.0060272534315490E-02 a       242     0    10     1    17
  5.6636733005754537E-02 a       243     0    10     1    18
 -3.5731821033343719E-01 a       244     0    10     1    19
  9.4785664446283738E-02 a       245     0    10     1    20
 -4.3838331768489898E-02 a       246     0    10     1    21
 -2.4150151282025459E-01 a       247     0    10     1    22
 -4.2829038087254973E-01 a       248     0    10     1    23
 -2.7528928800319802E-01 a       249     0    10     1    24
  2.7487261614209169E-01 a       250     0    10     1    25
  2.8142940280633549E-01 a       251     0    11     1     1
  3.0963776673836003E-02 a       252     0    11     1     2
  5.0726307645625102E-01 a       253     0    11     1     3
 -4.3751087381936199E-02 a       254     0    11     1     4
 -9.6434460622709203E-02 a       255     0    11     1     5
  1.9545389606759697E-01 a       256     0    11     1     6
 -1.9859553132528376E-01 a       257     0    11     1     7
  1.2969972484913925E-01 a       258     0    11     1     8
  3.2123868000736960E-01 a       259     0    11     1     9
  3.9250473596553107E-02 a       260     0    11     1    10
 -5.8714005583224281E-02 a       261     0    11     1    11
 -2.0846757724427989E-01 a       262     0    11     1    12
 -1.4559153045112289E-01 a       263     0    11     1    13
  8.7790897453752667E-02 a       264     0    11     1    14
 -1.1933358583996868E-01 a       265     0    11     1    15
 -3.1995636327989782E-02 a       266     0    11     1    16
 -2.8978451318170673E-01 a       267     0    11     1    17
  4.9069327375253219E-01 a       268     0    11     1    18
 -1.9767029054786958E-01 a       269     0    11     1    19
  5.5160175152102215E-03 a       270     0    11     1    20
 -1.5787795743743474E-01 a       271     0    11     1    21
 -1.3152088950098820E-01 a       272     0    11     1    22
 -4.7619756568769045E-01 a       273     0    11     1    23
  2.3683261051125433E-03 a       274     0    11     1    24
  2.0240061921849123E-01 a       275     0    11     1    25
  4.1543100197517731E-02 a       276     0    12     1     1
  6.6227340973035759E-02 a       277     0    12     1     2
  2.2108933896165811E-01 a       278     0    12     1     3
 -1.7077919914587086E-01 a       279     0    12     1     4
  2.6843221532640321E-01 a       280     0    12     1     5
  3.3270996261313251E-01 a       281     0    12     1     6
 -3.8930658888713637E-01 a       282     0    12     1     7
 -8.2149992512827119E-02 a       283     0    12     1     8
 -1.9998639157313043E-02 a       284     0    12     1     9
  9.3596653534890528E-01 a       285     0    12     1    10
  4.1902045449369724E-01 a       286     0    12     1    11
  6.2362792520120919E-02 a       287     0    12     1    12
  4.1216803903973004E-01 a       288     0    12     1    13
  3.6615789656116399E-01 a       289     0    12     1    14
 -2.6644433147655328E-01 a       290     0    12     1    15
  5.7315345370549581E-02 a       291     0    12     1    16
  3.2266248287627369E-01 a       292     0    12     1    17
  3.2420418529912881E-01 a       293     0    12     1    18
 -1.4043437820776675E-01 a       294     0    12     1    19
 -3.6254075008992187E-01 a       295     0    12     1    20
  1.1134555061165680E-01 a       296     0    12     1    21
 -2.3988620641228586E-01 a       297     0    12     1    22
 -1.7020845945553009E-01 a       298     0    12     1    23
 -6.2232905592331529E-02 a       299     0    12     1    24
 -2.5494167408406065E-01 a       300     0    12     1    25
  3.1814383337033447E-01 a       301     0    13     1     1
  5.0569365058811488E-01 a       302     0    13     1     2
  2.7398047924659730E-01 a       303     0    13     1     3
 -2.9260174707863035E-01 a       304     0    13     1     4
  4.0436222083362811E-01 a       305     0    13     1     5
 -4.1859446141514038E-02 a       306     0    13     1     6
 -3.5726455919835767E-02 a       307     0    13     1     7
  4.7243548995010771E-02 a       308     0    13     1     8
 -1.8187086971574684E-01 a       309     0    13     1     9
  8.1104828674059326E-02 a       310     0    13     1    10
 -4.5103615415733024E-02 a       311     0    13     1    11
 -1.9075233239342373E-01 a       312     0    13     1    12
  2.7994886969666705E-02 a       313     0    13     1    13
 -2.8687365567287321E-01 a       314     0    13     1    14
  8.2901027733655180E-02 a       315     0    13     1    15
  5.3264322429078581E-01 a       316     0    13     1    16
  1.4250963570188716E-01 a       317     0    13     1    17
  4.4849052138265483E-01 a       318     0    13     1    18
 -2.8059771815053847E-01 a       319     0    13     1    19
  2.5305639304516842E-01 a       320     0    13     1    20
 -1.8081288154548791E-01 a       321     0    13     1    21
  7.0002484545254456E-02 a       322     0    13     1    22
  1.0001645353025745E-01 a       323     0    13     1    23
  4.3638728958958130E-02 a       324     0    13     1    24
 -1.4749399950646994E-01 a       325     0    13     1    25
  1.1528660564358571E-01 a       326     0    14     1     1
 -4.8403440637183304E-01 a       327     0    14     1     2
  1.6503922723791173E-01 a       328     0    14     1     3
  2.5236082828366130E-01 a       329     0    14     1     4
  1.0724603943631948E-02 a       330     0    14     1     5
 -1.9201438082331668E-01 a       331     0    14     1     6
 -4.7844575097458097E-01 a       332     0    14     1     7
 -2.2753414958293319E-01 a       333     0    14     1     8
  1.0943316015685790E-01 a       334     0    14     1     9
  1.2406055475540945E+00 a       335     0    14     1    10
  1.9011283020656122E-01 a       336     0    14     1    11
  1.1718126270749066E-01 a       337     0    14     1    12
  3.4412714727723559E-01 a       338     0    14     1    13
 -1.5851061402301847E-01 a       339     0    14     1    14
 -9.1862704583653004E-02 a       340     0    14     1    15
 -2.0582792749013681E-01 a       341     0    14     1    16
  3.1518433303177851E-01 a       342     0    14     1    17
  2.7822613169254998E-02 a       343     0    14     1    18
  2.9691945718859453E-01 a       344     0    14     1    19
  2.6734930871800860E-01 a       345     0    14     1    20
 -3.8626516003902073E-01 a       346     0    14     1    21
 -1.5572611208148160E-01 a       347     0    14     1    22
 -5.9904127194710374E-02 a       348     0    14     1    23
 -1.5238934656089448E-01 a       349     0    14     1    24
 -2.8663563870544234E-01 a       350     0    14     1    25
 -8.2662297414066374E-02 a       351     0    15     1     1
  2.7957915548474271E-01 a       352     0    15     1     2
  3.5289835560329091E-01 a       353     0    15     1     3
  1.3930719148249893E-01 a       354     0    15     1     4
  7.3338146211409616E-01 a       355     0    15     1     5
 -9.3199936108721446E-02 a       356     0    15     1     6
  3.2993788483336217E-01 a       357     0    15     1     7
 -2.2510550203650154E-01 a       358     0    15     1     8
 -1.8042806520321106E-01 a       359     0    15     1     9
 -2.5468038466499737E-02 a       360     0    15     1    10
  7.1756209565990958E-01 a       361     0    15     1    11
  2.7692473846857535E-01 a       362     0    15     1    12
  2.5573330482516771E-01 a       363     0    15     1    13
  1.6143542647231437E-03 a       364     0    15     1    14
 -6.8781401720525909E-02 a       365     0    15     1    15
  4.1003519746679162E-01 a       366     0    15     1    16
 -1.8708905817430521E-01 a       367     0    15     1    17
  6.5935779880703693E-01 a       368     0    15     1    18
  4.7385625610528170E-01 a       369     0    15     1    19
 -2.9841724018248461E-01 a       370     0    15     1    20
  8.9564388907042908E-02 a       371     0    15     1    21
 -1.4107376729454504E-01 a       372     0    15     1    22
  3.2824935806058880E-01 a       373     0    15     1    23
 -4.3827700462158692E-01 a       374     0    15     1    24
 -4.4950974129441519E-03 a       375     0    15     1    25
  5.7394681461534855E-02 a       376     0    16     1     1
 -9.6343511414505256E-02 a       377     0    16     1     2
 -5.6243188968919477E-01 a       378     0    16     1     3
 -1.9149004221812671E-01 a       379     0    16     1     4
 -2.0144691717680585E-01 a       380     0    16     1     5
  6.0336168031637473E-02 a       381     0    16     1     6
  3.0026733531502492E-01 a       382     0    16     1     7
  1.8482419197697667E-01 a       383     0    16     1     8
 -2.7885249718226496E-01 a       384     0    16     1     9
  5.1882930868205002E-01 a       385     0    16     1    10
  4.1081355513849629E-02 a       386     0    16     1    11
  2.1619684257524116E-01 a       387     0    16     1    12
 -3.3537527832468396E-03 a       388     0    16     1    13
  1.1721845967074190E-02 a       389     0    16     1    14
  5.1043331649222212E-01 a       390     0    16     1    15
 -3.2091958920417940E-01 a       391     0    16     1    16
  1.3209732196517077E-01 a       392     0    16     1    17
 -1.0560320342862942E-01 a       393     0    16     1    18
  2.8678287853886070E-01 a       394     0    16     1    19
  1.1412886906919480E-01 a       395     0    16     1    20
  4.1702149711821423E-01 a       396     0    16     1    21
 -1.8344396968524711E-02 a       397     0    16     1    22
  1.2229763055032894E-01 a       398     0    16     1    23
  4.0523161764593370E-02 a       399     0    16     1    24
 -2.1375343139513470E-01 a       400     0    16     1    25
 -1.9161293097908347E-01 a       401     0    17     1     1
 -9.0046152335144430E-02 a       402     0    17     1     2
 -2.3744724172299039E-01 a       403     0    17     1     3
 -5.8132180207299891E-03 a       404     0    17     1     4
  2.4703317557794172E-01 a       405     0    17     1     5
 -9.8585439114922846E-02 a       406     0    17     1     6
 -3.2868531491473774E-01 a       407     0    17     1     7
 -1.9216580875367412E-01 a       408     0    17     1     8
  2.0622723170445723E-01 a       409     0    17     1     9
  2.1214927994688512E-01 a       410     0    17     1    10
  5.8557558224561372E-02 a       411     0    17     1    11
  6.6016504200048426E-02 a       412     0    17     1    12
 -1.4929806088502112E-01 a       413     0    17     1    13
 -1.0444393914949937E-01 a       414     0    17     1    14
  2.0360007886886761E-02 a       415     0    17     1    15
  1.4144413217903609E-01 a       416     0    17     1    16
 -1.3759123408314880E-01 a       417     0    17     1    17
 -4.2244939515849061E-01 a       418     0    17     1    18
  4.2877466825849428E-03 a       419     0    17     1    19
 -2.7551601901741307E-01 a       420     0    17     1    20
  1.7774203949717546E-01 a       421     0    17     1    21
 -1.8160882009709828E-01 a       422     0    17     1    22
 -1.1161025249996087E-01 a       423     0    17     1    23
  8.4980171615408939E-02 a       424     0    17     1    24
  2.2970218922209734E-01 a       425     0    17     1    25
 -1.0822525108067726E-01 a       426     0    18     1     1
  4.2400549858902008E-02 a       427     0    18     1     2
 -3.6967563524237196E-01 a       428     0    18     1     3
  4.1225893607591951E-01 a       429     0    18     1     4
  2.3504664547552162E-01 a       430     0    18     1     5
 -2.5764789366181690E-01 a       431     0    18     1     6
 -2.3097953282629655E-01 a       432     0    18     1     7
  2.1800463484062749E-01 a       433     0    18     1     8
 -1.0350305716587052E-01 a       434     0    18     1     9
  7.2895308676587189E-01 a       435     0    18     1    10
  1.6001277167326841E-02 a       436     0    18     1    11
 -2.2532161942711557E-01 a       437     0    18     1    12
  4.0554507418665581E-01 a       438     0    18     1    13
 -1.1751820443654151E-01 a       439     0    18     1    14
 -9.1461070278442844E-02 a       440     0    18     1    15
 -3.5636388906658650E-01 a       441     0    18     1    16
  8.5602518934078844E-02 a       442     0    18     1    17
  2.9214391076991694E-02 a       443     0    18     1    18
  6.4031295615146772E-03 a       444     0    18     1    19
  1.6602660921617679E-01 a       445     0    18     1    20
  1.2371495619453704E-01 a       446     0    18     1    21
 -2.3956583569494777E-01 a       447     0    18     1    22
 -3.3310749981129784E-01 a       448     0    18     1    23
 -2.4007150581713527E-01 a       449     0    18     1    24
  2.5748894198461025E-01 a       450     0    18     1    25
 -3.1532585054578099E-01 a       451     0    19     1     1
  2.5353138208398929E-01 a       452     0    19     1     2
 -3.3374737377183640E-02 a       453     0    19     1     3
  2.5617514509717132E-01 a       454     0    19     1     4
  3.8924193158434511E-02 a       455     0    19     1     5
 -3.4732442785542739E-01 a       456     0    19     1     6
 -4.8701723284642784E-01 a       457     0    19     1     7
  2.3147982529806987E-02 a       458     0    19     1     8
 -5.6070990736499342E-03 a       459     0    19     1     9
  2.1636833121471249E-01 a       460     0    19     1    10
  2.3125114090693571E-01 a       461     0    19     1    11
  1.0274372382862097E-02 a       462     0    19     1    12
  7.2026693656851665E-04 a       463     0    19     1    13
  2.0297276955594201E-02 a       464     0    19     1    14
 -7.7558609942174089E-02 a       465     0    19     1    15
 -1.5494008921287380E-01 a       466     0    19     1    16
 -5.7775765252916327E-02 a       467     0    19     1    17
  5.8233841321418532E-02 a       468     0    19     1    18
  1.1426981254727472E-01 a       469     0    19     1    19
 -1.9209639358734759E-01 a       470     0    19     1    20
 -7.7495835249727224E-02 a       471     0    19     1    21
 -2.5779169718053094E-03 a       472     0    19     1    22
  1.6867317584119737E-01 a       473     0    19     1    23
 -4.2880295459606332E-01 a       474     0    19     1    24
  2.2887629030501705E-01 a       475     0    19     1    25
 -2.8639778189977594E-01 a       476     0    20     1     1
 -2.1628688850409641E-01 a       477     0    20     1     2
 -2.1429234971403302E-01 a       478     0    20     1     3
  3.5851387591701206E-01 a       479     0    20     1     4
  3.2627794018755996E-01 a       480     0    20     1     5
 -2.6940083224821132E-01 a       481     0    20     1     6
 -5.6023108200649885E-01 a       482     0    20     1     7
  1.4458418417916238E-01 a       483     0    20     1     8
 -2.2176991143308605E-01 a       484     0    20     1     9
  6.3781068755234815E-01 a       485     0    20     1    10
  1.5478535017023112E-01 a       486     0    20     1    11
  2.1316986641833793E-01 a       487     0    20     1    12
 -5.2821986848396521E-03 a       488     0    20     1    13
 -2.8366305286336274E-01 a       489     0    20     1    14
 -4.2230996213677367E-02 a       490     0    20     1    15
 -3.9135384135308371E-01 a       491     0    20     1    16
  4.8178947694691338E-01 a       492     0    20     1    17
  5.7462419767289219E-01 a       493     0    20     1    18
  1.0099832406145046E-01 a       494     0    20     1    19
  1.5459298346958557E-02 a       495     0    20     1    20
  1.6355161035082197E-01 a       496     0    20     1    21
  3.6039845127321107E-01 a       497     0    20     1    22
 -1.7480566004663599E-02 a       498     0    20     1    23
 -5.3477290189730509E-01 a       499     0    20     1    24
 -3.6276274464673502E-01 a       500     0    20     1    25
 -2.6586517236730189E-01 a       501     0    21     1     1
 -1.6632835619892350E-01 a       502     0    21     1     2
 -3.1978624619472645E-01 a       503     0    21     1     3
 -2.9825078870017707E-01 a       504     0    21     1     4
  1.5787198871473323E-02 a       505     0    21     1     5
  3.8291972568151207E-02 a       506     0    21     1     6
  4.2264622531116743E-02 a       507     0    21     1     7
  9.3462863978472643E-02 a       508     0    21     1     8
  3.6951847793233605E-01 a       509     0    21     1     9
  2.2122358385952959E-01 a       510     0    21     1    10
 -3.0503893760055822E-01 a       511     0    21     1    11
  1.2121215252094029E-01 a       512     0    21     1    12
 -6.8125682527680614E-02 a       513     0    21     1    13
  8.9622633810091792E-02 a       514     0    21     1    14
 -1.5003743261989911E-02 a       515     0    21     1    15
 -5.0057979710779044E-01 a       516     0    21     1    16
  1.6176260595788108E-02 a       517     0    21     1    17
  1.3272375458913205E-01 a       518     0    21     1    18
 -1.3954372228415757E-01 a       519     0    21     1    19
  1.3768493772404847E-01 a       520     0    21     1    20
  6.9145856900037536E-02 a       521     0    21     1    21
 -1.8032185213185839E-01 a       522     0    21     1    22
 -4.7972586264720930E-02 a       523     0    21     1    23
  7.8190019270646359E-03 a       524     0    21     1    24
 -3.5588280342359543E-02 a       525     0    21     1    25
 -8.0001065868832003E-02 a       526     0    22     1     1
  3.3661958938344683E-01 a       527     0    22     1     2
  1.0943718797029550E-01 a       528     0    22     1     3
  2.0447766563789002E-01 a       529     0    22     1     4
  6.2854731074486825E-01 a       530     0    22     1     5
  2.5146287923945687E-01 a       531     0    22     1     6
  3.2295119100689390E-01 a       532     0    22     1     7
  2.6269669560574949E-01 a       533     0    22     1     8
  1.4487278183013477E-01 a       534     0    22     1     9
 -9.5632076351782572E-02 a       535     0    22     1    10
  2.5485593525564926E-01 a       536     0    22     1    11
  3.6230164053798575E-01 a       537     0    22     1    12
  2.6905531664504279E-01 a       538     0    22     1    13
  2.6392975239937067E-01 a       539     0    22     1    14
  2.9160186038288877E-01 a       540     0    22     1    15
 -2.9527160332225660E-01 a       541     0    22     1    16
 -4.3525697466990518E-02 a       542     0    22     1    17
  5.6872974391541864E-01 a       543     0    22     1    18
  3.2382591966402380E-01 a       544     0    22     1    19
 -2.4713049966721048E-01 a       545     0    22     1    20
  1.6705613092533662E-02 a       546     0    22     1    21
 -4.2921868304901273E-01 a       547     0    22     1    22
  3.2117505468897933E-01 a       548     0    22     1    23
 -2.7361595559553820E-01 a       549     0    22     1    24
 -2.5808793392415652E-01 a       550     0    22     1    25
 -1.9861892523541658E-01 a       551     0    23     1     1
 -2.6563263686482852E-01 a       552     0    23     1     2
  2.2282401534780336E-01 a       553     0    23     1     3
  2.0486558633049823E-01 a       554     0    23     1     4
 -1.9830402927448570E-01 a       555     0    23     1     5
 -2.0365914847830485E-01 a       556     0    23     1     6
 -1.3906117231350243E-01 a       557     0    23     1     7
 -1.4353307315913286E-01 a       558     0    23     1     8
 -8.3538960131068998E-02 a       559     0    23     1     9
  8.8891858772495350E-02 a       560     0    23     1    10
  3.7385270093326406E-01 a       561     0    23     1    11
  1.7711777224126601E-01 a       562     0    23     1    12
  3.6020350805424106E-01 a       563     0    23     1    13
 -4.3331184496973936E-02 a       564     0    23     1    14
 -1.3814923828997483E-01 a       565     0    23     1    15
 -1.9566459345163600E-01 a       566     0    23     1    16
  4.0170211317490954E-02 a       567     0    23     1    17
 -6.1109450552735825E-02 a       568     0    23     1    18
  7.4399324891817831E-02 a       569     0    23     1    19
 -3.0281740955646030E-01 a       570     0    23     1    20
  7.5705371188376433E-02 a       571     0    23     1    21
  3.0996880882989963E-01 a       572     0    23     1    22
 -1.7511858126671223E-01 a       573     0    23     1    23
 -3.2033777911816380E-01 a       574     0    23     1    24
  2.3712068009502368E-01 a       575     0    23     1    25
 -1.0014852240090061E-01 a       576     0    24     1     1
  1.6660123674126051E-01 a       577     0    24     1     2
 -2.8785483556174341E-01 a       578     0    24     1     3
  2.8708413580792547E-01 a       579     0    24     1     4
 -7.2824027743278466E-02 a       580     0    24     1     5
  8.4214531930851724E-02 a       581     0    24     1     6
 -4.2990293613457448E-01 a       582     0    24     1     7
 -3.3816165663695602E-01 a       583     0    24     1     8
 -3.7599254265804884E-02 a       584     0    24     1     9
  7.8718791827966483E-01 a       585     0    24     1    10
  1.6714080505133695E-02 a       586     0    24     1    11
  1.8369857525806005E-01 a       587     0    24     1    12
  2.4529989632273966E-01 a       588     0    24     1    13
 -3.9827381815724261E-02 a       589     0    24     1    14
 -2.4421424570528999E-01 a       590     0    24     1    15
 -2.6553608673396378E-01 a       591     0    24     1    16
  1.2579301552851987E-01 a       592     0    24     1    17
 -2.2630520969310372E-01 a       593     0    24     1    18
  2.3499679002418790E-02 a       594     0    24     1    19
 -3.5234969730651838E-01 a       595     0    24     1    20
 -4.7777537653012131E-01 a       596     0    24     1    21
  4.0996389805641248E-01 a       597     0    24     1    22
 -2.5568282522644270E-01 a       598     0    24     1    23
 -5.5715252652551173E-01 a       599     0    24     1    24
 -6.4001273200343947E-02 a       600     0    24     1    25
 -3.3868646600039559E-01 a       601     0    25     1     1
  7.2883732106264448E-02 a       602     0    25     1     2
  4.6187654283680664E-02 a       603     0    25     1     3
 -1.4973482705910637E-01 a       604     0    25     1     4
  4.6608321144699932E-01 a       605     0    25     1     5
 -1.5807398165546419E-01 a       606     0    25     1     6
 -6.3021844232121482E-01 a       607     0    25     1     7
 -6.4396396273733156E-02 a       608     0    25     1     8
 -1.2867813536282080E-01 a       609     0    25     1     9
  1.4849329613542981E+00 a       610     0    25     1    10
 -1.8416432476763536E-01 a       611     0    25     1    11
  1.5755621449955479E-01 a       612     0    25     1    12
 -5.8880766747899077E-02 a       613     0    25     1    13
 -1.1648954464880883E-01 a       614     0    25     1    14
 -3.7305692359777898E-01 a       615     0    25     1    15
  2.0251792207295818E-01 a       616     0    25     1    16
  1.0568012875487770E-01 a       617     0    25     1    17
  3.4719047611800113E-01 a       618     0    25     1    18
  2.8243114608122871E-02 a       619     0    25     1    19
  2.7775636272599019E-01 a       620     0    25     1    20
 -4.9228836892225797E-01 a       621     0    25     1    21
  3.8823836069102924E-01 a       622     0    25     1    22
 -3.3223631257809805E-01 a       623     0    25     1    23
 -4.1375752008087507E-01 a       624     0    25     1    24
 -1.1438907513986681E-01 a       625     0    25     1    25
  7.1888441585517592E-03 a       626     0    26     1     1
  3.2287513657813703E-02 a       627     0    26     1     2
 -2.7614494974413664E-02 a       628     0    26     1     3
 -2.6763981331406633E-01 a       629     0    26     1     4
  3.4397572451322783E-01 a       630     0    26     1     5
  8.3388392714361492E-02 a       631     0    26     1     6
  4.1562676333834946E-02 a       632     0    26     1     7
 -2.1885458798302002E-01 a       633     0    26     1     8
  3.9167749012209638E-02 a       634     0    26     1     9
 -4.7602928725395588E-01 a       635     0    26     1    10
 -2.3734525693732109E-01 a       636     0    26     1    11
  3.7063167474280462E-01 a       637     0    26     1    12
  7.3998045025182591E-02 a       638     0    26     1    13
  2.9117297595991321E-01 a       639     0    26     1    14
 -3.0881482860026833E-02 a       640     0    26     1    15
  3.5704966882184358E-01 a       641     0    26     1    16
  1.7261463416473513E-01 a       642     0    26     1    17
  2.3998708494760826E-01 a       643     0    26     1    18
  7.3839258667273158E-02 a       644     0    26     1    19
 -1.9897544531870004E-01 a       645     0    26     1    20
  1.6435501978230613E-01 a       646     0    26     1    21
 -4.8774953041588115E-01 a       647     0    26     1    22
  2.4398307775374581E-01 a       648     0    26     1    23
  7.9556294143203810E-02 a       649     0    26     1    24
 -3.0251059387693757E-01 a       650     0    26     1    25
  1.9164020141606897E-02 a       651     0    27     1     1
 -1.4706003483008318E-01 a       652     0    27     1     2
 -2.5937357784609150E-01 a       653     0    27     1     3
  3.1798665241659019E-01 a       654     0    27     1     4
  2.8406373386147199E-01 a       655     0    27     1     5
  2.6927952893449586E-01 a       656     0    27     1     6
  6.8876136117356240E-02 a       657     0    27     1     7
 -2.2874541470583656E-01 a       658     0    27     1     8
  5.3026731389405883E-02 a       659     0    27     1     9
  6.2135932303468355E-01 a       660     0    27     1    10
  6.6690601982429987E-02 a       661     0    27     1    11
  8.1114633185168178E-02 a       662     0    27     1    12
 -1.9645853965924617E-01 a       663     0    27     1    13
 -2.7544206074724381E-01 a       664     0    27     1    14
  6.1016721900824897E-02 a       665     0    27     1    15
 -3.2460394415561750E-01 a       666     0    27     1    16
  1.8674548671561264E-01 a       667     0    27     1    17
 -1.2196043508849479E-01 a       668     0    27     1    18
 -1.2605445901320568E-02 a       669     0    27     1    19
 -2.1795037520960059E-01 a       670     0    27     1    20
 -2.7363990968240370E-01 a       671     0    27     1    21
  1.9462822353641979E-01 a       672     0    27     1    22
  6.1318870838950983E-02 a       673     0    27     1    23
  3.9517055460486880E-02 a       674     0    27     1    24
  2.7202792941843534E-01 a       675     0    27     1    25
  1.7435199885306077E-01 a       676     0    28     1     1
 -4.7005121749845719E-01 a       677     0    28     1     2
 -2.4599609690612870E-01 a       678     0    28     1     3
 -1.5829742210910436E-01 a       679     0    28     1     4
  5.8315298397438242E-01 a       680     0    28     1     5
  2.4833325012657845E-01 a       681     0    28     1     6
 -9.7750954962749534E-02 a       682     0    28     1     7
 -7.5965304227686659E-02 a       683     0    28     1     8
  4.1819789751006387E-01 a       684     0    28     1     9
  1.0388309219049832E+00 a       685     0    28     1    10
  3.9289784470317157E-01 a       686     0    28     1    11
  3.8755477911368512E-02 a       687     0    28     1    12
  2.9636738907848376E-01 a       688     0    28     1    13
 -1.8065699858982784E-01 a       689     0    28     1    14
 -1.2018752321295237E-01 a       690     0    28     1    15
 -2.5802923646397014E-01 a       691     0    28     1    16
  2.9608157801959312E-01 a       692     0    28     1    17
  3.6342120359541930E-01 a       693     0    28     1    18
  6.6689389269460617E-03 a       694     0    28     1    19
 -1.2591368234439276E-01 a       695     0    28     1    20
 -2.5783493499874766E-01 a       696     0    28     1    21
  1.1368649162227200E-01 a       697     0    28     1    22
 -6.5052560651415003E-01 a       698     0    28     1    23
 -4.6383707900302878E-01 a       699     0    28     1    24
  4.4036991940602919E-02 a       700     0    28     1    25
 -1.8028282624797856E-01 a       701     0    29     1     1
  1.3565822356133705E-01 a       702     0    29     1     2
 -6.4518209208246649E-02 a       703     0    29     1     3
 -1.3554526373975306E-01 a       704     0    29     1     4
  2.5393517164473106E-01 a       705     0    29     1     5
  2.2972329923793885E-01 a       706     0    29     1     6
 -2.4188673082981529E-01 a       707     0    29     1     7
  4.2337187907685825E-01 a       708     0    29     1     8
 -3.1482026318180409E-02 a       709     0    29     1     9
 -1.5302963364894187E-01 a       710     0    29     1    10
  3.3981956358462090E-01 a       711     0    29     1    11
  6.3276876273486216E-02 a       712     0    29     1    12
 -5.7825626495775037E-02 a       713     0    29     1    13
 -5.3311322650780923E-01 a       714     0    29     1    14
  1.0395402064239233E-01 a       715     0    29     1    15
 -1.2610536616971851E-01 a       716     0    29     1    16
  6.4350634628685094E-02 a       717     0    29     1    17
  3.9073425456169469E-01 a       718     0    29     1    18
  4.3049201655319419E-01 a       719     0    29     1    19
 -1.9032981322440376E-01 a       720     0    29     1    20
  4.8953550586889588E-01 a       721     0    29     1    21
  4.1809693218313508E-02 a       722     0    29     1    22
 -1.2499420480943074E-01 a       723     0    29     1    23
 -1.2926970017951869E-01 a       724     0    29     1    24
 -1.5184510431990592E-01 a       725     0    29     1    25
 -3.1648450071061940E-01 a       726     0    30     1     1
 -1.9213500676302689E-02 a       727     0    30     1     2
 -1.0610658027439780E-01 a       728     0    30     1     3
 -1.6450112066636846E-01 a       729     0    30     1     4
  4.8182063292762156E-01 a       730     0    30     1     5
 -1.0520308897890078E-01 a       731     0    30     1     6
  5.2573894919383390E-01 a       732     0    30     1     7
  1.1651119393379761E-01 a       733     0    30     1     8
  2.5958621377668684E-01 a       734     0    30     1     9
 -6.8615979664449989E-01 a       735     0    30     1    10
 -8.1942119456797843E-02 a       736     0    30     1    11
 -7.0563245544864497E-02 a       737     0    30     1    12
 -2.4261672318001085E-02 a       738     0    30     1    13
  3.1102561533676670E-01 a       739     0    30     1    14
  2.3522553455840611E-01 a       740     0    30     1    15
 -1.0631886419482454E-01 a       741     0    30     1    16
 -1.4389306778652994E-01 a       742     0    30     1    17
  6.1522161997237335E-01 a       743     0    30     1    18
 -1.4090303497631872E-02 a       744     0    30     1    19
 -2.1154998919322945E-01 a       745     0    30     1    20
  2.7225835771147749E-01 a       746     0    30     1    21
 -8.5253457449741971E-03 a       747     0    30     1    22
  5.1262297980104188E-01 a       748     0    30     1    23
  3.6580241724622137E-01 a       749     0    30     1    24
  1.0324452382626317E-01 a       750     0    30     1    25
 -7.8467559727388758E-01 b       751     1     1
 -5.2747304321492494E-01 b       752     1     2
 -9.3759957188212129E-01 b       753     1     3
  4.6956535298708296E-01 b       754     1     4
  1.3594105851911800E+00 b       755     1     5
 -4.7853662306551026E-01 b       756     1     6
  2.9813328071562833E-01 b       757     1     7
 -5.5500485269876110E-01 b       758     1     8
 -4.5798924508930272E-01 b       759     1     9
  3.7223434094388463E-01 b       760     1    10
 -7.7752300505163855E-03 b       761     1    11
  5.6430134009364930E-01 b       762     1    12
  4.5785523853143006E-01 b       763     1    13
  1.1825363754162637E+00 b       764     1    14
  6.6365220713676953E-01 b       765     1    15
 -9.2516306593587583E-01 b       766     1    16
  8.7633887189039028E-01 b       767     1    17
  2.5716267844126466E+00 b       768     1    18
  9.7904336005531301E-01 b       769     1    19
 -3.2793429309531358E-01 b       770     1    20
  6.7835274805616941E-01 b       771     1    21
 -8.4664709849901088E-01 b       772     1    22
  1.1310567270801782E-01 b       773     1    23
  4.7361071561292156E-02 b       774     1    24
 -8.2502909457617546E-01 b       775     1    25
 -8.6112882928523857E-02 a       776     1     1     2     1
  3.3982696284312541E-01 a       777     1     1     2     2
  6.2788877530750287E-01 a       778     1     1     2     3
 -1.2136992120238719E-02 a       779     1     1     2     4
 -2.4955736026638548E-01 a       780     1     1     2     5
 -2.1223959790931191E-01 a       781     1     1     2     6
 -2.2601223298731005E-01 a       782     1     1     2     7
 -4.1269959899982511E-01 a       783     1     1     2     8
 -1.0011620851210382E-01 a       784     1     1     2     9
  1.1386169602471838E-01 a       785     1     1     2    10
  2.4913187796853703E-01 a       786     1     1     2    11
  3.2374231826855200E-03 a       787     1     1     2    12
  5.7733987190977679E-02 a       788     1     1     2    13
 -6.8198553301854048E-01 a       789     1     1     2    14
 -5.5932187566837643E-01 a       790     1     1     2    15
 -5.9994000190816188E-02 a       791     1     1     2    16
 -6.1128285670548010E-02 a       792     1     1     2    17
 -2.7409665052574689E-01 a       793     1     1     2    18
 -1.2825508289106546E-01 a       794     1     1     2    19
 -5.9318328431270745E-02 a       795     1     1     2    20
  2.8821950315536876E-01 a       796     1     1     2    21
 -2.3014781794404621E-01 a       797     1     1     2    22
 -1.8887809352145374E-01 a       798     1     1     2    23
 -2.1528679673240103E-01 a       799     1     1     2    24
  1.2139628375908978E-01 a       800     1     1     2    25
  7.6653004567150736E-03 a       801     1     2     2     1
 -3.6175091642358784E-02 a       802     1     2     2     2
  4.0038917137619373E-01 a       803     1     2     2     3
  3.4045114077354616E-01 a       804     1     2     2     4
 -1.0049354708219359E-01 a       805     1     2     2     5
 -3.2883899826960460E-02 a       806     1     2     2     6
  2.5014970572697515E-01 a       807     1     2     2     7
  1.4706876939445296E-01 a       808     1     2     2     8
 -7.0244679915365902E-03 a       809     1     2     2     9
  2.0878061363506881E-01 a       810     1     2     2    10
  7.0924955385267399E-02 a       811     1     2     2    11
 -3.2845162803992928E-01 a       812     1     2     2    12
 -5.6130560965983539E-02 a       813     1     2     2    13
 -6.4824171971560418E-01 a       814     1     2     2    14
  2.9484162781758322E-01 a       815     1     2     2    15
  4.2917166479814030E-03 a       816     1     2     2    16
  5.0829832184681310E-02 a       817     1     2     2    17
 -1.0689112806810487E-01 a       818     1     2     2    18
  2.4449789534999766E-01 a       819     1     2     2    19
  1.8015771153013632E-01 a       820     1     2     2    20
 -1.0033300638766827E-01 a       821     1     2     2    21
  2.4675473505705267E-01 a       822     1     2     2    22
  3.8332099018333099E-01 a       823     1     2     2    23
  2.2793838580578801E-01 a       824     1     2     2    24
 -3.9443029364916581E-02 a       825     1     2     2    25
  1.3630882261459737E-01 a       826     1     3     2     1
  3.7675693696457752E-01 a       827     1     3     2     2
  4.7926370134698937E-01 a       828     1     3     2     3
  1.4505673039544334E-01 a       829     1     3     2     4
 -2.6857525135649035E-01 a       830     1     3     2     5
  1.4198854988187773E-01 a       831     1     3     2     6
 -1.2450512478832146E-01 a       832     1     3     2     7
 -9.3190604237610178E-02 a       833     1     3     2     8
 -2.5675585023778791E-01 a       834     1     3     2     9
  1.7068288748234361E-01 a       835     1     3     2    10
 -1.3383315506855775E-01 a       836     1     3     2    11
 -8.6909936415020456E-02 a       837     1     3     2    12
 -2.6947573644490019E-01 a       838     1     3     2    13
 -8.0587282057786525E-01 a       839     1     3     2    14
 -2.1955148981841205E-01 a       840     1     3     2    15
  3.6803493964238154E-01 a       841     1     3     2    16
  2.3004838243502462E-01 a       842     1     3     2    17
  2.8312344409553097E-01 a       843     1     3     2    18
 -3.8647469659717176E-01 a       844     1     3     2    19
  1.7642150476660559E-01 a       845     1     3     2    20
 -2.8010313345489368E-01 a       846     1     3     2    21
 -1.4606198272674956E-01 a       847     1     3     2    22
  3.6987345117830611E-01 a       848     1     3     2    23
 -1.1437754918495781E-01 a       849     1     3     2    24
  1.8688665901240678E-01 a       850     1     3     2    25
  2.1113936351569965E-01 a       851     1     4     2     1
 -2.1894722012266188E-01 a       852     1     4     2     2
 -5.3066605249136756E-01 a       853     1     4     2     3
  1.5048873707634766E-01 a       854     1     4     2     4
  1.3201390637971513E-01 a       855     1     4     2     5
 -4.9475493926314673E-02 a       856     1     4     2     6
 -1.5628903973913248E-02 a       857     1     4     2     7
 -2.6870913697176341E-02 a       858     1     4     2     8
  1.6045540395026689E-01 a       859     1     4     2     9
 -1.2807413760739194E-02 a       860     1     4     2    10
 -4.5774632244081653E-01 a       861     1     4     2    11
 -2.6772822515487149E-01 a       862     1     4     2    12
 -5.2159910226707584E-01 a       863     1     4     2    13
  3.3300646607885626E-01 a       864     1     4     2    14
  1.6619225777931071E-01 a       865     1     4     2    15
  1.5955920127744327E-01 a       866     1     4     2    16
 -4.4600587194476626E-02 a       867     1     4     2    17
  2.9476027551352896E-01 a       868     1     4     2    18
  3.7404742820853881E-01 a       869     1     4     2    19
 -1.4030644417274504E-01 a       870     1     4     2    20
  1.7643429767278406E-02 a       871     1     4     2    21
  9.2501232654862292E-03 a       872     1     4     2    22
  8.3201367391067205E-02 a       873     1     4     2    23
 -1.6481033587082902E-01 a       874     1     4     2    24
  3.3615284682034570E-02 a       875     1     4     2    25
 -1.8541866547938929E-01 a       876     1     5     2     1
 -4.7092340086088547E-01 a       877     1     5     2     2
 -4.0582824022613229E-01 a       878     1     5     2     3
 -1.7221025297243446E-02 a       879     1     5     2     4
  6.0780130776011798E-02 a       880     1     5     2     5
  2.6949843622747094E-01 a       881     1     5     2     6
  4.4116222942306571E-01 a       882     1     5     2     7
  1.9884998395855855E-01 a       883     1     5     2     8
 -1.4715771402232675E-01 a       884     1     5     2     9
 -1.6588426727773678E-01 a       885     1     5     2    10
 -4.3124680776204133E-01 a       886     1     5     2    11
  1.4111075040877780E-01 a       887     1     5     2    12
 -4.9484162569223827E-01 a       888     1     5     2    13
  2.3152221160562622E-01 a       889     1     5     2    14
  4.1619450277070785E-01 a       890     1     5     2    15
 -5.8844683472853554E-01 a       891     1     5     2    16
  1.2927373567181499E-01 a       892     1     5     2    17
  4.3480751246924643E-01 a       893     1     5     2    18
  1.8908069563738708E-02 a       894     1     5     2    19
 -3.9634667281721669E-01 a       895     1     5     2    20
 -2.4802057623161976E-02 a       896     1     5     2    21
  3.2284115373891809E-01 a       897     1     5     2    22
 -4.8907056885796668E-01 a       898     1     5     2    23
  3.5030814105489383E-01 a       899     1     5     2    24
 -2.1588494053017898E-01 a       900     1     5     2    25
 -5.1081316030998337E-02 a       901     1     6     2     1
  2.5448844747557025E-03 a       902     1     6     2     2
 -4.2253127782110343E-02 a       903     1     6     2     3
  2.3223797048691644E-01 a       904     1     6     2     4
 -1.1860154365651981E-01 a       905     1     6     2     5
 -3.2850037873002380E-01 a       906     1     6     2     6
 -3.2639818710306370E-02 a       907     1     6     2     7
  1.9385730139938193E-01 a       908     1     6     2     8
  1.9337440329859990E-01 a       909     1     6     2     9
  1.3190579172076730E-01 a       910     1     6     2    10
  2.4956115829853531E-01 a       911     1     6     2    11
  8.8949266390002710E-02 a       912     1     6     2    12
 -1.0868206288438810E-01 a       913     1     6     2    13
 -4.7700573836170057E-01 a       914     1     6     2    14
 -4.5051912379012771E-01 a       915     1     6     2    15
 -1.8300330612919383E-01 a       916     1     6     2    16
  1.1368380969106490E-01 a       917     1     6     2    17
  5.7054073431920524E-02 a       918     1     6     2    18
 -6.0362640075532145E-02 a       919     1     6     2    19
  2.2198247444498989E-01 a       920     1     6     2    20
 -5.9667570831330070E-03 a       921     1     6     2    21
  1.1461556859168624E-01 a       922     1     6     2    22
  1.8522776278056882E-01 a       923     1     6     2    23
  5.6210223904083159E-02 a       924     1     6     2    24
  3.4594626686085326E-03 a       925     1     6     2    25
 -3.0176695601217174E-01 a       926     1     7     2     1
 -3.3035351939184282E-01 a       927     1     7     2     2
  1.2742088917297800E-01 a       928     1     7     2     3
 -7.0313708166110808E-02 a       929     1     7     2     4
  1.3860000873987863E-01 a       930     1     7     2     5
  4.4028368724731232E-01 a       931     1     7     2     6
  1.8596383546249240E-01 a       932     1     7     2     7
  1.5799739254343070E-01 a       933     1     7     2     8
  4.7839274276227423E-01 a       934     1     7     2     9
 -2.4632724750138624E-01 a       935     1     7     2    10
  1.0505464635706777E-01 a       936     1     7     2    11
 -2.4979134496193930E-01 a       937     1     7     2    12
  8.5531881223765288E-03 a       938     1     7     2    13
  1.1498796481292942E-01 a       939     1     7     2    14
 -2.9090262394139277E-01 a       940     1     7     2    15
 -1.0686678737427924E-01 a       941     1     7     2    16
 -5.4080923744591280E-02 a       942     1     7     2    17
  2.1766221632934341E-01 a       943     1     7     2    18
  2.9297509783151160E-01 a       944     1     7     2    19
 -5.9736550736381955E-01 a       945     1     7     2    20
  4.4144242594257657E-04 a       946     1     7     2    21
  3.0790368113460483E-02 a       947     1     7     2    22
 -4.2560682126430260E-01 a       948     1     7     2    23
 -1.1978262027471297E-01 a       949     1     7     2    24
 -5.6955517750479877E-03 a       950     1     7     2    25
 -2.1108211890056319E-01 a       951     1     8     2     1
  3.0010916742767541E-01 a       952     1     8     2     2
  2.0895021209383868E-02 a       953     1     8     2     3
 -1.2890416438357774E-01 a       954     1     8     2     4
 -9.5421121280288235E-02 a       955     1     8     2     5
 -3.6446145415681991E-01 a       956     1     8     2     6
  2.2402559400272209E-01 a       957     1     8     2     7
  5.8083235727072802E-02 a       958     1     8     2     8
  8.2236265358167360E-02 a       959     1     8     2     9
 -6.4163498824298767E-02 a       960     1     8     2    10
 -1.0122560104774768E-01 a       961     1     8     2    11
 -1.3670395912311939E-01 a       962     1     8     2    12
 -6.0976592678683772E-02 a       963     1     8     2    13
 -3.6318172623973416E-01 a       964     1     8     2    14
 -3.4254102576305911E-01 a       965     1     8     2    15
  2.2762541329386873E-01 a       966     1     8     2    16
 -9.6226709833261731E-02 a       967     1     8     2    17
  3.2384211586462104E-02 a       968     1     8     2    18
 -2.7387633264610578E-01 a       969     1     8     2    19
  3.7917255742745168E-02 a       970     1     8     2    20
  1.3009909999929736E-01 a       971     1     8     2    21
  1.8979784350489864E-01 a       972     1     8     2    22
  3.8330191089505433E-01 a       973     1     8     2    23
  1.9720230847550382E-02 a       974     1     8     2    24
  2.7151262887115102E-01 a       975     1     8     2    25
 -8.2126160522906888E-02 a       976     1     9     2     1
  1.6939860685893260E-02 a       977     1     9     2     2
  2.6901404200430573E-01 a       978     1     9     2     3
 -9.2548250825161743E-02 a       979     1     9     2     4
 -1.1176684922805125E-01 a       980     1     9     2     5
 -2.6979117735532587E-01 a       981     1     9     2     6
  1.0170430744304465E-01 a       982     1     9     2     7
 -3.1609617252070385E-02 a       983     1     9     2     8
 -3.3088996013804167E-01 a       984     1     9     2     9
  3.5975191918669647E-01 a       985     1     9     2    10
  1.8303141920326113E-01 a       986     1     9     2    11
 -4.6374989518993132E-02 a       987     1     9     2    12
  1.9124995526718036E-01 a       988     1     9     2    13
 -3.3336407340662505E-01 a       989     1     9     2    14
 -2.9803727529042062E-01 a       990     1     9     2    15
  3.3464347086187562E-01 a       991     1     9     2    16
  8.2796375195936009E-02 a       992     1     9     2    17
 -4.9999439594109032E-02 a       993     1     9     2    18
 -3.2314585115761307E-01 a       994     1     9     2    19
  2.9362620963308794E-01 a       995     1     9     2    20
 -1.1445315853449420E-01 a       996     1     9     2    21
  2.0567529434963833E-03 a       997     1     9     2    22
 -8.3650752260429714E-02 a       998     1     9     2    23
  3.5636302215396279E-02 a       999     1     9     2    24
  8.5338069114822224E-02 a      1000     1     9     2    25
  1.8479997849374388E-01 a      1001     1    10     2     1
  5.9311640230025642E-01 a      1002     1    10     2     2
 -5.6240070991492153E-01 a      1003     1    10     2     3
  2.4364744526470281E-01 a      1004     1    10     2     4
 -4.4320024055919359E-02 a      1005     1    10     2     5
 -1.3652598879376041E-01 a      1006     1    10     2     6
 -2.5683335472974772E-01 a      1007     1    10     2     7
 -3.0981659681796375E-01 a      1008     1    10     2     8
 -2.4699769512276415E-01 a      1009     1    10     2     9
  5.9204879837345636E-01 a      1010     1    10     2    10
  1.8652240891417646E-01 a      1011     1    10     2    11
 -5.2416923048202557E-01 a      1012     1    10     2    12
 -1.9299747270270479E-01 a      1013     1    10     2    13
  7.1079246977467458E-01 a      1014     1    10     2    14
  1.7592627928378485E-03 a      1015     1    10     2    15
  2.9951847333667569E-01 a      1016     1    10     2    16
 -1.0520607559868311E+00 a      1017     1    10     2    17
 -9.6838778779737525E-02 a      1018     1    10     2    18
 -4.9560441122931570E-01 a      1019     1    10     2    19
  3.8623378477988718E-01 a      1020     1    10     2    20
 -4.6567812027367833E-01 a      1021     1    10     2    21
 -7.7427308454224922E-02 a      1022     1    10     2    22
  4.0099621464052110E-01 a      1023     1    10     2    23
 -4.0695377358558538E-01 a      1024     1    10     2    24
  3.1141550264196610E-01 a      1025     1    10     2    25
  8.4441669903345770E-02 a      1026     1    11     2     1
  4.1160959166927957E-01 a      1027     1    11     2     2
 -6.2513947430322070E-02 a      1028     1    11     2     3
  1.0498891409194311E-01 a      1029     1    11     2     4
 -1.1840328849149571E-01 a      1030     1    11     2     5
  6.9988780199116613E-02 a      1031     1    11     2     6
 -7.2977794649113761E-02 a      1032     1    11     2     7
  1.8531953453925931E-01 a      1033     1    11     2     8
 -1.8702274946799841E-01 a      1034     1    11     2     9
 -3.6149758726641767E-01 a      1035     1    11     2    10
 -3.3506009727382280E-01 a      1036     1    11     2    11
 -1.5055876116465650E-01 a      1037     1    11     2    12
 -2.8288677130080025E-01 a      1038     1    11     2    13
 -3.5322081269925787E-01 a      1039     1    11     2    14
 -7.1221272605478420E-02 a      1040     1    11     2    15
  5.7917661893939515E-02 a      1041     1    11     2    16
  2.4317988441110625E-01 a      1042     1    11     2    17
 -1.8220629997634319E-01 a      1043     1    11     2    18
 -1.6834727505285327E-01 a      1044     1    11     2    19
  2.1837694084514611E-01 a      1045     1    11     2    20
 -3.6243001853877921E-01 a      1046     1    11     2    21
  3.2334788150799731E-01 a      1047     1    11     2    22
  1.4547412211357216E-01 a      1048     1    11     2    23
  1.3068193810518033E-01 a      1049     1    11     2    24
 -1.1035252770265243E-02 a      1050     1    11     2    25
  3.0702502429533721E-02 a      1051     1    12     2     1
 -6.2226539744842886E-02 a      1052     1    12     2     2
 -6.3774069697614966E-01 a      1053     1    12     2     3
 -3.6892209782330260E-01 a      1054     1    12     2     4
 -5.4812767425492175E-02 a      1055     1    12     2     5
  2.2180553917043083E-03 a      1056     1    12     2     6
 -1.2931110789034769E-01 a      1057     1    12     2     7
  6.2075841192628034E-01 a      1058     1    12     2     8
  3.5266991597845176E-01 a      1059     1    12     2     9
 -1.7750981428571089E-01 a      1060     1    12     2    10
 -1.6856765988537226E-01 a      1061     1    12     2    11
 -2.0414541813649670E-01 a      1062     1    12     2    12
 -2.6975332973389082E-01 a      1063     1    12     2    13
  3.9668698899100080E-01 a      1064     1    12     2    14
  2.3489126284123021E-01 a      1065     1    12     2    15
  5.1607974265379733E-03 a      1066     1    12     2    16
 -4.6977514909894106E-04 a      1067     1    12     2    17
  8.3257067721594927E-02 a      1068     1    12     2    18
  2.1356755362434002E-01 a      1069     1    12     2    19
  2.7747694346601809E-01 a      1070     1    12     2    20
 -1.1716324961410852E-02 a      1071     1    12     2    21
  4.1999711328491583E-02 a      1072     1    12     2    22
  6.6378143438826198E-02 a      1073     1    12     2    23
 -4.0395626972289586E-02 a      1074     1    12     2    24
 -4.5241860436743464E-01 a      1075     1    12     2    25
 -1.0442049366386720E-01 a      1076     1    13     2     1
  3.5041647349979207E-02 a      1077     1    13     2     2
 -3.1799726744647139E-01 a      1078     1    13     2     3
 -1.5106694294213410E-01 a      1079     1    13     2     4
  4.9281006210498732E-02 a      1080     1    13     2     5
  3.8310292560148257E-01 a      1081     1    13     2     6
  2.3104516164302846E-01 a      1082     1    13     2     7
 -1.2156538314683503E-02 a      1083     1    13     2     8
 -3.9750546629040012E-02 a      1084     1    13     2     9
 -2.7242054841214509E-02 a      1085     1    13     2    10
  1.9890944253316351E-01 a      1086     1    13     2    11
 -1.8436558863020697E-01 a      1087     1    13     2    12
 -4.7527032982420642E-01 a      1088     1    13     2    13
  1.9472976420781321E-01 a      1089     1    13     2    14
  2.6333024105696423E-01 a      1090     1    13     2    15
 -5.3786612071364287E-02 a      1091     1    13     2    16
  1.3576726757996101E-02 a      1092     1    13     2    17
  3.5425303615166898E-01 a      1093     1    13     2    18
  3.7976694843888936E-01 a      1094     1    13     2    19
 -5.8534108290967828E-02 a      1095     1    13     2    20
 -1.0630944340727405E-01 a      1096     1    13     2    21
 -1.7286598238983822E-01 a      1097     1    13     2    22
  9.1765387075187443E-02 a      1098     1    13     2    23
  8.6031397137462488E-03 a      1099     1    13     2    24
 -2.4163118028151950E-01 a      1100     1    13     2    25
 -2.1491763987733969E-01 a      1101     1    14     2     1
 -1.2653357170352034E-01 a      1102     1    14     2     2
 -2.0942435236573373E-01 a      1103     1    14     2     3
 -1.3039667730886689E-01 a      1104     1    14     2     4
  4.8368235770535567E-01 a      1105     1    14     2     5
 -1.6171766359020995E-01 a      1106     1    14     2     6
 -1.2687590723267483E-02 a      1107     1    14     2     7
  3.1278728661868088E-01 a      1108     1    14     2     8
  1.3981304396865149E-01 a      1109     1    14     2     9
  5.1758027933639733E-02 a      1110     1    14     2    10
 -1.8043727538568324E-02 a      1111     1    14     2    11
  3.0553115014806848E-01 a      1112     1    14     2    12
 -1.3927723144393128E-01 a      1113     1    14     2    13
  4.1069054833444357E-01 a      1114     1    14     2    14
  8.3553865399542945E-02 a      1115     1    14     2    15
 -3.2224556477176414E-01 a      1116     1    14     2    16
 -1.2741812791881640E-01 a      1117     1    14     2    17
 -2.1104376434761163E-01 a      1118     1    14     2    18
  2.6683222749093705E-01 a      1119     1    14     2    19
 -4.2564533473317717E-01 a      1120     1    14     2    20
 -2.4208500783404396E-01 a      1121     1    14     2    21
  3.9561600607469466E-01 a      1122     1    14     2    22
 -5.1320767377793730E-01 a      1123     1    14     2    23
  5.0209959720088383E-03 a      1124     1    14     2    24
 -2.9004057161210778E-01 a      1125     1    14     2    25
 -2.4378928707363845E-01 a      1126     1    15     2     1
 -1.0986625268696616E-01 a      1127     1    15     2     2
 -3.3070120427113164E-01 a      1128     1    15     2     3
  1.7187575408462125E-02 a      1129     1    15     2     4
  3.1692861400392608E-01 a      1130     1    15     2     5
 -5.4314205244202308E-02 a      1131     1    15     2     6
  3.6756168768180364E-01 a      1132     1    15     2     7
  3.3793399509409211E-01 a      1133     1    15     2     8
  2.2766386014606294E-01 a      1134     1    15     2     9
 -3.8779754461362798E-01 a      1135     1    15     2    10
 -3.1787885156205242E-01 a      1136     1    15     2    11
  1.8742918369871417E-01 a      1137     1    15     2    12
  1.0559547394174067E-01 a      1138     1    15     2    13
  2.9722537171687446E-01 a      1139     1    15     2    14
  5.4293633644276321E-02 a      1140     1    15     2    15
 -1.9754242239800360E-01 a      1141     1    15     2    16
 -1.8432848804159035E-01 a      1142     1    15     2    17
 -1.3259994667414071E-01 a      1143     1    15     2    18
 -4.3187524914282786E-02 a      1144     1    15     2    19
 -2.6885313915097636E-01 a      1145     1    15     2    20
  3.2588164805150428E-02 a      1146     1    15     2    21
  2.8112695151528871E-01 a      1147     1    15     2    22
 -2.5685817187026766E-01 a      1148     1    15     2    23
  3.0066467390702251E-01 a      1149     1    15     2    24
  2.3677560142075862E-01 a      1150     1    15     2    25
 -4.3158292227792765E-02 a      1151     1    16     2     1
  4.6168980563553852E-01 a      1152     1    16     2     2
  6.6262389892701679E-01 a      1153     1    16     2     3
  3.4985393543035169E-02 a      1154     1    16     2     4
 -1.3414033918952933E-01 a      1155     1    16     2     5
 -2.3071127193488014E-01 a      1156     1    16     2     6
  4.5543552936415384E-02 a      1157     1    16     2     7
 -4.4207426351577317E-02 a      1158     1    16     2     8
  1.1071775190769992E-01 a      1159     1    16     2     9
 -5.4571582256706420E-02 a      1160     1    16     2    10
 -3.0402991957780423E-01 a      1161     1    16     2    11
 -2.3083935499656708E-01 a      1162     1    16     2    12
 -2.0488072854140510E-01 a      1163     1    16     2    13
 -1.0679048352769018E+00 a      1164     1    16     2    14
  3.3983796381816567E-01 a      1165     1    16     2    15
 -2.3734209341103005E-01 a      1166     1    16     2    16
  2.5179988845920004E-01 a      1167     1    16     2    17
  1.6124418894101497E-01 a      1168     1    16     2    18
 -3.8116791631946989E-01 a      1169     1    16     2    19
 -1.2129008159880583E-01 a      1170     1    16     2    20
  1.4477866095997086E-01 a      1171     1    16     2    21
  7.0232933067367387E-02 a      1172     1    16     2    22
  3.6880068043380143E-01 a      1173     1    16     2    23
 -3.2852791834644524E-01 a      1174     1    16     2    24
  3.7861070214603704E-01 a      1175     1    16     2    25
 -1.4448736058560094E-01 a      1176     1    17     2     1
 -2.3583614775719042E-01 a      1177     1    17     2     2
 -6.2846801019508658E-01 a      1178     1    17     2     3
  4.5833810815085432E-02 a      1179     1    17     2     4
  1.8182742892991782E-01 a      1180     1    17     2     5
  3.8141880104565408E-02 a      1181     1    17     2     6
 -1.1893259438910926E-03 a      1182     1    17     2     7
  6.2266225745818263E-02 a      1183     1    17     2     8
  1.3535638466070934E-01 a      1184     1    17     2     9
 -1.8493317777612275E-01 a      1185     1    17     2    10
  9.0012819914974340E-02 a      1186     1    17     2    11
 -4.2340384414333458E-02 a      1187     1    17     2    12
  7.4092437091606150E-02 a      1188     1    17     2    13
  6.9732526815374485E-01 a      1189     1    17     2    14
  4.1468564740763242E-01 a      1190     1    17     2    15
  1.1355791110435073E-01 a      1191     1    17     2    16
  1.1795724960783410E-01 a      1192     1    17     2    17
  1.0521791122586346E-01 a      1193     1    17     2    18
  2.8997166921526946E-02 a      1194     1    17     2    19
  1.3933857778484188E-02 a      1195     1    17     2    20
 -4.0528397903264834E-01 a      1196     1    17     2    21
  7.1240503258897012E-02 a      1197     1    17     2    22
 -1.2777266194048344E-02 a      1198     1    17     2    23
 -1.6768420787629537E-01 a      1199     1    17     2    24
 -6.8357046565019411E-02 a      1200     1    17     2    25
 -2.3958612085450508E-02 a      1201     1    18     2     1
 -5.4114812611008245E-01 a      1202     1    18     2     2
 -2.0959400206760570E-01 a      1203     1    18     2     3
  1.4590913974374732E-02 a      1204     1    18     2     4
  4.3166724114353877E-01 a      1205     1    18     2     5
  3.8475897550046767E-01 a      1206     1    18     2     6
  4.4685212652525064E-01 a      1207     1    18     2     7
  1.7006322556038095E-01 a      1208     1    18     2     8
  3.3860646230150598E-01 a      1209     1    18     2     9
 -2.1249481141143103E-01 a      1210     1    18     2    10
 -3.5722293231522784E-01 a      1211     1    18     2    11
  2.8294499304372461E-01 a      1212     1    18     2    12
 -2.4024331614702968E-01 a      1213     1    18     2    13
  2.7628203610566149E-01 a      1214     1    18     2    14
  1.0677114029084746E-01 a      1215     1    18     2    15
 -7.5401273588342255E-01 a      1216     1    18     2    16
  2.3697852878018891E-01 a      1217     1    18     2    17
  3.0929565031497425E-01 a      1218     1    18     2    18
  1.9519752186936876E-01 a      1219     1    18     2    19
 -7.2785324192880885E-01 a      1220     1    18     2    20
 -2.4191871218248223E-01 a      1221     1    18     2    21
  1.3581269503825624E-01 a      1222     1    18     2    22
 -3.5049315868596687E-01 a      1223     1    18     2    23
 -5.1774980989397097E-02 a      1224     1    18     2    24
 -3.3746964367712401E-01 a      1225     1    18     2    25
 -1.5037104416490688E-01 a      1226     1    19     2     1
 -1.5464673710552373E-01 a      1227     1    19     2     2
 -1.7866482011714160E-01 a      1228     1    19     2     3
  3.1688699057262730E-03 a      1229     1    19     2     4
  3.8249602688260043E-01 a      1230     1    19     2     5
 -1.9303285921909133E-01 a      1231     1    19     2     6
 -1.0162897767019841E-01 a      1232     1    19     2     7
 -5.0380667287167329E-02 a      1233     1    19     2     8
  4.9222167680975475E-02 a      1234     1    19     2     9
 -1.2788102689420089E-01 a      1235     1    19     2    10
  5.0946634408366415E-02 a      1236     1    19     2    11
  1.7741623755409180E-01 a      1237     1    19     2    12
  9.9335184490033368E-04 a      1238     1    19     2    13
  5.8830679302754940E-01 a      1239     1    19     2    14
  2.4286174062615448E-01 a      1240     1    19     2    15
 -2.2696473182652716E-01 a      1241     1    19     2    16
  1.8222503199600823E-01 a      1242     1    19     2    17
  4.3796875379167027E-01 a      1243     1    19     2    18
 -5.2481263516537119E-02 a      1244     1    19     2    19
 -1.5838614674850343E-01 a      1245     1    19     2    20
 -3.4721086249212940E-01 a      1246     1    19     2    21
  1.1227526474640125E-01 a      1247     1    19     2    22
 -3.7910500999246866E-01 a      1248     1    19     2    23
  3.2765136481814461E-01 a      1249     1    19     2    24
 -2.3729226109269014E-01 a      1250     1    19     2    25
  5.7865143295731274E-02 a      1251     1    20     2     1
 -6.8474627236792110E-02 a      1252     1    20     2     2
  2.7732562765885371E-01 a      1253     1    20     2     3
 -1.5525913377899897E-01 a      1254     1    20     2     4
  1.2696452490221766E-01 a      1255     1    20     2     5
  9.8644047438704044E-02 a      1256     1    20     2     6
  3.6537782968385828E-02 a      1257     1    20     2     7
 -9.9301616842095153E-02 a      1258     1    20     2     8
 -9.4309349185436889E-02 a      1259     1    20     2     9
  2.2481333022949002E-01 a      1260     1    20     2    10
  1.8680098576659776E-01 a      1261     1    20     2    11
  1.5772762610540361E-01 a      1262     1    20     2    12
  5.4993201282847137E-01 a      1263     1    20     2    13
 -2.1303097800263862E-01 a      1264     1    20     2    14
 -3.9746418368565778E-01 a      1265     1    20     2    15
 -1.1091507508223465E-01 a      1266     1    20     2    16
  2.2227698537099033E-01 a      1267     1    20     2    17
 -7.5271353463444338E-02 a      1268     1    20     2    18
  8.1793790989172568E-02 a      1269     1    20     2    19
 -3.0840929576881525E-02 a      1270     1    20     2    20
  3.9461017184534058E-01 a      1271     1    20     2    21
 -8.2326119988652191E-02 a      1272     1    20     2    22
 -3.9674362578321395E-02 a      1273     1    20     2    23
 -8.9014675039397015E-02 a      1274     1    20     2    24
  4.6810139832011521E-01 a      1275     1    20     2    25
  1.5950382974371466E-01 a      1276     1    21     2     1
 -4.9106396361342802E-01 a      1277     1    21     2     2
  1.2896868859701885E-01 a      1278     1    21     2     3
 -3.6236835954553565E-01 a      1279     1    21     2     4
  3.6160425749215663E-01 a      1280     1    21     2     5
  4.0272448168257857E-01 a      1281     1    21     2     6
 -1.4439015313670789E-01 a      1282     1    21     2     7
 -1.2550392174645797E-01 a      1283     1    21     2     8
  2.2655748684632132E-02 a      1284     1    21     2     9
 -4.1700310490154641E-01 a      1285     1    21     2    10
  2.0224774330980930E-01 a      1286     1    21     2    11
  1.4368601223690133E-01 a      1287     1    21     2    12
  1.5251372463000240E-01 a      1288     1    21     2    13
  4.0849259089103412E-01 a      1289     1    21     2    14
  3.1574322794872836E-02 a      1290     1    21     2    15
 -3.5406700428896737E-01 a      1291     1    21     2    16
 -2.4192742911936743E-01 a      1292     1    21     2    17
 -7.6365341553624885E-02 a      1293     1    21     2    18
  3.0750650802287555E-01 a      1294     1    21     2    19
 -6.7738033311511417E-02 a      1295     1    21     2    20
 -1.7913921163237992E-02 a      1296     1    21     2    21
  2.8882246713458115E-01 a      1297     1    21     2    22
 -3.9325544189697864E-01 a      1298     1    21     2    23
  4.2052527643495222E-02 a      1299     1    21     2    24
 -7.0803840730401038E-02 a      1300     1    21     2    25
  2.5018503773373163E-01 a      1301     1    22     2     1
  3.7560309716257601E-01 a      1302     1    22     2     2
  3.8826038217459763E-01 a      1303     1    22     2     3
  2.1078522435283498E-01 a      1304     1    22     2     4
 -4.3713060162376216E-01 a      1305     1    22     2     5
  4.3412808614631627E-02 a      1306     1    22     2     6
 -3.5363551763602658E-01 a      1307     1    22     2     7
  1.7721310729056217E-01 a      1308     1    22     2     8
  6.7069315308782879E-02 a      1309     1    22     2     9
  2.3964950305906241E-01 a      1310     1    22     2    10
 -3.8640583976586845E-02 a      1311     1    22     2    11
 -3.5308052934334083E-01 a      1312     1    22     2    12
  2.5180701464945426E-01 a      1313     1    22     2    13
 -2.5781855387367192E-01 a      1314     1    22     2    14
 -3.1517742610495064E-01 a      1315     1    22     2    15
  9.2831269263069727E-02 a      1316     1    22     2    16
  1.8682945978786387E-03 a      1317     1    22     2    17
 -3.3437729016373452E-01 a      1318     1    22     2    18
 -2.4950128571505759E-01 a      1319     1    22     2    19
  3.4927439154963608E-01 a      1320     1    22     2    20
 -4.2826438739265033E-02 a      1321     1    22     2    21
 -2.9512988776085025E-01 a      1322     1    22     2    22
  4.4370512784662836E-01 a      1323     1    22     2    23
 -1.5281684787281721E-01 a      1324     1    22     2    24
  3.7012359027243463E-01 a      1325     1    22     2    25
 -3.7161531066599518E-01 a      1326     1    23     2     1
 -4.8740474700512132E-01 a      1327     1    23     2     2
 -1.2198642814729434E-01 a      1328     1    23     2     3
 -3.2756010408308761E-01 a      1329     1    23     2     4
 -6.0419936397945219E-05 a      1330     1    23     2     5
  8.4648993470220577E-02 a      1331     1    23     2     6
  2.0358335885216342E-01 a      1332     1    23     2     7
  5.0643453593557453E-01 a      1333     1    23     2     8
 -1.0554273217325669E-01 a      1334     1    23     2     9
 -2.3004980847763637E-01 a      1335     1    23     2    10
 -8.0832845099351056E-02 a      1336     1    23     2    11
  4.2153494736584377E-02 a      1337     1    23     2    12
 -6.9707946211914465E-02 a      1338     1    23     2    13
  1.2312785006709429E-01 a      1339     1    23     2    14
  1.5948348945763438E-01 a      1340     1    23     2    15
  9.0703243114151302E-02 a      1341     1    23     2    16
  3.1581527307389401E-01 a      1342     1    23     2    17
 -6.3717459633849194E-03 a      1343     1    23     2    18
 -1.2698548844369370E-01 a      1344     1    23     2    19
  2.0699418293350452E-01 a      1345     1    23     2    20
  3.0150027126784579E-01 a      1346     1    23     2    21
 -1.3597976576392051E-01 a      1347     1    23     2    22
  4.3738503823225403E-02 a      1348     1    23     2    23
 -2.5343364110938471E-01 a      1349     1    23     2    24
 -2.2058442455077021E-01 a      1350     1    23     2    25
 -2.9231702807083937E-01 a      1351     1    24     2     1
 -1.0462198577371519E-01 a      1352     1    24     2     2
 -8.3553951619144889E-02 a      1353     1    24     2     3
  5.6844866657702407E-02 a      1354     1    24     2     4
  7.3547860312732125E-02 a      1355     1    24     2     5
 -2.5407596871179755E-01 a      1356     1    24     2     6
  3.3686545736207929E-01 a      1357     1    24     2     7
 -1.8074312466237419E-01 a      1358     1    24     2     8
  4.6299169421889462E-02 a      1359     1    24     2     9
 -3.3924970603196403E-01 a      1360     1    24     2    10
  8.8476137720241640E-02 a      1361     1    24     2    11
  3.6040639615298764E-01 a      1362     1    24     2    12
  2.8684663286305029E-01 a      1363     1    24     2    13
  1.6568046126041874E-01 a      1364     1    24     2    14
 -4.6459887015991536E-01 a      1365     1    24     2    15
 -2.8372083217855870E-01 a      1366     1    24     2    16
  2.3989261309149856E-01 a      1367     1    24     2    17
 -7.4948517455944191E-02 a      1368     1    24     2    18
 -1.5535823693276493E-01 a      1369     1    24     2    19
 -4.0854171571838577E-01 a      1370     1    24     2    20
  4.3506944230444272E-01 a      1371     1    24     2    21
 -1.2459367050871491E-01 a      1372     1    24     2    22
 -4.7704161979308052E-01 a      1373     1    24     2    23
  2.2424760012135711E-03 a      1374     1    24     2    24
 -1.1079637778647276E-01 a      1375     1    24     2    25
  5.3611327695318856E-01 a      1376     1    25     2     1
  1.4219300632945583E-01 a      1377     1    25     2     2
  6.7395382632822642E-01 a      1378     1    25     2     3
  5.0940546430367911E-02 a      1379     1    25     2     4
 -3.8409801441622798E-01 a      1380     1    25     2     5
  9.7715202240746216E-02 a      1381     1    25     2     6
 -1.3406148354876371E-01 a      1382     1    25     2     7
  1.7829911617200903E-01 a      1383     1    25     2     8
  1.8496395439427292E-02 a      1384     1    25     2     9
  1.9677122276462289E-01 a      1385     1    25     2    10
  3.8392725636725050E-01 a      1386     1    25     2    11
 -1.8179856301976208E-01 a      1387     1    25     2    12
  2.6908561377838799E-02 a      1388     1    25     2    13
 -2.8658261745081431E-01 a      1389     1    25     2    14
 -1.9515278035342781E-01 a      1390     1    25     2    15
  2.2359884613293238E-01 a      1391     1    25     2    16
  2.3001530123782274E-01 a      1392     1    25     2    17
  1.9787216908270644E-01 a      1393     1    25     2    18
 -3.9619852445467080E-01 a      1394     1    25     2    19
  1.6523607123546744E-01 a      1395     1    25     2    20
 -1.0651023760810025E-02 a      1396     1    25     2    21
 -2.4221395500922377E-01 a      1397     1    25     2    22
  4.0304714404271819E-01 a      1398     1    25     2    23
 -1.3003558390650557E-03 a      1399     1    25     2    24
 -6.3098274958348979E-02 a      1400     1    25     2    25
 -6.0406319226116341E-02 b      1401     2     1
 -4.5124719449245998E-01 b      1402     2     2
 -5.6763995442075066E-01 b      1403     2     3
 -2.1423671941393796E-01 b      1404     2     4
  5.0830098643361898E-01 b      1405     2     5
  1.1199383735700784E-01 b      1406     2     6
  4.0601942561298521E-01 b      1407     2     7
 -7.6527334019403745E-02 b      1408     2     8
  8.5687797684984329E-02 b      1409     2     9
 -3.6806609662484585E-01 b      1410     2    10
 -4.1858587932986080E-01 b      1411     2    11
  3.2729911366849612E-01 b      1412     2    12
 -5.6124566740222914E-01 b      1413     2    13
  9.1817930428270067E-01 b      1414     2    14
  6.6241634837288366E-01 b      1415     2    15
 -7.5919174783032506E-01 b      1416     2    16
 -6.7529545229061683E-02 b      1417     2    17
  1.7133235302287758E-01 b      1418     2    18
  1.6103811822151767E-01 b      1419     2    19
 -5.2809737227182341E-01 b      1420     2    20
 -2.5317395562153577E-01 b      1421     2    21
 -4.9546866820228130E-02 b      1422     2    22
 -5.8735834608889514E-01 b      1423     2    23
  2.1005591584910160E-01 b      1424     2    24
  1.2893771774504417E-02 b      1425     2    25
 -2.2933419206416028E-01 a      1426     2     1     3     1
  3.7698063659805808E-01 a      1427     2     2     3     1
  4.0746219568485792E-01 a      1428     2     3     3     1
 -7.6655077384060827E-02 a      1429     2     4     3     1
  1.3451742980746720E-01 a      1430     2     5     3     1
 -3.2224968774070190E-02 a      1431     2     6     3     1
  1.0105070653694321E+00 a      1432     2     7     3     1
  4.9506302876044367E-01 a      1433     2     8     3     1
  3.3386850916831601E-01 a      1434     2     9     3     1
 -1.0288201695623818E-01 a      1435     2    10     3     1
 -6.6074072148685425E-01 a      1436     2    11     3     1
  7.7375526276029741E-02 a      1437     2    12     3     1
 -7.3453001578823673E-01 a      1438     2    13     3     1
 -7.1525751975930207E-01 a      1439     2    14     3     1
  6.9998784312218942E-01 a      1440     2    15     3     1
 -1.0252301511219242E+00 a      1441     2    16     3     1
  2.2795228238918099E+00 a      1442     2    17     3     1
  5.3620688882678047E-01 a      1443     2    18     3     1
  3.9334905019125282E-01 a      1444     2    19     3     1
 -7.6434566169986251E-01 a      1445     2    20     3     1
 -3.6562716490022057E-01 a      1446     2    21     3     1
  5.0049804511465668E-01 a      1447     2    22     3     1
 -1.5921515295485089E-01 a      1448     2    23     3     1
 -1.5611306589906129E-03 a      1449     2    24     3     1
 -5.8965259108159307E-01 a      1450     2    25     3     1
  4.6073162792577299E-01 b      1451     3     1
