################################################################################
# Neural network connection values (weights and biases).
################################################################################
# Col  Name       Description
################################################################################
# 1    connection Neural network connection value.
# 2    t          Connection type (a = weight, b = bias).
# 3    index      Index enumerating weights.
# 4    l_s        Starting point layer (end point layer for biases).
# 5    n_s        Starting point neuron in starting layer (end point neuron for biases).
# 6    l_e        End point layer.
# 7    n_e        End point neuron in end layer.
################################################################################
#                      1 2         3     4     5     6     7
#             connection t     index   l_s   n_s   l_e   n_e
############################################################
  2.8408545909610011E-01 a         1     0     1     1     1
 -7.2393592972077037E-01 a         2     0     1     1     2
 -4.9483161335180624E-02 a         3     0     1     1     3
 -2.4724526014269335E-01 a         4     0     1     1     4
 -2.2451632362452356E-01 a         5     0     1     1     5
 -3.9035177365042562E-01 a         6     0     1     1     6
 -1.5973456115352630E-01 a         7     0     1     1     7
  5.7893565669803124E-02 a         8     0     1     1     8
  6.2159077663043616E-01 a         9     0     1     1     9
  3.4267491655152382E-01 a        10     0     1     1    10
 -1.5589011677765591E-01 a        11     0     1     1    11
 -5.2456142216857804E-01 a        12     0     1     1    12
  2.0016945514153428E-01 a        13     0     1     1    13
  3.9992469518448059E-01 a        14     0     1     1    14
  1.6237027057617021E-01 a        15     0     1     1    15
  2.6041817816667723E-01 a        16     0     1     1    16
  1.4095247728377147E-01 a        17     0     1     1    17
  4.3740247912856500E-01 a        18     0     1     1    18
 -3.4071932478283706E-01 a        19     0     1     1    19
 -1.4637314798992301E-01 a        20     0     1     1    20
  2.2177399027316330E-01 a        21     0     1     1    21
  9.3685132875883412E-02 a        22     0     1     1    22
  3.2094403654199008E-02 a        23     0     1     1    23
 -3.8546308681627567E-01 a        24     0     1     1    24
  6.0999585042909410E-01 a        25     0     1     1    25
 -2.6934332632970837E-02 a        26     0     2     1     1
 -9.0557014160769123E-01 a        27     0     2     1     2
 -2.0450612530372624E-02 a        28     0     2     1     3
  2.4083844869532578E-01 a        29     0     2     1     4
  1.3916855507864226E-01 a        30     0     2     1     5
 -2.9737877602342355E-01 a        31     0     2     1     6
 -6.0695936043890904E-02 a        32     0     2     1     7
  2.4564486852673387E-01 a        33     0     2     1     8
  3.8694095070886858E-01 a        34     0     2     1     9
  2.3783344512329740E-01 a        35     0     2     1    10
  2.7838634226756667E-02 a        36     0     2     1    11
  1.0671544682669894E-01 a        37     0     2     1    12
  3.4442315060978466E-02 a        38     0     2     1    13
 -1.5840606710462626E-01 a        39     0     2     1    14
  6.0412728607764410E-01 a        40     0     2     1    15
  3.1338813349607736E-01 a        41     0     2     1    16
  8.7653630926392098E-02 a        42     0     2     1    17
  2.6560443991733840E-01 a        43     0     2     1    18
 -8.6794294217266491E-02 a        44     0     2     1    19
  1.9889023655208300E-02 a        45     0     2     1    20
  2.2403494761881051E-01 a        46     0     2     1    21
  2.4836236684075402E-01 a        47     0     2     1    22
  3.0342828234770935E-01 a        48     0     2     1    23
 -1.6142642656983830E-01 a        49     0     2     1    24
  1.0997246165105866E-01 a        50     0     2     1    25
  3.0411589570341840E-01 a        51     0     3     1     1
 -9.5845695044332080E-01 a        52     0     3     1     2
  2.0793594162275900E-01 a        53     0     3     1     3
  2.5636146389914205E-01 a        54     0     3     1     4
 -2.5352090886728373E-01 a        55     0     3     1     5
 -4.2709812124837904E-01 a        56     0     3     1     6
  4.9721251385340864E-01 a        57     0     3     1     7
  1.5989295803061199E-01 a        58     0     3     1     8
  2.1796186771720907E-01 a        59     0     3     1     9
  3.4880781187232041E-01 a        60     0     3     1    10
 -9.6355339055373357E-02 a        61     0     3     1    11
 -2.8068320614577047E-01 a        62     0     3     1    12
 -9.4427982770382460E-02 a        63     0     3     1    13
 -1.5887905937810914E-01 a        64     0     3     1    14
 -1.6190554623582110E-01 a        65     0     3     1    15
  1.8234052642483907E-02 a        66     0     3     1    16
  5.1382371233671717E-02 a        67     0     3     1    17
  4.5115324044132654E-01 a        68     0     3     1    18
 -4.7865452077558168E-01 a        69     0     3     1    19
 -2.0077083068424498E-01 a        70     0     3     1    20
  3.1723834484786223E-01 a        71     0     3     1    21
  3.0119283171231159E-01 a        72     0     3     1    22
 -2.2917102925286781E-01 a        73     0     3     1    23
 -3.1513803705836757E-01 a        74     0     3     1    24
  2.7501338393505537E-01 a        75     0     3     1    25
 -5.7405855856154930E-02 a        76     0     4     1     1
 -6.6100131975285836E-01 a        77     0     4     1     2
 -2.1199623655823432E-01 a        78     0     4     1     3
 -2.1123962924511014E-01 a        79     0     4     1     4
 -8.4520815577638020E-02 a        80     0     4     1     5
  2.8149436292884200E-01 a        81     0     4     1     6
  2.5586361607766245E-01 a        82     0     4     1     7
 -1.4488632592242340E-01 a        83     0     4     1     8
  3.6066566317501996E-03 a        84     0     4     1     9
 -2.0117772043301643E-01 a        85     0     4     1    10
 -1.0825411662971558E-01 a        86     0     4     1    11
 -1.1181876406893106E-01 a        87     0     4     1    12
  2.4099211426144193E-01 a        88     0     4     1    13
 -7.5092851145220474E-01 a        89     0     4     1    14
  7.3959297886536224E-01 a        90     0     4     1    15
  2.5150100426185973E-01 a        91     0     4     1    16
  2.4418540489860141E-01 a        92     0     4     1    17
  1.4635683930690904E-01 a        93     0     4     1    18
  3.5139669043912719E-02 a        94     0     4     1    19
 -4.3397156347458088E-01 a        95     0     4     1    20
 -2.4557841699676114E-01 a        96     0     4     1    21
  2.2929739279982511E-01 a        97     0     4     1    22
  2.1958226521672386E-01 a        98     0     4     1    23
 -2.3547464115887182E-01 a        99     0     4     1    24
  1.1318332742224307E-01 a       100     0     4     1    25
  5.2410076550439839E-02 a       101     0     5     1     1
 -7.3773493947540358E-01 a       102     0     5     1     2
  5.6213217388401038E-01 a       103     0     5     1     3
 -7.5070576053929153E-02 a       104     0     5     1     4
 -3.0277887240156803E-01 a       105     0     5     1     5
 -6.4308535835624347E-02 a       106     0     5     1     6
  4.8911095233846419E-01 a       107     0     5     1     7
 -3.4964824583876464E-01 a       108     0     5     1     8
 -1.8752897871830873E-01 a       109     0     5     1     9
  7.7678448147361898E-02 a       110     0     5     1    10
  3.1137977590365856E-01 a       111     0     5     1    11
  1.6049826517554414E-01 a       112     0     5     1    12
  1.2119099811484021E-01 a       113     0     5     1    13
 -2.4924022137893700E-01 a       114     0     5     1    14
 -2.5326496581295466E-01 a       115     0     5     1    15
  2.2885878304161472E-02 a       116     0     5     1    16
 -1.2976502305156659E-01 a       117     0     5     1    17
  2.0636199659932902E-01 a       118     0     5     1    18
 -2.7795414629941406E-01 a       119     0     5     1    19
 -7.5688558010580498E-01 a       120     0     5     1    20
  1.8227549470833157E-01 a       121     0     5     1    21
 -2.7873195837358133E-01 a       122     0     5     1    22
 -4.2034524335994272E-01 a       123     0     5     1    23
 -2.6057732255008313E-02 a       124     0     5     1    24
 -3.0136911552584583E-01 a       125     0     5     1    25
 -1.3675033962225130E-01 a       126     0     6     1     1
 -3.0493764193369971E-01 a       127     0     6     1     2
  4.9256052928424769E-02 a       128     0     6     1     3
 -9.5328381689289976E-02 a       129     0     6     1     4
  1.2729683006037074E-01 a       130     0     6     1     5
  7.5124223070940729E-02 a       131     0     6     1     6
  2.1572832258108462E-01 a       132     0     6     1     7
 -2.4543158903518703E-02 a       133     0     6     1     8
  5.2295744614286294E-02 a       134     0     6     1     9
 -9.6668841714069531E-02 a       135     0     6     1    10
  1.5511058494026472E-01 a       136     0     6     1    11
 -3.3365820151055881E-02 a       137     0     6     1    12
  7.6597761781944285E-01 a       138     0     6     1    13
 -3.4386792986516446E-01 a       139     0     6     1    14
  4.1303863402716290E-01 a       140     0     6     1    15
  4.4590084146536607E-01 a       141     0     6     1    16
 -8.8404482046433863E-02 a       142     0     6     1    17
  3.1308956027636420E-01 a       143     0     6     1    18
 -2.7882154593287762E-02 a       144     0     6     1    19
 -2.2158682384558312E-01 a       145     0     6     1    20
  7.5715690607721459E-02 a       146     0     6     1    21
 -1.5488716439764055E-03 a       147     0     6     1    22
  1.2609105317644884E-01 a       148     0     6     1    23
 -5.7396007936333837E-01 a       149     0     6     1    24
  1.3710631607049154E-01 a       150     0     6     1    25
  7.5133427686161477E-02 a       151     0     7     1     1
 -4.9052129580017040E-01 a       152     0     7     1     2
  2.5922510124996023E-01 a       153     0     7     1     3
 -2.4556739162507848E-01 a       154     0     7     1     4
 -4.7972312242388730E-02 a       155     0     7     1     5
 -3.1864909343280884E-01 a       156     0     7     1     6
  4.3052122736090148E-01 a       157     0     7     1     7
 -6.0267968395861293E-01 a       158     0     7     1     8
  1.5046598801279129E-01 a       159     0     7     1     9
 -1.8856193207966199E-01 a       160     0     7     1    10
  2.7956262989743152E-01 a       161     0     7     1    11
  2.0706070246511787E-01 a       162     0     7     1    12
  1.1803741849152359E-01 a       163     0     7     1    13
 -2.6590841627410761E-01 a       164     0     7     1    14
 -2.9820669460166360E-01 a       165     0     7     1    15
  5.2842099409266330E-01 a       166     0     7     1    16
  3.2689093464377494E-01 a       167     0     7     1    17
 -3.1207447993218947E-02 a       168     0     7     1    18
 -5.8873752294392301E-01 a       169     0     7     1    19
 -3.1506907885940955E-01 a       170     0     7     1    20
  1.6521185454549325E-01 a       171     0     7     1    21
 -4.2893171830221705E-01 a       172     0     7     1    22
 -1.7844308149979785E-01 a       173     0     7     1    23
  2.6395230992479451E-01 a       174     0     7     1    24
 -8.0733603054109415E-01 a       175     0     7     1    25
 -5.9177586673208826E-02 a       176     0     8     1     1
 -4.9410610061147114E-01 a       177     0     8     1     2
  2.0747268539712108E-01 a       178     0     8     1     3
 -2.6146141245097221E-01 a       179     0     8     1     4
 -6.0498542419468626E-01 a       180     0     8     1     5
  4.1815793270993179E-01 a       181     0     8     1     6
 -3.4638849015285023E-01 a       182     0     8     1     7
 -8.9738649408743057E-02 a       183     0     8     1     8
  6.0522452428788320E-01 a       184     0     8     1     9
  1.7311239697271208E-01 a       185     0     8     1    10
 -4.7393561683160701E-01 a       186     0     8     1    11
 -3.0199852431687968E-01 a       187     0     8     1    12
  7.7516688284086963E-02 a       188     0     8     1    13
  1.5086291260520054E-01 a       189     0     8     1    14
  5.5650635133260754E-02 a       190     0     8     1    15
  3.0771462256043552E-01 a       191     0     8     1    16
  1.8312982898908953E-02 a       192     0     8     1    17
 -5.6810960913032518E-02 a       193     0     8     1    18
 -4.4257849644494074E-01 a       194     0     8     1    19
  4.9695641838519644E-01 a       195     0     8     1    20
 -7.2611743277747554E-02 a       196     0     8     1    21
  2.9296337868781649E-02 a       197     0     8     1    22
  2.5023364498617867E-01 a       198     0     8     1    23
 -4.9848227877055168E-01 a       199     0     8     1    24
 -7.9951766249423489E-02 a       200     0     8     1    25
  2.9838142652440619E-01 a       201     0     9     1     1
 -6.3158699910748217E-01 a       202     0     9     1     2
  4.9670480767302544E-01 a       203     0     9     1     3
  3.2854077957019517E-01 a       204     0     9     1     4
 -5.3955616416285668E-01 a       205     0     9     1     5
  2.3427312485940807E-01 a       206     0     9     1     6
 -1.8118370294542718E+00 a       207     0     9     1     7
 -3.3026937594984151E-01 a       208     0     9     1     8
  1.1979504999651340E+00 a       209     0     9     1     9
  4.0056849461375210E-01 a       210     0     9     1    10
 -4.6478388347420219E-01 a       211     0     9     1    11
  1.8318955236963907E-01 a       212     0     9     1    12
 -1.5477027397445103E-01 a       213     0     9     1    13
  1.9155575195808908E-01 a       214     0     9     1    14
  3.4317473832345069E-01 a       215     0     9     1    15
 -8.0260821696441401E-02 a       216     0     9     1    16
 -4.4231329550298365E-01 a       217     0     9     1    17
  5.4164160039047349E-01 a       218     0     9     1    18
 -8.0387469458466621E-01 a       219     0     9     1    19
  1.2699675996380966E+00 a       220     0     9     1    20
 -3.8426517427007406E-01 a       221     0     9     1    21
 -4.0890835741321219E-01 a       222     0     9     1    22
  7.2633098926369000E-01 a       223     0     9     1    23
  1.6155260885218639E-01 a       224     0     9     1    24
 -4.5440118862836186E-02 a       225     0     9     1    25
  3.6013040705818750E-01 a       226     0    10     1     1
 -2.3837959650181213E-02 a       227     0    10     1     2
  4.1971526953194543E-01 a       228     0    10     1     3
  3.9657918531556979E-02 a       229     0    10     1     4
  3.3513453423578049E-01 a       230     0    10     1     5
  5.0196002699086702E-02 a       231     0    10     1     6
  4.9664898741954050E-01 a       232     0    10     1     7
 -3.6382076563826393E-01 a       233     0    10     1     8
  4.1128054973602962E-01 a       234     0    10     1     9
 -3.7994064525250365E-01 a       235     0    10     1    10
  2.9545888331020553E-01 a       236     0    10     1    11
 -1.7047301961458924E-01 a       237     0    10     1    12
  4.7035784517876006E-01 a       238     0    10     1    13
 -1.3094605189691166E-01 a       239     0    10     1    14
 -8.8776417869408231E-01 a       240     0    10     1    15
  1.8251165553213022E-01 a       241     0    10     1    16
  4.2521150754378817E-01 a       242     0    10     1    17
 -7.0575866282605065E-02 a       243     0    10     1    18
 -6.3522923771467832E-01 a       244     0    10     1    19
 -1.7453596386849241E-01 a       245     0    10     1    20
  2.0110069052452051E-01 a       246     0    10     1    21
  9.4098245710834590E-04 a       247     0    10     1    22
 -3.7354048398492726E-02 a       248     0    10     1    23
  3.3947158839914376E-01 a       249     0    10     1    24
 -1.2630116964130009E+00 a       250     0    10     1    25
  4.9066514437134251E-01 a       251     0    11     1     1
 -4.1976057084187679E-01 a       252     0    11     1     2
 -1.9152744239634545E-01 a       253     0    11     1     3
 -6.5950481278417919E-02 a       254     0    11     1     4
 -5.5634820950806563E-01 a       255     0    11     1     5
  2.8043546658299751E-01 a       256     0    11     1     6
 -1.6400934755280594E+00 a       257     0    11     1     7
  4.5791844875789128E-01 a       258     0    11     1     8
  9.9754616650390426E-01 a       259     0    11     1     9
  3.5934125243483661E-01 a       260     0    11     1    10
 -5.4153418281843210E-02 a       261     0    11     1    11
 -3.1103207620246570E-01 a       262     0    11     1    12
 -1.1038158767909589E+00 a       263     0    11     1    13
  1.1886322434461816E+00 a       264     0    11     1    14
  3.9137481529613632E-01 a       265     0    11     1    15
 -3.0365987878008743E-01 a       266     0    11     1    16
  1.2773477706974917E-01 a       267     0    11     1    17
  4.4827108629462714E-01 a       268     0    11     1    18
 -3.1973069438384821E-01 a       269     0    11     1    19
  8.1492400284542410E-01 a       270     0    11     1    20
 -4.5507200753960309E-02 a       271     0    11     1    21
  1.7831118544109914E-01 a       272     0    11     1    22
  1.1183582824255740E+00 a       273     0    11     1    23
 -4.4418497970053494E-01 a       274     0    11     1    24
  1.6171840790940120E+00 a       275     0    11     1    25
  2.3579493211148500E-01 a       276     0    12     1     1
 -3.8748046303505018E-01 a       277     0    12     1     2
  1.2522467950000099E-01 a       278     0    12     1     3
  1.1843995750855751E-01 a       279     0    12     1     4
  2.3914723635228927E-01 a       280     0    12     1     5
 -2.6305046689061246E-01 a       281     0    12     1     6
  3.7497756481472855E-01 a       282     0    12     1     7
 -3.0540657365106850E-02 a       283     0    12     1     8
  1.8489533542364239E-01 a       284     0    12     1     9
 -1.7966115794367854E-01 a       285     0    12     1    10
 -3.8610116076904727E-01 a       286     0    12     1    11
 -2.8944452639297069E-01 a       287     0    12     1    12
  1.1511647840833598E-01 a       288     0    12     1    13
  2.5301789578907907E-01 a       289     0    12     1    14
 -1.0633364836168697E+00 a       290     0    12     1    15
  3.7267541544353400E-01 a       291     0    12     1    16
  2.0691523464381026E-01 a       292     0    12     1    17
  5.4853200291321971E-02 a       293     0    12     1    18
 -4.7574248432279487E-01 a       294     0    12     1    19
  3.6455401894900297E-01 a       295     0    12     1    20
  2.4511870791464141E-01 a       296     0    12     1    21
  1.2018510972772953E-01 a       297     0    12     1    22
 -9.5450469621817594E-03 a       298     0    12     1    23
  2.8243761484098140E-01 a       299     0    12     1    24
 -2.2957135264089121E-01 a       300     0    12     1    25
  1.7907908222110747E-01 a       301     0    13     1     1
 -3.6270848617184631E-02 a       302     0    13     1     2
  2.7432417274566159E-02 a       303     0    13     1     3
 -1.9054923468715110E-01 a       304     0    13     1     4
 -9.0222234264996717E-03 a       305     0    13     1     5
  3.2079835564629200E-01 a       306     0    13     1     6
 -1.2426931358799644E+00 a       307     0    13     1     7
  3.4015059274963572E-01 a       308     0    13     1     8
  3.6720153950307283E-01 a       309     0    13     1     9
  6.9164734966897146E-01 a       310     0    13     1    10
  2.7780941905319440E-01 a       311     0    13     1    11
 -1.6890046299577874E-01 a       312     0    13     1    12
 -1.0396943208836780E+00 a       313     0    13     1    13
  1.5782274994197820E+00 a       314     0    13     1    14
  5.7849461256928714E-01 a       315     0    13     1    15
 -5.8772834202704216E-01 a       316     0    13     1    16
  6.6172192392759788E-01 a       317     0    13     1    17
  2.1722776817211023E-01 a       318     0    13     1    18
  4.9786432127345853E-01 a       319     0    13     1    19
  9.3521747719964110E-01 a       320     0    13     1    20
  6.4375773773313139E-01 a       321     0    13     1    21
  1.3047507262154867E-01 a       322     0    13     1    22
  9.2759995105813420E-01 a       323     0    13     1    23
 -6.1282470102967812E-01 a       324     0    13     1    24
  1.8716975182618740E+00 a       325     0    13     1    25
  9.7041680885226111E-01 a       326     0    14     1     1
  1.8798495427121542E-01 a       327     0    14     1     2
 -4.8244635346063013E-03 a       328     0    14     1     3
 -1.2862120683911649E-01 a       329     0    14     1     4
 -4.3235679188970916E-01 a       330     0    14     1     5
 -2.8333727898680877E-01 a       331     0    14     1     6
 -2.6526752519575153E-01 a       332     0    14     1     7
 -1.3636456007423067E-01 a       333     0    14     1     8
 -1.4433723730974135E-01 a       334     0    14     1     9
 -2.5816751560381085E-01 a       335     0    14     1    10
 -1.3293475681697176E-01 a       336     0    14     1    11
  4.3712579654653855E-01 a       337     0    14     1    12
 -1.4251507073434294E-01 a       338     0    14     1    13
 -1.5326342885897862E-01 a       339     0    14     1    14
 -3.6574559061929429E-01 a       340     0    14     1    15
  5.9083814403579508E-02 a       341     0    14     1    16
  6.9829496325117324E-01 a       342     0    14     1    17
  3.8740171382446932E-02 a       343     0    14     1    18
  4.8817858010571785E-01 a       344     0    14     1    19
 -9.9526985486353588E-03 a       345     0    14     1    20
  8.1274828598211102E-01 a       346     0    14     1    21
 -2.2777944804945147E-01 a       347     0    14     1    22
  2.5797463524997399E-01 a       348     0    14     1    23
 -2.1978751278955155E-01 a       349     0    14     1    24
  2.8003120228659412E-01 a       350     0    14     1    25
  1.9447272816369343E-01 a       351     0    15     1     1
  4.9301948363604547E-02 a       352     0    15     1     2
  1.8556800895225883E-01 a       353     0    15     1     3
  2.0597048712974676E-03 a       354     0    15     1     4
 -3.3345490019605079E-01 a       355     0    15     1     5
 -1.7281472007827867E-01 a       356     0    15     1     6
 -5.9575847073734367E-01 a       357     0    15     1     7
  1.2205350570754940E-02 a       358     0    15     1     8
  2.2199479161243593E-01 a       359     0    15     1     9
  7.3877344464604378E-01 a       360     0    15     1    10
  2.2591932988760791E-01 a       361     0    15     1    11
 -3.9475567584399729E-01 a       362     0    15     1    12
 -6.8973502658057506E-01 a       363     0    15     1    13
  7.1495228261817723E-01 a       364     0    15     1    14
  5.2775549649644171E-01 a       365     0    15     1    15
 -5.2685540372117246E-01 a       366     0    15     1    16
  3.8501533091212470E-01 a       367     0    15     1    17
  1.8184024292310355E-01 a       368     0    15     1    18
  1.2810047543264821E-01 a       369     0    15     1    19
  8.7192560192921442E-01 a       370     0    15     1    20
  7.3009598591210823E-01 a       371     0    15     1    21
 -1.8598833875818152E-01 a       372     0    15     1    22
  4.5792863868600120E-01 a       373     0    15     1    23
 -5.3653441944481439E-01 a       374     0    15     1    24
  1.1470859235372637E+00 a       375     0    15     1    25
  1.0692432376442718E+00 a       376     0    16     1     1
  7.1873085343466458E-01 a       377     0    16     1     2
 -1.2987780737332727E-01 a       378     0    16     1     3
 -4.1171850851425612E-01 a       379     0    16     1     4
 -1.6367521878617380E-01 a       380     0    16     1     5
 -2.6356017013665339E-01 a       381     0    16     1     6
  2.4013139755114099E-01 a       382     0    16     1     7
  1.0791363265377710E-01 a       383     0    16     1     8
 -2.9072809139667893E-01 a       384     0    16     1     9
 -1.4140850473386968E-01 a       385     0    16     1    10
  3.1803445453781776E-01 a       386     0    16     1    11
  2.8108379803134032E-01 a       387     0    16     1    12
  3.6180097533817979E-01 a       388     0    16     1    13
  1.1329969814859965E-01 a       389     0    16     1    14
  6.8197405950617948E-02 a       390     0    16     1    15
 -5.9479942380137829E-01 a       391     0    16     1    16
  1.3007245805660363E+00 a       392     0    16     1    17
 -4.7797915138033560E-02 a       393     0    16     1    18
  8.9456747285761840E-01 a       394     0    16     1    19
 -9.3916152591233190E-02 a       395     0    16     1    20
  9.3171145955184209E-01 a       396     0    16     1    21
 -8.4406427031832820E-02 a       397     0    16     1    22
  2.2601293779139994E-01 a       398     0    16     1    23
 -5.6333140219797051E-01 a       399     0    16     1    24
 -1.2913171350934105E-01 a       400     0    16     1    25
  1.4971715795524962E-01 a       401     0    17     1     1
 -6.0668773796256870E-01 a       402     0    17     1     2
  4.7618761899921769E-01 a       403     0    17     1     3
  2.8308786091478916E-01 a       404     0    17     1     4
 -3.0865765947603990E-01 a       405     0    17     1     5
  8.4535450998786632E-01 a       406     0    17     1     6
 -1.6365836829452662E+00 a       407     0    17     1     7
  1.6900500445388722E-01 a       408     0    17     1     8
  7.3440707258998028E-01 a       409     0    17     1     9
  5.8958949966132546E-01 a       410     0    17     1    10
 -1.3547388235002888E-01 a       411     0    17     1    11
 -1.8831254640943554E-02 a       412     0    17     1    12
 -5.6925881018253688E-01 a       413     0    17     1    13
  6.7570970219329440E-01 a       414     0    17     1    14
  7.4611040432134368E-01 a       415     0    17     1    15
  6.9661313647743539E-01 a       416     0    17     1    16
 -9.0660491401164223E-01 a       417     0    17     1    17
  9.0135232726031120E-02 a       418     0    17     1    18
 -3.1463409002913983E-01 a       419     0    17     1    19
  1.5139663957011587E-01 a       420     0    17     1    20
 -3.9393295590572619E-01 a       421     0    17     1    21
 -2.5597141111552013E-01 a       422     0    17     1    22
  4.2800708064700699E-01 a       423     0    17     1    23
 -5.1110364535267028E-01 a       424     0    17     1    24
  1.9565280472616178E-01 a       425     0    17     1    25
 -3.0231488216703079E-01 a       426     0    18     1     1
 -2.6300353563786960E-01 a       427     0    18     1     2
 -1.7478922063036745E-01 a       428     0    18     1     3
 -2.4943380868787729E-01 a       429     0    18     1     4
 -4.3525360353658643E-01 a       430     0    18     1     5
  8.4913647933620107E-02 a       431     0    18     1     6
 -1.0216492965371637E+00 a       432     0    18     1     7
 -2.1208682360960229E-01 a       433     0    18     1     8
  1.1042154844809904E-01 a       434     0    18     1     9
  3.0636777573504370E-01 a       435     0    18     1    10
  4.9839994234760210E-01 a       436     0    18     1    11
  1.2710935916542368E-01 a       437     0    18     1    12
 -2.2145302768869371E-01 a       438     0    18     1    13
  1.7305338663962153E-01 a       439     0    18     1    14
  2.7106950632653598E-01 a       440     0    18     1    15
 -2.8889531607725505E-01 a       441     0    18     1    16
 -8.5266725539339061E-02 a       442     0    18     1    17
  1.0115951013818053E-01 a       443     0    18     1    18
  1.3078211979604318E-01 a       444     0    18     1    19
 -5.1131026278881875E-01 a       445     0    18     1    20
 -2.6639608564809608E-01 a       446     0    18     1    21
  2.6740414173512334E-01 a       447     0    18     1    22
  1.9246652261866622E-02 a       448     0    18     1    23
 -6.0258913107462386E-01 a       449     0    18     1    24
  5.3335655280496619E-01 a       450     0    18     1    25
  3.6638343656085004E-01 a       451     0    19     1     1
 -8.3583143103637780E-01 a       452     0    19     1     2
 -1.2426768620185519E-01 a       453     0    19     1     3
 -8.6441373115733106E-02 a       454     0    19     1     4
 -4.0514773364541307E-01 a       455     0    19     1     5
  4.2017508251216376E-02 a       456     0    19     1     6
 -1.2980450061753805E+00 a       457     0    19     1     7
  1.7561594783892651E-01 a       458     0    19     1     8
  6.6964770399556550E-01 a       459     0    19     1     9
 -1.7879259699960368E-01 a       460     0    19     1    10
 -5.7913444809564318E-01 a       461     0    19     1    11
 -1.5319229123045799E-01 a       462     0    19     1    12
 -3.2595240602906700E-01 a       463     0    19     1    13
  3.9426359516123333E-01 a       464     0    19     1    14
  2.8980965609467702E-01 a       465     0    19     1    15
  8.9606989939794290E-01 a       466     0    19     1    16
 -3.0349392974281064E-01 a       467     0    19     1    17
  4.9903158109951218E-01 a       468     0    19     1    18
 -4.8144062031142798E-02 a       469     0    19     1    19
  3.0121519978470029E-01 a       470     0    19     1    20
 -7.0861906734261248E-03 a       471     0    19     1    21
  9.7423052250522738E-02 a       472     0    19     1    22
 -1.4698522123866609E-01 a       473     0    19     1    23
 -4.4071597373921051E-01 a       474     0    19     1    24
  3.3779104939879140E-01 a       475     0    19     1    25
 -7.9988036371392970E-02 a       476     0    20     1     1
 -9.8125475581164856E-01 a       477     0    20     1     2
  4.9227463183418635E-01 a       478     0    20     1     3
  9.2025137722371989E-02 a       479     0    20     1     4
  9.8836008130764180E-02 a       480     0    20     1     5
 -7.6513323954447987E-03 a       481     0    20     1     6
 -1.7901298474284184E-02 a       482     0    20     1     7
 -2.0421545137712679E-01 a       483     0    20     1     8
  7.2971473089265271E-01 a       484     0    20     1     9
  2.9632347448202684E-01 a       485     0    20     1    10
 -1.6670878587747054E-01 a       486     0    20     1    11
 -5.5419520013906021E-01 a       487     0    20     1    12
  7.4803259272563358E-02 a       488     0    20     1    13
 -3.4371508616725506E-02 a       489     0    20     1    14
 -8.2447051212615932E-02 a       490     0    20     1    15
  6.5472385893394824E-01 a       491     0    20     1    16
 -3.2281944914537469E-01 a       492     0    20     1    17
  2.3423087877171775E-01 a       493     0    20     1    18
 -6.8487376050514004E-01 a       494     0    20     1    19
 -5.3707186622842337E-02 a       495     0    20     1    20
 -2.1375387603744178E-01 a       496     0    20     1    21
  1.4456562275368501E-01 a       497     0    20     1    22
 -7.2933689812606950E-02 a       498     0    20     1    23
  2.0400453495324752E-01 a       499     0    20     1    24
 -5.8172561159702896E-01 a       500     0    20     1    25
 -7.5043377772736411E-02 a       501     0    21     1     1
 -2.0112144464322101E-01 a       502     0    21     1     2
  5.0285252983638595E-01 a       503     0    21     1     3
 -2.1856679678666704E-01 a       504     0    21     1     4
 -2.7048884226938014E-01 a       505     0    21     1     5
 -1.1803537245130168E-01 a       506     0    21     1     6
  4.0178012856817608E-01 a       507     0    21     1     7
 -1.4061644311923663E-01 a       508     0    21     1     8
  3.6668136976318416E-01 a       509     0    21     1     9
 -1.7924725722957008E-01 a       510     0    21     1    10
 -7.7254800716752559E-03 a       511     0    21     1    11
  2.1484275209588920E-02 a       512     0    21     1    12
  4.2188838148439614E-02 a       513     0    21     1    13
 -3.9173429093728729E-01 a       514     0    21     1    14
 -5.3015387818918869E-01 a       515     0    21     1    15
  3.5592567339329369E-02 a       516     0    21     1    16
  1.6766950298220260E-01 a       517     0    21     1    17
  4.0536334941325441E-02 a       518     0    21     1    18
 -4.9605091390130973E-01 a       519     0    21     1    19
  2.5112270767417549E-01 a       520     0    21     1    20
  2.3300145660026511E-01 a       521     0    21     1    21
 -4.6582572119201376E-01 a       522     0    21     1    22
  2.0846655051798751E-01 a       523     0    21     1    23
 -3.0394594548246812E-01 a       524     0    21     1    24
 -6.1135581237033254E-01 a       525     0    21     1    25
 -2.3410538421447388E-01 a       526     0    22     1     1
 -8.5226843248189443E-01 a       527     0    22     1     2
  3.9692576308105482E-01 a       528     0    22     1     3
  1.1105292320446258E-01 a       529     0    22     1     4
 -4.8856670402425306E-01 a       530     0    22     1     5
  6.6516893814221889E-01 a       531     0    22     1     6
 -9.9983666170474605E-01 a       532     0    22     1     7
 -4.1979493075377006E-01 a       533     0    22     1     8
  7.0440533566933461E-01 a       534     0    22     1     9
  5.7458428914957671E-01 a       535     0    22     1    10
 -3.8391091222432011E-01 a       536     0    22     1    11
 -1.7665834683128925E-01 a       537     0    22     1    12
  1.1493758598209928E-02 a       538     0    22     1    13
 -5.8274788614560558E-01 a       539     0    22     1    14
 -1.1849062931313936E-01 a       540     0    22     1    15
  6.8527065298922241E-01 a       541     0    22     1    16
 -5.5135381154070917E-01 a       542     0    22     1    17
 -2.7407425010301156E-01 a       543     0    22     1    18
 -1.1003115160436974E+00 a       544     0    22     1    19
  5.7816338534068468E-01 a       545     0    22     1    20
 -5.0782520894221017E-01 a       546     0    22     1    21
 -5.9239938903911571E-01 a       547     0    22     1    22
  2.4729662124407373E-01 a       548     0    22     1    23
  3.1623854742105850E-01 a       549     0    22     1    24
 -6.3211416210000526E-01 a       550     0    22     1    25
  3.1179610039098010E-01 a       551     0    23     1     1
 -4.4203041996692749E-01 a       552     0    23     1     2
  3.8101510295277213E-01 a       553     0    23     1     3
  6.3095706689906578E-02 a       554     0    23     1     4
  6.9736634337898618E-02 a       555     0    23     1     5
 -1.3669626319308778E-01 a       556     0    23     1     6
 -6.4913844543535881E-02 a       557     0    23     1     7
 -5.6000237435658440E-01 a       558     0    23     1     8
  5.2718128198030878E-01 a       559     0    23     1     9
 -5.3994846819914781E-02 a       560     0    23     1    10
  2.5664018589251814E-02 a       561     0    23     1    11
 -2.6151377852562518E-01 a       562     0    23     1    12
 -9.0951613907268539E-02 a       563     0    23     1    13
 -4.5866855859966214E-02 a       564     0    23     1    14
 -5.2957535624902219E-01 a       565     0    23     1    15
  1.8300084848755599E-01 a       566     0    23     1    16
 -1.3748305651987100E-01 a       567     0    23     1    17
  1.5836633356616658E-01 a       568     0    23     1    18
 -4.4923678185199223E-01 a       569     0    23     1    19
  7.7705414133390618E-02 a       570     0    23     1    20
 -3.7777883751673341E-01 a       571     0    23     1    21
  8.8326695082991194E-02 a       572     0    23     1    22
  2.3314638691483416E-01 a       573     0    23     1    23
  2.6936481106772693E-02 a       574     0    23     1    24
 -6.7002651358147003E-01 a       575     0    23     1    25
 -7.4035671288246063E-01 a       576     0    24     1     1
  2.8330987476804553E-01 a       577     0    24     1     2
 -3.1987772462458020E-01 a       578     0    24     1     3
  4.6407535908863283E-02 a       579     0    24     1     4
 -1.3352177112153271E-01 a       580     0    24     1     5
  2.7881384166413725E-01 a       581     0    24     1     6
  9.1707642965114744E-02 a       582     0    24     1     7
  3.6751891186863256E-02 a       583     0    24     1     8
 -5.6442102668979832E-01 a       584     0    24     1     9
  6.0958259398089853E-01 a       585     0    24     1    10
  4.0243949888938624E-01 a       586     0    24     1    11
  1.9243271341884760E-01 a       587     0    24     1    12
  1.1039010373357205E-01 a       588     0    24     1    13
 -2.9021156224109074E-01 a       589     0    24     1    14
  4.1080079236985828E-01 a       590     0    24     1    15
 -1.8682490595402168E-01 a       591     0    24     1    16
 -1.0480115859035896E-01 a       592     0    24     1    17
 -2.4365703156078371E-02 a       593     0    24     1    18
 -1.4062378882573634E-01 a       594     0    24     1    19
 -6.3576733925098516E-01 a       595     0    24     1    20
  2.0640626415550370E-01 a       596     0    24     1    21
  4.0199421966395268E-02 a       597     0    24     1    22
 -2.7011301773544910E-01 a       598     0    24     1    23
 -1.1570729503371290E-01 a       599     0    24     1    24
 -6.0471135957745649E-02 a       600     0    24     1    25
  5.6489048525867291E-01 a       601     0    25     1     1
  1.4196962162161564E-01 a       602     0    25     1     2
  6.8167362679549781E-01 a       603     0    25     1     3
 -4.4065522937736618E-01 a       604     0    25     1     4
 -5.7820209893630806E-02 a       605     0    25     1     5
 -3.8748293833135194E-01 a       606     0    25     1     6
 -1.3076462448765686E-01 a       607     0    25     1     7
  2.7102770471045412E-01 a       608     0    25     1     8
  1.1886116028500263E-02 a       609     0    25     1     9
 -1.1882579212890321E-02 a       610     0    25     1    10
  1.3889859130017332E-01 a       611     0    25     1    11
  1.3276034647165976E-02 a       612     0    25     1    12
  1.1690191227885992E-01 a       613     0    25     1    13
  8.7084696436204423E-01 a       614     0    25     1    14
 -3.6088272276726241E-01 a       615     0    25     1    15
  2.6507468026432602E-02 a       616     0    25     1    16
  5.0692553675839536E-01 a       617     0    25     1    17
 -4.3831364828054725E-01 a       618     0    25     1    18
  7.0783172373027087E-02 a       619     0    25     1    19
  4.5657067984163707E-01 a       620     0    25     1    20
  6.1517748630738478E-01 a       621     0    25     1    21
 -3.1844941872716948E-01 a       622     0    25     1    22
  1.1406705921456419E+00 a       623     0    25     1    23
 -4.7819744424356214E-01 a       624     0    25     1    24
 -8.0351350151479876E-03 a       625     0    25     1    25
  4.9755201140703420E-01 a       626     0    26     1     1
 -1.0190065601003773E+00 a       627     0    26     1     2
  2.0970671000279476E-01 a       628     0    26     1     3
  7.3239196346409616E-02 a       629     0    26     1     4
  2.6526602503172741E-01 a       630     0    26     1     5
 -3.7921455262945819E-01 a       631     0    26     1     6
 -4.5962050246348868E-01 a       632     0    26     1     7
 -4.0090973520369833E-01 a       633     0    26     1     8
  6.5813321726629526E-01 a       634     0    26     1     9
  8.2643655064269558E-02 a       635     0    26     1    10
 -4.2157198454114697E-02 a       636     0    26     1    11
 -2.0856072603937867E-01 a       637     0    26     1    12
 -1.8659204491983805E-01 a       638     0    26     1    13
 -2.0357015649774896E-01 a       639     0    26     1    14
 -6.4915468573954416E-02 a       640     0    26     1    15
  1.3405385202298145E-01 a       641     0    26     1    16
  2.5008344908897046E-01 a       642     0    26     1    17
  6.4492259042986255E-01 a       643     0    26     1    18
  2.3746951797052041E-02 a       644     0    26     1    19
  5.0649339907870539E-01 a       645     0    26     1    20
  2.6882578873098095E-01 a       646     0    26     1    21
  3.9887629457977908E-01 a       647     0    26     1    22
 -2.3447316403977039E-01 a       648     0    26     1    23
  6.8545482833881288E-01 a       649     0    26     1    24
 -2.3699669264973627E-01 a       650     0    26     1    25
  5.6977268485872723E-01 a       651     0    27     1     1
 -3.7710500001455698E-02 a       652     0    27     1     2
 -2.9428805514104583E-01 a       653     0    27     1     3
  1.0235847144495641E-01 a       654     0    27     1     4
 -4.1496437191330110E-01 a       655     0    27     1     5
 -4.0854073887282844E-01 a       656     0    27     1     6
  3.1915295399216434E-02 a       657     0    27     1     7
 -7.4991763090128771E-01 a       658     0    27     1     8
 -5.4655908774534911E-01 a       659     0    27     1     9
  9.0930840892717940E-02 a       660     0    27     1    10
  5.9203440243489079E-02 a       661     0    27     1    11
  1.8760280508832722E-01 a       662     0    27     1    12
  3.6358564396917470E-01 a       663     0    27     1    13
 -7.7679269595024791E-01 a       664     0    27     1    14
  6.8934675429562650E-02 a       665     0    27     1    15
 -2.8213946277616941E-01 a       666     0    27     1    16
  7.2742054138642809E-01 a       667     0    27     1    17
 -4.5747266934366017E-02 a       668     0    27     1    18
  2.5131711583827848E-01 a       669     0    27     1    19
 -1.8392557744865823E-01 a       670     0    27     1    20
  4.6470811309605253E-01 a       671     0    27     1    21
 -1.9712132239151095E-02 a       672     0    27     1    22
 -9.5045913184240008E-02 a       673     0    27     1    23
  3.7578958976664539E-01 a       674     0    27     1    24
 -1.5057007978818659E-01 a       675     0    27     1    25
  2.3405920446614603E+00 b       676     1     1
  4.8573160360831946E-01 b       677     1     2
 -6.8252724904458895E-01 b       678     1     3
  5.4150189693931150E-01 b       679     1     4
  9.3356088512723356E-01 b       680     1     5
  3.0858451622561414E+00 b       681     1     6
 -3.8415890881324855E-01 b       682     1     7
 -1.0684285762828710E-01 b       683     1     8
  2.0918999246729664E+00 b       684     1     9
 -1.2699062982642459E+00 b       685     1    10
  7.7594260239303070E-01 b       686     1    11
  7.1207531749387176E-01 b       687     1    12
 -3.8202707948481282E-02 b       688     1    13
  1.7739667006807047E-01 b       689     1    14
  7.0788838083953087E-01 b       690     1    15
  4.8975701387681714E-01 b       691     1    16
 -1.1542687311522555E+00 b       692     1    17
 -1.2549154184110023E+00 b       693     1    18
 -1.4100637681979704E+00 b       694     1    19
 -7.5159168046951585E-01 b       695     1    20
 -1.3423644120097764E+00 b       696     1    21
 -6.0897944700950435E-01 b       697     1    22
 -6.2139527940840944E-01 b       698     1    23
 -1.0072726452785608E+00 b       699     1    24
  1.3407154925441658E+00 b       700     1    25
 -6.6101544186337435E-01 a       701     1     1     2     1
  6.3118391897258008E-01 a       702     1     1     2     2
  1.2234918866622067E+00 a       703     1     1     2     3
 -3.4632074479832892E-01 a       704     1     1     2     4
 -1.9362165827119571E-01 a       705     1     1     2     5
 -1.7006211796410584E-01 a       706     1     1     2     6
  4.0734455858971858E-01 a       707     1     1     2     7
  4.9557963915355258E-01 a       708     1     1     2     8
 -2.5956431579017819E-01 a       709     1     1     2     9
 -7.1059026350683632E-02 a       710     1     1     2    10
 -2.3931053854919290E-01 a       711     1     1     2    11
  2.4560165222135719E-01 a       712     1     1     2    12
 -2.5720186689849150E-01 a       713     1     1     2    13
 -5.7790042209277737E-01 a       714     1     1     2    14
 -8.7586269164125574E-01 a       715     1     1     2    15
 -1.0705404646975263E+00 a       716     1     1     2    16
 -7.0858874369868674E-01 a       717     1     1     2    17
 -8.6757527135668788E-01 a       718     1     1     2    18
  2.7848219218756592E-01 a       719     1     1     2    19
  1.5141227453653286E-01 a       720     1     1     2    20
 -1.3181427194479389E+00 a       721     1     1     2    21
 -4.7752332981406248E-01 a       722     1     1     2    22
 -4.9554275202394263E-02 a       723     1     1     2    23
  6.4467375243650560E-01 a       724     1     1     2    24
  7.2791528841590769E-01 a       725     1     1     2    25
  4.4005579807862283E-01 a       726     1     2     2     1
 -2.1021482393615210E-01 a       727     1     2     2     2
 -1.5417094990701350E+00 a       728     1     2     2     3
 -3.1126668703100852E-01 a       729     1     2     2     4
 -1.5717408955392129E-02 a       730     1     2     2     5
 -4.4378497979429626E-01 a       731     1     2     2     6
 -7.8538529096075027E-01 a       732     1     2     2     7
 -3.6509038608976718E-01 a       733     1     2     2     8
 -3.3603870460626289E-01 a       734     1     2     2     9
 -6.4038473980675151E-02 a       735     1     2     2    10
 -4.8326112350049598E-02 a       736     1     2     2    11
  6.8345856624272228E-01 a       737     1     2     2    12
  7.3586336344636027E-01 a       738     1     2     2    13
  2.2358190991566371E-01 a       739     1     2     2    14
  1.6810688870902391E+00 a       740     1     2     2    15
  2.7278239276685035E-01 a       741     1     2     2    16
  6.1733552830898830E-01 a       742     1     2     2    17
  1.1837373021211124E-01 a       743     1     2     2    18
  6.5141613899070833E-02 a       744     1     2     2    19
 -6.7828952193434688E-01 a       745     1     2     2    20
 -4.9396351221433732E-01 a       746     1     2     2    21
  1.4712130719360126E+00 a       747     1     2     2    22
  2.8737127162041382E-01 a       748     1     2     2    23
 -5.2643243208802371E-01 a       749     1     2     2    24
  2.2731723298358331E-01 a       750     1     2     2    25
  3.2918050100605584E-01 a       751     1     3     2     1
 -1.6181251113022307E-02 a       752     1     3     2     2
 -4.3311153075968312E-01 a       753     1     3     2     3
  5.9893248178237724E-01 a       754     1     3     2     4
 -9.8130240119235920E-02 a       755     1     3     2     5
  5.0241533762141888E-01 a       756     1     3     2     6
 -3.8519667070991137E-01 a       757     1     3     2     7
  3.2540882390891250E-02 a       758     1     3     2     8
 -3.1775990100508150E-01 a       759     1     3     2     9
  3.5170899842718178E-01 a       760     1     3     2    10
  4.8706091673412633E-01 a       761     1     3     2    11
 -1.5764651751815018E-01 a       762     1     3     2    12
 -6.1255334736444927E-02 a       763     1     3     2    13
 -1.8000349218647516E-01 a       764     1     3     2    14
 -4.1473080164476417E-01 a       765     1     3     2    15
  4.5752041916245179E-01 a       766     1     3     2    16
  4.5135389761584738E-01 a       767     1     3     2    17
  3.8551105178077000E-01 a       768     1     3     2    18
 -2.2072164678332098E-01 a       769     1     3     2    19
  6.8066938765225382E-01 a       770     1     3     2    20
 -4.3230809638424583E-01 a       771     1     3     2    21
 -5.1083965191203640E-01 a       772     1     3     2    22
 -4.0000898661879414E-01 a       773     1     3     2    23
  5.4708793062518313E-01 a       774     1     3     2    24
 -2.8916194847074278E-01 a       775     1     3     2    25
 -6.3679868874197720E-01 a       776     1     4     2     1
  2.0077938082285893E-01 a       777     1     4     2     2
 -2.5472437301238154E-01 a       778     1     4     2     3
  6.0622250967633418E-01 a       779     1     4     2     4
  9.5843251255273779E-02 a       780     1     4     2     5
 -7.1050687377700472E-01 a       781     1     4     2     6
 -3.7326415781206448E-02 a       782     1     4     2     7
  4.3445072221401271E-01 a       783     1     4     2     8
  3.4468112370106063E-01 a       784     1     4     2     9
 -5.6289383204428070E-02 a       785     1     4     2    10
  4.1532373372416415E-01 a       786     1     4     2    11
  2.5386092880773339E-02 a       787     1     4     2    12
 -2.3966517977102245E-01 a       788     1     4     2    13
 -4.3244353638370009E-02 a       789     1     4     2    14
  1.8540250465783950E-01 a       790     1     4     2    15
 -7.5263944353006773E-01 a       791     1     4     2    16
 -3.9395860906314878E-01 a       792     1     4     2    17
 -8.5461414371114264E-01 a       793     1     4     2    18
  1.4846589255265744E-01 a       794     1     4     2    19
 -7.2154467770489589E-02 a       795     1     4     2    20
 -3.1069183448736309E-01 a       796     1     4     2    21
  2.4261200600049346E-01 a       797     1     4     2    22
 -2.1795463787940414E-01 a       798     1     4     2    23
 -1.5842677800309277E-02 a       799     1     4     2    24
  3.2227930291561924E-01 a       800     1     4     2    25
  7.4667956391165788E-02 a       801     1     5     2     1
 -4.8560382047198763E-01 a       802     1     5     2     2
 -2.1792414545557243E-01 a       803     1     5     2     3
  8.0022052918321332E-02 a       804     1     5     2     4
  1.2399604828904648E-01 a       805     1     5     2     5
 -2.2261703006544543E-02 a       806     1     5     2     6
 -6.4099053224242919E-02 a       807     1     5     2     7
  9.8937146888875574E-02 a       808     1     5     2     8
  1.2155392067101459E-01 a       809     1     5     2     9
 -8.2790191878522254E-02 a       810     1     5     2    10
  4.5605444250090776E-01 a       811     1     5     2    11
 -6.0675321289564721E-01 a       812     1     5     2    12
 -1.4489683878773259E-02 a       813     1     5     2    13
  2.7779344659364058E-01 a       814     1     5     2    14
 -7.8195749815541049E-01 a       815     1     5     2    15
 -7.5841233093357108E-01 a       816     1     5     2    16
 -3.3302519909055761E-01 a       817     1     5     2    17
 -6.6455295831683781E-01 a       818     1     5     2    18
 -1.8641462813481285E-01 a       819     1     5     2    19
  3.5278553399095702E-01 a       820     1     5     2    20
 -1.6531034428064270E-01 a       821     1     5     2    21
  5.1438702554218751E-01 a       822     1     5     2    22
  3.9660161645887593E-01 a       823     1     5     2    23
 -3.5610829014166667E-01 a       824     1     5     2    24
 -1.3564167662675394E-01 a       825     1     5     2    25
 -2.3884686568083020E-02 a       826     1     6     2     1
 -2.1419603687526062E-01 a       827     1     6     2     2
  9.9345751630704382E-01 a       828     1     6     2     3
 -1.1538045086168751E+00 a       829     1     6     2     4
  3.7212816134077070E-01 a       830     1     6     2     5
 -1.1783910325951011E-01 a       831     1     6     2     6
 -2.3123611572025471E-01 a       832     1     6     2     7
  2.1402332916661901E-01 a       833     1     6     2     8
  2.7686136637121039E-01 a       834     1     6     2     9
 -7.2069154104759803E-01 a       835     1     6     2    10
 -1.3090016106292888E+00 a       836     1     6     2    11
  1.0458665525043229E+00 a       837     1     6     2    12
  1.5046457782595234E-02 a       838     1     6     2    13
  2.2663207272071181E-01 a       839     1     6     2    14
  8.8356149529650777E-02 a       840     1     6     2    15
 -6.5777597518409048E-01 a       841     1     6     2    16
 -5.9052138627366794E-02 a       842     1     6     2    17
  1.1216137148447698E+00 a       843     1     6     2    18
  6.7340571617984357E-01 a       844     1     6     2    19
 -8.1628931778873282E-01 a       845     1     6     2    20
 -2.4694834830879939E-01 a       846     1     6     2    21
  5.3847826199331361E-01 a       847     1     6     2    22
  1.9020772911787925E-01 a       848     1     6     2    23
 -2.0168418743178163E-01 a       849     1     6     2    24
  1.1262410129402489E+00 a       850     1     6     2    25
  1.1493559489748082E+00 a       851     1     7     2     1
 -1.1917934793186085E+00 a       852     1     7     2     2
 -2.1929878892063925E+00 a       853     1     7     2     3
  5.7370039011912122E-01 a       854     1     7     2     4
 -5.2081155582586400E-02 a       855     1     7     2     5
  4.1894769180318467E-02 a       856     1     7     2     6
 -2.8352024575055829E-01 a       857     1     7     2     7
  3.1127018011727176E-01 a       858     1     7     2     8
  6.8222372237134073E-03 a       859     1     7     2     9
  2.3717882834789869E-01 a       860     1     7     2    10
 -4.6472887521383366E-01 a       861     1     7     2    11
 -2.5779351687464080E-01 a       862     1     7     2    12
 -1.5549106766516665E-01 a       863     1     7     2    13
  1.0209693352945286E+00 a       864     1     7     2    14
  9.2644290670401430E-01 a       865     1     7     2    15
  9.5299614710245506E-01 a       866     1     7     2    16
  7.1157395664771861E-02 a       867     1     7     2    17
 -5.8798747087646841E-01 a       868     1     7     2    18
  5.1407248983666887E-02 a       869     1     7     2    19
  4.7641531568183121E-01 a       870     1     7     2    20
  4.3019251165006722E-01 a       871     1     7     2    21
  2.9565529842675531E-01 a       872     1     7     2    22
  6.5002963935099489E-01 a       873     1     7     2    23
 -3.4646359813523936E-01 a       874     1     7     2    24
 -1.0106728448726157E+00 a       875     1     7     2    25
  5.7852267950955572E-01 a       876     1     8     2     1
  7.1419672557220104E-01 a       877     1     8     2     2
  6.0360031367243261E-01 a       878     1     8     2     3
  4.5138621399480955E-01 a       879     1     8     2     4
  5.2818539676040976E-01 a       880     1     8     2     5
 -2.7354518168308456E-01 a       881     1     8     2     6
 -3.1362380611426532E-01 a       882     1     8     2     7
  1.2893572900804168E-01 a       883     1     8     2     8
  5.5020805174562493E-01 a       884     1     8     2     9
 -1.4800321952426587E-01 a       885     1     8     2    10
  4.6965977836584272E-01 a       886     1     8     2    11
 -8.1021773115407536E-01 a       887     1     8     2    12
  6.5327943541740416E-02 a       888     1     8     2    13
 -5.3897284812636792E-01 a       889     1     8     2    14
  2.0504168062763109E-01 a       890     1     8     2    15
 -3.6095818385041922E-01 a       891     1     8     2    16
 -1.8756691215137858E-01 a       892     1     8     2    17
 -9.3753110124208772E-01 a       893     1     8     2    18
  2.3780556223798265E-03 a       894     1     8     2    19
  3.0801101032112188E-01 a       895     1     8     2    20
 -8.8092450871175246E-02 a       896     1     8     2    21
  2.3319479423957359E-01 a       897     1     8     2    22
 -2.9833862499462384E-02 a       898     1     8     2    23
  2.2849930538236843E-01 a       899     1     8     2    24
 -2.9706077232996696E-02 a       900     1     8     2    25
 -9.7499701053753607E-01 a       901     1     9     2     1
  7.1557522303957766E-01 a       902     1     9     2     2
  8.5841005326810227E-01 a       903     1     9     2     3
 -1.1756328600930075E+00 a       904     1     9     2     4
 -3.8236075851532103E-01 a       905     1     9     2     5
 -5.9243312352807520E-01 a       906     1     9     2     6
  9.9099599556857987E-01 a       907     1     9     2     7
  1.1615487827080913E-01 a       908     1     9     2     8
 -6.4557980745634833E-02 a       909     1     9     2     9
  3.2654545527534606E-01 a       910     1     9     2    10
  3.6718854969265113E-01 a       911     1     9     2    11
  1.1624811197044222E+00 a       912     1     9     2    12
  2.3102420184199332E-01 a       913     1     9     2    13
 -5.1443261414919263E-02 a       914     1     9     2    14
 -8.9578218912657814E-01 a       915     1     9     2    15
 -4.6695539265943831E-01 a       916     1     9     2    16
 -8.6595375231357508E-01 a       917     1     9     2    17
 -5.5860253023510975E-01 a       918     1     9     2    18
 -1.2518421799318474E-02 a       919     1     9     2    19
  2.7488414829412122E-01 a       920     1     9     2    20
 -1.4016222973910168E+00 a       921     1     9     2    21
  2.8690683380047943E-01 a       922     1     9     2    22
 -1.4760809317078860E-01 a       923     1     9     2    23
  3.9660590465240075E-01 a       924     1     9     2    24
 -1.0738250799135787E+00 a       925     1     9     2    25
  6.8625178675240339E-01 a       926     1    10     2     1
 -1.1640529146642743E-01 a       927     1    10     2     2
  2.3883601281858766E-01 a       928     1    10     2     3
  5.9325686724646109E-01 a       929     1    10     2     4
 -6.7368289884857144E-02 a       930     1    10     2     5
  5.5707437781353530E-01 a       931     1    10     2     6
 -7.8026230778441535E-02 a       932     1    10     2     7
 -4.1570559226766129E-01 a       933     1    10     2     8
 -2.3673445745765082E-01 a       934     1    10     2     9
  2.4675970282406612E-01 a       935     1    10     2    10
 -4.1104736972109479E-01 a       936     1    10     2    11
  2.2828059333390967E-03 a       937     1    10     2    12
 -2.0857386469946235E-01 a       938     1    10     2    13
 -4.4888458248559926E-01 a       939     1    10     2    14
 -7.4218242216642874E-02 a       940     1    10     2    15
  4.1800189867564441E-01 a       941     1    10     2    16
  5.3473481471893869E-01 a       942     1    10     2    17
  1.3338669643178989E+00 a       943     1    10     2    18
 -3.7870773814550968E-01 a       944     1    10     2    19
  2.1348846480603026E-01 a       945     1    10     2    20
 -7.5169729727952023E-02 a       946     1    10     2    21
 -3.7178987974152572E-01 a       947     1    10     2    22
 -2.6385469878370771E-01 a       948     1    10     2    23
  6.3312302477278659E-01 a       949     1    10     2    24
 -6.7613804728440519E-01 a       950     1    10     2    25
  2.0445345462999878E-01 a       951     1    11     2     1
 -2.6406751094245967E-01 a       952     1    11     2     2
  1.2641495267316294E-01 a       953     1    11     2     3
 -3.4553547054986800E-01 a       954     1    11     2     4
 -3.2922176272027581E-01 a       955     1    11     2     5
 -3.6499519106611006E-01 a       956     1    11     2     6
 -3.3378422201750518E-01 a       957     1    11     2     7
 -1.2719829471323760E-01 a       958     1    11     2     8
 -3.6914619423401523E-01 a       959     1    11     2     9
  1.0510598630253187E-01 a       960     1    11     2    10
 -3.7392769291226791E-01 a       961     1    11     2    11
  1.1375042648197353E-01 a       962     1    11     2    12
 -9.7778006978501641E-02 a       963     1    11     2    13
 -5.8675879116049168E-01 a       964     1    11     2    14
  6.9132083268626077E-01 a       965     1    11     2    15
 -7.9602144112696685E-02 a       966     1    11     2    16
  1.2508180572726915E-01 a       967     1    11     2    17
  1.2098611387756603E-01 a       968     1    11     2    18
 -3.2978207594856018E-01 a       969     1    11     2    19
 -3.5145830666313743E-01 a       970     1    11     2    20
 -2.4491410102846026E-01 a       971     1    11     2    21
  1.1191678534486367E+00 a       972     1    11     2    22
  4.9057616848658281E-01 a       973     1    11     2    23
 -6.0698591184728590E-02 a       974     1    11     2    24
 -5.6051069774690467E-02 a       975     1    11     2    25
 -3.5519344205683401E-01 a       976     1    12     2     1
  2.7286918742619426E-01 a       977     1    12     2     2
  1.6548051646792739E-01 a       978     1    12     2     3
 -5.7819842524010323E-01 a       979     1    12     2     4
  1.9860056355419275E-01 a       980     1    12     2     5
 -2.6015874415336843E-01 a       981     1    12     2     6
  2.5384460448895075E-02 a       982     1    12     2     7
 -1.2360598931106326E-01 a       983     1    12     2     8
  1.5300591552714288E-01 a       984     1    12     2     9
  1.2316887570159276E-02 a       985     1    12     2    10
 -3.5971591007285275E-01 a       986     1    12     2    11
  5.0362390092443234E-02 a       987     1    12     2    12
  3.1859572618557436E-01 a       988     1    12     2    13
  8.0238963909477945E-01 a       989     1    12     2    14
  4.9391610940037628E-01 a       990     1    12     2    15
 -4.8052962687412543E-01 a       991     1    12     2    16
 -1.3688518399868768E-01 a       992     1    12     2    17
 -2.0135551125973608E-01 a       993     1    12     2    18
  2.0015257441080500E-01 a       994     1    12     2    19
  2.7816577132247198E-02 a       995     1    12     2    20
 -4.9594505190787189E-02 a       996     1    12     2    21
  3.2160962605923976E-01 a       997     1    12     2    22
  1.3211779038699129E-01 a       998     1    12     2    23
 -6.0321063171551448E-01 a       999     1    12     2    24
  3.1182931929327817E-01 a      1000     1    12     2    25
  4.6241041300566343E-01 a      1001     1    13     2     1
 -6.5145559192259084E-01 a      1002     1    13     2     2
 -1.3015572814159662E+00 a      1003     1    13     2     3
  7.1496854583311487E-01 a      1004     1    13     2     4
 -2.7037272057752804E-01 a      1005     1    13     2     5
  3.7078294539622497E-01 a      1006     1    13     2     6
 -8.0496538076349256E-01 a      1007     1    13     2     7
 -2.9695569123182053E-01 a      1008     1    13     2     8
  6.7554634959630711E-01 a      1009     1    13     2     9
  2.0765584746702634E-01 a      1010     1    13     2    10
  2.6368780663384378E-01 a      1011     1    13     2    11
 -6.5690637667525187E-01 a      1012     1    13     2    12
  1.3709149019212960E-01 a      1013     1    13     2    13
  8.6070318726390627E-01 a      1014     1    13     2    14
  1.1455734629521686E+00 a      1015     1    13     2    15
  3.2453649955661423E-01 a      1016     1    13     2    16
  1.5295636829783024E-01 a      1017     1    13     2    17
  1.9081722214278382E-01 a      1018     1    13     2    18
  9.7237607669660747E-02 a      1019     1    13     2    19
  3.1372863653451943E-01 a      1020     1    13     2    20
  2.7578058765114671E-01 a      1021     1    13     2    21
  3.3085104342233301E-01 a      1022     1    13     2    22
 -1.8643490094106138E-01 a      1023     1    13     2    23
 -6.1532203577058597E-01 a      1024     1    13     2    24
 -3.5172455889184691E-03 a      1025     1    13     2    25
 -1.9004594879371919E-01 a      1026     1    14     2     1
  1.8291193645894757E+00 a      1027     1    14     2     2
  3.6981068710545328E-01 a      1028     1    14     2     3
 -3.9924746149199553E-01 a      1029     1    14     2     4
  5.8695754544500434E-01 a      1030     1    14     2     5
 -4.7397941120301007E-01 a      1031     1    14     2     6
  3.5768242620980989E-01 a      1032     1    14     2     7
  1.4069562190761981E-01 a      1033     1    14     2     8
 -1.0501153749876056E-01 a      1034     1    14     2     9
 -5.4541840800029619E-04 a      1035     1    14     2    10
 -5.9508697082224737E-01 a      1036     1    14     2    11
 -7.7945154923192939E-01 a      1037     1    14     2    12
  4.9900573078052496E-01 a      1038     1    14     2    13
 -1.5502469527401186E+00 a      1039     1    14     2    14
 -8.6712906959571123E-01 a      1040     1    14     2    15
 -7.0329435331053813E-01 a      1041     1    14     2    16
 -2.2451129779230516E-01 a      1042     1    14     2    17
 -7.1165096251846205E-01 a      1043     1    14     2    18
 -2.1404012267482292E-01 a      1044     1    14     2    19
  4.2435087687805340E-01 a      1045     1    14     2    20
 -1.7019129371164171E-01 a      1046     1    14     2    21
  6.3263736460476749E-01 a      1047     1    14     2    22
 -9.4928006826017508E-01 a      1048     1    14     2    23
  8.1114516031475037E-01 a      1049     1    14     2    24
  8.5441003038159435E-02 a      1050     1    14     2    25
 -2.1555229239673940E-01 a      1051     1    15     2     1
  1.0770484015950150E+00 a      1052     1    15     2     2
  2.1946000210322109E-01 a      1053     1    15     2     3
  1.1223925682077299E-01 a      1054     1    15     2     4
  1.0632268480601738E-02 a      1055     1    15     2     5
 -2.9081942965149016E-01 a      1056     1    15     2     6
 -1.8357706862602130E-01 a      1057     1    15     2     7
  1.5208725525752448E-01 a      1058     1    15     2     8
  5.8694298420709841E-02 a      1059     1    15     2     9
 -2.4565274869328743E-01 a      1060     1    15     2    10
  2.4699030461788549E-01 a      1061     1    15     2    11
  5.1472690117042186E-01 a      1062     1    15     2    12
  1.2053860516302174E-01 a      1063     1    15     2    13
 -8.7465307795552361E-01 a      1064     1    15     2    14
  6.4226571110297825E-01 a      1065     1    15     2    15
 -7.9746383260674703E-01 a      1066     1    15     2    16
 -2.0133432806271440E-01 a      1067     1    15     2    17
 -6.8921206114603628E-01 a      1068     1    15     2    18
  3.4813733386795359E-01 a      1069     1    15     2    19
 -2.7739935047072339E-01 a      1070     1    15     2    20
 -4.1996005190155505E-01 a      1071     1    15     2    21
  5.7783480686667354E-01 a      1072     1    15     2    22
  8.4089953445209725E-02 a      1073     1    15     2    23
 -1.4527042473370533E-01 a      1074     1    15     2    24
  1.7987788356579718E-01 a      1075     1    15     2    25
 -5.8440272023189033E-01 a      1076     1    16     2     1
 -9.4401436276452444E-01 a      1077     1    16     2     2
  8.6759920189890982E-01 a      1078     1    16     2     3
  1.2819732437544365E-01 a      1079     1    16     2     4
  2.8055800939426540E-01 a      1080     1    16     2     5
 -2.6592260693267145E-01 a      1081     1    16     2     6
  4.4494012286203810E-01 a      1082     1    16     2     7
  2.7480917347333667E-01 a      1083     1    16     2     8
 -2.1025522941030611E-03 a      1084     1    16     2     9
 -4.9213762514649168E-01 a      1085     1    16     2    10
  2.7424490761648368E-01 a      1086     1    16     2    11
  2.2335933429843516E-01 a      1087     1    16     2    12
 -1.5101197124908564E-01 a      1088     1    16     2    13
  1.4647906086643570E+00 a      1089     1    16     2    14
 -9.0066357615106007E-01 a      1090     1    16     2    15
 -6.0012838254123280E-01 a      1091     1    16     2    16
 -7.4231085696921800E-02 a      1092     1    16     2    17
 -1.5041878899660316E-01 a      1093     1    16     2    18
  2.6230851659425058E-01 a      1094     1    16     2    19
 -6.2718090305925012E-01 a      1095     1    16     2    20
 -6.9805487624354934E-01 a      1096     1    16     2    21
 -1.2462697357911026E+00 a      1097     1    16     2    22
  2.0272972526252861E-01 a      1098     1    16     2    23
  9.3139696887555523E-02 a      1099     1    16     2    24
  5.7015619790168393E-01 a      1100     1    16     2    25
  5.7285492268401972E-01 a      1101     1    17     2     1
  4.4600742215113509E-01 a      1102     1    17     2     2
 -1.1122539038917041E+00 a      1103     1    17     2     3
 -6.3648110764267829E-01 a      1104     1    17     2     4
 -3.6648391231718613E-01 a      1105     1    17     2     5
  5.0226663483021816E-01 a      1106     1    17     2     6
 -6.0219613291121310E-01 a      1107     1    17     2     7
 -3.4526235293879676E-01 a      1108     1    17     2     8
 -8.8936263264226301E-01 a      1109     1    17     2     9
  5.0592594567772452E-02 a      1110     1    17     2    10
 -4.0440677406194891E-01 a      1111     1    17     2    11
 -3.6354865180179935E-01 a      1112     1    17     2    12
 -4.4002402838596516E-01 a      1113     1    17     2    13
  3.5618584161956590E-01 a      1114     1    17     2    14
  1.0935829832226984E+00 a      1115     1    17     2    15
  1.9775639424215147E-01 a      1116     1    17     2    16
  6.8050084754464585E-02 a      1117     1    17     2    17
 -4.2296279829961736E-01 a      1118     1    17     2    18
 -5.0639964704239475E-02 a      1119     1    17     2    19
  1.0036057479875269E+00 a      1120     1    17     2    20
 -4.2457517803768491E-01 a      1121     1    17     2    21
 -1.5435394377504372E-01 a      1122     1    17     2    22
  1.6279903176478545E+00 a      1123     1    17     2    23
  1.4359812206335638E+00 a      1124     1    17     2    24
 -4.0134684075226323E-01 a      1125     1    17     2    25
 -7.6134981360060972E-02 a      1126     1    18     2     1
 -6.8631558647229668E-02 a      1127     1    18     2     2
 -7.0634776271878241E-01 a      1128     1    18     2     3
  7.5594720937815696E-01 a      1129     1    18     2     4
 -1.9657821709083945E-01 a      1130     1    18     2     5
  9.6340659936086107E-02 a      1131     1    18     2     6
 -5.0052748469103170E-01 a      1132     1    18     2     7
 -4.1758332811001259E-01 a      1133     1    18     2     8
 -2.4688559407449659E-01 a      1134     1    18     2     9
 -6.2779491749211644E-02 a      1135     1    18     2    10
  4.3725338420384413E-01 a      1136     1    18     2    11
 -7.6345430877062537E-01 a      1137     1    18     2    12
 -5.4983786936509660E-01 a      1138     1    18     2    13
 -1.0379225393356262E+00 a      1139     1    18     2    14
 -4.7773528731377363E-01 a      1140     1    18     2    15
  4.9778291199250091E-01 a      1141     1    18     2    16
  1.0416821584898368E-01 a      1142     1    18     2    17
 -4.1529815537849563E-01 a      1143     1    18     2    18
 -3.7807569615617376E-01 a      1144     1    18     2    19
  3.9668658323962214E-01 a      1145     1    18     2    20
  5.0568088548501999E-01 a      1146     1    18     2    21
 -7.0515422359035851E-01 a      1147     1    18     2    22
  7.8084789507775398E-01 a      1148     1    18     2    23
 -1.6997861198610517E-01 a      1149     1    18     2    24
 -5.2704384397866000E-01 a      1150     1    18     2    25
  8.1693976318715811E-01 a      1151     1    19     2     1
  5.9934507356613009E-01 a      1152     1    19     2     2
 -5.5397226312724901E-01 a      1153     1    19     2     3
  1.2550451336252252E-01 a      1154     1    19     2     4
 -2.7774262966369467E-01 a      1155     1    19     2     5
  5.7077827921191360E-01 a      1156     1    19     2     6
 -2.2442769491848882E-01 a      1157     1    19     2     7
 -7.0165971556944162E-01 a      1158     1    19     2     8
 -4.9855526184566562E-01 a      1159     1    19     2     9
  5.6789256359363063E-02 a      1160     1    19     2    10
 -1.2662185181535159E+00 a      1161     1    19     2    11
 -5.9782441814253806E-01 a      1162     1    19     2    12
  1.1376036915125208E-01 a      1163     1    19     2    13
 -5.4197824510788362E-01 a      1164     1    19     2    14
 -1.5274406636373758E-01 a      1165     1    19     2    15
  2.9353794979920317E-01 a      1166     1    19     2    16
  4.0181965012905707E-01 a      1167     1    19     2    17
  6.6852222404664086E-01 a      1168     1    19     2    18
 -2.1574692103072615E-01 a      1169     1    19     2    19
 -2.4471616383213468E-01 a      1170     1    19     2    20
  4.7956919720927282E-01 a      1171     1    19     2    21
  1.6822962706125126E+00 a      1172     1    19     2    22
 -1.8807831157694599E-01 a      1173     1    19     2    23
 -2.6665185755194477E-02 a      1174     1    19     2    24
 -3.6206163027519461E-01 a      1175     1    19     2    25
 -9.8501030116717148E-01 a      1176     1    20     2     1
  2.8380017268501095E-01 a      1177     1    20     2     2
  1.3935471259832104E+00 a      1178     1    20     2     3
 -6.4938412178466309E-01 a      1179     1    20     2     4
 -1.5422632037636793E-02 a      1180     1    20     2     5
 -5.9434842466127391E-01 a      1181     1    20     2     6
  1.0729173678859456E+00 a      1182     1    20     2     7
  2.1564187725609177E-01 a      1183     1    20     2     8
 -7.6767320247346782E-01 a      1184     1    20     2     9
 -2.6617244845895405E-01 a      1185     1    20     2    10
 -1.2956015630975060E-01 a      1186     1    20     2    11
  6.9174459353030882E-01 a      1187     1    20     2    12
 -2.5297182110716721E-01 a      1188     1    20     2    13
 -4.9976884225415635E-01 a      1189     1    20     2    14
 -9.9369158908701904E-01 a      1190     1    20     2    15
 -1.1243646155102278E+00 a      1191     1    20     2    16
 -2.3729523069007041E-01 a      1192     1    20     2    17
 -6.9056189513775101E-01 a      1193     1    20     2    18
 -1.9474174683785134E-01 a      1194     1    20     2    19
  3.7644433215290679E-01 a      1195     1    20     2    20
 -1.0558132571252832E+00 a      1196     1    20     2    21
 -1.3170421891310273E+00 a      1197     1    20     2    22
  1.1615013012864714E+00 a      1198     1    20     2    23
  5.6599472795067851E-01 a      1199     1    20     2    24
  3.2717919140057355E-01 a      1200     1    20     2    25
  5.6441014732130812E-01 a      1201     1    21     2     1
  7.1455877340180718E-01 a      1202     1    21     2     2
  1.3567785366319332E-01 a      1203     1    21     2     3
 -3.7448415835139820E-01 a      1204     1    21     2     4
 -2.8276573302714542E-01 a      1205     1    21     2     5
  7.2152390421714130E-01 a      1206     1    21     2     6
 -3.4946562268063619E-01 a      1207     1    21     2     7
 -3.5094541625227244E-01 a      1208     1    21     2     8
 -3.8395144050825120E-01 a      1209     1    21     2     9
  7.1812750252794391E-02 a      1210     1    21     2    10
 -4.3036061716039037E-01 a      1211     1    21     2    11
 -1.8446901084962292E-01 a      1212     1    21     2    12
 -4.5654149698233432E-01 a      1213     1    21     2    13
  4.4514828058531913E-01 a      1214     1    21     2    14
  4.3222609694763447E-01 a      1215     1    21     2    15
  1.0922257857906011E-01 a      1216     1    21     2    16
 -8.5799768127974990E-02 a      1217     1    21     2    17
 -2.9946889855690884E-01 a      1218     1    21     2    18
 -1.8416863704952488E-01 a      1219     1    21     2    19
  3.4435663996139687E-01 a      1220     1    21     2    20
 -6.1535741836172983E-02 a      1221     1    21     2    21
  2.2298056806226252E-01 a      1222     1    21     2    22
  9.1346574248861789E-01 a      1223     1    21     2    23
  9.9770736166603169E-01 a      1224     1    21     2    24
  2.1314605518473553E-01 a      1225     1    21     2    25
  1.8029729689435789E-01 a      1226     1    22     2     1
 -2.6262227456788040E-01 a      1227     1    22     2     2
  3.1005311779319755E-01 a      1228     1    22     2     3
  1.9320723530183911E-01 a      1229     1    22     2     4
  3.6724784630144752E-02 a      1230     1    22     2     5
  6.8538967836449882E-01 a      1231     1    22     2     6
 -5.1804408556328663E-01 a      1232     1    22     2     7
 -4.5078504048349638E-01 a      1233     1    22     2     8
  4.6740475252225147E-02 a      1234     1    22     2     9
  1.2112971718351988E-01 a      1235     1    22     2    10
  6.8646379023540705E-01 a      1236     1    22     2    11
 -6.2203780945080778E-01 a      1237     1    22     2    12
 -1.8509012565542174E-01 a      1238     1    22     2    13
 -7.1040627175470794E-01 a      1239     1    22     2    14
 -5.8549145518892498E-01 a      1240     1    22     2    15
  8.5626224332524525E-01 a      1241     1    22     2    16
  4.4777068064123621E-01 a      1242     1    22     2    17
  1.5006974098012399E-01 a      1243     1    22     2    18
 -3.8095024936960076E-01 a      1244     1    22     2    19
  7.9848122187348591E-01 a      1245     1    22     2    20
 -1.1592229258334988E-01 a      1246     1    22     2    21
 -5.0343575463465802E-02 a      1247     1    22     2    22
  5.4277455807675797E-02 a      1248     1    22     2    23
  4.7398803225868681E-02 a      1249     1    22     2    24
 -5.5865952208532688E-01 a      1250     1    22     2    25
 -2.5861571351161228E-01 a      1251     1    23     2     1
  4.3372804414263655E-01 a      1252     1    23     2     2
  1.9975817810179415E+00 a      1253     1    23     2     3
  2.9219298137373576E-02 a      1254     1    23     2     4
  1.9728432680070623E-01 a      1255     1    23     2     5
  1.4463612326843736E+00 a      1256     1    23     2     6
  2.1154631621529739E-03 a      1257     1    23     2     7
 -1.3302073216860977E-01 a      1258     1    23     2     8
 -8.5755110391611111E-01 a      1259     1    23     2     9
  1.6588457537115997E-01 a      1260     1    23     2    10
 -1.7087605091828300E+00 a      1261     1    23     2    11
 -6.3751485403656036E-02 a      1262     1    23     2    12
 -4.3695151486647410E-01 a      1263     1    23     2    13
 -4.3680976720053227E-01 a      1264     1    23     2    14
 -8.9324623613806120E-01 a      1265     1    23     2    15
  2.9373700597897306E-01 a      1266     1    23     2    16
  2.4550279079377432E-01 a      1267     1    23     2    17
  6.5653708707809744E-01 a      1268     1    23     2    18
 -1.0895512380386776E-01 a      1269     1    23     2    19
 -1.3035545586030617E-01 a      1270     1    23     2    20
  5.7614935387407286E-02 a      1271     1    23     2    21
  3.6640182398177390E-01 a      1272     1    23     2    22
  4.2040205503784456E-01 a      1273     1    23     2    23
  1.7953858704019050E+00 a      1274     1    23     2    24
 -5.2459808157520538E-01 a      1275     1    23     2    25
  3.9343475038610087E-01 a      1276     1    24     2     1
 -1.1611284777409274E+00 a      1277     1    24     2     2
 -1.1092523177301978E+00 a      1278     1    24     2     3
  5.0606834943403523E-01 a      1279     1    24     2     4
  2.4274157218338593E-01 a      1280     1    24     2     5
  3.5796398026699916E-01 a      1281     1    24     2     6
 -2.9126183804722715E-02 a      1282     1    24     2     7
 -2.9900196646055366E-01 a      1283     1    24     2     8
  1.8913060396167664E-02 a      1284     1    24     2     9
 -9.1134556897142796E-02 a      1285     1    24     2    10
  6.0069154655037216E-01 a      1286     1    24     2    11
 -4.6218564927056310E-01 a      1287     1    24     2    12
 -2.2756050459046226E-01 a      1288     1    24     2    13
  2.4514956627124065E-01 a      1289     1    24     2    14
 -4.5196914991309661E-01 a      1290     1    24     2    15
 -2.0122964348540245E-01 a      1291     1    24     2    16
 -2.1286835523820984E-02 a      1292     1    24     2    17
 -1.8151625800864055E-01 a      1293     1    24     2    18
  1.4538640459175377E-02 a      1294     1    24     2    19
  9.3984696968245005E-02 a      1295     1    24     2    20
  9.8283766221886193E-01 a      1296     1    24     2    21
 -4.4245442831206145E-03 a      1297     1    24     2    22
 -1.2414155969709195E-01 a      1298     1    24     2    23
  1.9326491155114686E-01 a      1299     1    24     2    24
 -5.1551739184419842E-01 a      1300     1    24     2    25
  3.5504694995406303E-03 a      1301     1    25     2     1
  9.6881013779463687E-01 a      1302     1    25     2     2
  1.2083474795103737E+00 a      1303     1    25     2     3
 -3.4137140117758780E-01 a      1304     1    25     2     4
  1.0033205270471675E+00 a      1305     1    25     2     5
 -5.1408766405416317E-01 a      1306     1    25     2     6
  6.1678674236217557E-01 a      1307     1    25     2     7
  1.3761729562600969E-01 a      1308     1    25     2     8
  5.4423755091725079E-01 a      1309     1    25     2     9
 -5.0558208614575306E-01 a      1310     1    25     2    10
 -1.3964512696702469E+00 a      1311     1    25     2    11
 -8.8498741080849608E-01 a      1312     1    25     2    12
  1.6168651830242967E-01 a      1313     1    25     2    13
 -1.3370413648732191E+00 a      1314     1    25     2    14
 -1.3026438793453889E+00 a      1315     1    25     2    15
 -1.2486863064031317E+00 a      1316     1    25     2    16
 -1.0541511262745766E-01 a      1317     1    25     2    17
  3.3682040374008976E-01 a      1318     1    25     2    18
  8.8660994149652825E-02 a      1319     1    25     2    19
 -6.2680904031206419E-01 a      1320     1    25     2    20
 -9.6488965593401213E-02 a      1321     1    25     2    21
 -3.1044007833960235E-01 a      1322     1    25     2    22
 -3.8902127159386207E-01 a      1323     1    25     2    23
 -1.2212965956968547E-01 a      1324     1    25     2    24
  7.9687356728525982E-01 a      1325     1    25     2    25
 -1.0357733527892892E+00 b      1326     2     1
  1.6531615119186494E-01 b      1327     2     2
  5.1347025888195152E-01 b      1328     2     3
  7.7883721058318992E-02 b      1329     2     4
 -5.5431491607545591E-01 b      1330     2     5
 -2.8534241400386084E-01 b      1331     2     6
 -3.7782994674994141E-01 b      1332     2     7
 -6.2741729379909239E-02 b      1333     2     8
 -6.9908279697478137E-01 b      1334     2     9
 -6.6953252840934874E-01 b      1335     2    10
  3.0940923696140521E-01 b      1336     2    11
 -2.3518839245223649E-01 b      1337     2    12
 -4.3653661765736890E-01 b      1338     2    13
 -1.5351081960527739E+00 b      1339     2    14
 -3.1120958998907444E-01 b      1340     2    15
 -1.6862596797136100E+00 b      1341     2    16
 -5.6331679538566937E-01 b      1342     2    17
 -6.4178067657817484E-01 b      1343     2    18
  1.7934329579129285E-01 b      1344     2    19
 -4.4980811176895624E-01 b      1345     2    20
 -1.2575685039921142E-01 b      1346     2    21
 -6.4136604905116001E-01 b      1347     2    22
  3.8951991400956766E-02 b      1348     2    23
 -8.7773842589251017E-01 b      1349     2    24
  1.1648645914106182E+00 b      1350     2    25
 -1.5019861920285655E+00 a      1351     2     1     3     1
 -1.4572772388877577E+00 a      1352     2     2     3     1
 -2.9206882294102030E+00 a      1353     2     3     3     1
  1.1317706130576357E+00 a      1354     2     4     3     1
 -2.7032822904076648E-01 a      1355     2     5     3     1
  5.4557685973507386E-01 a      1356     2     6     3     1
  1.5355722169128544E-01 a      1357     2     7     3     1
  7.2058316263774624E-01 a      1358     2     8     3     1
 -9.9452041444783112E-01 a      1359     2     9     3     1
 -8.5396279296535468E-02 a      1360     2    10     3     1
  1.2667830277557557E+00 a      1361     2    11     3     1
  5.5837595350900393E-01 a      1362     2    12     3     1
  3.0049259053367389E-01 a      1363     2    13     3     1
  1.4132356120556122E+00 a      1364     2    14     3     1
  1.4142305108266338E+00 a      1365     2    15     3     1
 -9.6531161219059158E-01 a      1366     2    16     3     1
  9.0015821658848039E-01 a      1367     2    17     3     1
 -9.9654385381115804E-02 a      1368     2    18     3     1
 -1.4759399424755887E-01 a      1369     2    19     3     1
 -2.1761980679659270E+00 a      1370     2    20     3     1
 -4.0928633577511586E-01 a      1371     2    21     3     1
 -4.1172379425032618E-01 a      1372     2    22     3     1
  4.9004516341085314E-01 a      1373     2    23     3     1
  2.7497386499236720E+00 a      1374     2    24     3     1
  1.2027740736972845E+00 a      1375     2    25     3     1
  8.7772430964469539E-01 b      1376     3     1
