################################################################################
# Neural network connection values (weights and biases).
################################################################################
# Col  Name       Description
################################################################################
# 1    connection Neural network connection value.
# 2    t          Connection type (a = weight, b = bias).
# 3    index      Index enumerating weights.
# 4    l_s        Starting point layer (end point layer for biases).
# 5    n_s        Starting point neuron in starting layer (end point neuron for biases).
# 6    l_e        End point layer.
# 7    n_e        End point neuron in end layer.
################################################################################
#                      1 2         3     4     5     6     7
#             connection t     index   l_s   n_s   l_e   n_e
############################################################
  3.4958769136419343E-01 a         1     0     1     1     1
  3.8598205387627937E-01 a         2     0     1     1     2
  3.8814632434416263E-01 a         3     0     1     1     3
 -4.4273934918675178E-01 a         4     0     1     1     4
 -1.4414038109301663E-01 a         5     0     1     1     5
  3.7744339956195699E-01 a         6     0     1     1     6
  4.6040381462095425E-01 a         7     0     1     1     7
 -4.1267078549365532E-01 a         8     0     1     1     8
  4.8870035964473829E-01 a         9     0     1     1     9
 -8.4827307717215306E-02 a        10     0     1     1    10
  1.8771705553222834E-01 a        11     0     1     1    11
  3.3621811211662728E-01 a        12     0     1     1    12
 -1.6660619082159162E-01 a        13     0     1     1    13
 -5.4333860443215887E-01 a        14     0     1     1    14
  1.0970379954381224E-01 a        15     0     1     1    15
  3.6318650448869289E-01 a        16     0     2     1     1
  7.9205210037519191E-01 a        17     0     2     1     2
 -1.4069948668578158E-01 a        18     0     2     1     3
 -5.7792550684478294E-01 a        19     0     2     1     4
  8.7206735139653258E-01 a        20     0     2     1     5
 -1.1209650759446175E+00 a        21     0     2     1     6
 -1.8147235367687857E+00 a        22     0     2     1     7
  1.2030110470867366E+00 a        23     0     2     1     8
  8.7729710686167361E-01 a        24     0     2     1     9
 -3.2749533910905776E-01 a        25     0     2     1    10
 -1.3240590050642431E-01 a        26     0     2     1    11
  1.3183887113719475E+00 a        27     0     2     1    12
 -1.0723173684059659E+00 a        28     0     2     1    13
 -1.3799275598685983E+00 a        29     0     2     1    14
  1.9604523270656791E+00 a        30     0     2     1    15
 -9.8472649734703890E-03 a        31     0     3     1     1
  3.3089318134886775E-01 a        32     0     3     1     2
  6.2676270452221217E-01 a        33     0     3     1     3
 -2.8489683128564994E-02 a        34     0     3     1     4
 -5.0870894336670458E-01 a        35     0     3     1     5
  3.8347197826049839E-01 a        36     0     3     1     6
  3.2062089897077561E-01 a        37     0     3     1     7
 -4.9703170504319100E-01 a        38     0     3     1     8
  5.1463273124605735E-01 a        39     0     3     1     9
  8.2669991804846688E-02 a        40     0     3     1    10
 -9.2442063868739391E-02 a        41     0     3     1    11
 -2.1842068865282160E-01 a        42     0     3     1    12
 -1.9823521535937402E-01 a        43     0     3     1    13
 -4.5876622567242092E-01 a        44     0     3     1    14
 -4.9627408693526144E-02 a        45     0     3     1    15
  3.2488586503435979E-01 a        46     0     4     1     1
  6.2936358451683083E-01 a        47     0     4     1     2
 -4.3168422295517389E-01 a        48     0     4     1     3
 -3.6073026472272551E-01 a        49     0     4     1     4
  3.9673397135821814E-01 a        50     0     4     1     5
 -6.3132242354300383E-01 a        51     0     4     1     6
 -1.1340648330573324E+00 a        52     0     4     1     7
  8.1793319816218379E-01 a        53     0     4     1     8
  5.9751924444300286E-01 a        54     0     4     1     9
 -3.4341620704595299E-01 a        55     0     4     1    10
 -6.3747419036876662E-01 a        56     0     4     1    11
  1.2107515683077350E+00 a        57     0     4     1    12
 -1.3534076071562497E+00 a        58     0     4     1    13
 -1.4608633750725193E+00 a        59     0     4     1    14
  1.9029156253281492E+00 a        60     0     4     1    15
  2.8418930621545369E-01 a        61     0     5     1     1
  3.7600803444819242E-01 a        62     0     5     1     2
  1.8645613833932209E-01 a        63     0     5     1     3
 -5.5039564160991716E-01 a        64     0     5     1     4
 -3.3308115210424188E-01 a        65     0     5     1     5
  2.4706078665125997E-01 a        66     0     5     1     6
  5.6869758750564503E-01 a        67     0     5     1     7
 -1.4450149426270495E-01 a        68     0     5     1     8
  3.8337727345832862E-01 a        69     0     5     1     9
 -3.1328687940763228E-01 a        70     0     5     1    10
 -5.2993407627962924E-02 a        71     0     5     1    11
 -7.9377361914993297E-02 a        72     0     5     1    12
 -2.1874681164712034E-01 a        73     0     5     1    13
 -7.4490275630360681E-01 a        74     0     5     1    14
  5.1308651649958004E-01 a        75     0     5     1    15
  5.1606551288310309E-01 a        76     0     6     1     1
  3.3224594675640168E-01 a        77     0     6     1     2
 -6.2625892196665078E-01 a        78     0     6     1     3
 -3.7815681486482880E-03 a        79     0     6     1     4
  5.3953972149476459E-01 a        80     0     6     1     5
 -1.2805373733287377E+00 a        81     0     6     1     6
 -1.2954449754540582E+00 a        82     0     6     1     7
  8.8566590617128427E-01 a        83     0     6     1     8
  5.3977062051830571E-01 a        84     0     6     1     9
 -9.6554073938550455E-01 a        85     0     6     1    10
 -2.5128533799142810E-01 a        86     0     6     1    11
  1.6632784695782059E+00 a        87     0     6     1    12
 -1.5052074706965546E+00 a        88     0     6     1    13
 -1.4486512285879758E+00 a        89     0     6     1    14
  1.2750403511948529E+00 a        90     0     6     1    15
  4.3783552884467092E-01 a        91     0     7     1     1
  4.4929746874128434E-01 a        92     0     7     1     2
  1.5636200114769772E-01 a        93     0     7     1     3
  5.9904558777012812E-02 a        94     0     7     1     4
  1.0598294690396574E-01 a        95     0     7     1     5
 -2.3623923181895597E-02 a        96     0     7     1     6
  4.7698519287907498E-02 a        97     0     7     1     7
 -3.0869454403865554E-01 a        98     0     7     1     8
  6.8211788137901996E-01 a        99     0     7     1     9
  3.8926557059910027E-01 a       100     0     7     1    10
 -3.8879093084243616E-01 a       101     0     7     1    11
 -2.5475799389337800E-01 a       102     0     7     1    12
  1.7345129573597302E-02 a       103     0     7     1    13
 -6.1019348578391586E-01 a       104     0     7     1    14
 -8.3785300882174146E-02 a       105     0     7     1    15
  2.5857132931336374E-01 a       106     0     8     1     1
  2.0096779677421797E-01 a       107     0     8     1     2
 -8.4629821141607928E-02 a       108     0     8     1     3
 -2.0837282887844613E-01 a       109     0     8     1     4
  7.6397458915997452E-01 a       110     0     8     1     5
 -6.8705093119669236E-01 a       111     0     8     1     6
 -1.1669506707419166E+00 a       112     0     8     1     7
  9.8463099091280371E-01 a       113     0     8     1     8
  5.4632799711353197E-01 a       114     0     8     1     9
 -3.7955729130476901E-01 a       115     0     8     1    10
 -3.8337022806758086E-01 a       116     0     8     1    11
  1.4242356003610974E+00 a       117     0     8     1    12
 -1.0401152585038731E+00 a       118     0     8     1    13
 -1.2768070755928351E+00 a       119     0     8     1    14
  1.3157556297508015E+00 a       120     0     8     1    15
  6.8789953744573817E-01 a       121     0     9     1     1
  1.0567546695592829E+00 a       122     0     9     1     2
  8.9067358584870734E-02 a       123     0     9     1     3
 -1.3256869784219755E-01 a       124     0     9     1     4
  5.4202150637940305E-01 a       125     0     9     1     5
 -1.1644824103974778E+00 a       126     0     9     1     6
 -1.3384313800195953E+00 a       127     0     9     1     7
  1.5171891996165459E+00 a       128     0     9     1     8
  5.1351670600671706E-01 a       129     0     9     1     9
 -6.3993651682061070E-01 a       130     0     9     1    10
 -1.7259397084506700E-01 a       131     0     9     1    11
  1.6848546959695136E+00 a       132     0     9     1    12
 -1.2971783376670762E+00 a       133     0     9     1    13
 -1.8787594676511368E+00 a       134     0     9     1    14
  1.5214607255132047E+00 a       135     0     9     1    15
  1.5129530454335749E-01 a       136     0    10     1     1
  6.9618691568036006E-01 a       137     0    10     1     2
  6.2262969500237675E-01 a       138     0    10     1     3
 -4.7349814557647124E-01 a       139     0    10     1     4
 -8.2886315081357564E-01 a       140     0    10     1     5
  4.0997360286626477E-01 a       141     0    10     1     6
  5.7895561583781918E-01 a       142     0    10     1     7
 -5.4181145255585972E-01 a       143     0    10     1     8
 -6.8931603832724148E-02 a       144     0    10     1     9
 -1.2964943411944480E-01 a       145     0    10     1    10
  1.3254611952937387E-01 a       146     0    10     1    11
 -5.1063660620374570E-04 a       147     0    10     1    12
 -2.3901765463902969E-01 a       148     0    10     1    13
 -4.5412112649883241E-01 a       149     0    10     1    14
 -3.2129292448524867E-02 a       150     0    10     1    15
  7.1860288548283624E-01 a       151     0    11     1     1
  5.1729014728397038E-01 a       152     0    11     1     2
 -1.8527919535638576E-01 a       153     0    11     1     3
 -7.0837015761294170E-02 a       154     0    11     1     4
  3.9186118047804869E-01 a       155     0    11     1     5
 -9.9717442675322265E-01 a       156     0    11     1     6
 -1.0808640423975313E+00 a       157     0    11     1     7
  7.6941166136385508E-01 a       158     0    11     1     8
  2.1325221551727588E-01 a       159     0    11     1     9
 -7.2107590503032115E-01 a       160     0    11     1    10
 -4.9866066202880716E-01 a       161     0    11     1    11
  1.1365386617025413E+00 a       162     0    11     1    12
 -1.4740898796695603E+00 a       163     0    11     1    13
 -8.6813516445341476E-01 a       164     0    11     1    14
  1.6488511879587611E+00 a       165     0    11     1    15
  5.0724860828174523E-01 a       166     0    12     1     1
  2.2791757032421117E-01 a       167     0    12     1     2
 -2.0510695631938006E-01 a       168     0    12     1     3
 -5.8807068189244804E-01 a       169     0    12     1     4
 -1.2614634342694486E-01 a       170     0    12     1     5
 -3.6143710060147313E-02 a       171     0    12     1     6
  1.5197557489886587E-01 a       172     0    12     1     7
 -3.5738124397693449E-01 a       173     0    12     1     8
  5.3095597947075257E-01 a       174     0    12     1     9
  1.4562732935144998E-01 a       175     0    12     1    10
 -2.7361303363627278E-02 a       176     0    12     1    11
 -1.3090506950400846E-01 a       177     0    12     1    12
 -2.8092600135388235E-01 a       178     0    12     1    13
 -4.2587208015121773E-02 a       179     0    12     1    14
  1.5534236702826898E-01 a       180     0    12     1    15
  1.4572037110019762E-01 a       181     0    13     1     1
  5.3133873590365610E-01 a       182     0    13     1     2
 -7.2623818864288814E-01 a       183     0    13     1     3
  2.1662291741451714E-01 a       184     0    13     1     4
  4.0268079541152568E-01 a       185     0    13     1     5
 -1.0828355346790606E+00 a       186     0    13     1     6
 -1.5306114260670425E+00 a       187     0    13     1     7
  4.9810917795126192E-01 a       188     0    13     1     8
 -2.6256583543161388E-01 a       189     0    13     1     9
 -2.4755642868970232E-01 a       190     0    13     1    10
  4.1378137138481280E-01 a       191     0    13     1    11
  1.4589073338375820E+00 a       192     0    13     1    12
 -1.0247711503340882E+00 a       193     0    13     1    13
  1.6343540745754037E+00 a       194     0    13     1    14
  1.4198692921286116E+00 a       195     0    13     1    15
  2.8497040539449470E-01 a       196     0    14     1     1
 -5.9249935102342277E-01 a       197     0    14     1     2
 -4.4850717195197998E-01 a       198     0    14     1     3
 -1.7364102451368732E-01 a       199     0    14     1     4
 -1.2584555422217966E-01 a       200     0    14     1     5
  5.3000005382767612E-01 a       201     0    14     1     6
 -3.0553725746614563E-01 a       202     0    14     1     7
 -2.6038966041190359E-01 a       203     0    14     1     8
  1.2651652918958021E+00 a       204     0    14     1     9
  7.9789751997152392E-01 a       205     0    14     1    10
 -4.4118064767497961E-01 a       206     0    14     1    11
 -2.9624786476055598E-01 a       207     0    14     1    12
  2.1599321176360281E-01 a       208     0    14     1    13
 -1.4342635559191796E-01 a       209     0    14     1    14
 -7.4834017881527229E-02 a       210     0    14     1    15
  3.2778645383422095E-02 a       211     0    15     1     1
 -1.4455796452690917E+00 a       212     0    15     1     2
 -3.3185502431094864E+00 a       213     0    15     1     3
  1.6721266056951212E+00 a       214     0    15     1     4
  3.4778930314880990E-01 a       215     0    15     1     5
 -7.5727807969196947E-01 a       216     0    15     1     6
 -1.8200220845672401E+00 a       217     0    15     1     7
 -9.4666084125145999E-01 a       218     0    15     1     8
 -9.1580027984423262E-01 a       219     0    15     1     9
  1.9048004928105047E+00 a       220     0    15     1    10
  1.9159513696430155E+00 a       221     0    15     1    11
  1.1192369963666198E+00 a       222     0    15     1    12
 -8.6408372382299403E-01 a       223     0    15     1    13
  5.5812563792354775E+00 a       224     0    15     1    14
  1.8624387529068662E+00 a       225     0    15     1    15
 -7.2921969639401141E-01 a       226     0    16     1     1
 -1.4208639989441705E+00 a       227     0    16     1     2
 -1.1362978783848376E+00 a       228     0    16     1     3
  4.6135619286920754E-01 a       229     0    16     1     4
  2.3794499531768052E+00 a       230     0    16     1     5
  3.0392182849835633E-02 a       231     0    16     1     6
 -1.7804891650551180E+00 a       232     0    16     1     7
  4.2401102918888317E-01 a       233     0    16     1     8
  3.6954987459627953E+00 a       234     0    16     1     9
  1.7084716135010802E+00 a       235     0    16     1    10
 -2.0663284400267776E+00 a       236     0    16     1    11
 -1.3534619050267990E-01 a       237     0    16     1    12
 -6.3179548007480990E-02 a       238     0    16     1    13
 -2.3728358851002898E+00 a       239     0    16     1    14
  1.1650731236237938E-01 a       240     0    16     1    15
 -9.6117155588242575E-01 a       241     0    17     1     1
  2.1178813422512960E-01 a       242     0    17     1     2
  2.9033633669818104E-01 a       243     0    17     1     3
  7.0865052263563166E-01 a       244     0    17     1     4
  2.3862070779762970E-01 a       245     0    17     1     5
  1.7313131821735335E+00 a       246     0    17     1     6
  1.4163395606597411E+00 a       247     0    17     1     7
 -6.7199708892217735E-01 a       248     0    17     1     8
 -3.7768298017631585E-01 a       249     0    17     1     9
  5.0150871239529993E-01 a       250     0    17     1    10
  5.0364310030958348E-01 a       251     0    17     1    11
 -1.9301092693068902E+00 a       252     0    17     1    12
  3.1318505018411078E+00 a       253     0    17     1    13
 -1.9418037737288374E+00 a       254     0    17     1    14
 -1.4331644563649706E+00 a       255     0    17     1    15
  2.3143717032876134E-02 a       256     0    18     1     1
 -5.6830300702751774E-02 a       257     0    18     1     2
 -3.6744300981113981E-01 a       258     0    18     1     3
  1.9059883227232011E+00 a       259     0    18     1     4
  7.5693307260719578E-01 a       260     0    18     1     5
 -1.3261601499589433E+00 a       261     0    18     1     6
 -7.8416857842975796E-01 a       262     0    18     1     7
 -1.4623138495578364E-01 a       263     0    18     1     8
 -8.1758124362832718E-01 a       264     0    18     1     9
 -1.4712080803494252E+00 a       265     0    18     1    10
 -3.4054113499046895E-01 a       266     0    18     1    11
  2.0929512686096934E+00 a       267     0    18     1    12
 -1.7808117809481030E+00 a       268     0    18     1    13
 -3.2486262567366628E+00 a       269     0    18     1    14
  8.6668040833700066E-01 a       270     0    18     1    15
 -2.6486247517063460E-01 a       271     0    19     1     1
 -2.8958753252569963E-01 a       272     0    19     1     2
  8.3562072627278783E-01 a       273     0    19     1     3
 -1.2269311328525645E+00 a       274     0    19     1     4
 -4.1672716122826908E-01 a       275     0    19     1     5
  1.0709648091834569E+00 a       276     0    19     1     6
  8.4471053158620391E-01 a       277     0    19     1     7
  3.4466697220917808E-01 a       278     0    19     1     8
  3.0346836964960705E-01 a       279     0    19     1     9
  9.2623654299559244E-01 a       280     0    19     1    10
  1.4842127731491558E-03 a       281     0    19     1    11
 -1.1036851538799832E+00 a       282     0    19     1    12
  1.0520920861339385E+00 a       283     0    19     1    13
 -1.4704244518810499E+00 a       284     0    19     1    14
 -2.2544151510908941E-01 a       285     0    19     1    15
  3.7342800377493401E-01 a       286     0    20     1     1
  1.5743353094347839E-01 a       287     0    20     1     2
  7.2765528794647635E-03 a       288     0    20     1     3
  1.5837077459003550E+00 a       289     0    20     1     4
  6.3936576008576024E-02 a       290     0    20     1     5
 -1.3796140005995525E+00 a       291     0    20     1     6
 -5.5805922971456623E-01 a       292     0    20     1     7
  2.2682830630382134E-01 a       293     0    20     1     8
 -9.4788343677008235E-01 a       294     0    20     1     9
 -1.0840460701534913E+00 a       295     0    20     1    10
 -4.2917403067827836E-01 a       296     0    20     1    11
  1.1928712391480760E+00 a       297     0    20     1    12
 -1.5113232671806145E+00 a       298     0    20     1    13
 -2.8250470204110573E-01 a       299     0    20     1    14
  1.4176108434504551E+00 a       300     0    20     1    15
 -8.4930965139498082E-01 a       301     0    21     1     1
 -4.6197474223728296E-01 a       302     0    21     1     2
  8.2487077693727728E-01 a       303     0    21     1     3
 -2.0506991952250461E-01 a       304     0    21     1     4
 -6.5096034794667024E-01 a       305     0    21     1     5
  3.9278602890363024E-01 a       306     0    21     1     6
  9.9301725401643270E-01 a       307     0    21     1     7
  1.0961326895028085E-01 a       308     0    21     1     8
  3.5854743458201310E-01 a       309     0    21     1     9
  7.8058423640881525E-01 a       310     0    21     1    10
 -6.7554814100098215E-01 a       311     0    21     1    11
 -7.8018211306179663E-01 a       312     0    21     1    12
  8.4460340093858044E-01 a       313     0    21     1    13
 -2.3952754201516715E+00 a       314     0    21     1    14
 -3.7825936041467545E-01 a       315     0    21     1    15
  5.8882217133535131E-01 a       316     0    22     1     1
 -8.7004542386089539E-02 a       317     0    22     1     2
 -3.8113871964789764E-01 a       318     0    22     1     3
  7.7589397188184017E-01 a       319     0    22     1     4
 -2.5315388762999269E-01 a       320     0    22     1     5
 -1.0302940305012911E+00 a       321     0    22     1     6
 -4.3703170127222307E-01 a       322     0    22     1     7
  3.2679794784582322E-01 a       323     0    22     1     8
 -1.6981384569712634E+00 a       324     0    22     1     9
 -3.3871627589138459E-01 a       325     0    22     1    10
 -8.7669999918232011E-01 a       326     0    22     1    11
  7.9635960966101893E-01 a       327     0    22     1    12
 -1.3760061374610821E+00 a       328     0    22     1    13
  2.1417845368683959E+00 a       329     0    22     1    14
  1.0863988800966136E+00 a       330     0    22     1    15
  2.6119988858090654E-01 a       331     0    23     1     1
 -6.5543659857604974E-01 a       332     0    23     1     2
 -9.3795321751573779E-01 a       333     0    23     1     3
  1.1752955707041488E+00 a       334     0    23     1     4
  5.5058486332752110E-01 a       335     0    23     1     5
 -6.7556738673328143E-01 a       336     0    23     1     6
 -1.4811247932811478E+00 a       337     0    23     1     7
  8.0921072806642547E-01 a       338     0    23     1     8
 -1.9988081193866230E+00 a       339     0    23     1     9
  8.6720658153709762E-01 a       340     0    23     1    10
 -8.1916189116514826E-01 a       341     0    23     1    11
  6.2207424060747074E-01 a       342     0    23     1    12
 -8.0548355277159978E-01 a       343     0    23     1    13
  6.9569501736639197E+00 a       344     0    23     1    14
  1.2279582927436146E+00 a       345     0    23     1    15
 -6.2484654488538560E-01 a       346     0    24     1     1
 -1.5086129645683657E-01 a       347     0    24     1     2
 -5.4634144423315989E-01 a       348     0    24     1     3
  5.0755186806908248E-01 a       349     0    24     1     4
  3.7727330175982171E-01 a       350     0    24     1     5
  1.4659305632858188E+00 a       351     0    24     1     6
  9.4430607178140935E-01 a       352     0    24     1     7
 -1.4295184497414852E+00 a       353     0    24     1     8
 -1.8357014214911194E+00 a       354     0    24     1     9
  5.0867597743305137E-01 a       355     0    24     1    10
  7.0898397282214265E-01 a       356     0    24     1    11
 -1.7021288617324426E+00 a       357     0    24     1    12
  3.0032060831595384E+00 a       358     0    24     1    13
  4.3748117260439114E+00 a       359     0    24     1    14
 -1.4970041660788533E+00 a       360     0    24     1    15
  4.1917398888076696E-01 a       361     0    25     1     1
  4.9245121885074733E-01 a       362     0    25     1     2
  3.5247786056428021E-01 a       363     0    25     1     3
  1.4885580866601491E+00 a       364     0    25     1     4
  4.3878537733789247E-01 a       365     0    25     1     5
 -1.4279917686944703E+00 a       366     0    25     1     6
 -1.1151537861690259E+00 a       367     0    25     1     7
  4.3930032816666870E-01 a       368     0    25     1     8
 -3.0095812796374966E-01 a       369     0    25     1     9
 -1.0357040719233443E+00 a       370     0    25     1    10
 -5.5632004397567769E-01 a       371     0    25     1    11
  1.4999271868214434E+00 a       372     0    25     1    12
 -1.8671175779907134E+00 a       373     0    25     1    13
 -2.6167661288638562E+00 a       374     0    25     1    14
  1.5370435504692066E+00 a       375     0    25     1    15
 -1.5478361630329837E-01 a       376     0    26     1     1
 -3.8687151944512133E-01 a       377     0    26     1     2
  2.4014448477129322E-01 a       378     0    26     1     3
 -1.1920589497537151E+00 a       379     0    26     1     4
 -5.1062225429981190E-01 a       380     0    26     1     5
  1.0214814144987823E+00 a       381     0    26     1     6
  1.0433579368482273E+00 a       382     0    26     1     7
 -3.6307433125442951E-01 a       383     0    26     1     8
  5.8045487933884810E-01 a       384     0    26     1     9
  8.9773305752517463E-01 a       385     0    26     1    10
  6.8234095250991267E-01 a       386     0    26     1    11
 -1.3745096262758687E+00 a       387     0    26     1    12
  1.3903035674106006E+00 a       388     0    26     1    13
 -7.7561762268977108E-01 a       389     0    26     1    14
 -2.2996752823911287E-01 a       390     0    26     1    15
  2.7752200889632955E-01 a       391     0    27     1     1
  6.5176757806581953E-01 a       392     0    27     1     2
  3.6525774745984924E-01 a       393     0    27     1     3
  2.6961298580697679E-01 a       394     0    27     1     4
 -2.2359879139645458E-01 a       395     0    27     1     5
 -4.1244094314158514E-01 a       396     0    27     1     6
 -5.9278510753574654E-01 a       397     0    27     1     7
  5.8300600259327862E-01 a       398     0    27     1     8
 -2.3785973609583053E-01 a       399     0    27     1     9
 -4.2742049147872541E-01 a       400     0    27     1    10
 -4.9763605358031415E-01 a       401     0    27     1    11
  1.0358263416159985E+00 a       402     0    27     1    12
 -9.0659650205737297E-01 a       403     0    27     1    13
  3.1574714422242889E-01 a       404     0    27     1    14
  1.4624404150211285E+00 a       405     0    27     1    15
 -2.2819720724156342E-01 a       406     0    28     1     1
 -1.0618205535457346E+00 a       407     0    28     1     2
  7.0011767425071414E-01 a       408     0    28     1     3
 -6.9024667014653829E-01 a       409     0    28     1     4
 -3.3797254704435475E-01 a       410     0    28     1     5
  7.9957961988733806E-01 a       411     0    28     1     6
  7.6404320532497083E-01 a       412     0    28     1     7
 -6.4797990415247794E-02 a       413     0    28     1     8
  2.8006590718977242E-01 a       414     0    28     1     9
  3.6348487836596405E-01 a       415     0    28     1    10
  3.5619181325586280E-01 a       416     0    28     1    11
 -9.9466965095480320E-01 a       417     0    28     1    12
  1.3715281930241581E+00 a       418     0    28     1    13
 -2.3800363546012848E+00 a       419     0    28     1    14
 -4.8942256537921741E-01 a       420     0    28     1    15
  2.0399276421436163E-01 a       421     0    29     1     1
  1.7324720502788021E-02 a       422     0    29     1     2
  6.6314982330674843E-01 a       423     0    29     1     3
  4.8284267039444312E-01 a       424     0    29     1     4
  6.4765859389421228E-03 a       425     0    29     1     5
 -8.0953548236651773E-01 a       426     0    29     1     6
 -4.8710468749469216E-02 a       427     0    29     1     7
  6.6457791393054422E-01 a       428     0    29     1     8
 -2.2276653604211119E-01 a       429     0    29     1     9
  5.8207307986815955E-02 a       430     0    29     1    10
 -2.0433719923259392E-02 a       431     0    29     1    11
  5.2827252701105465E-01 a       432     0    29     1    12
 -6.5907441217023965E-01 a       433     0    29     1    13
  1.3403347426317489E+00 a       434     0    29     1    14
  9.5194976832838973E-01 a       435     0    29     1    15
  6.3270732841649990E-01 a       436     0    30     1     1
 -5.5044303805259986E-01 a       437     0    30     1     2
  7.1474667381830514E-01 a       438     0    30     1     3
  8.6878495850711934E-01 a       439     0    30     1     4
 -4.8195969769502583E-01 a       440     0    30     1     5
 -3.2507352924842997E-01 a       441     0    30     1     6
 -2.4176076597567328E-01 a       442     0    30     1     7
  9.4841501007802576E-01 a       443     0    30     1     8
 -1.1269718939143620E+00 a       444     0    30     1     9
  2.9224926575993165E-01 a       445     0    30     1    10
 -7.0652032716770685E-01 a       446     0    30     1    11
  8.5941801922335714E-01 a       447     0    30     1    12
 -8.3235430216627804E-01 a       448     0    30     1    13
  2.9052673576470900E+00 a       449     0    30     1    14
  7.4526014774111426E-01 a       450     0    30     1    15
 -1.9356604579072385E+00 b       451     1     1
 -8.9276406742089709E-01 b       452     1     2
  1.7067528229307196E+00 b       453     1     3
 -1.6071949375499557E+00 b       454     1     4
 -1.8673027971351768E+00 b       455     1     5
  1.8471620515869560E+00 b       456     1     6
  2.2565660142879622E+00 b       457     1     7
 -1.9939519539349064E+00 b       458     1     8
 -7.9925093053266849E-01 b       459     1     9
  1.0385379745648566E+00 b       460     1    10
  1.3869086548784364E+00 b       461     1    11
 -2.6793572029088835E+00 b       462     1    12
  4.0751238512805585E+00 b       463     1    13
  7.0534978590930764E-01 b       464     1    14
 -2.3338400099395509E+00 b       465     1    15
 -1.7881145940941043E+00 a       466     1     1     2     1
 -2.3560435808785711E+00 a       467     1     1     2     2
 -8.0652642137265906E-01 a       468     1     1     2     3
 -9.6695104166459678E-01 a       469     1     1     2     4
 -2.8848586610771227E+00 a       470     1     1     2     5
  1.1167539511799265E+00 a       471     1     1     2     6
 -4.8182876391236629E-01 a       472     1     1     2     7
 -2.8418937579535047E-01 a       473     1     1     2     8
  2.3948434343808045E+00 a       474     1     1     2     9
 -1.6885561240931362E+00 a       475     1     1     2    10
  4.4276666410758214E-01 a       476     1     1     2    11
  3.2835817373685722E-01 a       477     1     1     2    12
  1.0081772673524771E-01 a       478     1     1     2    13
 -2.4043259065870699E+00 a       479     1     1     2    14
 -7.0045940535722406E-01 a       480     1     1     2    15
 -1.8508246584112540E+00 a       481     1     2     2     1
 -2.4999068011545176E+00 a       482     1     2     2     2
  9.8612888053324732E-01 a       483     1     2     2     3
 -3.8391537288681482E-01 a       484     1     2     2     4
  1.0208251716522410E+00 a       485     1     2     2     5
  8.7085658713563407E-01 a       486     1     2     2     6
 -2.6587268982573309E+00 a       487     1     2     2     7
  4.9373030923289629E-01 a       488     1     2     2     8
  3.9476894431696691E-01 a       489     1     2     2     9
 -2.2255835413677008E+00 a       490     1     2     2    10
  6.3589021255938971E-01 a       491     1     2     2    11
  6.9922157464696788E-01 a       492     1     2     2    12
 -7.2879375475783006E-02 a       493     1     2     2    13
 -2.8651430169610959E+00 a       494     1     2     2    14
  3.3518103356917101E-01 a       495     1     2     2    15
 -2.7547692540986053E+00 a       496     1     3     2     1
 -8.2928535984244900E-01 a       497     1     3     2     2
 -1.1647963440658180E+00 a       498     1     3     2     3
  1.3955984988939732E-01 a       499     1     3     2     4
 -3.1342346913791963E-01 a       500     1     3     2     5
  8.0866208800608252E-01 a       501     1     3     2     6
 -1.3400472070040910E+00 a       502     1     3     2     7
 -4.4899044316646358E-01 a       503     1     3     2     8
  2.2214414051120306E+00 a       504     1     3     2     9
 -3.9757102475048787E+00 a       505     1     3     2    10
  1.7807436504470222E+00 a       506     1     3     2    11
  6.7489957181926752E-01 a       507     1     3     2    12
  9.6830946759466396E-01 a       508     1     3     2    13
 -2.8646540207084654E+00 a       509     1     3     2    14
 -4.8249599649513419E-02 a       510     1     3     2    15
 -2.9455056248174188E-01 a       511     1     4     2     1
 -1.4530454539671440E+00 a       512     1     4     2     2
  1.5553061003823270E+00 a       513     1     4     2     3
  3.0012204702718509E-01 a       514     1     4     2     4
  8.7952280120277659E-01 a       515     1     4     2     5
 -3.3870258426575761E-01 a       516     1     4     2     6
 -1.1509412585759764E+00 a       517     1     4     2     7
 -2.4397592831208079E-01 a       518     1     4     2     8
  1.0411398629828406E+00 a       519     1     4     2     9
 -1.2075623965129298E-01 a       520     1     4     2    10
 -4.1197033263902755E-01 a       521     1     4     2    11
  5.9298194756646239E-01 a       522     1     4     2    12
 -6.6553629917136914E-01 a       523     1     4     2    13
 -8.6886697614223496E-01 a       524     1     4     2    14
  8.3239413095254200E-01 a       525     1     4     2    15
  1.8513029668332148E+00 a       526     1     5     2     1
  9.8468882505935085E-01 a       527     1     5     2     2
  1.4183919093858262E+00 a       528     1     5     2     3
  8.0074939270993151E-01 a       529     1     5     2     4
  2.4942111888620375E+00 a       530     1     5     2     5
 -1.3015663952123033E+00 a       531     1     5     2     6
  2.1243669588239635E+00 a       532     1     5     2     7
  8.7316708926758335E-01 a       533     1     5     2     8
 -7.9232236671905221E-01 a       534     1     5     2     9
  1.5836862431866472E+00 a       535     1     5     2    10
  1.4497517751424709E-02 a       536     1     5     2    11
  7.8686429975767158E-01 a       537     1     5     2    12
  1.5562024224856024E+00 a       538     1     5     2    13
  2.1002830977332136E+00 a       539     1     5     2    14
  1.8017630883028442E+00 a       540     1     5     2    15
 -1.8348796995663701E+00 a       541     1     6     2     1
  8.6192212777180166E-01 a       542     1     6     2     2
 -1.1409124267073401E+00 a       543     1     6     2     3
  6.5025199678517476E-01 a       544     1     6     2     4
 -8.4130010142722134E-01 a       545     1     6     2     5
  3.1330893377080071E-01 a       546     1     6     2     6
 -7.4008087093860975E-01 a       547     1     6     2     7
 -2.8896184450106344E-01 a       548     1     6     2     8
 -1.0972291151120317E+00 a       549     1     6     2     9
 -6.3306539884990332E-01 a       550     1     6     2    10
  1.3898866453498643E-01 a       551     1     6     2    11
 -9.7933760310629447E-01 a       552     1     6     2    12
 -7.3832555034734779E-02 a       553     1     6     2    13
 -2.9177786657930632E-01 a       554     1     6     2    14
 -8.4337462505990335E-01 a       555     1     6     2    15
 -6.4954791052096206E-01 a       556     1     7     2     1
  5.6450390251594956E-02 a       557     1     7     2     2
 -9.7947356537844055E-01 a       558     1     7     2     3
 -9.4566839928332846E-01 a       559     1     7     2     4
 -2.7788995924609067E-01 a       560     1     7     2     5
  1.2746246254613128E-01 a       561     1     7     2     6
 -1.7465032320317468E+00 a       562     1     7     2     7
  8.4063593747006160E-01 a       563     1     7     2     8
  1.6056560331373568E+00 a       564     1     7     2     9
 -1.3906446076479473E+00 a       565     1     7     2    10
  4.0996858674467840E-02 a       566     1     7     2    11
 -5.3142175861464691E-01 a       567     1     7     2    12
  5.1246929707199207E-01 a       568     1     7     2    13
 -1.3410037305652098E+00 a       569     1     7     2    14
 -3.6799848048579370E-01 a       570     1     7     2    15
 -1.7208940931514345E+00 a       571     1     8     2     1
 -1.7093488507146377E+00 a       572     1     8     2     2
 -6.5588438028687024E-01 a       573     1     8     2     3
  5.0429689578860448E-01 a       574     1     8     2     4
 -5.9318256721241536E-01 a       575     1     8     2     5
  7.3836482328968345E-01 a       576     1     8     2     6
 -1.6478386997414018E+00 a       577     1     8     2     7
  4.6270843728418909E-01 a       578     1     8     2     8
  1.3336217477310421E+00 a       579     1     8     2     9
 -1.9024963710650584E+00 a       580     1     8     2    10
  1.5251209137811206E+00 a       581     1     8     2    11
  3.2841299938888002E+00 a       582     1     8     2    12
  7.6588857233087920E-02 a       583     1     8     2    13
 -2.8905257061480869E+00 a       584     1     8     2    14
  4.7417785053405209E-01 a       585     1     8     2    15
  1.1028127532786260E+00 a       586     1     9     2     1
  5.2022607966235024E-01 a       587     1     9     2     2
  1.3955759585977079E+00 a       588     1     9     2     3
 -2.4122204423476794E+00 a       589     1     9     2     4
  1.9493009935879910E-01 a       590     1     9     2     5
  4.5651506502137500E-02 a       591     1     9     2     6
  7.7905537910322653E-01 a       592     1     9     2     7
  1.5201442986170410E+00 a       593     1     9     2     8
 -4.5503243456195974E-01 a       594     1     9     2     9
  8.9635406835916820E-01 a       595     1     9     2    10
 -1.4022006895292172E-01 a       596     1     9     2    11
 -6.9529339214866615E-01 a       597     1     9     2    12
 -7.8414778089261165E-03 a       598     1     9     2    13
  1.1023114569381018E+00 a       599     1     9     2    14
  9.9779508142044704E-01 a       600     1     9     2    15
  1.1680663815478893E+00 a       601     1    10     2     1
  2.7808065881898530E-01 a       602     1    10     2     2
 -9.5500828086128908E-01 a       603     1    10     2     3
  7.6196497435724553E-01 a       604     1    10     2     4
  7.4462642879585198E-05 a       605     1    10     2     5
  4.2269718776762349E-01 a       606     1    10     2     6
 -4.1297996052678859E-01 a       607     1    10     2     7
 -4.1387029333333608E-01 a       608     1    10     2     8
 -4.5263890415736513E-01 a       609     1    10     2     9
 -1.2704079738352791E+00 a       610     1    10     2    10
 -3.7192314612610311E-01 a       611     1    10     2    11
 -2.2960079602502033E+00 a       612     1    10     2    12
 -2.8710814741106916E-01 a       613     1    10     2    13
 -3.9556996981807373E+00 a       614     1    10     2    14
 -7.8711255948644665E-01 a       615     1    10     2    15
 -8.7400440535393453E-01 a       616     1    11     2     1
 -1.0852304437368723E+00 a       617     1    11     2     2
 -2.1713076582629642E+00 a       618     1    11     2     3
 -1.2675057449084761E-02 a       619     1    11     2     4
 -1.0450920605108573E+00 a       620     1    11     2     5
  4.9523489680077765E-01 a       621     1    11     2     6
 -7.7010840683835724E-01 a       622     1    11     2     7
  8.1528212617831525E-02 a       623     1    11     2     8
  2.1322144166385408E+00 a       624     1    11     2     9
 -2.1397402840103581E+00 a       625     1    11     2    10
  6.4205556839234534E-01 a       626     1    11     2    11
 -2.1937914771361570E-03 a       627     1    11     2    12
 -7.5823453694495135E-01 a       628     1    11     2    13
 -1.6545704817259628E+00 a       629     1    11     2    14
 -1.5381078030465967E+00 a       630     1    11     2    15
 -7.3201499632534117E-01 a       631     1    12     2     1
 -2.1690850607255081E+00 a       632     1    12     2     2
 -1.0326257308358182E-01 a       633     1    12     2     3
 -1.3650186448001480E+00 a       634     1    12     2     4
 -8.4496966335968826E-01 a       635     1    12     2     5
  8.7740168286340503E-01 a       636     1    12     2     6
 -1.2771799805716104E+00 a       637     1    12     2     7
  9.4454092864308148E-01 a       638     1    12     2     8
  8.6332032674388715E-01 a       639     1    12     2     9
 -8.0286461273881071E-01 a       640     1    12     2    10
  5.7377637003671711E-01 a       641     1    12     2    11
  1.2339146692057150E+00 a       642     1    12     2    12
 -4.4846485051023816E-01 a       643     1    12     2    13
 -1.0568960793300877E+00 a       644     1    12     2    14
  1.1662632002381097E+00 a       645     1    12     2    15
 -1.2701448656485694E+00 a       646     1    13     2     1
  9.9503230181393654E-01 a       647     1    13     2     2
 -3.8516017657708029E-01 a       648     1    13     2     3
 -1.6616563597017300E-01 a       649     1    13     2     4
 -9.5437005720398385E-02 a       650     1    13     2     5
  2.8474986734713120E-01 a       651     1    13     2     6
 -1.7618924757478125E+00 a       652     1    13     2     7
 -2.6531997939216584E-01 a       653     1    13     2     8
  3.0548318069488900E-01 a       654     1    13     2     9
 -6.0100497134456188E-01 a       655     1    13     2    10
  6.9903825882303072E-01 a       656     1    13     2    11
  1.1456715677714699E-01 a       657     1    13     2    12
  1.2347748256241735E-01 a       658     1    13     2    13
 -9.2298128034842930E-01 a       659     1    13     2    14
 -9.4161521132691683E-01 a       660     1    13     2    15
  1.3005700291067361E+00 a       661     1    14     2     1
  1.1351427810967107E+00 a       662     1    14     2     2
 -4.1480091369362243E-01 a       663     1    14     2     3
  1.2653161704203775E-03 a       664     1    14     2     4
  5.7140109733234445E-01 a       665     1    14     2     5
 -4.3856888831145996E-01 a       666     1    14     2     6
  1.2416619842794636E+00 a       667     1    14     2     7
  3.2030172377692181E+00 a       668     1    14     2     8
 -1.2962112664702763E-01 a       669     1    14     2     9
 -1.4295688628032777E+00 a       670     1    14     2    10
 -2.7567554383761100E-01 a       671     1    14     2    11
  2.9094869694600034E-01 a       672     1    14     2    12
 -4.9521347181772191E-01 a       673     1    14     2    13
  6.5748267977745889E-01 a       674     1    14     2    14
 -6.6263531853650648E-01 a       675     1    14     2    15
 -2.2197766135861268E+00 a       676     1    15     2     1
 -2.4833068144049371E+00 a       677     1    15     2     2
  3.6255480645799323E-02 a       678     1    15     2     3
  5.9863699425959671E-01 a       679     1    15     2     4
 -1.2451370837784446E+00 a       680     1    15     2     5
 -4.0499671021993622E-01 a       681     1    15     2     6
 -1.5242185042825267E+00 a       682     1    15     2     7
 -8.6344049612371343E-01 a       683     1    15     2     8
  6.4552282059672728E-01 a       684     1    15     2     9
 -8.2194989233534654E-01 a       685     1    15     2    10
 -4.0742539537639794E-01 a       686     1    15     2    11
  3.2378491415799293E-02 a       687     1    15     2    12
 -1.8675749612561961E-02 a       688     1    15     2    13
 -1.7429001716238399E+00 a       689     1    15     2    14
  1.0522352157322856E+00 a       690     1    15     2    15
  3.9084832843748356E+00 b       691     2     1
  4.4755029793509777E+00 b       692     2     2
  1.9417199363735964E+00 b       693     2     3
  7.4674700443653286E-01 b       694     2     4
  3.6376432140042447E+00 b       695     2     5
 -1.7504846264428511E+00 b       696     2     6
  3.0913292407822919E+00 b       697     2     7
 -7.2907859533151750E-02 b       698     2     8
 -5.2283755399108909E+00 b       699     2     9
  3.5099372736851393E+00 b       700     2    10
 -2.5020161100217324E+00 b       701     2    11
 -1.2216976504373129E+00 b       702     2    12
 -7.9452581774930398E-01 b       703     2    13
  4.5844727786420680E+00 b       704     2    14
 -1.7863116585805869E-01 b       705     2    15
  1.1997323126925190E+01 a       706     2     1     3     1
  3.3172826152613905E-01 a       707     2     2     3     1
  1.4756131624473726E-01 a       708     2     3     3     1
  1.0054954292232361E+01 a       709     2     4     3     1
  1.2166248331486450E+01 a       710     2     5     3     1
 -1.1436257756728956E+01 a       711     2     6     3     1
  1.1336369530699287E+01 a       712     2     7     3     1
  2.4662600556501865E-01 a       713     2     8     3     1
 -1.1230725355659089E+01 a       714     2     9     3     1
  3.4088971342510205E-01 a       715     2    10     3     1
 -9.9603704061220046E+00 a       716     2    11     3     1
 -2.0227020502018540E+00 a       717     2    12     3     1
 -1.2024438337721085E+01 a       718     2    13     3     1
  1.3592839642154097E+01 a       719     2    14     3     1
 -3.3586761221912259E-01 a       720     2    15     3     1
  1.6809227383283844E+01 b       721     3     1
