################################################################################
# Neural network connection values (weights and biases).
################################################################################
# Col  Name       Description
################################################################################
# 1    connection Neural network connection value.
# 2    t          Connection type (a = weight, b = bias).
# 3    index      Index enumerating weights.
# 4    l_s        Starting point layer (end point layer for biases).
# 5    n_s        Starting point neuron in starting layer (end point neuron for biases).
# 6    l_e        End point layer.
# 7    n_e        End point neuron in end layer.
################################################################################
#                      1 2         3     4     5     6     7
#             connection t     index   l_s   n_s   l_e   n_e
############################################################
 -3.6737269258360428E+00 a         1     0     1     1     1
  1.8640396580143970E+00 a         2     0     1     1     2
  5.4995034470551500E+00 a         3     0     1     1     3
 -1.5384550198201987E+00 a         4     0     1     1     4
  3.4507343660055176E+00 a         5     0     1     1     5
 -5.4271504513639321E+00 a         6     0     1     1     6
  4.7614109029292084E+00 a         7     0     1     1     7
  7.7756567882158985E+00 a         8     0     1     1     8
  3.3543802548715917E+00 a         9     0     1     1     9
  5.6197186299538364E+00 a        10     0     1     1    10
 -3.6674638738036274E+00 a        11     0     2     1     1
  1.6001817050296860E+00 a        12     0     2     1     2
  5.9367344932530086E+00 a        13     0     2     1     3
 -1.4020973579289271E+00 a        14     0     2     1     4
  4.0052245640965021E+00 a        15     0     2     1     5
 -4.7711656419778157E+00 a        16     0     2     1     6
  4.5895611322153114E+00 a        17     0     2     1     7
  7.2228555822594949E+00 a        18     0     2     1     8
  3.6391841442748287E+00 a        19     0     2     1     9
  5.0336408902314762E+00 a        20     0     2     1    10
 -3.5793006265541125E+00 a        21     0     3     1     1
  1.5912843962856604E+00 a        22     0     3     1     2
  6.0401522689764109E+00 a        23     0     3     1     3
 -1.6061932777483874E+00 a        24     0     3     1     4
  3.9963171757699101E+00 a        25     0     3     1     5
 -4.4784854681895716E+00 a        26     0     3     1     6
  4.7169943580957554E+00 a        27     0     3     1     7
  6.9032236099040611E+00 a        28     0     3     1     8
  3.4675987999860745E+00 a        29     0     3     1     9
  4.5910981720323258E+00 a        30     0     3     1    10
 -3.4213392524294690E+00 a        31     0     4     1     1
  1.7661063477651568E+00 a        32     0     4     1     2
  5.5579543587516804E+00 a        33     0     4     1     3
 -1.3401588786218555E+00 a        34     0     4     1     4
  4.2489593745352146E+00 a        35     0     4     1     5
 -4.3916581912939039E+00 a        36     0     4     1     6
  5.0217349090237864E+00 a        37     0     4     1     7
  6.2856403123642819E+00 a        38     0     4     1     8
  3.2829067236828671E+00 a        39     0     4     1     9
  4.0678084939751944E+00 a        40     0     4     1    10
 -3.0147579858682216E+00 a        41     0     5     1     1
  1.4589249325681319E+00 a        42     0     5     1     2
  6.0671683380235732E+00 a        43     0     5     1     3
 -1.3006514187921763E+00 a        44     0     5     1     4
  4.4073860224919459E+00 a        45     0     5     1     5
 -3.7178240764407740E+00 a        46     0     5     1     6
  5.0179309218504899E+00 a        47     0     5     1     7
  5.8699940700457498E+00 a        48     0     5     1     8
  3.5280519603744476E+00 a        49     0     5     1     9
  3.9750410824996663E+00 a        50     0     5     1    10
 -2.8692534031368044E+00 a        51     0     6     1     1
  1.6505337987758886E+00 a        52     0     6     1     2
  5.9516509488999532E+00 a        53     0     6     1     3
 -1.4693372241432425E+00 a        54     0     6     1     4
  4.4110250418737023E+00 a        55     0     6     1     5
 -3.2509690256607731E+00 a        56     0     6     1     6
  4.6555230772347986E+00 a        57     0     6     1     7
  5.3113039075691511E+00 a        58     0     6     1     8
  3.5529005887613945E+00 a        59     0     6     1     9
  3.3362722656523816E+00 a        60     0     6     1    10
 -2.9071895828064553E+00 a        61     0     7     1     1
  1.9162505464763038E+00 a        62     0     7     1     2
  5.9206539595532526E+00 a        63     0     7     1     3
 -1.4655142470044169E+00 a        64     0     7     1     4
  4.6135185443639202E+00 a        65     0     7     1     5
 -2.7069182581649800E+00 a        66     0     7     1     6
  4.4686657293250782E+00 a        67     0     7     1     7
  4.8631808599159427E+00 a        68     0     7     1     8
  3.0903807747793239E+00 a        69     0     7     1     9
  2.6630290202778664E+00 a        70     0     7     1    10
 -2.5603303499843255E+00 a        71     0     8     1     1
  1.7077508520352451E+00 a        72     0     8     1     2
  5.9007066301081590E+00 a        73     0     8     1     3
 -1.7168474658933242E+00 a        74     0     8     1     4
  5.0968045902674781E+00 a        75     0     8     1     5
 -2.6443842981648968E+00 a        76     0     8     1     6
  4.7617078312665910E+00 a        77     0     8     1     7
  4.3153794020891780E+00 a        78     0     8     1     8
  3.1521477533501341E+00 a        79     0     8     1     9
  2.3829431330018189E+00 a        80     0     8     1    10
 -2.2648103843123972E+00 a        81     0     9     1     1
  1.8482829222234707E+00 a        82     0     9     1     2
  5.7637030547853341E+00 a        83     0     9     1     3
 -1.5606281066782428E+00 a        84     0     9     1     4
  5.2562551729695741E+00 a        85     0     9     1     5
 -1.9574091511769589E+00 a        86     0     9     1     6
  4.8476394743167992E+00 a        87     0     9     1     7
  3.7654897355168737E+00 a        88     0     9     1     8
  3.0771747494559603E+00 a        89     0     9     1     9
  1.8489162766891207E+00 a        90     0     9     1    10
 -2.0319398683347889E+00 a        91     0    10     1     1
  2.2680185456845430E+00 a        92     0    10     1     2
  5.3274565140001098E+00 a        93     0    10     1     3
 -1.6410339824448545E+00 a        94     0    10     1     4
  5.3550776205470747E+00 a        95     0    10     1     5
 -1.3349102319019992E+00 a        96     0    10     1     6
  4.7855250143659971E+00 a        97     0    10     1     7
  3.0250069182765262E+00 a        98     0    10     1     8
  2.5986728373200481E+00 a        99     0    10     1     9
  1.2582532951202956E+00 a       100     0    10     1    10
 -2.0940550351427558E+00 a       101     0    11     1     1
  2.2518504487705080E+00 a       102     0    11     1     2
  5.3033765777546407E+00 a       103     0    11     1     3
 -1.1719262441332563E+00 a       104     0    11     1     4
  5.4268080571515656E+00 a       105     0    11     1     5
 -1.0251174502822726E+00 a       106     0    11     1     6
  4.3176243916231156E+00 a       107     0    11     1     7
  2.2771423115106368E+00 a       108     0    11     1     8
  2.3485104604776419E+00 a       109     0    11     1     9
  3.8986690714550115E-01 a       110     0    11     1    10
 -1.5592265355281332E+00 a       111     0    12     1     1
  2.6936712196599855E+00 a       112     0    12     1     2
  4.4209653860442231E+00 a       113     0    12     1     3
 -1.6101261416032357E+00 a       114     0    12     1     4
  5.3741507965535149E+00 a       115     0    12     1     5
 -2.0575384359317345E-01 a       116     0    12     1     6
  4.0727832026974351E+00 a       117     0    12     1     7
  1.9186049324688539E+00 a       118     0    12     1     8
  1.8083204949476628E+00 a       119     0    12     1     9
  1.1913205502778182E-01 a       120     0    12     1    10
 -1.7771178724666015E+00 a       121     0    13     1     1
  2.9151505045421873E+00 a       122     0    13     1     2
  4.3386145903840738E+00 a       123     0    13     1     3
 -1.2870573109732566E+00 a       124     0    13     1     4
  5.3258172489346416E+00 a       125     0    13     1     5
  1.9682792812585834E-01 a       126     0    13     1     6
  3.8758438411978795E+00 a       127     0    13     1     7
  1.1909499857666850E+00 a       128     0    13     1     8
  1.1845660951597075E+00 a       129     0    13     1     9
 -8.9005527460692446E-01 a       130     0    13     1    10
 -1.6784299710462331E+00 a       131     0    14     1     1
  3.1616889107871886E+00 a       132     0    14     1     2
  3.5939958842844764E+00 a       133     0    14     1     3
 -1.0670671139614298E+00 a       134     0    14     1     4
  5.3506106432157798E+00 a       135     0    14     1     5
  8.3725267962537231E-01 a       136     0    14     1     6
  3.7247852591394204E+00 a       137     0    14     1     7
  7.8159093483202449E-02 a       138     0    14     1     8
  1.0637794117822617E+00 a       139     0    14     1     9
 -1.1649311031133895E+00 a       140     0    14     1    10
 -1.7639549506823171E+00 a       141     0    15     1     1
  3.8879385061675715E+00 a       142     0    15     1     2
  2.7173032861611182E+00 a       143     0    15     1     3
 -1.4753650907492883E+00 a       144     0    15     1     4
  5.0858691191062615E+00 a       145     0    15     1     5
  1.3233994383153189E+00 a       146     0    15     1     6
  3.2713527677855083E+00 a       147     0    15     1     7
 -3.4607930605690979E-01 a       148     0    15     1     8
  1.7386065502709769E-01 a       149     0    15     1     9
 -1.8276493034975534E+00 a       150     0    15     1    10
 -1.3126672115395970E+00 a       151     0    16     1     1
  4.0506245330977162E+00 a       152     0    16     1     2
  1.6500242458058461E+00 a       153     0    16     1     3
 -1.1786895773614623E+00 a       154     0    16     1     4
  4.6742852606487562E+00 a       155     0    16     1     5
  1.6298304923394635E+00 a       156     0    16     1     6
  2.9745682568489533E+00 a       157     0    16     1     7
 -1.4547831990981472E+00 a       158     0    16     1     8
 -7.4504672781127002E-01 a       159     0    16     1     9
 -2.4470839875670287E+00 a       160     0    16     1    10
 -1.7975783840154806E+00 a       161     0    17     1     1
  5.0571538597949726E+00 a       162     0    17     1     2
  4.7672294028777701E-01 a       163     0    17     1     3
 -1.0016656602326777E+00 a       164     0    17     1     4
  4.2872917984676544E+00 a       165     0    17     1     5
  2.2357719525858952E+00 a       166     0    17     1     6
  2.5035721242343674E+00 a       167     0    17     1     7
 -2.2002193733789595E+00 a       168     0    17     1     8
 -1.2660770683401508E+00 a       169     0    17     1     9
 -2.4833494531417228E+00 a       170     0    17     1    10
 -2.1674043483523575E+00 a       171     0    18     1     1
  6.0585859035248353E+00 a       172     0    18     1     2
 -1.2499252514408370E+00 a       173     0    18     1     3
 -8.2380757903372448E-01 a       174     0    18     1     4
  3.0256377052571479E+00 a       175     0    18     1     5
  2.6229411436613228E+00 a       176     0    18     1     6
  1.3713065193409752E+00 a       177     0    18     1     7
 -3.0195623787626436E+00 a       178     0    18     1     8
 -2.5623911311861240E+00 a       179     0    18     1     9
 -2.9924937059411669E+00 a       180     0    18     1    10
 -2.1556032233522826E+00 a       181     0    19     1     1
  7.1614612315173822E+00 a       182     0    19     1     2
 -2.7057849533523872E+00 a       183     0    19     1     3
 -8.8521161166051876E-01 a       184     0    19     1     4
  2.3193446138285556E+00 a       185     0    19     1     5
  2.6929705829349349E+00 a       186     0    19     1     6
  2.3342723927748044E-01 a       187     0    19     1     7
 -3.4104128647185203E+00 a       188     0    19     1     8
 -3.4209340279408473E+00 a       189     0    19     1     9
 -2.4508555458774195E+00 a       190     0    19     1    10
 -2.8111170316567242E+00 a       191     0    20     1     1
  8.2809822841655301E+00 a       192     0    20     1     2
 -4.7940039774159269E+00 a       193     0    20     1     3
 -1.0927714793105521E+00 a       194     0    20     1     4
  9.3574370188783051E-01 a       195     0    20     1     5
  2.7735587321406441E+00 a       196     0    20     1     6
 -1.4478947434089593E+00 a       197     0    20     1     7
 -4.2019682932984566E+00 a       198     0    20     1     8
 -4.4520200047601115E+00 a       199     0    20     1     9
 -2.3943806890117290E+00 a       200     0    20     1    10
 -3.4823501898867311E+00 a       201     0    21     1     1
  9.4112140616576951E+00 a       202     0    21     1     2
 -7.2103631568245481E+00 a       203     0    21     1     3
 -7.6055963492898104E-01 a       204     0    21     1     4
 -8.3959916313189842E-01 a       205     0    21     1     5
  2.5999052027794520E+00 a       206     0    21     1     6
 -3.3082132161037552E+00 a       207     0    21     1     7
 -5.3806248872993629E+00 a       208     0    21     1     8
 -5.5009048770158486E+00 a       209     0    21     1     9
 -1.6825965797581104E+00 a       210     0    21     1    10
 -4.4986710152842075E+00 a       211     0    22     1     1
  1.0775760523982507E+01 a       212     0    22     1     2
 -9.9550442893278390E+00 a       213     0    22     1     3
 -9.4370895747427685E-01 a       214     0    22     1     4
 -2.7414073369476579E+00 a       215     0    22     1     5
  2.7097719783723320E+00 a       216     0    22     1     6
 -5.4499788629921690E+00 a       217     0    22     1     7
 -6.1707844728449954E+00 a       218     0    22     1     8
 -5.7511938596755332E+00 a       219     0    22     1     9
 -4.3727073817398526E-01 a       220     0    22     1    10
 -5.1130231608112311E+00 a       221     0    23     1     1
  1.1581021519902606E+01 a       222     0    23     1     2
 -1.2045764632534954E+01 a       223     0    23     1     3
 -1.0937069912646271E+00 a       224     0    23     1     4
 -4.8936602760610954E+00 a       225     0    23     1     5
  2.3804976691131361E+00 a       226     0    23     1     6
 -8.5304031983751383E+00 a       227     0    23     1     7
 -7.8843394725947906E+00 a       228     0    23     1     8
 -5.1753617398114136E+00 a       229     0    23     1     9
  9.6680803401232251E-01 a       230     0    23     1    10
 -5.8853579695275640E+00 a       231     0    24     1     1
  1.2212044610713177E+01 a       232     0    24     1     2
 -1.3479980885508546E+01 a       233     0    24     1     3
 -1.4421036935184997E+00 a       234     0    24     1     4
 -6.9965333691077136E+00 a       235     0    24     1     5
  2.1948585002124616E+00 a       236     0    24     1     6
 -1.2295560008686520E+01 a       237     0    24     1     7
 -9.5872976704527630E+00 a       238     0    24     1     8
 -3.1572593530211859E+00 a       239     0    24     1     9
  2.5157179062798622E+00 a       240     0    24     1    10
 -5.8667924162290106E+00 a       241     0    25     1     1
  1.1748123832112865E+01 a       242     0    25     1     2
 -1.3092002451361575E+01 a       243     0    25     1     3
 -1.6595586618656437E+00 a       244     0    25     1     4
 -8.5595021986139468E+00 a       245     0    25     1     5
  2.2078435072093390E+00 a       246     0    25     1     6
 -1.7064131080874397E+01 a       247     0    25     1     7
 -1.2121510094302741E+01 a       248     0    25     1     8
  1.8755930650242376E+00 a       249     0    25     1     9
  4.4052687494164777E+00 a       250     0    25     1    10
 -5.1581772716009340E+00 a       251     0    26     1     1
  9.1258750533535764E+00 a       252     0    26     1     2
 -1.0684921429475118E+01 a       253     0    26     1     3
 -2.3213891718097504E+00 a       254     0    26     1     4
 -8.7396139149530701E+00 a       255     0    26     1     5
  3.3607407450136551E+00 a       256     0    26     1     6
 -2.1366933082395789E+01 a       257     0    26     1     7
 -1.5477810903556755E+01 a       258     0    26     1     8
  9.8085662564939877E+00 a       259     0    26     1     9
  5.7767161135063816E+00 a       260     0    26     1    10
 -2.1973127099804803E+00 a       261     0    27     1     1
  4.6690334684058854E+00 a       262     0    27     1     2
 -3.8349512436355773E+00 a       263     0    27     1     3
 -3.6159013122190773E+00 a       264     0    27     1     4
 -6.9308553108164990E+00 a       265     0    27     1     5
  5.0139445929762347E+00 a       266     0    27     1     6
 -2.5943160278016958E+01 a       267     0    27     1     7
 -1.9767286223476791E+01 a       268     0    27     1     8
  2.0946357062580983E+01 a       269     0    27     1     9
  5.9239954147245752E+00 a       270     0    27     1    10
  5.3234127957081938E+00 a       271     0    28     1     1
 -4.1598886681237401E-01 a       272     0    28     1     2
  7.9072901324639497E+00 a       273     0    28     1     3
 -5.7223189152660066E+00 a       274     0    28     1     4
  1.0615255619381798E+00 a       275     0    28     1     5
  7.9031544777983225E+00 a       276     0    28     1     6
 -2.8056784184494177E+01 a       277     0    28     1     7
 -2.4954097657875106E+01 a       278     0    28     1     8
  3.1905698368390347E+01 a       279     0    28     1     9
  4.0120432345612107E+00 a       280     0    28     1    10
  2.2800155384113879E+01 a       281     0    29     1     1
 -3.0572375675643686E+00 a       282     0    29     1     2
  3.0159341265506750E+01 a       283     0    29     1     3
 -1.1334736082115342E+01 a       284     0    29     1     4
  2.3806681028329784E+01 a       285     0    29     1     5
  1.1401918686402050E+01 a       286     0    29     1     6
 -2.8285519127773771E+01 a       287     0    29     1     7
 -3.1087192400536004E+01 a       288     0    29     1     8
  3.7712310500678981E+01 a       289     0    29     1     9
 -2.8953884435641890E+00 a       290     0    29     1    10
  5.4090957508572416E+01 a       291     0    30     1     1
  5.5223437399417941E-01 a       292     0    30     1     2
  6.5904383455291040E+01 a       293     0    30     1     3
 -2.2379688784199367E+01 a       294     0    30     1     4
  6.9481532314638827E+01 a       295     0    30     1     5
  1.1490832070279502E+01 a       296     0    30     1     6
 -2.7763709461618898E+01 a       297     0    30     1     7
 -4.0789985911649609E+01 a       298     0    30     1     8
  3.2583782861123879E+01 a       299     0    30     1     9
 -1.4834939584089826E+01 a       300     0    30     1    10
  7.4278643236503441E+01 a       301     0    31     1     1
  9.2262377266240385E+00 a       302     0    31     1     2
  8.7595508953929667E+01 a       303     0    31     1     3
 -3.1993078632365709E+01 a       304     0    31     1     4
  1.0312067106542317E+02 a       305     0    31     1     5
  2.8333019488785411E+00 a       306     0    31     1     6
 -2.6482884171683093E+01 a       307     0    31     1     7
 -4.5150584654890892E+01 a       308     0    31     1     8
  1.7642797139323136E+01 a       309     0    31     1     9
 -2.0646198123788100E+01 a       310     0    31     1    10
  3.4249943687982743E+01 a       311     0    32     1     1
  8.0252037866904882E+00 a       312     0    32     1     2
  4.0818383925656107E+01 a       313     0    32     1     3
 -1.6310056287850959E+01 a       314     0    32     1     4
  4.9848938275621471E+01 a       315     0    32     1     5
 -3.9714041416162731E+00 a       316     0    32     1     6
 -1.1931169565755159E+01 a       317     0    32     1     7
 -1.9507356536967215E+01 a       318     0    32     1     8
  2.1112942246048778E+00 a       319     0    32     1     9
 -7.6261714837898156E+00 a       320     0    32     1    10
 -1.2710769966380207E+01 a       321     0    33     1     1
 -5.0399051488457394E+00 a       322     0    33     1     2
 -1.0027333691148284E+01 a       323     0    33     1     3
  6.4915919378678177E+00 a       324     0    33     1     4
 -1.5918001701830500E+01 a       325     0    33     1     5
  6.0015796558639094E+00 a       326     0    33     1     6
  3.9856140283478689E+00 a       327     0    33     1     7
  7.1382406748323310E+00 a       328     0    33     1     8
  4.1494571020313273E+00 a       329     0    33     1     9
 -2.7313310340523125E+00 a       330     0    33     1    10
 -2.0559532176815459E+01 a       331     0    34     1     1
 -3.2356095048550362E+00 a       332     0    34     1     2
 -1.5879376273016009E+01 a       333     0    34     1     3
  1.3392408158193374E+01 a       334     0    34     1     4
 -2.6392829201242595E+01 a       335     0    34     1     5
  5.6210174361621554E+00 a       336     0    34     1     6
  8.7432367914345583E+00 a       337     0    34     1     7
  1.5986843619453255E+01 a       338     0    34     1     8
 -6.9642825556390555E+00 a       339     0    34     1     9
 -4.1073964251147697E+00 a       340     0    34     1    10
 -6.2490479720314367E+00 a       341     0    35     1     1
 -3.2694265605754658E-01 a       342     0    35     1     2
 -8.0229453602194258E+00 a       343     0    35     1     3
  1.3148906927809108E+00 a       344     0    35     1     4
 -6.9666241764854338E+00 a       345     0    35     1     5
  7.3178528264758735E-01 a       346     0    35     1     6
 -3.8850579942175929E+00 a       347     0    35     1     7
  2.3351498231607968E+00 a       348     0    35     1     8
  2.7303909237040478E+00 a       349     0    35     1     9
  3.0558578211601097E+00 a       350     0    35     1    10
 -1.3809218103221099E+01 a       351     0    36     1     1
  1.3908666623638928E+00 a       352     0    36     1     2
 -1.1696422068824027E+01 a       353     0    36     1     3
  9.8263099506366096E+00 a       354     0    36     1     4
 -1.7422669326745019E+01 a       355     0    36     1     5
  1.4999238076525243E+00 a       356     0    36     1     6
  4.0992303006104471E+00 a       357     0    36     1     7
  1.2324974368348096E+01 a       358     0    36     1     8
 -1.0815482802744405E+01 a       359     0    36     1     9
 -7.1919701767450883E-01 a       360     0    36     1    10
  1.3971959312602367E+00 a       361     0    37     1     1
  1.7595178231360920E+00 a       362     0    37     1     2
  1.2890843820475379E+00 a       363     0    37     1     3
 -1.3248315782914946E+00 a       364     0    37     1     4
  2.5211676900587041E+00 a       365     0    37     1     5
 -1.0763567323646512E+00 a       366     0    37     1     6
 -1.9756213741579527E+00 a       367     0    37     1     7
 -6.4246959342085685E-01 a       368     0    37     1     8
 -1.8183238879205437E+00 a       369     0    37     1     9
  1.1226663472073035E+00 a       370     0    37     1    10
 -1.7090716268983282E+01 a       371     0    38     1     1
  6.0327899092672661E+00 a       372     0    38     1     2
 -2.3052126535100264E+01 a       373     0    38     1     3
  8.4951834310430989E+00 a       374     0    38     1     4
 -2.4087553152621137E+01 a       375     0    38     1     5
 -4.6293720484943162E+00 a       376     0    38     1     6
 -4.6335118401901836E+00 a       377     0    38     1     7
  1.0788534541342099E+01 a       378     0    38     1     8
 -1.1181206282331830E+01 a       379     0    38     1     9
  9.5074599237858006E+00 a       380     0    38     1    10
 -1.1968772841561647E+01 a       381     0    39     1     1
 -3.0687753159630717E+00 a       382     0    39     1     2
 -9.9348345887558107E+00 a       383     0    39     1     3
  6.3645108072128824E+00 a       384     0    39     1     4
 -1.6197834252891639E+01 a       385     0    39     1     5
  3.7131857324280007E+00 a       386     0    39     1     6
  4.3347343286658226E+00 a       387     0    39     1     7
  7.3213619036376514E+00 a       388     0    39     1     8
  2.3701414946702398E-01 a       389     0    39     1     9
 -1.2682107164719967E+00 a       390     0    39     1    10
 -1.7885796835499811E+01 a       391     0    40     1     1
 -2.3750506462631429E+00 a       392     0    40     1     2
 -1.4503241226152035E+01 a       393     0    40     1     3
  1.1552237386109043E+01 a       394     0    40     1     4
 -2.5534019102826338E+01 a       395     0    40     1     5
  3.5746554494596023E+00 a       396     0    40     1     6
  8.3882659085347164E+00 a       397     0    40     1     7
  1.3196251228786497E+01 a       398     0    40     1     8
 -7.1958898255328521E+00 a       399     0    40     1     9
 -2.7653410441547672E+00 a       400     0    40     1    10
 -6.4299525827694577E+00 a       401     0    41     1     1
 -1.6058188385466324E-01 a       402     0    41     1     2
 -7.9414426448900786E+00 a       403     0    41     1     3
  2.2677620126278355E+00 a       404     0    41     1     4
 -8.7255495829813903E+00 a       405     0    41     1     5
  8.4883101387027360E-01 a       406     0    41     1     6
 -1.5533137491466491E+00 a       407     0    41     1     7
  2.6332024798862816E+00 a       408     0    41     1     8
  9.6303818665961627E-01 a       409     0    41     1     9
  2.3372512470247018E+00 a       410     0    41     1    10
 -1.2290343003789511E+01 a       411     0    42     1     1
  1.9883332204718548E-01 a       412     0    42     1     2
 -1.0753578938781386E+01 a       413     0    42     1     3
  8.0541075957869595E+00 a       414     0    42     1     4
 -1.6983205026646523E+01 a       415     0    42     1     5
  7.6182888961117790E-01 a       416     0    42     1     6
  4.6180799633021614E+00 a       417     0    42     1     7
  9.7043329488850940E+00 a       418     0    42     1     8
 -8.1894687003460405E+00 a       419     0    42     1     9
 -6.6633827939161261E-01 a       420     0    42     1    10
  8.4979270955512243E-01 a       421     0    43     1     1
  9.3424125571880379E-01 a       422     0    43     1     2
  8.5571632616201909E-01 a       423     0    43     1     3
 -4.7288589255771374E-01 a       424     0    43     1     4
  1.2749639863265712E+00 a       425     0    43     1     5
 -2.2513682132325588E-01 a       426     0    43     1     6
 -1.3485002038742335E+00 a       427     0    43     1     7
 -3.9150445275064444E-01 a       428     0    43     1     8
 -4.5573225200538786E-01 a       429     0    43     1     9
  4.6413786932067719E-01 a       430     0    43     1    10
 -1.4131903783404010E+01 a       431     0    44     1     1
  2.7353374498477345E+00 a       432     0    44     1     2
 -1.8083006105525257E+01 a       433     0    44     1     3
  7.2061348638230474E+00 a       434     0    44     1     4
 -2.1126377344002300E+01 a       435     0    44     1     5
 -2.2926017741144684E+00 a       436     0    44     1     6
 -1.7221104022553713E+00 a       437     0    44     1     7
  8.7661909551867243E+00 a       438     0    44     1     8
 -7.6339612342087602E+00 a       439     0    44     1     9
  6.1391779719571096E+00 a       440     0    44     1    10
  1.3413824976255045E-01 a       441     0    45     1     1
  3.6929889520091387E-02 a       442     0    45     1     2
  7.1651510627748174E-02 a       443     0    45     1     3
  4.2036617903639696E-02 a       444     0    45     1     4
  1.1007623046263082E-01 a       445     0    45     1     5
 -1.0069898839274227E-01 a       446     0    45     1     6
 -1.7260751426733931E-01 a       447     0    45     1     7
  1.5800163328814901E-01 a       448     0    45     1     8
 -2.2638823501081984E-01 a       449     0    45     1     9
  9.9032033407662243E-02 a       450     0    45     1    10
  1.4776673220369027E-01 a       451     0    46     1     1
 -1.6514892629129080E-01 a       452     0    46     1     2
  2.7117513852002306E-01 a       453     0    46     1     3
 -2.0597293486645952E-02 a       454     0    46     1     4
 -2.3667314840460768E-01 a       455     0    46     1     5
  8.1015903225383226E-02 a       456     0    46     1     6
  1.0117384078936838E-01 a       457     0    46     1     7
 -2.8790892433091835E-02 a       458     0    46     1     8
  1.3359963858471094E-01 a       459     0    46     1     9
  1.8221824489710614E-01 a       460     0    46     1    10
  2.2830625901424306E-01 a       461     0    47     1     1
  5.9447110150832531E-02 a       462     0    47     1     2
 -2.0294976718309422E-04 a       463     0    47     1     3
 -2.2727501982611026E-01 a       464     0    47     1     4
  4.1856549572980822E-02 a       465     0    47     1     5
  1.8973383415715858E-03 a       466     0    47     1     6
  1.4950554509020741E-01 a       467     0    47     1     7
 -2.1383457523261570E-01 a       468     0    47     1     8
 -3.1248816437809811E-02 a       469     0    47     1     9
  2.9312392211951050E-02 a       470     0    47     1    10
  7.6491927872322188E-02 a       471     0    48     1     1
  1.2487122388387122E-01 a       472     0    48     1     2
 -1.6369191396749819E-01 a       473     0    48     1     3
 -1.1537517728443756E-02 a       474     0    48     1     4
 -2.4071148454139391E-01 a       475     0    48     1     5
  2.1940330411920075E-01 a       476     0    48     1     6
  1.8675698985007061E-01 a       477     0    48     1     7
  9.2929948993756617E-02 a       478     0    48     1     8
  6.2013333551604030E-02 a       479     0    48     1     9
 -7.2358364908177278E-02 a       480     0    48     1    10
  2.3136851840819161E-01 a       481     0    49     1     1
  7.5438243173117189E-02 a       482     0    49     1     2
 -1.1605083014261833E-01 a       483     0    49     1     3
  1.5067468718371366E-01 a       484     0    49     1     4
  8.4528456636464590E-05 a       485     0    49     1     5
  1.2487762778477856E-02 a       486     0    49     1     6
 -2.2799599212419680E-01 a       487     0    49     1     7
 -4.8859670905009103E-02 a       488     0    49     1     8
 -2.7701439823562368E-01 a       489     0    49     1     9
  2.4333059832344525E-01 a       490     0    49     1    10
  1.4328173832132005E-01 a       491     0    50     1     1
  1.9101204745515613E-01 a       492     0    50     1     2
 -2.0651000035369799E-01 a       493     0    50     1     3
 -2.2889732057415982E-01 a       494     0    50     1     4
  1.0299011089965657E-01 a       495     0    50     1     5
 -1.9299553824919205E-01 a       496     0    50     1     6
  1.1710023605329638E-01 a       497     0    50     1     7
  7.7823567310500025E-02 a       498     0    50     1     8
 -5.4473615537151882E-02 a       499     0    50     1     9
  2.2138366763597811E-01 a       500     0    50     1    10
 -2.5152320371814060E+01 a       501     0    51     1     1
 -2.5746394367323703E+01 a       502     0    51     1     2
 -5.7878810457113721E+00 a       503     0    51     1     3
 -8.0684136178417998E-01 a       504     0    51     1     4
 -2.6779155663683088E+01 a       505     0    51     1     5
  1.0841482643637775E+01 a       506     0    51     1     6
 -1.7210257422788142E+00 a       507     0    51     1     7
  1.0960890198923318E+01 a       508     0    51     1     8
  3.1157177345997578E+01 a       509     0    51     1     9
 -1.8454936271929956E+00 a       510     0    51     1    10
 -2.4620461130666957E+01 a       511     0    52     1     1
 -1.5391813162515922E+01 a       512     0    52     1     2
  1.3606173256064407E+01 a       513     0    52     1     3
 -7.4621588037862274E-01 a       514     0    52     1     4
 -1.5361825793357315E+01 a       515     0    52     1     5
 -1.5782345190849838E+01 a       516     0    52     1     6
  1.3867645436074200E+01 a       517     0    52     1     7
  2.5265835433982289E+01 a       518     0    52     1     8
  4.4521409829515060E+00 a       519     0    52     1     9
 -5.3322138453737953E+00 a       520     0    52     1    10
 -3.4294435487910255E+00 a       521     0    53     1     1
  2.3722964893458869E+00 a       522     0    53     1     2
  1.4442810494652898E+01 a       523     0    53     1     3
 -1.7449687401452385E+00 a       524     0    53     1     4
 -1.8301421079806408E+00 a       525     0    53     1     5
  5.3177707146693649E+00 a       526     0    53     1     6
 -4.0482693939517960E+00 a       527     0    53     1     7
  1.1358938154956759E+01 a       528     0    53     1     8
 -1.2715287941296335E+01 a       529     0    53     1     9
  2.1445846463442657E+00 a       530     0    53     1    10
  3.9820859030991644E+00 a       531     0    54     1     1
  5.4404803837739042E+00 a       532     0    54     1     2
  2.1423636558660895E+01 a       533     0    54     1     3
  8.9509645157288986E+00 a       534     0    54     1     4
  2.1048971601479913E+01 a       535     0    54     1     5
  6.0012326571113155E+00 a       536     0    54     1     6
  6.9902534641742031E+00 a       537     0    54     1     7
  4.5564213770714881E+00 a       538     0    54     1     8
 -5.5902732948127527E+00 a       539     0    54     1     9
 -1.4253812682898380E+01 a       540     0    54     1    10
  6.5634080935535648E+00 a       541     0    55     1     1
  1.2350944934253805E+01 a       542     0    55     1     2
  4.1685150634365611E+00 a       543     0    55     1     3
  2.0280320035386737E+01 a       544     0    55     1     4
 -6.6198231239595406E-01 a       545     0    55     1     5
  2.9843048090217241E+01 a       546     0    55     1     6
  5.6597879706406893E+00 a       547     0    55     1     7
 -2.3995133014799190E+01 a       548     0    55     1     8
 -6.7543258226278624E+00 a       549     0    55     1     9
 -1.0865459168509728E+01 a       550     0    55     1    10
 -7.4187983975968876E+00 a       551     0    56     1     1
  3.2307884410350724E+01 a       552     0    56     1     2
 -1.3548827693593154E+01 a       553     0    56     1     3
  5.0027898380264135E+00 a       554     0    56     1     4
  6.3167773164229519E+00 a       555     0    56     1     5
 -1.4508703269077449E+01 a       556     0    56     1     6
 -2.9388096951968723E+01 a       557     0    56     1     7
  1.4975441316093496E+01 a       558     0    56     1     8
 -3.0167085663548423E+01 a       559     0    56     1     9
  2.0185290675693366E+01 a       560     0    56     1    10
 -3.3499095533333971E+01 a       561     0    57     1     1
 -1.8356652992318502E+01 a       562     0    57     1     2
 -2.0259611798988232E+01 a       563     0    57     1     3
  4.1044637274605353E+00 a       564     0    57     1     4
 -3.7322121542923718E+01 a       565     0    57     1     5
  9.0962083428279978E+00 a       566     0    57     1     6
 -6.5995372614739782E+00 a       567     0    57     1     7
  1.7927449374345883E+01 a       568     0    57     1     8
  2.1445820487635988E+01 a       569     0    57     1     9
  3.0471858406944374E+00 a       570     0    57     1    10
 -2.6276876546487447E+01 a       571     0    58     1     1
 -1.9484747536735163E+01 a       572     0    58     1     2
  5.8464428047151502E+00 a       573     0    58     1     3
  5.8522705736924161E+00 a       574     0    58     1     4
 -2.4124614014170817E+01 a       575     0    58     1     5
 -4.4364428517965564E+00 a       576     0    58     1     6
  1.6983524062603539E+01 a       577     0    58     1     7
  2.2795079440409136E+01 a       578     0    58     1     8
  6.8275036153611204E+00 a       579     0    58     1     9
 -1.1816130762491818E+01 a       580     0    58     1    10
 -9.0102454025572545E+00 a       581     0    59     1     1
  3.8447862671641202E+00 a       582     0    59     1     2
  1.5689548343345863E+00 a       583     0    59     1     3
 -1.2421395563937290E+00 a       584     0    59     1     4
 -6.8441267938826451E+00 a       585     0    59     1     5
  2.8234269437125366E+00 a       586     0    59     1     6
 -1.1597006569831688E+01 a       587     0    59     1     7
  1.3159796876202860E+01 a       588     0    59     1     8
 -8.4363611508474534E+00 a       589     0    59     1     9
  7.2020894964124968E+00 a       590     0    59     1    10
 -6.8103747208030070E+00 a       591     0    60     1     1
 -3.2296161436916235E+00 a       592     0    60     1     2
  1.0122178924591635E+01 a       593     0    60     1     3
  1.3406819530741229E+01 a       594     0    60     1     4
 -3.3754983603845137E+00 a       595     0    60     1     5
  7.9391428165424376E+00 a       596     0    60     1     6
  1.7554306628380306E+01 a       597     0    60     1     7
  8.5727634991479960E+00 a       598     0    60     1     8
 -7.4530713794994945E+00 a       599     0    60     1     9
 -1.7082705732203621E+01 a       600     0    60     1    10
 -8.1040936629550107E+00 a       601     0    61     1     1
  1.2946284881857448E+01 a       602     0    61     1     2
 -1.2546881615224381E+01 a       603     0    61     1     3
  1.6730093915822408E+01 a       604     0    61     1     4
 -1.8894976652411824E+01 a       605     0    61     1     5
  1.5562381511600707E+01 a       606     0    61     1     6
  2.6426335086004631E+00 a       607     0    61     1     7
 -8.8614705360572650E+00 a       608     0    61     1     8
 -1.5497467172041221E+01 a       609     0    61     1     9
  6.2330272273370246E-01 a       610     0    61     1    10
 -1.2280962672018942E+01 a       611     0    62     1     1
  1.4749440391277316E+01 a       612     0    62     1     2
 -1.4165974232658098E+01 a       613     0    62     1     3
  9.3149222132366223E+00 a       614     0    62     1     4
 -8.2291501478991620E+00 a       615     0    62     1     5
 -3.8980003252776236E+00 a       616     0    62     1     6
 -1.1601291794756245E+01 a       617     0    62     1     7
  1.4045489963258126E+01 a       618     0    62     1     8
 -1.8016683085838878E+01 a       619     0    62     1     9
  8.4353189051239941E+00 a       620     0    62     1    10
  4.4605543252301566E-02 a       621     0    63     1     1
  5.5000565474960218E-02 a       622     0    63     1     2
 -1.8672206724892845E-01 a       623     0    63     1     3
 -2.6231852156317242E-01 a       624     0    63     1     4
  1.3949486807164979E-01 a       625     0    63     1     5
  2.5705302731628815E-01 a       626     0    63     1     6
  2.5934781298686960E-01 a       627     0    63     1     7
 -1.5598430012472514E-01 a       628     0    63     1     8
 -4.2240097310325658E-02 a       629     0    63     1     9
  1.4201576973383244E-02 a       630     0    63     1    10
  7.2540016386909670E-02 a       631     0    64     1     1
  1.6506855128044212E-01 a       632     0    64     1     2
 -1.9033774109985804E-01 a       633     0    64     1     3
 -1.9482625071373286E-01 a       634     0    64     1     4
 -2.2799973089788092E-01 a       635     0    64     1     5
 -1.7536028323917979E-01 a       636     0    64     1     6
  2.2949922788692440E-01 a       637     0    64     1     7
 -1.3646242076257920E-01 a       638     0    64     1     8
  1.8453523437479888E-01 a       639     0    64     1     9
 -1.9190739714687741E-01 a       640     0    64     1    10
 -6.5346462516352372E-02 a       641     0    65     1     1
  1.8874310431813232E-01 a       642     0    65     1     2
  9.9003647795923980E-02 a       643     0    65     1     3
  3.3389817566302230E-02 a       644     0    65     1     4
  1.0271940615233079E-01 a       645     0    65     1     5
 -1.6143367572963974E-01 a       646     0    65     1     6
 -8.2043824129396314E-02 a       647     0    65     1     7
 -2.6872985856352971E-01 a       648     0    65     1     8
  2.4294809997294448E-01 a       649     0    65     1     9
 -6.1878919612876226E-02 a       650     0    65     1    10
  2.4455204606128259E-01 a       651     0    66     1     1
  1.4730705359233859E-01 a       652     0    66     1     2
  1.9046861282554017E-01 a       653     0    66     1     3
  6.9720018067201975E-02 a       654     0    66     1     4
 -1.5425892247390549E-01 a       655     0    66     1     5
  1.2113730773689094E-01 a       656     0    66     1     6
  1.1426269340434103E-01 a       657     0    66     1     7
  1.2428424359053733E-01 a       658     0    66     1     8
 -2.4049670300591872E-01 a       659     0    66     1     9
 -1.2477920913189160E-01 a       660     0    66     1    10
 -1.5767891199045572E-01 a       661     0    67     1     1
 -1.7344745270386350E-01 a       662     0    67     1     2
  2.4354569832306872E-01 a       663     0    67     1     3
 -2.6438869148197319E-01 a       664     0    67     1     4
  2.7412653895714195E-01 a       665     0    67     1     5
  2.4995331473152185E-01 a       666     0    67     1     6
 -1.9449211908546329E-02 a       667     0    67     1     7
 -1.4393792845333597E-01 a       668     0    67     1     8
  2.5927660959371907E-01 a       669     0    67     1     9
 -1.7121771256829257E-01 a       670     0    67     1    10
  1.7922557148272977E-01 a       671     0    68     1     1
 -6.8536835461817935E-02 a       672     0    68     1     2
 -1.9021066923872221E-01 a       673     0    68     1     3
  1.3314189594133916E-02 a       674     0    68     1     4
  1.0107515778400113E-01 a       675     0    68     1     5
  1.9255566899484511E-01 a       676     0    68     1     6
  1.2166545612090394E-01 a       677     0    68     1     7
 -7.9120546034885705E-02 a       678     0    68     1     8
 -6.5512190086394639E-02 a       679     0    68     1     9
  2.1900185690537866E-01 a       680     0    68     1    10
  2.6010441298774982E+01 b       681     1     1
 -2.5499833793491277E+01 b       682     1     2
 -1.5025051321383456E+01 b       683     1     3
  1.8655441915343680E+01 b       684     1     4
 -1.7026068725924898E+01 b       685     1     5
  8.8494814888105147E+00 b       686     1     6
 -4.2660605651963790E+00 b       687     1     7
  4.2551606488007074E+00 b       688     1     8
 -1.5707061250477405E+01 b       689     1     9
  1.1660899462189418E+00 b       690     1    10
  2.8629680647582287E+01 a       691     1     1     2     1
  3.8264375717421053E+01 a       692     1     1     2     2
 -1.6018306272146989E+00 a       693     1     1     2     3
  5.8314237983021657E+00 a       694     1     1     2     4
 -3.3716605659627653E+01 a       695     1     1     2     5
 -8.0078189496785406E+00 a       696     1     1     2     6
 -3.5565140135731825E+00 a       697     1     1     2     7
 -1.8234176257896635E+00 a       698     1     1     2     8
  4.0029562670894244E+01 a       699     1     1     2     9
  4.8583975653126885E+01 a       700     1     1     2    10
  2.0926696358164250E+01 a       701     1     2     2     1
  3.0802366605813237E+01 a       702     1     2     2     2
  7.9906923441354190E+00 a       703     1     2     2     3
 -4.8250190097188678E+01 a       704     1     2     2     4
 -1.2346913862880493E+01 a       705     1     2     2     5
  3.2102108711090294E+00 a       706     1     2     2     6
  4.7214854428083814E+00 a       707     1     2     2     7
 -1.0242383253281984E+01 a       708     1     2     2     8
 -2.5267189578720700E-01 a       709     1     2     2     9
 -5.6732440328685122E+01 a       710     1     2     2    10
  3.8209821037721561E+01 a       711     1     3     2     1
  2.4685914203005705E+01 a       712     1     3     2     2
 -1.4337562299101970E+01 a       713     1     3     2     3
  4.0480590449090514E+01 a       714     1     3     2     4
 -8.6184032550547585E+00 a       715     1     3     2     5
 -2.0749465430271825E+00 a       716     1     3     2     6
  1.8786058987064322E+01 a       717     1     3     2     7
 -1.3826976902613735E+00 a       718     1     3     2     8
  4.1155619996790156E+00 a       719     1     3     2     9
  2.6031610329175834E+01 a       720     1     3     2    10
 -2.2415494348125378E+01 a       721     1     4     2     1
 -1.0786439211067361E+01 a       722     1     4     2     2
  1.0725858317212236E+01 a       723     1     4     2     3
 -1.4300738502658346E+01 a       724     1     4     2     4
 -3.0262164041105272E+01 a       725     1     4     2     5
  3.5472069811224949E+00 a       726     1     4     2     6
 -9.7349378629960430E+00 a       727     1     4     2     7
  3.8024799387768122E+00 a       728     1     4     2     8
 -1.8986879721227954E+01 a       729     1     4     2     9
  2.0109355765960217E+01 a       730     1     4     2    10
  5.2093999711396378E+01 a       731     1     5     2     1
  6.7189947344087628E+01 a       732     1     5     2     2
 -2.9492546393456692E-01 a       733     1     5     2     3
  2.0504637110452784E+01 a       734     1     5     2     4
 -1.1601969192673241E+01 a       735     1     5     2     5
 -8.3819478648806154E+00 a       736     1     5     2     6
 -1.4927146634820145E+01 a       737     1     5     2     7
  5.8376147086353491E-01 a       738     1     5     2     8
  6.3052706715726480E+01 a       739     1     5     2     9
  2.0322558421397975E+01 a       740     1     5     2    10
 -2.3323219004617432E+01 a       741     1     6     2     1
 -7.6839249116079698E+00 a       742     1     6     2     2
 -3.4192509445576826E+00 a       743     1     6     2     3
  1.1393794848773346E+01 a       744     1     6     2     4
 -2.4984896047187405E+01 a       745     1     6     2     5
 -3.4137999892055735E+00 a       746     1     6     2     6
 -4.0438688920760598E+01 a       747     1     6     2     7
  2.5200643466084194E+00 a       748     1     6     2     8
  6.9766248728847211E+00 a       749     1     6     2     9
 -2.2860352432655144E+01 a       750     1     6     2    10
 -1.9550368417768222E+01 a       751     1     7     2     1
  9.4135458930318574E+00 a       752     1     7     2     2
 -9.2965439780930073E+00 a       753     1     7     2     3
  3.0331217564481844E-01 a       754     1     7     2     4
 -1.2092845376955454E+01 a       755     1     7     2     5
 -1.0335125867222214E+01 a       756     1     7     2     6
  8.5214641686881407E+00 a       757     1     7     2     7
  2.7428328438026039E+01 a       758     1     7     2     8
 -4.5095752019257226E+01 a       759     1     7     2     9
  1.9935265577921889E+01 a       760     1     7     2    10
 -8.6496755919081956E+00 a       761     1     8     2     1
  6.4184261213616844E+00 a       762     1     8     2     2
  1.5717001481462022E+01 a       763     1     8     2     3
 -2.7596154688184007E+00 a       764     1     8     2     4
  4.1434416977710633E+01 a       765     1     8     2     5
  5.5594523437718237E+00 a       766     1     8     2     6
  7.8312454045618898E+00 a       767     1     8     2     7
  3.3576751215691687E+01 a       768     1     8     2     8
 -4.4811835120804226E+01 a       769     1     8     2     9
  9.2472436611250242E+00 a       770     1     8     2    10
 -8.6841319315781380E+00 a       771     1     9     2     1
 -4.0335868901640506E+00 a       772     1     9     2     2
 -5.8913600245696465E+00 a       773     1     9     2     3
  6.2556798993584913E+01 a       774     1     9     2     4
  3.2584984138889732E+00 a       775     1     9     2     5
 -6.2093983748700072E+00 a       776     1     9     2     6
  1.5523996700780595E+01 a       777     1     9     2     7
 -2.9563092847652137E+00 a       778     1     9     2     8
  2.2010506306824688E+01 a       779     1     9     2     9
 -1.8126005852549543E+01 a       780     1     9     2    10
  2.1804240837752160E+00 a       781     1    10     2     1
  7.8743665425867713E+00 a       782     1    10     2     2
  2.4816673490186385E+01 a       783     1    10     2     3
 -2.1811742549794399E+01 a       784     1    10     2     4
  1.0874158125188462E+01 a       785     1    10     2     5
  7.2503258393279051E+00 a       786     1    10     2     6
  7.2358764730640486E+00 a       787     1    10     2     7
  9.8445089117626985E+00 a       788     1    10     2     8
 -3.3458409798964648E+00 a       789     1    10     2     9
 -1.5522297514253271E+01 a       790     1    10     2    10
 -1.5518052332078028E+01 b       791     2     1
 -7.4805658088395601E+00 b       792     2     2
 -2.0439270891984513E+01 b       793     2     3
  3.4022023735503457E+00 b       794     2     4
  1.3973301845224833E+01 b       795     2     5
  3.5363395852046452E+01 b       796     2     6
 -4.3275617797276489E+00 b       797     2     7
 -3.5051432716780201E-01 b       798     2     8
  2.0481825287314692E+01 b       799     2     9
  2.2247632581253718E+01 b       800     2    10
  6.7860469879678845E+01 a       801     2     1     3     1
  1.6553086220615864E+01 a       802     2     2     3     1
 -5.7166840490823240E+01 a       803     2     3     3     1
  2.6559566720238760E+01 a       804     2     4     3     1
 -1.7484108998777586E+01 a       805     2     5     3     1
  1.9428193689643901E+01 a       806     2     6     3     1
 -3.1558765718410740E+01 a       807     2     7     3     1
 -6.0447560182644047E+00 a       808     2     8     3     1
 -2.1598500510645323E+01 a       809     2     9     3     1
  7.8767461826891756E+00 a       810     2    10     3     1
  2.0538997561860189E+01 b       811     3     1
