################################################################################
# Neural network connection values (weights and biases).
################################################################################
# Col  Name       Description
################################################################################
# 1    connection Neural network connection value.
# 2    t          Connection type (a = weight, b = bias).
# 3    index      Index enumerating weights.
# 4    l_s        Starting point layer (end point layer for biases).
# 5    n_s        Starting point neuron in starting layer (end point neuron for biases).
# 6    l_e        End point layer.
# 7    n_e        End point neuron in end layer.
################################################################################
#                      1 2         3     4     5     6     7
#             connection t     index   l_s   n_s   l_e   n_e
############################################################
 -1.7507601696305003E-01 a         1     0     1     1     1
 -1.8241167118471523E-02 a         2     0     1     1     2
 -4.0294840704682822E-01 a         3     0     1     1     3
 -3.6244121735929780E-01 a         4     0     1     1     4
  6.8282949751978780E-02 a         5     0     1     1     5
  7.4233372498163086E-02 a         6     0     1     1     6
 -2.5220165482433160E-01 a         7     0     1     1     7
 -2.6147591010305282E-01 a         8     0     1     1     8
  3.1707961246041477E-01 a         9     0     1     1     9
  2.6995694281065846E-01 a        10     0     1     1    10
  3.2189796119623948E-01 a        11     0     1     1    11
 -2.8118414777004369E-01 a        12     0     1     1    12
  4.3937572726702334E-01 a        13     0     1     1    13
  4.5185309320904178E-02 a        14     0     1     1    14
  6.5633091164368926E-02 a        15     0     1     1    15
 -1.5357061089105417E-01 a        16     0     2     1     1
  2.0401919362993495E-01 a        17     0     2     1     2
  4.0388107370815973E-01 a        18     0     2     1     3
 -3.7856084369604615E-01 a        19     0     2     1     4
 -4.1916634597281088E-01 a        20     0     2     1     5
  8.3899865542906960E-02 a        21     0     2     1     6
 -4.0020613459589371E-01 a        22     0     2     1     7
  5.3166775390983800E-01 a        23     0     2     1     8
 -1.9222445938243671E-01 a        24     0     2     1     9
  9.5013567167589769E-02 a        25     0     2     1    10
  5.1872661913896195E-02 a        26     0     2     1    11
 -2.9038204629978914E-03 a        27     0     2     1    12
 -3.4554218827339234E-01 a        28     0     2     1    13
  2.3827944844931123E-01 a        29     0     2     1    14
 -3.1326485033045681E-01 a        30     0     2     1    15
  3.6728910360744995E-03 a        31     0     3     1     1
 -1.5636418293262699E-01 a        32     0     3     1     2
 -3.8934883046102309E-01 a        33     0     3     1     3
  5.5992266200187957E-01 a        34     0     3     1     4
 -1.9460848090863728E-01 a        35     0     3     1     5
 -1.5705034766921630E-01 a        36     0     3     1     6
  1.2531483639108781E-01 a        37     0     3     1     7
  5.1072993817812905E-02 a        38     0     3     1     8
 -1.3402205423021878E-02 a        39     0     3     1     9
  4.3194782183909031E-01 a        40     0     3     1    10
 -4.1284086285021043E-01 a        41     0     3     1    11
 -3.6310322195807115E-01 a        42     0     3     1    12
  1.4642925174606780E-01 a        43     0     3     1    13
  1.9091654307173245E-01 a        44     0     3     1    14
 -2.5390398531928572E-02 a        45     0     3     1    15
 -2.3541917695633968E-01 a        46     0     4     1     1
 -4.6814019571337723E-01 a        47     0     4     1     2
 -7.4487159704389433E-02 a        48     0     4     1     3
 -1.7792870108539161E-01 a        49     0     4     1     4
 -2.5035498058630562E-01 a        50     0     4     1     5
  3.1225998567653518E-01 a        51     0     4     1     6
 -5.0879450245549840E-01 a        52     0     4     1     7
 -1.7935553189654039E-02 a        53     0     4     1     8
 -4.2853560785349087E-01 a        54     0     4     1     9
 -3.6944582998243464E-02 a        55     0     4     1    10
  2.8804887012966796E-01 a        56     0     4     1    11
 -3.5230010751778601E-01 a        57     0     4     1    12
  7.1159706505288842E-02 a        58     0     4     1    13
 -2.4853319600377516E-01 a        59     0     4     1    14
  3.0275988427232048E-01 a        60     0     4     1    15
  4.4017889740805294E-01 a        61     0     5     1     1
  1.6820947853097726E-01 a        62     0     5     1     2
 -3.2147459449717436E-01 a        63     0     5     1     3
 -3.4648190851933103E-01 a        64     0     5     1     4
  3.4263155214885688E-01 a        65     0     5     1     5
  7.8173356979877623E-02 a        66     0     5     1     6
 -3.6878713097895155E-01 a        67     0     5     1     7
  2.9675593714201620E-01 a        68     0     5     1     8
 -1.5522555367212258E-02 a        69     0     5     1     9
 -4.8710590275109594E-01 a        70     0     5     1    10
 -1.2418048709975299E-01 a        71     0     5     1    11
 -1.2584402494822239E-01 a        72     0     5     1    12
 -3.8258290331620198E-01 a        73     0     5     1    13
  1.8698784058357423E-01 a        74     0     5     1    14
  2.6955379856528966E-01 a        75     0     5     1    15
  4.5255918827070224E-01 a        76     0     6     1     1
 -2.4539646579451296E-01 a        77     0     6     1     2
 -2.7571261877437886E-01 a        78     0     6     1     3
  1.7734385623694129E-01 a        79     0     6     1     4
  4.6556029626011303E-01 a        80     0     6     1     5
 -8.7583472539220483E-02 a        81     0     6     1     6
 -1.9386905060215748E-01 a        82     0     6     1     7
 -3.6928644755449930E-01 a        83     0     6     1     8
 -3.7749249990028638E-01 a        84     0     6     1     9
  1.6738252526027755E-01 a        85     0     6     1    10
 -3.3055393730531257E-01 a        86     0     6     1    11
  6.1728225929424807E-01 a        87     0     6     1    12
  4.0933977767469415E-01 a        88     0     6     1    13
  2.5863602479587988E-01 a        89     0     6     1    14
 -2.3599979838611038E-01 a        90     0     6     1    15
  6.9284416305074578E-02 a        91     0     7     1     1
  3.9994598657282154E-01 a        92     0     7     1     2
 -5.4948923110797583E-02 a        93     0     7     1     3
  1.2005426293753443E-01 a        94     0     7     1     4
 -7.1859361600231236E-02 a        95     0     7     1     5
  2.5429738471591617E-01 a        96     0     7     1     6
 -1.1819157797165429E-01 a        97     0     7     1     7
 -1.4796785490406128E-01 a        98     0     7     1     8
  4.4776005674810915E-01 a        99     0     7     1     9
 -1.4911282023594863E-01 a       100     0     7     1    10
 -1.2115462811314417E-01 a       101     0     7     1    11
 -1.4130842424916970E-01 a       102     0     7     1    12
  1.9423972581198659E-01 a       103     0     7     1    13
  2.2854236958860009E-02 a       104     0     7     1    14
 -7.3518404381727243E-02 a       105     0     7     1    15
 -2.9285329448288870E-02 a       106     0     8     1     1
 -1.6158790620795505E-01 a       107     0     8     1     2
 -1.5553519129228725E-02 a       108     0     8     1     3
 -9.3324125899674121E-02 a       109     0     8     1     4
 -1.1590264049755986E-01 a       110     0     8     1     5
 -9.0459013457609164E-02 a       111     0     8     1     6
  2.3570052024795937E-01 a       112     0     8     1     7
  6.0046784888118702E-02 a       113     0     8     1     8
 -1.2123832832026754E-01 a       114     0     8     1     9
  2.6713547069297949E-01 a       115     0     8     1    10
  1.6353980100873217E-01 a       116     0     8     1    11
 -6.3569878342712896E-02 a       117     0     8     1    12
  2.1492640049474539E-02 a       118     0     8     1    13
 -2.7903823978076969E-01 a       119     0     8     1    14
 -7.6568084478940640E-03 a       120     0     8     1    15
  6.5958140756825168E-01 b       121     1     1
 -6.7334940204016103E-01 b       122     1     2
  1.4155466152215290E-01 b       123     1     3
  1.4214421555852905E+00 b       124     1     4
  7.0451231724327035E-01 b       125     1     5
  2.2543061640392645E+00 b       126     1     6
 -2.0552623030862599E-01 b       127     1     7
 -4.8922596825053893E-01 b       128     1     8
  1.7578906829852470E+00 b       129     1     9
 -9.4162069079295044E-02 b       130     1    10
 -1.6483625645560089E+00 b       131     1    11
  2.2598706167161264E+00 b       132     1    12
  4.2773913221711840E-01 b       133     1    13
 -1.8079292896376995E+00 b       134     1    14
 -1.3356656286825652E+00 b       135     1    15
  3.3907067228064369E-01 a       136     1     1     2     1
 -3.9953429669366558E-01 a       137     1     1     2     2
 -1.5249060802126135E-01 a       138     1     1     2     3
 -1.6293269163848667E-01 a       139     1     1     2     4
 -5.6185898586018723E-01 a       140     1     1     2     5
 -2.5907456246273754E-02 a       141     1     1     2     6
 -2.0182754668736570E-02 a       142     1     1     2     7
 -2.9977171478893971E-01 a       143     1     1     2     8
 -2.0701779681618995E-01 a       144     1     1     2     9
 -4.1847389466929091E-01 a       145     1     1     2    10
  1.6537270084615083E-01 a       146     1     1     2    11
  2.7084842042596502E-01 a       147     1     1     2    12
  1.3912017393464060E-01 a       148     1     1     2    13
  1.9613859319062465E-01 a       149     1     1     2    14
  7.7664575819263015E-03 a       150     1     1     2    15
 -8.1875629031068653E-02 a       151     1     2     2     1
 -3.2768179269743442E-01 a       152     1     2     2     2
 -6.4140832679212822E-01 a       153     1     2     2     3
  2.7536992340362060E-01 a       154     1     2     2     4
  5.3787306780575106E-01 a       155     1     2     2     5
 -8.4946833153364515E-02 a       156     1     2     2     6
  1.7088517919773304E-02 a       157     1     2     2     7
 -5.3318806442422539E-01 a       158     1     2     2     8
  3.0015877703342858E-01 a       159     1     2     2     9
 -1.2919471850750464E-01 a       160     1     2     2    10
  3.9205269464875758E-01 a       161     1     2     2    11
 -3.6679665658488025E-01 a       162     1     2     2    12
 -3.6992573141029145E-01 a       163     1     2     2    13
  3.8577154175775913E-01 a       164     1     2     2    14
  2.9338546650849362E-01 a       165     1     2     2    15
  3.6678765651079703E-01 a       166     1     3     2     1
  3.2737746032963713E-03 a       167     1     3     2     2
  8.7568888599825354E-02 a       168     1     3     2     3
 -1.4959649665103994E-01 a       169     1     3     2     4
 -2.6901244494542303E-01 a       170     1     3     2     5
 -1.6364234352767620E-01 a       171     1     3     2     6
  1.4777602367691650E-01 a       172     1     3     2     7
 -1.6843576648736439E-01 a       173     1     3     2     8
 -3.9571751989759057E-01 a       174     1     3     2     9
  7.8019671921465722E-02 a       175     1     3     2    10
  2.7729730474263387E-01 a       176     1     3     2    11
 -8.3260313168523649E-03 a       177     1     3     2    12
  8.8267752419096526E-02 a       178     1     3     2    13
  6.3699324808785762E-02 a       179     1     3     2    14
 -1.2178434791446759E-01 a       180     1     3     2    15
  3.2009950861741948E-01 a       181     1     4     2     1
  2.9068739146051586E-01 a       182     1     4     2     2
 -1.2135001422631188E-02 a       183     1     4     2     3
  6.0953333678080729E-02 a       184     1     4     2     4
 -2.8422510392269973E-01 a       185     1     4     2     5
  3.2756133809631188E-01 a       186     1     4     2     6
  1.4950363709826098E-01 a       187     1     4     2     7
  1.3091060139748537E-01 a       188     1     4     2     8
  2.6518889175826221E-01 a       189     1     4     2     9
  1.9712979211941853E-01 a       190     1     4     2    10
 -4.5114273055458781E-01 a       191     1     4     2    11
  3.0795275137565487E-01 a       192     1     4     2    12
 -2.6149968608634954E-02 a       193     1     4     2    13
  3.3282493797179014E-01 a       194     1     4     2    14
  1.6162009180356640E-01 a       195     1     4     2    15
 -3.2457342170888887E-02 a       196     1     5     2     1
 -3.9958214507490747E-01 a       197     1     5     2     2
 -1.6937577460826814E-01 a       198     1     5     2     3
 -2.2291246246460991E-01 a       199     1     5     2     4
 -7.9906255832132000E-01 a       200     1     5     2     5
  5.6616767961970604E-01 a       201     1     5     2     6
 -7.7729528020997496E-01 a       202     1     5     2     7
 -2.5083469103386946E-01 a       203     1     5     2     8
  3.6167326280513007E-01 a       204     1     5     2     9
 -3.1114641019867988E-02 a       205     1     5     2    10
 -2.2328501373965892E-01 a       206     1     5     2    11
  2.3173015979976025E-01 a       207     1     5     2    12
 -5.0961944782149238E-01 a       208     1     5     2    13
 -5.8204788872876689E-01 a       209     1     5     2    14
  6.5408272608051446E-02 a       210     1     5     2    15
  8.0080524102276895E-02 a       211     1     6     2     1
 -1.7812178783287788E-01 a       212     1     6     2     2
  2.2288080064809121E-01 a       213     1     6     2     3
 -2.9031116596111173E-01 a       214     1     6     2     4
 -4.1490030203021151E-03 a       215     1     6     2     5
 -2.2800872048682691E-01 a       216     1     6     2     6
  1.8132101674946163E-01 a       217     1     6     2     7
 -2.3134559850176670E-01 a       218     1     6     2     8
  2.9939878358161703E-01 a       219     1     6     2     9
 -3.4472765830775243E-01 a       220     1     6     2    10
  2.9086404664967813E-01 a       221     1     6     2    11
  2.5926051340036688E-02 a       222     1     6     2    12
  3.2569651042498654E-01 a       223     1     6     2    13
  5.6446255713552315E-02 a       224     1     6     2    14
  2.7001002605393803E-01 a       225     1     6     2    15
  1.3099014419788996E-01 a       226     1     7     2     1
  3.0759785103408804E-01 a       227     1     7     2     2
 -2.7176054241847780E-01 a       228     1     7     2     3
 -2.1934463588073000E-01 a       229     1     7     2     4
  1.1484832171457711E-02 a       230     1     7     2     5
  1.5824793593606867E-01 a       231     1     7     2     6
 -2.2258784537850163E-01 a       232     1     7     2     7
  3.5348679650343734E-01 a       233     1     7     2     8
  1.8194707280310152E-01 a       234     1     7     2     9
  1.7881198987873567E-01 a       235     1     7     2    10
 -1.7160932290610606E-01 a       236     1     7     2    11
 -1.3101248953510630E-01 a       237     1     7     2    12
  6.3781555153878344E-02 a       238     1     7     2    13
 -1.5559655152468954E-03 a       239     1     7     2    14
 -1.6502595068515061E-01 a       240     1     7     2    15
 -1.3295054140642351E-01 a       241     1     8     2     1
  5.0432979282219359E-01 a       242     1     8     2     2
  2.7070418689597692E-01 a       243     1     8     2     3
 -2.9273710933289843E-01 a       244     1     8     2     4
 -1.4043426924578942E-01 a       245     1     8     2     5
 -3.0505657401859226E-01 a       246     1     8     2     6
  3.8494485092763486E-01 a       247     1     8     2     7
  2.3625266390506725E-01 a       248     1     8     2     8
  3.2349828113376877E-01 a       249     1     8     2     9
 -4.4771047846690788E-02 a       250     1     8     2    10
 -1.6501514661598607E-01 a       251     1     8     2    11
 -4.9714270302318742E-01 a       252     1     8     2    12
 -4.2317210943695954E-01 a       253     1     8     2    13
  7.7246097595697186E-02 a       254     1     8     2    14
  1.2229408464374765E-01 a       255     1     8     2    15
  1.7180456723835699E-01 a       256     1     9     2     1
 -1.6022405029175263E-01 a       257     1     9     2     2
  6.5205109083576782E-02 a       258     1     9     2     3
 -2.1950744471317138E-01 a       259     1     9     2     4
  4.6662800939875326E-01 a       260     1     9     2     5
 -7.1025435344129820E-02 a       261     1     9     2     6
 -5.2133952615971391E-01 a       262     1     9     2     7
 -2.4060591107629720E-01 a       263     1     9     2     8
  3.8591700309715726E-01 a       264     1     9     2     9
 -4.2687451463054837E-01 a       265     1     9     2    10
 -1.1493006684729427E-01 a       266     1     9     2    11
 -1.3950500656899475E-01 a       267     1     9     2    12
 -6.5636271478165836E-02 a       268     1     9     2    13
 -1.2906393932090826E-01 a       269     1     9     2    14
  1.5629386772698939E-01 a       270     1     9     2    15
 -3.9926749679581028E-02 a       271     1    10     2     1
 -2.6890011254167245E-01 a       272     1    10     2     2
 -1.4853071035273568E-01 a       273     1    10     2     3
 -1.5740686557015091E-01 a       274     1    10     2     4
 -5.1156549893898684E-01 a       275     1    10     2     5
 -1.7151398044562971E-01 a       276     1    10     2     6
 -1.5524497595935946E-01 a       277     1    10     2     7
 -2.7023357457958902E-01 a       278     1    10     2     8
  4.0074332891302328E-01 a       279     1    10     2     9
  3.1234490540531462E-01 a       280     1    10     2    10
  3.0946998511763768E-01 a       281     1    10     2    11
 -1.1960873771658956E-01 a       282     1    10     2    12
 -3.4822625979807093E-01 a       283     1    10     2    13
  9.0261958908348233E-03 a       284     1    10     2    14
  3.5667005296061011E-01 a       285     1    10     2    15
  2.8149343839523100E-01 a       286     1    11     2     1
  1.0901329186045920E-01 a       287     1    11     2     2
 -1.8287659056227745E-01 a       288     1    11     2     3
 -3.8775086373249673E-01 a       289     1    11     2     4
 -2.4604449429491676E-01 a       290     1    11     2     5
 -3.3462520691258402E-01 a       291     1    11     2     6
  7.0619111243134303E-02 a       292     1    11     2     7
  8.5757188916555968E-02 a       293     1    11     2     8
 -1.3850568609469163E-01 a       294     1    11     2     9
  2.0083663595240731E-01 a       295     1    11     2    10
  5.1535971466160702E-01 a       296     1    11     2    11
 -2.0415844485790782E-01 a       297     1    11     2    12
 -3.4788310445901421E-01 a       298     1    11     2    13
  2.2561537130956985E-01 a       299     1    11     2    14
 -2.2859211262552631E-01 a       300     1    11     2    15
 -3.3077181120736973E-02 a       301     1    12     2     1
 -1.7291069940175430E-01 a       302     1    12     2     2
  4.8281475702938065E-01 a       303     1    12     2     3
 -3.3080928887267380E-01 a       304     1    12     2     4
  3.1053205198419753E-01 a       305     1    12     2     5
  5.2258614131599357E-01 a       306     1    12     2     6
 -3.4882381642314372E-02 a       307     1    12     2     7
  1.9731013538824529E-01 a       308     1    12     2     8
  3.7459547430333784E-01 a       309     1    12     2     9
  4.2402399749505787E-01 a       310     1    12     2    10
 -5.8125296533980929E-02 a       311     1    12     2    11
  9.4048574014074640E-02 a       312     1    12     2    12
  4.6274195284349717E-01 a       313     1    12     2    13
 -8.4124903014753852E-02 a       314     1    12     2    14
  1.8838558186740656E-01 a       315     1    12     2    15
  4.7865341079119772E-01 a       316     1    13     2     1
  6.2046000408768530E-02 a       317     1    13     2     2
 -3.8086659606153117E-01 a       318     1    13     2     3
 -3.7625456944337116E-01 a       319     1    13     2     4
  3.0366604497931837E-02 a       320     1    13     2     5
  1.5331852282042649E-01 a       321     1    13     2     6
  5.6116272776746495E-02 a       322     1    13     2     7
  4.9777420597303113E-01 a       323     1    13     2     8
 -2.1219957632777098E-01 a       324     1    13     2     9
  2.6375446769648869E-01 a       325     1    13     2    10
  5.6483743289610306E-03 a       326     1    13     2    11
  3.0862419207202729E-02 a       327     1    13     2    12
  1.2391546515588781E-01 a       328     1    13     2    13
  6.4960565491847658E-02 a       329     1    13     2    14
  3.2328279294056173E-01 a       330     1    13     2    15
 -3.7835990660148094E-01 a       331     1    14     2     1
 -1.2252565650535714E-02 a       332     1    14     2     2
 -3.7914298841069732E-01 a       333     1    14     2     3
  5.3414729393958515E-01 a       334     1    14     2     4
 -1.9649641867398236E-02 a       335     1    14     2     5
 -6.3392228215787150E-01 a       336     1    14     2     6
  9.2552661305085027E-01 a       337     1    14     2     7
 -6.2627861527462636E-01 a       338     1    14     2     8
 -4.7666561305170115E-02 a       339     1    14     2     9
  4.5412721840911968E-01 a       340     1    14     2    10
  3.9229070065052059E-03 a       341     1    14     2    11
  1.4201938782858306E-01 a       342     1    14     2    12
  3.0648411534604925E-01 a       343     1    14     2    13
  4.4071397184254413E-01 a       344     1    14     2    14
 -5.7975933033676719E-01 a       345     1    14     2    15
 -9.8569446971606009E-02 a       346     1    15     2     1
  4.5511291634811885E-01 a       347     1    15     2     2
 -2.3634951697719428E-01 a       348     1    15     2     3
  3.0576332321308969E-01 a       349     1    15     2     4
  1.8097890898298105E-01 a       350     1    15     2     5
  5.9894018478790674E-02 a       351     1    15     2     6
  9.7191376221592046E-02 a       352     1    15     2     7
 -4.6426672343997422E-01 a       353     1    15     2     8
 -1.4157849965476230E-01 a       354     1    15     2     9
  4.4186200742125825E-01 a       355     1    15     2    10
  4.4138812547465578E-01 a       356     1    15     2    11
  1.7118339498519011E-01 a       357     1    15     2    12
 -4.7553079981888464E-02 a       358     1    15     2    13
  1.0373629988509267E-01 a       359     1    15     2    14
 -9.5738673757967102E-02 a       360     1    15     2    15
  1.6248071850653061E+00 b       361     2     1
 -2.5540736811605105E+00 b       362     2     2
  1.4359470527191254E-01 b       363     2     3
 -9.9480951377181759E-01 b       364     2     4
 -2.3062348560230665E+00 b       365     2     5
  5.7879951477786337E-02 b       366     2     6
 -2.1764761124791114E+00 b       367     2     7
  1.8075086547755839E+00 b       368     2     8
  5.3391255510958180E-01 b       369     2     9
 -7.9741720114871251E-01 b       370     2    10
 -2.6479320844802440E-01 b       371     2    11
  1.8671564887043910E+00 b       372     2    12
  7.0625773810031978E-01 b       373     2    13
 -1.7430923001392939E+00 b       374     2    14
  2.4422418639466406E+00 b       375     2    15
 -1.8824276787921761E+00 a       376     2     1     3     1
  2.1931313451600865E+00 a       377     2     2     3     1
 -1.1872766286417502E+00 a       378     2     3     3     1
  1.7524930558574330E+00 a       379     2     4     3     1
  2.4222618626577046E+00 a       380     2     5     3     1
 -1.2153057213691405E+00 a       381     2     6     3     1
  2.0764188763240021E+00 a       382     2     7     3     1
 -1.9071180501301219E+00 a       383     2     8     3     1
 -1.1509111925240112E+00 a       384     2     9     3     1
  1.5519535217367535E+00 a       385     2    10     3     1
  1.1216275886780485E+00 a       386     2    11     3     1
 -1.8589426487357865E+00 a       387     2    12     3     1
 -1.1762112969738452E+00 a       388     2    13     3     1
  1.9822390514218520E+00 a       389     2    14     3     1
 -2.0410721459983843E+00 a       390     2    15     3     1
 -3.8950705197042215E+00 b       391     3     1
