################################################################################
# Neural network connection values (weights and biases).
################################################################################
# Col  Name       Description
################################################################################
# 1    connection Neural network connection value.
# 2    t          Connection type (a = weight, b = bias).
# 3    index      Index enumerating weights.
# 4    l_s        Starting point layer (end point layer for biases).
# 5    n_s        Starting point neuron in starting layer (end point neuron for biases).
# 6    l_e        End point layer.
# 7    n_e        End point neuron in end layer.
################################################################################
#                      1 2         3     4     5     6     7
#             connection t     index   l_s   n_s   l_e   n_e
############################################################
 -3.9287228873108959E-01 a         1     0     1     1     1
  2.0969328688755012E-01 a         2     0     1     1     2
  4.7481254569815647E-02 a         3     0     1     1     3
  5.3827088787970256E-01 a         4     0     1     1     4
 -3.4208097834892975E-01 a         5     0     1     1     5
 -3.4252284239442388E-01 a         6     0     1     1     6
  1.6327926745086851E-01 a         7     0     1     1     7
 -2.6676837492752059E-01 a         8     0     1     1     8
  1.3705960952245275E-01 a         9     0     1     1     9
  1.7025977410109588E-01 a        10     0     1     1    10
  4.0066220679195785E-01 a        11     0     1     1    11
 -4.3534018956244852E-01 a        12     0     1     1    12
  2.9993614105692262E-01 a        13     0     1     1    13
  1.7345115313402287E-01 a        14     0     1     1    14
 -1.0608765584373303E-01 a        15     0     1     1    15
  2.6808510649036756E-02 a        16     0     2     1     1
  2.8400383001940029E-02 a        17     0     2     1     2
  6.6308006405330869E-02 a        18     0     2     1     3
 -2.4494095356938453E-01 a        19     0     2     1     4
 -4.1066365177371322E-01 a        20     0     2     1     5
  2.8069655601028554E-01 a        21     0     2     1     6
 -1.2045441403371579E-01 a        22     0     2     1     7
 -2.0761306904699958E-01 a        23     0     2     1     8
  3.0087316785620255E-01 a        24     0     2     1     9
 -1.5212676565914474E-01 a        25     0     2     1    10
 -5.0573212144587132E-01 a        26     0     2     1    11
  1.6062553376794339E-01 a        27     0     2     1    12
  2.2898390867192234E-01 a        28     0     2     1    13
  3.5595390686156630E-01 a        29     0     2     1    14
 -3.0302284098189108E-01 a        30     0     2     1    15
 -4.4186390582707506E-02 a        31     0     3     1     1
 -1.5507025706159369E-01 a        32     0     3     1     2
  2.7180907137249605E-01 a        33     0     3     1     3
 -7.3972202533765477E-02 a        34     0     3     1     4
  2.2455640648886391E-01 a        35     0     3     1     5
 -1.4419690552332273E-01 a        36     0     3     1     6
  9.1658182904739177E-02 a        37     0     3     1     7
  1.5352783114481175E-01 a        38     0     3     1     8
  7.8189923253944416E-02 a        39     0     3     1     9
 -4.7211163606311168E-01 a        40     0     3     1    10
 -3.9950409841354079E-01 a        41     0     3     1    11
  2.5458077848691296E-01 a        42     0     3     1    12
 -3.8121099469251762E-01 a        43     0     3     1    13
  1.5298098529754800E-01 a        44     0     3     1    14
 -1.8799784562649782E-01 a        45     0     3     1    15
  1.8469214217090002E-01 a        46     0     4     1     1
  3.5224198022306280E-01 a        47     0     4     1     2
 -3.9542813899981566E-01 a        48     0     4     1     3
 -2.0324975253193603E-01 a        49     0     4     1     4
 -3.5704575261292981E-01 a        50     0     4     1     5
 -2.3729467535278487E-01 a        51     0     4     1     6
 -3.4973471810309568E-02 a        52     0     4     1     7
 -1.5457106126484851E-01 a        53     0     4     1     8
  9.1894183506889243E-02 a        54     0     4     1     9
 -4.1036793158094792E-01 a        55     0     4     1    10
  4.4052520746809842E-01 a        56     0     4     1    11
 -2.2185993162505452E-01 a        57     0     4     1    12
 -5.0677805397558399E-03 a        58     0     4     1    13
  4.6231903758518045E-01 a        59     0     4     1    14
  5.6180306625747234E-01 a        60     0     4     1    15
  4.6880841762698848E-02 a        61     0     5     1     1
 -1.0352535951315128E-01 a        62     0     5     1     2
 -2.0434411465584479E-01 a        63     0     5     1     3
  2.1483222965640120E-01 a        64     0     5     1     4
 -1.3111647975582272E-01 a        65     0     5     1     5
 -6.8137639939775660E-02 a        66     0     5     1     6
  6.7067389293557655E-02 a        67     0     5     1     7
 -2.5653704312670128E-01 a        68     0     5     1     8
  4.5069536787152281E-01 a        69     0     5     1     9
 -1.5996953498644051E-02 a        70     0     5     1    10
  2.7279911812277380E-01 a        71     0     5     1    11
  3.6083003390336205E-01 a        72     0     5     1    12
  2.6850084013525072E-01 a        73     0     5     1    13
  4.0514433225662738E-01 a        74     0     5     1    14
 -2.0785380103589407E-02 a        75     0     5     1    15
  7.6854943437527426E-02 a        76     0     6     1     1
  2.9157911819383520E-01 a        77     0     6     1     2
 -3.3265687826793228E-01 a        78     0     6     1     3
 -1.0149114939794625E-01 a        79     0     6     1     4
 -6.4678746969889678E-02 a        80     0     6     1     5
  2.8943390578010725E-01 a        81     0     6     1     6
  3.6731615357619013E-01 a        82     0     6     1     7
 -4.8243757676820642E-01 a        83     0     6     1     8
 -5.2431745802562946E-01 a        84     0     6     1     9
  2.0447917181305600E-01 a        85     0     6     1    10
  3.9220140951370226E-02 a        86     0     6     1    11
 -2.8526461208333487E-01 a        87     0     6     1    12
  2.8623003326681890E-01 a        88     0     6     1    13
  2.2454918603424329E-01 a        89     0     6     1    14
  4.3873612386228950E-01 a        90     0     6     1    15
 -1.9411828528629729E-02 a        91     0     7     1     1
  1.4332817174877094E-01 a        92     0     7     1     2
  3.2679585145620460E-01 a        93     0     7     1     3
 -2.7895074472555809E-01 a        94     0     7     1     4
  5.7924337672978554E-01 a        95     0     7     1     5
  3.5795219995834121E-01 a        96     0     7     1     6
  3.5679490908326350E-01 a        97     0     7     1     7
 -3.9814935046199740E-01 a        98     0     7     1     8
 -2.8426099371437635E-01 a        99     0     7     1     9
  3.5092440949299236E-01 a       100     0     7     1    10
 -1.3519383833589024E-01 a       101     0     7     1    11
  3.9144265615905993E-01 a       102     0     7     1    12
 -4.2900322444020039E-01 a       103     0     7     1    13
  1.5136895427473412E-01 a       104     0     7     1    14
 -3.7705229799426881E-01 a       105     0     7     1    15
 -6.6169828442138756E-02 a       106     0     8     1     1
  3.7896919817282460E-01 a       107     0     8     1     2
 -4.7152228209771427E-02 a       108     0     8     1     3
 -3.1042989753382190E-02 a       109     0     8     1     4
  2.6223991155144355E-01 a       110     0     8     1     5
 -2.7261344064234344E-01 a       111     0     8     1     6
  2.2491255368594149E-01 a       112     0     8     1     7
 -1.1759383959282778E-01 a       113     0     8     1     8
 -1.3236822298132153E-01 a       114     0     8     1     9
  1.7947722201517785E-01 a       115     0     8     1    10
  2.7770597925335272E-01 a       116     0     8     1    11
 -7.3385246720264717E-03 a       117     0     8     1    12
 -3.7291359127183138E-01 a       118     0     8     1    13
  5.6178226482884557E-02 a       119     0     8     1    14
  6.2044042498330704E-02 a       120     0     8     1    15
 -5.8658242120661297E-01 b       121     1     1
 -2.6419953046425143E-01 b       122     1     2
 -1.9736631312225777E-01 b       123     1     3
  6.8022195293174514E-01 b       124     1     4
 -1.9828254313151734E+00 b       125     1     5
  1.3605054751342442E+00 b       126     1     6
  9.4776956276083335E-01 b       127     1     7
  9.1140988113832269E-02 b       128     1     8
 -1.0212194128701204E+00 b       129     1     9
  1.1658382534642986E+00 b       130     1    10
 -2.6015933770238975E-01 b       131     1    11
  1.1285107127061011E+00 b       132     1    12
  7.7766234754944685E-01 b       133     1    13
  1.5195464116605578E-01 b       134     1    14
  1.8239728923104717E-01 b       135     1    15
  2.7454035892027828E-01 a       136     1     1     2     1
  2.8747272573506039E-01 a       137     1     1     2     2
 -2.9261485077416466E-01 a       138     1     1     2     3
  1.6265165803147327E-01 a       139     1     1     2     4
  3.4987331440131325E-01 a       140     1     1     2     5
  5.8532395844678918E-02 a       141     1     1     2     6
  3.9237259423908355E-01 a       142     1     1     2     7
  4.1624697593855148E-01 a       143     1     1     2     8
 -4.0855580678382425E-01 a       144     1     1     2     9
  4.6732335320518537E-01 a       145     1     1     2    10
  2.0992785671264014E-01 a       146     1     1     2    11
 -1.7375843822412178E-02 a       147     1     1     2    12
 -3.7720484351768024E-01 a       148     1     1     2    13
 -2.6051046822745993E-01 a       149     1     1     2    14
 -3.8207904954220440E-01 a       150     1     1     2    15
 -2.0922828597911458E-01 a       151     1     2     2     1
  6.7800517325473333E-02 a       152     1     2     2     2
  2.5906287755815716E-01 a       153     1     2     2     3
  1.7547151609837341E-01 a       154     1     2     2     4
  1.7909338800369079E-01 a       155     1     2     2     5
  2.8224640752687668E-02 a       156     1     2     2     6
  8.3566342120459033E-02 a       157     1     2     2     7
  2.8260086317816635E-01 a       158     1     2     2     8
  4.3004779679983347E-02 a       159     1     2     2     9
 -2.7637052341623775E-01 a       160     1     2     2    10
  4.3751973818822243E-01 a       161     1     2     2    11
 -3.7411467753547401E-01 a       162     1     2     2    12
 -1.0486064902363973E-01 a       163     1     2     2    13
  3.0540392217386148E-01 a       164     1     2     2    14
  3.5559961231327175E-01 a       165     1     2     2    15
  1.0784194285483550E-01 a       166     1     3     2     1
 -1.8794378842779116E-01 a       167     1     3     2     2
 -3.7616220213540374E-01 a       168     1     3     2     3
  3.0541995046512888E-01 a       169     1     3     2     4
  3.9188859999358522E-01 a       170     1     3     2     5
  3.5555391012179310E-01 a       171     1     3     2     6
  4.3373176786432910E-01 a       172     1     3     2     7
  5.8457326692996836E-03 a       173     1     3     2     8
 -3.7073617448242085E-01 a       174     1     3     2     9
 -5.2729505593404759E-02 a       175     1     3     2    10
 -2.9360970336572340E-01 a       176     1     3     2    11
 -3.8085780351995602E-01 a       177     1     3     2    12
  3.7275402254864332E-01 a       178     1     3     2    13
  3.6785605968637453E-01 a       179     1     3     2    14
 -3.1115939460902803E-01 a       180     1     3     2    15
  3.9605782712437160E-01 a       181     1     4     2     1
 -4.2677505028444085E-01 a       182     1     4     2     2
  4.4541506486984650E-01 a       183     1     4     2     3
  1.2514986375054040E-02 a       184     1     4     2     4
  1.7139388108662132E-01 a       185     1     4     2     5
  3.7964380035483569E-01 a       186     1     4     2     6
 -3.0466125874053895E-01 a       187     1     4     2     7
 -1.6899718813213085E-01 a       188     1     4     2     8
  4.1731968304484822E-03 a       189     1     4     2     9
  2.9828785633032895E-01 a       190     1     4     2    10
  2.9787984607803802E-01 a       191     1     4     2    11
 -4.1502006944935010E-01 a       192     1     4     2    12
 -8.4624927021887661E-02 a       193     1     4     2    13
  8.3091272334428298E-02 a       194     1     4     2    14
 -1.2091093392395183E-01 a       195     1     4     2    15
 -2.3262122658471041E-02 a       196     1     5     2     1
  3.5262809644679871E-01 a       197     1     5     2     2
 -2.0830191126892880E-01 a       198     1     5     2     3
 -2.4849195615109290E-01 a       199     1     5     2     4
  2.6428813621576736E-01 a       200     1     5     2     5
 -2.1484615087063302E-01 a       201     1     5     2     6
  2.4164675827361221E-01 a       202     1     5     2     7
  5.1297441055228166E-01 a       203     1     5     2     8
 -3.9455365075622889E-01 a       204     1     5     2     9
  2.5193796824377440E-01 a       205     1     5     2    10
 -4.0095286781933187E-01 a       206     1     5     2    11
 -1.3079729758707681E-01 a       207     1     5     2    12
  1.9621543898408081E-01 a       208     1     5     2    13
  1.2873171627936364E-01 a       209     1     5     2    14
 -4.5637161112049085E-01 a       210     1     5     2    15
  3.9401462528613745E-01 a       211     1     6     2     1
  5.0907581227718282E-03 a       212     1     6     2     2
  8.9694499402076869E-02 a       213     1     6     2     3
 -6.2980524863134157E-02 a       214     1     6     2     4
 -3.6841345043364221E-01 a       215     1     6     2     5
  4.6864052636055353E-01 a       216     1     6     2     6
 -2.8348878151552605E-02 a       217     1     6     2     7
 -3.4067566698053697E-01 a       218     1     6     2     8
  4.8390496742064282E-01 a       219     1     6     2     9
  8.7418370483207927E-02 a       220     1     6     2    10
  3.0459290403518285E-01 a       221     1     6     2    11
 -5.5844378501953318E-01 a       222     1     6     2    12
 -2.5405662880897967E-01 a       223     1     6     2    13
  1.4664966597283505E-01 a       224     1     6     2    14
  7.5260069018938669E-02 a       225     1     6     2    15
  3.2939056598896921E-01 a       226     1     7     2     1
 -1.0855752874053015E-01 a       227     1     7     2     2
 -2.0450065689147739E-01 a       228     1     7     2     3
  3.3597707608665134E-01 a       229     1     7     2     4
 -4.6216643722235223E-01 a       230     1     7     2     5
 -2.2576708894920300E-01 a       231     1     7     2     6
  1.5428570289007026E-01 a       232     1     7     2     7
 -3.1101603272874467E-01 a       233     1     7     2     8
  1.2799787753911643E-01 a       234     1     7     2     9
  1.6010566534641738E-01 a       235     1     7     2    10
  5.1289225176234500E-02 a       236     1     7     2    11
  3.1985418854743852E-01 a       237     1     7     2    12
  3.4245111149749824E-01 a       238     1     7     2    13
 -3.5299668197725920E-01 a       239     1     7     2    14
 -2.0720466185087252E-01 a       240     1     7     2    15
  2.2402543921528306E-01 a       241     1     8     2     1
 -5.0706434333798296E-02 a       242     1     8     2     2
  2.0790444635308306E-01 a       243     1     8     2     3
 -3.0258279062805027E-01 a       244     1     8     2     4
 -2.0285005219303029E-01 a       245     1     8     2     5
 -4.9728893301761190E-01 a       246     1     8     2     6
 -1.5917810219794620E-01 a       247     1     8     2     7
 -2.2564005386924821E-03 a       248     1     8     2     8
 -2.9041427705600031E-02 a       249     1     8     2     9
 -3.9713755815199225E-01 a       250     1     8     2    10
  4.4554971108341079E-01 a       251     1     8     2    11
  1.9762481264538775E-01 a       252     1     8     2    12
  1.3915011656929002E-01 a       253     1     8     2    13
  2.8393996701880181E-01 a       254     1     8     2    14
  4.3729690596439846E-01 a       255     1     8     2    15
  6.7456723799398516E-02 a       256     1     9     2     1
  1.1946256471216105E-01 a       257     1     9     2     2
 -3.6492279605581274E-01 a       258     1     9     2     3
 -3.5582652767579387E-01 a       259     1     9     2     4
  4.3896096610514601E-01 a       260     1     9     2     5
 -1.3563521048479951E-01 a       261     1     9     2     6
  4.0192957631407455E-01 a       262     1     9     2     7
  4.2183067550288507E-02 a       263     1     9     2     8
  1.4478643853099366E-01 a       264     1     9     2     9
  1.6448342919488299E-01 a       265     1     9     2    10
  1.0685703028045629E-01 a       266     1     9     2    11
  5.4614434492282531E-02 a       267     1     9     2    12
  5.4490994117570035E-01 a       268     1     9     2    13
  3.0322450194190409E-01 a       269     1     9     2    14
  4.4165658187224994E-03 a       270     1     9     2    15
  3.5492533185628178E-01 a       271     1    10     2     1
  2.1821793358161681E-01 a       272     1    10     2     2
 -2.9701268188461558E-02 a       273     1    10     2     3
  3.2638009607053159E-01 a       274     1    10     2     4
  1.9398166598479902E-01 a       275     1    10     2     5
  3.2611739824975255E-01 a       276     1    10     2     6
 -3.9342710705512857E-01 a       277     1    10     2     7
  1.9876489700148162E-01 a       278     1    10     2     8
  1.8364892243873407E-01 a       279     1    10     2     9
 -3.1980344360684937E-01 a       280     1    10     2    10
 -2.5005443548129627E-02 a       281     1    10     2    11
 -4.5051819649000419E-01 a       282     1    10     2    12
  8.3440740381408529E-02 a       283     1    10     2    13
 -4.5443814505260349E-01 a       284     1    10     2    14
  9.2637771824054929E-02 a       285     1    10     2    15
  2.4716741565790890E-01 a       286     1    11     2     1
 -1.0050224818282308E-01 a       287     1    11     2     2
 -1.0508159403683275E-01 a       288     1    11     2     3
 -3.8715973042808736E-02 a       289     1    11     2     4
  4.1813877627370349E-01 a       290     1    11     2     5
  1.9518959851214121E-01 a       291     1    11     2     6
 -7.5797620413703998E-02 a       292     1    11     2     7
 -3.9059198269015749E-01 a       293     1    11     2     8
 -8.8550771531222733E-02 a       294     1    11     2     9
  2.0485660037882780E-01 a       295     1    11     2    10
 -1.4842512789924023E-01 a       296     1    11     2    11
  4.2195340025149619E-01 a       297     1    11     2    12
  3.6445933176793704E-01 a       298     1    11     2    13
  4.6699885348260320E-02 a       299     1    11     2    14
 -9.5098086026571160E-02 a       300     1    11     2    15
  3.5744585743430718E-01 a       301     1    12     2     1
 -2.5598409908649433E-01 a       302     1    12     2     2
  1.5865865291762893E-01 a       303     1    12     2     3
  1.8260616786644010E-01 a       304     1    12     2     4
 -4.1207586961729620E-01 a       305     1    12     2     5
 -2.2814232401959988E-01 a       306     1    12     2     6
 -2.6019290629662800E-01 a       307     1    12     2     7
 -3.3056770768159516E-04 a       308     1    12     2     8
 -3.5556288602415831E-01 a       309     1    12     2     9
 -1.4814806619911614E-01 a       310     1    12     2    10
  1.8007930926379129E-01 a       311     1    12     2    11
  2.8690012378764690E-01 a       312     1    12     2    12
 -3.8495503363682487E-01 a       313     1    12     2    13
 -6.1847836362657772E-03 a       314     1    12     2    14
  3.8344655958219448E-01 a       315     1    12     2    15
  5.0936018410602268E-01 a       316     1    13     2     1
  9.3626981317630670E-02 a       317     1    13     2     2
  3.9219577644773485E-01 a       318     1    13     2     3
  1.8570037830581734E-01 a       319     1    13     2     4
  2.2781323103513804E-01 a       320     1    13     2     5
  1.5093113683410744E-01 a       321     1    13     2     6
  2.4647930004942931E-01 a       322     1    13     2     7
  3.5051086873524671E-02 a       323     1    13     2     8
  1.8225391184740958E-01 a       324     1    13     2     9
 -3.2556646211876716E-01 a       325     1    13     2    10
  2.6705813752427776E-01 a       326     1    13     2    11
 -5.6174315980275735E-01 a       327     1    13     2    12
  1.6149228224043935E-01 a       328     1    13     2    13
 -6.6143729701953341E-02 a       329     1    13     2    14
  4.6979374117853018E-01 a       330     1    13     2    15
 -1.6874775193194153E-01 a       331     1    14     2     1
 -1.2293281858742143E-01 a       332     1    14     2     2
  6.5097276031431714E-02 a       333     1    14     2     3
 -2.7800297495430693E-01 a       334     1    14     2     4
 -1.9218868451590032E-01 a       335     1    14     2     5
 -1.4390007792947271E-01 a       336     1    14     2     6
 -7.6888500030853874E-02 a       337     1    14     2     7
 -1.5796683113044110E-01 a       338     1    14     2     8
 -1.7745160412485941E-01 a       339     1    14     2     9
 -2.3497790733913268E-01 a       340     1    14     2    10
  2.0474166956246806E-01 a       341     1    14     2    11
 -1.0396163032382305E-01 a       342     1    14     2    12
  2.0448001440217736E-01 a       343     1    14     2    13
  3.4827885589742735E-01 a       344     1    14     2    14
  1.7721202260580107E-01 a       345     1    14     2    15
  1.2675718200971883E-01 a       346     1    15     2     1
 -3.2157666132345453E-01 a       347     1    15     2     2
  3.0547981302275101E-01 a       348     1    15     2     3
  8.0065771367030594E-03 a       349     1    15     2     4
 -3.7066526748278550E-01 a       350     1    15     2     5
 -1.5331270261240176E-01 a       351     1    15     2     6
  1.2925570998169552E-03 a       352     1    15     2     7
  2.8078481323791821E-01 a       353     1    15     2     8
  1.2642580634996806E-01 a       354     1    15     2     9
 -8.8279566978477345E-02 a       355     1    15     2    10
  2.2949030835923614E-01 a       356     1    15     2    11
  2.7737536589448397E-01 a       357     1    15     2    12
 -1.2985406652436576E-01 a       358     1    15     2    13
 -1.5014359563640953E-01 a       359     1    15     2    14
 -2.9045684047450793E-01 a       360     1    15     2    15
  1.2948211501812534E+00 b       361     2     1
 -9.6857073885500733E-01 b       362     2     2
  2.5297996565415476E-01 b       363     2     3
  9.2672728120269598E-01 b       364     2     4
 -8.2747230154735274E-01 b       365     2     5
  1.0931832382956042E+00 b       366     2     6
 -3.9051956031540408E-01 b       367     2     7
 -1.0035813037620400E+00 b       368     2     8
  3.2510511136036457E-01 b       369     2     9
 -7.2322973244227884E-01 b       370     2    10
  6.1734633981640408E-01 b       371     2    11
 -8.0885490171359542E-01 b       372     2    12
 -8.8674548217923943E-01 b       373     2    13
 -1.2144748945878823E+00 b       374     2    14
  9.5565613691679552E-01 b       375     2    15
 -1.6687800973726068E+00 a       376     2     1     3     1
  1.1873552959812845E+00 a       377     2     2     3     1
 -8.2648642725053945E-01 a       378     2     3     3     1
 -1.3209098712890219E+00 a       379     2     4     3     1
  1.2255651874674500E+00 a       380     2     5     3     1
 -1.4418692954136014E+00 a       381     2     6     3     1
  8.7251457488067252E-01 a       382     2     7     3     1
  1.2460813771919972E+00 a       383     2     8     3     1
 -7.6137529249215841E-01 a       384     2     9     3     1
  8.6312603069621241E-01 a       385     2    10     3     1
 -1.0438037495899277E+00 a       386     2    11     3     1
  9.0849817070791516E-01 a       387     2    12     3     1
  1.3052916882217687E+00 a       388     2    13     3     1
  1.5386854025334387E+00 a       389     2    14     3     1
 -1.3481167013452269E+00 a       390     2    15     3     1
 -1.9429483009280439E+00 b       391     3     1
