################################################################################
# Neural network connection values (weights and biases).
################################################################################
# Col  Name       Description
################################################################################
# 1    connection Neural network connection value.
# 2    t          Connection type (a = weight, b = bias).
# 3    index      Index enumerating weights.
# 4    l_s        Starting point layer (end point layer for biases).
# 5    n_s        Starting point neuron in starting layer (end point neuron for biases).
# 6    l_e        End point layer.
# 7    n_e        End point neuron in end layer.
################################################################################
#                      1 2         3     4     5     6     7
#             connection t     index   l_s   n_s   l_e   n_e
############################################################
 -3.2022541139567307E-01 a         1     0     1     1     1
  3.6677278731830715E-01 a         2     0     1     1     2
  2.5243668176135919E-01 a         3     0     1     1     3
  3.9446647537141433E-01 a         4     0     1     1     4
 -7.5345497178979634E-02 a         5     0     1     1     5
 -2.4243819113569479E-01 a         6     0     1     1     6
 -2.4726799808987021E-01 a         7     0     1     1     7
  2.8230455522326164E-01 a         8     0     1     1     8
 -1.6815852138516815E-01 a         9     0     1     1     9
 -2.1826948582237940E-01 a        10     0     1     1    10
  3.4831954589838487E-01 a        11     0     1     1    11
  9.3994219625111175E-02 a        12     0     1     1    12
  1.1661444978181838E-01 a        13     0     1     1    13
  7.4637153377199020E-02 a        14     0     1     1    14
 -3.4757642457947174E-01 a        15     0     1     1    15
  3.4371347389581691E-01 a        16     0     1     1    16
 -4.9144928580908603E-02 a        17     0     1     1    17
  2.8177918315757761E-01 a        18     0     1     1    18
 -3.7508758026367045E-01 a        19     0     1     1    19
 -5.1884118633874587E-01 a        20     0     1     1    20
  3.9011591878121821E-01 a        21     0     1     1    21
 -1.4519189199006260E-01 a        22     0     1     1    22
  4.7116325918256347E-01 a        23     0     1     1    23
 -5.6726452005220962E-01 a        24     0     1     1    24
  5.7210712895985116E-01 a        25     0     1     1    25
 -5.7234986101864904E-01 a        26     0     2     1     1
  7.4678071210638064E-01 a        27     0     2     1     2
  5.1505033862917027E-01 a        28     0     2     1     3
  4.1098531865916837E-01 a        29     0     2     1     4
  9.0623876426386488E-02 a        30     0     2     1     5
  4.3699201835369350E-03 a        31     0     2     1     6
  2.2228586729297118E-03 a        32     0     2     1     7
  2.7806664645364970E-01 a        33     0     2     1     8
 -1.0795665470527646E-01 a        34     0     2     1     9
  4.1143748486345354E-02 a        35     0     2     1    10
  8.2352907393838853E-02 a        36     0     2     1    11
  1.4563352944323998E-01 a        37     0     2     1    12
 -3.4800186191929572E-01 a        38     0     2     1    13
  1.9936060870321143E-01 a        39     0     2     1    14
 -2.1242413718165529E-01 a        40     0     2     1    15
 -6.3505381026620011E-01 a        41     0     2     1    16
  5.2705226724665599E-01 a        42     0     2     1    17
 -2.3766237793628249E-02 a        43     0     2     1    18
 -3.7297798404411830E-02 a        44     0     2     1    19
  4.0041706793016363E-01 a        45     0     2     1    20
 -4.4155591807420302E-01 a        46     0     2     1    21
 -1.8222874520015427E-02 a        47     0     2     1    22
 -1.9363395573319825E-01 a        48     0     2     1    23
  2.5491656566119775E-01 a        49     0     2     1    24
 -2.7732591522575850E-01 a        50     0     2     1    25
 -3.1150846081719569E-01 a        51     0     3     1     1
  1.9717812407127755E-01 a        52     0     3     1     2
  5.4188997456531252E-01 a        53     0     3     1     3
  5.2300364019422163E-01 a        54     0     3     1     4
 -3.7793908752497174E-01 a        55     0     3     1     5
 -5.2431361106423846E-01 a        56     0     3     1     6
  5.9399488663032052E-01 a        57     0     3     1     7
  4.3855863308427678E-01 a        58     0     3     1     8
  5.0076405110957611E-01 a        59     0     3     1     9
 -2.8761179487036470E-01 a        60     0     3     1    10
  3.5612758076044065E-01 a        61     0     3     1    11
  2.3055178073757340E-01 a        62     0     3     1    12
 -1.8973210452031788E-01 a        63     0     3     1    13
 -3.0649203382623469E-01 a        64     0     3     1    14
 -7.1745923335490269E-01 a        65     0     3     1    15
  4.8067810804959998E-01 a        66     0     3     1    16
 -1.7293065757312673E-01 a        67     0     3     1    17
  1.5256319619074274E-01 a        68     0     3     1    18
  1.2542804069651450E-01 a        69     0     3     1    19
  4.6992982691124718E-01 a        70     0     3     1    20
  1.3193383559028202E-01 a        71     0     3     1    21
  2.7235150902403327E-01 a        72     0     3     1    22
 -2.4863393112488238E-01 a        73     0     3     1    23
 -2.4865904480488987E-01 a        74     0     3     1    24
  4.9589579333332301E-02 a        75     0     3     1    25
 -1.1837615104815569E-01 a        76     0     4     1     1
  1.5038144386700783E-01 a        77     0     4     1     2
 -3.1176963359343784E-01 a        78     0     4     1     3
  2.3773096026689403E-01 a        79     0     4     1     4
 -2.9061981479560806E-01 a        80     0     4     1     5
  2.6128150325310173E-01 a        81     0     4     1     6
  2.1659163881193175E-01 a        82     0     4     1     7
 -9.8939971748448430E-02 a        83     0     4     1     8
  1.8254373005867472E-01 a        84     0     4     1     9
  2.3435175297899585E-01 a        85     0     4     1    10
 -3.3939245110626093E-01 a        86     0     4     1    11
 -1.5943635651794966E-01 a        87     0     4     1    12
 -3.6565869701187143E-01 a        88     0     4     1    13
 -1.9215342834513433E-01 a        89     0     4     1    14
  5.3368916194271321E-01 a        90     0     4     1    15
  2.4524281336840503E-01 a        91     0     4     1    16
 -3.3946408823522795E-01 a        92     0     4     1    17
  3.0254799278484340E-01 a        93     0     4     1    18
 -1.5809897066802325E-01 a        94     0     4     1    19
  8.2585317065518183E-03 a        95     0     4     1    20
  4.4112833736848434E-01 a        96     0     4     1    21
  2.5665094706102271E-01 a        97     0     4     1    22
 -2.9779169194988458E-01 a        98     0     4     1    23
  7.4159123375679384E-02 a        99     0     4     1    24
 -2.2487092404682732E-01 a       100     0     4     1    25
 -1.4917031372626255E-02 a       101     0     5     1     1
 -2.3938767296611249E-02 a       102     0     5     1     2
 -4.8753037549579847E-01 a       103     0     5     1     3
 -8.5878169391512493E-02 a       104     0     5     1     4
  3.7870103079938056E-01 a       105     0     5     1     5
 -4.9299518843600509E-01 a       106     0     5     1     6
 -2.1555886627373591E-01 a       107     0     5     1     7
  2.0611419751717200E-01 a       108     0     5     1     8
  5.5499590767552198E-01 a       109     0     5     1     9
  1.8443948617291798E-03 a       110     0     5     1    10
 -1.0072366127384814E-01 a       111     0     5     1    11
 -8.6976769042565558E-02 a       112     0     5     1    12
  7.7332801918931915E-01 a       113     0     5     1    13
 -2.0741604926384583E-01 a       114     0     5     1    14
 -1.6411566680813966E-01 a       115     0     5     1    15
 -1.0193769537825591E-01 a       116     0     5     1    16
 -3.2245073956340513E-02 a       117     0     5     1    17
  1.5211119352914027E-01 a       118     0     5     1    18
  5.9898978132453684E-01 a       119     0     5     1    19
 -3.6109252866063102E-01 a       120     0     5     1    20
  4.4735921577879323E-01 a       121     0     5     1    21
 -8.1085561612208001E-01 a       122     0     5     1    22
  2.6260005260266256E-01 a       123     0     5     1    23
  4.2435171674905237E-02 a       124     0     5     1    24
  2.7418868139455554E-01 a       125     0     5     1    25
  6.8116631743637794E-03 a       126     0     6     1     1
 -6.2198605246218164E-01 a       127     0     6     1     2
  1.9273200107973443E-01 a       128     0     6     1     3
 -6.3030783738806517E-01 a       129     0     6     1     4
  7.6990884247065905E-02 a       130     0     6     1     5
  2.9631988851494601E-01 a       131     0     6     1     6
  1.8869866458160667E-01 a       132     0     6     1     7
 -8.1921261651986244E-01 a       133     0     6     1     8
 -3.7358686828696183E-03 a       134     0     6     1     9
 -5.0939256084955087E-01 a       135     0     6     1    10
  3.5632634057436768E-01 a       136     0     6     1    11
  1.2240140831628563E-01 a       137     0     6     1    12
 -1.2275757340388116E-01 a       138     0     6     1    13
 -5.7045216351831041E-01 a       139     0     6     1    14
 -2.1208602536300258E-01 a       140     0     6     1    15
  1.8609744572235096E-01 a       141     0     6     1    16
  3.3736453235195918E-01 a       142     0     6     1    17
 -7.7259488305656002E-02 a       143     0     6     1    18
  1.7663217823847879E-01 a       144     0     6     1    19
 -9.9787009104505220E-02 a       145     0     6     1    20
  1.0523125204660076E-01 a       146     0     6     1    21
  2.2372840815978648E-01 a       147     0     6     1    22
 -1.9364002821857185E-01 a       148     0     6     1    23
 -3.9386670427599663E-01 a       149     0     6     1    24
  1.0033569244325136E-02 a       150     0     6     1    25
 -2.4734588674505842E-01 a       151     0     7     1     1
 -5.0745792322622962E-01 a       152     0     7     1     2
 -5.0381368467049070E-01 a       153     0     7     1     3
 -6.2983381732549681E-01 a       154     0     7     1     4
 -3.6919292014986921E-01 a       155     0     7     1     5
 -2.2659281517790300E-01 a       156     0     7     1     6
  2.4272711228238922E-01 a       157     0     7     1     7
  7.9058967113665690E-01 a       158     0     7     1     8
 -2.2355158833790462E-01 a       159     0     7     1     9
 -4.6297589837219116E-01 a       160     0     7     1    10
 -4.8486011268394896E-01 a       161     0     7     1    11
 -8.3408983362991088E-02 a       162     0     7     1    12
  6.0621458828991770E-01 a       163     0     7     1    13
 -5.3292906995728750E-01 a       164     0     7     1    14
 -3.8032460309891841E-01 a       165     0     7     1    15
  4.5658860245651400E-01 a       166     0     7     1    16
 -3.3056689493612915E-02 a       167     0     7     1    17
 -2.2413164267062108E-02 a       168     0     7     1    18
 -1.3259925303132847E-01 a       169     0     7     1    19
 -1.9548104985451908E-01 a       170     0     7     1    20
 -2.9477993477068049E-01 a       171     0     7     1    21
  3.2467057405784616E-01 a       172     0     7     1    22
  8.1796500008968265E-02 a       173     0     7     1    23
  5.2764007040334127E-01 a       174     0     7     1    24
  3.0676098159909876E-01 a       175     0     7     1    25
 -4.0150603545866886E-01 a       176     0     8     1     1
  2.0659308517601557E-01 a       177     0     8     1     2
 -3.1674412845957384E-01 a       178     0     8     1     3
  1.7824403196480826E-01 a       179     0     8     1     4
  2.0498197748537162E-02 a       180     0     8     1     5
  8.2136846860291560E-02 a       181     0     8     1     6
  2.4216778943039288E-01 a       182     0     8     1     7
  3.6722784054667827E-02 a       183     0     8     1     8
  2.6395468715502285E-01 a       184     0     8     1     9
  1.9080562515468341E-01 a       185     0     8     1    10
 -1.5189298874841767E-01 a       186     0     8     1    11
 -9.5870215495768490E-02 a       187     0     8     1    12
  4.1474647128864964E-02 a       188     0     8     1    13
  4.8106720000890391E-01 a       189     0     8     1    14
  5.4711739690085204E-01 a       190     0     8     1    15
 -2.2402852804067883E-01 a       191     0     8     1    16
 -2.4346706251095490E-01 a       192     0     8     1    17
  1.6060689313897106E-01 a       193     0     8     1    18
  3.4722939466698399E-01 a       194     0     8     1    19
  3.2585531122362615E-01 a       195     0     8     1    20
  1.2346424276694903E-01 a       196     0     8     1    21
 -1.3709922573102351E-01 a       197     0     8     1    22
 -2.2635467354250244E-01 a       198     0     8     1    23
 -3.5909784140274936E-01 a       199     0     8     1    24
 -1.5342907326135422E-01 a       200     0     8     1    25
  2.2164783639597568E-01 b       201     1     1
 -2.0287032944701228E-01 b       202     1     2
 -8.8840963873427874E-03 b       203     1     3
 -1.3551499893129253E-02 b       204     1     4
 -4.3229310713437574E-01 b       205     1     5
 -5.6201478574927299E-01 b       206     1     6
 -1.2624623677087984E-01 b       207     1     7
  1.2961822031128531E-01 b       208     1     8
 -5.7315424481245048E-01 b       209     1     9
  4.8411348890145325E-02 b       210     1    10
  5.5265684868176090E-01 b       211     1    11
 -5.4042229777682138E-01 b       212     1    12
 -5.0963452545262258E-02 b       213     1    13
 -2.7541413754589839E-01 b       214     1    14
  1.6929753405648584E-01 b       215     1    15
  2.9715573290735081E-01 b       216     1    16
 -6.1395020375295525E-02 b       217     1    17
 -3.1278477451861075E-01 b       218     1    18
 -1.1138574979899492E-01 b       219     1    19
  1.0105951159514551E-01 b       220     1    20
 -3.1908490490417751E-01 b       221     1    21
 -2.9114858091611229E-01 b       222     1    22
  1.3390074262003537E-01 b       223     1    23
 -3.6448100966839279E-02 b       224     1    24
  1.0719120603435188E-01 b       225     1    25
 -6.9049597685597042E-01 a       226     1     1     2     1
 -1.7158692878312745E-01 a       227     1     1     2     2
 -8.0142403780861737E-01 a       228     1     1     2     3
 -6.7807503349424547E-01 a       229     1     1     2     4
 -2.2835756007559668E-01 a       230     1     1     2     5
 -9.9963527348824432E-01 a       231     1     1     2     6
  1.2000533634015606E-01 a       232     1     1     2     7
  8.8658673993950576E-01 a       233     1     1     2     8
 -3.6393540424255594E-01 a       234     1     1     2     9
 -1.0390544442704683E+00 a       235     1     1     2    10
 -7.1235421198244686E-01 a       236     1     1     2    11
  2.5428870745398229E-02 a       237     1     1     2    12
  2.5958229492607815E-01 a       238     1     1     2    13
 -3.5214015086836453E-01 a       239     1     1     2    14
  1.9353946217891171E-01 a       240     1     1     2    15
 -2.2601848830548563E-01 a       241     1     1     2    16
 -2.6680309530516388E-01 a       242     1     1     2    17
  9.9771623210554092E-02 a       243     1     1     2    18
 -3.9452415632762233E-01 a       244     1     1     2    19
  1.8703024810042101E-01 a       245     1     1     2    20
 -3.3071124735860069E-01 a       246     1     1     2    21
  4.1468729319894404E-01 a       247     1     1     2    22
 -2.1626479072525617E-01 a       248     1     1     2    23
  2.1929639332411532E-01 a       249     1     1     2    24
 -3.0644534821236025E-01 a       250     1     1     2    25
 -1.4334855594046197E-01 a       251     1     2     2     1
  2.1148682873525115E-01 a       252     1     2     2     2
 -3.4620021002512741E-01 a       253     1     2     2     3
 -1.8871248275269153E-01 a       254     1     2     2     4
  2.9267352626267107E-01 a       255     1     2     2     5
 -8.5988295520477959E-02 a       256     1     2     2     6
 -3.0529737133318857E-01 a       257     1     2     2     7
 -6.2289822162064623E-01 a       258     1     2     2     8
 -5.3728212027204747E-01 a       259     1     2     2     9
 -4.6513563302619848E-01 a       260     1     2     2    10
 -4.0246616307365957E-01 a       261     1     2     2    11
  1.2350873558768971E-01 a       262     1     2     2    12
  6.5427227685992351E-01 a       263     1     2     2    13
  2.6774893313560261E-01 a       264     1     2     2    14
 -5.5241580024136372E-01 a       265     1     2     2    15
 -2.0156106362746251E-01 a       266     1     2     2    16
 -3.0051181649396985E-01 a       267     1     2     2    17
  8.0484621612371632E-02 a       268     1     2     2    18
 -6.3051144167871120E-01 a       269     1     2     2    19
 -3.8175825876103880E-01 a       270     1     2     2    20
  4.1728081649596865E-01 a       271     1     2     2    21
  3.1086067000255350E-02 a       272     1     2     2    22
 -2.9391092112866218E-01 a       273     1     2     2    23
  2.2954399803816972E-01 a       274     1     2     2    24
 -1.6892768284273668E-01 a       275     1     2     2    25
 -3.6531410990490037E-02 a       276     1     3     2     1
  1.6020120356178114E-01 a       277     1     3     2     2
 -4.0301451225212148E-01 a       278     1     3     2     3
  3.4370290918582264E-02 a       279     1     3     2     4
  3.3072067211544715E-01 a       280     1     3     2     5
 -3.4135252665938165E-01 a       281     1     3     2     6
  2.4605228115128855E-01 a       282     1     3     2     7
  1.2189547776417743E-02 a       283     1     3     2     8
  6.0044785504684883E-01 a       284     1     3     2     9
  1.3581063922246922E-01 a       285     1     3     2    10
  2.8336317541390355E-01 a       286     1     3     2    11
  6.3385249959467393E-01 a       287     1     3     2    12
  1.9291951151338907E-01 a       288     1     3     2    13
  5.4035863847943899E-01 a       289     1     3     2    14
 -9.5732296281317672E-02 a       290     1     3     2    15
  4.2892552394869561E-02 a       291     1     3     2    16
  3.8127852707338601E-02 a       292     1     3     2    17
 -5.7028458459062836E-01 a       293     1     3     2    18
 -3.2908100873290397E-01 a       294     1     3     2    19
  5.5392037129523886E-01 a       295     1     3     2    20
  2.8368516048470765E-02 a       296     1     3     2    21
 -1.8193374735964468E-01 a       297     1     3     2    22
 -6.6005089693058616E-01 a       298     1     3     2    23
  4.9011716984663384E-01 a       299     1     3     2    24
 -1.1302394064673503E-01 a       300     1     3     2    25
  3.7672044676674049E-01 a       301     1     4     2     1
  2.4182384851005809E-01 a       302     1     4     2     2
 -2.8717535299784069E-01 a       303     1     4     2     3
  1.1073111017729595E-01 a       304     1     4     2     4
  2.0497822401877178E-01 a       305     1     4     2     5
  1.8648755362799896E-01 a       306     1     4     2     6
  4.9332047776662319E-01 a       307     1     4     2     7
  3.3954591500515025E-01 a       308     1     4     2     8
 -3.4606359170760503E-01 a       309     1     4     2     9
 -2.1940515205270569E-01 a       310     1     4     2    10
 -2.8769217395003089E-02 a       311     1     4     2    11
 -2.1032476889469551E-01 a       312     1     4     2    12
 -1.5028658459921088E-01 a       313     1     4     2    13
 -1.0834905216851826E-01 a       314     1     4     2    14
  7.6604181061414164E-03 a       315     1     4     2    15
 -2.5863269855966792E-01 a       316     1     4     2    16
 -6.3706226776233088E-01 a       317     1     4     2    17
 -4.6061871631738843E-01 a       318     1     4     2    18
 -3.7008307928273848E-01 a       319     1     4     2    19
  1.2111601888679153E-01 a       320     1     4     2    20
 -6.4537941958365896E-01 a       321     1     4     2    21
  3.3407217213800539E-01 a       322     1     4     2    22
  4.8942831469620590E-01 a       323     1     4     2    23
 -3.9140029730638343E-01 a       324     1     4     2    24
 -5.9916708505983168E-03 a       325     1     4     2    25
 -6.8945431021206749E-01 a       326     1     5     2     1
 -5.2298774159004635E-01 a       327     1     5     2     2
  2.6476041509491144E-01 a       328     1     5     2     3
 -4.2504132352640633E-01 a       329     1     5     2     4
  2.1368356062844843E-01 a       330     1     5     2     5
  2.7685992596337583E-01 a       331     1     5     2     6
  5.9281440933241714E-01 a       332     1     5     2     7
  2.9619147740187024E-01 a       333     1     5     2     8
  4.0288295072712627E-01 a       334     1     5     2     9
 -1.5160948674235833E-01 a       335     1     5     2    10
  7.2667062642843683E-01 a       336     1     5     2    11
  5.5904461832549612E-01 a       337     1     5     2    12
 -3.3229584448037081E-01 a       338     1     5     2    13
  1.1258338765447096E-01 a       339     1     5     2    14
  1.0085960039735009E-01 a       340     1     5     2    15
  1.3144519031755231E-01 a       341     1     5     2    16
 -2.7087333243518422E-02 a       342     1     5     2    17
 -1.6988776152313381E-01 a       343     1     5     2    18
  5.2296955297603509E-01 a       344     1     5     2    19
 -1.0346136668247025E-01 a       345     1     5     2    20
 -3.5564415543479933E-01 a       346     1     5     2    21
 -5.0376413002067444E-01 a       347     1     5     2    22
  3.0800009308732217E-02 a       348     1     5     2    23
  1.9818253738940564E-01 a       349     1     5     2    24
  9.1846288042307128E-02 a       350     1     5     2    25
 -7.0732729879651184E-04 a       351     1     6     2     1
  1.4887749903369097E-02 a       352     1     6     2     2
  1.9322640295416602E-01 a       353     1     6     2     3
 -3.0131537741019521E-01 a       354     1     6     2     4
  4.7171399285070037E-01 a       355     1     6     2     5
 -8.2869511289163936E-02 a       356     1     6     2     6
 -1.2816133505511779E-01 a       357     1     6     2     7
  3.8671106295165014E-01 a       358     1     6     2     8
 -2.7925156892642911E-01 a       359     1     6     2     9
 -3.3528850939943633E-01 a       360     1     6     2    10
  3.3532302845922829E-01 a       361     1     6     2    11
  4.4809071003368295E-01 a       362     1     6     2    12
  4.9867924548731601E-01 a       363     1     6     2    13
  6.8487977585998283E-01 a       364     1     6     2    14
  3.9966781230529619E-01 a       365     1     6     2    15
  5.5639005350198800E-01 a       366     1     6     2    16
  1.9258847917806318E-01 a       367     1     6     2    17
 -6.1802198473348247E-01 a       368     1     6     2    18
  2.0247112575242457E-01 a       369     1     6     2    19
  5.6086531246120030E-01 a       370     1     6     2    20
  5.4343429462164750E-01 a       371     1     6     2    21
  4.9168514142646719E-01 a       372     1     6     2    22
 -4.3122834335162841E-01 a       373     1     6     2    23
  4.2044296876176340E-01 a       374     1     6     2    24
  1.7328231137906683E-01 a       375     1     6     2    25
 -7.0202758396329934E-01 a       376     1     7     2     1
 -1.4013990331893529E+00 a       377     1     7     2     2
 -1.2869854123538114E+00 a       378     1     7     2     3
 -1.7347801514115253E+00 a       379     1     7     2     4
 -2.9476887324835960E-01 a       380     1     7     2     5
 -1.3358406388648354E+00 a       381     1     7     2     6
 -8.1995085918896305E-03 a       382     1     7     2     7
  1.6706465589323463E+00 a       383     1     7     2     8
 -5.6675796975941983E-01 a       384     1     7     2     9
 -1.7890213340885259E+00 a       385     1     7     2    10
 -1.2760240432544736E+00 a       386     1     7     2    11
 -7.9914754333785543E-01 a       387     1     7     2    12
  5.2584471565989477E-01 a       388     1     7     2    13
 -1.6128112500315457E+00 a       389     1     7     2    14
 -3.3999921187915422E-01 a       390     1     7     2    15
 -1.3291787320154165E+00 a       391     1     7     2    16
  2.4248566900282870E-01 a       392     1     7     2    17
  3.2452028056588134E-01 a       393     1     7     2    18
 -1.0825737790964453E-01 a       394     1     7     2    19
  1.2950912245358895E-01 a       395     1     7     2    20
  4.1915926069229664E-01 a       396     1     7     2    21
 -2.3104224834145815E-01 a       397     1     7     2    22
  8.1108841786316319E-02 a       398     1     7     2    23
 -2.0376852747902216E-01 a       399     1     7     2    24
 -1.4379579566556838E-01 a       400     1     7     2    25
 -8.2450928994513215E-02 a       401     1     8     2     1
  3.3046431029809425E-01 a       402     1     8     2     2
  3.4099435863622901E-01 a       403     1     8     2     3
  5.1550404053544041E-01 a       404     1     8     2     4
  7.2637741530568356E-01 a       405     1     8     2     5
  4.4150224068809868E-01 a       406     1     8     2     6
 -5.3059363582210228E-01 a       407     1     8     2     7
  6.2133793626912126E-01 a       408     1     8     2     8
 -3.1201027987800267E-01 a       409     1     8     2     9
  5.5985781450964633E-01 a       410     1     8     2    10
  1.6702641059858614E-01 a       411     1     8     2    11
  2.9974212906694980E-01 a       412     1     8     2    12
 -4.1153295292886360E-01 a       413     1     8     2    13
 -3.4450505468465892E-01 a       414     1     8     2    14
 -6.1728127510786557E-01 a       415     1     8     2    15
  2.4135984765382817E-01 a       416     1     8     2    16
  2.3241389189587466E-01 a       417     1     8     2    17
  5.1443571495226836E-01 a       418     1     8     2    18
  9.6404404720209347E-01 a       419     1     8     2    19
 -2.9842272313487178E-01 a       420     1     8     2    20
 -4.6186950262986926E-01 a       421     1     8     2    21
  1.5693701879340233E-02 a       422     1     8     2    22
  6.6971302742653438E-01 a       423     1     8     2    23
  1.8672438174707759E-01 a       424     1     8     2    24
  6.1642207505164270E-01 a       425     1     8     2    25
 -1.9266770781974035E-01 a       426     1     9     2     1
  5.9364183680407656E-01 a       427     1     9     2     2
  1.6178489513151756E-01 a       428     1     9     2     3
  1.9297694867786980E-01 a       429     1     9     2     4
  8.1444113630383865E-03 a       430     1     9     2     5
  4.7872445989298024E-01 a       431     1     9     2     6
  5.6117197793649862E-02 a       432     1     9     2     7
  2.2332793989775945E-01 a       433     1     9     2     8
  4.7795846658353897E-01 a       434     1     9     2     9
  2.6588428081002302E-01 a       435     1     9     2    10
  5.8235912189618828E-02 a       436     1     9     2    11
  1.2128020384929947E-01 a       437     1     9     2    12
  3.7067859423712990E-02 a       438     1     9     2    13
 -1.3423061585399057E-01 a       439     1     9     2    14
 -5.2234008558904171E-02 a       440     1     9     2    15
  1.1310493084693793E-01 a       441     1     9     2    16
 -1.7067036308510322E-01 a       442     1     9     2    17
 -5.8798026096556551E-02 a       443     1     9     2    18
 -1.1199019587238079E-01 a       444     1     9     2    19
 -1.5799130678669809E-01 a       445     1     9     2    20
 -3.1232175438346228E-02 a       446     1     9     2    21
  2.5861635929849253E-01 a       447     1     9     2    22
 -4.0577913321181980E-01 a       448     1     9     2    23
  6.7790752023271818E-03 a       449     1     9     2    24
  1.1253112409443515E-01 a       450     1     9     2    25
 -6.9297303911247776E-02 a       451     1    10     2     1
 -8.2183179217961921E-01 a       452     1    10     2     2
 -2.6439626932553090E-01 a       453     1    10     2     3
  9.2237050685929037E-02 a       454     1    10     2     4
  4.7818422220885848E-01 a       455     1    10     2     5
 -4.6774975868502565E-02 a       456     1    10     2     6
  4.1930389503368243E-01 a       457     1    10     2     7
 -1.3888313805381433E-01 a       458     1    10     2     8
 -4.8035935298912291E-01 a       459     1    10     2     9
 -4.3787971045567864E-01 a       460     1    10     2    10
  8.8334679091277513E-02 a       461     1    10     2    11
  5.6086135077883126E-01 a       462     1    10     2    12
  6.9616243112301424E-01 a       463     1    10     2    13
 -6.5020367282860564E-02 a       464     1    10     2    14
 -1.8273084484277566E-01 a       465     1    10     2    15
 -3.1321055504476630E-01 a       466     1    10     2    16
 -3.2633387085038457E-01 a       467     1    10     2    17
 -1.0411322177157996E-01 a       468     1    10     2    18
  1.0242359221820142E-01 a       469     1    10     2    19
 -3.7996328475892599E-01 a       470     1    10     2    20
  2.4666700194385419E-01 a       471     1    10     2    21
  1.6837373632870131E-02 a       472     1    10     2    22
 -1.8532452244473105E-01 a       473     1    10     2    23
 -3.4912773914843109E-01 a       474     1    10     2    24
 -1.3828666138336271E-01 a       475     1    10     2    25
 -2.1774691378639183E-01 a       476     1    11     2     1
  4.6368902397657522E-02 a       477     1    11     2     2
  2.6527927553850472E-01 a       478     1    11     2     3
 -1.3435829755109618E-01 a       479     1    11     2     4
  5.2005908029081283E-01 a       480     1    11     2     5
 -4.8883809226251490E-01 a       481     1    11     2     6
  4.8756747235712622E-01 a       482     1    11     2     7
 -1.4995378218868913E+00 a       483     1    11     2     8
  5.6779942615842649E-01 a       484     1    11     2     9
 -7.9770518514019373E-01 a       485     1    11     2    10
 -7.3949462383090669E-01 a       486     1    11     2    11
 -1.0286582543864871E+00 a       487     1    11     2    12
  8.2354456619818395E-01 a       488     1    11     2    13
  7.7633585601386523E-01 a       489     1    11     2    14
  7.8405839026941471E-01 a       490     1    11     2    15
  6.3033134674299607E-01 a       491     1    11     2    16
 -1.2515729224969594E+00 a       492     1    11     2    17
 -6.9314283971434010E-01 a       493     1    11     2    18
 -1.1743716690403734E+00 a       494     1    11     2    19
  3.5024668307850497E-02 a       495     1    11     2    20
  1.2525228073382835E+00 a       496     1    11     2    21
 -1.9789653051410829E+00 a       497     1    11     2    22
  2.2109986295582034E+00 a       498     1    11     2    23
 -1.6087661917673728E+00 a       499     1    11     2    24
  2.0088451603645012E+00 a       500     1    11     2    25
  2.2990874850758933E+00 a       501     1    12     2     1
  1.7781568407230128E+00 a       502     1    12     2     2
 -1.4457672408385902E+00 a       503     1    12     2     3
 -1.9673138744467538E+00 a       504     1    12     2     4
 -2.0188861391389898E+00 a       505     1    12     2     5
 -1.4936163581440809E+00 a       506     1    12     2     6
  2.3770768666072901E+00 a       507     1    12     2     7
  2.3330802736909289E+00 a       508     1    12     2     8
  1.5892561471111872E+00 a       509     1    12     2     9
 -1.8910013746844039E+00 a       510     1    12     2    10
 -2.8583384149554618E+00 a       511     1    12     2    11
  8.8490098003153918E-03 a       512     1    12     2    12
 -7.9273375646169760E-03 a       513     1    12     2    13
 -1.0238685152953851E-01 a       514     1    12     2    14
 -1.4903536834862136E-03 a       515     1    12     2    15
 -2.9731952047564133E-03 a       516     1    12     2    16
  2.2763209402049600E-03 a       517     1    12     2    17
 -1.3954401849820082E-02 a       518     1    12     2    18
 -8.0278501881963851E-03 a       519     1    12     2    19
  3.7426814095548730E-03 a       520     1    12     2    20
  1.4857706432381218E-02 a       521     1    12     2    21
  4.0849970020983811E-02 a       522     1    12     2    22
 -5.7818644568462314E-02 a       523     1    12     2    23
  1.7373275248332192E-02 a       524     1    12     2    24
 -4.1108676430718478E-02 a       525     1    12     2    25
  7.0176388165971673E-02 a       526     1    13     2     1
  7.5415663590753898E-02 a       527     1    13     2     2
  3.7090167299866805E-02 a       528     1    13     2     3
  3.7994768803305962E-02 a       529     1    13     2     4
  3.3633590906066602E-02 a       530     1    13     2     5
  2.5141868972213922E-02 a       531     1    13     2     6
  5.4727270648971737E-03 a       532     1    13     2     7
 -5.5010419594787752E-02 a       533     1    13     2     8
  6.7679863402853070E-03 a       534     1    13     2     9
  1.0212766007321291E-02 a       535     1    13     2    10
 -5.1138595734699496E-03 a       536     1    13     2    11
  1.6715527286805584E-02 a       537     1    13     2    12
 -2.1463825342872628E-02 a       538     1    13     2    13
 -6.2362924418496349E-02 a       539     1    13     2    14
  1.1357259092278740E-03 a       540     1    13     2    15
  4.2513286490800009E-02 a       541     1    13     2    16
 -4.9480801699200751E-02 a       542     1    13     2    17
  1.0409409778972031E-02 a       543     1    13     2    18
 -4.8052430099609814E-02 a       544     1    13     2    19
 -1.3695295761046970E-02 a       545     1    13     2    20
  2.7237324651486808E-03 a       546     1    13     2    21
 -1.0886972298719362E-02 a       547     1    13     2    22
  1.3652751936037563E-02 a       548     1    13     2    23
 -8.6340695648192498E-03 a       549     1    13     2    24
 -8.0144925422925874E-03 a       550     1    13     2    25
 -1.2852406199744146E-01 a       551     1    14     2     1
 -5.3606747571763036E-02 a       552     1    14     2     2
 -1.5621663720148102E-02 a       553     1    14     2     3
 -3.9523401651885247E-02 a       554     1    14     2     4
 -1.7493806910410456E-02 a       555     1    14     2     5
  1.8019825504889109E-02 a       556     1    14     2     6
 -7.1623146378452490E-02 a       557     1    14     2     7
  9.9660541290607876E-02 a       558     1    14     2     8
 -2.4468970679097236E-02 a       559     1    14     2     9
  3.9629923782134591E-02 a       560     1    14     2    10
 -2.5107029711320676E-03 a       561     1    14     2    11
 -8.7284501529889563E-02 a       562     1    14     2    12
  3.2677276409005217E-02 a       563     1    14     2    13
  1.5652295347299092E-01 a       564     1    14     2    14
  3.1235867471634494E-03 a       565     1    14     2    15
 -2.9730073266057422E-02 a       566     1    14     2    16
  1.1065625814867669E-02 a       567     1    14     2    17
 -1.8660248782923199E-02 a       568     1    14     2    18
 -2.9424982076162519E-03 a       569     1    14     2    19
  1.8973965728729631E-02 a       570     1    14     2    20
  1.2910234354509775E-02 a       571     1    14     2    21
 -3.7896242855021217E-02 a       572     1    14     2    22
  3.2217328802617184E-02 a       573     1    14     2    23
 -4.8501353208569881E-02 a       574     1    14     2    24
  8.7965349642416008E-02 a       575     1    14     2    25
 -1.1429061028397963E-01 a       576     1    15     2     1
 -2.1746268517154110E-01 a       577     1    15     2     2
 -6.9935122613542497E-02 a       578     1    15     2     3
 -4.1733915416098860E-02 a       579     1    15     2     4
  2.4106365755944447E-02 a       580     1    15     2     5
 -4.9185873040692357E-02 a       581     1    15     2     6
 -6.4012794295237015E-04 a       582     1    15     2     7
  6.3222945343423043E-02 a       583     1    15     2     8
 -1.4025570894950419E-02 a       584     1    15     2     9
 -5.1680802549608031E-02 a       585     1    15     2    10
  1.7017129533694574E-02 a       586     1    15     2    11
  1.0534388034294106E-02 a       587     1    15     2    12
  4.3646540948257227E-02 a       588     1    15     2    13
  6.9035366480866223E-02 a       589     1    15     2    14
  5.4538544913998958E-03 a       590     1    15     2    15
 -3.7937303416007449E-02 a       591     1    15     2    16
 -2.5793214326959871E-02 a       592     1    15     2    17
 -1.2453198261143239E-02 a       593     1    15     2    18
 -3.9468210731740783E-02 a       594     1    15     2    19
  2.6127083740658051E-02 a       595     1    15     2    20
 -9.6905099672351842E-03 a       596     1    15     2    21
 -1.3020410011777339E-02 a       597     1    15     2    22
  7.8381246672390957E-03 a       598     1    15     2    23
  1.3099548763692817E-03 a       599     1    15     2    24
  2.6832518942305383E-02 a       600     1    15     2    25
  9.5807131272117929E-02 a       601     1    16     2     1
  7.1063312131916898E-02 a       602     1    16     2     2
  4.3427867191155670E-02 a       603     1    16     2     3
  5.3669272979779276E-02 a       604     1    16     2     4
  1.8491495384286846E-02 a       605     1    16     2     5
  1.9355720534495101E-02 a       606     1    16     2     6
  3.1172854935634774E-02 a       607     1    16     2     7
 -8.8839122805976195E-02 a       608     1    16     2     8
  2.3870518769020084E-02 a       609     1    16     2     9
  2.5751084680318493E-02 a       610     1    16     2    10
 -1.6220977815103142E-03 a       611     1    16     2    11
  4.0663658077368048E-02 a       612     1    16     2    12
 -3.0468957180858292E-02 a       613     1    16     2    13
 -5.7154273908300426E-02 a       614     1    16     2    14
 -2.3028462092144179E-05 a       615     1    16     2    15
  3.9035243172415010E-02 a       616     1    16     2    16
 -3.1852843432121150E-02 a       617     1    16     2    17
  1.2033887030219674E-02 a       618     1    16     2    18
 -2.5618257075619578E-02 a       619     1    16     2    19
 -1.8435931712270981E-02 a       620     1    16     2    20
 -6.8505362872392757E-03 a       621     1    16     2    21
  1.8690531172434831E-04 a       622     1    16     2    22
  1.8111085311431161E-02 a       623     1    16     2    23
  6.8568744575738961E-03 a       624     1    16     2    24
 -2.0034333482377216E-02 a       625     1    16     2    25
  1.2593805859012820E-03 a       626     1    17     2     1
  8.5409134586274540E-02 a       627     1    17     2     2
 -4.6857082988524456E-03 a       628     1    17     2     3
 -1.0541200753417947E-02 a       629     1    17     2     4
 -1.8183140315970521E-02 a       630     1    17     2     5
  3.3476494847789487E-02 a       631     1    17     2     6
  5.5879572812716095E-03 a       632     1    17     2     7
  7.3511658742279684E-03 a       633     1    17     2     8
  3.1993168353582312E-03 a       634     1    17     2     9
 -2.6471346341934068E-03 a       635     1    17     2    10
 -1.9010317257257968E-03 a       636     1    17     2    11
  1.3750207253869537E-02 a       637     1    17     2    12
 -4.4709704800132795E-03 a       638     1    17     2    13
  1.6715906110650512E-02 a       639     1    17     2    14
 -6.1657974153975607E-03 a       640     1    17     2    15
  1.2707676777809686E-03 a       641     1    17     2    16
  2.6629590226683375E-02 a       642     1    17     2    17
 -4.2447660112255068E-04 a       643     1    17     2    18
  2.9667050081728492E-02 a       644     1    17     2    19
 -1.2458834177075319E-03 a       645     1    17     2    20
  2.6094573688581366E-05 a       646     1    17     2    21
  2.1609999609904510E-02 a       647     1    17     2    22
 -5.0232529310643408E-03 a       648     1    17     2    23
  8.9885932562608142E-03 a       649     1    17     2    24
 -1.3636721835185052E-02 a       650     1    17     2    25
  1.2899620835835210E-01 a       651     1    18     2     1
  3.0816010039968039E-01 a       652     1    18     2     2
  1.0412700692130629E-01 a       653     1    18     2     3
  6.4822610615505510E-02 a       654     1    18     2     4
 -4.6379630346488543E-03 a       655     1    18     2     5
  8.1735031045704329E-02 a       656     1    18     2     6
 -2.0383318976837303E-02 a       657     1    18     2     7
 -6.5397904764529835E-02 a       658     1    18     2     8
  9.3114587357691191E-03 a       659     1    18     2     9
  1.0309149532080820E-01 a       660     1    18     2    10
 -1.9392178546480055E-02 a       661     1    18     2    11
 -3.2837088413409023E-02 a       662     1    18     2    12
 -4.7822176648283379E-02 a       663     1    18     2    13
 -8.9395709528306416E-03 a       664     1    18     2    14
  2.1948177286537033E-03 a       665     1    18     2    15
  7.3245382349433966E-02 a       666     1    18     2    16
 -3.2651197798212565E-02 a       667     1    18     2    17
  7.6662946601707407E-03 a       668     1    18     2    18
 -2.0871713738543241E-02 a       669     1    18     2    19
 -2.8710087028813270E-02 a       670     1    18     2    20
  1.3819957920310069E-02 a       671     1    18     2    21
 -2.4464501439160524E-03 a       672     1    18     2    22
  3.3239592905763868E-03 a       673     1    18     2    23
 -2.9200212694517471E-02 a       674     1    18     2    24
  5.4833386859494690E-03 a       675     1    18     2    25
  1.0102931813547433E-01 a       676     1    19     2     1
  4.2079969959751190E-02 a       677     1    19     2     2
  5.1973142000491537E-02 a       678     1    19     2     3
  4.4328504345303381E-02 a       679     1    19     2     4
  6.0522630902176626E-02 a       680     1    19     2     5
  1.0477306891120279E-02 a       681     1    19     2     6
  1.4752003638429496E-02 a       682     1    19     2     7
 -6.2134833713024556E-02 a       683     1    19     2     8
 -1.0898716882606352E-03 a       684     1    19     2     9
  2.4260589060026618E-02 a       685     1    19     2    10
 -7.8258060670653214E-03 a       686     1    19     2    11
  4.4187836995160892E-02 a       687     1    19     2    12
 -2.3902165344819357E-02 a       688     1    19     2    13
 -4.3569873813372274E-02 a       689     1    19     2    14
  3.4289273104701999E-03 a       690     1    19     2    15
  5.4737629029216431E-02 a       691     1    19     2    16
 -5.9018978731744560E-02 a       692     1    19     2    17
  9.0066153975572577E-04 a       693     1    19     2    18
 -5.6002976004015145E-02 a       694     1    19     2    19
 -1.3691117479281027E-02 a       695     1    19     2    20
  8.4050281619849013E-03 a       696     1    19     2    21
 -1.3755973817173472E-02 a       697     1    19     2    22
 -4.5590260561544985E-02 a       698     1    19     2    23
 -2.7446576910945008E-03 a       699     1    19     2    24
 -2.0872823799573986E-02 a       700     1    19     2    25
 -2.8574798263265337E-03 a       701     1    20     2     1
 -6.3323156878105538E-02 a       702     1    20     2     2
  1.1623609450401860E-02 a       703     1    20     2     3
  1.7809901307596680E-02 a       704     1    20     2     4
  1.3470897213685058E-02 a       705     1    20     2     5
 -1.2496163281229308E-02 a       706     1    20     2     6
  8.6945953697024556E-04 a       707     1    20     2     7
 -1.6950207320717083E-02 a       708     1    20     2     8
  2.5519537448604303E-04 a       709     1    20     2     9
  1.3351624635016877E-02 a       710     1    20     2    10
 -7.9776769430229936E-04 a       711     1    20     2    11
  1.8695913334535691E-03 a       712     1    20     2    12
  5.4671252190208698E-03 a       713     1    20     2    13
 -4.6315083665712190E-03 a       714     1    20     2    14
  3.9076526828479641E-03 a       715     1    20     2    15
 -7.3390665412551102E-03 a       716     1    20     2    16
 -1.7928952165726528E-02 a       717     1    20     2    17
  5.9766101847337407E-03 a       718     1    20     2    18
 -1.8515153480584766E-02 a       719     1    20     2    19
  2.1280887904140278E-03 a       720     1    20     2    20
 -9.4180783084026531E-04 a       721     1    20     2    21
 -1.3062495362002298E-02 a       722     1    20     2    22
  1.4648389216772468E-02 a       723     1    20     2    23
 -4.1365808054335262E-03 a       724     1    20     2    24
  8.0961028708938839E-03 a       725     1    20     2    25
  1.0582397347056760E-01 a       726     1    21     2     1
  1.7568157854689576E-01 a       727     1    21     2     2
  5.5050650473005142E-02 a       728     1    21     2     3
  3.9109168155000221E-02 a       729     1    21     2     4
  1.1373080382008951E-02 a       730     1    21     2     5
  5.1925194476175281E-02 a       731     1    21     2     6
  2.5647558260084326E-02 a       732     1    21     2     7
 -6.1192980819806848E-02 a       733     1    21     2     8
  4.6932806053381470E-03 a       734     1    21     2     9
 -2.2508708584362228E-02 a       735     1    21     2    10
 -1.7742343639147409E-02 a       736     1    21     2    11
  4.0919507268466430E-02 a       737     1    21     2    12
 -4.1762494703768957E-02 a       738     1    21     2    13
 -1.6533271562682642E-02 a       739     1    21     2    14
 -3.1839206071237948E-04 a       740     1    21     2    15
  4.3688185125032024E-02 a       741     1    21     2    16
 -2.4899841460294541E-02 a       742     1    21     2    17
  1.0179746965874993E-02 a       743     1    21     2    18
 -1.7556918800553625E-02 a       744     1    21     2    19
 -1.9438995408856911E-02 a       745     1    21     2    20
  1.2216972954343958E-02 a       746     1    21     2    21
  2.8676520182865272E-02 a       747     1    21     2    22
 -4.5823342123307353E-02 a       748     1    21     2    23
  1.0604980574881200E-02 a       749     1    21     2    24
 -5.8414996417960753E-02 a       750     1    21     2    25
  3.2864586946655588E-02 a       751     1    22     2     1
 -1.4590145933585204E-02 a       752     1    22     2     2
 -1.5031513067913211E-02 a       753     1    22     2     3
 -2.5546253238934547E-02 a       754     1    22     2     4
  2.4284368389999516E-02 a       755     1    22     2     5
 -3.9586631107657387E-02 a       756     1    22     2     6
 -2.0601951126259073E-02 a       757     1    22     2     7
  3.1192168051793475E-02 a       758     1    22     2     8
 -2.0312691359454814E-02 a       759     1    22     2     9
 -2.1673713966300166E-02 a       760     1    22     2    10
  2.2988361074408265E-03 a       761     1    22     2    11
 -1.5100940359005834E-02 a       762     1    22     2    12
 -2.2715277213487231E-03 a       763     1    22     2    13
 -1.5816195980144256E-02 a       764     1    22     2    14
  4.4063237266214594E-03 a       765     1    22     2    15
  1.6927567291412624E-02 a       766     1    22     2    16
 -2.5027907937915785E-02 a       767     1    22     2    17
 -1.6234875060916098E-02 a       768     1    22     2    18
 -3.2353477450448677E-02 a       769     1    22     2    19
 -6.5299871285915946E-05 a       770     1    22     2    20
  8.1221410075581341E-03 a       771     1    22     2    21
 -2.2127514112513430E-02 a       772     1    22     2    22
 -2.2739839898307308E-02 a       773     1    22     2    23
 -1.7954698921335208E-02 a       774     1    22     2    24
  8.9355954035705842E-03 a       775     1    22     2    25
 -8.0761654670402139E-02 a       776     1    23     2     1
 -4.1928915780023550E-02 a       777     1    23     2     2
 -2.4146272958800865E-02 a       778     1    23     2     3
 -2.4309115800857872E-02 a       779     1    23     2     4
 -4.6196576636721332E-02 a       780     1    23     2     5
  1.0031044342271643E-02 a       781     1    23     2     6
 -4.2238438535044109E-03 a       782     1    23     2     7
  3.6549834619811983E-02 a       783     1    23     2     8
  5.7639584015255927E-03 a       784     1    23     2     9
 -7.1421138310544859E-03 a       785     1    23     2    10
  5.0286421443361731E-03 a       786     1    23     2    11
 -2.9319850290566506E-02 a       787     1    23     2    12
  9.1632844361948986E-03 a       788     1    23     2    13
  8.5305951612084055E-02 a       789     1    23     2    14
 -2.8789406203414921E-03 a       790     1    23     2    15
 -3.2253713307507190E-02 a       791     1    23     2    16
  4.5863682709299580E-02 a       792     1    23     2    17
 -3.3681042318100857E-03 a       793     1    23     2    18
  4.7125272621604791E-02 a       794     1    23     2    19
  6.6569642927303144E-03 a       795     1    23     2    20
 -7.5475900712553999E-03 a       796     1    23     2    21
  1.3270465437474829E-02 a       797     1    23     2    22
  1.9790420055856052E-02 a       798     1    23     2    23
  5.3795955617914068E-03 a       799     1    23     2    24
  1.1990593824583761E-02 a       800     1    23     2    25
 -8.7224581488557551E-02 a       801     1    24     2     1
 -5.0076408019027498E-02 a       802     1    24     2     2
 -4.5278377245743053E-02 a       803     1    24     2     3
 -4.6686718643867274E-02 a       804     1    24     2     4
 -2.8317382990659730E-02 a       805     1    24     2     5
 -7.8380097436250625E-03 a       806     1    24     2     6
 -2.0026362317170966E-02 a       807     1    24     2     7
  7.3303099757592541E-02 a       808     1    24     2     8
 -1.0762833862600451E-02 a       809     1    24     2     9
 -1.2223122908193919E-02 a       810     1    24     2    10
  5.5660798741817390E-03 a       811     1    24     2    11
 -3.2017362804292016E-02 a       812     1    24     2    12
  2.4090338969236205E-02 a       813     1    24     2    13
  5.2178677187686706E-02 a       814     1    24     2    14
 -4.0622733330183437E-03 a       815     1    24     2    15
 -3.2988892821831678E-02 a       816     1    24     2    16
  3.9540865555291127E-02 a       817     1    24     2    17
 -1.0151502074514082E-02 a       818     1    24     2    18
  3.0433698995574136E-02 a       819     1    24     2    19
  1.4907105888894491E-02 a       820     1    24     2    20
 -2.2827776603415923E-03 a       821     1    24     2    21
  1.3389306180746040E-03 a       822     1    24     2    22
  1.7816878992547561E-03 a       823     1    24     2    23
 -2.8280784155090394E-03 a       824     1    24     2    24
  2.5413723691396918E-02 a       825     1    24     2    25
  9.2595774907018452E-02 a       826     1    25     2     1
  6.4276140729708636E-02 a       827     1    25     2     2
  2.9717898536656778E-02 a       828     1    25     2     3
  3.6701682119830159E-02 a       829     1    25     2     4
  2.3301354344071521E-02 a       830     1    25     2     5
  8.8429884343826422E-03 a       831     1    25     2     6
  2.6509133899867535E-02 a       832     1    25     2     7
 -6.6226582073003484E-02 a       833     1    25     2     8
  1.3764558095928312E-02 a       834     1    25     2     9
 -4.1021039063981147E-03 a       835     1    25     2    10
 -2.4572241936605564E-03 a       836     1    25     2    11
  3.9092903572447192E-02 a       837     1    25     2    12
 -2.5466624385858262E-02 a       838     1    25     2    13
 -5.7865846883730136E-02 a       839     1    25     2    14
 -7.0075543733599940E-04 a       840     1    25     2    15
  3.9977785531607149E-02 a       841     1    25     2    16
 -4.4297638572432428E-02 a       842     1    25     2    17
  1.0004750799334033E-02 a       843     1    25     2    18
 -4.7785356321609712E-02 a       844     1    25     2    19
 -1.4225838274001415E-02 a       845     1    25     2    20
 -1.7070936497206059E-03 a       846     1    25     2    21
  1.4365489723954712E-03 a       847     1    25     2    22
  2.4134395227714055E-03 a       848     1    25     2    23
  6.4147136640737854E-03 a       849     1    25     2    24
 -2.9929578518393965E-02 a       850     1    25     2    25
 -7.4671477161296934E-02 b       851     2     1
 -1.5993312268405627E-01 b       852     2     2
  5.1543359566385408E-02 b       853     2     3
  1.1189030759744999E-01 b       854     2     4
  2.3234146620472927E-02 b       855     2     5
  3.8341157886002349E-02 b       856     2     6
  5.2472881562954404E-02 b       857     2     7
 -1.1623693741334652E-01 b       858     2     8
  5.4014630971050935E-02 b       859     2     9
  9.6014637032097755E-02 b       860     2    10
  1.5621479154420496E-02 b       861     2    11
  3.5650438026276564E-02 b       862     2    12
  1.6803636506994298E-02 b       863     2    13
 -3.3575218536146874E-02 b       864     2    14
 -4.9011776645461053E-03 b       865     2    15
 -1.1664069366178012E-02 b       866     2    16
 -3.0322081393999591E-02 b       867     2    17
  4.0726219614042193E-02 b       868     2    18
 -3.0494863485193025E-03 b       869     2    19
  3.3424279647726032E-03 b       870     2    20
 -2.4896397506616479E-02 b       871     2    21
  1.3308777948154011E-03 b       872     2    22
  6.0937910336454022E-02 b       873     2    23
  1.6646327982493350E-02 b       874     2    24
  1.0058119258531260E-02 b       875     2    25
 -6.7579190207919693E-01 a       876     2     1     3     1
 -1.1834905164788527E+00 a       877     2     2     3     1
 -7.7147451537396594E-01 a       878     2     3     3     1
 -1.5235398735619479E+00 a       879     2     4     3     1
 -9.7190639463174178E-01 a       880     2     5     3     1
 -5.2411470911808855E-01 a       881     2     6     3     1
  9.5450008074088977E-01 a       882     2     7     3     1
  1.5909269524654219E+00 a       883     2     8     3     1
  5.3901478539799090E-03 a       884     2     9     3     1
 -1.3135774139461256E+00 a       885     2    10     3     1
  8.7659089454806535E-02 a       886     2    11     3     1
  1.0318578777923124E+00 a       887     2    12     3     1
  2.0940602548412879E-01 a       888     2    13     3     1
 -1.0426063579409859E+00 a       889     2    14     3     1
 -1.0840760490891312E-02 a       890     2    15     3     1
 -6.5196667460876334E-01 a       891     2    16     3     1
  1.0242584742577516E+00 a       892     2    17     3     1
  1.8356781438993378E-01 a       893     2    18     3     1
  1.1277882456708062E+00 a       894     2    19     3     1
  1.0382165801386710E-01 a       895     2    20     3     1
 -4.2534265155418971E-02 a       896     2    21     3     1
  1.2071322310701391E+00 a       897     2    22     3     1
 -1.5788570797311092E+00 a       898     2    23     3     1
  1.2431950675654702E+00 a       899     2    24     3     1
 -1.3542484943853164E+00 a       900     2    25     3     1
 -1.8173465486986560E+00 b       901     3     1
