################################################################################
# Neural network connection values (weights and biases).
################################################################################
# Col  Name       Description
################################################################################
# 1    connection Neural network connection value.
# 2    t          Connection type (a = weight, b = bias).
# 3    index      Index enumerating weights.
# 4    l_s        Starting point layer (end point layer for biases).
# 5    n_s        Starting point neuron in starting layer (end point neuron for biases).
# 6    l_e        End point layer.
# 7    n_e        End point neuron in end layer.
################################################################################
#                      1 2         3     4     5     6     7
#             connection t     index   l_s   n_s   l_e   n_e
############################################################
 -2.7178232835554247E-02 a         1     0     1     1     1
 -6.5614086358540921E-02 a         2     0     1     1     2
 -1.6100642687221553E-01 a         3     0     1     1     3
 -8.6363913931741809E-02 a         4     0     1     1     4
  3.7989743890118266E-01 a         5     0     1     1     5
  1.1497995177766028E-01 a         6     0     1     1     6
  9.9718773476055213E-03 a         7     0     1     1     7
 -1.8814702670681790E-02 a         8     0     1     1     8
  1.8639084115563134E-01 a         9     0     1     1     9
  4.6146215914926063E-02 a        10     0     1     1    10
  3.0161106079088501E-01 a        11     0     1     1    11
  4.5312392360214149E-01 a        12     0     1     1    12
 -2.2595954876377672E-01 a        13     0     1     1    13
  4.1688749725461174E-02 a        14     0     1     1    14
 -6.8353458460603589E-02 a        15     0     1     1    15
  1.4671162188965844E-01 a        16     0     1     1    16
  1.1472323892196221E-01 a        17     0     1     1    17
  2.6935215183161837E-01 a        18     0     1     1    18
 -1.1400484599886125E+00 a        19     0     1     1    19
  3.4512761458382607E-01 a        20     0     1     1    20
 -4.7635335186315804E-02 a        21     0     1     1    21
 -5.4364296002410817E-01 a        22     0     1     1    22
  2.8682044801135376E-01 a        23     0     1     1    23
  1.7777855599720011E-01 a        24     0     1     1    24
  3.5226979572969502E-01 a        25     0     1     1    25
  2.2320048728936040E-01 a        26     0     2     1     1
  1.6409495934843470E-02 a        27     0     2     1     2
  9.2436281602118808E-01 a        28     0     2     1     3
  3.2914544351655239E-01 a        29     0     2     1     4
  4.2304673690360761E-01 a        30     0     2     1     5
 -4.0377100534329108E-01 a        31     0     2     1     6
 -1.2149489770979248E-01 a        32     0     2     1     7
  2.7366842403132652E-01 a        33     0     2     1     8
  3.4469194202718267E-01 a        34     0     2     1     9
 -1.9981891170984475E-01 a        35     0     2     1    10
  1.2209946804436513E-01 a        36     0     2     1    11
 -1.5695946783281806E-01 a        37     0     2     1    12
 -1.6343900673174683E-01 a        38     0     2     1    13
  1.9011685789973404E-01 a        39     0     2     1    14
  2.5074678593600280E-01 a        40     0     2     1    15
 -9.3276567199754662E-02 a        41     0     2     1    16
 -2.9794449284149482E-01 a        42     0     2     1    17
 -1.6003159727655447E-01 a        43     0     2     1    18
  2.0273683182412011E-01 a        44     0     2     1    19
 -1.8577550778373442E-01 a        45     0     2     1    20
  6.8580860962953266E-02 a        46     0     2     1    21
 -1.1094818661503836E-01 a        47     0     2     1    22
 -9.7263480612472239E-02 a        48     0     2     1    23
 -8.2124579131423825E-01 a        49     0     2     1    24
 -1.6834396441527621E-01 a        50     0     2     1    25
  4.9819970862015944E-01 a        51     0     3     1     1
  3.4072436184975247E-01 a        52     0     3     1     2
 -3.2859045424347094E-01 a        53     0     3     1     3
 -1.5107338722796249E-01 a        54     0     3     1     4
  4.0186636279302940E-01 a        55     0     3     1     5
 -4.2851867857246029E-01 a        56     0     3     1     6
 -1.9023720749963680E-01 a        57     0     3     1     7
  3.3953807908141231E-01 a        58     0     3     1     8
  1.3454962302895718E-01 a        59     0     3     1     9
  2.8290262373598674E-01 a        60     0     3     1    10
 -1.9295974844437687E-02 a        61     0     3     1    11
  8.1995301016299274E-02 a        62     0     3     1    12
 -2.1685012336415840E-01 a        63     0     3     1    13
 -3.1450667337176924E-01 a        64     0     3     1    14
 -4.5066857561288066E-02 a        65     0     3     1    15
 -1.7860235134484873E-02 a        66     0     3     1    16
  2.8880045373681401E-01 a        67     0     3     1    17
  2.2578840756774785E-01 a        68     0     3     1    18
 -1.5732354619386535E-01 a        69     0     3     1    19
 -3.4838677592067563E-01 a        70     0     3     1    20
  1.0042009095538861E-01 a        71     0     3     1    21
 -1.0053908979758240E-01 a        72     0     3     1    22
 -1.9677840265298857E-01 a        73     0     3     1    23
 -1.7124657541682281E-01 a        74     0     3     1    24
  4.3072788205538376E-01 a        75     0     3     1    25
  3.6863057379392494E-01 a        76     0     4     1     1
 -4.4060061495064573E-01 a        77     0     4     1     2
 -1.1180062631348010E-01 a        78     0     4     1     3
 -2.7446951145428777E-01 a        79     0     4     1     4
 -5.9934709278149810E-03 a        80     0     4     1     5
 -2.3839770972354990E-01 a        81     0     4     1     6
  1.1086978480622348E-01 a        82     0     4     1     7
 -1.6168143495047613E-01 a        83     0     4     1     8
 -2.5040748630632842E-01 a        84     0     4     1     9
 -4.7507855703261481E-01 a        85     0     4     1    10
  3.7724530820863474E-02 a        86     0     4     1    11
  3.2556827009672601E-01 a        87     0     4     1    12
  1.2971149199072399E-01 a        88     0     4     1    13
  7.7042399210363627E-02 a        89     0     4     1    14
 -4.3262658909927831E-01 a        90     0     4     1    15
  1.5983024586158201E-01 a        91     0     4     1    16
  2.7681020026135783E-01 a        92     0     4     1    17
  1.9781642044969936E-02 a        93     0     4     1    18
  4.1126912111379338E-01 a        94     0     4     1    19
  3.8805945394708330E-01 a        95     0     4     1    20
 -3.8056632458724843E-01 a        96     0     4     1    21
 -1.8229879740748342E-01 a        97     0     4     1    22
 -1.7146660868322276E-02 a        98     0     4     1    23
 -1.1824279145499696E-02 a        99     0     4     1    24
  3.8337609988788945E-01 a       100     0     4     1    25
 -2.2580851706602073E-01 a       101     0     5     1     1
 -2.1368718439129666E-01 a       102     0     5     1     2
  1.3141981961603568E-02 a       103     0     5     1     3
  4.5429840958274063E-02 a       104     0     5     1     4
 -2.5895672786686869E-01 a       105     0     5     1     5
 -1.2817682653856372E-02 a       106     0     5     1     6
 -6.2989575807374243E-01 a       107     0     5     1     7
  3.6675853027266647E-01 a       108     0     5     1     8
 -7.2766306915974532E-01 a       109     0     5     1     9
  2.0147658914745251E-01 a       110     0     5     1    10
  4.7396679798101760E-01 a       111     0     5     1    11
  3.0033123594990641E-01 a       112     0     5     1    12
 -5.5280834831119001E-02 a       113     0     5     1    13
 -1.2960369193119131E-01 a       114     0     5     1    14
  1.7974481389732933E-01 a       115     0     5     1    15
 -1.5200144432313045E-01 a       116     0     5     1    16
  1.0311618195724163E-01 a       117     0     5     1    17
  6.9360719698636319E-01 a       118     0     5     1    18
 -1.1111844349459607E-01 a       119     0     5     1    19
 -3.9742238622142062E-01 a       120     0     5     1    20
  5.3995175709502474E-01 a       121     0     5     1    21
 -4.3146960084556474E-03 a       122     0     5     1    22
  5.2995263639221538E-02 a       123     0     5     1    23
 -2.8055499724438121E-01 a       124     0     5     1    24
 -1.0560357799864644E-02 a       125     0     5     1    25
 -1.0787973746616707E-01 a       126     0     6     1     1
  4.1138721930036502E-02 a       127     0     6     1     2
  4.8827478299516452E-01 a       128     0     6     1     3
 -2.4507380089448810E-01 a       129     0     6     1     4
  1.9681089759626383E-01 a       130     0     6     1     5
  4.3826176831197500E-01 a       131     0     6     1     6
  3.5832514226300738E-01 a       132     0     6     1     7
  4.3627021342524880E-01 a       133     0     6     1     8
 -5.5395440950992969E-02 a       134     0     6     1     9
 -2.0011356557592852E-01 a       135     0     6     1    10
 -3.3733785117270931E-01 a       136     0     6     1    11
  2.9489417989661904E-01 a       137     0     6     1    12
  1.8260658797534876E-01 a       138     0     6     1    13
 -1.0861437927799762E-01 a       139     0     6     1    14
 -3.5199419232977819E-01 a       140     0     6     1    15
  1.0289892628959980E-01 a       141     0     6     1    16
  3.9430021170208940E-02 a       142     0     6     1    17
 -1.6371119167287237E-01 a       143     0     6     1    18
 -3.6357012976485248E-01 a       144     0     6     1    19
  3.7042538209506252E-02 a       145     0     6     1    20
  1.0786143745430923E-01 a       146     0     6     1    21
 -8.9778434098276520E-03 a       147     0     6     1    22
 -2.5932544228619936E-01 a       148     0     6     1    23
 -4.5557329291385285E-02 a       149     0     6     1    24
 -1.6791045618191963E-01 a       150     0     6     1    25
  5.0946125931303887E-01 a       151     0     7     1     1
 -5.0107106636892251E-01 a       152     0     7     1     2
 -1.3447995501478038E-01 a       153     0     7     1     3
 -4.1344087931376222E-01 a       154     0     7     1     4
 -1.0604271706572280E-01 a       155     0     7     1     5
  4.3931333196364407E-02 a       156     0     7     1     6
  3.1091389151492344E-01 a       157     0     7     1     7
 -5.2911797168176011E-01 a       158     0     7     1     8
 -3.4513906719189380E-01 a       159     0     7     1     9
 -2.8877399151448685E-01 a       160     0     7     1    10
 -1.5166435986362231E-01 a       161     0     7     1    11
 -2.6583629605884079E-01 a       162     0     7     1    12
  1.5543868149834036E-01 a       163     0     7     1    13
 -1.4525387044144397E-01 a       164     0     7     1    14
 -1.3501241364937230E-02 a       165     0     7     1    15
  2.0817400269994712E-01 a       166     0     7     1    16
  1.5501162323423542E-01 a       167     0     7     1    17
 -5.2292063443144665E-01 a       168     0     7     1    18
 -3.7971879247710061E-01 a       169     0     7     1    19
  2.7165868149044853E-01 a       170     0     7     1    20
 -3.6527934675065582E-01 a       171     0     7     1    21
 -2.3365723039108766E-01 a       172     0     7     1    22
 -1.0472937285293650E-01 a       173     0     7     1    23
 -9.3976937958384008E-02 a       174     0     7     1    24
 -1.1555134723147545E-02 a       175     0     7     1    25
  1.4755916864544405E-01 a       176     0     8     1     1
 -9.5168734714086392E-02 a       177     0     8     1     2
 -7.4578233285920434E-02 a       178     0     8     1     3
  5.2565898505423392E-01 a       179     0     8     1     4
  1.8823500879658246E-02 a       180     0     8     1     5
 -1.7149760759171112E-01 a       181     0     8     1     6
 -9.8366363671421556E-02 a       182     0     8     1     7
 -9.8173675183811981E-02 a       183     0     8     1     8
 -7.9881700442626002E-01 a       184     0     8     1     9
 -1.1543154435456568E-01 a       185     0     8     1    10
 -8.9374743134540988E-04 a       186     0     8     1    11
 -1.7012619989512337E-01 a       187     0     8     1    12
 -4.0138874843379424E-01 a       188     0     8     1    13
 -7.3095342219178377E-02 a       189     0     8     1    14
 -4.2217178621722529E-01 a       190     0     8     1    15
  2.9604138355467680E-01 a       191     0     8     1    16
  1.2994986448871459E-01 a       192     0     8     1    17
  7.6064916471182453E-01 a       193     0     8     1    18
  1.1874187309460892E-01 a       194     0     8     1    19
 -2.1130072078279322E-01 a       195     0     8     1    20
  1.7099547052320554E-01 a       196     0     8     1    21
 -1.4049125358686101E-01 a       197     0     8     1    22
 -1.5488321291249202E-01 a       198     0     8     1    23
 -1.2404186824732422E-01 a       199     0     8     1    24
 -3.2098823875488341E-01 a       200     0     8     1    25
  3.4994428727430676E-01 a       201     0     9     1     1
 -1.1089249290349561E-01 a       202     0     9     1     2
 -1.3385222769366883E-01 a       203     0     9     1     3
 -1.0401712934029908E-01 a       204     0     9     1     4
  1.4713937640608135E-01 a       205     0     9     1     5
  8.1021127613412666E-02 a       206     0     9     1     6
 -2.3952034830029831E-01 a       207     0     9     1     7
  3.2694187264310925E-01 a       208     0     9     1     8
  4.3441007717117175E-01 a       209     0     9     1     9
 -4.1806974890872195E-01 a       210     0     9     1    10
 -3.9982397760515559E-01 a       211     0     9     1    11
 -4.6147981823520728E-01 a       212     0     9     1    12
 -2.2560578858399941E-01 a       213     0     9     1    13
 -9.3278092132025103E-01 a       214     0     9     1    14
 -4.7834744201935127E-02 a       215     0     9     1    15
  5.7287079118567985E-01 a       216     0     9     1    16
 -7.4101514839381766E-02 a       217     0     9     1    17
  6.0920815461564214E-02 a       218     0     9     1    18
  5.6018040296027283E-01 a       219     0     9     1    19
  4.2647845065820733E-01 a       220     0     9     1    20
  2.2333983775565824E-01 a       221     0     9     1    21
  6.7797215244614170E-02 a       222     0     9     1    22
  7.5850489299888213E-01 a       223     0     9     1    23
 -1.4802330740435413E-02 a       224     0     9     1    24
  3.4739762233250659E-01 a       225     0     9     1    25
  1.4128911189056251E-01 a       226     0    10     1     1
 -1.8756232981037604E-01 a       227     0    10     1     2
  4.3979083439541372E-01 a       228     0    10     1     3
 -2.7736914612882879E-01 a       229     0    10     1     4
  1.3888174848202287E-01 a       230     0    10     1     5
 -3.1062107827361801E-01 a       231     0    10     1     6
 -6.9327908595991264E-02 a       232     0    10     1     7
  2.3787049119788389E-01 a       233     0    10     1     8
  3.7872306170786590E-01 a       234     0    10     1     9
  2.6852220077727612E-01 a       235     0    10     1    10
 -2.2301168093322526E-01 a       236     0    10     1    11
  4.6777005077207207E-01 a       237     0    10     1    12
  5.7944903711412143E-02 a       238     0    10     1    13
 -3.5686168515177985E-01 a       239     0    10     1    14
 -3.9410508922720222E-01 a       240     0    10     1    15
 -1.6427947579785576E+00 a       241     0    10     1    16
  1.3577712886233988E+00 a       242     0    10     1    17
  8.4868222331558685E-01 a       243     0    10     1    18
  1.2295260950693701E+00 a       244     0    10     1    19
 -4.0846532471298996E-01 a       245     0    10     1    20
 -5.4670905437642199E-02 a       246     0    10     1    21
 -7.9024430169955651E-01 a       247     0    10     1    22
 -7.5100985830601659E-03 a       248     0    10     1    23
  1.0695852102465122E+00 a       249     0    10     1    24
  2.1207693745536918E-01 a       250     0    10     1    25
 -8.6361501211712077E-01 a       251     0    11     1     1
  2.2584596957076916E-01 a       252     0    11     1     2
 -1.2584748659554905E+00 a       253     0    11     1     3
 -5.8720049960651577E-01 a       254     0    11     1     4
  2.5285625892626229E-02 a       255     0    11     1     5
  5.1043558564768410E-01 a       256     0    11     1     6
 -1.5287545348696163E-01 a       257     0    11     1     7
  6.5623396848548510E-01 a       258     0    11     1     8
 -3.8191084232536904E-01 a       259     0    11     1     9
  6.3857107423945680E-01 a       260     0    11     1    10
  7.3903745266634835E-01 a       261     0    11     1    11
  2.5502441318599750E-01 a       262     0    11     1    12
 -4.7180463341207934E-01 a       263     0    11     1    13
 -1.2249808237004174E-01 a       264     0    11     1    14
 -5.5845021333249212E-01 a       265     0    11     1    15
  7.9049598744003260E-02 a       266     0    11     1    16
  6.1872256544717119E-01 a       267     0    11     1    17
  6.8563433858540290E-01 a       268     0    11     1    18
  1.8865842437705374E-01 a       269     0    11     1    19
 -7.6178989635641536E-01 a       270     0    11     1    20
 -1.7475541574576123E-01 a       271     0    11     1    21
  1.5639743597605993E-01 a       272     0    11     1    22
 -2.4427744979381460E-01 a       273     0    11     1    23
 -2.4442301877417988E-01 a       274     0    11     1    24
  3.8305263674814544E-01 a       275     0    11     1    25
 -1.3417352153859540E-02 a       276     0    12     1     1
 -2.5659120190441154E-01 a       277     0    12     1     2
  4.7087852108398154E-01 a       278     0    12     1     3
 -1.5205812481094681E-02 a       279     0    12     1     4
  3.4021341389504167E-01 a       280     0    12     1     5
 -3.3375796371315991E-01 a       281     0    12     1     6
 -9.3304533816394114E-02 a       282     0    12     1     7
 -3.9748642193307437E-01 a       283     0    12     1     8
 -8.8720755604776991E-02 a       284     0    12     1     9
  2.3462994050476188E-01 a       285     0    12     1    10
  1.3608324081302270E-01 a       286     0    12     1    11
  7.0919123154614272E-01 a       287     0    12     1    12
 -2.4290355519550660E-01 a       288     0    12     1    13
  6.2665369246435654E-01 a       289     0    12     1    14
 -1.9659881893720954E-01 a       290     0    12     1    15
 -6.5850868820394060E-01 a       291     0    12     1    16
 -6.2425736922578656E-01 a       292     0    12     1    17
  6.1677383359896998E-01 a       293     0    12     1    18
  7.3770100254626125E-01 a       294     0    12     1    19
  1.2202998970293540E-01 a       295     0    12     1    20
  2.4881914192045482E-01 a       296     0    12     1    21
 -6.5822468112088561E-01 a       297     0    12     1    22
 -3.3003223602259496E-01 a       298     0    12     1    23
 -2.2980499627562589E-01 a       299     0    12     1    24
  3.3667040418523930E-01 a       300     0    12     1    25
 -7.3526883769077497E-02 a       301     0    13     1     1
  2.0062413277717978E-01 a       302     0    13     1     2
  6.2340392508933105E-02 a       303     0    13     1     3
  2.1802853135314992E-01 a       304     0    13     1     4
 -3.0413624187065600E-03 a       305     0    13     1     5
 -4.8801529656603261E-02 a       306     0    13     1     6
  6.7297327117282618E-02 a       307     0    13     1     7
 -1.6150396741759385E-01 a       308     0    13     1     8
 -7.3741453830098488E-02 a       309     0    13     1     9
  2.3930728803958490E-04 a       310     0    13     1    10
 -5.8047259552195737E-02 a       311     0    13     1    11
  2.0196807383854203E-02 a       312     0    13     1    12
  1.6243422282415751E-02 a       313     0    13     1    13
  1.3942528966071646E-01 a       314     0    13     1    14
 -1.1007842322615020E-02 a       315     0    13     1    15
  3.2055746191636864E-01 a       316     0    13     1    16
  2.2777089844424223E-01 a       317     0    13     1    17
 -8.2067053068760998E-02 a       318     0    13     1    18
 -2.0872941783169924E-01 a       319     0    13     1    19
 -2.7577825000028050E-01 a       320     0    13     1    20
 -2.6912888476571389E-01 a       321     0    13     1    21
 -8.7008194691327645E-02 a       322     0    13     1    22
  9.0542676195257937E-02 a       323     0    13     1    23
 -2.3384877009004626E-01 a       324     0    13     1    24
  2.3045074454601902E-01 a       325     0    13     1    25
 -3.9904887013407114E-01 a       326     0    14     1     1
 -5.3575101323089203E-01 a       327     0    14     1     2
  5.5808050642439017E-02 a       328     0    14     1     3
  5.0121915162347064E-01 a       329     0    14     1     4
 -2.7511410607056353E-02 a       330     0    14     1     5
 -5.9195713156960206E-01 a       331     0    14     1     6
  3.1006568120092598E-01 a       332     0    14     1     7
 -4.4099595467005630E-03 a       333     0    14     1     8
  2.5241837979412807E-01 a       334     0    14     1     9
 -1.1586016092120108E-02 a       335     0    14     1    10
 -1.6328148780186996E-01 a       336     0    14     1    11
 -2.6947099930969620E-01 a       337     0    14     1    12
  1.7579044150954437E-01 a       338     0    14     1    13
 -2.4393577932845611E-01 a       339     0    14     1    14
  5.4977621654397313E-01 a       340     0    14     1    15
 -6.8268962851149612E-02 a       341     0    14     1    16
 -1.7395612143764666E-01 a       342     0    14     1    17
  1.1932889792755408E-01 a       343     0    14     1    18
 -6.9961937634463386E-02 a       344     0    14     1    19
  4.7769806947588933E-01 a       345     0    14     1    20
  2.6953470650767408E-01 a       346     0    14     1    21
 -5.3167520896244436E-01 a       347     0    14     1    22
  3.6592149979257693E-01 a       348     0    14     1    23
 -2.3105831259991469E-01 a       349     0    14     1    24
  5.5328675934954374E-01 a       350     0    14     1    25
  3.0005369112702851E-01 a       351     0    15     1     1
  2.2309778033907238E-01 a       352     0    15     1     2
 -9.6136835813323954E-02 a       353     0    15     1     3
  6.5995071838217706E-02 a       354     0    15     1     4
 -4.3278535420430064E-01 a       355     0    15     1     5
 -8.0262807802838809E-01 a       356     0    15     1     6
  8.2932067485941496E-01 a       357     0    15     1     7
  3.0764956977334618E-01 a       358     0    15     1     8
  6.9546210499193850E-01 a       359     0    15     1     9
 -1.9667840428739816E-01 a       360     0    15     1    10
  4.0688780437091088E-01 a       361     0    15     1    11
  7.4895876535260558E-02 a       362     0    15     1    12
  6.4837754549889026E-01 a       363     0    15     1    13
 -2.1427004961365975E-01 a       364     0    15     1    14
  3.7412435391015672E-02 a       365     0    15     1    15
  4.9115398737494764E-01 a       366     0    15     1    16
 -3.1343504757299934E-01 a       367     0    15     1    17
  1.0649398944179057E-02 a       368     0    15     1    18
 -4.4471397037500221E-01 a       369     0    15     1    19
 -1.3698370061708309E-01 a       370     0    15     1    20
  2.2653398514107204E-01 a       371     0    15     1    21
  5.3495912866767893E-02 a       372     0    15     1    22
  3.5810964832316783E-01 a       373     0    15     1    23
  1.1452387608559878E-03 a       374     0    15     1    24
  3.4219876379709452E-01 a       375     0    15     1    25
 -5.8313604144875664E-01 a       376     0    16     1     1
  3.8566949030869335E-01 a       377     0    16     1     2
 -1.9523658409737529E-01 a       378     0    16     1     3
  3.0270406387717824E-01 a       379     0    16     1     4
 -3.2012801706443655E-01 a       380     0    16     1     5
 -7.5406797982507956E-01 a       381     0    16     1     6
 -1.0645067485861229E-01 a       382     0    16     1     7
  3.2235953237215548E-01 a       383     0    16     1     8
  8.1492043172192030E-01 a       384     0    16     1     9
  3.3665552039838048E-01 a       385     0    16     1    10
  6.1178037464926283E-01 a       386     0    16     1    11
 -7.0949677465293204E-01 a       387     0    16     1    12
 -7.4190558067403811E-01 a       388     0    16     1    13
 -5.4576429186024011E-01 a       389     0    16     1    14
  5.6637940479029214E-01 a       390     0    16     1    15
 -2.9295167521492604E-01 a       391     0    16     1    16
  3.3917590009101245E-01 a       392     0    16     1    17
  2.7646761700214145E-01 a       393     0    16     1    18
  6.7521117796534320E-03 a       394     0    16     1    19
  2.2041527981817763E-01 a       395     0    16     1    20
  3.9506232368089866E-01 a       396     0    16     1    21
 -1.5177279592372217E-01 a       397     0    16     1    22
  1.2589497073842734E-01 a       398     0    16     1    23
 -1.6118892388393294E-01 a       399     0    16     1    24
 -9.1796818756816195E-02 a       400     0    16     1    25
 -3.0736208641293405E-01 b       401     1     1
  3.3762405275366553E-01 b       402     1     2
  3.9067749382300576E-01 b       403     1     3
  6.3351203610802420E-01 b       404     1     4
  6.5742747152557501E-01 b       405     1     5
  1.9406588627564883E-01 b       406     1     6
 -2.7547367308039572E-01 b       407     1     7
  5.9410255136500023E-01 b       408     1     8
 -1.7120381718129454E-01 b       409     1     9
  4.5782525694216292E-01 b       410     1    10
  2.4769188995884339E-01 b       411     1    11
  2.1262998483751031E-01 b       412     1    12
 -2.4127362832820787E-01 b       413     1    13
 -2.5091298596402339E-01 b       414     1    14
 -5.5768960918420385E-01 b       415     1    15
  2.5092512244422716E-01 b       416     1    16
  1.3624114303803894E-01 b       417     1    17
  4.9644934727081236E-01 b       418     1    18
  9.1226888475957357E-01 b       419     1    19
 -3.4146322145033076E-01 b       420     1    20
 -4.2076883486752847E-01 b       421     1    21
 -8.4286114129730930E-02 b       422     1    22
  6.3118791979267197E-01 b       423     1    23
  7.8392515524220011E-02 b       424     1    24
  5.8597081468212009E-01 b       425     1    25
 -2.3927109639980729E-01 a       426     1     1     2     1
  3.3531815788101021E-01 a       427     1     1     2     2
  6.8139833024443319E-02 a       428     1     1     2     3
  1.8282025742799463E-01 a       429     1     1     2     4
 -2.1650344131207968E-03 a       430     1     1     2     5
  4.5417194929768895E-01 a       431     1     1     2     6
  3.1980294362422224E-02 a       432     1     1     2     7
  2.8067608935828992E-01 a       433     1     1     2     8
  4.8598092000225701E-01 a       434     1     1     2     9
  2.3044363083352190E-01 a       435     1     1     2    10
  1.6108568014198860E-01 a       436     1     1     2    11
  1.1729517915328896E-01 a       437     1     1     2    12
  8.8635066145525118E-02 a       438     1     1     2    13
 -9.9493436017859857E-02 a       439     1     1     2    14
 -1.2171390620536088E-02 a       440     1     1     2    15
  9.5587091783865055E-02 a       441     1     1     2    16
 -1.5176216035880163E-01 a       442     1     1     2    17
 -9.7026181594558225E-02 a       443     1     1     2    18
 -4.8175264099236982E-02 a       444     1     1     2    19
 -1.4784227032114380E-01 a       445     1     1     2    20
 -4.4906864297889017E-02 a       446     1     1     2    21
  2.4766183654586751E-01 a       447     1     1     2    22
 -4.3096328024018316E-01 a       448     1     1     2    23
  2.8574659910800840E-02 a       449     1     1     2    24
  1.1366367465883163E-01 a       450     1     1     2    25
 -1.9277113897344357E-02 a       451     1     2     2     1
 -5.7678335187278318E-01 a       452     1     2     2     2
 -2.3544515034264862E-01 a       453     1     2     2     3
  1.4594454807184959E-01 a       454     1     2     2     4
  4.2725083426276211E-01 a       455     1     2     2     5
  3.0188531378688512E-02 a       456     1     2     2     6
  4.4589769984602962E-01 a       457     1     2     2     7
 -1.2601547230208560E-01 a       458     1     2     2     8
 -4.0900386674684636E-01 a       459     1     2     2     9
 -4.0022730273326307E-01 a       460     1     2     2    10
  3.9804578100273914E-02 a       461     1     2     2    11
  5.2819232140294592E-01 a       462     1     2     2    12
  7.0311924813039073E-01 a       463     1     2     2    13
  4.7502787459337337E-02 a       464     1     2     2    14
 -2.4295641698624776E-01 a       465     1     2     2    15
 -2.8789976110159798E-01 a       466     1     2     2    16
 -4.3798862349653395E-01 a       467     1     2     2    17
 -8.5251822305494052E-02 a       468     1     2     2    18
  9.5528525935750522E-02 a       469     1     2     2    19
 -3.8068423095373677E-01 a       470     1     2     2    20
  3.4683005443794734E-01 a       471     1     2     2    21
 -9.1407253343977590E-02 a       472     1     2     2    22
 -8.3283174381149114E-02 a       473     1     2     2    23
 -4.3359732361936032E-01 a       474     1     2     2    24
  2.9327543971710963E-02 a       475     1     2     2    25
 -3.4239008223826400E-01 a       476     1     3     2     1
 -2.3275316099253065E-02 a       477     1     3     2     2
  4.5185682009188310E-01 a       478     1     3     2     3
 -9.0758435121179315E-02 a       479     1     3     2     4
  7.4662152368898560E-01 a       480     1     3     2     5
 -4.4420457037023353E-01 a       481     1     3     2     6
  4.7426567005094428E-01 a       482     1     3     2     7
 -1.7317725208236565E+00 a       483     1     3     2     8
  4.9362227868009961E-01 a       484     1     3     2     9
 -9.0406944765640562E-01 a       485     1     3     2    10
 -7.4437594549889818E-01 a       486     1     3     2    11
 -1.0298197985242008E+00 a       487     1     3     2    12
  8.2626023261665937E-01 a       488     1     3     2    13
  7.7051459295474201E-01 a       489     1     3     2    14
  7.3053990288874437E-01 a       490     1     3     2    15
  5.7248688138626591E-01 a       491     1     3     2    16
 -1.3452766190615351E+00 a       492     1     3     2    17
 -6.4108227896342496E-01 a       493     1     3     2    18
 -1.1884544977780940E+00 a       494     1     3     2    19
  8.2002940997300253E-02 a       495     1     3     2    20
  1.3532784452391518E+00 a       496     1     3     2    21
 -2.2426993102585757E+00 a       497     1     3     2    22
  2.4175213830595763E+00 a       498     1     3     2    23
 -1.8149583103464022E+00 a       499     1     3     2    24
  2.2426427229970818E+00 a       500     1     3     2    25
  2.2881475472629176E+00 a       501     1     4     2     1
  1.5777695954085096E+00 a       502     1     4     2     2
 -1.4116043300427845E+00 a       503     1     4     2     3
 -1.9450388947660555E+00 a       504     1     4     2     4
 -2.0005015832522974E+00 a       505     1     4     2     5
 -1.4535601765533332E+00 a       506     1     4     2     6
  2.3826086626385110E+00 a       507     1     4     2     7
  2.2303885553233984E+00 a       508     1     4     2     8
  1.6215067439424056E+00 a       509     1     4     2     9
 -1.7543589424602730E+00 a       510     1     4     2    10
 -2.8380192175776791E+00 a       511     1     4     2    11
  2.5056381007696575E-02 a       512     1     4     2    12
 -4.8395417141575650E-02 a       513     1     4     2    13
 -4.1025304814841505E-02 a       514     1     4     2    14
 -1.2442666074217180E-01 a       515     1     4     2    15
 -5.3168439999423597E-02 a       516     1     4     2    16
  2.5885044099059229E-02 a       517     1     4     2    17
  6.5858501167938968E-02 a       518     1     4     2    18
  2.6135094458130614E-02 a       519     1     4     2    19
  5.4264447567389892E-02 a       520     1     4     2    20
 -3.4974908969062496E-02 a       521     1     4     2    21
  6.7820564315133045E-02 a       522     1     4     2    22
 -3.0825018871217878E-02 a       523     1     4     2    23
  3.1843847228613893E-02 a       524     1     4     2    24
 -5.5882543977378213E-02 a       525     1     4     2    25
  1.6255267310964643E-02 a       526     1     5     2     1
  1.2406054505349057E-03 a       527     1     5     2     2
  3.1240018208041925E-02 a       528     1     5     2     3
  4.5751894785255563E-03 a       529     1     5     2     4
  8.2202334415285069E-03 a       530     1     5     2     5
  2.5242168147933251E-02 a       531     1     5     2     6
  2.1439277406689959E-02 a       532     1     5     2     7
 -4.3235374286684870E-02 a       533     1     5     2     8
  2.4256525401823267E-02 a       534     1     5     2     9
  7.0261782945903869E-03 a       535     1     5     2    10
 -8.3355111653817919E-03 a       536     1     5     2    11
  2.3914452859646624E-02 a       537     1     5     2    12
 -3.4181049218169259E-02 a       538     1     5     2    13
 -6.6786058775398810E-02 a       539     1     5     2    14
 -5.8760095641021796E-02 a       540     1     5     2    15
 -5.4560826846431869E-02 a       541     1     5     2    16
  2.0422644661157625E-02 a       542     1     5     2    17
  6.8092511502842984E-02 a       543     1     5     2    18
 -2.2340577379327394E-03 a       544     1     5     2    19
  3.6922305473958417E-02 a       545     1     5     2    20
 -2.6442467605139141E-02 a       546     1     5     2    21
  3.2138629719821211E-02 a       547     1     5     2    22
 -3.0873819905255187E-02 a       548     1     5     2    23
  2.6656545396193512E-02 a       549     1     5     2    24
 -1.2981389345389423E-02 a       550     1     5     2    25
 -1.5840604569238895E-01 a       551     1     6     2     1
 -1.2517146619815117E-02 a       552     1     6     2     2
  3.2855869911103112E-02 a       553     1     6     2     3
  6.5575348899695171E-02 a       554     1     6     2     4
 -2.4326454625299702E-02 a       555     1     6     2     5
 -3.3394290579030747E-02 a       556     1     6     2     6
  4.5263811557930356E-02 a       557     1     6     2     7
 -7.2108754344497136E-02 a       558     1     6     2     8
  1.1040067864755816E-02 a       559     1     6     2     9
 -6.7445649959450668E-02 a       560     1     6     2    10
 -9.3387786318618032E-03 a       561     1     6     2    11
  3.0738343548520643E-02 a       562     1     6     2    12
 -1.2809600146325389E-01 a       563     1     6     2    13
 -1.5742249636162647E-02 a       564     1     6     2    14
 -4.0862450590962301E-02 a       565     1     6     2    15
 -3.0237464000679844E-02 a       566     1     6     2    16
  2.4614475507104255E-02 a       567     1     6     2    17
  7.0344234008560561E-02 a       568     1     6     2    18
  4.0589012287649322E-02 a       569     1     6     2    19
  4.1601513446385165E-02 a       570     1     6     2    20
 -6.3960635558100498E-02 a       571     1     6     2    21
  3.4803967569783850E-02 a       572     1     6     2    22
 -1.1958297581869945E-01 a       573     1     6     2    23
 -6.0181839524087446E-03 a       574     1     6     2    24
  8.4557002081075069E-02 a       575     1     6     2    25
  4.7238031641145067E-02 a       576     1     7     2     1
  3.1986127669514024E-02 a       577     1     7     2     2
 -6.0289735867044988E-02 a       578     1     7     2     3
 -3.2696952927623100E-03 a       579     1     7     2     4
 -3.0120649827319875E-02 a       580     1     7     2     5
 -4.6353661674017041E-02 a       581     1     7     2     6
 -4.4400120313473511E-03 a       582     1     7     2     7
 -2.0150597525269280E-03 a       583     1     7     2     8
  2.2916318371495280E-02 a       584     1     7     2     9
 -6.3514373119788498E-02 a       585     1     7     2    10
 -1.8668485386179962E-02 a       586     1     7     2    11
 -3.0577107386968796E-02 a       587     1     7     2    12
  4.1422422557051940E-02 a       588     1     7     2    13
  1.1120427377367838E-01 a       589     1     7     2    14
 -4.8325764444028894E-03 a       590     1     7     2    15
  7.6452829373113262E-02 a       591     1     7     2    16
 -3.1784046583206667E-02 a       592     1     7     2    17
 -1.1094505499094512E-01 a       593     1     7     2    18
 -7.4179846669687036E-02 a       594     1     7     2    19
 -2.5733358788456142E-02 a       595     1     7     2    20
  4.7495114400997532E-02 a       596     1     7     2    21
 -9.5633180628571540E-02 a       597     1     7     2    22
  1.2382358783527259E-01 a       598     1     7     2    23
 -6.6316640209454589E-02 a       599     1     7     2    24
  9.0732370056121253E-02 a       600     1     7     2    25
 -1.3025424941924885E-01 a       601     1     8     2     1
  2.4381015963439907E-02 a       602     1     8     2     2
 -6.2871493010321008E-02 a       603     1     8     2     3
  8.3698284914871107E-03 a       604     1     8     2     4
 -6.7991929986167723E-02 a       605     1     8     2     5
  2.5963355843855975E-02 a       606     1     8     2     6
 -4.7539197803639764E-02 a       607     1     8     2     7
  1.7983579158681490E-01 a       608     1     8     2     8
  7.2912866741368140E-02 a       609     1     8     2     9
  2.1263575159173276E-01 a       610     1     8     2    10
  7.8885432723597868E-02 a       611     1     8     2    11
  3.2322361998676351E-02 a       612     1     8     2    12
  4.1941301640295227E-02 a       613     1     8     2    13
 -1.4452608566579624E-02 a       614     1     8     2    14
 -4.1975040032270948E-02 a       615     1     8     2    15
 -2.6149359920443767E-02 a       616     1     8     2    16
  1.4787077634712742E-02 a       617     1     8     2    17
 -1.1527726031871669E-02 a       618     1     8     2    18
 -8.6495807671110633E-02 a       619     1     8     2    19
  2.6616770172165319E-03 a       620     1     8     2    20
  2.1582663873187188E-02 a       621     1     8     2    21
  2.5213578233206531E-02 a       622     1     8     2    22
 -2.5694355284574786E-02 a       623     1     8     2    23
  8.2051567900998934E-02 a       624     1     8     2    24
  3.9924089726086139E-02 a       625     1     8     2    25
  2.5586011219495438E-02 a       626     1     9     2     1
  5.1785271717697007E-02 a       627     1     9     2     2
  8.5882551637780288E-02 a       628     1     9     2     3
 -3.5468052792913207E-02 a       629     1     9     2     4
 -3.6555123913982683E-02 a       630     1     9     2     5
 -6.7382977362072188E-02 a       631     1     9     2     6
 -3.7257572098827442E-02 a       632     1     9     2     7
 -3.0348099832538233E-02 a       633     1     9     2     8
  2.0388534850337373E-02 a       634     1     9     2     9
  1.7078663231679808E-02 a       635     1     9     2    10
 -3.1017431574194738E-03 a       636     1     9     2    11
 -6.0731609428758181E-02 a       637     1     9     2    12
 -9.4700994613864629E-03 a       638     1     9     2    13
  7.7992314160649336E-03 a       639     1     9     2    14
  3.3563863663221241E-02 a       640     1     9     2    15
  1.3083114624314971E-02 a       641     1     9     2    16
  8.3165089564171957E-02 a       642     1     9     2    17
 -7.4562229087514392E-02 a       643     1     9     2    18
  4.3381181738377621E-02 a       644     1     9     2    19
 -5.0797753807010501E-02 a       645     1     9     2    20
 -4.5557971504552569E-02 a       646     1     9     2    21
 -4.2029060458172028E-02 a       647     1     9     2    22
  9.7872124411456748E-02 a       648     1     9     2    23
 -8.4857302166727266E-02 a       649     1     9     2    24
  4.5325368694245714E-02 a       650     1     9     2    25
 -1.1414395436727950E-01 a       651     1    10     2     1
 -4.1783647126783709E-02 a       652     1    10     2     2
 -2.7178126027132639E-03 a       653     1    10     2     3
  4.6434250795329625E-02 a       654     1    10     2     4
  4.9679833838922507E-02 a       655     1    10     2     5
  4.8251948642056182E-02 a       656     1    10     2     6
  1.2423332580646321E-02 a       657     1    10     2     7
 -1.7904511771653797E-01 a       658     1    10     2     8
 -3.9960843934620578E-02 a       659     1    10     2     9
  3.7636031012494631E-02 a       660     1    10     2    10
  2.5832488405965574E-02 a       661     1    10     2    11
  3.8107336420077418E-03 a       662     1    10     2    12
 -1.0567343833421778E-02 a       663     1    10     2    13
 -7.7166759828137921E-02 a       664     1    10     2    14
  5.8251101051201612E-02 a       665     1    10     2    15
 -7.0792151295445943E-02 a       666     1    10     2    16
  1.8188740290932504E-03 a       667     1    10     2    17
  4.0090516414994677E-02 a       668     1    10     2    18
  5.1501165111729912E-02 a       669     1    10     2    19
  2.6682724435949805E-02 a       670     1    10     2    20
  3.9824674967766822E-02 a       671     1    10     2    21
  8.9605487702035816E-02 a       672     1    10     2    22
 -3.5134268812972387E-02 a       673     1    10     2    23
 -6.6564886875444762E-02 a       674     1    10     2    24
  4.9288920857329444E-02 a       675     1    10     2    25
  5.2548588092529533E-02 a       676     1    11     2     1
  6.7953539576979638E-02 a       677     1    11     2     2
 -2.2427648664033778E-03 a       678     1    11     2     3
 -3.2183133469204053E-02 a       679     1    11     2     4
 -9.6182997610747945E-02 a       680     1    11     2     5
 -1.1623103691484551E-02 a       681     1    11     2     6
 -2.9399218118569739E-02 a       682     1    11     2     7
  6.7750840467655461E-03 a       683     1    11     2     8
  5.8232528555318117E-02 a       684     1    11     2     9
  8.7201414158739082E-02 a       685     1    11     2    10
  1.9819244461707269E-02 a       686     1    11     2    11
 -1.7797194561603006E-02 a       687     1    11     2    12
  2.9305105152357132E-02 a       688     1    11     2    13
  8.5062767701769935E-03 a       689     1    11     2    14
  2.1015589314656469E-02 a       690     1    11     2    15
 -1.5080004805517820E-02 a       691     1    11     2    16
  5.5437439229462815E-02 a       692     1    11     2    17
 -4.6288014983086254E-02 a       693     1    11     2    18
 -2.9818445067141754E-03 a       694     1    11     2    19
 -2.9740559150352081E-02 a       695     1    11     2    20
 -2.3833102792848782E-02 a       696     1    11     2    21
 -1.2169615537909068E-02 a       697     1    11     2    22
 -8.8660321181994149E-03 a       698     1    11     2    23
 -9.0347657809712113E-04 a       699     1    11     2    24
  2.1598506442446555E-02 a       700     1    11     2    25
  9.8140108033633530E-02 a       701     1    12     2     1
  7.4227348162690554E-02 a       702     1    12     2     2
 -6.8629074237401222E-02 a       703     1    12     2     3
 -3.6308932882693559E-02 a       704     1    12     2     4
 -6.9307812382516334E-02 a       705     1    12     2     5
  6.2295161554170836E-02 a       706     1    12     2     6
  3.1239982578917923E-03 a       707     1    12     2     7
  4.1507827856936387E-02 a       708     1    12     2     8
  7.2431202144289580E-02 a       709     1    12     2     9
 -6.1124618680985319E-03 a       710     1    12     2    10
  6.2172057719614010E-03 a       711     1    12     2    11
 -1.6013100232166483E-02 a       712     1    12     2    12
  7.2004804908511411E-02 a       713     1    12     2    13
  1.1896104554403424E-02 a       714     1    12     2    14
  8.1070494897841586E-02 a       715     1    12     2    15
 -1.3300467010937509E-02 a       716     1    12     2    16
 -7.1044830858733810E-02 a       717     1    12     2    17
 -3.0586329063642330E-02 a       718     1    12     2    18
 -6.0739396376932681E-02 a       719     1    12     2    19
 -3.3331919044859749E-03 a       720     1    12     2    20
  1.7709813205943177E-02 a       721     1    12     2    21
  7.3141356632560744E-02 a       722     1    12     2    22
 -1.5175271751976940E-01 a       723     1    12     2    23
  6.0564234469667848E-02 a       724     1    12     2    24
 -1.0467688027756500E-01 a       725     1    12     2    25
 -5.0677312593822174E-02 a       726     1    13     2     1
  1.2875318606882225E-01 a       727     1    13     2     2
 -3.5929689752039591E-02 a       728     1    13     2     3
  1.0719956037614154E-02 a       729     1    13     2     4
 -1.1589547032776196E-01 a       730     1    13     2     5
  1.3626331312331125E-02 a       731     1    13     2     6
 -2.9185185856802943E-02 a       732     1    13     2     7
  4.2162155737476316E-02 a       733     1    13     2     8
  1.0089909598861027E-01 a       734     1    13     2     9
  1.5148534122713142E-01 a       735     1    13     2    10
  1.9779076585412770E-02 a       736     1    13     2    11
 -1.1756178937866808E-02 a       737     1    13     2    12
 -1.7537474503029577E-02 a       738     1    13     2    13
  1.0687468646321398E-01 a       739     1    13     2    14
  2.1643657231800503E-02 a       740     1    13     2    15
  4.8131906639836936E-02 a       741     1    13     2    16
  2.1781199428918801E-03 a       742     1    13     2    17
 -7.3110384588815816E-02 a       743     1    13     2    18
 -1.2974443078855685E-02 a       744     1    13     2    19
 -4.1599639427053171E-02 a       745     1    13     2    20
  1.2543616395796112E-02 a       746     1    13     2    21
 -4.7917489710972809E-02 a       747     1    13     2    22
  1.0847576990495593E-01 a       748     1    13     2    23
  6.6163923003711142E-02 a       749     1    13     2    24
  6.4573950824369258E-02 a       750     1    13     2    25
  2.5413456768661045E-02 a       751     1    14     2     1
  1.6440273245857596E-02 a       752     1    14     2     2
 -3.5509999626460356E-02 a       753     1    14     2     3
  3.3143897192101979E-02 a       754     1    14     2     4
  1.6080326958505392E-02 a       755     1    14     2     5
  5.7650438840831014E-02 a       756     1    14     2     6
  4.0697745136851420E-02 a       757     1    14     2     7
 -4.3092401501213136E-02 a       758     1    14     2     8
 -8.3790058887156012E-03 a       759     1    14     2     9
 -1.2269141920210612E-01 a       760     1    14     2    10
 -9.6065545771190433E-03 a       761     1    14     2    11
 -1.6944212863831676E-02 a       762     1    14     2    12
  1.2095338845263908E-02 a       763     1    14     2    13
  1.7006066361752083E-02 a       764     1    14     2    14
 -9.7435003962306355E-03 a       765     1    14     2    15
  2.1353703220974560E-02 a       766     1    14     2    16
 -6.6738854341455683E-02 a       767     1    14     2    17
 -1.0826351173390716E-03 a       768     1    14     2    18
  2.2786406266367819E-02 a       769     1    14     2    19
  4.0814181417728286E-03 a       770     1    14     2    20
 -6.6946271843512312E-03 a       771     1    14     2    21
  5.0241276273700647E-02 a       772     1    14     2    22
 -4.3476978298735203E-02 a       773     1    14     2    23
 -2.7063794651659378E-02 a       774     1    14     2    24
  3.9090342642695609E-04 a       775     1    14     2    25
  1.6644138652085239E-01 a       776     1    15     2     1
  7.8136754580284754E-02 a       777     1    15     2     2
  7.9701932622045862E-02 a       778     1    15     2     3
 -1.3202752114164530E-02 a       779     1    15     2     4
 -7.4576269147676205E-02 a       780     1    15     2     5
 -3.3577548815392919E-02 a       781     1    15     2     6
 -1.8283944311126756E-03 a       782     1    15     2     7
 -9.3210122854499883E-03 a       783     1    15     2     8
  5.9777314484237842E-02 a       784     1    15     2     9
  9.2753780523754190E-03 a       785     1    15     2    10
 -4.5512409140394366E-02 a       786     1    15     2    11
 -3.2789229390737494E-02 a       787     1    15     2    12
 -1.9893289977266949E-02 a       788     1    15     2    13
  3.3901665130807168E-02 a       789     1    15     2    14
  8.5675435087892618E-02 a       790     1    15     2    15
  1.1161206431248153E-02 a       791     1    15     2    16
  5.3013401961128803E-02 a       792     1    15     2    17
  9.0979221377156198E-03 a       793     1    15     2    18
  5.2241490743737636E-02 a       794     1    15     2    19
 -2.6175813009867703E-02 a       795     1    15     2    20
 -4.7668840870558900E-02 a       796     1    15     2    21
 -4.8179040931018630E-02 a       797     1    15     2    22
  2.6596537800229022E-02 a       798     1    15     2    23
  4.0030938602321944E-02 a       799     1    15     2    24
  2.2852905326803904E-03 a       800     1    15     2    25
  2.0665141114513244E-01 a       801     1    16     2     1
  7.0430471316652574E-02 a       802     1    16     2     2
  5.6919751348412763E-03 a       803     1    16     2     3
  1.6559616196217166E-03 a       804     1    16     2     4
 -4.6736784011705751E-02 a       805     1    16     2     5
 -1.1222268123494741E-02 a       806     1    16     2     6
  2.3760312848604966E-02 a       807     1    16     2     7
 -2.9347780285389483E-02 a       808     1    16     2     8
  3.0782222900197398E-03 a       809     1    16     2     9
 -9.4472517571860731E-02 a       810     1    16     2    10
 -1.0146677241740194E-02 a       811     1    16     2    11
 -3.4692299920607733E-03 a       812     1    16     2    12
 -6.1830700067821806E-02 a       813     1    16     2    13
 -9.4777717709601320E-03 a       814     1    16     2    14
 -5.9768890718964567E-02 a       815     1    16     2    15
  1.0843268185129805E-01 a       816     1    16     2    16
  2.4129221839699910E-02 a       817     1    16     2    17
  4.0600142348141986E-02 a       818     1    16     2    18
  5.9929603358550382E-02 a       819     1    16     2    19
 -1.5836178092436745E-02 a       820     1    16     2    20
 -2.9710680172520265E-02 a       821     1    16     2    21
  5.9540010975486973E-02 a       822     1    16     2    22
 -4.6430718455001442E-02 a       823     1    16     2    23
  9.3877612191700627E-02 a       824     1    16     2    24
 -7.4977394400677105E-02 a       825     1    16     2    25
  3.2476019346155079E-02 a       826     1    17     2     1
  2.6071040429358174E-02 a       827     1    17     2     2
 -3.2258831616159785E-02 a       828     1    17     2     3
 -8.4145712349795211E-03 a       829     1    17     2     4
 -5.6693284377727589E-02 a       830     1    17     2     5
  6.6202313737345100E-02 a       831     1    17     2     6
 -2.5611250351773286E-02 a       832     1    17     2     7
  1.1337907820072692E-01 a       833     1    17     2     8
  2.8524589116313982E-02 a       834     1    17     2     9
  1.2317827733135629E-01 a       835     1    17     2    10
  2.6230841447274340E-02 a       836     1    17     2    11
  2.7994004898162721E-02 a       837     1    17     2    12
  4.9290812323641839E-02 a       838     1    17     2    13
 -1.5565122489791911E-02 a       839     1    17     2    14
  5.1559261475118245E-02 a       840     1    17     2    15
 -4.5500815401348709E-03 a       841     1    17     2    16
 -5.7076975564242394E-03 a       842     1    17     2    17
 -1.5361411197164472E-03 a       843     1    17     2    18
 -2.1738435699026306E-02 a       844     1    17     2    19
 -4.3208637648039358E-03 a       845     1    17     2    20
  1.8213389119317615E-02 a       846     1    17     2    21
  4.9704014012670855E-02 a       847     1    17     2    22
 -1.0987287530510167E-01 a       848     1    17     2    23
  6.5616950640794577E-02 a       849     1    17     2    24
 -6.4398256486957892E-02 a       850     1    17     2    25
 -1.4226488976194521E-01 a       851     1    18     2     1
  2.3561451491597957E-02 a       852     1    18     2     2
  6.7109451700085254E-02 a       853     1    18     2     3
  4.6870329786776056E-02 a       854     1    18     2     4
 -1.6894326020070222E-03 a       855     1    18     2     5
  4.0539702727780298E-02 a       856     1    18     2     6
 -5.3847445901016144E-02 a       857     1    18     2     7
  1.5862578766769056E-01 a       858     1    18     2     8
  1.2015093599818675E-02 a       859     1    18     2     9
  1.3763222282342980E-01 a       860     1    18     2    10
 -1.7943429294189139E-02 a       861     1    18     2    11
  3.4024294273509004E-02 a       862     1    18     2    12
 -1.7945850483717166E-02 a       863     1    18     2    13
  1.5765147183409278E-02 a       864     1    18     2    14
  2.4071224601516249E-02 a       865     1    18     2    15
 -3.0429893587069871E-02 a       866     1    18     2    16
 -5.5297694913313808E-02 a       867     1    18     2    17
  9.4996705304060458E-02 a       868     1    18     2    18
  3.2540273261875557E-02 a       869     1    18     2    19
  7.2854098321636945E-02 a       870     1    18     2    20
 -4.0752783272395348E-03 a       871     1    18     2    21
 -7.5492567627843649E-02 a       872     1    18     2    22
  1.1433675637579044E-01 a       873     1    18     2    23
 -2.3732471517824150E-02 a       874     1    18     2    24
  1.4251735383694791E-01 a       875     1    18     2    25
 -3.8044079513426816E-02 a       876     1    19     2     1
  1.2129935475581857E-02 a       877     1    19     2     2
  2.7326621892679058E-02 a       878     1    19     2     3
  3.7722854321998213E-02 a       879     1    19     2     4
  1.7889501105250564E-02 a       880     1    19     2     5
  4.7936253486867550E-03 a       881     1    19     2     6
  2.5992384101961342E-02 a       882     1    19     2     7
 -1.5032126934948776E-02 a       883     1    19     2     8
  1.9700243435315172E-02 a       884     1    19     2     9
  5.1344049500824038E-02 a       885     1    19     2    10
  1.4749553766379299E-02 a       886     1    19     2    11
  2.1629493999030878E-02 a       887     1    19     2    12
 -1.1372892962114262E-02 a       888     1    19     2    13
 -4.3798684033599718E-02 a       889     1    19     2    14
 -1.1271134777341749E-01 a       890     1    19     2    15
 -6.1059881554621560E-02 a       891     1    19     2    16
 -2.0019055501086108E-02 a       892     1    19     2    17
  7.1940871542451823E-02 a       893     1    19     2    18
 -6.1632002739812966E-03 a       894     1    19     2    19
  4.5809362168149036E-02 a       895     1    19     2    20
  1.9063079556535367E-02 a       896     1    19     2    21
 -7.0541582235051498E-02 a       897     1    19     2    22
  9.0885227578976491E-02 a       898     1    19     2    23
 -3.6275904032738997E-02 a       899     1    19     2    24
  7.1251317536285719E-02 a       900     1    19     2    25
  2.0056137748208133E-03 a       901     1    20     2     1
 -6.8294041748864678E-02 a       902     1    20     2     2
  1.3021200057216142E-01 a       903     1    20     2     3
 -4.2701951403959788E-03 a       904     1    20     2     4
  8.0305438856361322E-02 a       905     1    20     2     5
  1.1612803674706532E-02 a       906     1    20     2     6
  1.5632264760984806E-02 a       907     1    20     2     7
 -8.0965250883126602E-02 a       908     1    20     2     8
 -5.2086693729109734E-02 a       909     1    20     2     9
 -2.9414173287795726E-03 a       910     1    20     2    10
 -4.4991397134833903E-02 a       911     1    20     2    11
 -1.0734138573916424E-02 a       912     1    20     2    12
 -1.5448873257090342E-04 a       913     1    20     2    13
 -4.1763028220234533E-02 a       914     1    20     2    14
  3.7997141632143003E-02 a       915     1    20     2    15
 -1.9915900248694100E-03 a       916     1    20     2    16
  2.3364352213106006E-02 a       917     1    20     2    17
  4.7612370706113002E-02 a       918     1    20     2    18
  7.7967947583847549E-02 a       919     1    20     2    19
  9.5057180664290288E-03 a       920     1    20     2    20
 -3.8832569917982993E-02 a       921     1    20     2    21
 -4.2866773516628806E-02 a       922     1    20     2    22
  6.1182972933808789E-02 a       923     1    20     2    23
 -7.9570750341562455E-02 a       924     1    20     2    24
  2.1719952164156581E-02 a       925     1    20     2    25
  3.9230209409679313E-02 a       926     1    21     2     1
 -1.7029330564470965E-02 a       927     1    21     2     2
  9.7362626591801393E-02 a       928     1    21     2     3
 -4.9913213388287130E-02 a       929     1    21     2     4
 -4.1666810371225819E-02 a       930     1    21     2     5
 -6.6771543399639324E-02 a       931     1    21     2     6
 -1.5123249459620274E-02 a       932     1    21     2     7
 -3.1820572955775644E-02 a       933     1    21     2     8
 -3.6172391348336165E-03 a       934     1    21     2     9
 -2.6716886433871743E-02 a       935     1    21     2    10
 -2.6171144249904368E-02 a       936     1    21     2    11
 -4.2674489523651035E-02 a       937     1    21     2    12
 -9.1465387093699405E-03 a       938     1    21     2    13
 -2.6783397392704366E-02 a       939     1    21     2    14
  7.8159124374354363E-02 a       940     1    21     2    15
  1.7103534952459764E-02 a       941     1    21     2    16
  1.5484914407590938E-01 a       942     1    21     2    17
 -7.0256696419345663E-02 a       943     1    21     2    18
  8.8224532232322669E-02 a       944     1    21     2    19
 -8.0119621707437638E-02 a       945     1    21     2    20
 -3.5782056826445752E-02 a       946     1    21     2    21
 -1.1683383234956829E-02 a       947     1    21     2    22
  2.5528587946770216E-02 a       948     1    21     2    23
 -7.0773965056768764E-02 a       949     1    21     2    24
  3.1812001678334992E-02 a       950     1    21     2    25
 -5.5185932151632297E-02 a       951     1    22     2     1
 -5.5002461957300103E-02 a       952     1    22     2     2
 -5.1611053346311955E-02 a       953     1    22     2     3
 -4.5236777065577265E-02 a       954     1    22     2     4
 -1.1425341880513294E-01 a       955     1    22     2     5
 -1.4522310873323710E-01 a       956     1    22     2     6
  1.2326686513425640E-02 a       957     1    22     2     7
 -3.6868831213108133E-02 a       958     1    22     2     8
 -1.1420323245493288E-02 a       959     1    22     2     9
  5.2239842277323124E-02 a       960     1    22     2    10
 -2.1851020693220938E-02 a       961     1    22     2    11
  1.6343772830232747E-02 a       962     1    22     2    12
 -6.5924178761356020E-02 a       963     1    22     2    13
  5.3019464528231862E-03 a       964     1    22     2    14
  1.5650154109804058E-02 a       965     1    22     2    15
 -3.6214012355576951E-03 a       966     1    22     2    16
  1.6706145928352026E-01 a       967     1    22     2    17
 -5.5503300675244838E-02 a       968     1    22     2    18
  1.1211101332757441E-02 a       969     1    22     2    19
 -6.2300426702160010E-02 a       970     1    22     2    20
  3.5913377583293049E-02 a       971     1    22     2    21
  5.2825903430793172E-02 a       972     1    22     2    22
  8.9798798232173186E-03 a       973     1    22     2    23
  8.3988353391602252E-02 a       974     1    22     2    24
  9.3870496583406057E-02 a       975     1    22     2    25
  2.5788819432214015E-03 a       976     1    23     2     1
  5.1118827372072045E-02 a       977     1    23     2     2
  5.6004169889577681E-04 a       978     1    23     2     3
  4.8452012092665298E-03 a       979     1    23     2     4
 -3.0614848313734407E-02 a       980     1    23     2     5
  2.2364419879490133E-02 a       981     1    23     2     6
  1.4291528487846466E-02 a       982     1    23     2     7
 -1.5014645180176105E-03 a       983     1    23     2     8
  6.3450911315717215E-02 a       984     1    23     2     9
  1.2820737352734717E-02 a       985     1    23     2    10
 -7.1296632336407563E-04 a       986     1    23     2    11
  4.0803127803415006E-03 a       987     1    23     2    12
  8.2612738835618875E-04 a       988     1    23     2    13
 -1.8397138394365579E-02 a       989     1    23     2    14
 -8.1143927041408520E-02 a       990     1    23     2    15
 -3.6501078630595915E-02 a       991     1    23     2    16
 -3.3218458877465822E-02 a       992     1    23     2    17
  1.4545820350293283E-02 a       993     1    23     2    18
 -2.7405979212721258E-02 a       994     1    23     2    19
  2.4429710358799830E-02 a       995     1    23     2    20
  8.8870973384059561E-03 a       996     1    23     2    21
  2.0870296730929418E-02 a       997     1    23     2    22
  6.0303813363275461E-03 a       998     1    23     2    23
  1.7057641906317648E-02 a       999     1    23     2    24
  7.1688741419259384E-03 a      1000     1    23     2    25
  3.1500912269218778E-02 a      1001     1    24     2     1
 -5.0704944705363186E-02 a      1002     1    24     2     2
  1.4384770328126885E-02 a      1003     1    24     2     3
 -4.1981586062873038E-03 a      1004     1    24     2     4
  2.6309719891290304E-02 a      1005     1    24     2     5
  1.1890727916078295E-02 a      1006     1    24     2     6
  7.1316135806459305E-02 a      1007     1    24     2     7
 -9.6251083953841923E-02 a      1008     1    24     2     8
 -1.3045540954599713E-01 a      1009     1    24     2     9
  6.1003688186714020E-02 a      1010     1    24     2    10
 -8.1472845876099806E-02 a      1011     1    24     2    11
  2.9805859981698556E-02 a      1012     1    24     2    12
 -4.1328643731425072E-02 a      1013     1    24     2    13
 -8.1345696688578828E-02 a      1014     1    24     2    14
 -1.5313748630241859E-02 a      1015     1    24     2    15
 -3.5918262671746366E-02 a      1016     1    24     2    16
  8.2208844126394842E-02 a      1017     1    24     2    17
  1.4222445060867489E-01 a      1018     1    24     2    18
  8.4431435110764452E-02 a      1019     1    24     2    19
  3.3263243322309032E-02 a      1020     1    24     2    20
 -6.4023892579023037E-02 a      1021     1    24     2    21
 -2.2615548622279651E-02 a      1022     1    24     2    22
  5.4873460126024856E-02 a      1023     1    24     2    23
  1.3525910090423469E-02 a      1024     1    24     2    24
  5.4164561810674618E-02 a      1025     1    24     2    25
 -6.9153729154424498E-02 a      1026     1    25     2     1
 -5.1304103417296104E-02 a      1027     1    25     2     2
  1.2554482703157238E-01 a      1028     1    25     2     3
  3.4153572647751644E-02 a      1029     1    25     2     4
  3.9735384161497092E-02 a      1030     1    25     2     5
 -1.2231430591184955E-02 a      1031     1    25     2     6
  6.2905773686771855E-03 a      1032     1    25     2     7
 -3.5959722855551469E-02 a      1033     1    25     2     8
 -2.7681043828473039E-02 a      1034     1    25     2     9
  1.8104453515787870E-02 a      1035     1    25     2    10
 -1.6537311227653267E-02 a      1036     1    25     2    11
  5.9808760163677144E-02 a      1037     1    25     2    12
 -8.0780186267602958E-02 a      1038     1    25     2    13
 -4.4467643170825973E-02 a      1039     1    25     2    14
  2.1198022605269085E-02 a      1040     1    25     2    15
 -5.7493094647437536E-02 a      1041     1    25     2    16
  1.1385008416105942E-02 a      1042     1    25     2    17
  1.1119901408440584E-01 a      1043     1    25     2    18
  2.2710292560237912E-02 a      1044     1    25     2    19
  5.6814369309953192E-02 a      1045     1    25     2    20
 -3.8678754474611721E-02 a      1046     1    25     2    21
 -8.4119161692983960E-02 a      1047     1    25     2    22
  2.2279630306957211E-02 a      1048     1    25     2    23
  5.6917320284897753E-03 a      1049     1    25     2    24
  8.3640171446508677E-02 a      1050     1    25     2    25
  4.4366888516469520E-02 b      1051     2     1
  6.8434430102651420E-02 b      1052     2     2
 -3.2019071536990400E-02 b      1053     2     3
 -5.7041383304990388E-03 b      1054     2     4
 -4.9865264509057462E-02 b      1055     2     5
 -8.3424462886953462E-04 b      1056     2     6
  5.2327473113327493E-02 b      1057     2     7
 -7.1909803019250332E-02 b      1058     2     8
  8.7072101442726035E-02 b      1059     2     9
  5.2530410843079592E-02 b      1060     2    10
 -2.0095528806781541E-03 b      1061     2    11
  2.0474942828680735E-02 b      1062     2    12
 -1.4701799928819792E-02 b      1063     2    13
 -2.0555471836553426E-02 b      1064     2    14
 -1.3762479829005611E-01 b      1065     2    15
 -7.4210998892160540E-02 b      1066     2    16
 -5.1758971606645283E-02 b      1067     2    17
  6.2862985672027735E-02 b      1068     2    18
 -2.7032424341956265E-02 b      1069     2    19
  6.1276835559056331E-02 b      1070     2    20
  3.0919517498671317E-02 b      1071     2    21
 -1.7588577418460277E-03 b      1072     2    22
  2.2135467327714913E-02 b      1073     2    23
  2.2259873081847938E-02 b      1074     2    24
  2.0397833493706313E-02 b      1075     2    25
 -2.6706503379998856E+00 a      1076     2     1     3     1
 -1.4064044358028993E+00 a      1077     2     2     3     1
  1.9703785501891564E+00 a      1078     2     3     3     1
  2.5220920465041399E+00 a      1079     2     4     3     1
  1.7890923087419357E+00 a      1080     2     5     3     1
  2.4767923822221816E+00 a      1081     2     6     3     1
 -3.1111932615545013E+00 a      1082     2     7     3     1
 -1.4379633044752256E+00 a      1083     2     8     3     1
 -1.9838539197044878E+00 a      1084     2     9     3     1
  3.0131297378707163E+00 a      1085     2    10     3     1
  3.2454085886593105E+00 a      1086     2    11     3     1
  5.6692402305197798E-01 a      1087     2    12     3     1
 -1.5349174683597766E+00 a      1088     2    13     3     1
 -9.2115125413381937E-01 a      1089     2    14     3     1
 -5.5859993099374916E-01 a      1090     2    15     3     1
 -2.1966628940302135E-01 a      1091     2    16     3     1
  1.7157605361753898E+00 a      1092     2    17     3     1
  8.3317157163433120E-01 a      1093     2    18     3     1
  1.0769862474840421E+00 a      1094     2    19     3     1
  2.7819555710677701E-01 a      1095     2    20     3     1
 -1.7613299605180632E+00 a      1096     2    21     3     1
  2.2510772014646316E+00 a      1097     2    22     3     1
 -2.2686222766780526E+00 a      1098     2    23     3     1
  2.2215199503200527E+00 a      1099     2    24     3     1
 -2.0629858537447632E+00 a      1100     2    25     3     1
 -3.6346930973973124E+00 b      1101     3     1
