################################################################################
# Neural network connection values (weights and biases).
################################################################################
# Col  Name       Description
################################################################################
# 1    connection Neural network connection value.
# 2    t          Connection type (a = weight, b = bias).
# 3    index      Index enumerating weights.
# 4    l_s        Starting point layer (end point layer for biases).
# 5    n_s        Starting point neuron in starting layer (end point neuron for biases).
# 6    l_e        End point layer.
# 7    n_e        End point neuron in end layer.
################################################################################
#                      1 2         3     4     5     6     7
#             connection t     index   l_s   n_s   l_e   n_e
############################################################
  1.9743214730160577E-01 a         1     0     1     1     1
  2.0371491803421110E-01 a         2     0     1     1     2
 -2.9948598605956578E-01 a         3     0     1     1     3
 -1.7486931825494015E-01 a         4     0     1     1     4
 -7.5049277629928204E-02 a         5     0     1     1     5
 -2.2324836258268102E-01 a         6     0     1     1     6
 -3.0935929526535227E-01 a         7     0     1     1     7
  1.3247370980016746E-01 a         8     0     1     1     8
  3.1671684812806600E-01 a         9     0     1     1     9
  1.2521577683698432E-01 a        10     0     1     1    10
 -1.4368964264588602E-01 a        11     0     1     1    11
 -3.2938020417734271E-01 a        12     0     1     1    12
  2.9362279979134820E-01 a        13     0     1     1    13
  2.2632624902344348E-01 a        14     0     1     1    14
  1.0004653480014912E-02 a        15     0     1     1    15
 -3.5353323553721727E-02 a        16     0     1     1    16
  5.2898373746442323E-02 a        17     0     1     1    17
  1.3309657336981021E-01 a        18     0     1     1    18
  3.4674377528019704E-02 a        19     0     1     1    19
  2.7454139172950159E-01 a        20     0     1     1    20
  1.1291213033073549E-01 a        21     0     1     1    21
 -2.0659071489380232E-02 a        22     0     1     1    22
 -8.1949896982784654E-02 a        23     0     1     1    23
 -1.2164673576311184E-01 a        24     0     1     1    24
  1.0118120438474977E-01 a        25     0     1     1    25
 -1.5237640667284297E-01 a        26     0     2     1     1
 -4.3904503313951480E-02 a        27     0     2     1     2
 -2.1828240818986896E-01 a        28     0     2     1     3
  1.9504032890651560E-01 a        29     0     2     1     4
  3.1475836160148646E-01 a        30     0     2     1     5
 -2.3147158536573498E-01 a        31     0     2     1     6
  1.1007544749465131E-01 a        32     0     2     1     7
  1.8954341457080179E-01 a        33     0     2     1     8
  1.7524056030651572E-01 a        34     0     2     1     9
  1.1375966886002983E-01 a        35     0     2     1    10
  1.2760321278144876E-01 a        36     0     2     1    11
  2.3563554399738085E-01 a        37     0     2     1    12
 -2.1171012794043759E-01 a        38     0     2     1    13
  1.4676410681427043E-01 a        39     0     2     1    14
  1.8754420872899832E-01 a        40     0     2     1    15
 -2.0205701825859904E-02 a        41     0     2     1    16
  1.0735734481897696E-01 a        42     0     2     1    17
  1.2136886754407513E-02 a        43     0     2     1    18
  1.8706953625890804E-01 a        44     0     2     1    19
  1.9330081591810583E-01 a        45     0     2     1    20
  2.2495356140408496E-01 a        46     0     2     1    21
  2.1968909567727493E-01 a        47     0     2     1    22
  1.9648901295825949E-01 a        48     0     2     1    23
  2.9309563487411450E-01 a        49     0     2     1    24
 -2.0384329772302118E-01 a        50     0     2     1    25
  2.2983036719945965E-01 a        51     0     3     1     1
 -1.7682760040551973E-01 a        52     0     3     1     2
 -2.7672726792162979E-02 a        53     0     3     1     3
  3.0387227474701622E-01 a        54     0     3     1     4
 -1.6578462044635170E-01 a        55     0     3     1     5
 -3.2562681847067565E-01 a        56     0     3     1     6
  1.5081974447667970E-01 a        57     0     3     1     7
  2.9586885885575553E-01 a        58     0     3     1     8
  6.3016859641703962E-02 a        59     0     3     1     9
  2.2217463476586127E-01 a        60     0     3     1    10
 -1.2002371811045943E-01 a        61     0     3     1    11
 -1.2785711933491739E-01 a        62     0     3     1    12
 -1.9910590640840034E-01 a        63     0     3     1    13
 -1.4295834159484425E-01 a        64     0     3     1    14
 -2.2858238932677027E-01 a        65     0     3     1    15
 -3.0804602848718865E-01 a        66     0     3     1    16
 -7.2022626304368662E-02 a        67     0     3     1    17
  2.5589827138520321E-01 a        68     0     3     1    18
 -9.6067567935919557E-02 a        69     0     3     1    19
  3.2877447816670807E-01 a        70     0     3     1    20
  2.2984089077257797E-01 a        71     0     3     1    21
  2.5247726304427526E-01 a        72     0     3     1    22
 -1.2959600918670733E-01 a        73     0     3     1    23
 -8.6883885294716079E-02 a        74     0     3     1    24
 -1.5225337821581067E-03 a        75     0     3     1    25
 -6.9597185212019672E-02 a        76     0     4     1     1
  1.0808239883035630E-02 a        77     0     4     1     2
 -3.3643392383571763E-01 a        78     0     4     1     3
 -2.7718376728362237E-01 a        79     0     4     1     4
  5.5928374994603472E-02 a        80     0     4     1     5
  2.6210564828618871E-01 a        81     0     4     1     6
  2.3360111163123942E-01 a        82     0     4     1     7
 -2.2762036672475003E-01 a        83     0     4     1     8
 -4.5782067624664698E-02 a        84     0     4     1     9
 -3.1784547886082432E-01 a        85     0     4     1    10
 -4.1267663786023173E-02 a        86     0     4     1    11
 -3.2438136092458991E-02 a        87     0     4     1    12
 -2.3046689625412203E-01 a        88     0     4     1    13
 -3.1704017823702368E-01 a        89     0     4     1    14
  3.3400806962877050E-01 a        90     0     4     1    15
 -6.3345973106428047E-02 a        91     0     4     1    16
  2.2913508720019202E-01 a        92     0     4     1    17
 -1.4353048216133822E-03 a        93     0     4     1    18
  3.1144919139027449E-01 a        94     0     4     1    19
 -1.6147379924303193E-01 a        95     0     4     1    20
 -2.1428269341937253E-01 a        96     0     4     1    21
  2.6351411749883130E-01 a        97     0     4     1    22
  3.2083474940257078E-01 a        98     0     4     1    23
  2.1058537788779888E-01 a        99     0     4     1    24
 -8.6100231299760008E-02 a       100     0     4     1    25
 -3.1769451722948650E-03 a       101     0     5     1     1
 -2.5257581563463155E-01 a       102     0     5     1     2
  3.3006733734690880E-01 a       103     0     5     1     3
 -5.7916499975170642E-02 a       104     0     5     1     4
 -3.0629541235797336E-01 a       105     0     5     1     5
 -6.1738739384171980E-02 a       106     0     5     1     6
 -1.1900331313587900E-01 a       107     0     5     1     7
 -8.6048914945091592E-02 a       108     0     5     1     8
 -1.6155400541449971E-01 a       109     0     5     1     9
  1.1926345529329822E-01 a       110     0     5     1    10
  2.5274736114469498E-01 a       111     0     5     1    11
  2.3240184852930007E-01 a       112     0     5     1    12
 -2.5141295100884448E-01 a       113     0     5     1    13
  1.8665874317967030E-02 a       114     0     5     1    14
 -1.1245892663047292E-01 a       115     0     5     1    15
 -3.0902890684949585E-01 a       116     0     5     1    16
 -2.9901179863423205E-01 a       117     0     5     1    17
  1.8660143810647681E-01 a       118     0     5     1    18
  9.8363388357287626E-02 a       119     0     5     1    19
 -1.7252889995357396E-01 a       120     0     5     1    20
  1.1619628271403995E-01 a       121     0     5     1    21
 -2.1183206066952942E-01 a       122     0     5     1    22
 -5.2448042328409966E-02 a       123     0     5     1    23
  8.9870590409849294E-02 a       124     0     5     1    24
 -1.6996710030133429E-02 a       125     0     5     1    25
 -6.9338135875738144E-02 a       126     0     6     1     1
  2.2485930547350660E-01 a       127     0     6     1     2
 -2.8166451479967519E-02 a       128     0     6     1     3
 -1.7922675194684334E-01 a       129     0     6     1     4
  3.2973809840158952E-01 a       130     0     6     1     5
 -1.0928230220808095E-01 a       131     0     6     1     6
  2.1574650866429176E-01 a       132     0     6     1     7
 -7.0669383275265771E-02 a       133     0     6     1     8
 -6.9369480936504302E-02 a       134     0     6     1     9
 -2.4862366414175027E-01 a       135     0     6     1    10
  2.7855816912473569E-01 a       136     0     6     1    11
  2.7589535839095004E-03 a       137     0     6     1    12
  2.7256720018227115E-01 a       138     0     6     1    13
  7.2949513791584653E-02 a       139     0     6     1    14
  4.1876735129144894E-02 a       140     0     6     1    15
  1.3150839007845513E-01 a       141     0     6     1    16
 -5.8400063853043756E-02 a       142     0     6     1    17
  2.2772727790814043E-01 a       143     0     6     1    18
  3.5351540354398353E-01 a       144     0     6     1    19
 -1.0961238795183011E-01 a       145     0     6     1    20
  1.5532941477310566E-01 a       146     0     6     1    21
  1.2361292235539394E-01 a       147     0     6     1    22
  2.5619530565777915E-01 a       148     0     6     1    23
 -2.0588849107240090E-01 a       149     0     6     1    24
  1.4783097805736994E-01 a       150     0     6     1    25
 -5.0562654806433890E-02 a       151     0     7     1     1
 -2.3120526466603877E-01 a       152     0     7     1     2
 -2.6815623997860347E-02 a       153     0     7     1     3
 -2.0181776875387097E-01 a       154     0     7     1     4
 -7.1703575687550050E-02 a       155     0     7     1     5
 -3.2793546299372589E-01 a       156     0     7     1     6
 -2.3288362185830166E-01 a       157     0     7     1     7
 -2.6421779680257956E-01 a       158     0     7     1     8
  1.8526474882892280E-01 a       159     0     7     1     9
 -4.0476781489627287E-02 a       160     0     7     1    10
  2.4912494591539228E-01 a       161     0     7     1    11
  2.2803546739788638E-01 a       162     0     7     1    12
 -2.9042603199905725E-01 a       163     0     7     1    13
  3.9163930181580500E-02 a       164     0     7     1    14
  1.2472685650798100E-01 a       165     0     7     1    15
  2.0629326901598874E-01 a       166     0     7     1    16
  1.0141339095458145E-01 a       167     0     7     1    17
  5.8531133804885296E-02 a       168     0     7     1    18
 -2.2412144315681723E-01 a       169     0     7     1    19
  1.2116974888465458E-01 a       170     0     7     1    20
  3.5381869002858828E-02 a       171     0     7     1    21
 -2.8663602375308650E-01 a       172     0     7     1    22
  2.3227885811128995E-01 a       173     0     7     1    23
  2.6485001321031554E-01 a       174     0     7     1    24
 -4.3939888541491175E-02 a       175     0     7     1    25
 -1.0826713255396438E-01 a       176     0     8     1     1
  1.8671538417181976E-01 a       177     0     8     1     2
  6.3610534427485002E-02 a       178     0     8     1     3
 -3.4531127509846532E-01 a       179     0     8     1     4
 -2.4397977353209335E-01 a       180     0     8     1     5
  8.7305709163126285E-02 a       181     0     8     1     6
  3.3064847424571053E-01 a       182     0     8     1     7
  2.8832946917499571E-02 a       183     0     8     1     8
 -2.4765968961027809E-02 a       184     0     8     1     9
 -8.1445340004879241E-02 a       185     0     8     1    10
 -1.8554249980847398E-01 a       186     0     8     1    11
 -2.4043243148102891E-01 a       187     0     8     1    12
  4.3961265016625020E-02 a       188     0     8     1    13
  2.1953724552425646E-01 a       189     0     8     1    14
 -3.1374636289394142E-01 a       190     0     8     1    15
 -3.1462343650401105E-02 a       191     0     8     1    16
  2.0237282136813700E-01 a       192     0     8     1    17
 -2.3511051220764304E-01 a       193     0     8     1    18
  1.2282180324661952E-01 a       194     0     8     1    19
  3.1688404515121074E-02 a       195     0     8     1    20
  3.2891459708366932E-02 a       196     0     8     1    21
  2.1351215190901282E-01 a       197     0     8     1    22
 -5.8235467173866559E-02 a       198     0     8     1    23
 -2.6212369784261058E-01 a       199     0     8     1    24
 -4.6902674061563718E-02 a       200     0     8     1    25
  7.4392713806072375E-02 a       201     0     9     1     1
  2.2303322131407866E-01 a       202     0     9     1     2
  2.6986097221829231E-01 a       203     0     9     1     3
  2.3177800822503927E-01 a       204     0     9     1     4
 -1.3771200005061482E-01 a       205     0     9     1     5
 -1.7103427713544156E-01 a       206     0     9     1     6
 -1.7846382480468806E-01 a       207     0     9     1     7
 -1.3951268235515266E-02 a       208     0     9     1     8
  5.7985734818099467E-02 a       209     0     9     1     9
  7.4426764564580805E-02 a       210     0     9     1    10
 -5.8876816543465264E-02 a       211     0     9     1    11
  2.4271085204970769E-01 a       212     0     9     1    12
  3.1379948189690238E-01 a       213     0     9     1    13
 -2.3465264612444175E-01 a       214     0     9     1    14
 -7.4214687587240827E-02 a       215     0     9     1    15
 -3.6313977684693999E-01 a       216     0     9     1    16
 -1.1242701715565119E-01 a       217     0     9     1    17
  2.8026874706991745E-01 a       218     0     9     1    18
 -2.3736703702583387E-01 a       219     0     9     1    19
  2.3376768523234151E-01 a       220     0     9     1    20
 -2.5973951499650905E-01 a       221     0     9     1    21
 -1.8857688602344211E-01 a       222     0     9     1    22
 -8.6205209627785107E-02 a       223     0     9     1    23
  2.7128711589727039E-01 a       224     0     9     1    24
 -2.7823532463922601E-01 a       225     0     9     1    25
  2.4155050552882931E-01 a       226     0    10     1     1
  2.3046089977104256E-01 a       227     0    10     1     2
  6.9902989571420215E-02 a       228     0    10     1     3
  1.2817956596486410E-01 a       229     0    10     1     4
  2.9679421225384151E-01 a       230     0    10     1     5
  7.9783231886691702E-02 a       231     0    10     1     6
 -8.8219833704180906E-02 a       232     0    10     1     7
 -5.0085453665892621E-03 a       233     0    10     1     8
  3.3557493913464892E-01 a       234     0    10     1     9
 -2.2139482455129075E-01 a       235     0    10     1    10
  3.2369477073864333E-01 a       236     0    10     1    11
 -1.3284404470023481E-01 a       237     0    10     1    12
  1.8601112727301919E-01 a       238     0    10     1    13
  7.8994744376339285E-02 a       239     0    10     1    14
 -2.5519736097635431E-01 a       240     0    10     1    15
 -1.8521509025871091E-01 a       241     0    10     1    16
  2.5579471169628182E-01 a       242     0    10     1    17
  6.0641299162998319E-02 a       243     0    10     1    18
 -2.1582967916671880E-01 a       244     0    10     1    19
  5.5662252354424381E-02 a       245     0    10     1    20
  7.8557933758324594E-02 a       246     0    10     1    21
  1.6851002855853969E-01 a       247     0    10     1    22
  3.3779869615906566E-01 a       248     0    10     1    23
  2.2991437491558972E-01 a       249     0    10     1    24
 -3.1305932454584651E-01 a       250     0    10     1    25
  1.5657593049460200E-01 a       251     0    11     1     1
  1.5923271837252387E-01 a       252     0    11     1     2
 -3.1028448804083913E-01 a       253     0    11     1     3
 -1.2951276653807756E-01 a       254     0    11     1     4
 -2.8107451036197972E-01 a       255     0    11     1     5
  1.1259029899498310E-01 a       256     0    11     1     6
 -8.0700311581806142E-02 a       257     0    11     1     7
  3.2285417205872086E-01 a       258     0    11     1     8
  1.9519442950258101E-01 a       259     0    11     1     9
 -2.3425733554563735E-01 a       260     0    11     1    10
  7.9435126753556448E-02 a       261     0    11     1    11
 -1.4701981276209106E-01 a       262     0    11     1    12
 -2.0122356314661322E-01 a       263     0    11     1    13
  9.3232507968224576E-02 a       264     0    11     1    14
 -2.2220978491360061E-01 a       265     0    11     1    15
  1.4156289040394414E-02 a       266     0    11     1    16
  1.6892728603254727E-02 a       267     0    11     1    17
  1.4649480872014578E-01 a       268     0    11     1    18
 -3.7164236812298312E-01 a       269     0    11     1    19
 -1.9916612646232140E-01 a       270     0    11     1    20
 -2.0580658499970433E-01 a       271     0    11     1    21
  2.0436194032856148E-01 a       272     0    11     1    22
  2.7798994341682931E-01 a       273     0    11     1    23
 -2.1120310345543353E-01 a       274     0    11     1    24
  3.1328007110641720E-01 a       275     0    11     1    25
 -2.0318637913957927E-01 a       276     0    12     1     1
 -2.0612376445380112E-01 a       277     0    12     1     2
 -3.1318633923613037E-01 a       278     0    12     1     3
  2.3996153363583578E-01 a       279     0    12     1     4
  2.9740252259535094E-01 a       280     0    12     1     5
 -1.2237466181436144E-01 a       281     0    12     1     6
  1.1151220321851775E-01 a       282     0    12     1     7
  4.4074055809725197E-02 a       283     0    12     1     8
  1.0856553216950461E-01 a       284     0    12     1     9
 -9.5238129287514822E-02 a       285     0    12     1    10
 -2.2495226644832089E-01 a       286     0    12     1    11
 -1.6875113829092733E-01 a       287     0    12     1    12
  2.0904217152106905E-01 a       288     0    12     1    13
  3.1427975466198066E-01 a       289     0    12     1    14
 -2.9133649053635274E-01 a       290     0    12     1    15
  7.0170966299820461E-02 a       291     0    12     1    16
 -9.2742269998619717E-02 a       292     0    12     1    17
  2.5964101216443027E-02 a       293     0    12     1    18
 -2.1731663930229081E-01 a       294     0    12     1    19
  3.5461504966058782E-01 a       295     0    12     1    20
 -1.1990133316818601E-01 a       296     0    12     1    21
  1.5586480988974336E-01 a       297     0    12     1    22
  1.7642120001503071E-03 a       298     0    12     1    23
  1.5007158257897660E-01 a       299     0    12     1    24
  2.9190437934285074E-01 a       300     0    12     1    25
 -2.6218606678166195E-01 a       301     0    13     1     1
  2.6735363212150576E-01 a       302     0    13     1     2
 -3.4340519547012259E-04 a       303     0    13     1     3
 -2.1746136474704830E-01 a       304     0    13     1     4
  2.6797783647567969E-01 a       305     0    13     1     5
  2.9068963683076110E-01 a       306     0    13     1     6
  1.0281177097013693E-01 a       307     0    13     1     7
 -9.6066587171757534E-02 a       308     0    13     1     8
 -2.1669254878190630E-01 a       309     0    13     1     9
  1.4313573802791356E-02 a       310     0    13     1    10
  2.1745020110433946E-01 a       311     0    13     1    11
  1.1621394301374392E-01 a       312     0    13     1    12
  2.2757316042279180E-01 a       313     0    13     1    13
  2.1154365018148361E-01 a       314     0    13     1    14
 -9.4033991732231703E-02 a       315     0    13     1    15
 -3.9885399686154711E-02 a       316     0    13     1    16
  2.9882739053164625E-01 a       317     0    13     1    17
 -1.7790126835216127E-01 a       318     0    13     1    18
  2.2154387221285185E-01 a       319     0    13     1    19
 -4.1029149474227193E-02 a       320     0    13     1    20
  3.0509826323737999E-01 a       321     0    13     1    21
 -2.1176729342819250E-02 a       322     0    13     1    22
  3.7802387119479357E-02 a       323     0    13     1    23
 -2.3736752656325205E-01 a       324     0    13     1    24
  6.1702660443391184E-02 a       325     0    13     1    25
  1.9525445690769333E-01 a       326     0    14     1     1
 -2.1064855062410734E-01 a       327     0    14     1     2
 -1.4050903417764693E-01 a       328     0    14     1     3
 -1.5804468046598860E-01 a       329     0    14     1     4
 -1.4091600825089284E-01 a       330     0    14     1     5
 -3.0274964598290954E-01 a       331     0    14     1     6
 -2.0021368009985521E-01 a       332     0    14     1     7
 -3.2388972478319256E-01 a       333     0    14     1     8
  9.6924132547718311E-02 a       334     0    14     1     9
 -1.4468363178100996E-01 a       335     0    14     1    10
 -5.3900826458664231E-02 a       336     0    14     1    11
  3.0496958501268312E-01 a       337     0    14     1    12
 -1.7772613463030595E-01 a       338     0    14     1    13
 -1.1143156118043172E-01 a       339     0    14     1    14
 -2.2831970099472956E-01 a       340     0    14     1    15
  1.3757395431051370E-01 a       341     0    14     1    16
  1.3380267328319925E-01 a       342     0    14     1    17
 -9.5292936639231857E-02 a       343     0    14     1    18
  1.2156730692655589E-01 a       344     0    14     1    19
  1.2073104038226490E-01 a       345     0    14     1    20
  2.3559183751552248E-01 a       346     0    14     1    21
 -2.8801207286500874E-01 a       347     0    14     1    22
 -3.5921469502122792E-02 a       348     0    14     1    23
  8.1274205853633055E-02 a       349     0    14     1    24
  1.1365533070002456E-01 a       350     0    14     1    25
 -2.2791364336192010E-01 a       351     0    15     1     1
  2.3466501775285412E-01 a       352     0    15     1     2
  2.8828780875393134E-01 a       353     0    15     1     3
  4.9195746485484193E-02 a       354     0    15     1     4
 -1.1458126382853805E-01 a       355     0    15     1     5
 -9.5361743143689337E-02 a       356     0    15     1     6
 -1.8427302005609258E-01 a       357     0    15     1     7
 -1.9773744321281966E-02 a       358     0    15     1     8
 -8.8583813349651916E-02 a       359     0    15     1     9
  2.1852446831305644E-01 a       360     0    15     1    10
 -4.8252862451755987E-02 a       361     0    15     1    11
 -1.5031095731965352E-01 a       362     0    15     1    12
  3.6306928152446044E-01 a       363     0    15     1    13
 -3.3068852126836423E-01 a       364     0    15     1    14
  1.7753455755242606E-01 a       365     0    15     1    15
 -1.5743965625218753E-01 a       366     0    15     1    16
 -2.3676632682866211E-01 a       367     0    15     1    17
 -4.8239731213853602E-02 a       368     0    15     1    18
  1.2169354967344450E-02 a       369     0    15     1    19
 -1.0590270846066367E-02 a       370     0    15     1    20
  1.5711741286538861E-01 a       371     0    15     1    21
 -1.9388082455349356E-01 a       372     0    15     1    22
 -3.2879471852534436E-01 a       373     0    15     1    23
 -1.7230717796621839E-01 a       374     0    15     1    24
 -4.2025332010881156E-02 a       375     0    15     1    25
  5.8801271795986820E-02 a       376     0    16     1     1
  1.2917964214839250E-01 a       377     0    16     1     2
  5.6000863061542658E-02 a       378     0    16     1     3
 -3.2896331208628760E-01 a       379     0    16     1     4
  2.5001957835515792E-01 a       380     0    16     1     5
 -1.1632293642412275E-01 a       381     0    16     1     6
  1.1675434365665023E-01 a       382     0    16     1     7
  3.7589805307212142E-02 a       383     0    16     1     8
 -2.3881200546251394E-01 a       384     0    16     1     9
 -1.9110413474322041E-01 a       385     0    16     1    10
  6.4773636837707108E-02 a       386     0    16     1    11
  2.3242810757315952E-02 a       387     0    16     1    12
  1.5170141811873938E-01 a       388     0    16     1    13
 -5.4328235338960779E-02 a       389     0    16     1    14
 -2.5871049710647792E-01 a       390     0    16     1    15
 -9.2115059601935334E-02 a       391     0    16     1    16
  2.4827366774809337E-01 a       392     0    16     1    17
 -1.3701400381467230E-01 a       393     0    16     1    18
  2.8474301421510517E-01 a       394     0    16     1    19
  1.4357298273551930E-01 a       395     0    16     1    20
  1.1686394326398118E-01 a       396     0    16     1    21
 -1.6979798678603666E-01 a       397     0    16     1    22
 -2.1842936612506639E-01 a       398     0    16     1    23
  4.6587769065647169E-02 a       399     0    16     1    24
 -2.9861524031269532E-01 a       400     0    16     1    25
 -2.2197956934525445E-01 a       401     0    17     1     1
  1.8069745150875702E-01 a       402     0    17     1     2
  2.4534581523025931E-01 a       403     0    17     1     3
  1.9329655719592009E-01 a       404     0    17     1     4
  2.7593764618953420E-01 a       405     0    17     1     5
  1.2819543770914488E-01 a       406     0    17     1     6
  1.7450128610466381E-01 a       407     0    17     1     7
  2.4832916220928458E-01 a       408     0    17     1     8
 -2.0488750157828375E-01 a       409     0    17     1     9
  2.3128203157551977E-01 a       410     0    17     1    10
  2.6377309723327125E-01 a       411     0    17     1    11
  9.9551358763725881E-02 a       412     0    17     1    12
 -3.1776506633215074E-01 a       413     0    17     1    13
 -6.2192447501561776E-02 a       414     0    17     1    14
  2.8109452806311763E-01 a       415     0    17     1    15
  8.8055221831108994E-03 a       416     0    17     1    16
 -3.3379105117089608E-01 a       417     0    17     1    17
 -1.2488561950775574E-01 a       418     0    17     1    18
 -6.7576865037773479E-02 a       419     0    17     1    19
 -2.8858742968263634E-01 a       420     0    17     1    20
 -5.4541260182987716E-02 a       421     0    17     1    21
 -5.2770419615365693E-05 a       422     0    17     1    22
  7.8723661112335086E-02 a       423     0    17     1    23
 -2.3155650358720078E-01 a       424     0    17     1    24
 -1.3839522883386551E-01 a       425     0    17     1    25
  2.2898539010672767E-01 a       426     0    18     1     1
 -1.8052941809684278E-01 a       427     0    18     1     2
  2.9832038774731530E-04 a       428     0    18     1     3
 -6.8008250880826834E-02 a       429     0    18     1     4
 -1.8891173371077735E-01 a       430     0    18     1     5
 -2.2940914527447445E-01 a       431     0    18     1     6
  1.0765264329977460E-01 a       432     0    18     1     7
 -2.3112980165368591E-01 a       433     0    18     1     8
  9.1347401984064353E-02 a       434     0    18     1     9
 -8.7775881534750091E-02 a       435     0    18     1    10
 -2.1684558837198528E-01 a       436     0    18     1    11
  2.3817908096835697E-01 a       437     0    18     1    12
 -2.4099963416383172E-01 a       438     0    18     1    13
 -1.2878081875100436E-01 a       439     0    18     1    14
 -2.5437817131227031E-01 a       440     0    18     1    15
 -2.4746803708966233E-01 a       441     0    18     1    16
 -2.4552467064047540E-01 a       442     0    18     1    17
  2.3959573743956436E-01 a       443     0    18     1    18
  1.2372413721921344E-02 a       444     0    18     1    19
 -1.8559067782545000E-01 a       445     0    18     1    20
 -1.1661009260594918E-01 a       446     0    18     1    21
  1.2398673276977456E-02 a       447     0    18     1    22
 -2.6299094596660177E-01 a       448     0    18     1    23
 -4.5084097731354730E-02 a       449     0    18     1    24
 -2.0143006940640740E-01 a       450     0    18     1    25
 -1.5596920626107399E-01 a       451     0    19     1     1
 -1.7894669065306851E-01 a       452     0    19     1     2
 -2.6579297819843972E-01 a       453     0    19     1     3
 -3.0338000029239615E-01 a       454     0    19     1     4
 -1.5206738628896954E-01 a       455     0    19     1     5
 -3.4299471306800122E-01 a       456     0    19     1     6
 -2.9849580999955566E-01 a       457     0    19     1     7
  3.0222207124293732E-01 a       458     0    19     1     8
 -6.0661991062819021E-03 a       459     0    19     1     9
 -2.2864928138903823E-01 a       460     0    19     1    10
 -1.8278973015312372E-01 a       461     0    19     1    11
 -1.7375566031250986E-01 a       462     0    19     1    12
 -1.4090423558187556E-03 a       463     0    19     1    13
  6.1886550931184434E-02 a       464     0    19     1    14
  2.2512711921689385E-01 a       465     0    19     1    15
 -9.2176999522608164E-03 a       466     0    19     1    16
 -4.7487066584321079E-02 a       467     0    19     1    17
  1.4348295725129367E-01 a       468     0    19     1    18
  3.2344522891423595E-02 a       469     0    19     1    19
 -1.6984312593210184E-02 a       470     0    19     1    20
  1.0843453934623075E-01 a       471     0    19     1    21
  3.2431656738825632E-01 a       472     0    19     1    22
 -6.2789787957541574E-04 a       473     0    19     1    23
 -2.6658756126240180E-01 a       474     0    19     1    24
  1.3534820881888199E-01 a       475     0    19     1    25
 -8.7764734056497554E-02 a       476     0    20     1     1
 -1.3111229984525263E-01 a       477     0    20     1     2
  3.3481797235977184E-01 a       478     0    20     1     3
  1.5534283371305385E-01 a       479     0    20     1     4
  1.4605649085923433E-01 a       480     0    20     1     5
 -1.2526261778060771E-01 a       481     0    20     1     6
  2.5709648093103948E-01 a       482     0    20     1     7
  2.5314957451513570E-01 a       483     0    20     1     8
  2.4862724758110033E-01 a       484     0    20     1     9
  1.5924295476382241E-02 a       485     0    20     1    10
 -3.4530738360162366E-01 a       486     0    20     1    11
 -2.9239531585547268E-01 a       487     0    20     1    12
  1.1929119239089507E-01 a       488     0    20     1    13
  3.2715356126086415E-01 a       489     0    20     1    14
 -1.5226415892148073E-02 a       490     0    20     1    15
  1.9399668129575776E-01 a       491     0    20     1    16
 -1.8207663395211793E-01 a       492     0    20     1    17
 -2.3214707922919402E-02 a       493     0    20     1    18
 -2.2703932936212812E-01 a       494     0    20     1    19
 -1.4106729538195576E-03 a       495     0    20     1    20
 -3.7057078333164635E-02 a       496     0    20     1    21
  1.8884831324214139E-02 a       497     0    20     1    22
  1.5404537386988407E-01 a       498     0    20     1    23
 -5.2224626055098797E-02 a       499     0    20     1    24
 -2.6412395196531319E-01 a       500     0    20     1    25
 -1.8353538605049666E-01 a       501     0    21     1     1
 -5.3711288626248996E-03 a       502     0    21     1     2
  1.7939514083614147E-01 a       503     0    21     1     3
 -1.8741307421600745E-01 a       504     0    21     1     4
 -1.5451326471437557E-01 a       505     0    21     1     5
 -1.2004695184256371E-01 a       506     0    21     1     6
  2.0570338962949183E-01 a       507     0    21     1     7
 -8.2633874180371172E-02 a       508     0    21     1     8
  2.7945247268962303E-01 a       509     0    21     1     9
 -1.6249340626270656E-01 a       510     0    21     1    10
  9.8559409752575086E-02 a       511     0    21     1    11
  5.8005576618233981E-02 a       512     0    21     1    12
 -1.6970353768517929E-01 a       513     0    21     1    13
 -2.3629772600758797E-01 a       514     0    21     1    14
 -2.0832680570544021E-01 a       515     0    21     1    15
 -1.7804405209213250E-01 a       516     0    21     1    16
 -1.0454969862716525E-01 a       517     0    21     1    17
  2.3993217593362412E-01 a       518     0    21     1    18
  1.6342828329704627E-03 a       519     0    21     1    19
  3.2555150819263423E-01 a       520     0    21     1    20
  1.9609282195233366E-02 a       521     0    21     1    21
 -2.8038577744456972E-01 a       522     0    21     1    22
  7.5525788265665569E-02 a       523     0    21     1    23
 -1.7724528982760254E-01 a       524     0    21     1    24
 -1.7688230345814027E-01 a       525     0    21     1    25
 -1.2270052088395099E-01 a       526     0    22     1     1
  1.0950555580942935E-01 a       527     0    22     1     2
  1.6531922145741446E-01 a       528     0    22     1     3
  6.2143082312940891E-02 a       529     0    22     1     4
 -1.3933900453813336E-01 a       530     0    22     1     5
  3.5616491806516598E-01 a       531     0    22     1     6
 -2.2269639976971144E-02 a       532     0    22     1     7
  4.3879224109450651E-02 a       533     0    22     1     8
 -2.9864442488939828E-02 a       534     0    22     1     9
  2.3724848649674338E-01 a       535     0    22     1    10
 -2.3043061579715693E-03 a       536     0    22     1    11
 -1.0888181314096458E-01 a       537     0    22     1    12
 -2.8250528491394883E-01 a       538     0    22     1    13
 -1.7414641814912704E-01 a       539     0    22     1    14
 -2.1655682061181730E-01 a       540     0    22     1    15
  1.1272340150964227E-01 a       541     0    22     1    16
 -8.5843891292173430E-02 a       542     0    22     1    17
 -3.1148336911547936E-01 a       543     0    22     1    18
 -2.5651216833555174E-01 a       544     0    22     1    19
  2.2256873060274926E-01 a       545     0    22     1    20
 -1.6923272396113201E-01 a       546     0    22     1    21
 -3.1466353104886624E-01 a       547     0    22     1    22
 -1.7031960266619420E-01 a       548     0    22     1    23
  1.6730896470412709E-01 a       549     0    22     1    24
 -2.7353013713000807E-01 a       550     0    22     1    25
  2.1126279262223921E-01 a       551     0    23     1     1
  2.4473339116895465E-01 a       552     0    23     1     2
  1.8658179465718333E-01 a       553     0    23     1     3
  1.5445490162233241E-01 a       554     0    23     1     4
  1.6921425240555188E-01 a       555     0    23     1     5
 -2.1394136727035729E-01 a       556     0    23     1     6
  2.0698651591184927E-01 a       557     0    23     1     7
 -1.2705399945250961E-01 a       558     0    23     1     8
 -2.3536912252074403E-02 a       559     0    23     1     9
 -2.5977029236305821E-01 a       560     0    23     1    10
 -8.3556146816240892E-02 a       561     0    23     1    11
 -1.0334339639153106E-01 a       562     0    23     1    12
  3.9335655855737263E-02 a       563     0    23     1    13
  5.5059691136106571E-02 a       564     0    23     1    14
 -2.9243768866901171E-01 a       565     0    23     1    15
 -4.5193307771208231E-02 a       566     0    23     1    16
 -3.2892020260900531E-02 a       567     0    23     1    17
  3.1986311956292333E-02 a       568     0    23     1    18
 -4.2155867010787475E-02 a       569     0    23     1    19
 -7.6225963205728151E-02 a       570     0    23     1    20
 -2.6931657160438988E-01 a       571     0    23     1    21
  4.4960697904283559E-02 a       572     0    23     1    22
  3.3160324992170892E-01 a       573     0    23     1    23
 -3.0654283810928307E-01 a       574     0    23     1    24
 -1.4046110903903344E-01 a       575     0    23     1    25
 -1.4705239969189215E-01 a       576     0    24     1     1
  1.7400559249598413E-01 a       577     0    24     1     2
  1.3367530391588858E-01 a       578     0    24     1     3
  2.3611626727536308E-01 a       579     0    24     1     4
  9.9950335510585103E-02 a       580     0    24     1     5
 -5.5569855025456125E-02 a       581     0    24     1     6
 -2.6737073586834348E-01 a       582     0    24     1     7
  6.7728781102452687E-02 a       583     0    24     1     8
 -3.0104320369852211E-01 a       584     0    24     1     9
  2.2327207136873617E-01 a       585     0    24     1    10
 -2.1675245473770952E-01 a       586     0    24     1    11
  6.6907484276238901E-03 a       587     0    24     1    12
 -1.1004532053778462E-01 a       588     0    24     1    13
 -5.5729053386567917E-02 a       589     0    24     1    14
  2.2022652970087603E-01 a       590     0    24     1    15
  6.4149331693838851E-02 a       591     0    24     1    16
 -2.8970418738707004E-01 a       592     0    24     1    17
  3.2678598631025996E-01 a       593     0    24     1    18
 -1.9560543936661243E-01 a       594     0    24     1    19
 -3.5241775966880728E-01 a       595     0    24     1    20
  2.7512488809871932E-01 a       596     0    24     1    21
  4.1499419828127736E-02 a       597     0    24     1    22
  8.5121914916248501E-02 a       598     0    24     1    23
  2.5367930947729606E-01 a       599     0    24     1    24
 -2.4035556159454172E-01 a       600     0    24     1    25
  1.6488073635273282E-01 a       601     0    25     1     1
 -2.3671779006408322E-01 a       602     0    25     1     2
  2.5169607321395954E-01 a       603     0    25     1     3
 -2.2985199752461430E-01 a       604     0    25     1     4
  2.9760788354691164E-01 a       605     0    25     1     5
 -3.1882091728162992E-01 a       606     0    25     1     6
  1.1063998618029727E-01 a       607     0    25     1     7
 -1.6608662280971798E-01 a       608     0    25     1     8
 -2.0357812071064388E-01 a       609     0    25     1     9
  2.4871160287778520E-02 a       610     0    25     1    10
  8.6600298869951881E-02 a       611     0    25     1    11
  5.8538236527511271E-02 a       612     0    25     1    12
  3.3755548864152990E-01 a       613     0    25     1    13
  1.4294806372020602E-01 a       614     0    25     1    14
 -4.9433585025547046E-02 a       615     0    25     1    15
  3.0494925371256631E-01 a       616     0    25     1    16
 -2.2849069505432570E-01 a       617     0    25     1    17
 -1.6625053510059751E-01 a       618     0    25     1    18
  2.2117026361103745E-01 a       619     0    25     1    19
  2.7333151969431918E-01 a       620     0    25     1    20
  4.0915431898853737E-02 a       621     0    25     1    21
 -2.9979463523319810E-01 a       622     0    25     1    22
  2.1626033115185980E-01 a       623     0    25     1    23
  1.1786854471516042E-01 a       624     0    25     1    24
 -1.4590414863958734E-01 a       625     0    25     1    25
 -5.1592890252201901E-02 a       626     0    26     1     1
 -2.2975401819045366E-02 a       627     0    26     1     2
  1.6893573227710199E-01 a       628     0    26     1     3
  1.4763458325762865E-01 a       629     0    26     1     4
  3.3669231248006071E-01 a       630     0    26     1     5
 -3.5355737470736504E-01 a       631     0    26     1     6
  2.2204049243489191E-01 a       632     0    26     1     7
  2.0258816244733374E-01 a       633     0    26     1     8
  1.5338970769261454E-01 a       634     0    26     1     9
 -2.9715647856511779E-01 a       635     0    26     1    10
 -1.6460907818051354E-01 a       636     0    26     1    11
 -4.5148016015694660E-02 a       637     0    26     1    12
  9.5613507092038599E-02 a       638     0    26     1    13
 -6.7476076797027051E-02 a       639     0    26     1    14
  1.7761063605226327E-01 a       640     0    26     1    15
  7.7823667562895257E-02 a       641     0    26     1    16
  2.3831793351392394E-01 a       642     0    26     1    17
  2.1556670417785018E-01 a       643     0    26     1    18
 -3.5650849610560720E-03 a       644     0    26     1    19
  8.4358957390898007E-02 a       645     0    26     1    20
  1.8299744102743234E-01 a       646     0    26     1    21
  2.2482807003331495E-01 a       647     0    26     1    22
 -5.4004055090320545E-02 a       648     0    26     1    23
 -5.5838320164042950E-02 a       649     0    26     1    24
 -4.7425933380206016E-02 a       650     0    26     1    25
 -2.1404540601990793E-01 a       651     0    27     1     1
  3.3803577051565903E-01 a       652     0    27     1     2
  6.8531791665864428E-02 a       653     0    27     1     3
  1.4060395239689347E-01 a       654     0    27     1     4
 -2.0943066624894807E-01 a       655     0    27     1     5
 -2.8770866437078735E-01 a       656     0    27     1     6
  1.7068957586427352E-01 a       657     0    27     1     7
 -9.7865223293500628E-02 a       658     0    27     1     8
 -2.6100384769566032E-01 a       659     0    27     1     9
 -2.8261952663396495E-01 a       660     0    27     1    10
 -2.5693845513880637E-01 a       661     0    27     1    11
  8.0122434396934381E-02 a       662     0    27     1    12
  1.3786683007024131E-01 a       663     0    27     1    13
 -1.2973926938145577E-01 a       664     0    27     1    14
 -1.9824856432734478E-01 a       665     0    27     1    15
 -9.5572960997888035E-02 a       666     0    27     1    16
  1.0117957883633882E-01 a       667     0    27     1    17
 -3.0242688098375931E-01 a       668     0    27     1    18
 -2.3158969927594100E-01 a       669     0    27     1    19
 -2.0206489390724108E-01 a       670     0    27     1    20
 -1.3306735170346726E-01 a       671     0    27     1    21
 -1.9211914400101826E-01 a       672     0    27     1    22
 -4.4010246753223804E-03 a       673     0    27     1    23
  1.9288955436720587E-01 a       674     0    27     1    24
 -2.7400497494977266E-01 a       675     0    27     1    25
 -1.4145379386802572E-02 b       676     1     1
  2.6757819858029264E-02 b       677     1     2
  3.7541014580912246E-02 b       678     1     3
 -1.6656273259750155E-02 b       679     1     4
  4.6752866992040891E-02 b       680     1     5
  2.5219289645990700E-03 b       681     1     6
 -1.5568953675304722E-02 b       682     1     7
  5.5481571908390731E-02 b       683     1     8
 -4.0845760437322631E-02 b       684     1     9
 -4.2621089885205271E-02 b       685     1    10
  1.4975360064120731E-02 b       686     1    11
  2.3230373824280396E-02 b       687     1    12
  1.9841558748586331E-02 b       688     1    13
 -1.3539090079071701E-02 b       689     1    14
  1.9614889423578696E-02 b       690     1    15
 -3.0093714915371678E-02 b       691     1    16
 -1.3297568353471214E-03 b       692     1    17
 -7.3400280161255479E-02 b       693     1    18
 -3.7360776442128971E-02 b       694     1    19
 -4.1186430888879985E-03 b       695     1    20
  5.1876043238983670E-02 b       696     1    21
  7.9610373486284323E-03 b       697     1    22
 -1.1988219364191605E-02 b       698     1    23
 -7.8039191555199028E-03 b       699     1    24
 -3.9677081744507797E-03 b       700     1    25
  3.6483530064542073E-02 a       701     1     1     2     1
  1.1046797205177132E-01 a       702     1     1     2     2
  3.6006173829739842E-02 a       703     1     1     2     3
 -2.8719100261135666E-01 a       704     1     1     2     4
 -2.3783860567881721E-01 a       705     1     1     2     5
  1.7011316567883153E-01 a       706     1     1     2     6
 -2.2224532699529068E-01 a       707     1     1     2     7
  2.9386978372502315E-01 a       708     1     1     2     8
 -2.8679712718157557E-01 a       709     1     1     2     9
  1.9823811425960766E-01 a       710     1     1     2    10
 -2.4526842272297775E-01 a       711     1     1     2    11
  1.2807675892630455E-01 a       712     1     1     2    12
 -1.8182397398426986E-01 a       713     1     1     2    13
  2.6162299980913495E-01 a       714     1     1     2    14
 -5.8030934700232198E-02 a       715     1     1     2    15
 -1.3527360690881124E-01 a       716     1     1     2    16
 -3.3940995093566473E-01 a       717     1     1     2    17
 -3.3519516276905963E-02 a       718     1     1     2    18
  2.3317433248015257E-01 a       719     1     1     2    19
  3.1017879995520742E-01 a       720     1     1     2    20
 -1.1700953142295983E-01 a       721     1     1     2    21
 -3.2160000850691611E-01 a       722     1     1     2    22
  2.1386444404981747E-01 a       723     1     1     2    23
 -6.2628058909374049E-02 a       724     1     1     2    24
  3.0972789082088553E-01 a       725     1     1     2    25
 -1.9761498808831018E-01 a       726     1     2     2     1
 -1.4434300839043432E-01 a       727     1     2     2     2
 -3.3744310241988096E-02 a       728     1     2     2     3
 -2.4732556733176053E-01 a       729     1     2     2     4
  2.5051418085263683E-01 a       730     1     2     2     5
 -1.4308836536243397E-01 a       731     1     2     2     6
 -3.0402962585562537E-01 a       732     1     2     2     7
 -1.7154469060099042E-01 a       733     1     2     2     8
 -3.7361179718216425E-02 a       734     1     2     2     9
 -3.0300234537900705E-01 a       735     1     2     2    10
 -2.8952144950728992E-01 a       736     1     2     2    11
  1.4957151500279439E-01 a       737     1     2     2    12
  2.2731480229140377E-01 a       738     1     2     2    13
 -3.1340099782094766E-01 a       739     1     2     2    14
  2.2795318696300332E-01 a       740     1     2     2    15
  2.5871219402023510E-01 a       741     1     2     2    16
  2.1061537953962384E-01 a       742     1     2     2    17
 -2.3983241071986430E-01 a       743     1     2     2    18
 -1.5119414958661381E-01 a       744     1     2     2    19
 -3.4091576917815286E-01 a       745     1     2     2    20
 -2.4200404101135495E-01 a       746     1     2     2    21
  2.9345940154865058E-01 a       747     1     2     2    22
  3.5524219697734627E-01 a       748     1     2     2    23
  1.7528042243303601E-01 a       749     1     2     2    24
  2.5411073628706444E-02 a       750     1     2     2    25
  1.3731037166859963E-01 a       751     1     3     2     1
  2.6646804783519551E-01 a       752     1     3     2     2
  1.9963205809265105E-01 a       753     1     3     2     3
  5.8345501608636594E-02 a       754     1     3     2     4
 -3.1776926943729222E-01 a       755     1     3     2     5
 -1.2285919274054018E-01 a       756     1     3     2     6
 -1.8803494136173221E-01 a       757     1     3     2     7
  6.4129057262310154E-03 a       758     1     3     2     8
 -1.5996091021958914E-01 a       759     1     3     2     9
  1.6620851288376831E-01 a       760     1     3     2    10
 -1.4879029516793260E-01 a       761     1     3     2    11
  1.0568290053193925E-01 a       762     1     3     2    12
 -1.8828483016061459E-01 a       763     1     3     2    13
  2.2264769044212965E-01 a       764     1     3     2    14
  5.9260653767561858E-02 a       765     1     3     2    15
 -2.7851825906639927E-01 a       766     1     3     2    16
  2.7072906914497019E-01 a       767     1     3     2    17
  4.4564925225510948E-02 a       768     1     3     2    18
  1.9484509484841921E-02 a       769     1     3     2    19
  2.5608723452551163E-01 a       770     1     3     2    20
 -3.4591413411092148E-01 a       771     1     3     2    21
  3.0031410120563695E-01 a       772     1     3     2    22
 -8.1223668012640596E-02 a       773     1     3     2    23
  1.4557681491328167E-01 a       774     1     3     2    24
 -2.7914779541593981E-01 a       775     1     3     2    25
 -2.9010374776444187E-01 a       776     1     4     2     1
 -3.5864978388855231E-02 a       777     1     4     2     2
 -8.4452131102195155E-02 a       778     1     4     2     3
  1.7763695093567639E-01 a       779     1     4     2     4
 -2.3397443368108703E-01 a       780     1     4     2     5
 -3.4027503809501841E-01 a       781     1     4     2     6
 -1.6070645861786331E-01 a       782     1     4     2     7
  1.8692346038688348E-01 a       783     1     4     2     8
 -3.6568877874020946E-02 a       784     1     4     2     9
  4.6675526748619814E-02 a       785     1     4     2    10
 -3.4600797104252029E-01 a       786     1     4     2    11
 -3.2068001805118174E-01 a       787     1     4     2    12
 -2.7715952218156542E-01 a       788     1     4     2    13
  4.3358188192011204E-02 a       789     1     4     2    14
  2.8183229112100211E-01 a       790     1     4     2    15
  8.9711670120968978E-02 a       791     1     4     2    16
 -2.2409932488882897E-01 a       792     1     4     2    17
  6.7652606438557431E-02 a       793     1     4     2    18
 -8.3149504820539843E-02 a       794     1     4     2    19
  5.7248851935677761E-02 a       795     1     4     2    20
 -2.2134784097374779E-01 a       796     1     4     2    21
  2.3750708389213424E-01 a       797     1     4     2    22
 -1.9217719804357214E-01 a       798     1     4     2    23
 -8.3896528230968326E-02 a       799     1     4     2    24
 -1.3281560342403953E-01 a       800     1     4     2    25
  4.7583134991234559E-02 a       801     1     5     2     1
 -2.9498857254799926E-01 a       802     1     5     2     2
 -7.0956965141176900E-02 a       803     1     5     2     3
 -2.1281682935319901E-01 a       804     1     5     2     4
  2.5517104113679423E-01 a       805     1     5     2     5
 -4.4800465724032226E-03 a       806     1     5     2     6
 -2.2732973447472105E-01 a       807     1     5     2     7
 -1.9418186880283780E-02 a       808     1     5     2     8
  1.3812048427735321E-01 a       809     1     5     2     9
 -2.3061950044104171E-01 a       810     1     5     2    10
  6.3755187953848477E-02 a       811     1     5     2    11
 -2.8908228130564578E-01 a       812     1     5     2    12
 -1.6842352002917202E-01 a       813     1     5     2    13
  1.3295192877009426E-01 a       814     1     5     2    14
  2.2383895463786546E-01 a       815     1     5     2    15
 -1.6764827684116615E-01 a       816     1     5     2    16
 -2.3034047652134657E-01 a       817     1     5     2    17
  5.2814835881192172E-02 a       818     1     5     2    18
  1.2713928317509390E-01 a       819     1     5     2    19
  3.5113465810567922E-02 a       820     1     5     2    20
 -2.7666452089587884E-01 a       821     1     5     2    21
  6.1668735293077953E-02 a       822     1     5     2    22
 -6.8172996028457986E-02 a       823     1     5     2    23
 -1.4906554984567913E-01 a       824     1     5     2    24
 -2.2732845466826543E-01 a       825     1     5     2    25
  3.3099881322912160E-03 a       826     1     6     2     1
 -4.7807893175687843E-02 a       827     1     6     2     2
  2.5636650285191265E-01 a       828     1     6     2     3
 -2.8734046465994123E-01 a       829     1     6     2     4
  3.9604703067360852E-01 a       830     1     6     2     5
  1.4536326846812606E-01 a       831     1     6     2     6
 -3.3650473319262064E-01 a       832     1     6     2     7
  3.6043027686078283E-01 a       833     1     6     2     8
  2.2249525651818858E-01 a       834     1     6     2     9
 -2.7799331885225109E-01 a       835     1     6     2    10
 -8.4029230300988633E-02 a       836     1     6     2    11
 -1.7614052545036166E-01 a       837     1     6     2    12
  1.0512136616884082E-02 a       838     1     6     2    13
 -3.0678470410874292E-01 a       839     1     6     2    14
 -3.5187995122997812E-01 a       840     1     6     2    15
  6.5178460268828689E-02 a       841     1     6     2    16
  1.5462942507182642E-01 a       842     1     6     2    17
  3.4284274846372997E-01 a       843     1     6     2    18
  1.6903438600686396E-01 a       844     1     6     2    19
  1.3480668881950794E-01 a       845     1     6     2    20
 -3.0374582822862689E-01 a       846     1     6     2    21
  3.2891331772711419E-02 a       847     1     6     2    22
  1.8785485549979583E-01 a       848     1     6     2    23
  1.9855886176628113E-01 a       849     1     6     2    24
  6.6455398104107166E-02 a       850     1     6     2    25
  1.3328448329620643E-01 a       851     1     7     2     1
 -1.0367346009639064E-01 a       852     1     7     2     2
 -1.2111423194847550E-01 a       853     1     7     2     3
 -1.6278702504854725E-01 a       854     1     7     2     4
 -5.7397543044446588E-02 a       855     1     7     2     5
 -1.9459986505064047E-01 a       856     1     7     2     6
  2.2531581304644940E-01 a       857     1     7     2     7
  1.7958117191928036E-01 a       858     1     7     2     8
 -2.3151997021260143E-01 a       859     1     7     2     9
 -2.4638787865949607E-01 a       860     1     7     2    10
  1.0662203105680361E-01 a       861     1     7     2    11
  2.8792749967255576E-01 a       862     1     7     2    12
 -2.4515322980942231E-01 a       863     1     7     2    13
 -2.2421167452867222E-01 a       864     1     7     2    14
  2.6425170375106576E-02 a       865     1     7     2    15
 -1.1126125566958577E-01 a       866     1     7     2    16
 -8.7543834154092171E-02 a       867     1     7     2    17
 -2.7521770282887181E-01 a       868     1     7     2    18
  2.3910141345679495E-01 a       869     1     7     2    19
 -1.0948314139059102E-01 a       870     1     7     2    20
  3.2961824212627433E-01 a       871     1     7     2    21
  3.0477682270687839E-01 a       872     1     7     2    22
 -3.1130135974006642E-02 a       873     1     7     2    23
  3.1384895012857444E-01 a       874     1     7     2    24
  5.0014206821238888E-02 a       875     1     7     2    25
  3.4170650155904919E-01 a       876     1     8     2     1
  1.0975004637526844E-03 a       877     1     8     2     2
 -2.4369961890568564E-01 a       878     1     8     2     3
 -9.0730448071190031E-02 a       879     1     8     2     4
  3.5829522843180611E-01 a       880     1     8     2     5
 -1.8102300866473894E-01 a       881     1     8     2     6
 -2.6322386963455274E-01 a       882     1     8     2     7
  5.4111085232015688E-02 a       883     1     8     2     8
  1.1011507833476966E-01 a       884     1     8     2     9
 -1.1245586967012623E-01 a       885     1     8     2    10
 -1.2340471664864487E-01 a       886     1     8     2    11
 -3.0067608523209427E-01 a       887     1     8     2    12
  2.9706696838537860E-01 a       888     1     8     2    13
 -1.9241427888585397E-01 a       889     1     8     2    14
  9.0857209715959847E-04 a       890     1     8     2    15
 -2.2414143747587482E-02 a       891     1     8     2    16
 -1.8914951914749237E-01 a       892     1     8     2    17
 -1.8232178761182591E-02 a       893     1     8     2    18
 -1.7604204203708007E-01 a       894     1     8     2    19
  3.0921474659951659E-01 a       895     1     8     2    20
 -2.0643373602287246E-01 a       896     1     8     2    21
  4.5820307382287026E-02 a       897     1     8     2    22
 -1.1689374505782911E-01 a       898     1     8     2    23
 -3.2556696299422642E-02 a       899     1     8     2    24
 -3.3645642650656593E-01 a       900     1     8     2    25
  7.8786726314691566E-02 a       901     1     9     2     1
  3.3641690186994683E-01 a       902     1     9     2     2
 -1.4140550140876354E-01 a       903     1     9     2     3
 -2.2339420902957272E-01 a       904     1     9     2     4
 -1.9032596447270159E-01 a       905     1     9     2     5
  1.0204404041694658E-03 a       906     1     9     2     6
 -1.2722190107863082E-01 a       907     1     9     2     7
 -2.8555327454391538E-01 a       908     1     9     2     8
  3.2005191596781668E-01 a       909     1     9     2     9
  2.8465825771545306E-01 a       910     1     9     2    10
 -2.1828342326906536E-01 a       911     1     9     2    11
  1.8615946584139259E-01 a       912     1     9     2    12
  1.8865007181738949E-01 a       913     1     9     2    13
  2.4099861093436475E-01 a       914     1     9     2    14
 -3.0070012189888923E-01 a       915     1     9     2    15
 -1.9482309058834835E-01 a       916     1     9     2    16
 -2.7221048242887491E-01 a       917     1     9     2    17
  8.1593783238666853E-02 a       918     1     9     2    18
 -1.6052344032308480E-01 a       919     1     9     2    19
  2.1613994260778988E-01 a       920     1     9     2    20
  1.2403195171299128E-02 a       921     1     9     2    21
 -1.9004413261457553E-01 a       922     1     9     2    22
  7.1746828798978382E-02 a       923     1     9     2    23
 -8.8760756707963365E-02 a       924     1     9     2    24
 -1.6867827957049136E-01 a       925     1     9     2    25
  3.2266462001604368E-01 a       926     1    10     2     1
 -2.2421086603299389E-01 a       927     1    10     2     2
  8.7959789794193624E-02 a       928     1    10     2     3
  1.1634585549786958E-01 a       929     1    10     2     4
  1.5988621709220652E-01 a       930     1    10     2     5
 -2.0465373845569138E-01 a       931     1    10     2     6
  3.2210456084391414E-01 a       932     1    10     2     7
  6.2789034959831902E-02 a       933     1    10     2     8
  2.8381858392884224E-01 a       934     1    10     2     9
 -1.2892938339900922E-01 a       935     1    10     2    10
 -2.1576288391893134E-01 a       936     1    10     2    11
 -2.9132406145656337E-01 a       937     1    10     2    12
 -1.6166289110737284E-01 a       938     1    10     2    13
  8.5890311255792384E-02 a       939     1    10     2    14
 -2.2494335707209367E-01 a       940     1    10     2    15
 -3.6185773339057947E-01 a       941     1    10     2    16
  2.2798158788328721E-01 a       942     1    10     2    17
  2.3258616969025606E-01 a       943     1    10     2    18
 -4.2849374824660669E-02 a       944     1    10     2    19
 -4.2417671441510069E-02 a       945     1    10     2    20
 -2.7679009905470059E-01 a       946     1    10     2    21
  1.1327750714740327E-01 a       947     1    10     2    22
 -3.2388191110987397E-01 a       948     1    10     2    23
  2.8487606653327763E-01 a       949     1    10     2    24
 -1.3631922785500425E-01 a       950     1    10     2    25
  8.4927071200712245E-02 a       951     1    11     2     1
 -2.5844599558209597E-01 a       952     1    11     2     2
 -3.2731867994851692E-02 a       953     1    11     2     3
  3.4898871387819240E-03 a       954     1    11     2     4
  1.7829590740938983E-01 a       955     1    11     2     5
  4.2063603153353488E-02 a       956     1    11     2     6
 -3.2486942247885842E-01 a       957     1    11     2     7
  2.3327572997241010E-03 a       958     1    11     2     8
  2.0161643900946422E-02 a       959     1    11     2     9
 -2.5384506455702699E-01 a       960     1    11     2    10
  1.8906035211816039E-01 a       961     1    11     2    11
 -2.7367916406722349E-02 a       962     1    11     2    12
 -2.7770806631801442E-01 a       963     1    11     2    13
  1.7849389412400202E-01 a       964     1    11     2    14
  2.6183476128776567E-01 a       965     1    11     2    15
 -4.7181149865829906E-02 a       966     1    11     2    16
 -2.0503349248712444E-01 a       967     1    11     2    17
  1.5761350872596122E-01 a       968     1    11     2    18
 -9.8878620208279061E-02 a       969     1    11     2    19
 -2.5039271591762324E-01 a       970     1    11     2    20
  2.3706850106308758E-01 a       971     1    11     2    21
 -1.3398989155358507E-01 a       972     1    11     2    22
  4.0008774221250924E-02 a       973     1    11     2    23
  2.7331253917997850E-01 a       974     1    11     2    24
  2.9626896805312103E-01 a       975     1    11     2    25
 -3.0644754042668104E-01 a       976     1    12     2     1
  1.4523857375303784E-01 a       977     1    12     2     2
 -2.2581964885726918E-01 a       978     1    12     2     3
  2.7747550911967709E-02 a       979     1    12     2     4
  1.9347912651004942E-01 a       980     1    12     2     5
 -2.9213686408454836E-01 a       981     1    12     2     6
 -2.4421198701272015E-01 a       982     1    12     2     7
 -1.0789735093020585E-01 a       983     1    12     2     8
  1.6458081274210352E-02 a       984     1    12     2     9
  2.0821863944377372E-01 a       985     1    12     2    10
 -1.1307739990427616E-01 a       986     1    12     2    11
 -3.4048320651052219E-02 a       987     1    12     2    12
 -4.2208984332597385E-02 a       988     1    12     2    13
 -1.4125227298263601E-01 a       989     1    12     2    14
  1.7390771085979265E-01 a       990     1    12     2    15
  2.2738941202482876E-01 a       991     1    12     2    16
  2.0799421103556670E-01 a       992     1    12     2    17
 -1.6796795131854411E-01 a       993     1    12     2    18
  1.7962644396231997E-03 a       994     1    12     2    19
  2.7417446754919589E-01 a       995     1    12     2    20
  1.2909641290112692E-02 a       996     1    12     2    21
  7.3079740119316944E-04 a       997     1    12     2    22
 -9.7306483340169461E-02 a       998     1    12     2    23
 -2.8942718039917764E-01 a       999     1    12     2    24
 -1.0751638090684502E-02 a      1000     1    12     2    25
 -2.9248841544226140E-01 a      1001     1    13     2     1
 -2.2027158541956487E-01 a      1002     1    13     2     2
  5.8885076558614635E-02 a      1003     1    13     2     3
  2.7027998080258131E-01 a      1004     1    13     2     4
 -2.9378606524512973E-02 a      1005     1    13     2     5
  1.8080687669311016E-01 a      1006     1    13     2     6
 -1.4393759091087724E-01 a      1007     1    13     2     7
 -1.4374999516685777E-01 a      1008     1    13     2     8
  2.5704870306889760E-01 a      1009     1    13     2     9
  1.7007318132844509E-01 a      1010     1    13     2    10
  9.0348218679299874E-02 a      1011     1    13     2    11
 -7.8422392389611781E-02 a      1012     1    13     2    12
 -6.7276721946332371E-02 a      1013     1    13     2    13
  1.2198546755880690E-01 a      1014     1    13     2    14
  2.8620508508468412E-01 a      1015     1    13     2    15
 -3.1667887719140264E-01 a      1016     1    13     2    16
 -1.8138843242037744E-01 a      1017     1    13     2    17
  1.9300357062454870E-01 a      1018     1    13     2    18
  2.4182679365990251E-01 a      1019     1    13     2    19
 -1.2643092576670014E-02 a      1020     1    13     2    20
 -3.7164182379144949E-02 a      1021     1    13     2    21
  1.3566430290767897E-01 a      1022     1    13     2    22
 -1.0132150134862870E-01 a      1023     1    13     2    23
 -1.4916923053093470E-01 a      1024     1    13     2    24
 -1.1924991447047728E-01 a      1025     1    13     2    25
 -2.7472726112618095E-01 a      1026     1    14     2     1
  8.5248925269774595E-02 a      1027     1    14     2     2
 -2.2046334759135086E-01 a      1028     1    14     2     3
 -2.9998961811526084E-02 a      1029     1    14     2     4
  1.7333279580358707E-01 a      1030     1    14     2     5
 -7.6048145130483552E-02 a      1031     1    14     2     6
 -1.6946869399185588E-01 a      1032     1    14     2     7
  1.2666873893629041E-01 a      1033     1    14     2     8
 -1.4791515431124730E-01 a      1034     1    14     2     9
  1.0916590692377276E-01 a      1035     1    14     2    10
 -2.5533154037189941E-02 a      1036     1    14     2    11
  1.1189064964329580E-01 a      1037     1    14     2    12
  2.3540336390804995E-01 a      1038     1    14     2    13
 -7.8933857295746437E-02 a      1039     1    14     2    14
  1.4288205089559809E-02 a      1040     1    14     2    15
 -2.4760268828138154E-02 a      1041     1    14     2    16
 -3.9847410483344871E-02 a      1042     1    14     2    17
  7.5305854609059295E-02 a      1043     1    14     2    18
 -3.1473211230680159E-01 a      1044     1    14     2    19
  3.3578007289615824E-01 a      1045     1    14     2    20
 -4.4564378703679736E-03 a      1046     1    14     2    21
 -1.3543757598671910E-01 a      1047     1    14     2    22
 -1.2833548276455218E-03 a      1048     1    14     2    23
 -2.4909280532013037E-01 a      1049     1    14     2    24
 -1.4999761335542641E-01 a      1050     1    14     2    25
  1.0655412459167829E-01 a      1051     1    15     2     1
  4.4871159144630655E-02 a      1052     1    15     2     2
  1.4469797369085230E-01 a      1053     1    15     2     3
 -2.6204776166856480E-01 a      1054     1    15     2     4
 -2.9279041996687605E-01 a      1055     1    15     2     5
 -1.4965193416232345E-01 a      1056     1    15     2     6
 -1.4134850789935555E-01 a      1057     1    15     2     7
  2.6824061108405434E-01 a      1058     1    15     2     8
  2.3960504213255049E-01 a      1059     1    15     2     9
 -9.6519575413980003E-03 a      1060     1    15     2    10
  3.1419413708559801E-01 a      1061     1    15     2    11
  2.3068291112596595E-01 a      1062     1    15     2    12
  2.8540864047785924E-01 a      1063     1    15     2    13
 -1.6372674887159773E-02 a      1064     1    15     2    14
  1.8023623110821821E-01 a      1065     1    15     2    15
 -9.4915520617212965E-02 a      1066     1    15     2    16
 -2.9434455985643010E-01 a      1067     1    15     2    17
  2.3454080516589504E-01 a      1068     1    15     2    18
  1.4318832048912328E-01 a      1069     1    15     2    19
 -6.7643485370339623E-02 a      1070     1    15     2    20
 -1.9213803154114054E-01 a      1071     1    15     2    21
  1.1127467858467077E-01 a      1072     1    15     2    22
 -1.3886888558536623E-01 a      1073     1    15     2    23
 -2.1172814092168976E-01 a      1074     1    15     2    24
 -1.6345040747088929E-01 a      1075     1    15     2    25
 -7.7961174777586351E-02 a      1076     1    16     2     1
  1.2515265538927561E-01 a      1077     1    16     2     2
  1.7520727189964644E-01 a      1078     1    16     2     3
  1.5655472315836783E-01 a      1079     1    16     2     4
  1.4018260691887678E-02 a      1080     1    16     2     5
  3.2566967538099201E-01 a      1081     1    16     2     6
  2.7518656019620119E-01 a      1082     1    16     2     7
  1.1154791564897065E-01 a      1083     1    16     2     8
 -3.3044162824011075E-01 a      1084     1    16     2     9
 -1.5483503756471181E-01 a      1085     1    16     2    10
 -6.0408917257076859E-02 a      1086     1    16     2    11
 -3.2349865626596075E-01 a      1087     1    16     2    12
 -7.1227462316276066E-02 a      1088     1    16     2    13
 -6.7229280047177032E-03 a      1089     1    16     2    14
 -2.7919784748961235E-01 a      1090     1    16     2    15
  9.4884984071618300E-02 a      1091     1    16     2    16
  1.4064802300888829E-01 a      1092     1    16     2    17
  3.4309028301898048E-01 a      1093     1    16     2    18
  5.8721692995532268E-03 a      1094     1    16     2    19
 -3.1231476752249299E-01 a      1095     1    16     2    20
 -2.4230768891165047E-01 a      1096     1    16     2    21
 -5.4377899631487370E-02 a      1097     1    16     2    22
 -2.8379147233035845E-01 a      1098     1    16     2    23
  2.6802835007010212E-01 a      1099     1    16     2    24
  8.0934306553867557E-03 a      1100     1    16     2    25
  2.6374490935804729E-02 a      1101     1    17     2     1
 -1.6996834771122141E-01 a      1102     1    17     2     2
 -2.0942581063390800E-01 a      1103     1    17     2     3
 -2.7591576584045857E-01 a      1104     1    17     2     4
  1.3469217942078152E-01 a      1105     1    17     2     5
 -2.0795765875708366E-01 a      1106     1    17     2     6
 -1.7305769529010240E-01 a      1107     1    17     2     7
 -2.5795021937648860E-01 a      1108     1    17     2     8
 -2.5957012323943945E-01 a      1109     1    17     2     9
 -1.3015486934906129E-01 a      1110     1    17     2    10
  3.2479382297038850E-01 a      1111     1    17     2    11
  5.8417622419352541E-02 a      1112     1    17     2    12
  3.4244543535347866E-02 a      1113     1    17     2    13
 -2.6077954003476622E-02 a      1114     1    17     2    14
 -1.4777247023081494E-01 a      1115     1    17     2    15
  3.7355041800126242E-02 a      1116     1    17     2    16
 -2.6490364449018250E-01 a      1117     1    17     2    17
 -2.3079991870954436E-01 a      1118     1    17     2    18
  2.0854157491520239E-01 a      1119     1    17     2    19
  3.1979881420747758E-01 a      1120     1    17     2    20
 -2.1990987531795733E-01 a      1121     1    17     2    21
 -1.6738651733223353E-01 a      1122     1    17     2    22
 -2.2641541438106622E-01 a      1123     1    17     2    23
  2.2881954270530133E-01 a      1124     1    17     2    24
 -1.7347309535778224E-01 a      1125     1    17     2    25
 -2.3045771538427862E-01 a      1126     1    18     2     1
  1.5111709434116008E-01 a      1127     1    18     2     2
  1.8399113282841453E-02 a      1128     1    18     2     3
  3.1988142591129837E-01 a      1129     1    18     2     4
 -1.0515384834271828E-01 a      1130     1    18     2     5
 -1.6236810318186079E-01 a      1131     1    18     2     6
 -8.3166470952362702E-03 a      1132     1    18     2     7
 -2.2631370041237381E-01 a      1133     1    18     2     8
 -2.1074377124881835E-01 a      1134     1    18     2     9
 -2.5718802942761310E-01 a      1135     1    18     2    10
  1.4276612263362234E-01 a      1136     1    18     2    11
 -1.0454669493982632E-01 a      1137     1    18     2    12
 -1.4073203993439365E-01 a      1138     1    18     2    13
 -3.4269242847144404E-01 a      1139     1    18     2    14
 -8.2213210251161559E-02 a      1140     1    18     2    15
 -3.1722607619318033E-01 a      1141     1    18     2    16
 -3.1825050243569436E-01 a      1142     1    18     2    17
  1.1873771679213180E-01 a      1143     1    18     2    18
 -1.4334244203466812E-01 a      1144     1    18     2    19
 -1.6842624174971935E-01 a      1145     1    18     2    20
  3.1349754008418329E-01 a      1146     1    18     2    21
 -1.4770919843153915E-01 a      1147     1    18     2    22
 -9.3985254805345128E-02 a      1148     1    18     2    23
  1.4707907946296078E-01 a      1149     1    18     2    24
  8.7168015941419125E-02 a      1150     1    18     2    25
  3.1959808416264807E-02 a      1151     1    19     2     1
 -2.1861850270165972E-01 a      1152     1    19     2     2
  2.1629595428796852E-01 a      1153     1    19     2     3
  2.4225367356959102E-01 a      1154     1    19     2     4
 -3.2058310205791624E-01 a      1155     1    19     2     5
 -7.8673712930407327E-02 a      1156     1    19     2     6
 -7.7856738989003933E-03 a      1157     1    19     2     7
 -2.6449113588864381E-01 a      1158     1    19     2     8
 -2.1564728194855481E-01 a      1159     1    19     2     9
 -8.9726308447344541E-02 a      1160     1    19     2    10
  3.8952540979387051E-02 a      1161     1    19     2    11
  2.5848396186285544E-01 a      1162     1    19     2    12
 -2.4044512920231648E-01 a      1163     1    19     2    13
 -1.8485875463404364E-01 a      1164     1    19     2    14
  2.1501282072442413E-01 a      1165     1    19     2    15
  7.4129637516030120E-02 a      1166     1    19     2    16
 -4.3461693032539522E-02 a      1167     1    19     2    17
  2.7572838465764649E-01 a      1168     1    19     2    18
 -1.4115842772237522E-01 a      1169     1    19     2    19
 -2.9081478369264074E-01 a      1170     1    19     2    20
  2.6762753589897725E-01 a      1171     1    19     2    21
  3.1648314426859869E-01 a      1172     1    19     2    22
  1.1306725521855394E-01 a      1173     1    19     2    23
  2.7437737600373957E-01 a      1174     1    19     2    24
 -2.2813818629793989E-01 a      1175     1    19     2    25
 -2.8444453950769683E-01 a      1176     1    20     2     1
 -1.9413886753698423E-01 a      1177     1    20     2     2
  9.6211514498442827E-02 a      1178     1    20     2     3
 -3.4200718029218591E-02 a      1179     1    20     2     4
 -3.7747160017338849E-01 a      1180     1    20     2     5
 -2.2906298153557930E-01 a      1181     1    20     2     6
  2.0355492042794460E-01 a      1182     1    20     2     7
  7.1464098032201426E-02 a      1183     1    20     2     8
  9.1796473151061736E-02 a      1184     1    20     2     9
 -9.9527082223013139E-02 a      1185     1    20     2    10
  1.3888802998781932E-01 a      1186     1    20     2    11
  1.7459517588605392E-01 a      1187     1    20     2    12
  5.1767553809894493E-02 a      1188     1    20     2    13
 -2.7223025960864178E-01 a      1189     1    20     2    14
 -2.1650464699454702E-01 a      1190     1    20     2    15
 -2.6356313305929563E-01 a      1191     1    20     2    16
  2.2538923386105300E-01 a      1192     1    20     2    17
  4.9581774754549703E-02 a      1193     1    20     2    18
 -1.8278545382200739E-01 a      1194     1    20     2    19
  2.6077868024229839E-01 a      1195     1    20     2    20
 -6.7006205605067162E-02 a      1196     1    20     2    21
 -3.1702060492384454E-01 a      1197     1    20     2    22
  2.9926382686535635E-01 a      1198     1    20     2    23
 -2.2158315020406466E-02 a      1199     1    20     2    24
  6.0945081835416026E-02 a      1200     1    20     2    25
  2.5210049620073688E-01 a      1201     1    21     2     1
  5.1507612294338610E-02 a      1202     1    21     2     2
  1.8051835841976910E-01 a      1203     1    21     2     3
 -2.7368872583294040E-01 a      1204     1    21     2     4
  1.2548963858486714E-01 a      1205     1    21     2     5
 -1.5492055169791780E-01 a      1206     1    21     2     6
 -1.1255654659254459E-01 a      1207     1    21     2     7
 -2.4008955598340140E-01 a      1208     1    21     2     8
 -8.4608785925460214E-02 a      1209     1    21     2     9
  1.1228859261420931E-01 a      1210     1    21     2    10
  2.9459803236692628E-01 a      1211     1    21     2    11
  1.1209058714139720E-01 a      1212     1    21     2    12
  9.0572820420339969E-02 a      1213     1    21     2    13
 -2.2579130764817867E-01 a      1214     1    21     2    14
 -3.3767462340803545E-01 a      1215     1    21     2    15
 -2.1900002063347387E-01 a      1216     1    21     2    16
 -3.9305846990027017E-02 a      1217     1    21     2    17
 -2.9729484303977594E-01 a      1218     1    21     2    18
  8.6813482773814551E-02 a      1219     1    21     2    19
 -3.0592340331065393E-01 a      1220     1    21     2    20
 -2.9504202654313427E-01 a      1221     1    21     2    21
 -6.0094300103412303E-02 a      1222     1    21     2    22
  1.2897211281786766E-02 a      1223     1    21     2    23
 -2.4345306412771790E-02 a      1224     1    21     2    24
  3.2793708838849378E-01 a      1225     1    21     2    25
 -1.7491176303750741E-01 a      1226     1    22     2     1
 -2.4311918972973998E-01 a      1227     1    22     2     2
 -8.2114757087581425E-02 a      1228     1    22     2     3
 -1.3053545341799433E-01 a      1229     1    22     2     4
  2.8679205134110242E-01 a      1230     1    22     2     5
  1.6980968189264806E-01 a      1231     1    22     2     6
 -8.0811436365316749E-02 a      1232     1    22     2     7
 -1.7322091894785249E-01 a      1233     1    22     2     8
 -2.8536485571958015E-01 a      1234     1    22     2     9
 -5.9436482815261441E-02 a      1235     1    22     2    10
  3.1058689511223320E-01 a      1236     1    22     2    11
 -1.5002202782801188E-01 a      1237     1    22     2    12
 -5.2255608023049363E-02 a      1238     1    22     2    13
  5.5593473791495533E-02 a      1239     1    22     2    14
 -2.2430268125411185E-01 a      1240     1    22     2    15
 -1.8949100362019661E-01 a      1241     1    22     2    16
 -9.8412109223410316E-02 a      1242     1    22     2    17
  7.7900862714491717E-02 a      1243     1    22     2    18
 -1.2255052395505620E-01 a      1244     1    22     2    19
  2.6921783742721295E-01 a      1245     1    22     2    20
  1.6925772226233984E-01 a      1246     1    22     2    21
  2.0625863260254101E-01 a      1247     1    22     2    22
 -1.8439307583359418E-01 a      1248     1    22     2    23
 -6.1147839358722936E-02 a      1249     1    22     2    24
  1.5664643113875880E-02 a      1250     1    22     2    25
 -2.2441808570484675E-01 a      1251     1    23     2     1
  2.5336697786867979E-01 a      1252     1    23     2     2
  1.2731555157872088E-01 a      1253     1    23     2     3
 -2.5863719695651566E-01 a      1254     1    23     2     4
  1.0325893740500744E-01 a      1255     1    23     2     5
  3.4508805213762772E-01 a      1256     1    23     2     6
 -1.6593036744728726E-01 a      1257     1    23     2     7
 -2.2721958081232219E-01 a      1258     1    23     2     8
  3.4249368018916919E-02 a      1259     1    23     2     9
  1.6300618601322497E-01 a      1260     1    23     2    10
 -1.9358479827465150E-01 a      1261     1    23     2    11
 -7.0360843508655568E-02 a      1262     1    23     2    12
 -1.7861386260651324E-01 a      1263     1    23     2    13
  1.6791008849649214E-01 a      1264     1    23     2    14
 -2.0104475699572741E-01 a      1265     1    23     2    15
 -2.0828493970547327E-01 a      1266     1    23     2    16
  2.9286241122441187E-01 a      1267     1    23     2    17
  5.6096198659042456E-03 a      1268     1    23     2    18
  2.8505975705975274E-02 a      1269     1    23     2    19
 -6.9757628733022034E-02 a      1270     1    23     2    20
  1.0807175505931654E-01 a      1271     1    23     2    21
  1.7923289030587522E-01 a      1272     1    23     2    22
  1.2737346862522508E-01 a      1273     1    23     2    23
  7.1334690098492234E-02 a      1274     1    23     2    24
 -2.9559288167681130E-01 a      1275     1    23     2    25
  1.5859249794844757E-01 a      1276     1    24     2     1
 -3.0148874609640064E-01 a      1277     1    24     2     2
 -1.0018946983316802E-01 a      1278     1    24     2     3
 -2.1735640310056678E-01 a      1279     1    24     2     4
  3.0203212790988432E-01 a      1280     1    24     2     5
 -2.6049514368377928E-03 a      1281     1    24     2     6
  1.2464130902414441E-01 a      1282     1    24     2     7
 -1.4076336509867493E-01 a      1283     1    24     2     8
  1.4166565178356691E-01 a      1284     1    24     2     9
 -2.4854325134496794E-01 a      1285     1    24     2    10
 -3.9436113403593591E-02 a      1286     1    24     2    11
 -1.4831661028237830E-01 a      1287     1    24     2    12
 -1.8740664688110176E-01 a      1288     1    24     2    13
 -1.2775840551497630E-01 a      1289     1    24     2    14
 -1.2913371773774407E-01 a      1290     1    24     2    15
 -3.1511934156781396E-01 a      1291     1    24     2    16
 -4.2519165686992606E-02 a      1292     1    24     2    17
  9.2682895911632757E-02 a      1293     1    24     2    18
  3.2166295943985951E-01 a      1294     1    24     2    19
 -8.3217587596218959E-02 a      1295     1    24     2    20
 -1.3518378188465571E-01 a      1296     1    24     2    21
  2.3038476110280155E-02 a      1297     1    24     2    22
 -2.9703292745471782E-01 a      1298     1    24     2    23
  1.8224087351381438E-01 a      1299     1    24     2    24
 -1.9092617425215391E-01 a      1300     1    24     2    25
  1.6662998180072675E-01 a      1301     1    25     2     1
 -9.4386478086453951E-02 a      1302     1    25     2     2
 -1.3701771727582365E-01 a      1303     1    25     2     3
 -2.4382667722562601E-01 a      1304     1    25     2     4
  3.4513855417303868E-01 a      1305     1    25     2     5
 -1.5169080005908997E-01 a      1306     1    25     2     6
  7.4967950341856354E-02 a      1307     1    25     2     7
  2.1303328205630201E-01 a      1308     1    25     2     8
 -2.3665800607951270E-02 a      1309     1    25     2     9
  1.1619543009616388E-01 a      1310     1    25     2    10
 -1.4223133858039036E-01 a      1311     1    25     2    11
 -2.7220297846303082E-01 a      1312     1    25     2    12
  2.2807685777629919E-01 a      1313     1    25     2    13
 -2.4461830655140981E-01 a      1314     1    25     2    14
 -2.7910116654024608E-01 a      1315     1    25     2    15
 -1.5415887807501857E-01 a      1316     1    25     2    16
  1.0438627939404525E-01 a      1317     1    25     2    17
  1.2804605755353701E-01 a      1318     1    25     2    18
 -1.3123042288553829E-01 a      1319     1    25     2    19
  2.7220676970997168E-03 a      1320     1    25     2    20
 -3.0829367392352325E-01 a      1321     1    25     2    21
 -9.0375772057655332E-02 a      1322     1    25     2    22
 -1.0526351573880184E-01 a      1323     1    25     2    23
 -1.8102622724331080E-01 a      1324     1    25     2    24
 -2.7696498970547689E-01 a      1325     1    25     2    25
  1.5242420154097287E-02 b      1326     2     1
 -1.5113385427355472E-02 b      1327     2     2
  1.0125551101707038E-03 b      1328     2     3
  2.4041508125086646E-02 b      1329     2     4
 -6.9318807632042692E-02 b      1330     2     5
  4.6000829599015400E-02 b      1331     2     6
 -3.1400007058725254E-02 b      1332     2     7
 -1.1483959523545580E-02 b      1333     2     8
  3.0696765429930654E-02 b      1334     2     9
  1.8586842591123275E-02 b      1335     2    10
  3.4067598480219306E-02 b      1336     2    11
  1.2352901631954738E-02 b      1337     2    12
  2.4517924477776943E-02 b      1338     2    13
  1.3522090207093577E-02 b      1339     2    14
 -8.6475355180670090E-03 b      1340     2    15
  7.2921257103417139E-02 b      1341     2    16
 -1.5833937696606803E-02 b      1342     2    17
 -2.6111858276483733E-02 b      1343     2    18
  9.9515440451137648E-03 b      1344     2    19
 -2.0120772602170219E-02 b      1345     2    20
  1.2868607990503949E-02 b      1346     2    21
 -1.5198789927397165E-02 b      1347     2    22
 -3.5559321149874812E-02 b      1348     2    23
  1.1262291028964233E-01 b      1349     2    24
  5.5033886401981641E-03 b      1350     2    25
  2.1635067885175957E-01 a      1351     2     1     3     1
  7.3114277796110174E-04 a      1352     2     2     3     1
 -6.8316414561996563E-01 a      1353     2     3     3     1
  5.4779993914481928E-01 a      1354     2     4     3     1
  8.5817803734886167E-01 a      1355     2     5     3     1
  1.8037684184389965E-01 a      1356     2     6     3     1
  8.1389122881020592E-01 a      1357     2     7     3     1
  7.3792985088036289E-01 a      1358     2     8     3     1
  5.5164740227112774E-01 a      1359     2     9     3     1
  3.6172908663216724E-01 a      1360     2    10     3     1
  6.1099200605474557E-01 a      1361     2    11     3     1
  1.4953908624949064E-01 a      1362     2    12     3     1
  3.1381357535464588E-01 a      1363     2    13     3     1
  5.9460751149931457E-01 a      1364     2    14     3     1
 -5.7575816586430191E-02 a      1365     2    15     3     1
 -7.9466148778587042E-01 a      1366     2    16     3     1
 -9.2989013443504187E-02 a      1367     2    17     3     1
 -7.4762182942189914E-01 a      1368     2    18     3     1
  1.2751298874405195E-01 a      1369     2    19     3     1
  1.0570951881624416E-01 a      1370     2    20     3     1
  1.9068372626909433E-01 a      1371     2    21     3     1
  4.8624225274719352E-01 a      1372     2    22     3     1
 -3.7613389295191502E-01 a      1373     2    23     3     1
  9.8356426288548859E-01 a      1374     2    24     3     1
 -3.9090744669737620E-03 a      1375     2    25     3     1
  9.6428441453903454E-04 b      1376     3     1
