################################################################################
# Neural network connection values (weights and biases).
################################################################################
# Col  Name       Description
################################################################################
# 1    connection Neural network connection value.
# 2    t          Connection type (a = weight, b = bias).
# 3    index      Index enumerating weights.
# 4    l_s        Starting point layer (end point layer for biases).
# 5    n_s        Starting point neuron in starting layer (end point neuron for biases).
# 6    l_e        End point layer.
# 7    n_e        End point neuron in end layer.
################################################################################
#                      1 2         3     4     5     6     7
#             connection t     index   l_s   n_s   l_e   n_e
############################################################
  2.1059705456474950E-01 a         1     0     1     1     1
 -2.9721524253443643E-01 a         2     0     1     1     2
  1.9074280898252829E-01 a         3     0     1     1     3
 -3.4905608900230228E-02 a         4     0     1     1     4
  8.5006638827408772E-03 a         5     0     1     1     5
  1.5457536069583322E-01 a         6     0     1     1     6
 -1.0424291112615915E-01 a         7     0     1     1     7
 -1.4544714062678585E-01 a         8     0     1     1     8
 -2.1917744250387294E-01 a         9     0     1     1     9
  8.9381099118303400E-02 a        10     0     1     1    10
 -1.7636792639004858E-01 a        11     0     1     1    11
  2.6087578206325157E-01 a        12     0     1     1    12
 -6.6439867727332513E-02 a        13     0     1     1    13
  2.8342477978190400E-01 a        14     0     1     1    14
  1.0905769204125108E-01 a        15     0     1     1    15
  1.7997661025650677E-01 a        16     0     1     1    16
 -7.8342531823894598E-02 a        17     0     1     1    17
  2.4327111015313610E-01 a        18     0     1     1    18
 -1.5964999036222935E-01 a        19     0     1     1    19
 -2.8049515553144933E-01 a        20     0     1     1    20
 -8.3451207786627207E-02 a        21     0     1     1    21
 -6.4949373736118518E-02 a        22     0     1     1    22
  3.3240673495246308E-02 a        23     0     1     1    23
 -5.6356192692249632E-02 a        24     0     1     1    24
  2.9704311073606016E-01 a        25     0     1     1    25
 -1.2247296062050073E-01 a        26     0     2     1     1
  7.0342275936870022E-02 a        27     0     2     1     2
 -2.0756100857857890E-01 a        28     0     2     1     3
  2.8172235458457096E-01 a        29     0     2     1     4
 -2.1994155623490735E-01 a        30     0     2     1     5
 -3.2799096380752069E-01 a        31     0     2     1     6
  1.6917587293440270E-01 a        32     0     2     1     7
 -2.5308368875137127E-01 a        33     0     2     1     8
 -7.1911358019374386E-02 a        34     0     2     1     9
 -1.4149613053993582E-01 a        35     0     2     1    10
 -1.9472088157723269E-01 a        36     0     2     1    11
  4.6567723781936451E-02 a        37     0     2     1    12
 -3.3122394827025642E-02 a        38     0     2     1    13
 -1.8728984407499986E-02 a        39     0     2     1    14
  2.4188179487496519E-01 a        40     0     2     1    15
  3.3554291883483918E-02 a        41     0     2     1    16
 -2.5035929951417915E-02 a        42     0     2     1    17
  2.9364873592909368E-01 a        43     0     2     1    18
 -3.1738589358119518E-01 a        44     0     2     1    19
 -1.8086755152431888E-01 a        45     0     2     1    20
  1.4021987237285705E-01 a        46     0     2     1    21
 -3.2309633027447926E-01 a        47     0     2     1    22
 -3.1176742712829586E-01 a        48     0     2     1    23
 -1.7426937277778023E-01 a        49     0     2     1    24
  1.7571838827260214E-01 a        50     0     2     1    25
 -3.0664645732262291E-01 a        51     0     3     1     1
  2.9760111996073219E-01 a        52     0     3     1     2
  1.5757588584215557E-01 a        53     0     3     1     3
 -1.4349923169341067E-01 a        54     0     3     1     4
  3.3208938316803421E-01 a        55     0     3     1     5
 -1.7911733256074502E-01 a        56     0     3     1     6
 -1.6879684168624811E-02 a        57     0     3     1     7
  1.4443156437911117E-01 a        58     0     3     1     8
  1.8725400157130062E-01 a        59     0     3     1     9
 -3.1661809739014013E-01 a        60     0     3     1    10
 -3.1232056702792910E-01 a        61     0     3     1    11
 -7.3947976151317735E-02 a        62     0     3     1    12
 -2.0983510566084349E-01 a        63     0     3     1    13
  1.4085610564100527E-02 a        64     0     3     1    14
  2.4055399030795141E-01 a        65     0     3     1    15
 -1.5861075360981852E-01 a        66     0     3     1    16
  1.7395328975595403E-01 a        67     0     3     1    17
 -1.2074484697217289E-01 a        68     0     3     1    18
  3.1732510637597333E-01 a        69     0     3     1    19
 -2.4572388145350693E-01 a        70     0     3     1    20
  1.0198719183126197E-01 a        71     0     3     1    21
  2.3228571202099491E-01 a        72     0     3     1    22
  1.5349849191042872E-01 a        73     0     3     1    23
  2.9182489971656467E-01 a        74     0     3     1    24
 -1.6998619325467038E-01 a        75     0     3     1    25
  9.2109412853447065E-02 a        76     0     4     1     1
 -5.9832905787973345E-02 a        77     0     4     1     2
 -5.7738519831372154E-02 a        78     0     4     1     3
  1.4624317857614258E-01 a        79     0     4     1     4
 -2.7494243853315721E-03 a        80     0     4     1     5
  2.5916485877905515E-01 a        81     0     4     1     6
  1.5791063449628831E-01 a        82     0     4     1     7
 -2.7027401806335692E-02 a        83     0     4     1     8
 -7.6470385612445527E-02 a        84     0     4     1     9
  1.0627714707739780E-01 a        85     0     4     1    10
 -1.3493142533564553E-01 a        86     0     4     1    11
  2.2937573677777998E-01 a        87     0     4     1    12
  1.1402240931786803E-02 a        88     0     4     1    13
 -8.6922614846040511E-02 a        89     0     4     1    14
 -2.1794992935418003E-01 a        90     0     4     1    15
 -1.9157723380776700E-02 a        91     0     4     1    16
 -2.0996244525067959E-01 a        92     0     4     1    17
  1.4407174510754917E-01 a        93     0     4     1    18
  1.4434701016474002E-01 a        94     0     4     1    19
 -2.3842980310734771E-01 a        95     0     4     1    20
 -1.6612894427388492E-01 a        96     0     4     1    21
  2.2521470020230877E-01 a        97     0     4     1    22
 -1.4255539654628530E-01 a        98     0     4     1    23
 -3.0134458046979890E-01 a        99     0     4     1    24
 -2.6784140621938229E-01 a       100     0     4     1    25
 -2.6733822428681220E-01 a       101     0     5     1     1
  2.2886011164845635E-01 a       102     0     5     1     2
  3.1658826400998874E-01 a       103     0     5     1     3
  3.3116240323028862E-01 a       104     0     5     1     4
  3.0043731942246543E-01 a       105     0     5     1     5
  1.1943638597037837E-01 a       106     0     5     1     6
  8.0390939503123204E-02 a       107     0     5     1     7
 -4.0954334408852870E-02 a       108     0     5     1     8
  1.8988845628194206E-01 a       109     0     5     1     9
  2.3306951312300872E-01 a       110     0     5     1    10
 -1.8276833598991413E-01 a       111     0     5     1    11
 -7.2540480149233644E-02 a       112     0     5     1    12
 -3.0950566608452895E-01 a       113     0     5     1    13
 -3.2029401781337327E-02 a       114     0     5     1    14
  2.8155855257460943E-01 a       115     0     5     1    15
  1.1222503606274706E-01 a       116     0     5     1    16
 -1.9870009264562460E-01 a       117     0     5     1    17
 -2.4274550634552342E-01 a       118     0     5     1    18
  2.8651443415661632E-01 a       119     0     5     1    19
 -2.5145608331637929E-02 a       120     0     5     1    20
  2.5404813972025886E-01 a       121     0     5     1    21
 -2.5403369794218750E-01 a       122     0     5     1    22
  3.1129933742259891E-01 a       123     0     5     1    23
 -1.5613455617660013E-01 a       124     0     5     1    24
  3.0625141305470477E-01 a       125     0     5     1    25
  1.3047927945305004E-03 a       126     0     6     1     1
 -2.2931302329446490E-01 a       127     0     6     1     2
  2.0049971344311471E-01 a       128     0     6     1     3
  2.8225889882503702E-01 a       129     0     6     1     4
  5.5411224051949565E-02 a       130     0     6     1     5
 -2.0865038449650214E-01 a       131     0     6     1     6
  2.8261511684844925E-01 a       132     0     6     1     7
  1.6915396367549046E-01 a       133     0     6     1     8
  3.2123973829162950E-01 a       134     0     6     1     9
 -4.7969580929249002E-02 a       135     0     6     1    10
 -1.4906572560233805E-01 a       136     0     6     1    11
 -1.3588858289194530E-01 a       137     0     6     1    12
  2.7757148892198918E-01 a       138     0     6     1    13
 -3.9317258840323971E-02 a       139     0     6     1    14
  1.6562519108559709E-01 a       140     0     6     1    15
  2.4744436944517173E-01 a       141     0     6     1    16
  3.3759819504517996E-01 a       142     0     6     1    17
  1.5204389446731725E-01 a       143     0     6     1    18
  6.8731794713522559E-02 a       144     0     6     1    19
 -2.4128774695910965E-01 a       145     0     6     1    20
 -8.3239951926880482E-02 a       146     0     6     1    21
  1.0259153803692635E-01 a       147     0     6     1    22
 -5.4943206909206727E-03 a       148     0     6     1    23
  2.3060972463853385E-01 a       149     0     6     1    24
 -2.8642004757732381E-01 a       150     0     6     1    25
  6.9908397588822099E-02 a       151     0     7     1     1
  1.2240443743145980E-01 a       152     0     7     1     2
  8.3058171099695943E-03 a       153     0     7     1     3
  1.0774363837481246E-01 a       154     0     7     1     4
 -6.9442364162872486E-02 a       155     0     7     1     5
 -1.5915027338904650E-01 a       156     0     7     1     6
  2.9596310332334385E-03 a       157     0     7     1     7
  2.7864753345243393E-01 a       158     0     7     1     8
  1.5925538090745492E-01 a       159     0     7     1     9
  1.3617615293908777E-01 a       160     0     7     1    10
  2.6416953443581054E-02 a       161     0     7     1    11
 -2.2751982095382525E-01 a       162     0     7     1    12
 -2.5985946944425298E-01 a       163     0     7     1    13
  8.8336647819213562E-02 a       164     0     7     1    14
 -1.4487089690582031E-01 a       165     0     7     1    15
  7.2032635937332973E-02 a       166     0     7     1    16
  3.0055748576630309E-01 a       167     0     7     1    17
  3.2250481846704165E-01 a       168     0     7     1    18
  9.9447860655993954E-05 a       169     0     7     1    19
  1.6190351890309534E-01 a       170     0     7     1    20
  1.2387374548939670E-01 a       171     0     7     1    21
  1.4604001498890665E-01 a       172     0     7     1    22
  2.7595853115314162E-01 a       173     0     7     1    23
  1.6764966380260418E-01 a       174     0     7     1    24
 -2.1161650325063097E-01 a       175     0     7     1    25
 -4.6967530865547370E-02 a       176     0     8     1     1
 -1.4795450611987404E-01 a       177     0     8     1     2
  2.5796563783704735E-01 a       178     0     8     1     3
  1.9499141736614059E-02 a       179     0     8     1     4
  2.9215586193576926E-01 a       180     0     8     1     5
  7.4663771075115723E-03 a       181     0     8     1     6
 -2.2712691814764341E-01 a       182     0     8     1     7
  8.2638530931550182E-03 a       183     0     8     1     8
 -2.8958795197409698E-01 a       184     0     8     1     9
 -2.6297831275151534E-01 a       185     0     8     1    10
  1.8714487287240478E-01 a       186     0     8     1    11
  3.0737801879482757E-01 a       187     0     8     1    12
 -9.1550474196493842E-02 a       188     0     8     1    13
  3.2978603914880883E-01 a       189     0     8     1    14
  5.1031961533423167E-02 a       190     0     8     1    15
 -9.4521562589934299E-02 a       191     0     8     1    16
  2.0332926168660129E-01 a       192     0     8     1    17
  3.2881829711710098E-01 a       193     0     8     1    18
 -1.9236798092356015E-02 a       194     0     8     1    19
 -2.2802947388444575E-01 a       195     0     8     1    20
  1.8467876912597528E-01 a       196     0     8     1    21
 -3.3033488124278271E-01 a       197     0     8     1    22
  1.1053449985064442E-01 a       198     0     8     1    23
  3.0480372213580748E-01 a       199     0     8     1    24
 -2.2835755176236833E-01 a       200     0     8     1    25
 -9.6459058657362803E-02 a       201     0     9     1     1
 -1.7195494771119296E-02 a       202     0     9     1     2
 -9.7232966481197877E-02 a       203     0     9     1     3
 -3.2625622807692128E-01 a       204     0     9     1     4
 -1.2178115093994879E-01 a       205     0     9     1     5
 -2.6184459147214195E-01 a       206     0     9     1     6
  2.5978274909653315E-01 a       207     0     9     1     7
 -2.6970940346466321E-01 a       208     0     9     1     8
 -2.7042489124549261E-03 a       209     0     9     1     9
 -2.9095806405368591E-01 a       210     0     9     1    10
 -2.4015856670769120E-01 a       211     0     9     1    11
 -7.8092690860094974E-02 a       212     0     9     1    12
 -1.7065557926747207E-01 a       213     0     9     1    13
 -2.6349854529716982E-01 a       214     0     9     1    14
 -9.0025300377789552E-02 a       215     0     9     1    15
  1.1123409029305327E-01 a       216     0     9     1    16
 -1.2503011744483231E-01 a       217     0     9     1    17
  3.1465676060034253E-01 a       218     0     9     1    18
 -2.1468022521769695E-01 a       219     0     9     1    19
  2.6918585392327655E-02 a       220     0     9     1    20
  9.9545254078801382E-03 a       221     0     9     1    21
 -1.2584487711811636E-02 a       222     0     9     1    22
 -4.2207558531688033E-02 a       223     0     9     1    23
 -8.4279544706449633E-02 a       224     0     9     1    24
 -3.3641250667700845E-01 a       225     0     9     1    25
 -3.0630268037095770E-01 a       226     0    10     1     1
  1.8734792881281245E-01 a       227     0    10     1     2
 -1.1201200240344822E-01 a       228     0    10     1     3
 -3.3952611044475151E-01 a       229     0    10     1     4
  1.6773491316380407E-01 a       230     0    10     1     5
 -3.3337264015976026E-01 a       231     0    10     1     6
  1.6990099181180435E-01 a       232     0    10     1     7
  1.0886271981582482E-01 a       233     0    10     1     8
  4.1848670440154209E-02 a       234     0    10     1     9
  1.6118902350840442E-01 a       235     0    10     1    10
  1.9433224396671417E-01 a       236     0    10     1    11
 -2.5759435968945921E-01 a       237     0    10     1    12
 -4.7013722829785665E-02 a       238     0    10     1    13
 -1.7629255234160604E-01 a       239     0    10     1    14
 -3.6414456092986706E-02 a       240     0    10     1    15
 -2.7750887651192757E-01 a       241     0    10     1    16
 -1.6579778446769508E-01 a       242     0    10     1    17
 -9.2614960549691566E-02 a       243     0    10     1    18
 -3.3555915940879166E-01 a       244     0    10     1    19
  2.1645101968483588E-01 a       245     0    10     1    20
  1.1831274079475662E-01 a       246     0    10     1    21
 -2.5404877863533715E-01 a       247     0    10     1    22
 -2.5689167993267303E-01 a       248     0    10     1    23
 -3.2918482193113156E-02 a       249     0    10     1    24
  2.8580035069549842E-01 a       250     0    10     1    25
  5.9688238707125370E-02 a       251     0    11     1     1
 -1.3067025534716459E-01 a       252     0    11     1     2
  2.6128928524209166E-01 a       253     0    11     1     3
 -5.9493391115757174E-02 a       254     0    11     1     4
 -1.0320140016640078E-01 a       255     0    11     1     5
  2.4519877275871010E-01 a       256     0    11     1     6
 -9.0602569192913804E-02 a       257     0    11     1     7
  9.8853396141948810E-02 a       258     0    11     1     8
  2.0548342115308618E-01 a       259     0    11     1     9
  9.0846785238128155E-02 a       260     0    11     1    10
 -2.1916607103100558E-01 a       261     0    11     1    11
 -3.5609651963595071E-02 a       262     0    11     1    12
 -2.2637136985175330E-01 a       263     0    11     1    13
  2.7038459124208020E-01 a       264     0    11     1    14
 -1.5309480964174751E-01 a       265     0    11     1    15
 -3.8171100203440618E-02 a       266     0    11     1    16
 -2.8578173837170734E-01 a       267     0    11     1    17
  2.5825688583044643E-01 a       268     0    11     1    18
 -1.6422655600495312E-01 a       269     0    11     1    19
 -6.3780910623601625E-02 a       270     0    11     1    20
 -2.5144198739707546E-01 a       271     0    11     1    21
 -2.3999272211786085E-01 a       272     0    11     1    22
 -2.3500512644852251E-01 a       273     0    11     1    23
  1.3880237694304032E-01 a       274     0    11     1    24
  1.3434808552869973E-01 a       275     0    11     1    25
  2.0599450559537358E-01 a       276     0    12     1     1
  2.2412669147986367E-01 a       277     0    12     1     2
  2.6812349856155804E-01 a       278     0    12     1     3
 -3.0430758843289019E-01 a       279     0    12     1     4
  8.1049117388532363E-02 a       280     0    12     1     5
  3.2778328135401924E-01 a       281     0    12     1     6
 -1.1860944315789389E-01 a       282     0    12     1     7
  4.5830746362336888E-02 a       283     0    12     1     8
 -8.9793159141369192E-02 a       284     0    12     1     9
  6.3907039971795254E-02 a       285     0    12     1    10
  3.0026969618478649E-01 a       286     0    12     1    11
  2.2948874044979112E-02 a       287     0    12     1    12
  3.1644947407626528E-01 a       288     0    12     1    13
  2.8050554991388599E-01 a       289     0    12     1    14
 -7.3931700066325531E-02 a       290     0    12     1    15
  1.1606849129430559E-01 a       291     0    12     1    16
  9.9141810599201491E-02 a       292     0    12     1    17
  2.9198263389419937E-01 a       293     0    12     1    18
 -6.7873364835094652E-02 a       294     0    12     1    19
 -2.9436314906540528E-01 a       295     0    12     1    20
  3.1396296999447076E-01 a       296     0    12     1    21
 -3.0240226139880594E-01 a       297     0    12     1    22
  8.6852025260298685E-02 a       298     0    12     1    23
  2.3321700064858325E-01 a       299     0    12     1    24
 -3.0358086650551808E-01 a       300     0    12     1    25
  8.9898434919143649E-02 a       301     0    13     1     1
  2.4247113914217164E-01 a       302     0    13     1     2
 -1.3322939404403034E-01 a       303     0    13     1     3
 -3.3222363907044311E-01 a       304     0    13     1     4
  2.8854544024448031E-01 a       305     0    13     1     5
  7.1756764537674132E-03 a       306     0    13     1     6
  8.2244831223964823E-02 a       307     0    13     1     7
  1.0978660040787110E-01 a       308     0    13     1     8
 -2.3536622069974522E-01 a       309     0    13     1     9
  1.6466687548525172E-01 a       310     0    13     1    10
 -2.7957776376960741E-01 a       311     0    13     1    11
  2.0457918504485299E-02 a       312     0    13     1    12
 -9.2634511892648860E-02 a       313     0    13     1    13
 -1.2410253956485358E-01 a       314     0    13     1    14
  6.5737709437963185E-02 a       315     0    13     1    15
  3.5391412880905704E-01 a       316     0    13     1    16
  1.3220680732850407E-01 a       317     0    13     1    17
  1.4501970842735482E-02 a       318     0    13     1    18
 -2.2735829040282288E-01 a       319     0    13     1    19
  1.7371545313808595E-01 a       320     0    13     1    20
 -2.7513790840661839E-01 a       321     0    13     1    21
 -1.6675388576776730E-02 a       322     0    13     1    22
  3.3650744510925618E-01 a       323     0    13     1    23
  1.7755325319879867E-01 a       324     0    13     1    24
 -2.4926336158373721E-01 a       325     0    13     1    25
  2.4176409487435271E-01 a       326     0    14     1     1
 -2.7875590634721359E-01 a       327     0    14     1     2
  2.9151641830566022E-01 a       328     0    14     1     3
  6.9990209490965488E-02 a       329     0    14     1     4
 -6.0875698779548536E-02 a       330     0    14     1     5
 -1.5403589048270760E-01 a       331     0    14     1     6
 -2.1814150773934551E-01 a       332     0    14     1     7
 -2.0088864921116259E-01 a       333     0    14     1     8
 -6.0623930465650141E-03 a       334     0    14     1     9
  3.0360403687714133E-01 a       335     0    14     1    10
  2.0497605182709721E-02 a       336     0    14     1    11
  1.1427801459545756E-01 a       337     0    14     1    12
  2.5816188375154808E-01 a       338     0    14     1    13
 -9.4742708552582933E-02 a       339     0    14     1    14
 -6.2715128176468586E-04 a       340     0    14     1    15
 -2.7958174265510213E-02 a       341     0    14     1    16
  8.3897905236722331E-02 a       342     0    14     1    17
  1.8618065069071335E-02 a       343     0    14     1    18
  2.9547734667116365E-01 a       344     0    14     1    19
  3.2145448080491718E-01 a       345     0    14     1    20
 -2.9353525010663278E-01 a       346     0    14     1    21
 -2.5393658039221367E-01 a       347     0    14     1    22
  2.4609525202258770E-01 a       348     0    14     1    23
  1.9646909064497334E-01 a       349     0    14     1    24
 -2.9102701906840817E-01 a       350     0    14     1    25
 -9.8831071759664074E-02 a       351     0    15     1     1
 -9.3262458009686161E-02 a       352     0    15     1     2
 -6.9267315240916880E-02 a       353     0    15     1     3
  1.2542245550306541E-01 a       354     0    15     1     4
  2.6929994400665774E-01 a       355     0    15     1     5
 -1.1151064493804233E-01 a       356     0    15     1     6
  2.9971464621182181E-01 a       357     0    15     1     7
 -2.1737448622741376E-01 a       358     0    15     1     8
 -1.9204437330614776E-01 a       359     0    15     1     9
  2.8072110641162307E-01 a       360     0    15     1    10
  2.9020086438768489E-01 a       361     0    15     1    11
  2.2774312071036812E-01 a       362     0    15     1    12
 -8.6840112431554048E-04 a       363     0    15     1    13
  1.0862377201750495E-01 a       364     0    15     1    14
 -2.5081733326725264E-01 a       365     0    15     1    15
  2.2737593812781998E-01 a       366     0    15     1    16
 -2.8680240104594740E-01 a       367     0    15     1    17
 -1.9535193505544340E-01 a       368     0    15     1    18
  3.5641887628355134E-01 a       369     0    15     1    19
 -2.1989576633055657E-01 a       370     0    15     1    20
 -6.2822037238807568E-02 a       371     0    15     1    21
 -3.6941000509117188E-02 a       372     0    15     1    22
  2.4892124158649181E-01 a       373     0    15     1    23
 -2.6749965643321993E-01 a       374     0    15     1    24
 -4.1114242217632505E-02 a       375     0    15     1    25
  1.8178315666077335E-01 a       376     0    16     1     1
  8.4961708257115326E-02 a       377     0    16     1     2
 -1.6312637924646731E-01 a       378     0    16     1     3
 -3.5918659775707940E-01 a       379     0    16     1     4
 -1.5378287921667977E-01 a       380     0    16     1     5
  1.5422544233451443E-01 a       381     0    16     1     6
 -5.0743826713255676E-02 a       382     0    16     1     7
 -2.5485207959803707E-01 a       383     0    16     1     8
 -3.0119229472699627E-01 a       384     0    16     1     9
  7.1137838428148456E-02 a       385     0    16     1    10
 -1.9079379552986606E-01 a       386     0    16     1    11
  1.3071759905983968E-01 a       387     0    16     1    12
 -4.1314366976683198E-02 a       388     0    16     1    13
  3.2456011225017939E-01 a       389     0    16     1    14
 -2.2846419261031977E-02 a       390     0    16     1    15
 -7.0037001390631820E-02 a       391     0    16     1    16
  7.2133198573918519E-02 a       392     0    16     1    17
 -3.1722366646400824E-01 a       393     0    16     1    18
 -3.3816585200002761E-02 a       394     0    16     1    19
  2.8082904333836084E-01 a       395     0    16     1    20
  5.3329306715132092E-02 a       396     0    16     1    21
  1.1655979535413326E-01 a       397     0    16     1    22
 -7.4002825837186675E-02 a       398     0    16     1    23
  2.6099961909413583E-01 a       399     0    16     1    24
  5.9685351615645872E-02 a       400     0    16     1    25
 -1.6419859585625307E-01 a       401     0    17     1     1
  1.9290727957323117E-02 a       402     0    17     1     2
 -1.9597698577255476E-01 a       403     0    17     1     3
 -9.3672981528761634E-02 a       404     0    17     1     4
  2.4686290024280957E-01 a       405     0    17     1     5
 -1.0331282511677115E-01 a       406     0    17     1     6
 -2.5416723236224487E-01 a       407     0    17     1     7
 -1.7274004377450253E-01 a       408     0    17     1     8
  2.1943654600098339E-01 a       409     0    17     1     9
 -2.3218306530283106E-01 a       410     0    17     1    10
  5.3122476408654622E-03 a       411     0    17     1    11
  1.3428729333368106E-02 a       412     0    17     1    12
 -2.1764831304100740E-01 a       413     0    17     1    13
 -2.3520527004294156E-01 a       414     0    17     1    14
  3.5457497714517103E-02 a       415     0    17     1    15
  1.5717206100975514E-01 a       416     0    17     1    16
 -2.3839418564110271E-01 a       417     0    17     1    17
 -2.8001776254404437E-01 a       418     0    17     1    18
  5.9434042094754806E-03 a       419     0    17     1    19
 -2.4183271172434440E-01 a       420     0    17     1    20
  2.3415833372891348E-01 a       421     0    17     1    21
 -1.8849708779006208E-01 a       422     0    17     1    22
  4.5370107233773854E-02 a       423     0    17     1    23
  2.3420398101872561E-01 a       424     0    17     1    24
  1.5895777638520919E-01 a       425     0    17     1    25
  6.5821212731836248E-02 a       426     0    18     1     1
  1.5015484031871851E-01 a       427     0    18     1     2
 -3.3469707671676480E-01 a       428     0    18     1     3
  2.0842721825751451E-01 a       429     0    18     1     4
  1.0027097402593955E-01 a       430     0    18     1     5
 -2.2548254866609546E-01 a       431     0    18     1     6
  4.8197964886827871E-02 a       432     0    18     1     7
  3.0532623933530001E-01 a       433     0    18     1     8
 -1.1625557272203270E-01 a       434     0    18     1     9
 -4.3994706722993063E-02 a       435     0    18     1    10
 -2.0002039722602888E-01 a       436     0    18     1    11
 -3.1784419012379828E-01 a       437     0    18     1    12
  2.5384376806211789E-01 a       438     0    18     1    13
 -1.0426693959183927E-01 a       439     0    18     1    14
  5.2821697088049164E-03 a       440     0    18     1    15
 -3.3221280710155721E-01 a       441     0    18     1    16
 -1.4734818082734968E-01 a       442     0    18     1    17
  1.5946576066998203E-02 a       443     0    18     1    18
 -3.7057655599192107E-02 a       444     0    18     1    19
  2.6504423339641486E-01 a       445     0    18     1    20
  2.3950495335249342E-01 a       446     0    18     1    21
 -2.6727621948702907E-01 a       447     0    18     1    22
 -1.1363777157198883E-01 a       448     0    18     1    23
  7.0654207828259444E-02 a       449     0    18     1    24
  2.4244626486885471E-01 a       450     0    18     1    25
 -1.4996394134436100E-01 a       451     0    19     1     1
  2.8958309212948735E-01 a       452     0    19     1     2
  3.2183775841180089E-02 a       453     0    19     1     3
  1.5481802419991142E-01 a       454     0    19     1     4
 -1.9772910691481133E-01 a       455     0    19     1     5
 -3.2833306367064441E-01 a       456     0    19     1     6
 -3.6320328447299283E-01 a       457     0    19     1     7
 -9.5109156037180981E-03 a       458     0    19     1     8
  3.1159585182580472E-02 a       459     0    19     1     9
 -2.0445749219456921E-01 a       460     0    19     1    10
  1.3634337523742787E-01 a       461     0    19     1    11
 -1.5126405294317929E-01 a       462     0    19     1    12
 -1.4529716158734571E-01 a       463     0    19     1    13
  2.9584339236487296E-02 a       464     0    19     1    14
 -1.1085445800344636E-01 a       465     0    19     1    15
 -1.2780426328808889E-01 a       466     0    19     1    16
 -1.8174910491955704E-01 a       467     0    19     1    17
 -1.8359981954392138E-01 a       468     0    19     1    18
  4.2318381280322358E-03 a       469     0    19     1    19
 -3.4200551865109126E-02 a       470     0    19     1    20
 -4.7593563203006756E-02 a       471     0    19     1    21
  4.4679453831494256E-02 a       472     0    19     1    22
  2.9131445533905903E-01 a       473     0    19     1    23
 -2.1339474238219283E-01 a       474     0    19     1    24
  3.2696763250956684E-01 a       475     0    19     1    25
 -1.3000135463690099E-01 a       476     0    20     1     1
 -1.4999970885183372E-01 a       477     0    20     1     2
 -1.8686627298462818E-01 a       478     0    20     1     3
  2.7889286417199038E-01 a       479     0    20     1     4
  7.2475758746928321E-03 a       480     0    20     1     5
 -2.4161715978277534E-01 a       481     0    20     1     6
 -3.1776891409879476E-01 a       482     0    20     1     7
  2.0508339134624717E-01 a       483     0    20     1     8
 -2.8788661689803724E-01 a       484     0    20     1     9
 -1.2575646784710739E-01 a       485     0    20     1    10
  4.0513989802760969E-02 a       486     0    20     1    11
  1.2521478067530409E-01 a       487     0    20     1    12
 -1.6665494563070163E-01 a       488     0    20     1    13
 -2.3113383847385915E-01 a       489     0    20     1    14
  7.0294595994099582E-02 a       490     0    20     1    15
 -3.1031721151681657E-01 a       491     0    20     1    16
  2.8717452341237731E-01 a       492     0    20     1    17
  2.5890829986322272E-01 a       493     0    20     1    18
  1.4166601962619205E-01 a       494     0    20     1    19
  1.3849613904950495E-01 a       495     0    20     1    20
  2.8896900126869740E-01 a       496     0    20     1    21
  2.9778116966355195E-01 a       497     0    20     1    22
  2.0347161854528309E-01 a       498     0    20     1    23
 -2.0519562368062105E-01 a       499     0    20     1    24
 -3.2065122397035400E-01 a       500     0    20     1    25
 -3.2402752688150005E-01 a       501     0    21     1     1
 -1.0454776506464465E-01 a       502     0    21     1     2
 -1.6942649742214341E-01 a       503     0    21     1     3
 -3.1623004304686042E-01 a       504     0    21     1     4
 -2.4166664433904161E-01 a       505     0    21     1     5
  2.1786143283481085E-01 a       506     0    21     1     6
  1.2168079514546989E-01 a       507     0    21     1     7
 -3.8839165028686055E-02 a       508     0    21     1     8
  2.4384347936439610E-01 a       509     0    21     1     9
 -1.8653375679999935E-02 a       510     0    21     1    10
 -2.9638881381079046E-01 a       511     0    21     1    11
  4.5812446283045247E-02 a       512     0    21     1    12
 -1.3474019356816792E-02 a       513     0    21     1    13
  2.0817917876451764E-01 a       514     0    21     1    14
 -1.5316975433767563E-01 a       515     0    21     1    15
 -1.2501194224914472E-01 a       516     0    21     1    16
 -9.9658780704696248E-02 a       517     0    21     1    17
  3.1917343410627075E-02 a       518     0    21     1    18
 -2.3464607118706352E-01 a       519     0    21     1    19
  2.5004112833590247E-01 a       520     0    21     1    20
 -1.8023766334724403E-01 a       521     0    21     1    21
 -2.8093481540775850E-01 a       522     0    21     1    22
 -6.0895034150450965E-02 a       523     0    21     1    23
  1.2666752237414866E-01 a       524     0    21     1    24
  1.4727651027032698E-01 a       525     0    21     1    25
  9.4516393444073823E-02 a       526     0    22     1     1
  3.0400349884041050E-01 a       527     0    22     1     2
  2.0634146447879106E-01 a       528     0    22     1     3
  2.0812785072721235E-01 a       529     0    22     1     4
  2.6377078155020739E-01 a       530     0    22     1     5
  2.2914978950915299E-01 a       531     0    22     1     6
  2.3601148529767799E-01 a       532     0    22     1     7
  1.5154379116358049E-01 a       533     0    22     1     8
  1.9614718637245304E-01 a       534     0    22     1     9
 -5.0947147293594182E-02 a       535     0    22     1    10
  1.6672212789560850E-01 a       536     0    22     1    11
  1.7055491785108981E-01 a       537     0    22     1    12
  1.4428942654557497E-01 a       538     0    22     1    13
  3.0677427876838442E-01 a       539     0    22     1    14
  1.3827949386596039E-01 a       540     0    22     1    15
 -3.1652074424442256E-01 a       541     0    22     1    16
 -2.7503981266585532E-02 a       542     0    22     1    17
  2.6939969227377086E-01 a       543     0    22     1    18
  1.9293512823745332E-01 a       544     0    22     1    19
 -4.0789146804980463E-02 a       545     0    22     1    20
 -6.5263001190484560E-02 a       546     0    22     1    21
 -2.7566049667988074E-01 a       547     0    22     1    22
  1.9109132778815294E-01 a       548     0    22     1    23
 -1.6493136144124682E-01 a       549     0    22     1    24
 -1.4208261804391970E-01 a       550     0    22     1    25
 -3.0646811354862546E-01 a       551     0    23     1     1
 -3.2861436567478658E-01 a       552     0    23     1     2
  1.4379842133095996E-01 a       553     0    23     1     3
  2.1132605704353580E-01 a       554     0    23     1     4
 -1.6384206441249874E-01 a       555     0    23     1     5
 -1.4245388539360976E-01 a       556     0    23     1     6
  1.6168924095194923E-02 a       557     0    23     1     7
 -2.7382088507437446E-01 a       558     0    23     1     8
 -1.9559473634079624E-01 a       559     0    23     1     9
  2.2665825311014080E-02 a       560     0    23     1    10
  1.7924415088551851E-01 a       561     0    23     1    11
  2.2007893707988813E-01 a       562     0    23     1    12
  2.9587243686793285E-01 a       563     0    23     1    13
  1.7476501123816876E-01 a       564     0    23     1    14
 -1.8226097104096597E-01 a       565     0    23     1    15
 -1.4290567984938227E-01 a       566     0    23     1    16
 -2.5725916747518052E-02 a       567     0    23     1    17
 -2.3648175400085441E-02 a       568     0    23     1    18
  3.5317712913236994E-02 a       569     0    23     1    19
 -2.7782408224239574E-01 a       570     0    23     1    20
  2.0877135542209425E-02 a       571     0    23     1    21
  2.1553958598028983E-01 a       572     0    23     1    22
  4.8576708619775373E-02 a       573     0    23     1    23
 -1.3282455688585276E-01 a       574     0    23     1    24
  2.8261298787873407E-01 a       575     0    23     1    25
  7.8308348738808722E-03 a       576     0    24     1     1
  2.8122248487372420E-01 a       577     0    24     1     2
 -2.8604884201959890E-01 a       578     0    24     1     3
  1.6480116619638444E-01 a       579     0    24     1     4
 -2.7284216109911891E-01 a       580     0    24     1     5
  8.3169079944284033E-02 a       581     0    24     1     6
 -1.5571622223134995E-01 a       582     0    24     1     7
 -2.5525012165938937E-01 a       583     0    24     1     8
 -1.4521010654692745E-01 a       584     0    24     1     9
 -3.6699580702857122E-02 a       585     0    24     1    10
 -1.3292520825919441E-01 a       586     0    24     1    11
  1.9312876039349217E-01 a       587     0    24     1    12
  1.3925685460849418E-01 a       588     0    24     1    13
 -1.5025686503706816E-02 a       589     0    24     1    14
 -5.7574982346202473E-02 a       590     0    24     1    15
 -2.3559074456670132E-01 a       591     0    24     1    16
 -9.0018120004962981E-02 a       592     0    24     1    17
 -3.1142153739883849E-01 a       593     0    24     1    18
  1.1022575776341428E-01 a       594     0    24     1    19
 -2.9096486491363327E-01 a       595     0    24     1    20
 -3.0257795136115340E-01 a       596     0    24     1    21
  2.9703493317158797E-01 a       597     0    24     1    22
  2.4381742357214159E-02 a       598     0    24     1    23
 -2.4631799601998661E-01 a       599     0    24     1    24
 -8.6309528001699637E-02 a       600     0    24     1    25
 -1.7781174526918070E-01 a       601     0    25     1     1
  2.3273886978053684E-01 a       602     0    25     1     2
 -2.4638258609225496E-02 a       603     0    25     1     3
 -2.4667280022938354E-01 a       604     0    25     1     4
  1.1965093119842674E-01 a       605     0    25     1     5
 -1.9113588456417721E-01 a       606     0    25     1     6
 -1.7253421781575171E-01 a       607     0    25     1     7
  1.8781315373795171E-01 a       608     0    25     1     8
 -3.2908446757020104E-01 a       609     0    25     1     9
  1.9200810419209013E-01 a       610     0    25     1    10
 -2.8710645044231914E-01 a       611     0    25     1    11
  2.4163197303473891E-01 a       612     0    25     1    12
 -1.3455669234389092E-01 a       613     0    25     1    13
 -1.4054830697933898E-01 a       614     0    25     1    14
  8.2839049158408506E-02 a       615     0    25     1    15
  2.1777172940517237E-01 a       616     0    25     1    16
 -1.7091342353226277E-01 a       617     0    25     1    17
  2.9119254608502954E-01 a       618     0    25     1    18
  3.4369433213554784E-01 a       619     0    25     1    19
  3.0526422315433333E-01 a       620     0    25     1    20
 -1.0338551173855842E-01 a       621     0    25     1    21
  1.3000955472372894E-01 a       622     0    25     1    22
  6.2126875474248479E-02 a       623     0    25     1    23
 -2.6362793176416897E-02 a       624     0    25     1    24
 -2.3550009950939180E-01 a       625     0    25     1    25
  1.1679108720364127E-01 a       626     0    26     1     1
 -4.4244826000670381E-02 a       627     0    26     1     2
 -2.2938674813880643E-02 a       628     0    26     1     3
 -1.8994188468412107E-01 a       629     0    26     1     4
  1.0191860859341299E-01 a       630     0    26     1     5
 -2.8967557336626884E-02 a       631     0    26     1     6
 -1.1538001458799363E-01 a       632     0    26     1     7
 -2.6488600017723568E-01 a       633     0    26     1     8
  3.3807816689092315E-02 a       634     0    26     1     9
 -1.3982385649180079E-01 a       635     0    26     1    10
 -3.1791330469488466E-01 a       636     0    26     1    11
  3.2077913674798553E-01 a       637     0    26     1    12
 -4.9077240324184528E-02 a       638     0    26     1    13
  2.4997099734468539E-01 a       639     0    26     1    14
 -8.5269957744349270E-02 a       640     0    26     1    15
  2.6957011488526589E-01 a       641     0    26     1    16
  2.6261027329830344E-01 a       642     0    26     1    17
  3.0074174063104114E-02 a       643     0    26     1    18
  5.6776614279995023E-02 a       644     0    26     1    19
 -8.5414131943046673E-02 a       645     0    26     1    20
  1.5795246669491655E-01 a       646     0    26     1    21
 -3.2185872237441920E-01 a       647     0    26     1    22
  1.5348373184179057E-01 a       648     0    26     1    23
  1.2165907295872315E-01 a       649     0    26     1    24
 -3.0811388551011581E-01 a       650     0    26     1    25
  1.8192068136192810E-01 a       651     0    27     1     1
 -4.2049942616202589E-02 a       652     0    27     1     2
 -1.5533100429469859E-01 a       653     0    27     1     3
  2.3330538384965438E-01 a       654     0    27     1     4
  9.5777351484247514E-02 a       655     0    27     1     5
  2.7856424423582055E-01 a       656     0    27     1     6
  1.7305372088082110E-01 a       657     0    27     1     7
 -2.6984662203502158E-01 a       658     0    27     1     8
  7.9450679341141490E-03 a       659     0    27     1     9
  1.1792306849459892E-01 a       660     0    27     1    10
 -6.5543111870040138E-02 a       661     0    27     1    11
 -2.1401753403909537E-02 a       662     0    27     1    12
 -2.9078279087319991E-01 a       663     0    27     1    13
 -2.5730979922281716E-01 a       664     0    27     1    14
  4.9814561970128603E-02 a       665     0    27     1    15
 -2.2479426095572050E-01 a       666     0    27     1    16
  3.4980935097088779E-02 a       667     0    27     1    17
 -2.7884551341416458E-01 a       668     0    27     1    18
 -7.5271413334927109E-02 a       669     0    27     1    19
 -9.4762061178916016E-02 a       670     0    27     1    20
 -2.3295904514996474E-01 a       671     0    27     1    21
  2.0953117412460201E-01 a       672     0    27     1    22
  1.7161702311503524E-01 a       673     0    27     1    23
  2.7230273689585027E-01 a       674     0    27     1    24
  3.4130617001177765E-01 a       675     0    27     1    25
  2.7996772556061539E-01 a       676     0    28     1     1
 -3.1946525726409336E-01 a       677     0    28     1     2
 -2.9911144409162294E-01 a       678     0    28     1     3
 -1.3146497425021150E-01 a       679     0    28     1     4
  3.5761225962994814E-01 a       680     0    28     1     5
  1.8286014835189507E-01 a       681     0    28     1     6
  1.6548822881224634E-01 a       682     0    28     1     7
  6.6247760549176429E-02 a       683     0    28     1     8
  2.7840326755874445E-01 a       684     0    28     1     9
  7.2273684943951463E-02 a       685     0    28     1    10
  2.6152287775996286E-01 a       686     0    28     1    11
  7.9349071108279726E-02 a       687     0    28     1    12
  2.2813555084511819E-01 a       688     0    28     1    13
 -1.9794072068398405E-01 a       689     0    28     1    14
  2.0067408255295144E-01 a       690     0    28     1    15
 -2.7988009503894939E-01 a       691     0    28     1    16
  1.1372904427332203E-01 a       692     0    28     1    17
  3.1335522392626741E-01 a       693     0    28     1    18
  2.5993348899918478E-01 a       694     0    28     1    19
 -1.0475429632379200E-01 a       695     0    28     1    20
  6.7370767311002111E-02 a       696     0    28     1    21
 -4.3239500024859788E-02 a       697     0    28     1    22
 -3.7051549496452957E-01 a       698     0    28     1    23
 -1.6349755997985496E-01 a       699     0    28     1    24
 -7.7505385536375107E-02 a       700     0    28     1    25
 -3.1575662183384462E-01 a       701     0    29     1     1
 -8.4475955155165292E-03 a       702     0    29     1     2
 -2.3661591134088208E-01 a       703     0    29     1     3
 -1.4632139140883391E-01 a       704     0    29     1     4
  2.1563488400439598E-01 a       705     0    29     1     5
  3.2494783096986241E-01 a       706     0    29     1     6
 -1.6442329191759239E-01 a       707     0    29     1     7
  3.1503106920952867E-01 a       708     0    29     1     8
 -1.2570517009743704E-01 a       709     0    29     1     9
 -2.4805148127254976E-02 a       710     0    29     1    10
  1.0219983789418480E-01 a       711     0    29     1    11
  1.4806255829185183E-01 a       712     0    29     1    12
 -1.6174588522181058E-01 a       713     0    29     1    13
 -2.7074043005406878E-01 a       714     0    29     1    14
 -9.5896995235994018E-03 a       715     0    29     1    15
 -9.2855591621755565E-02 a       716     0    29     1    16
  2.2722216897555936E-02 a       717     0    29     1    17
  1.1803382669588044E-01 a       718     0    29     1    18
  3.4103216991546398E-01 a       719     0    29     1    19
 -1.6998411041524225E-01 a       720     0    29     1    20
  3.3996482142006534E-01 a       721     0    29     1    21
 -1.1871952988942476E-02 a       722     0    29     1    22
  5.8770614532597618E-02 a       723     0    29     1    23
  3.6111128992104988E-02 a       724     0    29     1    24
 -9.1327188382254801E-02 a       725     0    29     1    25
 -2.1621585378191688E-01 a       726     0    30     1     1
 -2.1639143080904377E-01 a       727     0    30     1     2
 -2.0704061750661704E-01 a       728     0    30     1     3
 -3.1438360129565766E-02 a       729     0    30     1     4
  2.0962941538953631E-01 a       730     0    30     1     5
 -3.1104329002735004E-01 a       731     0    30     1     6
  1.3342273695351869E-01 a       732     0    30     1     7
  1.4756727581635634E-01 a       733     0    30     1     8
  2.1604931090070087E-01 a       734     0    30     1     9
  1.7940239298618374E-01 a       735     0    30     1    10
 -9.6729387602292730E-02 a       736     0    30     1    11
 -8.1848672941185717E-03 a       737     0    30     1    12
 -2.3631257818198670E-01 a       738     0    30     1    13
  1.3627621236809612E-01 a       739     0    30     1    14
  1.6497746165685878E-01 a       740     0    30     1    15
 -2.0041051787902076E-01 a       741     0    30     1    16
  8.0749662839531000E-02 a       742     0    30     1    17
  1.4931077800435533E-01 a       743     0    30     1    18
  1.0461535827940282E-02 a       744     0    30     1    19
 -1.5837644145918572E-01 a       745     0    30     1    20
  2.4536044031164936E-01 a       746     0    30     1    21
  2.8522387447012587E-01 a       747     0    30     1    22
  3.2386686172745877E-01 a       748     0    30     1    23
  3.0532284868930343E-01 a       749     0    30     1    24
 -4.5352748148000652E-02 a       750     0    30     1    25
  2.4365625085326164E-03 b       751     1     1
  4.1830635020698162E-03 b       752     1     2
 -2.7638438987359591E-02 b       753     1     3
 -7.4693576224182370E-03 b       754     1     4
  1.0389769959203730E-02 b       755     1     5
 -2.1648476207339114E-02 b       756     1     6
 -2.9646818411823033E-03 b       757     1     7
 -1.4366800954900902E-02 b       758     1     8
  5.9787218257406252E-02 b       759     1     9
 -2.8647276973673860E-02 b       760     1    10
  1.5659198529497390E-02 b       761     1    11
 -4.3281493835799394E-03 b       762     1    12
 -5.1437123197444139E-02 b       763     1    13
  3.5318395523121337E-03 b       764     1    14
  2.6890427415971668E-02 b       765     1    15
 -2.4620513826385301E-02 b       766     1    16
 -9.5720492555336420E-02 b       767     1    17
  4.7028296411167486E-02 b       768     1    18
 -2.0688812677720034E-02 b       769     1    19
  7.1463070307075216E-02 b       770     1    20
  3.3890595482361736E-02 b       771     1    21
 -9.4300929507528768E-03 b       772     1    22
 -9.2827678526026473E-03 b       773     1    23
 -2.0639538484626577E-02 b       774     1    24
  3.1572234730651905E-02 b       775     1    25
 -1.4253264286689263E-01 a       776     1     1     2     1
  2.0493471165287866E-01 a       777     1     1     2     2
  3.1761031190611494E-01 a       778     1     1     2     3
 -1.8853785111340923E-01 a       779     1     1     2     4
 -1.8178732513823126E-02 a       780     1     1     2     5
 -1.3786439283797286E-01 a       781     1     1     2     6
 -1.4756694772306389E-01 a       782     1     1     2     7
 -2.3472450749881862E-01 a       783     1     1     2     8
 -3.8379158706822659E-02 a       784     1     1     2     9
  1.2204612779366993E-01 a       785     1     1     2    10
  2.3481962157611622E-01 a       786     1     1     2    11
  5.7264478573295259E-02 a       787     1     1     2    12
 -1.1658975744575184E-01 a       788     1     1     2    13
 -3.3718274383659996E-01 a       789     1     1     2    14
 -3.9894885490150367E-01 a       790     1     1     2    15
  7.2960257149409335E-04 a       791     1     1     2    16
 -1.5562731835074220E-01 a       792     1     1     2    17
 -2.5842607821545283E-01 a       793     1     1     2    18
 -1.7474216872640305E-02 a       794     1     1     2    19
 -2.2129462179718992E-02 a       795     1     1     2    20
  1.3309736634096100E-01 a       796     1     1     2    21
 -1.8257418245532142E-01 a       797     1     1     2    22
 -3.3877098928776761E-01 a       798     1     1     2    23
 -6.6184126626235878E-02 a       799     1     1     2    24
 -1.6351792788140414E-02 a       800     1     1     2    25
  1.3415975683254215E-02 a       801     1     2     2     1
 -9.6466138873782817E-02 a       802     1     2     2     2
  1.7934335813840546E-01 a       803     1     2     2     3
  3.1828011259250222E-01 a       804     1     2     2     4
  1.1771859987979547E-01 a       805     1     2     2     5
  3.2678307757706977E-02 a       806     1     2     2     6
  2.4038451726644686E-01 a       807     1     2     2     7
  2.2444293828498968E-01 a       808     1     2     2     8
  5.9014496341586460E-02 a       809     1     2     2     9
  2.1731515241347391E-01 a       810     1     2     2    10
  1.0197113748869610E-01 a       811     1     2     2    11
 -3.1502275965594917E-01 a       812     1     2     2    12
  6.7865043525632621E-02 a       813     1     2     2    13
 -2.5273568913624211E-01 a       814     1     2     2    14
  2.2976880782307349E-01 a       815     1     2     2    15
 -7.0806854406235645E-02 a       816     1     2     2    16
 -3.0244173993768442E-02 a       817     1     2     2    17
 -1.8363704807330922E-01 a       818     1     2     2    18
  2.6899491404401676E-01 a       819     1     2     2    19
  1.6410788788811137E-01 a       820     1     2     2    20
 -1.1940119639160032E-01 a       821     1     2     2    21
  2.2611561143260114E-01 a       822     1     2     2    22
  3.4075831979730692E-01 a       823     1     2     2    23
  3.2072810560534754E-01 a       824     1     2     2    24
 -5.4336268509598586E-03 a       825     1     2     2    25
  3.9280623869325106E-02 a       826     1     3     2     1
  2.6786565011477953E-01 a       827     1     3     2     2
  1.0148565815130255E-01 a       828     1     3     2     3
  9.6344536051084548E-02 a       829     1     3     2     4
 -7.4769189321646473E-02 a       830     1     3     2     5
  2.2493594396809616E-01 a       831     1     3     2     6
 -1.1276822785531322E-01 a       832     1     3     2     7
  7.8389239925732795E-02 a       833     1     3     2     8
 -1.0365142324617038E-01 a       834     1     3     2     9
  6.6450603671636271E-02 a       835     1     3     2    10
 -1.9405556254853837E-01 a       836     1     3     2    11
 -9.2110776854183535E-02 a       837     1     3     2    12
 -1.4162455611749292E-01 a       838     1     3     2    13
 -2.8312959252429887E-01 a       839     1     3     2    14
 -3.3025559169705210E-01 a       840     1     3     2    15
  1.9205877776134114E-01 a       841     1     3     2    16
  1.8149013185429580E-01 a       842     1     3     2    17
  2.8621678555278862E-01 a       843     1     3     2    18
 -3.3752714645151644E-01 a       844     1     3     2    19
  9.8347520740643110E-02 a       845     1     3     2    20
 -3.1555730430745937E-01 a       846     1     3     2    21
 -1.5768665789816580E-01 a       847     1     3     2    22
  3.1406838640566775E-01 a       848     1     3     2    23
 -5.3332899587999562E-02 a       849     1     3     2    24
  2.2419698979009087E-01 a       850     1     3     2    25
  2.0615339020053675E-01 a       851     1     4     2     1
 -1.1060823410532492E-01 a       852     1     4     2     2
 -2.2502829578874023E-01 a       853     1     4     2     3
  2.7983435616451413E-01 a       854     1     4     2     4
 -5.7956297622589886E-02 a       855     1     4     2     5
 -1.1440428805510280E-01 a       856     1     4     2     6
 -1.6229693430600703E-01 a       857     1     4     2     7
 -2.3786439640535985E-02 a       858     1     4     2     8
  1.7339905164092473E-01 a       859     1     4     2     9
  5.6006093994890337E-02 a       860     1     4     2    10
 -3.9541761816574139E-01 a       861     1     4     2    11
 -3.4951665364331308E-01 a       862     1     4     2    12
 -2.7406411789685520E-01 a       863     1     4     2    13
  9.0607033292534292E-02 a       864     1     4     2    14
 -1.8942272362855922E-01 a       865     1     4     2    15
  2.1800891254687446E-01 a       866     1     4     2    16
 -4.8447045652933465E-02 a       867     1     4     2    17
  2.2544274972170489E-01 a       868     1     4     2    18
  2.8914938368537541E-01 a       869     1     4     2    19
 -1.5619685053743415E-01 a       870     1     4     2    20
  1.6490863271154443E-01 a       871     1     4     2    21
 -5.3610923136273277E-03 a       872     1     4     2    22
  2.3913746351145695E-01 a       873     1     4     2    23
 -3.1879970273315461E-01 a       874     1     4     2    24
  1.3417922491815093E-01 a       875     1     4     2    25
 -6.4283559317340408E-02 a       876     1     5     2     1
 -1.4131773072956555E-01 a       877     1     5     2     2
  5.9808922698632555E-02 a       878     1     5     2     3
  2.1472621552945026E-01 a       879     1     5     2     4
 -3.4606526142380506E-01 a       880     1     5     2     5
  2.3716474106107682E-01 a       881     1     5     2     6
  2.4416329750298768E-01 a       882     1     5     2     7
  2.6084979057139912E-02 a       883     1     5     2     8
 -3.1626789382090392E-01 a       884     1     5     2     9
  3.5205465036018159E-02 a       885     1     5     2    10
 -1.3581944012633820E-01 a       886     1     5     2    11
 -8.7144349877996907E-02 a       887     1     5     2    12
 -2.3999339301092321E-01 a       888     1     5     2    13
 -2.1032145724142054E-01 a       889     1     5     2    14
  6.5587191388697022E-02 a       890     1     5     2    15
 -3.2363107661746010E-01 a       891     1     5     2    16
  7.2083064968858218E-02 a       892     1     5     2    17
  2.6955134575495032E-01 a       893     1     5     2    18
 -3.5043602667351692E-01 a       894     1     5     2    19
 -1.7944797987326291E-01 a       895     1     5     2    20
  1.8744213843822757E-01 a       896     1     5     2    21
  1.7898499127794060E-01 a       897     1     5     2    22
 -4.4288489594876967E-02 a       898     1     5     2    23
  1.9132526860287505E-01 a       899     1     5     2    24
 -7.0221082451837787E-03 a       900     1     5     2    25
 -6.4487080810188752E-02 a       901     1     6     2     1
 -6.9818466437656032E-02 a       902     1     6     2     2
 -2.3037422274364858E-01 a       903     1     6     2     3
  1.1807409658838867E-01 a       904     1     6     2     4
 -2.1386776418674328E-02 a       905     1     6     2     5
 -3.4483470728742965E-01 a       906     1     6     2     6
  1.1766769431916407E-01 a       907     1     6     2     7
  2.1374358126207332E-01 a       908     1     6     2     8
  2.2547438246329152E-01 a       909     1     6     2     9
  1.4571002780317122E-01 a       910     1     6     2    10
  2.6439286273322077E-01 a       911     1     6     2    11
  1.5849005348414122E-01 a       912     1     6     2    12
 -2.8166685319026874E-01 a       913     1     6     2    13
 -2.9515533798597027E-01 a       914     1     6     2    14
 -2.6850661315681779E-01 a       915     1     6     2    15
 -2.1329115473941462E-01 a       916     1     6     2    16
  4.4640268700734495E-02 a       917     1     6     2    17
  4.6545832491691766E-02 a       918     1     6     2    18
 -8.2724542800502177E-03 a       919     1     6     2    19
  2.6964713364357823E-01 a       920     1     6     2    20
 -1.3517744318633934E-01 a       921     1     6     2    21
  3.9355164877625498E-02 a       922     1     6     2    22
  6.4134656461201756E-02 a       923     1     6     2    23
  1.2782538874748206E-01 a       924     1     6     2    24
 -3.0699248859656230E-02 a       925     1     6     2    25
 -2.0736554526595838E-01 a       926     1     7     2     1
 -1.4623127170023578E-02 a       927     1     7     2     2
  5.3986881818295869E-02 a       928     1     7     2     3
 -4.4792204261428686E-02 a       929     1     7     2     4
  6.9256174905345316E-02 a       930     1     7     2     5
  3.2409297434949291E-01 a       931     1     7     2     6
  2.6640446440929305E-01 a       932     1     7     2     7
 -9.7352765508756572E-02 a       933     1     7     2     8
  3.3147371893109123E-01 a       934     1     7     2     9
 -2.2571332056421550E-01 a       935     1     7     2    10
  2.1828275523763938E-01 a       936     1     7     2    11
 -3.3249359914435961E-01 a       937     1     7     2    12
 -2.6518929561527865E-01 a       938     1     7     2    13
  1.6112900663487589E-01 a       939     1     7     2    14
 -9.5287028922726211E-02 a       940     1     7     2    15
  1.8885022990146200E-01 a       941     1     7     2    16
 -3.5693162117319271E-01 a       942     1     7     2    17
  6.7567601885111600E-02 a       943     1     7     2    18
  1.8971829903502388E-01 a       944     1     7     2    19
 -3.0335366502179489E-01 a       945     1     7     2    20
 -3.2522892519491142E-01 a       946     1     7     2    21
 -5.7437108222145879E-02 a       947     1     7     2    22
 -2.8206367285028194E-01 a       948     1     7     2    23
 -7.1924994425395322E-02 a       949     1     7     2    24
 -7.3344926452773044E-03 a       950     1     7     2    25
 -3.0922853104785708E-01 a       951     1     8     2     1
  6.6536679896587209E-02 a       952     1     8     2     2
 -1.0480919125566755E-01 a       953     1     8     2     3
 -2.2320737431540741E-01 a       954     1     8     2     4
  1.6301142844510091E-01 a       955     1     8     2     5
 -3.2613681138414097E-01 a       956     1     8     2     6
  2.6212587098145640E-01 a       957     1     8     2     7
  1.9585936346679103E-01 a       958     1     8     2     8
  1.6780780634555692E-01 a       959     1     8     2     9
 -2.3421348089555696E-01 a       960     1     8     2    10
 -6.3235936722552455E-02 a       961     1     8     2    11
 -1.1367020839617545E-01 a       962     1     8     2    12
 -1.4421839111002421E-01 a       963     1     8     2    13
 -1.6007332837217625E-01 a       964     1     8     2    14
 -2.3135523499576199E-01 a       965     1     8     2    15
  2.8311780439247342E-01 a       966     1     8     2    16
 -1.6190919046482025E-01 a       967     1     8     2    17
  3.7795665320964613E-03 a       968     1     8     2    18
 -2.5751603597094824E-01 a       969     1     8     2    19
  6.9133272384072686E-02 a       970     1     8     2    20
  4.0865123185231231E-04 a       971     1     8     2    21
  2.4592089575368209E-01 a       972     1     8     2    22
  2.5601132002541488E-01 a       973     1     8     2    23
  1.3073720432360167E-01 a       974     1     8     2    24
  3.6229211298859804E-01 a       975     1     8     2    25
 -2.3216174673471540E-01 a       976     1     9     2     1
 -2.5032003297654071E-01 a       977     1     9     2     2
  1.2147794302481617E-01 a       978     1     9     2     3
 -1.5473774620025205E-01 a       979     1     9     2     4
  1.1984341056839483E-01 a       980     1     9     2     5
 -2.1660383952900503E-01 a       981     1     9     2     6
  5.1590177830885972E-02 a       982     1     9     2     7
  8.5365857369524553E-02 a       983     1     9     2     8
 -2.5598512308832638E-01 a       984     1     9     2     9
  1.9263598012900673E-01 a       985     1     9     2    10
  3.6734179151053856E-02 a       986     1     9     2    11
  1.3918100288783932E-02 a       987     1     9     2    12
  2.7893750123188776E-01 a       988     1     9     2    13
 -1.0632665308579983E-01 a       989     1     9     2    14
 -3.0879247863782383E-01 a       990     1     9     2    15
  9.9125072596719946E-02 a       991     1     9     2    16
  1.9581091995653566E-01 a       992     1     9     2    17
  7.1196831904201174E-02 a       993     1     9     2    18
 -2.1454888159729610E-01 a       994     1     9     2    19
  1.2162147941875075E-01 a       995     1     9     2    20
  3.3589674082006209E-03 a       996     1     9     2    21
  9.8186207486836027E-02 a       997     1     9     2    22
 -2.8023807860732325E-01 a       998     1     9     2    23
  1.3923679865339947E-01 a       999     1     9     2    24
  1.5664646291395956E-01 a      1000     1     9     2    25
 -1.2110338061084371E-01 a      1001     1    10     2     1
  1.7355778278672965E-01 a      1002     1    10     2     2
 -1.6292914668870681E-01 a      1003     1    10     2     3
  1.0619793748160813E-01 a      1004     1    10     2     4
 -2.3788886539204313E-01 a      1005     1    10     2     5
  8.0178063299452165E-02 a      1006     1    10     2     6
 -2.8138628228387919E-01 a      1007     1    10     2     7
  2.9012358676312294E-01 a      1008     1    10     2     8
  8.0603896578821305E-02 a      1009     1    10     2     9
  3.0430817246170055E-01 a      1010     1    10     2    10
 -8.1564008460518284E-02 a      1011     1    10     2    11
 -3.1064290801776590E-01 a      1012     1    10     2    12
  1.9543845455397058E-01 a      1013     1    10     2    13
  2.5029478012920359E-01 a      1014     1    10     2    14
 -3.0776753803620388E-01 a      1015     1    10     2    15
 -2.1278242845854720E-01 a      1016     1    10     2    16
 -4.5424389267682511E-02 a      1017     1    10     2    17
  1.6675057595176143E-01 a      1018     1    10     2    18
 -2.6168789124082825E-01 a      1019     1    10     2    19
 -8.8078628179823704E-02 a      1020     1    10     2    20
  1.4918510826524428E-01 a      1021     1    10     2    21
  1.2839190627761274E-01 a      1022     1    10     2    22
  1.0190755679124480E-01 a      1023     1    10     2    23
 -3.1742681357201630E-01 a      1024     1    10     2    24
  1.8941646871673126E-01 a      1025     1    10     2    25
  1.4490453203963728E-02 a      1026     1    11     2     1
  2.9817941839048751E-01 a      1027     1    11     2     2
 -3.2209094026067586E-01 a      1028     1    11     2     3
  1.1313570986094390E-01 a      1029     1    11     2     4
 -3.2885118045282141E-03 a      1030     1    11     2     5
 -1.2003914349340451E-01 a      1031     1    11     2     6
 -7.2497453691389047E-02 a      1032     1    11     2     7
  2.7035869393267653E-01 a      1033     1    11     2     8
 -1.3715252939227540E-01 a      1034     1    11     2     9
 -1.6562428155508727E-01 a      1035     1    11     2    10
 -2.4450122685470635E-01 a      1036     1    11     2    11
 -1.8223482568357829E-01 a      1037     1    11     2    12
 -3.2483330321620241E-01 a      1038     1    11     2    13
  8.3861043712905106E-02 a      1039     1    11     2    14
 -1.9413224938462820E-01 a      1040     1    11     2    15
  2.2060353465901283E-01 a      1041     1    11     2    16
  2.5189478937493559E-01 a      1042     1    11     2    17
 -2.8191908723793491E-01 a      1043     1    11     2    18
 -2.8406052843889140E-01 a      1044     1    11     2    19
  2.7954654490572861E-01 a      1045     1    11     2    20
 -2.3995941219342681E-01 a      1046     1    11     2    21
  3.1564329697832921E-01 a      1047     1    11     2    22
  9.7558124220484765E-02 a      1048     1    11     2    23
  3.0392634712714021E-02 a      1049     1    11     2    24
  1.5540448276254738E-02 a      1050     1    11     2    25
  3.4552951767152812E-01 a      1051     1    12     2     1
  2.2747041126591092E-01 a      1052     1    12     2     2
 -3.0823900401197918E-01 a      1053     1    12     2     3
 -1.8042290047366766E-01 a      1054     1    12     2     4
 -9.2319472548764214E-02 a      1055     1    12     2     5
 -1.1989833827266616E-01 a      1056     1    12     2     6
 -2.3369242752155089E-01 a      1057     1    12     2     7
  2.9188801929062153E-01 a      1058     1    12     2     8
  1.9924933982885615E-01 a      1059     1    12     2     9
 -1.0545989831014749E-02 a      1060     1    12     2    10
  3.7098988141405109E-02 a      1061     1    12     2    11
 -2.5018154721980346E-01 a      1062     1    12     2    12
 -1.6328509735846045E-01 a      1063     1    12     2    13
  2.6634930667098950E-02 a      1064     1    12     2    14
  1.9485732863869462E-01 a      1065     1    12     2    15
  4.4144660678347936E-02 a      1066     1    12     2    16
  2.9011486712290698E-03 a      1067     1    12     2    17
 -1.2266751352758308E-01 a      1068     1    12     2    18
 -2.0002402630405407E-03 a      1069     1    12     2    19
  2.8728935707152176E-01 a      1070     1    12     2    20
  5.6692329059468832E-03 a      1071     1    12     2    21
 -9.2512039626411052E-02 a      1072     1    12     2    22
  3.1780767044636526E-01 a      1073     1    12     2    23
 -2.5341665652135575E-01 a      1074     1    12     2    24
 -2.4751183175097397E-01 a      1075     1    12     2    25
 -7.6015757487385371E-02 a      1076     1    13     2     1
  1.6115159929620770E-02 a      1077     1    13     2     2
  6.3888840509067791E-05 a      1078     1    13     2     3
 -6.2210895183151878E-02 a      1079     1    13     2     4
 -1.6379481038295014E-02 a      1080     1    13     2     5
  3.2039484145772840E-01 a      1081     1    13     2     6
  1.7939370383189443E-01 a      1082     1    13     2     7
  1.0904031828034663E-01 a      1083     1    13     2     8
  1.0452886241688138E-02 a      1084     1    13     2     9
  7.6845879442666132E-02 a      1085     1    13     2    10
  3.1343208611324103E-01 a      1086     1    13     2    11
 -2.1957835997329747E-01 a      1087     1    13     2    12
 -3.3691169532977860E-01 a      1088     1    13     2    13
 -7.4386512005585825E-02 a      1089     1    13     2    14
  5.3769746357136348E-02 a      1090     1    13     2    15
  4.1046766361058092E-02 a      1091     1    13     2    16
 -6.2116712218479725E-02 a      1092     1    13     2    17
  2.6663565100707287E-01 a      1093     1    13     2    18
  3.1748262464421256E-01 a      1094     1    13     2    19
 -1.8471575190190541E-02 a      1095     1    13     2    20
  7.9320019112371187E-02 a      1096     1    13     2    21
 -1.8637692018997898E-01 a      1097     1    13     2    22
  1.6467826617466114E-01 a      1098     1    13     2    23
 -7.0279728634512525E-02 a      1099     1    13     2    24
 -2.1784414808659541E-01 a      1100     1    13     2    25
 -5.3061137980606493E-02 a      1101     1    14     2     1
  3.0133784156913140E-01 a      1102     1    14     2     2
  1.1794676279431189E-01 a      1103     1    14     2     3
 -5.1929018979293549E-02 a      1104     1    14     2     4
  6.0498616374135304E-02 a      1105     1    14     2     5
 -2.7347240826614716E-01 a      1106     1    14     2     6
 -3.2658257629519523E-02 a      1107     1    14     2     7
  9.9496668443229894E-02 a      1108     1    14     2     8
  5.2150072016095171E-03 a      1109     1    14     2     9
  2.0465669826179259E-01 a      1110     1    14     2    10
  1.6854015397863836E-02 a      1111     1    14     2    11
  2.6692979328570504E-01 a      1112     1    14     2    12
 -1.7906396708498948E-01 a      1113     1    14     2    13
 -7.9091171854070830E-02 a      1114     1    14     2    14
  6.5130542646287967E-02 a      1115     1    14     2    15
 -1.9344710612809896E-01 a      1116     1    14     2    16
 -9.6624962662380923E-02 a      1117     1    14     2    17
 -2.9564471012652349E-01 a      1118     1    14     2    18
  1.8837486060372524E-01 a      1119     1    14     2    19
 -3.2131526052516785E-01 a      1120     1    14     2    20
 -2.6280635087693821E-01 a      1121     1    14     2    21
  2.8984445259839786E-01 a      1122     1    14     2    22
 -2.7761834137120606E-01 a      1123     1    14     2    23
 -1.1326334578220311E-01 a      1124     1    14     2    24
 -2.9250721440125310E-01 a      1125     1    14     2    25
 -1.3072637429008735E-01 a      1126     1    15     2     1
  1.0010792789307814E-01 a      1127     1    15     2     2
 -1.5327528791124187E-01 a      1128     1    15     2     3
  1.0243324209752405E-01 a      1129     1    15     2     4
  7.9052703633451835E-02 a      1130     1    15     2     5
 -1.5662354307223922E-01 a      1131     1    15     2     6
  3.1079024856712151E-01 a      1132     1    15     2     7
  2.6470894417846685E-01 a      1133     1    15     2     8
  9.0453276595637136E-02 a      1134     1    15     2     9
 -2.2745984228995800E-01 a      1135     1    15     2    10
 -1.1325099077685710E-01 a      1136     1    15     2    11
  9.9728657836136339E-02 a      1137     1    15     2    12
 -4.4913912063801874E-02 a      1138     1    15     2    13
  7.4197859355357748E-02 a      1139     1    15     2    14
 -8.0401385994129382E-03 a      1140     1    15     2    15
  2.4078481479009498E-01 a      1141     1    15     2    16
 -1.8097998011700397E-01 a      1142     1    15     2    17
 -2.8057414091356342E-01 a      1143     1    15     2    18
 -1.5815554703672058E-01 a      1144     1    15     2    19
  3.1985657833862945E-02 a      1145     1    15     2    20
 -3.5482306396844764E-02 a      1146     1    15     2    21
  3.0849547021539020E-01 a      1147     1    15     2    22
 -7.1015096708974448E-02 a      1148     1    15     2    23
  2.7523007067988831E-01 a      1149     1    15     2    24
  3.1183546147960151E-01 a      1150     1    15     2    25
 -2.7670832306551635E-01 a      1151     1    16     2     1
  3.3420452427399205E-01 a      1152     1    16     2     2
  1.3810313639069835E-01 a      1153     1    16     2     3
 -1.3221711109731227E-01 a      1154     1    16     2     4
  5.5527098779561725E-02 a      1155     1    16     2     5
 -2.9173737832409880E-01 a      1156     1    16     2     6
  1.3391284543569429E-01 a      1157     1    16     2     7
  1.0935086370501443E-01 a      1158     1    16     2     8
  3.1839759323471545E-01 a      1159     1    16     2     9
 -1.2833598939376706E-01 a      1160     1    16     2    10
 -2.6976232481279366E-01 a      1161     1    16     2    11
 -2.2904307202288901E-01 a      1162     1    16     2    12
 -1.9123894120282586E-01 a      1163     1    16     2    13
 -3.0145232318782850E-01 a      1164     1    16     2    14
  3.3109665176344366E-01 a      1165     1    16     2    15
 -2.2781618582715595E-02 a      1166     1    16     2    16
 -9.1059017078082158E-02 a      1167     1    16     2    17
  1.1698795494947377E-01 a      1168     1    16     2    18
 -3.5855683096341256E-01 a      1169     1    16     2    19
  9.1882880828573654E-02 a      1170     1    16     2    20
  1.1975374953759829E-01 a      1171     1    16     2    21
  1.1734520390766820E-02 a      1172     1    16     2    22
  2.3112776854966319E-01 a      1173     1    16     2    23
 -2.3112280620788664E-01 a      1174     1    16     2    24
  2.8990710919696205E-01 a      1175     1    16     2    25
 -6.0456120109183560E-02 a      1176     1    17     2     1
 -1.8329135889096754E-01 a      1177     1    17     2     2
 -2.9422829162644470E-01 a      1178     1    17     2     3
  1.3977111141094395E-01 a      1179     1    17     2     4
 -3.0762953407215764E-02 a      1180     1    17     2     5
 -2.8545825195904935E-02 a      1181     1    17     2     6
 -1.7470240837595891E-01 a      1182     1    17     2     7
  1.1609191839192758E-01 a      1183     1    17     2     8
  1.0115847374354539E-01 a      1184     1    17     2     9
 -9.1655553454084771E-02 a      1185     1    17     2    10
  3.3920255806288678E-02 a      1186     1    17     2    11
 -5.9335454853693625E-02 a      1187     1    17     2    12
  2.2487911620392870E-01 a      1188     1    17     2    13
  3.1914825680246456E-01 a      1189     1    17     2    14
  2.1562495028198403E-01 a      1190     1    17     2    15
 -2.7325677638587644E-03 a      1191     1    17     2    16
  3.2974914837702668E-01 a      1192     1    17     2    17
  1.2990121864242127E-01 a      1193     1    17     2    18
 -7.1793560239390482E-03 a      1194     1    17     2    19
 -1.3971546139610153E-01 a      1195     1    17     2    20
 -2.3489654483960165E-01 a      1196     1    17     2    21
  1.3451388313288545E-01 a      1197     1    17     2    22
  9.1514523063366243E-02 a      1198     1    17     2    23
 -3.3547636719677232E-01 a      1199     1    17     2    24
 -7.5863822842008972E-03 a      1200     1    17     2    25
  1.6718422946022343E-01 a      1201     1    18     2     1
 -1.6674112905321142E-01 a      1202     1    18     2     2
  2.4805737043296092E-01 a      1203     1    18     2     3
  2.6136955032564591E-01 a      1204     1    18     2     4
  3.4456272376062240E-02 a      1205     1    18     2     5
  3.2446402471743030E-01 a      1206     1    18     2     6
  3.2582170642350428E-01 a      1207     1    18     2     7
 -1.1180224522607578E-01 a      1208     1    18     2     8
  1.4037838647311626E-01 a      1209     1    18     2     9
  2.9325501011039524E-02 a      1210     1    18     2    10
  8.1379665257120953E-02 a      1211     1    18     2    11
  2.7976111864418236E-02 a      1212     1    18     2    12
 -3.5003377290996585E-01 a      1213     1    18     2    13
 -3.2831854904163293E-01 a      1214     1    18     2    14
 -1.0427880528562443E-03 a      1215     1    18     2    15
 -3.1214118432025101E-01 a      1216     1    18     2    16
  2.0386074586205674E-01 a      1217     1    18     2    17
  1.2945064830988814E-01 a      1218     1    18     2    18
 -2.0090946567339987E-01 a      1219     1    18     2    19
 -2.9965769863027442E-01 a      1220     1    18     2    20
 -2.7333205054887988E-01 a      1221     1    18     2    21
 -5.7539462992358004E-03 a      1222     1    18     2    22
  1.4710693939327824E-01 a      1223     1    18     2    23
 -2.0216582411328246E-01 a      1224     1    18     2    24
 -5.1443435282516020E-02 a      1225     1    18     2    25
  1.0548654940786048E-01 a      1226     1    19     2     1
  1.9262248448549171E-01 a      1227     1    19     2     2
  2.0175776059634140E-01 a      1228     1    19     2     3
  2.7737119124163712E-01 a      1229     1    19     2     4
  2.3541262929524526E-01 a      1230     1    19     2     5
 -2.9392710446558917E-01 a      1231     1    19     2     6
 -2.5984562448964266E-01 a      1232     1    19     2     7
 -2.9577617063456185E-01 a      1233     1    19     2     8
 -8.8349281629402102E-02 a      1234     1    19     2     9
  4.3988586091004311E-02 a      1235     1    19     2    10
  2.1086069911781269E-01 a      1236     1    19     2    11
  4.3093390606544747E-02 a      1237     1    19     2    12
 -1.6923956350223522E-03 a      1238     1    19     2    13
  2.3413664877149881E-01 a      1239     1    19     2    14
  1.1345768861285305E-01 a      1240     1    19     2    15
 -2.2119405729792929E-02 a      1241     1    19     2    16
  1.0664577292682635E-01 a      1242     1    19     2    17
  2.7384191106482209E-01 a      1243     1    19     2    18
 -2.9417690007050251E-01 a      1244     1    19     2    19
 -9.6778431885787372E-02 a      1245     1    19     2    20
 -2.9776560017212572E-01 a      1246     1    19     2    21
  1.0986517039617552E-01 a      1247     1    19     2    22
 -3.1939260249526341E-02 a      1248     1    19     2    23
  1.4309585978245817E-01 a      1249     1    19     2    24
 -1.5523751817468140E-01 a      1250     1    19     2    25
  1.4471778296353146E-02 a      1251     1    20     2     1
 -2.3650254668675888E-01 a      1252     1    20     2     2
 -1.8903771537891228E-02 a      1253     1    20     2     3
 -3.1828170391143790E-01 a      1254     1    20     2     4
  2.3576683433748882E-01 a      1255     1    20     2     5
  8.2455032233920936E-02 a      1256     1    20     2     6
  2.0111650330235831E-01 a      1257     1    20     2     7
 -6.2223290532666250E-03 a      1258     1    20     2     8
 -7.3404168110031920E-02 a      1259     1    20     2     9
  2.4871905797212737E-01 a      1260     1    20     2    10
  1.1289059375008120E-01 a      1261     1    20     2    11
  2.6291737327553133E-01 a      1262     1    20     2    12
  2.0354675746310358E-01 a      1263     1    20     2    13
  2.7427179372962344E-02 a      1264     1    20     2    14
 -6.2814665142812504E-02 a      1265     1    20     2    15
 -1.2241337647161224E-01 a      1266     1    20     2    16
  2.3787848508091893E-03 a      1267     1    20     2    17
  9.0151272509950715E-03 a      1268     1    20     2    18
  2.5019744872395094E-01 a      1269     1    20     2    19
  2.2392319725304417E-06 a      1270     1    20     2    20
  2.7125897989605563E-01 a      1271     1    20     2    21
 -5.6017993868779446E-02 a      1272     1    20     2    22
 -2.5502963961228614E-01 a      1273     1    20     2    23
  4.2962271649594087E-03 a      1274     1    20     2    24
  3.7006399137062318E-01 a      1275     1    20     2    25
  2.9715997171862968E-01 a      1276     1    21     2     1
 -3.0654893297316638E-01 a      1277     1    21     2     2
  2.4062267381330552E-01 a      1278     1    21     2     3
 -2.6082968306460586E-01 a      1279     1    21     2     4
  1.7710746609984432E-01 a      1280     1    21     2     5
  3.4272226461997263E-01 a      1281     1    21     2     6
 -2.3395786379446515E-01 a      1282     1    21     2     7
 -2.6112669029916391E-01 a      1283     1    21     2     8
 -1.4964562318546470E-01 a      1284     1    21     2     9
 -2.6017039898283489E-01 a      1285     1    21     2    10
  2.8231713113531548E-01 a      1286     1    21     2    11
  7.1185057701777840E-02 a      1287     1    21     2    12
  5.8650282821516131E-02 a      1288     1    21     2    13
  2.0626533892539806E-01 a      1289     1    21     2    14
  1.7999295027000647E-02 a      1290     1    21     2    15
 -1.1612259663879840E-01 a      1291     1    21     2    16
 -2.1049671978968540E-01 a      1292     1    21     2    17
 -1.2951382468072714E-01 a      1293     1    21     2    18
  2.7039213363494752E-01 a      1294     1    21     2    19
  9.0438853671839375E-02 a      1295     1    21     2    20
 -4.7150666112482108E-02 a      1296     1    21     2    21
  3.4776548749970754E-01 a      1297     1    21     2    22
 -2.4639993536689825E-01 a      1298     1    21     2    23
  1.3613398264672529E-02 a      1299     1    21     2    24
 -5.6316777591048951E-02 a      1300     1    21     2    25
  1.5099481311159496E-01 a      1301     1    22     2     1
  1.1181365099404539E-01 a      1302     1    22     2     2
 -2.6193759619098745E-02 a      1303     1    22     2     3
  6.6964565882609239E-02 a      1304     1    22     2     4
 -1.5918429899996284E-01 a      1305     1    22     2     5
  1.0231081035221022E-01 a      1306     1    22     2     6
 -3.5246389464572031E-01 a      1307     1    22     2     7
  3.4676951672524492E-01 a      1308     1    22     2     8
  1.8826393064142496E-01 a      1309     1    22     2     9
  2.1123963324141010E-01 a      1310     1    22     2    10
 -1.9258986704661790E-01 a      1311     1    22     2    11
 -2.9311088360982956E-01 a      1312     1    22     2    12
  2.9425651242464540E-01 a      1313     1    22     2    13
  3.1074499908730507E-01 a      1314     1    22     2    14
 -2.7496326707720919E-01 a      1315     1    22     2    15
 -1.5040883537234551E-01 a      1316     1    22     2    16
 -1.1421849591533525E-02 a      1317     1    22     2    17
 -2.4989561145782774E-01 a      1318     1    22     2    18
 -1.5240949670354320E-01 a      1319     1    22     2    19
  1.3138202170022392E-01 a      1320     1    22     2    20
 -7.3456192718916138E-02 a      1321     1    22     2    21
 -2.3499074423667538E-01 a      1322     1    22     2    22
  2.6728515826630700E-01 a      1323     1    22     2    23
 -1.2208537884138641E-01 a      1324     1    22     2    24
  3.5931961387095951E-01 a      1325     1    22     2    25
 -2.5677574459446117E-01 a      1326     1    23     2     1
 -2.7221948915014299E-01 a      1327     1    23     2     2
 -1.1610258063216707E-01 a      1328     1    23     2     3
 -2.8485315618486240E-01 a      1329     1    23     2     4
 -5.7042110283542044E-02 a      1330     1    23     2     5
  6.7709298054206807E-02 a      1331     1    23     2     6
  1.7000280799935874E-01 a      1332     1    23     2     7
  2.6905673637412575E-01 a      1333     1    23     2     8
 -3.1238523680880192E-01 a      1334     1    23     2     9
 -2.5529663018343351E-01 a      1335     1    23     2    10
 -3.3524316994077617E-02 a      1336     1    23     2    11
 -4.9663059542310187E-03 a      1337     1    23     2    12
 -1.9873051266074615E-01 a      1338     1    23     2    13
  2.9540795295063149E-02 a      1339     1    23     2    14
  3.1624586546129618E-01 a      1340     1    23     2    15
  2.4147813914690308E-01 a      1341     1    23     2    16
  1.4295084015585632E-01 a      1342     1    23     2    17
 -1.0550798725671763E-01 a      1343     1    23     2    18
 -2.2908488562043838E-01 a      1344     1    23     2    19
  3.3025596833669146E-01 a      1345     1    23     2    20
  1.2412848031663257E-01 a      1346     1    23     2    21
 -1.7923930389528978E-01 a      1347     1    23     2    22
  1.5624339907057178E-01 a      1348     1    23     2    23
 -2.0724429746218831E-01 a      1349     1    23     2    24
 -2.0539000795500953E-01 a      1350     1    23     2    25
 -9.6848009793280551E-02 a      1351     1    24     2     1
  2.1343726750591635E-01 a      1352     1    24     2     2
 -6.0754011931939966E-02 a      1353     1    24     2     3
  8.1331804201934865E-02 a      1354     1    24     2     4
 -2.1684762836659752E-02 a      1355     1    24     2     5
 -2.3089749108841651E-01 a      1356     1    24     2     6
  3.3348969535426409E-01 a      1357     1    24     2     7
 -3.3378668485253893E-01 a      1358     1    24     2     8
 -7.4920776401299502E-02 a      1359     1    24     2     9
 -3.0175494301203859E-01 a      1360     1    24     2    10
  9.9498037676711032E-02 a      1361     1    24     2    11
  2.7986626776966606E-01 a      1362     1    24     2    12
  6.6950628781593011E-02 a      1363     1    24     2    13
 -5.3995986952482637E-02 a      1364     1    24     2    14
 -1.3426473515112836E-01 a      1365     1    24     2    15
 -1.6975105468343674E-01 a      1366     1    24     2    16
 -3.7334266861247065E-02 a      1367     1    24     2    17
 -8.9353448143553296E-02 a      1368     1    24     2    18
 -1.5625376028113575E-01 a      1369     1    24     2    19
 -2.3234679818815057E-01 a      1370     1    24     2    20
  1.4362088377397222E-01 a      1371     1    24     2    21
 -1.6284513067886683E-01 a      1372     1    24     2    22
 -2.8087433874921602E-01 a      1373     1    24     2    23
  3.5220900735044552E-02 a      1374     1    24     2    24
 -1.5898331310027616E-01 a      1375     1    24     2    25
  3.4818217860065853E-01 a      1376     1    25     2     1
 -1.1359919402355491E-01 a      1377     1    25     2     2
  2.7063951307238238E-01 a      1378     1    25     2     3
 -1.7962305687317787E-01 a      1379     1    25     2     4
 -2.1151883575579405E-01 a      1380     1    25     2     5
  1.2939238712402651E-01 a      1381     1    25     2     6
  3.4211638396938360E-02 a      1382     1    25     2     7
  3.5369830167650834E-01 a      1383     1    25     2     8
  1.3956786370998295E-01 a      1384     1    25     2     9
  1.3351641133375414E-01 a      1385     1    25     2    10
  3.0579369756981045E-01 a      1386     1    25     2    11
 -7.1816027645804692E-02 a      1387     1    25     2    12
 -1.4473461305523304E-03 a      1388     1    25     2    13
  2.0356119183711660E-01 a      1389     1    25     2    14
 -1.2578967899000951E-01 a      1390     1    25     2    15
  1.2935572693202677E-01 a      1391     1    25     2    16
  1.6520478435307445E-01 a      1392     1    25     2    17
  2.6568643178661810E-01 a      1393     1    25     2    18
 -2.5302026081896339E-01 a      1394     1    25     2    19
  1.5828062632426382E-01 a      1395     1    25     2    20
 -8.1187833955574606E-02 a      1396     1    25     2    21
 -2.9069772386574183E-01 a      1397     1    25     2    22
  1.1680233568963749E-01 a      1398     1    25     2    23
  1.3691763389139955E-01 a      1399     1    25     2    24
 -1.5332876635601264E-01 a      1400     1    25     2    25
  4.5345623176452056E-02 b      1401     2     1
  9.7703055696321140E-03 b      1402     2     2
  3.1637318839988278E-02 b      1403     2     3
  3.3268950322534706E-03 b      1404     2     4
 -9.1025718070484197E-03 b      1405     2     5
 -1.9928265001684306E-02 b      1406     2     6
 -2.7153174344429903E-02 b      1407     2     7
 -1.2067344498514026E-02 b      1408     2     8
 -9.9928590883157460E-04 b      1409     2     9
  1.2941357041589196E-02 b      1410     2    10
  2.3313427241831504E-02 b      1411     2    11
  5.1925338807152520E-02 b      1412     2    12
  3.9380427482224790E-02 b      1413     2    13
 -5.2788837553656724E-04 b      1414     2    14
 -6.5851800458055540E-02 b      1415     2    15
  5.8503235911677894E-02 b      1416     2    16
 -1.1640465748526381E-02 b      1417     2    17
 -3.0137442594119306E-02 b      1418     2    18
  4.8621115561075359E-02 b      1419     2    19
 -4.1286114566708269E-02 b      1420     2    20
 -9.5829042654841674E-03 b      1421     2    21
  3.0453556728272799E-02 b      1422     2    22
 -2.5968697283087937E-02 b      1423     2    23
 -4.7470181677675078E-03 b      1424     2    24
  8.8954874590136554E-02 b      1425     2    25
 -2.9331047039604985E-01 a      1426     2     1     3     1
 -1.1652808838733412E-01 a      1427     2     2     3     1
  3.3471379853106115E-01 a      1428     2     3     3     1
  1.7642291871596317E-02 a      1429     2     4     3     1
 -6.1606868906259848E-01 a      1430     2     5     3     1
  3.8982997821176441E-01 a      1431     2     6     3     1
 -5.2199317267230849E-01 a      1432     2     7     3     1
  8.8214697848334256E-01 a      1433     2     8     3     1
  1.7060121464200939E-01 a      1434     2     9     3     1
  7.5550770937553302E-02 a      1435     2    10     3     1
 -7.6823880328990757E-01 a      1436     2    11     3     1
 -1.2902471760478731E-01 a      1437     2    12     3     1
  8.7865493795946903E-01 a      1438     2    13     3     1
 -5.2318858894122122E-01 a      1439     2    14     3     1
 -8.2744059073911558E-01 a      1440     2    15     3     1
 -6.6162976778451266E-01 a      1441     2    16     3     1
  9.5366238390035696E-01 a      1442     2    17     3     1
  6.0445709407884218E-01 a      1443     2    18     3     1
  4.8264917682627889E-01 a      1444     2    19     3     1
 -6.7332945438769620E-01 a      1445     2    20     3     1
  6.5375626932866804E-01 a      1446     2    21     3     1
  4.7880365589731227E-01 a      1447     2    22     3     1
  4.4076527756482228E-02 a      1448     2    23     3     1
  2.8566327559146849E-02 a      1449     2    24     3     1
 -8.9616695940290703E-01 a      1450     2    25     3     1
  7.6067933589551939E-02 b      1451     3     1
