################################################################################
# Neural network connection values (weights and biases).
################################################################################
# Col  Name       Description
################################################################################
# 1    connection Neural network connection value.
# 2    t          Connection type (a = weight, b = bias).
# 3    index      Index enumerating weights.
# 4    l_s        Starting point layer (end point layer for biases).
# 5    n_s        Starting point neuron in starting layer (end point neuron for biases).
# 6    l_e        End point layer.
# 7    n_e        End point neuron in end layer.
################################################################################
#                      1 2         3     4     5     6     7
#             connection t     index   l_s   n_s   l_e   n_e
############################################################
  1.2449402977311226E-01 a         1     0     1     1     1
  1.3479407924087614E-01 a         2     0     1     1     2
 -2.8087954924435199E-01 a         3     0     1     1     3
 -1.8024692891971278E-01 a         4     0     1     1     4
 -7.4247751939370846E-02 a         5     0     1     1     5
 -9.8963468750565595E-02 a         6     0     1     1     6
 -3.0090111305017081E-01 a         7     0     1     1     7
  1.8402110945966885E-01 a         8     0     1     1     8
  2.6541817255476607E-01 a         9     0     1     1     9
  3.5375125177144771E-02 a        10     0     1     1    10
 -1.8735785497064514E-01 a        11     0     1     1    11
 -3.3450785974441483E-01 a        12     0     1     1    12
  3.1719500978258747E-01 a        13     0     1     1    13
  2.0317079901122334E-01 a        14     0     1     1    14
 -1.1615738984773152E-04 a        15     0     1     1    15
  5.9816892723265479E-02 a        16     0     1     1    16
  2.2485164569802714E-02 a        17     0     1     1    17
  8.9857416672523310E-02 a        18     0     1     1    18
  3.1201139399215407E-02 a        19     0     1     1    19
  2.2955888907248731E-01 a        20     0     1     1    20
  1.1834928000557512E-01 a        21     0     1     1    21
 -4.6878656197684679E-02 a        22     0     1     1    22
 -4.4413589375603101E-02 a        23     0     1     1    23
 -8.0297191145609251E-02 a        24     0     1     1    24
  7.7953875531536820E-02 a        25     0     1     1    25
 -1.1170469569450459E-01 a        26     0     2     1     1
  1.6983746881114993E-03 a        27     0     2     1     2
 -1.9075135140101090E-01 a        28     0     2     1     3
  2.3737274606639328E-01 a        29     0     2     1     4
  2.8776255596604000E-01 a        30     0     2     1     5
 -1.9462868953266552E-01 a        31     0     2     1     6
  1.4116645190454462E-02 a        32     0     2     1     7
  2.0208831253719239E-01 a        33     0     2     1     8
  1.7606995424127542E-01 a        34     0     2     1     9
  8.6053730776051870E-02 a        35     0     2     1    10
  3.2083522442885468E-02 a        36     0     2     1    11
  2.6037834143786848E-01 a        37     0     2     1    12
 -2.1861811091939523E-01 a        38     0     2     1    13
  1.9261220628389941E-01 a        39     0     2     1    14
  1.6112497925745037E-01 a        40     0     2     1    15
  6.8565146538668242E-02 a        41     0     2     1    16
  1.1757242702369558E-01 a        42     0     2     1    17
 -1.0468043282801614E-03 a        43     0     2     1    18
  1.8691814513470231E-01 a        44     0     2     1    19
  2.0498288747463539E-01 a        45     0     2     1    20
  2.2673992435829451E-01 a        46     0     2     1    21
  1.9351500671219873E-01 a        47     0     2     1    22
  2.1054179266833004E-01 a        48     0     2     1    23
  2.3222744229121145E-01 a        49     0     2     1    24
 -2.0239701595706172E-01 a        50     0     2     1    25
  1.9568029002476359E-01 a        51     0     3     1     1
 -1.7842988322245434E-01 a        52     0     3     1     2
 -7.8863098335276473E-03 a        53     0     3     1     3
  3.2591264947608650E-01 a        54     0     3     1     4
 -1.6212223317443214E-01 a        55     0     3     1     5
 -2.1445431717063745E-01 a        56     0     3     1     6
  1.2210788584656614E-01 a        57     0     3     1     7
  3.3528917147801951E-01 a        58     0     3     1     8
  2.8025701329114323E-02 a        59     0     3     1     9
  1.0996297195111976E-01 a        60     0     3     1    10
 -1.7093804068355908E-01 a        61     0     3     1    11
 -1.1745260100676413E-01 a        62     0     3     1    12
 -1.7988029324777924E-01 a        63     0     3     1    13
 -1.6333740733169957E-01 a        64     0     3     1    14
 -2.1020619140411012E-01 a        65     0     3     1    15
 -2.2809974852845044E-01 a        66     0     3     1    16
 -1.1130669140392375E-01 a        67     0     3     1    17
  2.2262944106509905E-01 a        68     0     3     1    18
 -6.2982989833274147E-02 a        69     0     3     1    19
  3.2283542101239204E-01 a        70     0     3     1    20
  2.4171152670385429E-01 a        71     0     3     1    21
  2.1273036785165053E-01 a        72     0     3     1    22
 -8.9994372463030312E-02 a        73     0     3     1    23
 -8.8082713437598395E-02 a        74     0     3     1    24
 -1.0570980865518147E-02 a        75     0     3     1    25
 -4.1091474456004293E-02 a        76     0     4     1     1
  1.2667306020231594E-02 a        77     0     4     1     2
 -3.3226697068099098E-01 a        78     0     4     1     3
 -3.0251123454156198E-01 a        79     0     4     1     4
  4.1155361394730104E-02 a        80     0     4     1     5
  2.2516934755665835E-01 a        81     0     4     1     6
  2.1599000164695004E-01 a        82     0     4     1     7
 -2.2149179699989993E-01 a        83     0     4     1     8
 -2.3826427407572803E-02 a        84     0     4     1     9
 -2.1902379410298689E-01 a        85     0     4     1    10
 -1.2546970244886754E-01 a        86     0     4     1    11
 -5.7514428371012304E-02 a        87     0     4     1    12
 -2.2697514497037560E-01 a        88     0     4     1    13
 -3.0236120624965085E-01 a        89     0     4     1    14
  2.8091591038676095E-01 a        90     0     4     1    15
 -1.2627442080533466E-02 a        91     0     4     1    16
  2.8098848645038382E-01 a        92     0     4     1    17
 -3.9819819497695814E-02 a        93     0     4     1    18
  2.2048870594881029E-01 a        94     0     4     1    19
 -1.7776661596573709E-01 a        95     0     4     1    20
 -2.2391895926285915E-01 a        96     0     4     1    21
  2.5503755705630421E-01 a        97     0     4     1    22
  2.9139550973738809E-01 a        98     0     4     1    23
  1.8500392209941091E-01 a        99     0     4     1    24
 -7.4227866620874258E-02 a       100     0     4     1    25
  4.3357298979774831E-03 a       101     0     5     1     1
 -2.1338130854689849E-01 a       102     0     5     1     2
  3.2142459180514976E-01 a       103     0     5     1     3
 -3.4123562308403063E-02 a       104     0     5     1     4
 -3.0305025017464254E-01 a       105     0     5     1     5
 -1.0220897685887763E-03 a       106     0     5     1     6
 -1.5072377597898318E-01 a       107     0     5     1     7
 -7.2345293532030494E-02 a       108     0     5     1     8
 -1.5550503136938268E-01 a       109     0     5     1     9
  5.0534991771874080E-02 a       110     0     5     1    10
  2.0632632815561169E-01 a       111     0     5     1    11
  2.3668725975167654E-01 a       112     0     5     1    12
 -2.5647714197943000E-01 a       113     0     5     1    13
 -1.2621180882824191E-02 a       114     0     5     1    14
 -7.3682623174193371E-02 a       115     0     5     1    15
 -2.7037770282950724E-01 a       116     0     5     1    16
 -3.3147190366929313E-01 a       117     0     5     1    17
  1.6843410526519656E-01 a       118     0     5     1    18
  1.3287374946427483E-01 a       119     0     5     1    19
 -1.5372695826540056E-01 a       120     0     5     1    20
  1.2365724018092740E-01 a       121     0     5     1    21
 -2.6133904980098521E-01 a       122     0     5     1    22
 -5.6239961878387812E-02 a       123     0     5     1    23
  7.8608132112238299E-02 a       124     0     5     1    24
 -1.3647752401440384E-02 a       125     0     5     1    25
 -4.9407741184075385E-02 a       126     0     6     1     1
  1.9326710796685134E-01 a       127     0     6     1     2
 -5.0624019480033852E-02 a       128     0     6     1     3
 -2.2397556421832288E-01 a       129     0     6     1     4
  3.2360694695734687E-01 a       130     0     6     1     5
 -1.9411878944761127E-01 a       131     0     6     1     6
  2.3794298063058855E-01 a       132     0     6     1     7
 -1.0164472032561532E-01 a       133     0     6     1     8
 -3.9918181656402568E-02 a       134     0     6     1     9
 -1.1898636446090977E-01 a       135     0     6     1    10
  2.2477793138215790E-01 a       136     0     6     1    11
 -6.2870079960695935E-02 a       137     0     6     1    12
  2.6841714112607279E-01 a       138     0     6     1    13
  6.5819931249425659E-02 a       139     0     6     1    14
 -1.9510410133630023E-02 a       140     0     6     1    15
  1.5512299572412885E-01 a       141     0     6     1    16
  1.6544356281622135E-02 a       142     0     6     1    17
  1.8609720951616679E-01 a       143     0     6     1    18
  2.4551795731177473E-01 a       144     0     6     1    19
 -1.4620365723206441E-01 a       145     0     6     1    20
  1.2386254000222272E-01 a       146     0     6     1    21
  1.3309438207412344E-01 a       147     0     6     1    22
  1.9220974375323341E-01 a       148     0     6     1    23
 -2.1742622233734704E-01 a       149     0     6     1    24
  1.6924553679871615E-01 a       150     0     6     1    25
 -4.6737172716938162E-02 a       151     0     7     1     1
 -2.1161583751890348E-01 a       152     0     7     1     2
 -7.1214367403793333E-02 a       153     0     7     1     3
 -1.9101852412322898E-01 a       154     0     7     1     4
 -7.5287107899844954E-02 a       155     0     7     1     5
 -3.0572619782819910E-01 a       156     0     7     1     6
 -2.3255849482465235E-01 a       157     0     7     1     7
 -2.5488445936914406E-01 a       158     0     7     1     8
  2.1607897687835531E-01 a       159     0     7     1     9
 -2.7610694333428380E-02 a       160     0     7     1    10
  2.3216641015173978E-01 a       161     0     7     1    11
  1.9845257305372510E-01 a       162     0     7     1    12
 -3.2274373070907281E-01 a       163     0     7     1    13
  7.5130289221542806E-03 a       164     0     7     1    14
  1.5971871677746977E-01 a       165     0     7     1    15
  2.1903279990444768E-01 a       166     0     7     1    16
  8.7159382204351613E-02 a       167     0     7     1    17
  5.1644452315818747E-02 a       168     0     7     1    18
 -2.2625537852108366E-01 a       169     0     7     1    19
  1.2634731370956234E-01 a       170     0     7     1    20
  4.1903295411714489E-02 a       171     0     7     1    21
 -3.1466536086933422E-01 a       172     0     7     1    22
  1.7693160493733787E-01 a       173     0     7     1    23
  2.8040225752328984E-01 a       174     0     7     1    24
 -4.0267184155055813E-02 a       175     0     7     1    25
 -9.7081051546693220E-02 a       176     0     8     1     1
  1.2077064780338909E-01 a       177     0     8     1     2
  3.9489515925707597E-02 a       178     0     8     1     3
 -3.6911500291301880E-01 a       179     0     8     1     4
 -2.4763456301267736E-01 a       180     0     8     1     5
  5.1823253078015236E-03 a       181     0     8     1     6
  3.2637636911441503E-01 a       182     0     8     1     7
 -5.4011676033188502E-02 a       183     0     8     1     8
 -4.3356215673164920E-03 a       184     0     8     1     9
 -5.0943817316819996E-02 a       185     0     8     1    10
 -2.1291110157895551E-01 a       186     0     8     1    11
 -3.1498720445271861E-01 a       187     0     8     1    12
  2.9730536939005604E-02 a       188     0     8     1    13
  2.1124129789923060E-01 a       189     0     8     1    14
 -3.6557414647661352E-01 a       190     0     8     1    15
 -2.6886553390020995E-02 a       191     0     8     1    16
  2.7716511697245572E-01 a       192     0     8     1    17
 -2.5576631799736382E-01 a       193     0     8     1    18
  9.7003470334284983E-02 a       194     0     8     1    19
 -3.1150817593001739E-02 a       195     0     8     1    20
  6.7985279505141149E-03 a       196     0     8     1    21
  2.4342105449447490E-01 a       197     0     8     1    22
 -1.3055421038616191E-01 a       198     0     8     1    23
 -2.6435140763494819E-01 a       199     0     8     1    24
 -3.5057045061281732E-02 a       200     0     8     1    25
  8.2247810658136078E-02 a       201     0     9     1     1
  1.1262585183294439E-01 a       202     0     9     1     2
  2.6151972133650786E-01 a       203     0     9     1     3
  2.9870680239176445E-01 a       204     0     9     1     4
 -1.3209362240525532E-01 a       205     0     9     1     5
 -2.5748607172672722E-01 a       206     0     9     1     6
 -2.5994393581884345E-01 a       207     0     9     1     7
 -1.3428095182671707E-01 a       208     0     9     1     8
  8.0411159013632619E-02 a       209     0     9     1     9
 -1.8971338198778658E-02 a       210     0     9     1    10
 -1.1908575628307948E-01 a       211     0     9     1    11
  2.6941995097826177E-01 a       212     0     9     1    12
  2.9298110456238829E-01 a       213     0     9     1    13
 -2.2772768126611287E-01 a       214     0     9     1    14
 -9.3663316002858793E-02 a       215     0     9     1    15
 -4.1833829447675369E-01 a       216     0     9     1    16
 -8.6371097637865282E-02 a       217     0     9     1    17
  2.8087590806701029E-01 a       218     0     9     1    18
 -1.1341947559966767E-01 a       219     0     9     1    19
  1.7082775213128903E-01 a       220     0     9     1    20
 -2.5141258355365464E-01 a       221     0     9     1    21
 -1.6413892019189574E-01 a       222     0     9     1    22
 -1.6362758826761525E-01 a       223     0     9     1    23
  2.9514179658995104E-01 a       224     0     9     1    24
 -2.6455564563634310E-01 a       225     0     9     1    25
  2.3241982449067325E-01 a       226     0    10     1     1
  2.7034174775989572E-01 a       227     0    10     1     2
  1.7807321831281697E-02 a       228     0    10     1     3
  1.6354766787454575E-01 a       229     0    10     1     4
  2.8868555920039796E-01 a       230     0    10     1     5
  9.6597762361618877E-02 a       231     0    10     1     6
 -9.5950446996737618E-02 a       232     0    10     1     7
  1.8752387381163943E-02 a       233     0    10     1     8
  3.4677986803268968E-01 a       234     0    10     1     9
 -2.0344800850151079E-01 a       235     0    10     1    10
  3.2695336713921186E-01 a       236     0    10     1    11
 -1.6679012912604646E-01 a       237     0    10     1    12
  1.3967190149141953E-01 a       238     0    10     1    13
  7.9149890978358853E-02 a       239     0    10     1    14
 -2.1554920245313297E-01 a       240     0    10     1    15
 -1.7051325464375444E-01 a       241     0    10     1    16
  2.4606530717409450E-01 a       242     0    10     1    17
  7.1511956192348805E-02 a       243     0    10     1    18
 -2.1232009087070899E-01 a       244     0    10     1    19
  6.6166849386519885E-02 a       245     0    10     1    20
  9.6718313940139564E-02 a       246     0    10     1    21
  1.5855631050612948E-01 a       247     0    10     1    22
  2.9410117071132319E-01 a       248     0    10     1    23
  2.3991132877249260E-01 a       249     0    10     1    24
 -3.1473867865240956E-01 a       250     0    10     1    25
  1.5934239007847723E-01 a       251     0    11     1     1
 -2.7312622907586293E-02 a       252     0    11     1     2
 -2.6612206614385542E-01 a       253     0    11     1     3
 -9.6960556146353030E-03 a       254     0    11     1     4
 -2.6067467552786483E-01 a       255     0    11     1     5
  2.7364574679583226E-02 a       256     0    11     1     6
 -1.7106507735337775E-01 a       257     0    11     1     7
  2.7087124688941261E-01 a       258     0    11     1     8
  1.4157611775672854E-01 a       259     0    11     1     9
 -3.0587870410250440E-01 a       260     0    11     1    10
  1.9312310109449702E-02 a       261     0    11     1    11
 -1.2119016418157090E-01 a       262     0    11     1    12
 -2.3348844838313204E-01 a       263     0    11     1    13
  1.0201003139351293E-01 a       264     0    11     1    14
 -2.2237525409721515E-01 a       265     0    11     1    15
 -4.7708089119589736E-02 a       266     0    11     1    16
 -2.6101495997818292E-02 a       267     0    11     1    17
  1.2157652035569187E-01 a       268     0    11     1    18
 -3.2677930890710244E-01 a       269     0    11     1    19
 -1.9315539674973631E-01 a       270     0    11     1    20
 -1.5394448926276288E-01 a       271     0    11     1    21
  1.4597149043980823E-01 a       272     0    11     1    22
  2.3666608479074649E-01 a       273     0    11     1    23
 -1.4860340651672099E-01 a       274     0    11     1    24
  3.3187429329766588E-01 a       275     0    11     1    25
 -2.6689069586863773E-01 a       276     0    12     1     1
 -1.3868944155066740E-01 a       277     0    12     1     2
 -3.1584587985703633E-01 a       278     0    12     1     3
  3.2775842437011182E-01 a       279     0    12     1     4
  2.8129298033903904E-01 a       280     0    12     1     5
 -7.1469497460193640E-02 a       281     0    12     1     6
  8.0374035601811930E-02 a       282     0    12     1     7
  8.0768282479717679E-02 a       283     0    12     1     8
  9.3332368222804080E-02 a       284     0    12     1     9
 -8.3993046096556043E-02 a       285     0    12     1    10
 -1.8748808466420730E-01 a       286     0    12     1    11
 -1.8524536686981158E-01 a       287     0    12     1    12
  1.4453949689698886E-01 a       288     0    12     1    13
  3.6937639147345402E-01 a       289     0    12     1    14
 -2.7496618319567168E-01 a       290     0    12     1    15
  1.2924840695204323E-01 a       291     0    12     1    16
 -1.1163564976051066E-01 a       292     0    12     1    17
  6.8620456690714676E-02 a       293     0    12     1    18
 -1.9308164956630564E-01 a       294     0    12     1    19
  3.7795178883635527E-01 a       295     0    12     1    20
 -3.4914355481011565E-02 a       296     0    12     1    21
  1.8243684927814302E-01 a       297     0    12     1    22
 -1.9363196831950918E-03 a       298     0    12     1    23
  9.9986124118538452E-02 a       299     0    12     1    24
  3.3974437401979474E-01 a       300     0    12     1    25
 -2.3645656346227084E-01 a       301     0    13     1     1
  1.1904316539897801E-01 a       302     0    13     1     2
  7.2967420240635503E-02 a       303     0    13     1     3
 -1.3249264834803420E-01 a       304     0    13     1     4
  2.7621103491300381E-01 a       305     0    13     1     5
  2.4434213896547483E-01 a       306     0    13     1     6
  6.8691509865409311E-02 a       307     0    13     1     7
 -7.7241455047660806E-02 a       308     0    13     1     8
 -3.0597828642725827E-01 a       309     0    13     1     9
  1.2282554659457687E-02 a       310     0    13     1    10
  2.4571380645360286E-01 a       311     0    13     1    11
  7.1886685453846411E-02 a       312     0    13     1    12
  1.9802644871237526E-01 a       313     0    13     1    13
  1.9984819236075349E-01 a       314     0    13     1    14
 -1.0317704600942258E-01 a       315     0    13     1    15
 -1.4059700851377600E-02 a       316     0    13     1    16
  2.7720823080443302E-01 a       317     0    13     1    17
 -2.0560750365392066E-01 a       318     0    13     1    18
  1.8675091752512460E-01 a       319     0    13     1    19
 -6.2571752964562287E-03 a       320     0    13     1    20
  3.8057878315079507E-01 a       321     0    13     1    21
 -6.9411535210229372E-02 a       322     0    13     1    22
  6.2128954639621446E-02 a       323     0    13     1    23
 -1.9052235287227126E-01 a       324     0    13     1    24
 -1.6774684724501496E-03 a       325     0    13     1    25
  1.7480208226572544E-01 a       326     0    14     1     1
 -2.4723256988832423E-01 a       327     0    14     1     2
 -1.3968667599369752E-01 a       328     0    14     1     3
 -1.4962035146546587E-01 a       329     0    14     1     4
 -1.4773899232613311E-01 a       330     0    14     1     5
 -2.2700534657086582E-01 a       331     0    14     1     6
 -1.8628534565264065E-01 a       332     0    14     1     7
 -3.3871889822695106E-01 a       333     0    14     1     8
  1.9925502226557090E-01 a       334     0    14     1     9
 -1.0557553398613798E-01 a       335     0    14     1    10
 -2.1413284935790304E-02 a       336     0    14     1    11
  2.7920903492948940E-01 a       337     0    14     1    12
 -2.0951869062208614E-01 a       338     0    14     1    13
 -1.4414142024711687E-01 a       339     0    14     1    14
 -2.4963124686829122E-01 a       340     0    14     1    15
  1.7672263074413982E-01 a       341     0    14     1    16
  8.7675845055936855E-02 a       342     0    14     1    17
 -9.0975739477876863E-02 a       343     0    14     1    18
  1.0369533625451501E-01 a       344     0    14     1    19
  9.8696356116052000E-02 a       345     0    14     1    20
  3.1705792228089358E-01 a       346     0    14     1    21
 -2.1036381637716833E-01 a       347     0    14     1    22
 -9.8629943091078212E-02 a       348     0    14     1    23
  1.5347148808950434E-02 a       349     0    14     1    24
  1.5783576460808393E-01 a       350     0    14     1    25
 -2.0608360352614011E-01 a       351     0    15     1     1
  4.7313088387031049E-01 a       352     0    15     1     2
  3.9097603022544275E-01 a       353     0    15     1     3
 -8.8304689129777639E-03 a       354     0    15     1     4
 -1.5845337149171404E-01 a       355     0    15     1     5
 -1.2457903955922743E-01 a       356     0    15     1     6
 -3.0638168482144656E-01 a       357     0    15     1     7
 -1.0989253377366281E-01 a       358     0    15     1     8
 -3.1850214443450729E-02 a       359     0    15     1     9
  1.6379675221713344E-01 a       360     0    15     1    10
 -2.5968231942972868E-02 a       361     0    15     1    11
 -2.8329126665351523E-01 a       362     0    15     1    12
  3.3361604705878783E-01 a       363     0    15     1    13
 -4.4065446595495011E-01 a       364     0    15     1    14
  8.5878105029127336E-02 a       365     0    15     1    15
 -1.4399165041000705E-01 a       366     0    15     1    16
 -1.9700293675338618E-01 a       367     0    15     1    17
 -5.5591979039465965E-02 a       368     0    15     1    18
  2.8958887509178462E-02 a       369     0    15     1    19
 -6.6616506777259915E-02 a       370     0    15     1    20
  3.2434919324835215E-01 a       371     0    15     1    21
 -1.7182289787524865E-01 a       372     0    15     1    22
 -3.4918143791040845E-01 a       373     0    15     1    23
 -2.2128577813043085E-01 a       374     0    15     1    24
 -1.1125164687119939E-01 a       375     0    15     1    25
  7.6270860786255085E-02 a       376     0    16     1     1
  8.7499175902486792E-02 a       377     0    16     1     2
 -3.2019323905495480E-02 a       378     0    16     1     3
 -2.5080063635964478E-01 a       379     0    16     1     4
  2.1713640668172637E-01 a       380     0    16     1     5
 -1.6401442307092642E-02 a       381     0    16     1     6
  6.6839938589916964E-02 a       382     0    16     1     7
  5.7355501134724395E-02 a       383     0    16     1     8
 -1.9719584936281512E-01 a       384     0    16     1     9
 -1.3504207642708532E-01 a       385     0    16     1    10
  5.3515495727010545E-02 a       386     0    16     1    11
  1.3959829227811475E-02 a       387     0    16     1    12
  1.0425275843877321E-01 a       388     0    16     1    13
 -5.4702754743231517E-02 a       389     0    16     1    14
 -1.9382489525345534E-01 a       390     0    16     1    15
 -8.9785906726391196E-02 a       391     0    16     1    16
  2.0240842192308084E-01 a       392     0    16     1    17
 -1.9920919518971322E-01 a       393     0    16     1    18
  2.2494737732780312E-01 a       394     0    16     1    19
  1.1006710037357736E-01 a       395     0    16     1    20
  8.1982040400651726E-02 a       396     0    16     1    21
 -2.0346475977498407E-01 a       397     0    16     1    22
 -2.7850924059320592E-01 a       398     0    16     1    23
 -2.4617287030040996E-02 a       399     0    16     1    24
 -2.7252960129300480E-01 a       400     0    16     1    25
 -2.5081154652931908E-01 a       401     0    17     1     1
  5.2667140305429856E-02 a       402     0    17     1     2
  2.7141195757561670E-01 a       403     0    17     1     3
  1.8006873560304459E-01 a       404     0    17     1     4
  1.9124966249142267E-01 a       405     0    17     1     5
  2.3698901026261349E-01 a       406     0    17     1     6
  1.6838605340603258E-01 a       407     0    17     1     7
  2.4596541367537286E-01 a       408     0    17     1     8
 -2.1677857271824807E-01 a       409     0    17     1     9
  2.0359367909434398E-01 a       410     0    17     1    10
  2.3187487051242575E-01 a       411     0    17     1    11
  4.9301143871750094E-02 a       412     0    17     1    12
 -2.2263242802839303E-01 a       413     0    17     1    13
 -4.8027583676042256E-02 a       414     0    17     1    14
  2.7665083637562266E-01 a       415     0    17     1    15
  3.3548767092162646E-02 a       416     0    17     1    16
 -3.3265847588130182E-01 a       417     0    17     1    17
 -1.5793849858547188E-01 a       418     0    17     1    18
 -1.0805563352232869E-01 a       419     0    17     1    19
 -1.8802585480184958E-01 a       420     0    17     1    20
 -1.4139479990861986E-01 a       421     0    17     1    21
  7.3007121438682612E-02 a       422     0    17     1    22
  7.7844350282978994E-02 a       423     0    17     1    23
 -1.5605991587141887E-01 a       424     0    17     1    24
 -1.0004788338735689E-01 a       425     0    17     1    25
  2.1963266031295373E-01 a       426     0    18     1     1
 -4.4087157991380702E-02 a       427     0    18     1     2
 -5.6817474706906013E-02 a       428     0    18     1     3
 -1.3799347457038483E-01 a       429     0    18     1     4
 -1.5657635354644983E-01 a       430     0    18     1     5
 -1.2797641263442142E-01 a       431     0    18     1     6
  7.0676134057791346E-03 a       432     0    18     1     7
 -1.5205625975891476E-01 a       433     0    18     1     8
  1.2181700186539866E-01 a       434     0    18     1     9
 -1.5818683639784167E-01 a       435     0    18     1    10
 -1.8760376351402336E-01 a       436     0    18     1    11
  2.7345916399624609E-01 a       437     0    18     1    12
 -2.2836889464319579E-01 a       438     0    18     1    13
 -8.8251763372605235E-02 a       439     0    18     1    14
 -2.2527433812817657E-01 a       440     0    18     1    15
 -1.9835554174534048E-01 a       441     0    18     1    16
 -2.5574752258086453E-01 a       442     0    18     1    17
  2.3629637389099462E-01 a       443     0    18     1    18
 -2.6242973499124977E-02 a       444     0    18     1    19
 -5.5469478833868054E-02 a       445     0    18     1    20
 -5.7148312119373816E-02 a       446     0    18     1    21
  3.6953893754952269E-02 a       447     0    18     1    22
 -3.1171321770566918E-01 a       448     0    18     1    23
 -8.9435070963121647E-03 a       449     0    18     1    24
 -2.3339205883947753E-01 a       450     0    18     1    25
 -1.4158444424113115E-01 a       451     0    19     1     1
 -2.1019573850896053E-01 a       452     0    19     1     2
 -2.8484294521336184E-01 a       453     0    19     1     3
 -2.7724401282859434E-01 a       454     0    19     1     4
 -2.0722834101284796E-01 a       455     0    19     1     5
 -3.4707713324179135E-01 a       456     0    19     1     6
 -2.1145062182835683E-01 a       457     0    19     1     7
  2.7697828180140732E-01 a       458     0    19     1     8
 -5.4817692422405237E-02 a       459     0    19     1     9
 -1.5937207375196161E-01 a       460     0    19     1    10
 -1.7455750215568311E-01 a       461     0    19     1    11
 -2.0397082540868919E-01 a       462     0    19     1    12
 -1.1925331563882391E-01 a       463     0    19     1    13
  4.6900805695121034E-02 a       464     0    19     1    14
  2.6040024845829107E-01 a       465     0    19     1    15
 -5.6894088517120314E-02 a       466     0    19     1    16
 -1.4934304559896834E-02 a       467     0    19     1    17
  7.4039053677890820E-02 a       468     0    19     1    18
  8.8356965220600520E-02 a       469     0    19     1    19
  2.5613857582458224E-02 a       470     0    19     1    20
  1.4211823262413706E-01 a       471     0    19     1    21
  2.6597339461322878E-01 a       472     0    19     1    22
  1.4942338716337373E-02 a       473     0    19     1    23
 -2.6915440145519642E-01 a       474     0    19     1    24
  9.5877521103443997E-02 a       475     0    19     1    25
 -2.2144195734642321E-02 a       476     0    20     1     1
 -3.3545000015822619E-02 a       477     0    20     1     2
  3.2735202198575686E-01 a       478     0    20     1     3
  8.9025799835606725E-02 a       479     0    20     1     4
  1.7830134802747266E-01 a       480     0    20     1     5
 -1.9884088699401302E-02 a       481     0    20     1     6
  2.1219343354234957E-01 a       482     0    20     1     7
  2.9225602899900183E-01 a       483     0    20     1     8
  1.9346451292132691E-01 a       484     0    20     1     9
 -7.1905466173279670E-02 a       485     0    20     1    10
 -2.6050328298887576E-01 a       486     0    20     1    11
 -2.9810900601265816E-01 a       487     0    20     1    12
  1.5457242291419399E-01 a       488     0    20     1    13
  3.8303462393942472E-01 a       489     0    20     1    14
 -1.3974503340092065E-02 a       490     0    20     1    15
  2.8112783181048956E-01 a       491     0    20     1    16
 -2.1915311498721624E-01 a       492     0    20     1    17
 -5.2048868970424572E-02 a       493     0    20     1    18
 -1.5983232534376399E-01 a       494     0    20     1    19
  1.2657355037966167E-01 a       495     0    20     1    20
 -4.8227819550245278E-02 a       496     0    20     1    21
  1.7108556660758254E-02 a       497     0    20     1    22
  2.1531615204355958E-01 a       498     0    20     1    23
 -2.4837814500172393E-02 a       499     0    20     1    24
 -2.4497320392860805E-01 a       500     0    20     1    25
 -1.6598022310590363E-01 a       501     0    21     1     1
 -6.3145533589001754E-02 a       502     0    21     1     2
  2.4187008738518365E-01 a       503     0    21     1     3
 -1.2796851255484976E-01 a       504     0    21     1     4
 -1.5063260557727695E-01 a       505     0    21     1     5
 -1.4284887490340742E-01 a       506     0    21     1     6
  1.7843148096208961E-01 a       507     0    21     1     7
 -8.3435982884072862E-02 a       508     0    21     1     8
  2.9730930096432756E-01 a       509     0    21     1     9
 -1.7520132036870442E-01 a       510     0    21     1    10
  1.1623710877968273E-01 a       511     0    21     1    11
 -5.9684031925513463E-02 a       512     0    21     1    12
 -1.3552811875861367E-01 a       513     0    21     1    13
 -2.8899240697058021E-01 a       514     0    21     1    14
 -1.7045378171917830E-01 a       515     0    21     1    15
 -1.4792535232775514E-01 a       516     0    21     1    16
 -4.8699774438310389E-02 a       517     0    21     1    17
  1.9010364592684809E-01 a       518     0    21     1    18
 -2.8529446581145777E-02 a       519     0    21     1    19
  2.5824469996293647E-01 a       520     0    21     1    20
  8.6437356651958494E-02 a       521     0    21     1    21
 -2.2373109294806587E-01 a       522     0    21     1    22
  1.9827669685964538E-02 a       523     0    21     1    23
 -1.2395674841997921E-01 a       524     0    21     1    24
 -1.6453989981357706E-01 a       525     0    21     1    25
 -1.7959420748171631E-01 a       526     0    22     1     1
  3.0167114975485750E-02 a       527     0    22     1     2
  2.1367613074810737E-01 a       528     0    22     1     3
  2.3735857705519875E-01 a       529     0    22     1     4
 -1.2424629552561302E-01 a       530     0    22     1     5
  2.8421112869972331E-01 a       531     0    22     1     6
 -6.4945464380948309E-02 a       532     0    22     1     7
  6.3153462487137752E-04 a       533     0    22     1     8
 -9.5506835463748690E-02 a       534     0    22     1     9
  1.4915871645043607E-01 a       535     0    22     1    10
 -5.4051200729444013E-02 a       536     0    22     1    11
 -1.3327618654763634E-01 a       537     0    22     1    12
 -2.1558137733982252E-01 a       538     0    22     1    13
 -1.2011253130225542E-01 a       539     0    22     1    14
 -2.2302797257145485E-01 a       540     0    22     1    15
  1.4026772689829539E-01 a       541     0    22     1    16
 -8.4131580135732201E-02 a       542     0    22     1    17
 -3.3693253762845637E-01 a       543     0    22     1    18
 -8.9938530832127175E-02 a       544     0    22     1    19
  1.8618887900550538E-01 a       545     0    22     1    20
 -9.8749292271353359E-02 a       546     0    22     1    21
 -2.2269825502848500E-01 a       547     0    22     1    22
 -1.5468390761458256E-01 a       548     0    22     1    23
  1.9201546944913647E-01 a       549     0    22     1    24
 -2.5336106776281692E-01 a       550     0    22     1    25
  2.3331548421828677E-01 a       551     0    23     1     1
  2.4193803540579731E-01 a       552     0    23     1     2
  1.2795642222014550E-01 a       553     0    23     1     3
  4.8959196474102872E-02 a       554     0    23     1     4
  1.8055788236463072E-01 a       555     0    23     1     5
 -1.6955050640064750E-01 a       556     0    23     1     6
  2.3905408386640806E-01 a       557     0    23     1     7
 -1.0332315716809645E-01 a       558     0    23     1     8
 -6.8059350443735206E-02 a       559     0    23     1     9
 -1.9538894826755410E-01 a       560     0    23     1    10
 -4.3372601050503674E-02 a       561     0    23     1    11
 -1.2406482792434173E-01 a       562     0    23     1    12
  1.5480162463886943E-02 a       563     0    23     1    13
  7.1368987812331544E-02 a       564     0    23     1    14
 -2.8524222014675160E-01 a       565     0    23     1    15
 -3.9889434440418030E-02 a       566     0    23     1    16
 -1.7674937359919176E-02 a       567     0    23     1    17
  1.2570097953585556E-03 a       568     0    23     1    18
 -5.9976502634563993E-02 a       569     0    23     1    19
 -6.8229466905466205E-02 a       570     0    23     1    20
 -2.6691276995213187E-01 a       571     0    23     1    21
  7.7357006899338859E-02 a       572     0    23     1    22
  2.9317546226186925E-01 a       573     0    23     1    23
 -2.3329412839243560E-01 a       574     0    23     1    24
 -1.3893467410435059E-01 a       575     0    23     1    25
 -7.8813858237252218E-02 a       576     0    24     1     1
  1.5778642067820345E-01 a       577     0    24     1     2
  8.5923289079632439E-02 a       578     0    24     1     3
  1.4051714290827053E-01 a       579     0    24     1     4
  1.3472016808769641E-01 a       580     0    24     1     5
  5.8237589021267376E-02 a       581     0    24     1     6
 -2.3994877409038703E-01 a       582     0    24     1     7
  7.2396643143014666E-02 a       583     0    24     1     8
 -3.0535446499637442E-01 a       584     0    24     1     9
  1.5429335373537359E-01 a       585     0    24     1    10
 -1.8214936273512206E-01 a       586     0    24     1    11
  3.3263813321829414E-02 a       587     0    24     1    12
 -1.2824754118754284E-01 a       588     0    24     1    13
 -1.0257689558517857E-01 a       589     0    24     1    14
  2.9268971873529276E-01 a       590     0    24     1    15
  2.1629617269282239E-02 a       591     0    24     1    16
 -2.1877529706415086E-01 a       592     0    24     1    17
  2.9949943403774837E-01 a       593     0    24     1    18
 -1.8700968730351200E-01 a       594     0    24     1    19
 -3.1144807834367022E-01 a       595     0    24     1    20
  3.0746559965844367E-01 a       596     0    24     1    21
  7.4636324607281201E-02 a       597     0    24     1    22
 -2.1568932588239383E-02 a       598     0    24     1    23
  2.3177776013915291E-01 a       599     0    24     1    24
 -3.3312113382550890E-01 a       600     0    24     1    25
  1.1517047379626305E-01 a       601     0    25     1     1
 -1.4167675155506357E-01 a       602     0    25     1     2
  2.5656586959804900E-01 a       603     0    25     1     3
 -1.0240570065630429E-01 a       604     0    25     1     4
  2.7819618501041032E-01 a       605     0    25     1     5
 -3.0748954674743928E-01 a       606     0    25     1     6
 -9.2199182050071316E-03 a       607     0    25     1     7
 -1.4081333158583351E-01 a       608     0    25     1     8
 -2.0198888524015354E-01 a       609     0    25     1     9
  5.2663573070597734E-02 a       610     0    25     1    10
  6.4207792740290301E-02 a       611     0    25     1    11
  1.6290505055455292E-03 a       612     0    25     1    12
  2.8110209220638555E-01 a       613     0    25     1    13
  1.2684279386975017E-01 a       614     0    25     1    14
 -1.1751013235986133E-02 a       615     0    25     1    15
  2.9325260613345611E-01 a       616     0    25     1    16
 -2.2570381788938509E-01 a       617     0    25     1    17
 -2.4979084932631651E-01 a       618     0    25     1    18
  9.3276934542229545E-02 a       619     0    25     1    19
  1.9739459758321456E-01 a       620     0    25     1    20
  1.4938587660888744E-01 a       621     0    25     1    21
 -2.4795554413988324E-01 a       622     0    25     1    22
  1.4909047730955366E-01 a       623     0    25     1    23
  1.3305419819007699E-01 a       624     0    25     1    24
 -1.1634829976276433E-01 a       625     0    25     1    25
 -7.7695998731987140E-02 a       626     0    26     1     1
 -6.4018856902095508E-02 a       627     0    26     1     2
  1.0479020538597388E-01 a       628     0    26     1     3
  3.6013204775946057E-02 a       629     0    26     1     4
  3.3878352572200832E-01 a       630     0    26     1     5
 -2.7840312375334114E-01 a       631     0    26     1     6
  2.6966698140011758E-01 a       632     0    26     1     7
  2.1050118197209147E-01 a       633     0    26     1     8
  1.2182057237565343E-01 a       634     0    26     1     9
 -1.3314748032884349E-01 a       635     0    26     1    10
 -1.2541543056457297E-01 a       636     0    26     1    11
 -2.5776371903002439E-02 a       637     0    26     1    12
  1.8687307998220600E-02 a       638     0    26     1    13
 -3.9038565647027380E-02 a       639     0    26     1    14
  1.9262698807644177E-01 a       640     0    26     1    15
  4.1884574098373747E-02 a       641     0    26     1    16
  2.1230209114290610E-01 a       642     0    26     1    17
  2.2464380297315245E-01 a       643     0    26     1    18
  6.3806061230220826E-02 a       644     0    26     1    19
  7.2794638377824711E-02 a       645     0    26     1    20
  2.0444095363689876E-01 a       646     0    26     1    21
  2.0264442496742105E-01 a       647     0    26     1    22
 -6.3002593985498415E-02 a       648     0    26     1    23
  2.0052230515777551E-03 a       649     0    26     1    24
  4.4031746884879465E-03 a       650     0    26     1    25
 -2.6849550953900025E-01 a       651     0    27     1     1
  2.4724565440876611E-01 a       652     0    27     1     2
  8.9158906285985731E-02 a       653     0    27     1     3
  2.1691130747403478E-01 a       654     0    27     1     4
 -2.2880897791984803E-01 a       655     0    27     1     5
 -9.7001435221799132E-02 a       656     0    27     1     6
  1.5407893908196021E-01 a       657     0    27     1     7
 -8.5503286799799710E-02 a       658     0    27     1     8
 -1.4548115345456150E-01 a       659     0    27     1     9
 -2.3933455764981207E-01 a       660     0    27     1    10
 -2.1878089663075811E-01 a       661     0    27     1    11
  6.4858909747381149E-02 a       662     0    27     1    12
  1.6606617792121645E-01 a       663     0    27     1    13
 -1.0311900752111647E-01 a       664     0    27     1    14
 -1.2478955653150503E-01 a       665     0    27     1    15
  5.0301944679374710E-02 a       666     0    27     1    16
  5.8220805954824324E-02 a       667     0    27     1    17
 -3.1481996941765716E-01 a       668     0    27     1    18
 -8.3569360284770383E-02 a       669     0    27     1    19
 -2.0232986544130657E-01 a       670     0    27     1    20
 -1.1125588167403480E-01 a       671     0    27     1    21
 -2.5380057614160284E-01 a       672     0    27     1    22
  5.6935289443884998E-02 a       673     0    27     1    23
  1.9150890010128688E-01 a       674     0    27     1    24
 -1.8928122374249035E-01 a       675     0    27     1    25
  1.3106111366790412E-02 b       676     1     1
 -5.4391204972156784E-02 b       677     1     2
 -1.6336539246801222E-02 b       678     1     3
  1.1014560761429837E-02 b       679     1     4
  1.3580873479592134E-02 b       680     1     5
 -5.0397705400484882E-02 b       681     1     6
 -1.0230547799634714E-02 b       682     1     7
 -5.0296071460134963E-02 b       683     1     8
 -5.4139593820411412E-02 b       684     1     9
  2.6859452075530529E-02 b       685     1    10
  1.6865821971959127E-02 b       686     1    11
  4.9933452966370820E-02 b       687     1    12
  2.3173427624077876E-02 b       688     1    13
  3.1484236424222246E-02 b       689     1    14
  4.3745010416734356E-02 b       690     1    15
 -4.0725509196372521E-03 b       691     1    16
 -6.6958964308784039E-03 b       692     1    17
  3.6855755145402107E-03 b       693     1    18
 -6.8034056795678970E-03 b       694     1    19
 -1.4652068557526054E-02 b       695     1    20
  4.4183832092864084E-02 b       696     1    21
  2.2177037050291618E-02 b       697     1    22
  4.2818694266733986E-02 b       698     1    23
  6.7799597704947213E-03 b       699     1    24
  7.9437643372794187E-03 b       700     1    25
  8.5182609964643566E-02 a       701     1     1     2     1
  1.1658309059092878E-01 a       702     1     1     2     2
 -1.7078533949723685E-02 a       703     1     1     2     3
 -2.4830899332821921E-01 a       704     1     1     2     4
 -1.3608609951838077E-01 a       705     1     1     2     5
  1.7519078581978859E-01 a       706     1     1     2     6
 -2.3841613833678951E-01 a       707     1     1     2     7
  2.7105662618666471E-01 a       708     1     1     2     8
 -2.4300801790768534E-01 a       709     1     1     2     9
  2.4629074960732386E-01 a       710     1     1     2    10
 -2.7748865927875527E-01 a       711     1     1     2    11
  1.4188764099094756E-01 a       712     1     1     2    12
 -1.7474130312212741E-01 a       713     1     1     2    13
  2.6283434876589862E-01 a       714     1     1     2    14
 -5.4627923230753481E-02 a       715     1     1     2    15
 -5.7186689986050594E-02 a       716     1     1     2    16
 -2.8603274394201894E-01 a       717     1     1     2    17
 -4.8704504294571890E-02 a       718     1     1     2    18
  1.8426356747600708E-01 a       719     1     1     2    19
  3.6514802415156222E-01 a       720     1     1     2    20
 -1.0915763703987490E-01 a       721     1     1     2    21
 -2.8755871265662231E-01 a       722     1     1     2    22
  2.4572060272259419E-01 a       723     1     1     2    23
  3.0873874021199808E-02 a       724     1     1     2    24
  2.8685710897640598E-01 a       725     1     1     2    25
 -2.6240037503737818E-01 a       726     1     2     2     1
 -1.4080574318693204E-01 a       727     1     2     2     2
 -6.9786587065333139E-02 a       728     1     2     2     3
 -2.0181913657854050E-01 a       729     1     2     2     4
  1.1912434840189473E-01 a       730     1     2     2     5
 -1.4305629249187821E-01 a       731     1     2     2     6
 -2.7700140042748617E-01 a       732     1     2     2     7
 -2.0521417103640327E-01 a       733     1     2     2     8
 -2.5564429115143367E-02 a       734     1     2     2     9
 -3.1952860679073875E-01 a       735     1     2     2    10
 -2.5727273399832917E-01 a       736     1     2     2    11
  1.6568577851363797E-01 a       737     1     2     2    12
  2.3538871457215724E-01 a       738     1     2     2    13
 -2.6971730802098842E-01 a       739     1     2     2    14
  2.2864714189532517E-01 a       740     1     2     2    15
  2.6230865640319712E-01 a       741     1     2     2    16
  1.6910724989334056E-01 a       742     1     2     2    17
 -2.6324654342943954E-01 a       743     1     2     2    18
 -8.9233954362392093E-02 a       744     1     2     2    19
 -3.5290919499325346E-01 a       745     1     2     2    20
 -2.2589383872471291E-01 a       746     1     2     2    21
  3.5238146769653866E-01 a       747     1     2     2    22
  3.6294795428132642E-01 a       748     1     2     2    23
  1.5868107749504315E-01 a       749     1     2     2    24
  7.4251745972360575E-02 a       750     1     2     2    25
  1.0825988588340335E-01 a       751     1     3     2     1
  2.5388544641558869E-01 a       752     1     3     2     2
  2.4198919738087096E-01 a       753     1     3     2     3
  9.1717858156963566E-02 a       754     1     3     2     4
 -3.8192238824314945E-01 a       755     1     3     2     5
 -6.8150222428270221E-02 a       756     1     3     2     6
 -9.1788983310557279E-02 a       757     1     3     2     7
 -8.4122300219757321E-02 a       758     1     3     2     8
 -1.4105049326332170E-01 a       759     1     3     2     9
  1.0852507039657504E-01 a       760     1     3     2    10
 -6.4411289188100074E-02 a       761     1     3     2    11
  9.8118994534259818E-02 a       762     1     3     2    12
 -2.1991761302854720E-01 a       763     1     3     2    13
  2.5131965473717582E-01 a       764     1     3     2    14
  9.0334205863746353E-02 a       765     1     3     2    15
 -2.7549420129713253E-01 a       766     1     3     2    16
  2.5471793749405608E-01 a       767     1     3     2    17
  5.0128645565613306E-02 a       768     1     3     2    18
  9.3612994060084387E-02 a       769     1     3     2    19
  2.3298919197610343E-01 a       770     1     3     2    20
 -3.6781380229920352E-01 a       771     1     3     2    21
  3.4495732719366690E-01 a       772     1     3     2    22
 -5.1095518730275416E-02 a       773     1     3     2    23
  2.1786125863880748E-02 a       774     1     3     2    24
 -2.7764788917493388E-01 a       775     1     3     2    25
 -2.9960985391613171E-01 a       776     1     4     2     1
 -5.3996528979486431E-02 a       777     1     4     2     2
 -1.3557822520436627E-01 a       778     1     4     2     3
  1.7067032722850869E-01 a       779     1     4     2     4
 -1.7393952130760842E-01 a       780     1     4     2     5
 -3.4006230073758159E-01 a       781     1     4     2     6
 -1.5751673046981493E-01 a       782     1     4     2     7
  1.5392116363569547E-01 a       783     1     4     2     8
 -4.9364311224192686E-02 a       784     1     4     2     9
  1.9578241869085442E-02 a       785     1     4     2    10
 -3.1004604627238341E-01 a       786     1     4     2    11
 -3.3193732439928064E-01 a       787     1     4     2    12
 -2.5581708284826699E-01 a       788     1     4     2    13
  1.6276363865823592E-02 a       789     1     4     2    14
  2.4496929827719335E-01 a       790     1     4     2    15
  1.0488208929236044E-01 a       791     1     4     2    16
 -2.0936661195965833E-01 a       792     1     4     2    17
  1.7921399950703887E-01 a       793     1     4     2    18
 -1.1475569912068696E-01 a       794     1     4     2    19
  5.5679032660793659E-02 a       795     1     4     2    20
 -2.7561870117824250E-01 a       796     1     4     2    21
  1.9744210127248932E-01 a       797     1     4     2    22
 -1.9234953045836900E-01 a       798     1     4     2    23
 -1.1215180842657872E-01 a       799     1     4     2    24
 -1.1635505280030144E-01 a       800     1     4     2    25
  6.6395895676866601E-02 a       801     1     5     2     1
 -2.6182516188499938E-01 a       802     1     5     2     2
 -5.4775694763946767E-02 a       803     1     5     2     3
 -1.9588950126120402E-01 a       804     1     5     2     4
  2.8336522139388837E-01 a       805     1     5     2     5
  2.9716659023092157E-03 a       806     1     5     2     6
 -2.9359748221201021E-01 a       807     1     5     2     7
  1.2053348049491236E-01 a       808     1     5     2     8
  1.3940198861550901E-01 a       809     1     5     2     9
 -2.5847354739481221E-01 a       810     1     5     2    10
  9.1893041152556032E-02 a       811     1     5     2    11
 -2.6780945473552631E-01 a       812     1     5     2    12
 -1.5594588400990822E-01 a       813     1     5     2    13
  1.2872512741526138E-01 a       814     1     5     2    14
  2.4288336258115195E-01 a       815     1     5     2    15
 -1.2925454744392678E-01 a       816     1     5     2    16
 -2.3241695768714113E-01 a       817     1     5     2    17
 -6.6891844000057585E-03 a       818     1     5     2    18
  1.0385663991993678E-01 a       819     1     5     2    19
  2.2256347719381776E-02 a       820     1     5     2    20
 -2.9716465292696637E-01 a       821     1     5     2    21
  3.0813319500580572E-02 a       822     1     5     2    22
 -8.6114693154876104E-02 a       823     1     5     2    23
 -1.7307519168575930E-01 a       824     1     5     2    24
 -2.3151846099599696E-01 a       825     1     5     2    25
  2.3093286025829891E-02 a       826     1     6     2     1
 -4.6707470239630698E-02 a       827     1     6     2     2
  2.2464029116112752E-01 a       828     1     6     2     3
 -2.9569194839952417E-01 a       829     1     6     2     4
  3.1915949056720982E-01 a       830     1     6     2     5
  1.3685587692524276E-01 a       831     1     6     2     6
 -3.7774769701207983E-01 a       832     1     6     2     7
  3.3604746908030991E-01 a       833     1     6     2     8
  2.2700506242877957E-01 a       834     1     6     2     9
 -2.2615822690782231E-01 a       835     1     6     2    10
 -8.1713752582709215E-02 a       836     1     6     2    11
 -1.7783631111274562E-01 a       837     1     6     2    12
  3.9156699612238187E-02 a       838     1     6     2    13
 -3.1034354660618602E-01 a       839     1     6     2    14
 -3.7516004194096270E-01 a       840     1     6     2    15
 -2.6746388761578976E-02 a       841     1     6     2    16
  2.0930041530524690E-01 a       842     1     6     2    17
  2.6068680137837830E-01 a       843     1     6     2    18
  1.5920267816557304E-01 a       844     1     6     2    19
  1.8062226165916215E-01 a       845     1     6     2    20
 -2.3161239849448151E-01 a       846     1     6     2    21
 -2.5664015347767843E-03 a       847     1     6     2    22
  2.2216178187262825E-01 a       848     1     6     2    23
  1.5743291617781296E-01 a       849     1     6     2    24
  7.6178505286580780E-02 a       850     1     6     2    25
  8.6951297361857027E-02 a       851     1     7     2     1
 -8.5845013724198019E-02 a       852     1     7     2     2
 -9.6202672256362448E-02 a       853     1     7     2     3
 -2.2055392577756794E-01 a       854     1     7     2     4
 -6.6230031405804982E-02 a       855     1     7     2     5
 -1.8506089139314325E-01 a       856     1     7     2     6
  1.7928596284124884E-01 a       857     1     7     2     7
  2.5241727127216734E-01 a       858     1     7     2     8
 -2.1280923145475386E-01 a       859     1     7     2     9
 -2.8632903463905435E-01 a       860     1     7     2    10
  7.8477758869044123E-02 a       861     1     7     2    11
  3.1219912816835349E-01 a       862     1     7     2    12
 -2.1604227037085696E-01 a       863     1     7     2    13
 -2.3853517404845700E-01 a       864     1     7     2    14
  2.4679307956035176E-02 a       865     1     7     2    15
 -7.3585447619975333E-02 a       866     1     7     2    16
 -7.3664002284775487E-02 a       867     1     7     2    17
 -3.2868897439264766E-01 a       868     1     7     2    18
  2.3742394718555407E-01 a       869     1     7     2    19
 -1.3879512912863076E-01 a       870     1     7     2    20
  3.2836721334428337E-01 a       871     1     7     2    21
  1.8148960158602684E-01 a       872     1     7     2    22
 -8.0922520192831915E-02 a       873     1     7     2    23
  2.7571076424474600E-01 a       874     1     7     2    24
  4.5282296718736473E-02 a       875     1     7     2    25
  3.1393752383504736E-01 a       876     1     8     2     1
  2.0705629035464988E-02 a       877     1     8     2     2
 -1.9962423878822733E-01 a       878     1     8     2     3
 -8.3433782049699742E-02 a       879     1     8     2     4
  3.1037487722194934E-01 a       880     1     8     2     5
 -1.5972753104654985E-01 a       881     1     8     2     6
 -3.2420217899966880E-01 a       882     1     8     2     7
  1.1236286674217702E-02 a       883     1     8     2     8
  6.3048102277202228E-02 a       884     1     8     2     9
 -1.4768236835428719E-01 a       885     1     8     2    10
 -1.5101451557735576E-01 a       886     1     8     2    11
 -3.3319447966718913E-01 a       887     1     8     2    12
  3.1148183910433680E-01 a       888     1     8     2    13
 -1.8892503980526193E-01 a       889     1     8     2    14
  6.5164609017492508E-03 a       890     1     8     2    15
 -3.1235868676925967E-02 a       891     1     8     2    16
 -2.0881676567020463E-01 a       892     1     8     2    17
 -2.2146805769514520E-02 a       893     1     8     2    18
 -1.6769539547263607E-01 a       894     1     8     2    19
  2.6400385297340373E-01 a       895     1     8     2    20
 -1.6641460602706837E-01 a       896     1     8     2    21
 -4.4784890990531012E-03 a       897     1     8     2    22
 -1.4364611125223928E-01 a       898     1     8     2    23
 -3.7127181786922134E-02 a       899     1     8     2    24
 -3.3392744481351067E-01 a       900     1     8     2    25
  7.1368762299862248E-02 a       901     1     9     2     1
  3.3368553981716531E-01 a       902     1     9     2     2
 -1.6264512099171527E-01 a       903     1     9     2     3
 -1.9517271544291545E-01 a       904     1     9     2     4
 -1.2655980583756432E-01 a       905     1     9     2     5
 -1.3895716384314626E-02 a       906     1     9     2     6
 -6.4368383364210829E-02 a       907     1     9     2     7
 -2.5384849390534392E-01 a       908     1     9     2     8
  2.6687631037671511E-01 a       909     1     9     2     9
  2.5385257473472089E-01 a       910     1     9     2    10
 -2.1104083539697011E-01 a       911     1     9     2    11
  2.0201207814423114E-01 a       912     1     9     2    12
  1.7825454326311840E-01 a       913     1     9     2    13
  2.7851869268063068E-01 a       914     1     9     2    14
 -3.3210413555267781E-01 a       915     1     9     2    15
 -2.4735514019205554E-01 a       916     1     9     2    16
 -2.6316448899375317E-01 a       917     1     9     2    17
  5.2724800542070738E-02 a       918     1     9     2    18
 -1.5468798101470860E-01 a       919     1     9     2    19
  2.1973317844250118E-01 a       920     1     9     2    20
 -1.5743284134613841E-02 a       921     1     9     2    21
 -1.9667215652561953E-01 a       922     1     9     2    22
  8.0198048204590353E-02 a       923     1     9     2    23
 -8.6704796146717916E-02 a       924     1     9     2    24
 -1.7692057785341272E-01 a       925     1     9     2    25
  3.9710434807746825E-01 a       926     1    10     2     1
 -2.2828125497042573E-01 a       927     1    10     2     2
  8.9585148980373758E-02 a       928     1    10     2     3
  1.1700494935437736E-01 a       929     1    10     2     4
  1.5735371621166205E-01 a       930     1    10     2     5
 -2.1745322435959294E-01 a       931     1    10     2     6
  2.9347987097069023E-01 a       932     1    10     2     7
 -7.3942265044699461E-03 a       933     1    10     2     8
  2.6266458092132450E-01 a       934     1    10     2     9
 -8.4988390006900352E-02 a       935     1    10     2    10
 -2.0621596447260232E-01 a       936     1    10     2    11
 -2.9901898751753470E-01 a       937     1    10     2    12
 -1.9366208253564515E-01 a       938     1    10     2    13
  9.5772476115778576E-02 a       939     1    10     2    14
 -2.4704063557550449E-01 a       940     1    10     2    15
 -3.5161404740823388E-01 a       941     1    10     2    16
  2.7841305187682641E-01 a       942     1    10     2    17
  2.0739225301750239E-01 a       943     1    10     2    18
 -4.2806022820370986E-02 a       944     1    10     2    19
 -8.6996158716563070E-03 a       945     1    10     2    20
 -2.5394955997472546E-01 a       946     1    10     2    21
  9.1603202733162858E-02 a       947     1    10     2    22
 -2.7839780351487520E-01 a       948     1    10     2    23
  2.6001533517595377E-01 a       949     1    10     2    24
 -1.4457091831474034E-01 a       950     1    10     2    25
  1.0940110373793138E-01 a       951     1    11     2     1
 -2.4546996554859854E-01 a       952     1    11     2     2
  3.8731283400090667E-02 a       953     1    11     2     3
  1.5879991619890330E-02 a       954     1    11     2     4
  1.6316549058846724E-01 a       955     1    11     2     5
  4.6962197262092657E-02 a       956     1    11     2     6
 -2.6781859322988139E-01 a       957     1    11     2     7
 -2.8837810729556233E-02 a       958     1    11     2     8
  6.2661183403946677E-02 a       959     1    11     2     9
 -2.4186298740460282E-01 a       960     1    11     2    10
  1.9074279050455875E-01 a       961     1    11     2    11
 -4.4682239754208389E-02 a       962     1    11     2    12
 -3.0303819961035994E-01 a       963     1    11     2    13
  2.2463228439351596E-01 a       964     1    11     2    14
  3.0271616133170115E-01 a       965     1    11     2    15
  1.4898500189592925E-02 a       966     1    11     2    16
 -2.0774221535914977E-01 a       967     1    11     2    17
  6.4828691066343744E-02 a       968     1    11     2    18
 -4.3936600771202559E-02 a       969     1    11     2    19
 -2.4422051458183666E-01 a       970     1    11     2    20
  2.7787735617249798E-01 a       971     1    11     2    21
 -1.2838443502549066E-01 a       972     1    11     2    22
  3.7296016418533043E-02 a       973     1    11     2    23
  2.2311968002066909E-01 a       974     1    11     2    24
  2.5391617643244496E-01 a       975     1    11     2    25
 -2.8584389124065962E-01 a       976     1    12     2     1
  1.5075943395005184E-01 a       977     1    12     2     2
 -2.6426979036826254E-01 a       978     1    12     2     3
  1.3466857899443104E-02 a       979     1    12     2     4
  1.7966967543348344E-01 a       980     1    12     2     5
 -2.8735225227043915E-01 a       981     1    12     2     6
 -3.3033175918235413E-01 a       982     1    12     2     7
 -1.5794672286645414E-01 a       983     1    12     2     8
  6.5945069690921260E-02 a       984     1    12     2     9
  2.5059001585008961E-01 a       985     1    12     2    10
 -1.9895323234271847E-01 a       986     1    12     2    11
 -3.1605351326874254E-02 a       987     1    12     2    12
 -1.6961695245946318E-02 a       988     1    12     2    13
 -1.6995164407427385E-01 a       989     1    12     2    14
  2.0113230217089845E-01 a       990     1    12     2    15
  2.1981636846082162E-01 a       991     1    12     2    16
  2.0429541270215831E-01 a       992     1    12     2    17
 -1.2375248466627302E-01 a       993     1    12     2    18
 -9.6241499555177086E-03 a       994     1    12     2    19
  3.1498743497270110E-01 a       995     1    12     2    20
  3.4623471998321470E-02 a       996     1    12     2    21
  1.7870317583492681E-02 a       997     1    12     2    22
 -1.3917152539379987E-01 a       998     1    12     2    23
 -2.3875968928636679E-01 a       999     1    12     2    24
 -1.6846429877950826E-02 a      1000     1    12     2    25
 -3.2674183573537485E-01 a      1001     1    13     2     1
 -2.2617584540607566E-01 a      1002     1    13     2     2
  4.4234435967930065E-02 a      1003     1    13     2     3
  2.7193146957504732E-01 a      1004     1    13     2     4
 -8.8342526489816140E-03 a      1005     1    13     2     5
  1.2847473380001703E-01 a      1006     1    13     2     6
 -1.8834637969729442E-01 a      1007     1    13     2     7
 -1.3652354638965952E-01 a      1008     1    13     2     8
  2.8066166860802122E-01 a      1009     1    13     2     9
  1.5161050419955130E-01 a      1010     1    13     2    10
  1.0544484254548976E-01 a      1011     1    13     2    11
 -5.1364681250096564E-02 a      1012     1    13     2    12
 -1.0067442717192195E-01 a      1013     1    13     2    13
  9.7992246341802244E-02 a      1014     1    13     2    14
  2.8368871892002528E-01 a      1015     1    13     2    15
 -3.4899432209521908E-01 a      1016     1    13     2    16
 -1.8794233212097838E-01 a      1017     1    13     2    17
  1.5382451021611535E-01 a      1018     1    13     2    18
  2.5159815510148059E-01 a      1019     1    13     2    19
  3.4921469907340505E-02 a      1020     1    13     2    20
 -1.0599627176936396E-01 a      1021     1    13     2    21
  2.1769135703317868E-01 a      1022     1    13     2    22
 -4.2747890064765592E-02 a      1023     1    13     2    23
 -1.8318566014284451E-01 a      1024     1    13     2    24
 -8.9642243800034521E-02 a      1025     1    13     2    25
 -2.6417365701688078E-01 a      1026     1    14     2     1
  8.7297816058276009E-02 a      1027     1    14     2     2
 -1.6414282033006652E-01 a      1028     1    14     2     3
 -6.8086208742783205E-02 a      1029     1    14     2     4
  2.3126092367977641E-01 a      1030     1    14     2     5
 -9.6824541809706746E-02 a      1031     1    14     2     6
 -1.5724794960457139E-01 a      1032     1    14     2     7
  2.3226143809722213E-01 a      1033     1    14     2     8
 -1.5218219806230773E-01 a      1034     1    14     2     9
  9.9994361917656829E-02 a      1035     1    14     2    10
 -5.2260149466042086E-02 a      1036     1    14     2    11
  1.0882342990431829E-01 a      1037     1    14     2    12
  2.2870714912693008E-01 a      1038     1    14     2    13
 -1.2128887584561897E-01 a      1039     1    14     2    14
 -5.2912518497771118E-03 a      1040     1    14     2    15
  5.9766994663731997E-02 a      1041     1    14     2    16
 -1.4780376577650261E-02 a      1042     1    14     2    17
  5.9369063052835111E-02 a      1043     1    14     2    18
 -3.4348983672646588E-01 a      1044     1    14     2    19
  3.1965250355786357E-01 a      1045     1    14     2    20
 -4.2952717659898110E-02 a      1046     1    14     2    21
 -1.4830040889284932E-01 a      1047     1    14     2    22
 -2.4449197383032962E-02 a      1048     1    14     2    23
 -2.9113052831036756E-01 a      1049     1    14     2    24
 -1.5081454672034050E-01 a      1050     1    14     2    25
  1.4083552708989291E-01 a      1051     1    15     2     1
  6.3830115501048973E-02 a      1052     1    15     2     2
  1.7900713892514189E-01 a      1053     1    15     2     3
 -2.8648021706164034E-01 a      1054     1    15     2     4
 -2.9098578176245748E-01 a      1055     1    15     2     5
 -1.5226954815852725E-01 a      1056     1    15     2     6
 -1.5658730705386889E-01 a      1057     1    15     2     7
  2.3414673466412847E-01 a      1058     1    15     2     8
  2.6102567104417529E-01 a      1059     1    15     2     9
  7.3175262002217901E-03 a      1060     1    15     2    10
  2.9563831163298898E-01 a      1061     1    15     2    11
  2.0738283738812519E-01 a      1062     1    15     2    12
  3.0314538620810733E-01 a      1063     1    15     2    13
 -4.1257725873629143E-02 a      1064     1    15     2    14
  1.8155590223831602E-01 a      1065     1    15     2    15
 -9.5930070323651279E-02 a      1066     1    15     2    16
 -2.8598592126666184E-01 a      1067     1    15     2    17
  2.3395236165956224E-01 a      1068     1    15     2    18
  1.4886337073336819E-01 a      1069     1    15     2    19
 -6.3573993205480725E-02 a      1070     1    15     2    20
 -1.5901555869070425E-01 a      1071     1    15     2    21
  1.3476556205359844E-02 a      1072     1    15     2    22
 -1.6309358722029182E-01 a      1073     1    15     2    23
 -1.4776106299154648E-01 a      1074     1    15     2    24
 -1.6584366029498090E-01 a      1075     1    15     2    25
 -4.8102132995066105E-02 a      1076     1    16     2     1
  1.3937278405553655E-01 a      1077     1    16     2     2
  1.1630796248147528E-01 a      1078     1    16     2     3
  1.4167794108277426E-01 a      1079     1    16     2     4
  2.9965286813912139E-03 a      1080     1    16     2     5
  3.4759001148121554E-01 a      1081     1    16     2     6
  2.2832879845582713E-01 a      1082     1    16     2     7
  1.3276398972435741E-01 a      1083     1    16     2     8
 -2.8791599827847136E-01 a      1084     1    16     2     9
 -1.5100692355541492E-01 a      1085     1    16     2    10
 -5.6215583318537210E-02 a      1086     1    16     2    11
 -3.0803218363388463E-01 a      1087     1    16     2    12
 -5.8904918253535686E-02 a      1088     1    16     2    13
 -1.1380888778356340E-03 a      1089     1    16     2    14
 -2.4804092339740449E-01 a      1090     1    16     2    15
  1.0585605919729706E-01 a      1091     1    16     2    16
  1.6635722939225983E-01 a      1092     1    16     2    17
  3.6434623463023680E-01 a      1093     1    16     2    18
 -3.4686676799360633E-02 a      1094     1    16     2    19
 -2.8958814618280099E-01 a      1095     1    16     2    20
 -2.5996326502647044E-01 a      1096     1    16     2    21
 -9.1066329784941974E-02 a      1097     1    16     2    22
 -2.7121428370245038E-01 a      1098     1    16     2    23
  2.3545293188217087E-01 a      1099     1    16     2    24
 -1.6582220963040066E-02 a      1100     1    16     2    25
 -2.0650446615973556E-02 a      1101     1    17     2     1
 -1.7967930053744505E-01 a      1102     1    17     2     2
 -2.3873126283433441E-01 a      1103     1    17     2     3
 -3.0094515862847454E-01 a      1104     1    17     2     4
  1.1019471979098669E-01 a      1105     1    17     2     5
 -2.5190079247262126E-01 a      1106     1    17     2     6
 -1.7680035629284852E-01 a      1107     1    17     2     7
 -1.7168131970959583E-01 a      1108     1    17     2     8
 -2.6922400988885475E-01 a      1109     1    17     2     9
 -1.4238095024943864E-01 a      1110     1    17     2    10
  3.0894241129648925E-01 a      1111     1    17     2    11
  8.1857226218210899E-02 a      1112     1    17     2    12
 -4.0135756386620140E-03 a      1113     1    17     2    13
 -5.1240184176731256E-02 a      1114     1    17     2    14
 -1.7517069437886981E-01 a      1115     1    17     2    15
  5.4883037139718177E-02 a      1116     1    17     2    16
 -2.3943787030956229E-01 a      1117     1    17     2    17
 -2.9363537195582046E-01 a      1118     1    17     2    18
  1.6145250733697683E-01 a      1119     1    17     2    19
  3.4864291938004677E-01 a      1120     1    17     2    20
 -2.3343936227796377E-01 a      1121     1    17     2    21
 -1.5118132246587793E-01 a      1122     1    17     2    22
 -2.1096224314705214E-01 a      1123     1    17     2    23
  2.5846333248373710E-01 a      1124     1    17     2    24
 -1.5964375165111563E-01 a      1125     1    17     2    25
 -2.3019195574157197E-01 a      1126     1    18     2     1
  1.3995703952337990E-01 a      1127     1    18     2     2
 -4.4810149487655940E-03 a      1128     1    18     2     3
  3.3652431427580859E-01 a      1129     1    18     2     4
 -4.7756760675073763E-02 a      1130     1    18     2     5
 -1.7446143113486254E-01 a      1131     1    18     2     6
 -3.7072451718718487E-02 a      1132     1    18     2     7
 -1.4648907991131457E-01 a      1133     1    18     2     8
 -1.9528563289690345E-01 a      1134     1    18     2     9
 -2.7841845615978866E-01 a      1135     1    18     2    10
  1.9291569275838447E-01 a      1136     1    18     2    11
 -5.9557828757673431E-02 a      1137     1    18     2    12
 -1.3380503145489325E-01 a      1138     1    18     2    13
 -4.1728837915386735E-01 a      1139     1    18     2    14
 -1.0630983710715064E-01 a      1140     1    18     2    15
 -2.2358773610830457E-01 a      1141     1    18     2    16
 -3.1340812398158707E-01 a      1142     1    18     2    17
  1.7140216078882383E-02 a      1143     1    18     2    18
 -1.4336664654493914E-01 a      1144     1    18     2    19
 -1.5697906792647018E-01 a      1145     1    18     2    20
  3.2070767022950702E-01 a      1146     1    18     2    21
 -2.1243897749907054E-01 a      1147     1    18     2    22
 -1.2415106541001480E-01 a      1148     1    18     2    23
  1.4662176232824695E-01 a      1149     1    18     2    24
  1.1873379950837502E-01 a      1150     1    18     2    25
  4.7860949039486685E-02 a      1151     1    19     2     1
 -1.8493434937633529E-01 a      1152     1    19     2     2
  2.0094115927666203E-01 a      1153     1    19     2     3
  2.5749428754609166E-01 a      1154     1    19     2     4
 -3.4091975663449098E-01 a      1155     1    19     2     5
 -1.0082740873039042E-01 a      1156     1    19     2     6
  1.5146884212627731E-02 a      1157     1    19     2     7
 -2.3091447116309161E-01 a      1158     1    19     2     8
 -2.1509127746172171E-01 a      1159     1    19     2     9
 -6.6376998213857036E-02 a      1160     1    19     2    10
 -2.5098855379131840E-02 a      1161     1    19     2    11
  2.6301821267534453E-01 a      1162     1    19     2    12
 -2.2799554973150124E-01 a      1163     1    19     2    13
 -1.5247067198436140E-01 a      1164     1    19     2    14
  2.4150045339652135E-01 a      1165     1    19     2    15
  6.9605629798911203E-02 a      1166     1    19     2    16
 -1.7260286011094271E-02 a      1167     1    19     2    17
  1.8942218754713835E-01 a      1168     1    19     2    18
 -1.4820428149313286E-01 a      1169     1    19     2    19
 -2.9812485554493323E-01 a      1170     1    19     2    20
  2.5278578355779391E-01 a      1171     1    19     2    21
  3.1022149130106391E-01 a      1172     1    19     2    22
  1.3998699651622076E-01 a      1173     1    19     2    23
  2.7814820998978146E-01 a      1174     1    19     2    24
 -2.3815687175135444E-01 a      1175     1    19     2    25
 -2.9995200171443231E-01 a      1176     1    20     2     1
 -1.8156943073211518E-01 a      1177     1    20     2     2
  9.4979824445471372E-02 a      1178     1    20     2     3
  8.5212345029472124E-03 a      1179     1    20     2     4
 -3.2205079172473466E-01 a      1180     1    20     2     5
 -2.3733672518190513E-01 a      1181     1    20     2     6
  1.8138007493759950E-01 a      1182     1    20     2     7
  7.6722530206595044E-02 a      1183     1    20     2     8
  5.1780702785112778E-02 a      1184     1    20     2     9
 -1.2905408015924646E-01 a      1185     1    20     2    10
  1.1220122613155305E-01 a      1186     1    20     2    11
  2.0412348927013896E-01 a      1187     1    20     2    12
  1.5801066884826302E-02 a      1188     1    20     2    13
 -2.0879344234909808E-01 a      1189     1    20     2    14
 -2.0354945905058275E-01 a      1190     1    20     2    15
 -2.2792036342562974E-01 a      1191     1    20     2    16
  2.2357734725422687E-01 a      1192     1    20     2    17
  8.0065423722297704E-02 a      1193     1    20     2    18
 -1.8295473110140076E-01 a      1194     1    20     2    19
  2.4221354130586906E-01 a      1195     1    20     2    20
 -9.3771919031412979E-02 a      1196     1    20     2    21
 -2.7590388565081297E-01 a      1197     1    20     2    22
  3.5151678737655578E-01 a      1198     1    20     2    23
 -1.6867104792361708E-02 a      1199     1    20     2    24
  4.0764620886127478E-02 a      1200     1    20     2    25
  2.4601837718449140E-01 a      1201     1    21     2     1
  4.8191822697067073E-02 a      1202     1    21     2     2
  2.7217573901000219E-01 a      1203     1    21     2     3
 -2.4008805108475423E-01 a      1204     1    21     2     4
  1.4270099164602365E-01 a      1205     1    21     2     5
 -1.9770697505262202E-01 a      1206     1    21     2     6
 -1.0611167224414238E-01 a      1207     1    21     2     7
 -1.9705791918077409E-01 a      1208     1    21     2     8
 -1.1370722931545710E-01 a      1209     1    21     2     9
  1.2721294963611957E-01 a      1210     1    21     2    10
  3.1347087636104154E-01 a      1211     1    21     2    11
  1.5818321119873047E-01 a      1212     1    21     2    12
  5.3562434554689058E-02 a      1213     1    21     2    13
 -2.1001104159856029E-01 a      1214     1    21     2    14
 -3.2978724809525678E-01 a      1215     1    21     2    15
 -1.5715090629234399E-01 a      1216     1    21     2    16
 -6.6634430803954287E-02 a      1217     1    21     2    17
 -3.1014602592949886E-01 a      1218     1    21     2    18
  6.3945776318929906E-02 a      1219     1    21     2    19
 -3.2866799583598916E-01 a      1220     1    21     2    20
 -3.6871553298942972E-01 a      1221     1    21     2    21
 -2.0562506240474149E-02 a      1222     1    21     2    22
  1.0967467075992246E-01 a      1223     1    21     2    23
  8.6970351496542028E-03 a      1224     1    21     2    24
  3.6490438605904518E-01 a      1225     1    21     2    25
 -1.8815242753216449E-01 a      1226     1    22     2     1
 -2.2960410326533265E-01 a      1227     1    22     2     2
 -6.9613300942492476E-02 a      1228     1    22     2     3
 -1.2244829866880025E-01 a      1229     1    22     2     4
  2.7604842444083610E-01 a      1230     1    22     2     5
  1.6422821106224486E-01 a      1231     1    22     2     6
 -1.9316763777691648E-02 a      1232     1    22     2     7
 -1.3532011288816945E-01 a      1233     1    22     2     8
 -3.4527147015574311E-01 a      1234     1    22     2     9
 -6.8886845839913211E-02 a      1235     1    22     2    10
  2.9936974858913712E-01 a      1236     1    22     2    11
 -2.0571337804639969E-01 a      1237     1    22     2    12
 -3.8105002376509667E-03 a      1238     1    22     2    13
  3.3273019645633443E-02 a      1239     1    22     2    14
 -2.6331678330431851E-01 a      1240     1    22     2    15
 -2.0041604439378899E-01 a      1241     1    22     2    16
 -1.0021921389748581E-01 a      1242     1    22     2    17
  8.4657080023630107E-02 a      1243     1    22     2    18
 -1.3914204164781632E-01 a      1244     1    22     2    19
  2.3309494820234178E-01 a      1245     1    22     2    20
  1.5879218842077997E-01 a      1246     1    22     2    21
  9.8570270785475075E-02 a      1247     1    22     2    22
 -2.2531053212662183E-01 a      1248     1    22     2    23
 -8.3572569872574304E-02 a      1249     1    22     2    24
  3.3248933056509923E-02 a      1250     1    22     2    25
 -2.5012558950571989E-01 a      1251     1    23     2     1
  2.5790647837036262E-01 a      1252     1    23     2     2
  1.7437814541366262E-01 a      1253     1    23     2     3
 -2.7236326454081500E-01 a      1254     1    23     2     4
  8.3243893108433817E-02 a      1255     1    23     2     5
  3.2352283705843182E-01 a      1256     1    23     2     6
 -1.8141776926086378E-01 a      1257     1    23     2     7
 -1.2262011507625685E-01 a      1258     1    23     2     8
 -5.4228787052064097E-03 a      1259     1    23     2     9
  1.2735125959597046E-01 a      1260     1    23     2    10
 -1.9421714022767206E-01 a      1261     1    23     2    11
 -4.3251495231545665E-02 a      1262     1    23     2    12
 -1.8327042607931956E-01 a      1263     1    23     2    13
  1.2025684685428381E-01 a      1264     1    23     2    14
 -2.2213274304797917E-01 a      1265     1    23     2    15
 -1.2424354747844393E-01 a      1266     1    23     2    16
  3.0307577897540244E-01 a      1267     1    23     2    17
 -4.6603085844054884E-02 a      1268     1    23     2    18
  3.6961964480011530E-02 a      1269     1    23     2    19
 -8.9558462888117404E-02 a      1270     1    23     2    20
  5.8239346981110926E-02 a      1271     1    23     2    21
  1.2679606919009737E-01 a      1272     1    23     2    22
  9.2991813036537432E-02 a      1273     1    23     2    23
 -3.5011761068923196E-02 a      1274     1    23     2    24
 -2.7952807001721924E-01 a      1275     1    23     2    25
  1.8655864386720764E-01 a      1276     1    24     2     1
 -2.9388809888418266E-01 a      1277     1    24     2     2
 -1.6915970610301559E-01 a      1278     1    24     2     3
 -2.3033448623948999E-01 a      1279     1    24     2     4
  3.5084362895380494E-01 a      1280     1    24     2     5
 -2.9851698734921845E-02 a      1281     1    24     2     6
  1.5307140028563726E-01 a      1282     1    24     2     7
 -6.6236396225895944E-02 a      1283     1    24     2     8
  8.0542424766963633E-02 a      1284     1    24     2     9
 -2.4663643183437703E-01 a      1285     1    24     2    10
 -9.0387634460294977E-02 a      1286     1    24     2    11
 -1.3103740916079712E-01 a      1287     1    24     2    12
 -1.7205681126538247E-01 a      1288     1    24     2    13
 -1.6026604936221114E-01 a      1289     1    24     2    14
 -1.8157189857516892E-01 a      1290     1    24     2    15
 -3.1365499033366917E-01 a      1291     1    24     2    16
 -1.3876206902961302E-02 a      1292     1    24     2    17
  1.5949740031524437E-01 a      1293     1    24     2    18
  2.5864190183530833E-01 a      1294     1    24     2    19
 -8.0953881389121560E-02 a      1295     1    24     2    20
 -2.0953472565154643E-01 a      1296     1    24     2    21
  9.0931583918146333E-02 a      1297     1    24     2    22
 -3.2325941957070758E-01 a      1298     1    24     2    23
  2.0047972733682695E-01 a      1299     1    24     2    24
 -1.8549005032286411E-01 a      1300     1    24     2    25
  1.6132291835335860E-01 a      1301     1    25     2     1
 -1.0561449793888790E-01 a      1302     1    25     2     2
 -1.0889596706424824E-01 a      1303     1    25     2     3
 -2.5091279804242111E-01 a      1304     1    25     2     4
  3.1708609555704076E-01 a      1305     1    25     2     5
 -1.9319236502892143E-01 a      1306     1    25     2     6
  7.6119727504080095E-02 a      1307     1    25     2     7
  1.6618319321700445E-01 a      1308     1    25     2     8
 -4.7850911066774963E-02 a      1309     1    25     2     9
  1.6482385012361161E-01 a      1310     1    25     2    10
 -2.0368401052749041E-01 a      1311     1    25     2    11
 -3.0548728808956988E-01 a      1312     1    25     2    12
  1.7176898519664097E-01 a      1313     1    25     2    13
 -2.7335334979925990E-01 a      1314     1    25     2    14
 -2.6465165155303899E-01 a      1315     1    25     2    15
 -1.7502246556023271E-01 a      1316     1    25     2    16
  1.5299989207959000E-01 a      1317     1    25     2    17
  8.3407062608116506E-02 a      1318     1    25     2    18
 -1.5888854523041757E-01 a      1319     1    25     2    19
  5.0674809021187824E-02 a      1320     1    25     2    20
 -2.9960839783829990E-01 a      1321     1    25     2    21
 -6.3277164387859158E-02 a      1322     1    25     2    22
 -5.1118601731884129E-02 a      1323     1    25     2    23
 -1.9055149174975630E-01 a      1324     1    25     2    24
 -2.8434991580505486E-01 a      1325     1    25     2    25
  1.8037509053288586E-02 b      1326     2     1
 -2.5811780417906459E-02 b      1327     2     2
  6.3499707023267418E-02 b      1328     2     3
  1.2511263575656378E-02 b      1329     2     4
  3.4070905192927310E-03 b      1330     2     5
  3.8564557998148973E-02 b      1331     2     6
 -1.0610187108779330E-01 b      1332     2     7
  1.2134923885035943E-02 b      1333     2     8
  3.0090761240596304E-02 b      1334     2     9
  7.5574490663461429E-03 b      1335     2    10
 -8.1899792807817395E-02 b      1336     2    11
 -1.6892004673548396E-03 b      1337     2    12
 -4.8714255063615146E-02 b      1338     2    13
 -2.1557742476232548E-02 b      1339     2    14
  5.8137073627676228E-02 b      1340     2    15
  2.4924791581395229E-02 b      1341     2    16
 -6.5902922592143837E-02 b      1342     2    17
  1.6428686245368206E-02 b      1343     2    18
  2.6413576278900005E-02 b      1344     2    19
 -3.2297645134516530E-02 b      1345     2    20
 -4.6512882372988826E-02 b      1346     2    21
  1.0452843507183830E-02 b      1347     2    22
  1.2838703496449335E-02 b      1348     2    23
 -2.5638476983406096E-02 b      1349     2    24
  4.3905363612230477E-02 b      1350     2    25
  2.4042023886454411E-01 a      1351     2     1     3     1
  6.6442340333883160E-02 a      1352     2     2     3     1
 -6.3786159756846639E-01 a      1353     2     3     3     1
  5.6639936469353047E-01 a      1354     2     4     3     1
  8.2201109229174762E-01 a      1355     2     5     3     1
  2.2921416435504086E-01 a      1356     2     6     3     1
  7.8217483600035698E-01 a      1357     2     7     3     1
  7.1058773310857570E-01 a      1358     2     8     3     1
  6.3176597030017378E-01 a      1359     2     9     3     1
  3.3393233434399061E-01 a      1360     2    10     3     1
  5.8980464597261095E-01 a      1361     2    11     3     1
  1.9068924067792226E-01 a      1362     2    12     3     1
  2.8232942455524557E-01 a      1363     2    13     3     1
  6.3116747918929539E-01 a      1364     2    14     3     1
 -2.7431156329156818E-02 a      1365     2    15     3     1
 -7.4373536250981376E-01 a      1366     2    16     3     1
 -7.5296479216778109E-02 a      1367     2    17     3     1
 -7.9592630938355646E-01 a      1368     2    18     3     1
  1.6325232740155557E-01 a      1369     2    19     3     1
  1.6193411639156821E-01 a      1370     2    20     3     1
  1.4894687818238203E-01 a      1371     2    21     3     1
  4.2328650321823946E-01 a      1372     2    22     3     1
 -3.5736203929830496E-01 a      1373     2    23     3     1
  9.8717728002613536E-01 a      1374     2    24     3     1
 -2.0123045629529927E-02 a      1375     2    25     3     1
  5.1810327412301252E-02 b      1376     3     1
