################################################################################
# Neural network connection values (weights and biases).
################################################################################
# Col  Name       Description
################################################################################
# 1    connection Neural network connection value.
# 2    t          Connection type (a = weight, b = bias).
# 3    index      Index enumerating weights.
# 4    l_s        Starting point layer (end point layer for biases).
# 5    n_s        Starting point neuron in starting layer (end point neuron for biases).
# 6    l_e        End point layer.
# 7    n_e        End point neuron in end layer.
################################################################################
#                      1 2         3     4     5     6     7
#             connection t     index   l_s   n_s   l_e   n_e
############################################################
  2.5659394027489002E-01 a         1     0     1     1     1
 -3.0539919833147278E-01 a         2     0     1     1     2
  2.2234369724835845E-01 a         3     0     1     1     3
 -5.2515904309075795E-02 a         4     0     1     1     4
  2.2906092272408377E-02 a         5     0     1     1     5
  1.7515294596988759E-01 a         6     0     1     1     6
 -9.5753248619403514E-02 a         7     0     1     1     7
 -1.2065525786494057E-01 a         8     0     1     1     8
 -1.7286718347762153E-01 a         9     0     1     1     9
  1.5519434691407166E-01 a        10     0     1     1    10
 -1.6316122795637147E-01 a        11     0     1     1    11
  2.6693948630514930E-01 a        12     0     1     1    12
 -5.3655594991133732E-02 a        13     0     1     1    13
  3.0465666916187734E-01 a        14     0     1     1    14
  6.6755822927846403E-02 a        15     0     1     1    15
  1.8136632176534126E-01 a        16     0     1     1    16
 -7.7618432085357847E-02 a        17     0     1     1    17
  2.0968692179720103E-01 a        18     0     1     1    18
 -1.3832614371926366E-01 a        19     0     1     1    19
 -2.4137043105871372E-01 a        20     0     1     1    20
  1.4846696525874653E-03 a        21     0     1     1    21
 -4.0634036784014109E-02 a        22     0     1     1    22
  8.0395664673666555E-03 a        23     0     1     1    23
 -3.8153666566661699E-02 a        24     0     1     1    24
  3.1944543047284796E-01 a        25     0     1     1    25
 -9.0117978230417631E-02 a        26     0     2     1     1
  8.7635915358737076E-02 a        27     0     2     1     2
 -1.5411153417663609E-01 a        28     0     2     1     3
  2.6778238491401868E-01 a        29     0     2     1     4
 -2.2861959240264387E-01 a        30     0     2     1     5
 -3.0882949340762639E-01 a        31     0     2     1     6
  1.3335527817753784E-01 a        32     0     2     1     7
 -2.2955375120177407E-01 a        33     0     2     1     8
 -1.8582611890690302E-02 a        34     0     2     1     9
 -6.0285908444490513E-02 a        35     0     2     1    10
 -1.9348364732648288E-01 a        36     0     2     1    11
  5.1526573406026628E-02 a        37     0     2     1    12
 -2.8291944973223102E-02 a        38     0     2     1    13
  3.1054562713786747E-03 a        39     0     2     1    14
  2.0964968369048018E-01 a        40     0     2     1    15
  3.7022045542984230E-02 a        41     0     2     1    16
 -7.0588233168456221E-02 a        42     0     2     1    17
  2.7156259591511506E-01 a        43     0     2     1    18
 -3.2357257362245578E-01 a        44     0     2     1    19
 -1.7667888656752959E-01 a        45     0     2     1    20
  1.9995684852277934E-01 a        46     0     2     1    21
 -2.7976945075524867E-01 a        47     0     2     1    22
 -2.7741003411448178E-01 a        48     0     2     1    23
 -1.7013365666424710E-01 a        49     0     2     1    24
  2.1928639597825605E-01 a        50     0     2     1    25
 -2.5062439218058696E-01 a        51     0     3     1     1
  2.9072761024869470E-01 a        52     0     3     1     2
  1.7111901731644741E-01 a        53     0     3     1     3
 -1.6400014902171350E-01 a        54     0     3     1     4
  3.4454716268219909E-01 a        55     0     3     1     5
 -1.6917369677686342E-01 a        56     0     3     1     6
 -3.1780381439090843E-02 a        57     0     3     1     7
  1.6447096978825823E-01 a        58     0     3     1     8
  2.1967865387817812E-01 a        59     0     3     1     9
 -2.4438515275360237E-01 a        60     0     3     1    10
 -2.9396102894176629E-01 a        61     0     3     1    11
 -6.1231529770204497E-02 a        62     0     3     1    12
 -2.0143135187006106E-01 a        63     0     3     1    13
  3.3094369792615222E-02 a        64     0     3     1    14
  1.7521116125356304E-01 a        65     0     3     1    15
 -1.6072827202159531E-01 a        66     0     3     1    16
  1.7322104181038964E-01 a        67     0     3     1    17
 -1.6008813462857777E-01 a        68     0     3     1    18
  3.2470047829169146E-01 a        69     0     3     1    19
 -2.1213041309291469E-01 a        70     0     3     1    20
  1.7448268094946542E-01 a        71     0     3     1    21
  2.5304188761184832E-01 a        72     0     3     1    22
  1.2168599357791111E-01 a        73     0     3     1    23
  3.1049047819452080E-01 a        74     0     3     1    24
 -1.5478336702677317E-01 a        75     0     3     1    25
  1.3824502564674879E-01 a        76     0     4     1     1
 -4.3706400749153669E-02 a        77     0     4     1     2
 -2.5158750629745090E-02 a        78     0     4     1     3
  1.3717996466890545E-01 a        79     0     4     1     4
 -5.9949698796434879E-02 a        80     0     4     1     5
  2.8458766131587365E-01 a        81     0     4     1     6
  1.3657548399847022E-01 a        82     0     4     1     7
  6.4683884057644189E-03 a        83     0     4     1     8
 -4.2338009152998769E-02 a        84     0     4     1     9
  1.4663343299685488E-01 a        85     0     4     1    10
 -1.1989689836385416E-01 a        86     0     4     1    11
  2.3910213479980452E-01 a        87     0     4     1    12
  1.8740245493855775E-02 a        88     0     4     1    13
 -6.1845638235770557E-02 a        89     0     4     1    14
 -2.2208395083937835E-01 a        90     0     4     1    15
 -4.2475996396931625E-03 a        91     0     4     1    16
 -2.5710463902340586E-01 a        92     0     4     1    17
  1.2752669103373285E-01 a        93     0     4     1    18
  1.5504765705786977E-01 a        94     0     4     1    19
 -2.2739514704247799E-01 a        95     0     4     1    20
 -1.0827535942673092E-01 a        96     0     4     1    21
  2.4893056492484897E-01 a        97     0     4     1    22
 -1.0137832369796392E-01 a        98     0     4     1    23
 -2.9062922641658290E-01 a        99     0     4     1    24
 -2.4402881597937781E-01 a       100     0     4     1    25
 -2.0247783184972434E-01 a       101     0     5     1     1
  2.2281066485312845E-01 a       102     0     5     1     2
  2.9972762015097548E-01 a       103     0     5     1     3
  3.0317941946478666E-01 a       104     0     5     1     4
  2.9741434919117254E-01 a       105     0     5     1     5
  1.0985331640656353E-01 a       106     0     5     1     6
  5.3692923772085559E-02 a       107     0     5     1     7
 -1.7490220556164296E-02 a       108     0     5     1     8
  1.9893720663996678E-01 a       109     0     5     1     9
  2.9949835450719181E-01 a       110     0     5     1    10
 -1.4840563264717951E-01 a       111     0     5     1    11
 -4.3651607334856998E-02 a       112     0     5     1    12
 -3.0858168690624876E-01 a       113     0     5     1    13
 -2.3678091848182901E-02 a       114     0     5     1    14
  2.2124970335332789E-01 a       115     0     5     1    15
  1.1031312079910671E-01 a       116     0     5     1    16
 -2.0142296804083457E-01 a       117     0     5     1    17
 -2.9199269585540977E-01 a       118     0     5     1    18
  2.9103986811215199E-01 a       119     0     5     1    19
  4.9117886143964741E-03 a       120     0     5     1    20
  3.0490627979819668E-01 a       121     0     5     1    21
 -2.3979583375919455E-01 a       122     0     5     1    22
  2.8016978916815222E-01 a       123     0     5     1    23
 -1.4422384258846602E-01 a       124     0     5     1    24
  3.1172434421145179E-01 a       125     0     5     1    25
  4.2882965242961646E-02 a       126     0     6     1     1
 -2.1268951322324434E-01 a       127     0     6     1     2
  2.0453608316946598E-01 a       128     0     6     1     3
  2.8841970448991799E-01 a       129     0     6     1     4
 -2.1683358865277714E-02 a       130     0     6     1     5
 -1.8506594012808497E-01 a       131     0     6     1     6
  2.5777745971192895E-01 a       132     0     6     1     7
  1.9254385417403377E-01 a       133     0     6     1     8
  3.2902959476431731E-01 a       134     0     6     1     9
 -2.4556266466703485E-02 a       135     0     6     1    10
 -1.3909330758048671E-01 a       136     0     6     1    11
 -1.1729046718823188E-01 a       137     0     6     1    12
  2.8200217486038748E-01 a       138     0     6     1    13
 -2.7481540796350568E-02 a       139     0     6     1    14
  1.8115496354810184E-01 a       140     0     6     1    15
  2.7238172892551255E-01 a       141     0     6     1    16
  3.0073429813225122E-01 a       142     0     6     1    17
  1.4832336959144707E-01 a       143     0     6     1    18
  8.5376257021849269E-02 a       144     0     6     1    19
 -2.2629888686892649E-01 a       145     0     6     1    20
 -4.6378964963346890E-02 a       146     0     6     1    21
  1.1397273649763889E-01 a       147     0     6     1    22
  1.3278711004414454E-02 a       148     0     6     1    23
  2.2515829316720726E-01 a       149     0     6     1    24
 -2.8020693531806823E-01 a       150     0     6     1    25
  1.1724342030757882E-01 a       151     0     7     1     1
  1.0811407231928317E-01 a       152     0     7     1     2
 -1.3645029800391126E-02 a       153     0     7     1     3
  8.9172134929252828E-02 a       154     0     7     1     4
 -2.9349132661377463E-02 a       155     0     7     1     5
 -1.9477472917367561E-01 a       156     0     7     1     6
 -4.7652509295769488E-02 a       157     0     7     1     7
  2.8048852248883943E-01 a       158     0     7     1     8
  1.7181219627391939E-01 a       159     0     7     1     9
  2.4584672453796744E-01 a       160     0     7     1    10
  6.7647113772559581E-02 a       161     0     7     1    11
 -1.8614581132987063E-01 a       162     0     7     1    12
 -2.5930190328893815E-01 a       163     0     7     1    13
  8.0852887672864651E-02 a       164     0     7     1    14
 -2.0268271542768368E-01 a       165     0     7     1    15
  6.7535599773784441E-02 a       166     0     7     1    16
  3.0733063112756426E-01 a       167     0     7     1    17
  2.7767381366707300E-01 a       168     0     7     1    18
 -1.6763886052841136E-03 a       169     0     7     1    19
  1.8928633483034352E-01 a       170     0     7     1    20
  1.2986399929342379E-01 a       171     0     7     1    21
  1.7038272869773211E-01 a       172     0     7     1    22
  2.2212291614733742E-01 a       173     0     7     1    23
  1.5605288852204371E-01 a       174     0     7     1    24
 -1.9290444588260150E-01 a       175     0     7     1    25
 -4.1981516853381584E-02 a       176     0     8     1     1
 -1.2399861155961686E-01 a       177     0     8     1     2
  2.4538984837091410E-01 a       178     0     8     1     3
  4.4777141558309488E-02 a       179     0     8     1     4
  2.4381046681955126E-01 a       180     0     8     1     5
  1.7874946516497882E-02 a       181     0     8     1     6
 -2.5380722088866953E-01 a       182     0     8     1     7
  1.0570638742106831E-02 a       183     0     8     1     8
 -3.0963954256851511E-01 a       184     0     8     1     9
 -2.4644748921445261E-01 a       185     0     8     1    10
  1.8737220802476112E-01 a       186     0     8     1    11
  3.3393583610071009E-01 a       187     0     8     1    12
 -9.9154914766833011E-02 a       188     0     8     1    13
  3.1244100826514026E-01 a       189     0     8     1    14
  8.7549433009597361E-02 a       190     0     8     1    15
 -5.4744877169324316E-02 a       191     0     8     1    16
  1.8041521801797336E-01 a       192     0     8     1    17
  3.2604173061197456E-01 a       193     0     8     1    18
 -7.0983778657867421E-03 a       194     0     8     1    19
 -2.1538130788155763E-01 a       195     0     8     1    20
  1.9395967624927024E-01 a       196     0     8     1    21
 -3.1444301336828001E-01 a       197     0     8     1    22
  8.7046710511791928E-02 a       198     0     8     1    23
  2.6511006636195833E-01 a       199     0     8     1    24
 -2.3061142010790345E-01 a       200     0     8     1    25
 -8.4652927796016006E-02 a       201     0     9     1     1
 -3.2126730264373918E-02 a       202     0     9     1     2
 -1.0317258952131093E-01 a       203     0     9     1     3
 -3.1165121975222942E-01 a       204     0     9     1     4
 -5.1096952892120753E-02 a       205     0     9     1     5
 -3.0900620757396591E-01 a       206     0     9     1     6
  2.0142377383868362E-01 a       207     0     9     1     7
 -2.9720666014899649E-01 a       208     0     9     1     8
  2.8426606115098226E-02 a       209     0     9     1     9
 -2.1230922644073727E-01 a       210     0     9     1    10
 -2.1184856841019420E-01 a       211     0     9     1    11
 -4.6197837521165103E-02 a       212     0     9     1    12
 -1.5024730189421417E-01 a       213     0     9     1    13
 -2.7487197646960693E-01 a       214     0     9     1    14
 -1.3186345365453819E-01 a       215     0     9     1    15
  1.1400368667218952E-01 a       216     0     9     1    16
 -1.1531910374343854E-01 a       217     0     9     1    17
  2.8222133771409275E-01 a       218     0     9     1    18
 -2.0477994100660957E-01 a       219     0     9     1    19
  5.1326176713852423E-02 a       220     0     9     1    20
 -3.3757431259162737E-02 a       221     0     9     1    21
 -3.5650681423040811E-03 a       222     0     9     1    22
 -1.2710023328562789E-01 a       223     0     9     1    23
 -9.4053372039143615E-02 a       224     0     9     1    24
 -3.2608113465606853E-01 a       225     0     9     1    25
 -2.6493357528936501E-01 a       226     0    10     1     1
  2.0524910832940513E-01 a       227     0    10     1     2
 -1.3475540551766085E-01 a       228     0    10     1     3
 -3.2162106323136541E-01 a       229     0    10     1     4
  7.7902368146473569E-02 a       230     0    10     1     5
 -3.0628177987018318E-01 a       231     0    10     1     6
  1.3931410898940783E-01 a       232     0    10     1     7
  1.2124348289316984E-01 a       233     0    10     1     8
  2.5371634386392956E-02 a       234     0    10     1     9
  1.8325292814907887E-01 a       235     0    10     1    10
  1.8038813063353645E-01 a       236     0    10     1    11
 -2.2963905667473103E-01 a       237     0    10     1    12
 -4.1880009932004927E-02 a       238     0    10     1    13
 -1.8165174791213332E-01 a       239     0    10     1    14
  2.9297603784748565E-03 a       240     0    10     1    15
 -2.4773210838716098E-01 a       241     0    10     1    16
 -1.9555164388382640E-01 a       242     0    10     1    17
 -8.5662501790038828E-02 a       243     0    10     1    18
 -3.1247468011606344E-01 a       244     0    10     1    19
  2.3938346039863193E-01 a       245     0    10     1    20
  1.4450866789470540E-01 a       246     0    10     1    21
 -2.4282626014879022E-01 a       247     0    10     1    22
 -2.5941702542261014E-01 a       248     0    10     1    23
 -5.7130216390410264E-02 a       249     0    10     1    24
  2.8368994091375055E-01 a       250     0    10     1    25
  4.0995714235220922E-02 a       251     0    11     1     1
 -1.2451393458325277E-01 a       252     0    11     1     2
  2.9912197026793164E-01 a       253     0    11     1     3
 -7.4453590460310332E-02 a       254     0    11     1     4
 -1.8991368151364266E-01 a       255     0    11     1     5
  1.9051481266660036E-01 a       256     0    11     1     6
 -1.0328992028744632E-01 a       257     0    11     1     7
  9.3215654617415933E-02 a       258     0    11     1     8
  2.2430957884289546E-01 a       259     0    11     1     9
 -3.9741502285832328E-02 a       260     0    11     1    10
 -1.5981965626201933E-01 a       261     0    11     1    11
 -9.0543373085076082E-02 a       262     0    11     1    12
 -1.8214676636628618E-01 a       263     0    11     1    13
  2.7017936167732076E-01 a       264     0    11     1    14
 -7.4017171574705568E-02 a       265     0    11     1    15
 -7.0472418046824588E-03 a       266     0    11     1    16
 -2.6609255877479693E-01 a       267     0    11     1    17
  2.0436229744077142E-01 a       268     0    11     1    18
 -1.8055234029841286E-01 a       269     0    11     1    19
 -1.4048458948277717E-02 a       270     0    11     1    20
 -2.6582301200797265E-01 a       271     0    11     1    21
 -2.5004257947361430E-01 a       272     0    11     1    22
 -2.4153656360864720E-01 a       273     0    11     1    23
  2.0346708014162126E-01 a       274     0    11     1    24
  1.1554156407693714E-01 a       275     0    11     1    25
  1.7613614062425748E-01 a       276     0    12     1     1
  2.5544506907192838E-01 a       277     0    12     1     2
  2.4075401903265461E-01 a       278     0    12     1     3
 -2.5179476046031535E-01 a       279     0    12     1     4
  9.2923203727178799E-02 a       280     0    12     1     5
  3.2320001540575982E-01 a       281     0    12     1     6
 -1.6741459532865777E-01 a       282     0    12     1     7
  8.8845963565722837E-03 a       283     0    12     1     8
 -1.3807841146840222E-01 a       284     0    12     1     9
  1.1187932780776270E-01 a       285     0    12     1    10
  2.6741728686414884E-01 a       286     0    12     1    11
  5.4145605131819423E-02 a       287     0    12     1    12
  2.9872218571381837E-01 a       288     0    12     1    13
  2.3205858734115009E-01 a       289     0    12     1    14
 -3.2908833550389892E-02 a       290     0    12     1    15
  1.6551649380287589E-01 a       291     0    12     1    16
  8.0960845488931232E-02 a       292     0    12     1    17
  2.8654421064559016E-01 a       293     0    12     1    18
 -6.8466590219340456E-02 a       294     0    12     1    19
 -2.8872156929865694E-01 a       295     0    12     1    20
  3.0148941690721676E-01 a       296     0    12     1    21
 -2.5881354288757297E-01 a       297     0    12     1    22
  3.8451718921181138E-03 a       298     0    12     1    23
  1.4716290905244098E-01 a       299     0    12     1    24
 -2.9982593173189120E-01 a       300     0    12     1    25
  5.4924477208049896E-02 a       301     0    13     1     1
  2.4261246783751089E-01 a       302     0    13     1     2
 -5.3969247236858815E-02 a       303     0    13     1     3
 -3.6957257187314341E-01 a       304     0    13     1     4
  1.1653500890071125E-01 a       305     0    13     1     5
 -4.5023828742847133E-02 a       306     0    13     1     6
  4.6035666945003252E-02 a       307     0    13     1     7
  1.0905615730303427E-01 a       308     0    13     1     8
 -1.9214377870814256E-01 a       309     0    13     1     9
  3.1002345484516497E-02 a       310     0    13     1    10
 -2.3097274817245234E-01 a       311     0    13     1    11
 -1.2269090283626567E-01 a       312     0    13     1    12
 -7.1330810103981998E-02 a       313     0    13     1    13
 -1.2514928861831009E-01 a       314     0    13     1    14
  1.1422648344299445E-01 a       315     0    13     1    15
  3.2132698130786225E-01 a       316     0    13     1    16
  1.8199116736034246E-01 a       317     0    13     1    17
 -1.1236700291645455E-02 a       318     0    13     1    18
 -3.2813179507156726E-01 a       319     0    13     1    19
  2.0722866960480399E-01 a       320     0    13     1    20
 -2.8078621441364654E-01 a       321     0    13     1    21
  3.0006540072745027E-02 a       322     0    13     1    22
  3.3843071848134287E-01 a       323     0    13     1    23
  2.4727371020095476E-01 a       324     0    13     1    24
 -2.4305678836449823E-01 a       325     0    13     1    25
  1.5045943569878140E-01 a       326     0    14     1     1
 -2.4499937606720051E-01 a       327     0    14     1     2
  2.9668435089947842E-01 a       328     0    14     1     3
  1.0964309927858591E-01 a       329     0    14     1     4
 -2.5247370505766423E-02 a       330     0    14     1     5
 -1.8380261444331655E-01 a       331     0    14     1     6
 -1.9496055150785638E-01 a       332     0    14     1     7
 -2.0376885480618839E-01 a       333     0    14     1     8
 -6.8802532924204726E-02 a       334     0    14     1     9
  2.5336914611700095E-01 a       335     0    14     1    10
  6.5120425674910998E-02 a       336     0    14     1    11
  1.1433411544118305E-01 a       337     0    14     1    12
  2.2404376593049743E-01 a       338     0    14     1    13
 -1.3671490228893760E-01 a       339     0    14     1    14
  9.3554619855711396E-02 a       340     0    14     1    15
  5.3445212837665880E-02 a       341     0    14     1    16
  7.2319665533292415E-02 a       342     0    14     1    17
 -9.4936681033320341E-04 a       343     0    14     1    18
  2.9093279103316544E-01 a       344     0    14     1    19
  3.2899600710023663E-01 a       345     0    14     1    20
 -3.4417565466278416E-01 a       346     0    14     1    21
 -2.1561777625854373E-01 a       347     0    14     1    22
  1.6257652272623357E-01 a       348     0    14     1    23
  1.1143276639473862E-01 a       349     0    14     1    24
 -3.0148031737540115E-01 a       350     0    14     1    25
 -1.0342318813241007E-01 a       351     0    15     1     1
 -1.4895170374458225E-01 a       352     0    15     1     2
 -2.2021070364493705E-03 a       353     0    15     1     3
  1.2854222010064068E-01 a       354     0    15     1     4
  3.5252773328799336E-01 a       355     0    15     1     5
 -5.1527300073155910E-02 a       356     0    15     1     6
  2.1514198465601470E-01 a       357     0    15     1     7
 -2.8458505283184993E-01 a       358     0    15     1     8
 -1.7443985225631350E-01 a       359     0    15     1     9
  2.6566799623280513E-01 a       360     0    15     1    10
  2.8959352576478226E-01 a       361     0    15     1    11
  2.1031277659617212E-01 a       362     0    15     1    12
 -1.0994041653141502E-02 a       363     0    15     1    13
  6.0896003462922677E-02 a       364     0    15     1    14
 -2.7009673235175702E-01 a       365     0    15     1    15
  2.3490093249352012E-01 a       366     0    15     1    16
 -3.0338942544276232E-01 a       367     0    15     1    17
 -1.4648059374366873E-01 a       368     0    15     1    18
  2.9371795863918182E-01 a       369     0    15     1    19
 -2.6398184398543045E-01 a       370     0    15     1    20
 -3.3179491453698313E-02 a       371     0    15     1    21
 -2.0847614929820686E-02 a       372     0    15     1    22
  2.6465724882898217E-01 a       373     0    15     1    23
 -2.0658686991687850E-01 a       374     0    15     1    24
  4.2209150570302369E-02 a       375     0    15     1    25
  8.3288894013279866E-02 a       376     0    16     1     1
  1.1689772873319647E-01 a       377     0    16     1     2
 -1.0743584641533201E-01 a       378     0    16     1     3
 -3.7046927813395408E-01 a       379     0    16     1     4
 -1.0570115844771068E-01 a       380     0    16     1     5
  1.2927246584280322E-01 a       381     0    16     1     6
 -3.3549754771747896E-02 a       382     0    16     1     7
 -2.4311257456920010E-01 a       383     0    16     1     8
 -2.5049652227024821E-01 a       384     0    16     1     9
  5.0596761016175551E-02 a       385     0    16     1    10
 -7.1475252015145208E-02 a       386     0    16     1    11
  1.8516293353906360E-01 a       387     0    16     1    12
 -1.0506134549206522E-01 a       388     0    16     1    13
  3.2003024833490873E-01 a       389     0    16     1    14
 -9.5605268974695859E-02 a       390     0    16     1    15
 -5.3649988161139542E-02 a       391     0    16     1    16
  1.1151027230204454E-01 a       392     0    16     1    17
 -3.2620374199020585E-01 a       393     0    16     1    18
 -6.9043606574119579E-02 a       394     0    16     1    19
  2.3031447433644991E-01 a       395     0    16     1    20
  1.9474233853725379E-02 a       396     0    16     1    21
  7.1440376499765715E-02 a       397     0    16     1    22
 -6.1900164056083201E-02 a       398     0    16     1    23
  2.7383117417493175E-01 a       399     0    16     1    24
  6.0976420996972057E-02 a       400     0    16     1    25
 -2.0425081104661860E-01 a       401     0    17     1     1
 -1.9148113148158220E-02 a       402     0    17     1     2
 -1.4316369225965417E-01 a       403     0    17     1     3
 -6.5958023934139978E-02 a       404     0    17     1     4
  1.9151830294385294E-01 a       405     0    17     1     5
 -2.6964818683246312E-02 a       406     0    17     1     6
 -2.2305382230866141E-01 a       407     0    17     1     7
 -6.4938714943064135E-02 a       408     0    17     1     8
  1.7873223942156874E-01 a       409     0    17     1     9
 -1.9404889058204453E-01 a       410     0    17     1    10
  2.0240014658492480E-02 a       411     0    17     1    11
  5.7773410149825337E-02 a       412     0    17     1    12
 -2.1913862106276460E-01 a       413     0    17     1    13
 -3.1497212285958381E-01 a       414     0    17     1    14
  3.8393583906431716E-02 a       415     0    17     1    15
  1.6237079335684895E-01 a       416     0    17     1    16
 -2.3370646372441503E-01 a       417     0    17     1    17
 -2.8088211889106612E-01 a       418     0    17     1    18
  2.8969190389712234E-02 a       419     0    17     1    19
 -2.2242514541092046E-01 a       420     0    17     1    20
  1.6812702632728185E-01 a       421     0    17     1    21
 -1.6004626457383209E-01 a       422     0    17     1    22
  8.5822477242362971E-02 a       423     0    17     1    23
  2.6019135361042506E-01 a       424     0    17     1    24
  1.4244946057461419E-01 a       425     0    17     1    25
  6.6597523312272408E-02 a       426     0    18     1     1
  1.5222566444285526E-01 a       427     0    18     1     2
 -3.1636077472794588E-01 a       428     0    18     1     3
  2.1692347808546927E-01 a       429     0    18     1     4
  1.5465414690488002E-02 a       430     0    18     1     5
 -2.1428473998335357E-01 a       431     0    18     1     6
 -2.7142851484603051E-03 a       432     0    18     1     7
  3.2377106249165233E-01 a       433     0    18     1     8
 -8.7653255301916755E-02 a       434     0    18     1     9
 -1.1356945284048490E-02 a       435     0    18     1    10
 -2.5987518439858048E-01 a       436     0    18     1    11
 -3.4455620771960144E-01 a       437     0    18     1    12
  2.1240617915874091E-01 a       438     0    18     1    13
 -1.5653797898448643E-01 a       439     0    18     1    14
 -1.0444140439333265E-02 a       440     0    18     1    15
 -2.7692910591720116E-01 a       441     0    18     1    16
 -1.0713913425838713E-01 a       442     0    18     1    17
  3.9092868750754066E-02 a       443     0    18     1    18
 -7.1852908845626715E-02 a       444     0    18     1    19
  2.8830602492186086E-01 a       445     0    18     1    20
  1.6109540630473940E-01 a       446     0    18     1    21
 -2.6471249229280891E-01 a       447     0    18     1    22
 -1.3000526922647943E-01 a       448     0    18     1    23
  3.4789535149136817E-02 a       449     0    18     1    24
  2.8971259654894044E-01 a       450     0    18     1    25
 -1.4114016088851672E-01 a       451     0    19     1     1
  3.0312138250631659E-01 a       452     0    19     1     2
  2.0756027093174624E-02 a       453     0    19     1     3
  1.0539175064732623E-01 a       454     0    19     1     4
 -2.7847215930302710E-01 a       455     0    19     1     5
 -3.0776603743123054E-01 a       456     0    19     1     6
 -3.3214098971592138E-01 a       457     0    19     1     7
  4.3806899931473547E-02 a       458     0    19     1     8
 -4.7321202616567937E-03 a       459     0    19     1     9
 -2.3029080704248051E-01 a       460     0    19     1    10
  1.3280251660133666E-01 a       461     0    19     1    11
 -1.4113360410655496E-01 a       462     0    19     1    12
 -1.3316480769591535E-01 a       463     0    19     1    13
  2.2580964360212001E-02 a       464     0    19     1    14
 -1.1304107168186348E-01 a       465     0    19     1    15
 -9.5028893005870696E-02 a       466     0    19     1    16
 -2.4487914336702921E-01 a       467     0    19     1    17
 -1.7188831036950594E-01 a       468     0    19     1    18
  2.6725087841306925E-02 a       469     0    19     1    19
 -2.4777070892641102E-02 a       470     0    19     1    20
 -4.5176278817563142E-02 a       471     0    19     1    21
  5.4628662389704666E-02 a       472     0    19     1    22
  2.8778351934688440E-01 a       473     0    19     1    23
 -1.7089064007714952E-01 a       474     0    19     1    24
  3.2141945843677211E-01 a       475     0    19     1    25
 -1.6178658356544756E-01 a       476     0    20     1     1
 -9.9295624689416592E-02 a       477     0    20     1     2
 -1.6732468364776135E-01 a       478     0    20     1     3
  2.3242196339047835E-01 a       479     0    20     1     4
 -4.8623727057394428E-03 a       480     0    20     1     5
 -2.2419742170115370E-01 a       481     0    20     1     6
 -2.9506906765317886E-01 a       482     0    20     1     7
  2.5115216400871576E-01 a       483     0    20     1     8
 -2.7984413136533803E-01 a       484     0    20     1     9
 -2.0164541243085619E-02 a       485     0    20     1    10
 -5.6420012447406191E-03 a       486     0    20     1    11
  1.2689102120481538E-01 a       487     0    20     1    12
 -1.6107908488441217E-01 a       488     0    20     1    13
 -2.0555263230033638E-01 a       489     0    20     1    14
  2.2670156773309406E-02 a       490     0    20     1    15
 -3.1140613662044803E-01 a       491     0    20     1    16
  2.5884771908984461E-01 a       492     0    20     1    17
  2.6725685768512847E-01 a       493     0    20     1    18
  1.3949958147517658E-01 a       494     0    20     1    19
  7.5104289477576316E-02 a       495     0    20     1    20
  3.1901662023060945E-01 a       496     0    20     1    21
  3.0207676016167923E-01 a       497     0    20     1    22
  1.7773919942009539E-01 a       498     0    20     1    23
 -1.6843111836241151E-01 a       499     0    20     1    24
 -2.9355142200961359E-01 a       500     0    20     1    25
 -2.9096531749317683E-01 a       501     0    21     1     1
 -7.8607642317932172E-02 a       502     0    21     1     2
 -7.5626453791866166E-02 a       503     0    21     1     3
 -2.4192937241963183E-01 a       504     0    21     1     4
 -1.7103410900830204E-01 a       505     0    21     1     5
  1.8156742347916044E-01 a       506     0    21     1     6
  1.5360110205553926E-01 a       507     0    21     1     7
 -6.7713530668330940E-02 a       508     0    21     1     8
  2.4245380685189755E-01 a       509     0    21     1     9
  8.6337296528074731E-02 a       510     0    21     1    10
 -1.5077594733627186E-01 a       511     0    21     1    11
  2.6868391355738989E-02 a       512     0    21     1    12
  4.9846100395705160E-02 a       513     0    21     1    13
  1.9371622016647894E-01 a       514     0    21     1    14
 -8.9360225194528811E-02 a       515     0    21     1    15
 -1.0479107516199340E-01 a       516     0    21     1    16
 -1.0695220061680308E-01 a       517     0    21     1    17
 -5.5900989812201589E-02 a       518     0    21     1    18
 -1.9158453941104936E-01 a       519     0    21     1    19
  3.3366698531378491E-01 a       520     0    21     1    20
 -1.6976973717296909E-01 a       521     0    21     1    21
 -2.2747065182241560E-01 a       522     0    21     1    22
 -1.3013312035713970E-01 a       523     0    21     1    23
  2.1262433786035551E-01 a       524     0    21     1    24
  1.6536797597856492E-01 a       525     0    21     1    25
  2.5571042727835919E-02 a       526     0    22     1     1
  3.1234522538777204E-01 a       527     0    22     1     2
  2.6393009770604164E-01 a       528     0    22     1     3
  1.7552137526223408E-01 a       529     0    22     1     4
  2.5631147490918893E-01 a       530     0    22     1     5
  2.4011805316618554E-01 a       531     0    22     1     6
  1.9537290915494515E-01 a       532     0    22     1     7
  1.1714561940437661E-01 a       533     0    22     1     8
  1.4260932284787717E-01 a       534     0    22     1     9
 -9.0711545516643941E-02 a       535     0    22     1    10
  1.7832704859517962E-01 a       536     0    22     1    11
  1.4302783539151837E-01 a       537     0    22     1    12
  1.5060861337494036E-01 a       538     0    22     1    13
  2.8238603241772353E-01 a       539     0    22     1    14
  4.9139101317243984E-03 a       540     0    22     1    15
 -3.0434719971786472E-01 a       541     0    22     1    16
 -5.2429699826956624E-02 a       542     0    22     1    17
  1.9100407127774310E-01 a       543     0    22     1    18
  1.5067156460415385E-01 a       544     0    22     1    19
 -6.0048091500446293E-02 a       545     0    22     1    20
 -9.3878746137370989E-02 a       546     0    22     1    21
 -1.8399371983862722E-01 a       547     0    22     1    22
  9.8999276668977718E-02 a       548     0    22     1    23
 -1.0557790992925803E-01 a       549     0    22     1    24
 -1.3063243604771974E-01 a       550     0    22     1    25
 -2.4099524956127816E-01 a       551     0    23     1     1
 -3.3820002380781050E-01 a       552     0    23     1     2
  1.5609905884943440E-01 a       553     0    23     1     3
  1.7510414512947134E-01 a       554     0    23     1     4
 -9.1195519510528483E-02 a       555     0    23     1     5
 -1.9430712300602254E-01 a       556     0    23     1     6
  2.8266154624141511E-02 a       557     0    23     1     7
 -2.2945168829735990E-01 a       558     0    23     1     8
 -1.8239730543159896E-01 a       559     0    23     1     9
  7.8283654283948081E-02 a       560     0    23     1    10
  2.6543107941438976E-01 a       561     0    23     1    11
  2.3375753894978621E-01 a       562     0    23     1    12
  2.7928385221150648E-01 a       563     0    23     1    13
  1.7270297611336377E-01 a       564     0    23     1    14
 -1.4500789544791184E-01 a       565     0    23     1    15
 -1.6503446677348979E-01 a       566     0    23     1    16
 -3.6711889199830379E-02 a       567     0    23     1    17
 -2.7965952417439034E-02 a       568     0    23     1    18
  1.5671793820969972E-02 a       569     0    23     1    19
 -2.2551034781219562E-01 a       570     0    23     1    20
 -9.3865115700582404E-03 a       571     0    23     1    21
  2.4259424769649590E-01 a       572     0    23     1    22
 -2.8194361027984071E-02 a       573     0    23     1    23
 -9.0313108417884647E-02 a       574     0    23     1    24
  2.8411395237649778E-01 a       575     0    23     1    25
 -7.9532385081686561E-03 a       576     0    24     1     1
  2.9560408536181437E-01 a       577     0    24     1     2
 -2.3257208956964595E-01 a       578     0    24     1     3
  1.4953542319469312E-01 a       579     0    24     1     4
 -2.6210099692032257E-01 a       580     0    24     1     5
  5.0677477984506336E-02 a       581     0    24     1     6
 -2.0091187336152017E-01 a       582     0    24     1     7
 -2.4756217869633859E-01 a       583     0    24     1     8
 -1.2422329287840184E-01 a       584     0    24     1     9
 -3.8216638592033107E-02 a       585     0    24     1    10
 -6.9388887122921780E-02 a       586     0    24     1    11
  1.9145637295642012E-01 a       587     0    24     1    12
  1.2029505125278869E-01 a       588     0    24     1    13
 -1.3170848419077022E-02 a       589     0    24     1    14
  2.4723220220205788E-03 a       590     0    24     1    15
 -2.0960836625697543E-01 a       591     0    24     1    16
 -5.2785626203468057E-02 a       592     0    24     1    17
 -3.5406375840373056E-01 a       593     0    24     1    18
  9.2125035632718705E-02 a       594     0    24     1    19
 -2.7045528231974081E-01 a       595     0    24     1    20
 -2.7660515941147368E-01 a       596     0    24     1    21
  3.4636752979812629E-01 a       597     0    24     1    22
 -4.0092634007812884E-02 a       598     0    24     1    23
 -2.7348579351442687E-01 a       599     0    24     1    24
 -5.5784033993085937E-02 a       600     0    24     1    25
 -1.9744076132253072E-01 a       601     0    25     1     1
  2.5411595296325179E-01 a       602     0    25     1     2
  1.7392076687318930E-02 a       603     0    25     1     3
 -2.5700641557539239E-01 a       604     0    25     1     4
  1.7851265347777756E-01 a       605     0    25     1     5
 -2.1162708820828924E-01 a       606     0    25     1     6
 -1.4897971025169440E-01 a       607     0    25     1     7
  1.8100980687491253E-01 a       608     0    25     1     8
 -3.3532613358476449E-01 a       609     0    25     1     9
  2.3300091964069317E-01 a       610     0    25     1    10
 -2.6047208603967981E-01 a       611     0    25     1    11
  2.4057598768127975E-01 a       612     0    25     1    12
 -1.4164789590204591E-01 a       613     0    25     1    13
 -1.5008326370276459E-01 a       614     0    25     1    14
  8.0368775214866128E-02 a       615     0    25     1    15
  2.4658220142225951E-01 a       616     0    25     1    16
 -1.2911168977894161E-01 a       617     0    25     1    17
  2.9873712939876035E-01 a       618     0    25     1    18
  2.5555441617052449E-01 a       619     0    25     1    19
  2.8013087919462226E-01 a       620     0    25     1    20
 -1.3341552192304115E-01 a       621     0    25     1    21
  1.9762924275315538E-01 a       622     0    25     1    22
  3.5127720255528731E-02 a       623     0    25     1    23
  1.4367356510209249E-02 a       624     0    25     1    24
 -2.6299224414022587E-01 a       625     0    25     1    25
  9.8937175719940790E-02 a       626     0    26     1     1
 -6.4775592504027424E-02 a       627     0    26     1     2
 -1.6089412748079547E-02 a       628     0    26     1     3
 -2.1840822941495164E-01 a       629     0    26     1     4
  1.0698762700860116E-01 a       630     0    26     1     5
 -3.9042603581540471E-02 a       631     0    26     1     6
 -1.1507945440437121E-01 a       632     0    26     1     7
 -2.6343669767891614E-01 a       633     0    26     1     8
  9.7948334627970222E-03 a       634     0    26     1     9
 -2.2208811528239125E-01 a       635     0    26     1    10
 -2.6013612168432387E-01 a       636     0    26     1    11
  2.8181925551184694E-01 a       637     0    26     1    12
 -2.6825550160618862E-02 a       638     0    26     1    13
  2.3970726914188228E-01 a       639     0    26     1    14
 -1.3620532951020509E-01 a       640     0    26     1    15
  2.6827407175322793E-01 a       641     0    26     1    16
  2.7668508542731940E-01 a       642     0    26     1    17
 -4.9736197335795734E-02 a       643     0    26     1    18
  1.2743385193919510E-02 a       644     0    26     1    19
 -2.7703723604734345E-02 a       645     0    26     1    20
  1.6262840620709906E-01 a       646     0    26     1    21
 -2.4542589132834597E-01 a       647     0    26     1    22
  5.0855383348931277E-02 a       648     0    26     1    23
  1.1647445887637255E-01 a       649     0    26     1    24
 -3.0882221192438258E-01 a       650     0    26     1    25
  1.5518217620925134E-01 a       651     0    27     1     1
 -3.5765952222768106E-02 a       652     0    27     1     2
 -1.6531321313411593E-01 a       653     0    27     1     3
  1.9615920299300230E-01 a       654     0    27     1     4
  3.2467142952363290E-02 a       655     0    27     1     5
  2.4032999492814794E-01 a       656     0    27     1     6
  2.3648811259298344E-01 a       657     0    27     1     7
 -2.1448279121702571E-01 a       658     0    27     1     8
 -8.4882455681937682E-02 a       659     0    27     1     9
  3.0293661890462828E-02 a       660     0    27     1    10
 -2.2475624217719554E-02 a       661     0    27     1    11
 -1.8313963914962268E-02 a       662     0    27     1    12
 -2.9816105406721388E-01 a       663     0    27     1    13
 -3.0100660505365145E-01 a       664     0    27     1    14
  1.2776884001475111E-01 a       665     0    27     1    15
 -1.4285765033817502E-01 a       666     0    27     1    16
 -7.1908638891774110E-03 a       667     0    27     1    17
 -2.8220131527313402E-01 a       668     0    27     1    18
 -5.9471378951381181E-02 a       669     0    27     1    19
 -6.0152038136760531E-02 a       670     0    27     1    20
 -2.7984215983943100E-01 a       671     0    27     1    21
  2.4853873090686321E-01 a       672     0    27     1    22
  1.4763991561743123E-01 a       673     0    27     1    23
  2.7286003407293430E-01 a       674     0    27     1    24
  3.1524700299461006E-01 a       675     0    27     1    25
  2.5268459305718199E-01 a       676     0    28     1     1
 -3.0573451431517817E-01 a       677     0    28     1     2
 -2.6729927881208609E-01 a       678     0    28     1     3
 -1.9604843745374217E-01 a       679     0    28     1     4
  2.1951076724736809E-01 a       680     0    28     1     5
  1.4651473786969066E-01 a       681     0    28     1     6
  1.7042676020937172E-01 a       682     0    28     1     7
  1.2779849607398505E-01 a       683     0    28     1     8
  1.9694401914006243E-01 a       684     0    28     1     9
  5.7992670035005862E-02 a       685     0    28     1    10
  2.7544812729706819E-01 a       686     0    28     1    11
  1.6452141709608839E-01 a       687     0    28     1    12
  2.1301044078160825E-01 a       688     0    28     1    13
 -2.7818419900986630E-01 a       689     0    28     1    14
  1.4234106878916850E-01 a       690     0    28     1    15
 -2.1871331312249337E-01 a       691     0    28     1    16
  1.5364800163862455E-01 a       692     0    28     1    17
  2.8242031928447942E-01 a       693     0    28     1    18
  2.4397172314610219E-01 a       694     0    28     1    19
 -1.9147351327382153E-01 a       695     0    28     1    20
  9.7820411711286182E-03 a       696     0    28     1    21
 -1.6370136241857236E-02 a       697     0    28     1    22
 -2.3480790209465965E-01 a       698     0    28     1    23
 -1.2186872963395609E-01 a       699     0    28     1    24
 -9.6482102848530399E-02 a       700     0    28     1    25
 -2.6541672104315900E-01 a       701     0    29     1     1
 -2.1457869276356980E-02 a       702     0    29     1     2
 -1.9809284105225250E-01 a       703     0    29     1     3
 -1.7687932083951413E-01 a       704     0    29     1     4
  3.0121313137855488E-01 a       705     0    29     1     5
  2.6593507641631731E-01 a       706     0    29     1     6
 -1.8501870948621604E-01 a       707     0    29     1     7
  3.1833341694278544E-01 a       708     0    29     1     8
 -9.8288069686247856E-02 a       709     0    29     1     9
 -2.3085695780325440E-02 a       710     0    29     1    10
  1.6508015048791216E-01 a       711     0    29     1    11
  1.4272173695585180E-01 a       712     0    29     1    12
 -1.7799000961342598E-01 a       713     0    29     1    13
 -3.0709197339251926E-01 a       714     0    29     1    14
 -1.3369717908890048E-02 a       715     0    29     1    15
 -7.5686132648133134E-02 a       716     0    29     1    16
  4.9517557660582710E-03 a       717     0    29     1    17
  1.0008627240846266E-01 a       718     0    29     1    18
  2.5693158190993404E-01 a       719     0    29     1    19
 -1.3793538722333321E-01 a       720     0    29     1    20
  2.7244528968714388E-01 a       721     0    29     1    21
  1.3162319781586015E-02 a       722     0    29     1    22
  3.6526440922292182E-03 a       723     0    29     1    23
  1.0389781666569844E-01 a       724     0    29     1    24
 -7.3028309135934763E-02 a       725     0    29     1    25
 -2.7832074073244728E-01 a       726     0    30     1     1
 -3.1796048385775599E-01 a       727     0    30     1     2
 -2.2834032222187040E-01 a       728     0    30     1     3
  1.9600066105968421E-02 a       729     0    30     1     4
  1.5660801772161151E-01 a       730     0    30     1     5
 -2.8002698937930587E-01 a       731     0    30     1     6
  1.3087635695902908E-01 a       732     0    30     1     7
  1.1763810557300311E-01 a       733     0    30     1     8
  2.4273680337620518E-01 a       734     0    30     1     9
  3.0811870818534242E-02 a       735     0    30     1    10
 -6.3753782679549592E-02 a       736     0    30     1    11
 -8.3147902700395071E-02 a       737     0    30     1    12
 -1.6494037160714234E-01 a       738     0    30     1    13
  1.3785217827075513E-01 a       739     0    30     1    14
  1.3997984794950868E-01 a       740     0    30     1    15
 -1.6586845342207357E-01 a       741     0    30     1    16
  1.3006972844686884E-01 a       742     0    30     1    17
  1.0663048674889107E-01 a       743     0    30     1    18
  8.1434587876534469E-03 a       744     0    30     1    19
 -5.3264735257308710E-02 a       745     0    30     1    20
  2.2994533810812540E-01 a       746     0    30     1    21
  3.6984300923807201E-01 a       747     0    30     1    22
  2.4210165343198489E-01 a       748     0    30     1    23
  2.4828260210796876E-01 a       749     0    30     1    24
 -1.5853544035911070E-02 a       750     0    30     1    25
  6.2109341864932152E-02 b       751     1     1
 -2.1406037159234427E-02 b       752     1     2
 -1.1309791775571197E-03 b       753     1     3
 -3.5986099067713523E-02 b       754     1     4
 -5.3959767238385810E-02 b       755     1     5
  5.2524126043667504E-02 b       756     1     6
  4.0900687380301962E-02 b       757     1     7
 -7.3790261770035045E-02 b       758     1     8
 -3.6367082478616045E-02 b       759     1     9
  4.1409327932110593E-02 b       760     1    10
 -1.3993858839928826E-02 b       761     1    11
 -2.5207017217194136E-03 b       762     1    12
 -2.6737533992857612E-03 b       763     1    13
  4.3489007074974044E-02 b       764     1    14
  3.5730467004157205E-04 b       765     1    15
  3.7268043689591968E-02 b       766     1    16
  4.2990626680360154E-02 b       767     1    17
 -2.9424278314249951E-02 b       768     1    18
 -6.9302004582369528E-02 b       769     1    19
 -3.4866750531434065E-02 b       770     1    20
  4.7530504320205259E-02 b       771     1    21
  3.5757512673721341E-02 b       772     1    22
 -7.7037384097094416E-02 b       773     1    23
  2.3741780761085763E-03 b       774     1    24
  6.3934155697717900E-03 b       775     1    25
 -9.4540526449849741E-02 a       776     1     1     2     1
  2.4995855714733325E-01 a       777     1     1     2     2
  3.0053695080144294E-01 a       778     1     1     2     3
 -1.7212088703710315E-01 a       779     1     1     2     4
 -4.3141666894375028E-02 a       780     1     1     2     5
 -1.0899819935359058E-01 a       781     1     1     2     6
 -1.1012720196347746E-01 a       782     1     1     2     7
 -2.6968213557726206E-01 a       783     1     1     2     8
 -9.4982423269581479E-02 a       784     1     1     2     9
  1.3953618441792170E-01 a       785     1     1     2    10
  2.3232534012681169E-01 a       786     1     1     2    11
  2.8844988269624127E-02 a       787     1     1     2    12
 -1.2129929743600067E-01 a       788     1     1     2    13
 -3.6432661225483914E-01 a       789     1     1     2    14
 -3.2454324716800370E-01 a       790     1     1     2    15
 -2.5656057828770656E-02 a       791     1     1     2    16
 -1.9218336189782076E-01 a       792     1     1     2    17
 -2.8019122857272521E-01 a       793     1     1     2    18
 -5.8696989676517493E-02 a       794     1     1     2    19
 -4.4548323688863183E-02 a       795     1     1     2    20
  1.3716954795799682E-01 a       796     1     1     2    21
 -1.5735891091490947E-01 a       797     1     1     2    22
 -3.6443826575833821E-01 a       798     1     1     2    23
 -7.2774646022554595E-02 a       799     1     1     2    24
 -7.4855146671048381E-02 a       800     1     1     2    25
 -1.7867237329660401E-02 a       801     1     2     2     1
 -1.1724097976273729E-01 a       802     1     2     2     2
  1.6131634235712566E-01 a       803     1     2     2     3
  2.9989660058842549E-01 a       804     1     2     2     4
  6.2931869484877542E-02 a       805     1     2     2     5
  4.9594050099790205E-02 a       806     1     2     2     6
  2.4927344572824689E-01 a       807     1     2     2     7
  2.4472322161557813E-01 a       808     1     2     2     8
  4.7512109807757122E-02 a       809     1     2     2     9
  2.1498778961911150E-01 a       810     1     2     2    10
  1.9553310987909350E-01 a       811     1     2     2    11
 -2.8998045894384966E-01 a       812     1     2     2    12
  4.6894636264100113E-02 a       813     1     2     2    13
 -2.7594453579589595E-01 a       814     1     2     2    14
  2.2516077666322062E-01 a       815     1     2     2    15
 -1.3584935758139105E-01 a       816     1     2     2    16
 -2.5240821078297726E-02 a       817     1     2     2    17
 -2.4571673725468571E-01 a       818     1     2     2    18
  1.7441403783752557E-01 a       819     1     2     2    19
  1.5994834798852386E-01 a       820     1     2     2    20
 -1.2918889658459681E-01 a       821     1     2     2    21
  2.6494186461592251E-01 a       822     1     2     2    22
  3.5806335477319023E-01 a       823     1     2     2    23
  3.0575760175132144E-01 a       824     1     2     2    24
  6.6162211253528960E-02 a       825     1     2     2    25
  7.0406862496952577E-02 a       826     1     3     2     1
  2.8770921518538195E-01 a       827     1     3     2     2
  1.1263117598655674E-01 a       828     1     3     2     3
  9.5740027362770777E-02 a       829     1     3     2     4
 -7.3927288397956648E-02 a       830     1     3     2     5
  2.1249106662732520E-01 a       831     1     3     2     6
 -7.1603862497778642E-02 a       832     1     3     2     7
  5.2245658733804802E-02 a       833     1     3     2     8
 -1.1607996234079161E-01 a       834     1     3     2     9
  6.6418543557876922E-02 a       835     1     3     2    10
 -1.9398752227593755E-01 a       836     1     3     2    11
 -6.9371388248514812E-02 a       837     1     3     2    12
 -1.4960450817773563E-01 a       838     1     3     2    13
 -2.4376301737139372E-01 a       839     1     3     2    14
 -2.9785335983651157E-01 a       840     1     3     2    15
  1.8434876726288110E-01 a       841     1     3     2    16
  1.6690311524974069E-01 a       842     1     3     2    17
  2.3986192885272201E-01 a       843     1     3     2    18
 -3.1509854175387614E-01 a       844     1     3     2    19
  9.4355412431035957E-02 a       845     1     3     2    20
 -3.2972558544818881E-01 a       846     1     3     2    21
 -1.5212653261046799E-01 a       847     1     3     2    22
  2.8772354241797699E-01 a       848     1     3     2    23
 -4.2031217927208195E-02 a       849     1     3     2    24
  2.2423042182836997E-01 a       850     1     3     2    25
  2.4654976887326976E-01 a       851     1     4     2     1
 -1.2476390759376357E-01 a       852     1     4     2     2
 -2.4661765099706467E-01 a       853     1     4     2     3
  2.7632237254128794E-01 a       854     1     4     2     4
 -9.2393581624774526E-02 a       855     1     4     2     5
 -1.4207129323088460E-01 a       856     1     4     2     6
 -1.3181091674383449E-01 a       857     1     4     2     7
  1.4303342597954462E-02 a       858     1     4     2     8
  1.3932525376403862E-01 a       859     1     4     2     9
  6.4375772306890719E-02 a       860     1     4     2    10
 -2.9491901746108234E-01 a       861     1     4     2    11
 -3.1770695551547584E-01 a       862     1     4     2    12
 -3.4039862450283359E-01 a       863     1     4     2    13
  7.1913303852578478E-02 a       864     1     4     2    14
 -1.2677476547759339E-01 a       865     1     4     2    15
  1.7821952442019606E-01 a       866     1     4     2    16
 -7.2127491943153682E-02 a       867     1     4     2    17
  2.1831583248939329E-01 a       868     1     4     2    18
  1.5664204706125762E-01 a       869     1     4     2    19
 -1.4842592907618699E-01 a       870     1     4     2    20
  1.6601776939756382E-01 a       871     1     4     2    21
 -2.1214597573332543E-02 a       872     1     4     2    22
  2.2416177603042434E-01 a       873     1     4     2    23
 -3.2678337680340297E-01 a       874     1     4     2    24
  3.6027620825128663E-02 a       875     1     4     2    25
 -5.9911899253671526E-02 a       876     1     5     2     1
 -1.7901915080099903E-01 a       877     1     5     2     2
  3.4433801842348240E-02 a       878     1     5     2     3
  2.0742716747527307E-01 a       879     1     5     2     4
 -3.7369689144243756E-01 a       880     1     5     2     5
  2.3121717742089226E-01 a       881     1     5     2     6
  2.1683013214173094E-01 a       882     1     5     2     7
  2.4262636154655813E-02 a       883     1     5     2     8
 -2.8153039143146885E-01 a       884     1     5     2     9
  2.1777302558504508E-02 a       885     1     5     2    10
 -1.6725469943297969E-01 a       886     1     5     2    11
 -1.3795625953800139E-01 a       887     1     5     2    12
 -2.1179085049409058E-01 a       888     1     5     2    13
 -2.5429160315375055E-01 a       889     1     5     2    14
  2.9511432052838172E-02 a       890     1     5     2    15
 -3.0644202731024994E-01 a       891     1     5     2    16
  1.4634762841472562E-01 a       892     1     5     2    17
  2.8334579398134868E-01 a       893     1     5     2    18
 -2.8388493152616456E-01 a       894     1     5     2    19
 -1.6723108273831760E-01 a       895     1     5     2    20
  2.5849575539836211E-01 a       896     1     5     2    21
  1.5928811833933118E-01 a       897     1     5     2    22
 -1.0007374159679699E-02 a       898     1     5     2    23
  1.8416036944716266E-01 a       899     1     5     2    24
  3.0892328290416462E-02 a       900     1     5     2    25
 -7.4233718649927491E-02 a       901     1     6     2     1
 -4.9241335982794135E-02 a       902     1     6     2     2
 -2.4085338371390810E-01 a       903     1     6     2     3
  1.0103868723893306E-01 a       904     1     6     2     4
 -2.6771129296920465E-02 a       905     1     6     2     5
 -3.3559324227380061E-01 a       906     1     6     2     6
  1.3200751461022076E-01 a       907     1     6     2     7
  1.5871345403538087E-01 a       908     1     6     2     8
  2.1996392825929820E-01 a       909     1     6     2     9
  1.1531094814020018E-01 a       910     1     6     2    10
  2.2451941779318546E-01 a       911     1     6     2    11
  1.6747098861204568E-01 a       912     1     6     2    12
 -1.6624712192404933E-01 a       913     1     6     2    13
 -2.6293496875007016E-01 a       914     1     6     2    14
 -1.7565832774044510E-01 a       915     1     6     2    15
 -1.6645019702873454E-01 a       916     1     6     2    16
  1.3709826673170333E-02 a       917     1     6     2    17
  5.4957561582297754E-02 a       918     1     6     2    18
  2.5866458397636669E-03 a       919     1     6     2    19
  2.8532437312344500E-01 a       920     1     6     2    20
 -2.0486005780371985E-01 a       921     1     6     2    21
  9.9639078502877218E-02 a       922     1     6     2    22
  5.9372685784541669E-02 a       923     1     6     2    23
  1.2481900602568398E-01 a       924     1     6     2    24
  2.0153110906019105E-02 a       925     1     6     2    25
 -2.1404002136236072E-01 a       926     1     7     2     1
 -1.9038716387097647E-03 a       927     1     7     2     2
  4.4450213164731987E-02 a       928     1     7     2     3
 -5.4261809853450499E-02 a       929     1     7     2     4
  8.3636422089186327E-02 a       930     1     7     2     5
  3.2212449512339508E-01 a       931     1     7     2     6
  2.7321070209924148E-01 a       932     1     7     2     7
 -1.2422954179471370E-01 a       933     1     7     2     8
  3.3155949838158866E-01 a       934     1     7     2     9
 -2.4646506293372197E-01 a       935     1     7     2    10
  2.2181508641099887E-01 a       936     1     7     2    11
 -3.7759332181948529E-01 a       937     1     7     2    12
 -1.8477172071111539E-01 a       938     1     7     2    13
  1.6165079779219763E-01 a       939     1     7     2    14
 -8.7788659222816604E-02 a       940     1     7     2    15
  2.3538770100971720E-01 a       941     1     7     2    16
 -3.2000930961176249E-01 a       942     1     7     2    17
  1.0500301100905075E-01 a       943     1     7     2    18
  2.0828205401740102E-01 a       944     1     7     2    19
 -2.8559992531215017E-01 a       945     1     7     2    20
 -2.9331927122849960E-01 a       946     1     7     2    21
 -3.8510491985506372E-02 a       947     1     7     2    22
 -3.0740413673069505E-01 a       948     1     7     2    23
 -5.2803982312068516E-02 a       949     1     7     2    24
 -6.5473375635417788E-02 a       950     1     7     2    25
 -2.9616320107006777E-01 a       951     1     8     2     1
  7.8180074408687614E-02 a       952     1     8     2     2
 -8.6160415364406495E-02 a       953     1     8     2     3
 -2.1800853390983926E-01 a       954     1     8     2     4
  1.5333672817022506E-01 a       955     1     8     2     5
 -3.4450402802789820E-01 a       956     1     8     2     6
  2.6138196513815026E-01 a       957     1     8     2     7
  1.8975787391366880E-01 a       958     1     8     2     8
  1.8257709621040302E-01 a       959     1     8     2     9
 -2.1773570333839640E-01 a       960     1     8     2    10
  2.9380304104727719E-02 a       961     1     8     2    11
 -1.5369752853378085E-01 a       962     1     8     2    12
 -2.0649904248131279E-01 a       963     1     8     2    13
 -1.9680325604515156E-01 a       964     1     8     2    14
 -2.7038799985782497E-01 a       965     1     8     2    15
  2.6772751786445359E-01 a       966     1     8     2    16
 -1.5328135332722145E-01 a       967     1     8     2    17
  1.2513997540063635E-02 a       968     1     8     2    18
 -3.2555316418839364E-01 a       969     1     8     2    19
  6.5449092745767615E-02 a       970     1     8     2    20
  3.2923898937403294E-02 a       971     1     8     2    21
  2.4797168193399263E-01 a       972     1     8     2    22
  2.4359550183562567E-01 a       973     1     8     2    23
  1.5008483967574462E-01 a       974     1     8     2    24
  3.1180385743507061E-01 a       975     1     8     2    25
 -2.0697820300126824E-01 a       976     1     9     2     1
 -2.4974508816831442E-01 a       977     1     9     2     2
  1.3725704633746091E-01 a       978     1     9     2     3
 -1.4883082404035047E-01 a       979     1     9     2     4
  1.2827751898307971E-01 a       980     1     9     2     5
 -2.5507587052602010E-01 a       981     1     9     2     6
  6.1473326047372448E-02 a       982     1     9     2     7
  7.6996599165255142E-02 a       983     1     9     2     8
 -2.5628301181681989E-01 a       984     1     9     2     9
  1.8854389064039409E-01 a       985     1     9     2    10
  1.4720581734185169E-02 a       986     1     9     2    11
  9.7660875956583799E-03 a       987     1     9     2    12
  2.4204677147271542E-01 a       988     1     9     2    13
 -7.7603277567718051E-02 a       989     1     9     2    14
 -2.1785610042854187E-01 a       990     1     9     2    15
  1.8387370216081336E-01 a       991     1     9     2    16
  2.6828964161014518E-01 a       992     1     9     2    17
  1.2204330480600696E-01 a       993     1     9     2    18
 -1.5771689076406642E-01 a       994     1     9     2    19
  1.8871134149291632E-01 a       995     1     9     2    20
  1.8497833199063975E-02 a       996     1     9     2    21
  7.6168192224686057E-02 a       997     1     9     2    22
 -3.0570680967454961E-01 a       998     1     9     2    23
  1.5253358530815070E-01 a       999     1     9     2    24
  1.5852802877117750E-01 a      1000     1     9     2    25
 -1.5217814261278520E-01 a      1001     1    10     2     1
  1.5450798414745928E-01 a      1002     1    10     2     2
 -1.5951210183747239E-01 a      1003     1    10     2     3
  1.0465091444118040E-01 a      1004     1    10     2     4
 -2.7687796486695659E-01 a      1005     1    10     2     5
  1.0737069578483996E-01 a      1006     1    10     2     6
 -2.7487840801711561E-01 a      1007     1    10     2     7
  3.1404794386063267E-01 a      1008     1    10     2     8
  1.0834471186908017E-01 a      1009     1    10     2     9
  2.8954309459497424E-01 a      1010     1    10     2    10
 -6.7592337641806402E-02 a      1011     1    10     2    11
 -3.2926610731837347E-01 a      1012     1    10     2    12
  2.1944361288506786E-01 a      1013     1    10     2    13
  2.4269765260957693E-01 a      1014     1    10     2    14
 -3.7521913623976388E-01 a      1015     1    10     2    15
 -1.9808460700321237E-01 a      1016     1    10     2    16
 -9.1511565604082516E-03 a      1017     1    10     2    17
  1.3770328185129249E-01 a      1018     1    10     2    18
 -2.6006560525991446E-01 a      1019     1    10     2    19
 -1.3574954141815640E-01 a      1020     1    10     2    20
  1.7068975624471749E-01 a      1021     1    10     2    21
  1.3466973940827837E-01 a      1022     1    10     2    22
  1.1686279510404310E-01 a      1023     1    10     2    23
 -3.3479315836460644E-01 a      1024     1    10     2    24
  2.3316932691167136E-01 a      1025     1    10     2    25
  5.1690319046522153E-02 a      1026     1    11     2     1
  3.0280809381366142E-01 a      1027     1    11     2     2
 -3.0819771383536709E-01 a      1028     1    11     2     3
  1.1205546585244136E-01 a      1029     1    11     2     4
 -1.6503699631292803E-02 a      1030     1    11     2     5
 -1.1240947719426915E-01 a      1031     1    11     2     6
 -2.0760933722549536E-02 a      1032     1    11     2     7
  2.2124151210464715E-01 a      1033     1    11     2     8
 -1.1614905255238099E-01 a      1034     1    11     2     9
 -1.4593813715638224E-01 a      1035     1    11     2    10
 -2.1135629551600427E-01 a      1036     1    11     2    11
 -2.3037085893915052E-01 a      1037     1    11     2    12
 -1.5476145390376089E-01 a      1038     1    11     2    13
  6.3796283728970851E-02 a      1039     1    11     2    14
 -2.1625791231471453E-01 a      1040     1    11     2    15
  2.5150980979312398E-01 a      1041     1    11     2    16
  2.6086052902023282E-01 a      1042     1    11     2    17
 -2.8137415735058968E-01 a      1043     1    11     2    18
 -2.7909453161090597E-01 a      1044     1    11     2    19
  2.9767726205975326E-01 a      1045     1    11     2    20
 -2.5364453760450006E-01 a      1046     1    11     2    21
  3.2605359550782020E-01 a      1047     1    11     2    22
  1.2023384971936810E-01 a      1048     1    11     2    23
  2.3133674353136013E-02 a      1049     1    11     2    24
  5.3922448388490883E-02 a      1050     1    11     2    25
  2.9232492830502244E-01 a      1051     1    12     2     1
  1.7700209465036792E-01 a      1052     1    12     2     2
 -3.2473104325853663E-01 a      1053     1    12     2     3
 -1.9472914213369732E-01 a      1054     1    12     2     4
 -1.0960640956864669E-01 a      1055     1    12     2     5
 -1.0019271032288941E-01 a      1056     1    12     2     6
 -2.7605537947400544E-01 a      1057     1    12     2     7
  3.4060652717367867E-01 a      1058     1    12     2     8
  2.2183395941439737E-01 a      1059     1    12     2     9
 -3.2700251747869044E-02 a      1060     1    12     2    10
  1.4080082060460309E-02 a      1061     1    12     2    11
 -2.2437198934644678E-01 a      1062     1    12     2    12
 -1.3653345837097977E-01 a      1063     1    12     2    13
  1.4189247713787408E-02 a      1064     1    12     2    14
  1.1887834942464691E-01 a      1065     1    12     2    15
  2.9764089000231263E-02 a      1066     1    12     2    16
  1.6006886941735070E-02 a      1067     1    12     2    17
 -1.3745381091509895E-01 a      1068     1    12     2    18
 -3.3549485196827579E-02 a      1069     1    12     2    19
  2.7078642127242769E-01 a      1070     1    12     2    20
 -1.5533195949980070E-02 a      1071     1    12     2    21
 -7.6988738216363539E-02 a      1072     1    12     2    22
  3.7423705832019127E-01 a      1073     1    12     2    23
 -3.0381104274115983E-01 a      1074     1    12     2    24
 -2.1911295799410427E-01 a      1075     1    12     2    25
 -2.7535765407078010E-02 a      1076     1    13     2     1
  5.2122415100674821E-02 a      1077     1    13     2     2
 -1.9694387340656514E-02 a      1078     1    13     2     3
 -5.9472328571138204E-02 a      1079     1    13     2     4
 -6.5341745839788121E-02 a      1080     1    13     2     5
  3.1993385789653206E-01 a      1081     1    13     2     6
  2.7019054062528441E-01 a      1082     1    13     2     7
  8.5885561386861833E-02 a      1083     1    13     2     8
 -5.7158492644121955E-03 a      1084     1    13     2     9
  1.0230998081463073E-01 a      1085     1    13     2    10
  3.1227824141994587E-01 a      1086     1    13     2    11
 -2.5819174417518875E-01 a      1087     1    13     2    12
 -2.7528302998738152E-01 a      1088     1    13     2    13
 -8.4416545812748683E-02 a      1089     1    13     2    14
  1.0627418822871554E-01 a      1090     1    13     2    15
  4.1851904632718290E-02 a      1091     1    13     2    16
 -6.4011817120438394E-02 a      1092     1    13     2    17
  2.2546197883719538E-01 a      1093     1    13     2    18
  3.0227245467332919E-01 a      1094     1    13     2    19
 -8.1194985865797303E-03 a      1095     1    13     2    20
  2.3774082210428510E-02 a      1096     1    13     2    21
 -1.6302816809481699E-01 a      1097     1    13     2    22
  1.5827085921867373E-01 a      1098     1    13     2    23
 -9.2852820897407082E-02 a      1099     1    13     2    24
 -2.0893056792834236E-01 a      1100     1    13     2    25
 -3.6183036810440633E-02 a      1101     1    14     2     1
  3.0017618956656211E-01 a      1102     1    14     2     2
  8.4804568878917658E-02 a      1103     1    14     2     3
 -5.2387870583017734E-02 a      1104     1    14     2     4
  1.1541453072825758E-01 a      1105     1    14     2     5
 -2.7554779059801471E-01 a      1106     1    14     2     6
 -2.5595482092918578E-02 a      1107     1    14     2     7
  7.4750394526499592E-02 a      1108     1    14     2     8
 -3.9138333006141453E-02 a      1109     1    14     2     9
  1.9461808462275590E-01 a      1110     1    14     2    10
  4.8606320645211434E-02 a      1111     1    14     2    11
  3.2474846007107055E-01 a      1112     1    14     2    12
 -2.6123261730187031E-01 a      1113     1    14     2    13
 -1.1364837563624268E-02 a      1114     1    14     2    14
  1.3966142251326330E-02 a      1115     1    14     2    15
 -2.3053067203869962E-01 a      1116     1    14     2    16
 -8.1656307845697801E-02 a      1117     1    14     2    17
 -3.4146590653866737E-01 a      1118     1    14     2    18
  2.3268956306669830E-01 a      1119     1    14     2    19
 -2.8911782190203933E-01 a      1120     1    14     2    20
 -2.5687922747012842E-01 a      1121     1    14     2    21
  2.6645066660840805E-01 a      1122     1    14     2    22
 -2.9789138796482578E-01 a      1123     1    14     2    23
 -1.1272023662420401E-01 a      1124     1    14     2    24
 -3.1474270330229726E-01 a      1125     1    14     2    25
 -1.1334122284675932E-01 a      1126     1    15     2     1
  9.9186285454444981E-02 a      1127     1    15     2     2
 -1.7929416344461455E-01 a      1128     1    15     2     3
  1.1822200133042800E-01 a      1129     1    15     2     4
  6.9694460472271250E-02 a      1130     1    15     2     5
 -1.5502011846831443E-01 a      1131     1    15     2     6
  3.3122933802667159E-01 a      1132     1    15     2     7
  2.3779345057655901E-01 a      1133     1    15     2     8
  7.0437234640431917E-02 a      1134     1    15     2     9
 -2.1625237804524500E-01 a      1135     1    15     2    10
 -1.1130949027443830E-01 a      1136     1    15     2    11
  8.1404131295915588E-02 a      1137     1    15     2    12
 -9.8672227706218987E-02 a      1138     1    15     2    13
  7.9504087931857162E-02 a      1139     1    15     2    14
  6.0509530919173299E-02 a      1140     1    15     2    15
  2.2798319999308533E-01 a      1141     1    15     2    16
 -2.2349211768785818E-01 a      1142     1    15     2    17
 -2.7966685878900621E-01 a      1143     1    15     2    18
 -1.6390208137233656E-01 a      1144     1    15     2    19
  4.7039480623153461E-02 a      1145     1    15     2    20
 -1.0915477609113784E-02 a      1146     1    15     2    21
  2.9799974547523039E-01 a      1147     1    15     2    22
 -6.8338858765331217E-02 a      1148     1    15     2    23
  2.6062437526842375E-01 a      1149     1    15     2    24
  3.5790954606100345E-01 a      1150     1    15     2    25
 -2.4387509183631115E-01 a      1151     1    16     2     1
  3.4356857331606638E-01 a      1152     1    16     2     2
  1.4005766858348853E-01 a      1153     1    16     2     3
 -1.2246274952062446E-01 a      1154     1    16     2     4
  3.2349474406914901E-02 a      1155     1    16     2     5
 -2.9879398221353465E-01 a      1156     1    16     2     6
  1.5413496841498636E-01 a      1157     1    16     2     7
  5.8697855543677097E-02 a      1158     1    16     2     8
  3.1475857282986197E-01 a      1159     1    16     2     9
 -1.5568051997951607E-01 a      1160     1    16     2    10
 -2.8093145218357385E-01 a      1161     1    16     2    11
 -2.4591362434747621E-01 a      1162     1    16     2    12
 -1.6186489225054740E-01 a      1163     1    16     2    13
 -2.9360624563003807E-01 a      1164     1    16     2    14
  2.1028656390103623E-01 a      1165     1    16     2    15
 -1.9830196652767192E-02 a      1166     1    16     2    16
 -1.4377114099045619E-02 a      1167     1    16     2    17
  1.4093842782600016E-01 a      1168     1    16     2    18
 -2.5211467510511093E-01 a      1169     1    16     2    19
  5.1523078996819606E-02 a      1170     1    16     2    20
  1.1738448871259149E-01 a      1171     1    16     2    21
  3.6482170638640787E-02 a      1172     1    16     2    22
  1.9714242118332109E-01 a      1173     1    16     2    23
 -2.1530278250435519E-01 a      1174     1    16     2    24
  2.3062610976403033E-01 a      1175     1    16     2    25
 -2.9919391525736579E-02 a      1176     1    17     2     1
 -1.7872374340040786E-01 a      1177     1    17     2     2
 -3.0687139250295992E-01 a      1178     1    17     2     3
  1.5691271284718192E-01 a      1179     1    17     2     4
  2.0809663376563987E-02 a      1180     1    17     2     5
 -2.1664922698360536E-02 a      1181     1    17     2     6
 -2.0676309941965282E-01 a      1182     1    17     2     7
  9.9166009121855747E-02 a      1183     1    17     2     8
  7.9691132629391218E-02 a      1184     1    17     2     9
 -6.2419060940434749E-02 a      1185     1    17     2    10
  6.5606202096593319E-02 a      1186     1    17     2    11
 -4.5636714226912491E-02 a      1187     1    17     2    12
  2.1499288206162964E-01 a      1188     1    17     2    13
  3.0627006806982326E-01 a      1189     1    17     2    14
  2.3363009483063371E-01 a      1190     1    17     2    15
  1.1524786783157300E-02 a      1191     1    17     2    16
  3.2968229226535928E-01 a      1192     1    17     2    17
  1.0110046763339746E-01 a      1193     1    17     2    18
 -1.4953647305909961E-02 a      1194     1    17     2    19
 -1.2941868096827464E-01 a      1195     1    17     2    20
 -2.2652561999104856E-01 a      1196     1    17     2    21
  1.5904142401191917E-01 a      1197     1    17     2    22
  9.4313484120813598E-02 a      1198     1    17     2    23
 -3.6015760731999463E-01 a      1199     1    17     2    24
  5.2737200808986362E-02 a      1200     1    17     2    25
  1.8210337608983157E-01 a      1201     1    18     2     1
 -1.6171266866755940E-01 a      1202     1    18     2     2
  2.5549689080508903E-01 a      1203     1    18     2     3
  2.5529214882048862E-01 a      1204     1    18     2     4
  6.1375655769260989E-02 a      1205     1    18     2     5
  3.0271269206841123E-01 a      1206     1    18     2     6
  3.3269126235749608E-01 a      1207     1    18     2     7
 -1.0985195892630516E-01 a      1208     1    18     2     8
  1.8353169478256090E-01 a      1209     1    18     2     9
  2.9737172756314222E-02 a      1210     1    18     2    10
  4.5788725277464706E-02 a      1211     1    18     2    11
 -1.5689159102456992E-02 a      1212     1    18     2    12
 -4.0838022803429941E-01 a      1213     1    18     2    13
 -3.1925208449969267E-01 a      1214     1    18     2    14
  7.6517166357158994E-02 a      1215     1    18     2    15
 -2.9232402451859119E-01 a      1216     1    18     2    16
  1.7864614145241714E-01 a      1217     1    18     2    17
  1.3391494590830841E-01 a      1218     1    18     2    18
 -1.8515270822467453E-01 a      1219     1    18     2    19
 -2.5695617837537699E-01 a      1220     1    18     2    20
 -2.4186484518580814E-01 a      1221     1    18     2    21
 -6.3512503467310369E-02 a      1222     1    18     2    22
  1.5103298684688479E-01 a      1223     1    18     2    23
 -1.9687097452429458E-01 a      1224     1    18     2    24
 -1.1342549511376458E-01 a      1225     1    18     2    25
  9.5814342961675292E-02 a      1226     1    19     2     1
  1.6983444002918280E-01 a      1227     1    19     2     2
  1.8897549030975966E-01 a      1228     1    19     2     3
  2.6643370472363859E-01 a      1229     1    19     2     4
  1.8861409559262135E-01 a      1230     1    19     2     5
 -2.7167969749485460E-01 a      1231     1    19     2     6
 -2.9044265485260701E-01 a      1232     1    19     2     7
 -2.5062765056658298E-01 a      1233     1    19     2     8
 -6.3311877426823454E-02 a      1234     1    19     2     9
  4.9629505099021802E-02 a      1235     1    19     2    10
  1.7721919401330505E-01 a      1236     1    19     2    11
  2.0220698102081762E-02 a      1237     1    19     2    12
  5.0588386754688141E-03 a      1238     1    19     2    13
  2.0170237677969494E-01 a      1239     1    19     2    14
  1.5458202671121396E-01 a      1240     1    19     2    15
 -1.8572390217786106E-02 a      1241     1    19     2    16
  9.5946974767367910E-02 a      1242     1    19     2    17
  2.2754024161370820E-01 a      1243     1    19     2    18
 -2.7571885061526530E-01 a      1244     1    19     2    19
 -1.0787157948804840E-01 a      1245     1    19     2    20
 -2.7387604722716186E-01 a      1246     1    19     2    21
  1.2252681695719360E-01 a      1247     1    19     2    22
  9.4235357875603297E-03 a      1248     1    19     2    23
  1.1598459973600166E-01 a      1249     1    19     2    24
 -1.6360500772242537E-01 a      1250     1    19     2    25
  1.2928631203557065E-02 a      1251     1    20     2     1
 -1.9819497039852454E-01 a      1252     1    20     2     2
  5.0966211064670764E-03 a      1253     1    20     2     3
 -3.1975352051082001E-01 a      1254     1    20     2     4
  2.7583748143866366E-01 a      1255     1    20     2     5
  1.0183630687187116E-01 a      1256     1    20     2     6
  2.5919823786904672E-01 a      1257     1    20     2     7
 -3.4207737742664189E-02 a      1258     1    20     2     8
 -7.9472393166529195E-02 a      1259     1    20     2     9
  2.7925802361998386E-01 a      1260     1    20     2    10
  1.1817647247176466E-01 a      1261     1    20     2    11
  2.6216778459450046E-01 a      1262     1    20     2    12
  2.5050377778087363E-01 a      1263     1    20     2    13
  3.8572083231587641E-03 a      1264     1    20     2    14
 -8.6762994087817957E-02 a      1265     1    20     2    15
 -1.2382796494454892E-01 a      1266     1    20     2    16
 -5.0433571815679965E-02 a      1267     1    20     2    17
 -4.1212845948477919E-02 a      1268     1    20     2    18
  2.4052944740198612E-01 a      1269     1    20     2    19
  1.0509419936509725E-02 a      1270     1    20     2    20
  2.1374247636540025E-01 a      1271     1    20     2    21
 -6.3478598341214854E-03 a      1272     1    20     2    22
 -2.6168866666098051E-01 a      1273     1    20     2    23
 -1.6326665342711881E-03 a      1274     1    20     2    24
  3.9582229617221110E-01 a      1275     1    20     2    25
  2.8177526268513203E-01 a      1276     1    21     2     1
 -3.3365085313868759E-01 a      1277     1    21     2     2
  2.4041858810359060E-01 a      1278     1    21     2     3
 -2.4741455893059744E-01 a      1279     1    21     2     4
  1.6861658036447374E-01 a      1280     1    21     2     5
  3.4403066537734156E-01 a      1281     1    21     2     6
 -2.8006384395828310E-01 a      1282     1    21     2     7
 -1.9095167546853184E-01 a      1283     1    21     2     8
 -1.4748811699818226E-01 a      1284     1    21     2     9
 -2.4973108028069529E-01 a      1285     1    21     2    10
  3.2220587690764119E-01 a      1286     1    21     2    11
  8.5237288741718306E-02 a      1287     1    21     2    12
 -3.8278974269857928E-02 a      1288     1    21     2    13
  2.0384597798600565E-01 a      1289     1    21     2    14
  4.3815293857801106E-02 a      1290     1    21     2    15
 -1.5312927129569417E-01 a      1291     1    21     2    16
 -1.9954170238086205E-01 a      1292     1    21     2    17
 -1.1923150254689981E-01 a      1293     1    21     2    18
  2.4204089407085869E-01 a      1294     1    21     2    19
  8.9267455113413635E-02 a      1295     1    21     2    20
  2.5148450523767088E-02 a      1296     1    21     2    21
  3.1646063091000809E-01 a      1297     1    21     2    22
 -2.4121487207653708E-01 a      1298     1    21     2    23
  1.9795395305771856E-02 a      1299     1    21     2    24
 -9.9628335834458626E-02 a      1300     1    21     2    25
  1.7545164462117324E-01 a      1301     1    22     2     1
  1.2286502483429720E-01 a      1302     1    22     2     2
 -3.0509985994621940E-02 a      1303     1    22     2     3
  8.7587667147222825E-02 a      1304     1    22     2     4
 -1.1081016590208413E-01 a      1305     1    22     2     5
  1.0492928165464833E-01 a      1306     1    22     2     6
 -3.7395603636749325E-01 a      1307     1    22     2     7
  2.3911087595490735E-01 a      1308     1    22     2     8
  1.6432439191150014E-01 a      1309     1    22     2     9
  2.1338165405970991E-01 a      1310     1    22     2    10
 -1.5585726243170198E-01 a      1311     1    22     2    11
 -2.7012573715462629E-01 a      1312     1    22     2    12
  1.8697243855061671E-01 a      1313     1    22     2    13
  3.4346594194368768E-01 a      1314     1    22     2    14
 -3.1886227653777371E-01 a      1315     1    22     2    15
 -1.6115886345052935E-01 a      1316     1    22     2    16
  1.6948024452439755E-02 a      1317     1    22     2    17
 -2.5214166241800240E-01 a      1318     1    22     2    18
 -2.6422550680653314E-02 a      1319     1    22     2    19
  1.0729310709968647E-01 a      1320     1    22     2    20
 -9.2544913669555071E-02 a      1321     1    22     2    21
 -2.6687452502098685E-01 a      1322     1    22     2    22
  2.4235637166297136E-01 a      1323     1    22     2    23
 -1.1404401644502986E-01 a      1324     1    22     2    24
  3.3399694282792158E-01 a      1325     1    22     2    25
 -2.6484651575208107E-01 a      1326     1    23     2     1
 -3.1094808363456555E-01 a      1327     1    23     2     2
 -1.5118708932989069E-01 a      1328     1    23     2     3
 -2.8267535311058761E-01 a      1329     1    23     2     4
 -2.5226318655753081E-02 a      1330     1    23     2     5
  4.1282225920170321E-02 a      1331     1    23     2     6
  1.3215415477155257E-01 a      1332     1    23     2     7
  2.9235206382523615E-01 a      1333     1    23     2     8
 -2.9735547141326180E-01 a      1334     1    23     2     9
 -2.6590542092395603E-01 a      1335     1    23     2    10
 -8.6049680077942378E-02 a      1336     1    23     2    11
 -1.0399491002458164E-02 a      1337     1    23     2    12
 -1.8017378463908354E-01 a      1338     1    23     2    13
  2.4010090652243243E-02 a      1339     1    23     2    14
  2.8913582061637555E-01 a      1340     1    23     2    15
  2.1896347132451305E-01 a      1341     1    23     2    16
  1.7099133236216593E-01 a      1342     1    23     2    17
 -1.3421409346643898E-01 a      1343     1    23     2    18
 -1.5999262622822563E-01 a      1344     1    23     2    19
  3.3791816264081065E-01 a      1345     1    23     2    20
  1.4498330011016697E-01 a      1346     1    23     2    21
 -2.1768117472876125E-01 a      1347     1    23     2    22
  1.9210566203989071E-01 a      1348     1    23     2    23
 -2.0754238258625118E-01 a      1349     1    23     2    24
 -2.4814571665425558E-01 a      1350     1    23     2    25
 -1.0719668433965085E-01 a      1351     1    24     2     1
  2.1545603487960277E-01 a      1352     1    24     2     2
 -7.0290843228631120E-02 a      1353     1    24     2     3
  1.0300152699121017E-01 a      1354     1    24     2     4
  2.9631362514988043E-02 a      1355     1    24     2     5
 -2.3574678374634769E-01 a      1356     1    24     2     6
  3.2327181389927701E-01 a      1357     1    24     2     7
 -3.0993742310398997E-01 a      1358     1    24     2     8
 -7.2192872418767040E-02 a      1359     1    24     2     9
 -2.7691378926606885E-01 a      1360     1    24     2    10
  4.6612326556993822E-02 a      1361     1    24     2    11
  3.0557272434203886E-01 a      1362     1    24     2    12
  3.1705183320651031E-03 a      1363     1    24     2    13
 -3.6088094214725558E-02 a      1364     1    24     2    14
 -2.1185817346863192E-01 a      1365     1    24     2    15
 -1.8331952011881139E-01 a      1366     1    24     2    16
 -6.3111578550769182E-02 a      1367     1    24     2    17
 -1.6837375088755208E-01 a      1368     1    24     2    18
 -1.2716374574984113E-01 a      1369     1    24     2    19
 -2.1526012576317000E-01 a      1370     1    24     2    20
  1.7192331408899292E-01 a      1371     1    24     2    21
 -2.0158206354496860E-01 a      1372     1    24     2    22
 -2.6158202247861301E-01 a      1373     1    24     2    23
  2.6719267003888426E-02 a      1374     1    24     2    24
 -6.3339489005387245E-02 a      1375     1    24     2    25
  3.0574146759283194E-01 a      1376     1    25     2     1
 -1.1816984595243822E-01 a      1377     1    25     2     2
  2.9071158752455856E-01 a      1378     1    25     2     3
 -1.9510582766855969E-01 a      1379     1    25     2     4
 -2.5650095178369503E-01 a      1380     1    25     2     5
  1.4292171436632492E-01 a      1381     1    25     2     6
  1.0494069994773625E-02 a      1382     1    25     2     7
  3.7477851631142040E-01 a      1383     1    25     2     8
  1.2450357261543600E-01 a      1384     1    25     2     9
  1.2549510683870782E-01 a      1385     1    25     2    10
  3.0380582819779645E-01 a      1386     1    25     2    11
 -2.0464654090852387E-02 a      1387     1    25     2    12
  9.8879437621618316E-03 a      1388     1    25     2    13
  2.0651403379942390E-01 a      1389     1    25     2    14
 -1.1240714767973850E-01 a      1390     1    25     2    15
  1.0022935174056544E-01 a      1391     1    25     2    16
  1.5888657439208681E-01 a      1392     1    25     2    17
  2.9225661189660490E-01 a      1393     1    25     2    18
 -2.5913799742251559E-01 a      1394     1    25     2    19
  1.6491615884780833E-01 a      1395     1    25     2    20
 -6.7022091363723349E-02 a      1396     1    25     2    21
 -2.7695807209931550E-01 a      1397     1    25     2    22
  9.9596410121092313E-02 a      1398     1    25     2    23
  1.5884717055360212E-01 a      1399     1    25     2    24
 -1.6628186706912698E-01 a      1400     1    25     2    25
 -2.5087498931670855E-02 b      1401     2     1
  1.1819900963441377E-02 b      1402     2     2
 -2.4906955456841420E-02 b      1403     2     3
  5.0105124693401663E-02 b      1404     2     4
  1.1674687181042166E-01 b      1405     2     5
  6.9927709604960323E-02 b      1406     2     6
 -1.1044782745265214E-03 b      1407     2     7
  7.9493645228546871E-03 b      1408     2     8
  4.5670635982417961E-02 b      1409     2     9
 -5.6395278898666787E-02 b      1410     2    10
  1.6419294973704462E-02 b      1411     2    11
 -6.6590263349732851E-02 b      1412     2    12
 -1.1867997838488041E-02 b      1413     2    13
  6.1969088649029488E-02 b      1414     2    14
 -3.9202487526481068E-02 b      1415     2    15
  3.2639405604685208E-02 b      1416     2    16
 -1.8153124975506040E-02 b      1417     2    17
 -1.3754639478388916E-02 b      1418     2    18
 -5.0395117630355125E-02 b      1419     2    19
 -4.5002276640835913E-02 b      1420     2    20
 -1.7230951966951246E-02 b      1421     2    21
  6.2874952948237060E-03 b      1422     2    22
  1.6408123205488182E-02 b      1423     2    23
  9.6683689876267045E-03 b      1424     2    24
  1.6892082366748076E-02 b      1425     2    25
 -2.8296573977133055E-01 a      1426     2     1     3     1
 -4.9633941274777431E-02 a      1427     2     2     3     1
  3.4287652556775644E-01 a      1428     2     3     3     1
 -2.1524779536080094E-02 a      1429     2     4     3     1
 -6.4462434027506033E-01 a      1430     2     5     3     1
  4.1919612825938202E-01 a      1431     2     6     3     1
 -5.5362401117239768E-01 a      1432     2     7     3     1
  9.0291912194286239E-01 a      1433     2     8     3     1
  1.3560192849775191E-01 a      1434     2     9     3     1
  7.6458598884673531E-02 a      1435     2    10     3     1
 -8.2274354647834325E-01 a      1436     2    11     3     1
 -1.6458470155456537E-01 a      1437     2    12     3     1
  8.9396347731129988E-01 a      1438     2    13     3     1
 -5.9718855884491528E-01 a      1439     2    14     3     1
 -8.7538878604657688E-01 a      1440     2    15     3     1
 -6.7728131021925320E-01 a      1441     2    16     3     1
  9.1350059568092834E-01 a      1442     2    17     3     1
  6.4980197692056840E-01 a      1443     2    18     3     1
  4.5424405598302381E-01 a      1444     2    19     3     1
 -6.8769023486911485E-01 a      1445     2    20     3     1
  6.8371556854615467E-01 a      1446     2    21     3     1
  4.8298603479114255E-01 a      1447     2    22     3     1
  6.7803500786350668E-02 a      1448     2    23     3     1
  8.0440402355395624E-02 a      1449     2    24     3     1
 -9.5397700496764448E-01 a      1450     2    25     3     1
  2.5905163706212788E-02 b      1451     3     1
