################################################################################
# Neural network connection values (weights and biases).
################################################################################
# Col  Name       Description
################################################################################
# 1    connection Neural network connection value.
# 2    t          Connection type (a = weight, b = bias).
# 3    index      Index enumerating weights.
# 4    l_s        Starting point layer (end point layer for biases).
# 5    n_s        Starting point neuron in starting layer (end point neuron for biases).
# 6    l_e        End point layer.
# 7    n_e        End point neuron in end layer.
################################################################################
#                      1 2         3     4     5     6     7
#             connection t     index   l_s   n_s   l_e   n_e
############################################################
  1.8233582653641855E-01 a         1     0     1     1     1
  1.5488438271798527E-01 a         2     0     1     1     2
 -3.2522445417671741E-01 a         3     0     1     1     3
 -1.9280552094951042E-01 a         4     0     1     1     4
 -7.4113708689999808E-02 a         5     0     1     1     5
 -1.4757824313392059E-01 a         6     0     1     1     6
 -2.8968860854252282E-01 a         7     0     1     1     7
  1.3860035587165290E-01 a         8     0     1     1     8
  1.7713111185510236E-01 a         9     0     1     1     9
 -2.6143681315185519E-03 a        10     0     1     1    10
 -2.0306367599235015E-02 a        11     0     2     1     1
 -3.1716086960463152E-01 a        12     0     2     1     2
  2.7106973082669378E-01 a        13     0     2     1     3
  1.8159258516689261E-01 a        14     0     2     1     4
  4.1422848971379110E-04 a        15     0     2     1     5
  1.6787369955620794E-02 a        16     0     2     1     6
  4.4099447264745767E-02 a        17     0     2     1     7
  4.6155506613619557E-02 a        18     0     2     1     8
 -5.3952483015188894E-02 a        19     0     2     1     9
  1.8825018181463080E-01 a        20     0     2     1    10
  1.9338018466457696E-01 a        21     0     3     1     1
 -2.9598661495987728E-02 a        22     0     3     1     2
 -7.2269900989028815E-02 a        23     0     3     1     3
 -8.6756113853068112E-02 a        24     0     3     1     4
  8.0224910634461064E-02 a        25     0     3     1     5
 -1.7452950210151016E-01 a        26     0     3     1     6
  1.0103800647436757E-02 a        27     0     3     1     7
 -2.4574507467331080E-01 a        28     0     3     1     8
  1.4807574653393532E-01 a        29     0     3     1     9
  2.7120172918449303E-01 a        30     0     3     1    10
 -9.7170322502494882E-03 a        31     0     4     1     1
  3.7976713034205530E-02 a        32     0     4     1     2
  1.6452778023125975E-01 a        33     0     4     1     3
  1.6112488660596450E-01 a        34     0     4     1     4
  7.6916291458376557E-02 a        35     0     4     1     5
 -5.5496291907111521E-03 a        36     0     4     1     6
  2.5997901221151865E-01 a        37     0     4     1     7
 -2.5619321851205007E-01 a        38     0     4     1     8
  1.1864549802057076E-01 a        39     0     4     1     9
  1.1531745827828076E-01 a        40     0     4     1    10
  1.0323381625167284E-01 a        41     0     5     1     1
  1.2643677221021304E-01 a        42     0     5     1     2
 -3.8203501592069665E-02 a        43     0     5     1     3
  1.7214052186668791E-01 a        44     0     5     1     4
  2.0672129041929102E-01 a        45     0     5     1     5
  2.1818296423761485E-01 a        46     0     5     1     6
  2.0478171888101018E-01 a        47     0     5     1     7
  1.8553280912064951E-01 a        48     0     5     1     8
  1.7069915144876144E-01 a        49     0     5     1     9
 -2.1201464590419739E-01 a        50     0     5     1    10
  4.2264434964465580E-01 a        51     0     6     1     1
 -1.5458968300611403E-01 a        52     0     6     1     2
 -5.3298972053037859E-02 a        53     0     6     1     3
  3.2322209412423802E-01 a        54     0     6     1     4
 -1.5893429309672319E-01 a        55     0     6     1     5
 -2.3082738144945628E-01 a        56     0     6     1     6
  1.3749143840021241E-01 a        57     0     6     1     7
  3.3015457207303456E-01 a        58     0     6     1     8
 -1.3144355539982609E-02 a        59     0     6     1     9
  4.5181128120622353E-02 a        60     0     6     1    10
 -1.9168223810650822E-01 a        61     0     7     1     1
 -1.4431343528714716E-01 a        62     0     7     1     2
 -2.1564685550420951E-01 a        63     0     7     1     3
 -1.6446706605613712E-01 a        64     0     7     1     4
 -2.0341013725950283E-01 a        65     0     7     1     5
 -2.1825943914783807E-01 a        66     0     7     1     6
 -8.9688975426734055E-02 a        67     0     7     1     7
  2.0222475435650938E-01 a        68     0     7     1     8
 -1.0351442121783529E-01 a        69     0     7     1     9
  3.0920104287518535E-01 a        70     0     7     1    10
  6.4084729580689592E-01 a        71     0     8     1     1
  2.2819516855760935E-01 a        72     0     8     1     2
 -1.3132913408896049E-01 a        73     0     8     1     3
 -8.3085484513728117E-02 a        74     0     8     1     4
 -3.7554612200215833E-03 a        75     0     8     1     5
 -4.1215257076414095E-02 a        76     0     8     1     6
  4.0425545003265846E-02 a        77     0     8     1     7
 -3.0866782450539282E-01 a        78     0     8     1     8
 -3.1599507320627862E-01 a        79     0     8     1     9
 -3.9480078359728700E-02 a        80     0     8     1    10
  4.2291067398158383E-01 a        81     0     9     1     1
  2.8899113695741335E-01 a        82     0     9     1     2
 -2.8388524848870778E-01 a        83     0     9     1     3
 -1.9950731790033441E-02 a        84     0     9     1     4
 -1.8176936819455281E-01 a        85     0     9     1     5
 -8.7858180218811588E-02 a        86     0     9     1     6
 -9.5909363768992756E-02 a        87     0     9     1     7
 -2.2639102219622878E-01 a        88     0     9     1     8
 -2.7203452475424333E-01 a        89     0     9     1     9
  2.0487598310320643E-01 a        90     0     9     1    10
 -3.0620596021250186E-02 a        91     0    10     1     1
  2.7638886815830477E-01 a        92     0    10     1     2
 -7.9051003777020915E-02 a        93     0    10     1     3
  2.1983253107884318E-01 a        94     0    10     1     4
 -1.7280905404532784E-01 a        95     0    10     1     5
 -2.1069481123760705E-01 a        96     0    10     1     6
  2.6085783518177658E-01 a        97     0    10     1     7
  2.7493624803761907E-01 a        98     0    10     1     8
  1.4175685449084854E-01 a        99     0    10     1     9
 -6.4430914236727407E-02 a       100     0    10     1    10
  1.0711077678373473E-01 a       101     0    11     1     1
 -1.2172514702208886E-01 a       102     0    11     1     2
  2.1919486877551214E-01 a       103     0    11     1     3
 -1.3838199145028290E-02 a       104     0    11     1     4
 -2.3780734734577261E-01 a       105     0    11     1     5
  6.4705210146479800E-02 a       106     0    11     1     6
 -1.4022755368668882E-01 a       107     0    11     1     7
 -3.0057215330835003E-02 a       108     0    11     1     8
 -1.0065874363776599E-01 a       109     0    11     1     9
 -9.5086054336524103E-02 a       110     0    11     1    10
  1.4323582804600526E-01 a       111     0    12     1     1
  1.8201265061504235E-01 a       112     0    12     1     2
 -3.0928316283644125E-01 a       113     0    12     1     3
 -2.8295135741812768E-04 a       114     0    12     1     4
 -6.0598786660996530E-02 a       115     0    12     1     5
 -2.1450304246542592E-01 a       116     0    12     1     6
 -2.7106603088841180E-01 a       117     0    12     1     7
  1.5554343055126393E-01 a       118     0    12     1     8
  1.3655988359372453E-01 a       119     0    12     1     9
 -1.8399959605211177E-01 a       120     0    12     1    10
  1.6927218094527074E-01 a       121     0    13     1     1
 -1.4583265708505014E-01 a       122     0    13     1     2
 -2.1785686226631021E-01 a       123     0    13     1     3
  1.0017680806376213E-01 a       124     0    13     1     4
  3.5209309809335232E-02 a       125     0    13     1     5
 -6.0970491967294677E-02 a       126     0    13     1     6
  2.5107213263597411E-01 a       127     0    13     1     7
 -3.2495467766260914E-03 a       128     0    13     1     8
 -2.1859388196195265E-01 a       129     0    13     1     9
  1.8840884048481604E-01 a       130     0    13     1    10
 -2.2786531782203126E-01 a       131     0    14     1     1
  1.5271039438687356E-01 a       132     0    14     1     2
 -1.8138917099574559E-01 a       133     0    14     1     3
 -4.7802409006718810E-02 a       134     0    14     1     4
 -9.3491316518785936E-02 a       135     0    14     1     5
  3.6470361267130419E-01 a       136     0    14     1     6
  7.9643855372395614E-02 a       137     0    14     1     7
  2.4783179734090990E-01 a       138     0    14     1     8
  1.3169815938003862E-01 a       139     0    14     1     9
 -1.3438620765706108E-01 a       140     0    14     1    10
  6.7373244746137362E-01 a       141     0    15     1     1
 -9.6125018380088505E-03 a       142     0    15     1     2
  2.1046800779384833E-01 a       143     0    15     1     3
  3.4152003557126970E-01 a       144     0    15     1     4
 -3.2292259436624393E-01 a       145     0    15     1     5
  9.6029884687996267E-02 a       146     0    15     1     6
  2.3897793522191954E-01 a       147     0    15     1     7
  3.9066337893446051E-01 a       148     0    15     1     8
  1.6825065659419387E-02 a       149     0    15     1     9
 -8.5367344756121615E-06 a       150     0    15     1    10
  7.0184955579929584E-02 a       151     0    16     1     1
 -2.3156497193287418E-01 a       152     0    16     1     2
  8.6197239357361066E-02 a       153     0    16     1     3
 -2.1384053155634444E-01 a       154     0    16     1     4
 -1.8768079634123552E-02 a       155     0    16     1     5
 -1.3444751707444516E-01 a       156     0    16     1     6
 -3.2049862922756556E-01 a       157     0    16     1     7
 -1.0821314991983309E-01 a       158     0    16     1     8
  1.9422525484229142E-01 a       159     0    16     1     9
  3.7493731530826489E-02 a       160     0    16     1    10
  2.6512522733592053E-01 a       161     0    17     1     1
  2.1581644724453850E-01 a       162     0    17     1     2
 -3.3413562358287907E-01 a       163     0    17     1     3
  3.3169546482218954E-03 a       164     0    17     1     4
  1.6606635933782626E-01 a       165     0    17     1     5
  1.9737489993849144E-01 a       166     0    17     1     6
  9.2342484873729841E-02 a       167     0    17     1     7
  3.4095697030161222E-02 a       168     0    17     1     8
 -2.5339557037445748E-01 a       169     0    17     1     9
  1.1403666600046618E-01 a       170     0    17     1    10
  9.3688291042904853E-02 a       171     0    18     1     1
 -3.0464057807342065E-01 a       172     0    18     1     2
  1.6121454934410306E-01 a       173     0    18     1     3
  2.6583583261523186E-01 a       174     0    18     1     4
 -3.6333084384995898E-02 a       175     0    18     1     5
 -1.1672082935220783E-01 a       176     0    18     1     6
  1.2988957272327992E-01 a       177     0    18     1     7
  1.8879557443243864E-03 a       178     0    18     1     8
 -4.3792388648803093E-01 a       179     0    18     1     9
 -2.6090700083902391E-01 a       180     0    18     1    10
  1.0378066236185438E-01 a       181     0    19     1     1
  2.9123851530729322E-01 a       182     0    19     1     2
 -6.2860955893099160E-02 a       183     0    19     1     3
 -2.2296811273259168E-02 a       184     0    19     1     4
 -2.2347693563921255E-02 a       185     0    19     1     5
 -1.9855094868701612E-01 a       186     0    19     1     6
 -3.0933590699382996E-01 a       187     0    19     1     7
  4.4007153803716545E-02 a       188     0    19     1     8
  2.0195921132824435E-01 a       189     0    19     1     9
 -4.4433567776730343E-01 a       190     0    19     1    10
  1.5699999689406999E-01 a       191     0    20     1     1
  2.3689230153690111E-01 a       192     0    20     1     2
 -2.5867124320507129E-01 a       193     0    20     1     3
 -2.2216046139630175E-02 a       194     0    20     1     4
 -4.2830527936512708E-02 a       195     0    20     1     5
  5.4778477904401053E-02 a       196     0    20     1     6
  3.1458214512843879E-01 a       197     0    20     1     7
 -8.5252238315055406E-02 a       198     0    20     1     8
 -2.2947471083133172E-01 a       199     0    20     1     9
 -1.7921040123581275E-01 a       200     0    20     1    10
  3.5376879728296556E-01 a       201     0    21     1     1
  1.0243916237178326E-01 a       202     0    21     1     2
  2.1182532851466976E-01 a       203     0    21     1     3
  3.7694611271916550E-01 a       204     0    21     1     4
 -1.2372114191508340E-01 a       205     0    21     1     5
 -2.5637898468428488E-01 a       206     0    21     1     6
 -2.6411641948415104E-01 a       207     0    21     1     7
 -1.1549872773208321E-01 a       208     0    21     1     8
 -1.5408627842353558E-02 a       209     0    21     1     9
  4.1521816426209085E-02 a       210     0    21     1    10
 -8.9332105877576895E-02 a       211     0    22     1     1
  2.6663108036138206E-01 a       212     0    22     1     2
  2.8207854814325611E-01 a       213     0    22     1     3
 -2.1595068728992892E-01 a       214     0    22     1     4
 -1.0646806095476616E-01 a       215     0    22     1     5
 -4.4956267796464627E-01 a       216     0    22     1     6
 -8.8185739650148032E-02 a       217     0    22     1     7
  2.7361928524277473E-01 a       218     0    22     1     8
 -1.3945586810073124E-01 a       219     0    22     1     9
  1.6774026925582686E-01 a       220     0    22     1    10
 -3.5428927369770619E-01 a       221     0    23     1     1
 -7.4362632582419180E-02 a       222     0    23     1     2
 -1.7357085677009354E-01 a       223     0    23     1     3
  2.3105755712556705E-01 a       224     0    23     1     4
 -2.5066455397771342E-01 a       225     0    23     1     5
  1.8108481214015815E-01 a       226     0    23     1     6
  2.1205123909734289E-01 a       227     0    23     1     7
 -5.5540824061155028E-02 a       228     0    23     1     8
  1.8099382311122128E-01 a       229     0    23     1     9
  3.7105756332066980E-01 a       230     0    23     1    10
  1.3409096364483006E-01 a       231     0    24     1     1
 -9.1215980917025472E-02 a       232     0    24     1     2
  8.9794828514447225E-03 a       233     0    24     1     3
  3.4218177244160036E-01 a       234     0    24     1     4
 -2.0809533149289078E-01 a       235     0    24     1     5
  3.0116794185209800E-01 a       236     0    24     1     6
 -1.4756941698667694E-01 a       237     0    24     1     7
  1.2408745778036558E-01 a       238     0    24     1     8
  5.2415023749052214E-02 a       239     0    24     1     9
 -2.2006002869964209E-01 a       240     0    24     1    10
 -8.6251878390297632E-02 a       241     0    25     1     1
  2.7610584600431465E-01 a       242     0    25     1     2
 -4.6804907209901884E-03 a       243     0    25     1     3
 -8.9424723918937521E-02 a       244     0    25     1     4
  1.0132883782133405E-01 a       245     0    25     1     5
  1.5110954825736095E-01 a       246     0    25     1     6
  1.4492915381504071E-01 a       247     0    25     1     7
  3.1222037648259909E-01 a       248     0    25     1     8
  9.2952560237540421E-02 a       249     0    25     1     9
 -1.4922004650446302E-01 a       250     0    25     1    10
 -8.8761771315114760E-03 a       251     0    26     1     1
  1.4373866960186774E-01 a       252     0    26     1     2
 -2.8319233944380034E-01 a       253     0    26     1     3
 -3.6659746165457419E-02 a       254     0    26     1     4
 -2.0100979464925378E-01 a       255     0    26     1     5
 -5.8843118376907123E-02 a       256     0    26     1     6
 -3.2975506941427696E-01 a       257     0    26     1     7
  1.3652136249389182E-01 a       258     0    26     1     8
  1.8108083397965843E-01 a       259     0    26     1     9
 -9.0477044585308281E-02 a       260     0    26     1    10
  2.5540206868493419E-02 a       261     0    27     1     1
 -2.3834491933229285E-01 a       262     0    27     1     2
 -2.0334248537001584E-01 a       263     0    27     1     3
  1.3657426178183360E-01 a       264     0    27     1     4
 -1.8859625884014705E-01 a       265     0    27     1     5
 -2.4612286385301670E-02 a       266     0    27     1     6
 -1.2895735647688946E-03 a       267     0    27     1     7
  6.9793783259843839E-02 a       268     0    27     1     8
 -2.4077896563062659E-01 a       269     0    27     1     9
 -1.3824872414914069E-01 a       270     0    27     1    10
 -2.0683364424713563E-01 b       271     1     1
  1.3169530876960364E-01 b       272     1     2
  2.6617325086000848E-01 b       273     1     3
 -1.4483649775179683E-01 b       274     1     4
  3.2561742036183322E-01 b       275     1     5
 -2.1509985606714607E-01 b       276     1     6
 -1.4480840255630847E-01 b       277     1     7
 -2.6869267640628480E-01 b       278     1     8
  4.0667857785663902E-01 b       279     1     9
  3.1298007533018146E-01 b       280     1    10
  1.6084650516044626E-02 a       281     1     1     2     1
  9.1276382322166760E-01 a       282     1     1     2     2
  1.9058523015855804E-02 a       283     1     1     2     3
  2.7412835835774046E-01 a       284     1     1     2     4
  6.4210632040831675E-02 a       285     1     1     2     5
 -1.2230163833270791E-01 a       286     1     1     2     6
 -2.4323941098667071E-01 a       287     1     1     2     7
  8.7124470082917432E-02 a       288     1     1     2     8
  4.9301927648288102E-01 a       289     1     1     2     9
 -1.4156541515037091E-01 a       290     1     1     2    10
  2.4831846127823382E-01 a       291     1     2     2     1
 -1.6204150392550354E-01 a       292     1     2     2     2
  5.1426332015725870E-02 a       293     1     2     2     3
 -2.5312789302147137E-01 a       294     1     2     2     4
  3.0854167323442461E-01 a       295     1     2     2     5
 -7.5695980021539627E-02 a       296     1     2     2     6
  1.9772128796754643E-01 a       297     1     2     2     7
 -1.1242351899336620E-02 a       298     1     2     2     8
  8.5395012717201929E-02 a       299     1     2     2     9
  3.9050211084130754E-01 a       300     1     2     2    10
 -1.4806843321490429E-01 a       301     1     3     2     1
  2.0570345772719784E-02 a       302     1     3     2     2
  7.7397807307553980E-03 a       303     1     3     2     3
 -2.3462125127837397E-01 a       304     1     3     2     4
  3.3096976586512422E-01 a       305     1     3     2     5
  2.9527718651341522E-01 a       306     1     3     2     6
  5.9556135156061563E-02 a       307     1     3     2     7
 -2.1975680067251871E-01 a       308     1     3     2     8
 -2.5063702213264011E-01 a       309     1     3     2     9
 -6.1946597819699141E-02 a       310     1     3     2    10
  2.4283375676849656E-01 a       311     1     4     2     1
  7.3216258313621191E-02 a       312     1     4     2     2
  2.8269596494366223E-01 a       313     1     4     2     3
  2.6487940641266844E-01 a       314     1     4     2     4
 -1.5248704922813028E-01 a       315     1     4     2     5
  9.4651925840852514E-03 a       316     1     4     2     6
  3.2809289454594509E-01 a       317     1     4     2     7
 -2.2095812897047157E-01 a       318     1     4     2     8
  5.1784149826015480E-02 a       319     1     4     2     9
  4.1716464232728059E-03 a       320     1     4     2    10
  3.5484517782329855E-01 a       321     1     5     2     1
  2.9946458549875338E-02 a       322     1     5     2     2
  6.5790512303517415E-02 a       323     1     5     2     3
 -1.8789987166527350E-01 a       324     1     5     2     4
 -1.2617862642943725E-01 a       325     1     5     2     5
  7.4938413106213311E-02 a       326     1     5     2     6
 -1.6460289449636423E-01 a       327     1     5     2     7
 -4.7884975430810599E-02 a       328     1     5     2     8
 -1.0484932732944567E-01 a       329     1     5     2     9
 -8.9370925799427972E-02 a       330     1     5     2    10
 -2.3672600208107031E-01 a       331     1     6     2     1
 -8.6303137756397114E-02 a       332     1     6     2     2
 -3.7298784369213100E-01 a       333     1     6     2     3
  3.2076829861312051E-01 a       334     1     6     2     4
  5.7203180069284078E-02 a       335     1     6     2     5
  2.3762006951376535E-02 a       336     1     6     2     6
  2.4209162846287191E-01 a       337     1     6     2     7
 -3.1708386024985319E-01 a       338     1     6     2     8
 -1.2536219453058228E-01 a       339     1     6     2     9
 -1.7810408919368803E-01 a       340     1     6     2    10
  2.3145111122060341E-01 a       341     1     7     2     1
  2.0013533511903608E-01 a       342     1     7     2     2
 -6.9675678796631196E-02 a       343     1     7     2     3
  1.4200075145233193E-01 a       344     1     7     2     4
  1.1133900895822713E-01 a       345     1     7     2     5
  3.1557657926675958E-01 a       346     1     7     2     6
 -1.9277365082208972E-01 a       347     1     7     2     7
 -2.1042240926670008E-01 a       348     1     7     2     8
  1.0806678282528821E-03 a       349     1     7     2     9
  1.6743947573825085E-01 a       350     1     7     2    10
 -2.1247062095046823E-01 a       351     1     8     2     1
  3.8817706000152774E-01 a       352     1     8     2     2
  3.2532925585570865E-01 a       353     1     8     2     3
 -5.9389743223049359E-02 a       354     1     8     2     4
 -9.3384284691559669E-02 a       355     1     8     2     5
 -1.5265684681013275E-01 a       356     1     8     2     6
 -1.9123777290913843E-01 a       357     1     8     2     7
 -2.1277796028010645E-01 a       358     1     8     2     8
 -8.3667838949072315E-02 a       359     1     8     2     9
  2.1844302949774919E-01 a       360     1     8     2    10
  5.7650955096208482E-02 a       361     1     9     2     1
 -1.4667520510763163E-01 a       362     1     9     2     2
  2.3347630883416243E-01 a       363     1     9     2     3
 -2.1331420445117472E-01 a       364     1     9     2     4
  1.0672729327406241E-01 a       365     1     9     2     5
 -1.7520488276511689E-01 a       366     1     9     2     6
 -3.2511369395944606E-01 a       367     1     9     2     7
 -7.5020458353514508E-02 a       368     1     9     2     8
  5.6160758040294148E-02 a       369     1     9     2     9
 -1.0122915491092382E-01 a       370     1     9     2    10
  3.6424312788663055E-01 a       371     1    10     2     1
 -1.9019080916472636E-01 a       372     1    10     2     2
 -3.0458387488897515E-01 a       373     1    10     2     3
 -2.0933976814917801E-01 a       374     1    10     2     4
 -1.6321443780175762E-01 a       375     1    10     2     5
  8.3086037767799534E-02 a       376     1    10     2     6
  1.0356208778680608E-01 a       377     1    10     2     7
 -6.0122941909792380E-02 a       378     1    10     2     8
 -3.1247231993966468E-01 a       379     1    10     2     9
  2.0434618525999507E-01 a       380     1    10     2    10
 -4.3969586344574006E-02 b       381     2     1
  2.0499153542131202E-01 b       382     2     2
  3.6355344666970531E-03 b       383     2     3
 -1.1103944391963252E-01 b       384     2     4
  3.2056427918210430E-02 b       385     2     5
  7.9868973693189224E-02 b       386     2     6
 -6.3877079463073860E-02 b       387     2     7
  5.7401888642974221E-02 b       388     2     8
  9.8965589756143252E-02 b       389     2     9
 -1.3943232994969540E-01 b       390     2    10
 -1.8727946764309195E-01 a       391     2     1     3     1
  3.7979208440478640E-01 a       392     2     2     3     1
 -1.2160273703553795E-01 a       393     2     3     3     1
  2.6200797974050788E-01 a       394     2     4     3     1
  2.7125847274988546E-01 a       395     2     5     3     1
  2.9957354499933933E-02 a       396     2     6     3     1
 -3.9523826348444657E-01 a       397     2     7     3     1
 -4.0515172419491297E-01 a       398     2     8     3     1
  4.6870962202882858E-02 a       399     2     9     3     1
 -3.1248607932315831E-01 a       400     2    10     3     1
 -1.3262906349021042E-01 b       401     3     1
