################################################################################
# Neural network connection values (weights and biases).
################################################################################
# Col  Name       Description
################################################################################
# 1    connection Neural network connection value.
# 2    t          Connection type (a = weight, b = bias).
# 3    index      Index enumerating weights.
# 4    l_s        Starting point layer (end point layer for biases).
# 5    n_s        Starting point neuron in starting layer (end point neuron for biases).
# 6    l_e        End point layer.
# 7    n_e        End point neuron in end layer.
################################################################################
#                      1 2         3     4     5     6     7
#             connection t     index   l_s   n_s   l_e   n_e
############################################################
  2.3227942714707811E-01 a         1     0     1     1     1
  2.1476574592839340E-01 a         2     0     1     1     2
 -3.6208914533274994E-01 a         3     0     1     1     3
 -2.3826612118962792E-01 a         4     0     1     1     4
 -8.3322648265833008E-02 a         5     0     1     1     5
 -2.6350651001640713E-01 a         6     0     1     1     6
 -3.1137834675423504E-01 a         7     0     1     1     7
  1.8733241896068697E-01 a         8     0     1     1     8
  3.5195270745990398E-01 a         9     0     1     1     9
  1.5499693944366125E-01 a        10     0     1     1    10
 -1.6069976823443247E-01 a        11     0     2     1     1
 -3.9509276595686488E-01 a        12     0     2     1     2
  3.6347309399295374E-01 a        13     0     2     1     3
  2.6438066786483039E-01 a        14     0     2     1     4
  1.3386456172383114E-02 a        15     0     2     1     5
 -2.1254543953084570E-02 a        16     0     2     1     6
  8.4116343490951859E-02 a        17     0     2     1     7
  1.2574333059073844E-01 a        18     0     2     1     8
 -7.4788667183986086E-03 a        19     0     2     1     9
  2.7449369361141207E-01 a        20     0     2     1    10
  1.6422882575662656E-01 a        21     0     3     1     1
 -5.1336023231779659E-02 a        22     0     3     1     2
 -9.9215378855185235E-02 a        23     0     3     1     3
 -1.3596715108111346E-01 a        24     0     3     1     4
  1.2975930197080726E-01 a        25     0     3     1     5
 -1.4318484033098380E-01 a        26     0     3     1     6
  3.5102176928325452E-03 a        27     0     3     1     7
 -2.5297862988690339E-01 a        28     0     3     1     8
  2.4518981908302381E-01 a        29     0     3     1     9
  3.5406418260801686E-01 a        30     0     3     1    10
 -2.3288518330249100E-01 a        31     0     4     1     1
  7.1488140912757500E-02 a        32     0     4     1     2
  2.3053134637669551E-01 a        33     0     4     1     3
  2.2597530458607903E-01 a        34     0     4     1     4
  8.2792319332373743E-02 a        35     0     4     1     5
  1.4159672702119477E-01 a        36     0     4     1     6
  3.2581519800111791E-01 a        37     0     4     1     7
 -2.4808827354529675E-01 a        38     0     4     1     8
  1.6539350014571996E-01 a        39     0     4     1     9
  2.1487596223169270E-01 a        40     0     4     1    10
  2.8156510411276238E-02 a        41     0     5     1     1
  1.0607895730030728E-01 a        42     0     5     1     2
  4.2662943670387046E-02 a        43     0     5     1     3
  2.5759917458041282E-01 a        44     0     5     1     4
  2.5213222815004449E-01 a        45     0     5     1     5
  2.8693348443623040E-01 a        46     0     5     1     6
  2.6210455055513321E-01 a        47     0     5     1     7
  2.4937157534690210E-01 a        48     0     5     1     8
  2.9593592854343365E-01 a        49     0     5     1     9
 -2.7626135353238412E-01 a        50     0     5     1    10
  2.6116380659149679E-01 a        51     0     6     1     1
 -2.2955800126418452E-01 a        52     0     6     1     2
 -4.1493977415191161E-02 a        53     0     6     1     3
  3.2784039716407742E-01 a        54     0     6     1     4
 -1.9413171118979203E-01 a        55     0     6     1     5
 -3.9575010648226389E-01 a        56     0     6     1     6
  2.2071357946797390E-01 a        57     0     6     1     7
  3.7523973519131232E-01 a        58     0     6     1     8
  5.2794860922420375E-02 a        59     0     6     1     9
  2.8000782928277412E-01 a        60     0     6     1    10
 -1.2361724556340925E-01 a        61     0     7     1     1
 -1.7568010391737163E-01 a        62     0     7     1     2
 -2.1824757753809421E-01 a        63     0     7     1     3
 -1.7250506100738669E-01 a        64     0     7     1     4
 -2.7440425498420751E-01 a        65     0     7     1     5
 -3.4394543388565568E-01 a        66     0     7     1     6
 -5.1050140443373006E-02 a        67     0     7     1     7
  2.8238538021152104E-01 a        68     0     7     1     8
 -1.7180910152772791E-01 a        69     0     7     1     9
  3.3721784435141133E-01 a        70     0     7     1    10
  2.9417974624739091E-01 a        71     0     8     1     1
  2.9112642191658039E-01 a        72     0     8     1     2
 -1.6053054321409208E-01 a        73     0     8     1     3
 -8.8739461671899944E-02 a        74     0     8     1     4
  1.1694210157171271E-02 a        75     0     8     1     5
 -6.5941848316466989E-02 a        76     0     8     1     6
  1.5015440481472494E-02 a        77     0     8     1     7
 -4.0512577504662650E-01 a        78     0     8     1     8
 -3.3391942963883786E-01 a        79     0     8     1     9
  5.6016928751748539E-02 a        80     0     8     1    10
  3.2697977858184613E-01 a        81     0     9     1     1
  2.5298203635593675E-01 a        82     0     9     1     2
 -2.5741720994690898E-01 a        83     0     9     1     3
 -4.8463272181265664E-02 a        84     0     9     1     4
 -3.9045630584692570E-01 a        85     0     9     1     5
 -5.2932722137685649E-02 a        86     0     9     1     6
 -1.5363467524921109E-02 a        87     0     9     1     7
 -2.5764495195962633E-01 a        88     0     9     1     8
 -3.9095529567806675E-01 a        89     0     9     1     9
  3.7453454752297072E-01 a        90     0     9     1    10
 -2.0983074611101524E-02 a        91     0    10     1     1
  2.5564619276849243E-01 a        92     0    10     1     2
  2.1715976512259143E-02 a        93     0    10     1     3
  3.7083864023897212E-01 a        94     0    10     1     4
 -1.8628435446217034E-01 a        95     0    10     1     5
 -2.3154583362880723E-01 a        96     0    10     1     6
  3.3627899521130034E-01 a        97     0    10     1     7
  3.9190738515050016E-01 a        98     0    10     1     8
  2.2315490844324318E-01 a        99     0    10     1     9
 -1.3683785013354208E-01 a       100     0    10     1    10
  3.0406283687121308E-03 a       101     0    11     1     1
 -3.0871462771158131E-01 a       102     0    11     1     2
  3.8850820653842083E-01 a       103     0    11     1     3
 -8.8733241250876407E-02 a       104     0    11     1     4
 -3.6306124923909538E-01 a       105     0    11     1     5
 -8.0517916687218874E-02 a       106     0    11     1     6
 -1.2654812267520563E-01 a       107     0    11     1     7
 -8.8664231060500365E-02 a       108     0    11     1     8
 -2.1375959479539822E-01 a       109     0    11     1     9
  1.3173041599134119E-01 a       110     0    11     1    10
  3.2613858717021993E-01 a       111     0    12     1     1
  2.3636459323571457E-01 a       112     0    12     1     2
 -2.8175163315959606E-01 a       113     0    12     1     3
  2.2360834258743065E-02 a       114     0    12     1     4
 -1.3120416780778890E-01 a       115     0    12     1     5
 -3.4081187649110928E-01 a       116     0    12     1     6
 -3.1393324392494298E-01 a       117     0    12     1     7
  2.1489391843612321E-01 a       118     0    12     1     8
  6.7998579949612253E-02 a       119     0    12     1     9
 -2.4408081825618896E-01 a       120     0    12     1    10
  1.5325206627864982E-01 a       121     0    13     1     1
 -2.5216279672102976E-01 a       122     0    13     1     2
 -7.3026033723580880E-02 a       123     0    13     1     3
  1.1310459176738261E-01 a       124     0    13     1     4
 -8.4088855967311988E-03 a       125     0    13     1     5
 -7.1511359690276236E-02 a       126     0    13     1     6
  2.2778897643230309E-01 a       127     0    13     1     7
 -4.1221509262942976E-02 a       128     0    13     1     8
 -2.3190883491104428E-01 a       129     0    13     1     9
  3.8786309447762168E-01 a       130     0    13     1    10
 -1.0163280139812703E-01 a       131     0    14     1     1
  2.2083212696115778E-01 a       132     0    14     1     2
 -7.0518767716900202E-02 a       133     0    14     1     3
 -9.5242001456475850E-02 a       134     0    14     1     4
 -2.8917472415146933E-01 a       135     0    14     1     5
  3.3698937920401872E-01 a       136     0    14     1     6
  3.4793620179524559E-02 a       137     0    14     1     7
  3.6383604574467315E-01 a       138     0    14     1     8
  4.9502272929770337E-02 a       139     0    14     1     9
 -8.6239160153160199E-03 a       140     0    14     1    10
  1.5207010544063243E-01 a       141     0    15     1     1
 -2.7271418223567814E-03 a       142     0    15     1     2
  2.7637651355236914E-01 a       143     0    15     1     3
  4.0395957354550471E-01 a       144     0    15     1     4
 -1.2726803729345215E-01 a       145     0    15     1     5
  1.8373846586016088E-01 a       146     0    15     1     6
  1.2650793144440009E-01 a       147     0    15     1     7
  2.7453151805526349E-01 a       148     0    15     1     8
 -2.2022529784021272E-01 a       149     0    15     1     9
  1.9867630983994472E-01 a       150     0    15     1    10
 -5.1529483932533449E-03 a       151     0    16     1     1
 -3.2973112559522216E-01 a       152     0    16     1     2
 -2.1378276486437520E-02 a       153     0    16     1     3
 -2.5706294652917799E-01 a       154     0    16     1     4
 -8.9141115460634204E-02 a       155     0    16     1     5
 -3.8098350825533178E-01 a       156     0    16     1     6
 -2.3723651248124653E-01 a       157     0    16     1     7
 -2.8885087530168141E-01 a       158     0    16     1     8
  1.7844808428841566E-01 a       159     0    16     1     9
 -1.1034858327916586E-01 a       160     0    16     1    10
  2.9439483759106211E-01 a       161     0    17     1     1
  2.6401247047896126E-01 a       162     0    17     1     2
 -3.4483040972554863E-01 a       163     0    17     1     3
  4.7227958566229751E-02 a       164     0    17     1     4
  1.5746110090176726E-01 a       165     0    17     1     5
  2.6297427994645289E-01 a       166     0    17     1     6
  1.2485488884993333E-01 a       167     0    17     1     7
  5.4283406323103994E-02 a       168     0    17     1     8
 -2.7865035542690469E-01 a       169     0    17     1     9
  1.6155331732520209E-01 a       170     0    17     1    10
  5.8207738820701745E-02 a       171     0    18     1     1
 -3.4774957507021781E-01 a       172     0    18     1     2
  2.5723347911613836E-01 a       173     0    18     1     3
  3.1655189031238917E-01 a       174     0    18     1     4
 -4.4349012261418595E-02 a       175     0    18     1     5
 -8.3872493753111357E-02 a       176     0    18     1     6
  2.1979136706552679E-01 a       177     0    18     1     7
  8.7358390148878154E-02 a       178     0    18     1     8
 -3.9803064949846489E-01 a       179     0    18     1     9
 -2.8780396006109776E-01 a       180     0    18     1    10
  1.1222516257907934E-01 a       181     0    19     1     1
  3.9002213412166176E-01 a       182     0    19     1     2
  7.0031018637585372E-03 a       183     0    19     1     3
 -4.1551998847618725E-02 a       184     0    19     1     4
 -1.4642881038300593E-01 a       185     0    19     1     5
 -2.2506172754275094E-01 a       186     0    19     1     6
 -2.8468700790716100E-01 a       187     0    19     1     7
  5.2699210114390750E-02 a       188     0    19     1     8
  2.5396619630212702E-01 a       189     0    19     1     9
 -3.7472163796573188E-01 a       190     0    19     1    10
  6.7384746230635589E-02 a       191     0    20     1     1
  1.4819965545071320E-01 a       192     0    20     1     2
 -2.7185056074853559E-01 a       193     0    20     1     3
  1.7356222555786113E-01 a       194     0    20     1     4
  5.6330013552616777E-02 a       195     0    20     1     5
  4.2189354217886804E-02 a       196     0    20     1     6
  3.4214409984042066E-01 a       197     0    20     1     7
 -4.1529838929788086E-02 a       198     0    20     1     8
 -3.9188807558650268E-01 a       199     0    20     1     9
 -1.7565073701356670E-01 a       200     0    20     1    10
  1.8697981590718291E-01 a       201     0    21     1     1
  3.8762023184649319E-01 a       202     0    21     1     2
  3.4994028342101680E-01 a       203     0    21     1     3
  3.6305292798455796E-01 a       204     0    21     1     4
 -1.6832714289846251E-01 a       205     0    21     1     5
 -1.3953131656096446E-01 a       206     0    21     1     6
 -3.1183919148024081E-01 a       207     0    21     1     7
 -9.2077353932267000E-02 a       208     0    21     1     8
  8.6776926474103636E-02 a       209     0    21     1     9
 -8.1816994367789914E-02 a       210     0    21     1    10
 -8.8911004290889578E-02 a       211     0    22     1     1
  3.4432682114188495E-01 a       212     0    22     1     2
  3.2372269215616689E-01 a       213     0    22     1     3
 -2.6249109041180041E-01 a       214     0    22     1     4
 -6.5139336199750569E-02 a       215     0    22     1     5
 -3.9942524189275957E-01 a       216     0    22     1     6
 -1.5697100223561736E-01 a       217     0    22     1     7
  3.6674355219696753E-01 a       218     0    22     1     8
 -1.4556257042463683E-01 a       219     0    22     1     9
  3.7491358322222595E-01 a       220     0    22     1    10
 -2.9306561711508461E-01 a       221     0    23     1     1
 -3.2175446559558785E-01 a       222     0    23     1     2
 -1.0026389581711809E-01 a       223     0    23     1     3
  1.9924643210406212E-01 a       224     0    23     1     4
 -3.8567124938225839E-01 a       225     0    23     1     5
  3.0166921422968135E-01 a       226     0    23     1     6
  3.0706504266039492E-01 a       227     0    23     1     7
  1.1221007578271484E-01 a       228     0    23     1     8
  9.1543771534636026E-02 a       229     0    23     1     9
  2.9505708875847292E-01 a       230     0    23     1    10
  9.2128368838597166E-02 a       231     0    24     1     1
 -9.9203466694253215E-02 a       232     0    24     1     2
 -5.7824699533281726E-03 a       233     0    24     1     3
  3.7719345335198801E-01 a       234     0    24     1     4
 -2.6405156665603174E-01 a       235     0    24     1     5
  3.8937348279217776E-01 a       236     0    24     1     6
 -1.8149298681835177E-01 a       237     0    24     1     7
  2.2357750305678206E-01 a       238     0    24     1     8
  8.5002059776459443E-02 a       239     0    24     1     9
 -2.9491371777321190E-01 a       240     0    24     1    10
 -2.0763688900966445E-01 a       241     0    25     1     1
  3.1929482573056966E-01 a       242     0    25     1     2
  5.5396489485152169E-02 a       243     0    25     1     3
 -2.7535905405714917E-01 a       244     0    25     1     4
  8.6581431661946207E-02 a       245     0    25     1     5
  1.0373911998371911E-01 a       246     0    25     1     6
  1.9214387170630537E-01 a       247     0    25     1     7
  3.7309161492101073E-01 a       248     0    25     1     8
  2.9198453578307759E-01 a       249     0    25     1     9
 -3.6067336999865179E-01 a       250     0    25     1    10
  2.7334787317992859E-01 a       251     0    26     1     1
  2.0195217889700154E-01 a       252     0    26     1     2
 -3.5406547772937408E-01 a       253     0    26     1     3
 -1.1574942611130212E-01 a       254     0    26     1     4
 -3.5635242654716426E-01 a       255     0    26     1     5
  1.6879997027681887E-01 a       256     0    26     1     6
 -9.2117139137458906E-02 a       257     0    26     1     7
  3.5612756934950446E-01 a       258     0    26     1     8
  2.1946496792882084E-01 a       259     0    26     1     9
 -3.9365042257268368E-01 a       260     0    26     1    10
  1.0577241962564420E-01 a       261     0    27     1     1
 -1.4561053646609226E-01 a       262     0    27     1     2
 -2.6300456923313426E-01 a       263     0    27     1     3
  1.0494135612841314E-01 a       264     0    27     1     4
 -2.7587672473514363E-01 a       265     0    27     1     5
  2.6677577523061727E-02 a       266     0    27     1     6
  2.0613918660763744E-02 a       267     0    27     1     7
  2.1520580098160641E-01 a       268     0    27     1     8
 -3.7221772409153647E-01 a       269     0    27     1     9
 -2.0431685529858276E-01 a       270     0    27     1    10
  3.4430290096567714E-02 b       271     1     1
 -4.5076087966117694E-02 b       272     1     2
  2.1226037777890311E-02 b       273     1     3
 -5.0261149298992201E-03 b       274     1     4
  8.5849243200132250E-03 b       275     1     5
  1.4505357354491115E-02 b       276     1     6
  3.5773251270743690E-02 b       277     1     7
 -3.5247131467363159E-04 b       278     1     8
 -3.8266500379607105E-02 b       279     1     9
 -6.3352029820825051E-02 b       280     1    10
 -2.2895923858612155E-01 a       281     1     1     2     1
  2.6285064442459527E-01 a       282     1     1     2     2
  9.6123092378533420E-02 a       283     1     1     2     3
  1.5359272266302992E-01 a       284     1     1     2     4
 -7.5998859982475464E-02 a       285     1     1     2     5
 -3.2059667791875812E-01 a       286     1     1     2     6
 -3.5157437710079370E-01 a       287     1     1     2     7
  3.4930362427878187E-01 a       288     1     1     2     8
  4.8230430951498221E-01 a       289     1     1     2     9
 -4.7674005006846915E-01 a       290     1     1     2    10
  1.1469632510671915E-01 a       291     1     2     2     1
 -9.9979651299352837E-02 a       292     1     2     2     2
 -3.4721235811153530E-03 a       293     1     2     2     3
 -4.2401358030948544E-01 a       294     1     2     2     4
  5.4956099688271198E-01 a       295     1     2     2     5
 -1.5934238768201053E-01 a       296     1     2     2     6
  2.5727031239352371E-01 a       297     1     2     2     7
 -4.8688787524151400E-02 a       298     1     2     2     8
  3.3486852587357341E-01 a       299     1     2     2     9
  4.9098950103423245E-01 a       300     1     2     2    10
 -3.8335572871034534E-01 a       301     1     3     2     1
  3.1759664481349692E-01 a       302     1     3     2     2
  4.4496573446333079E-02 a       303     1     3     2     3
 -4.6903758663745382E-01 a       304     1     3     2     4
  3.5969833975724552E-01 a       305     1     3     2     5
  4.2343545786948750E-01 a       306     1     3     2     6
  2.7874620640757874E-01 a       307     1     3     2     7
 -1.1110751159349411E-01 a       308     1     3     2     8
 -3.5859821109317386E-01 a       309     1     3     2     9
  1.5851811519764128E-01 a       310     1     3     2    10
  3.7748603747499382E-01 a       311     1     4     2     1
  1.9858383798522400E-01 a       312     1     4     2     2
  3.6833948517486381E-01 a       313     1     4     2     3
  3.0913812205114061E-01 a       314     1     4     2     4
 -1.8206318902401064E-01 a       315     1     4     2     5
 -7.1252046425349685E-02 a       316     1     4     2     6
  4.8260908086743165E-01 a       317     1     4     2     7
 -2.5261282856938194E-01 a       318     1     4     2     8
  3.5720609534050440E-01 a       319     1     4     2     9
 -7.1727126724674142E-02 a       320     1     4     2    10
  5.2413076372278899E-01 a       321     1     5     2     1
 -8.7217417670790900E-02 a       322     1     5     2     2
  1.2497669521344093E-01 a       323     1     5     2     3
 -4.6256359788070744E-01 a       324     1     5     2     4
  8.5461305451582079E-02 a       325     1     5     2     5
  3.1956010617440517E-01 a       326     1     5     2     6
 -2.8469021439829756E-01 a       327     1     5     2     7
 -2.0548150007188035E-01 a       328     1     5     2     8
 -2.3574689687364117E-01 a       329     1     5     2     9
 -1.7075169372554080E-01 a       330     1     5     2    10
 -4.3579171298146940E-01 a       331     1     6     2     1
 -3.6783556149307034E-01 a       332     1     6     2     2
 -4.8320174707131958E-01 a       333     1     6     2     3
  1.7710263276812180E-01 a       334     1     6     2     4
 -3.0506470076115128E-01 a       335     1     6     2     5
 -6.6776626760278429E-02 a       336     1     6     2     6
  5.1712019662407660E-01 a       337     1     6     2     7
 -3.0981830529100796E-01 a       338     1     6     2     8
 -1.5590915328784027E-01 a       339     1     6     2     9
 -3.1453117749937598E-01 a       340     1     6     2    10
  2.1429755803623277E-01 a       341     1     7     2     1
  2.4479957768554950E-01 a       342     1     7     2     2
 -1.7681971895256007E-01 a       343     1     7     2     3
  2.3644028387257596E-01 a       344     1     7     2     4
  2.2162998030194014E-01 a       345     1     7     2     5
  4.2034539491612655E-01 a       346     1     7     2     6
 -5.0969666504643441E-01 a       347     1     7     2     7
 -7.4257325098860363E-02 a       348     1     7     2     8
  1.3183760047496992E-01 a       349     1     7     2     9
  2.0161029011086742E-01 a       350     1     7     2    10
 -2.9996586507258166E-01 a       351     1     8     2     1
  4.6221099927142512E-01 a       352     1     8     2     2
  4.4691189736796716E-01 a       353     1     8     2     3
  1.7469041289418646E-01 a       354     1     8     2     4
 -1.8895036468076465E-01 a       355     1     8     2     5
 -1.1195191922757246E-01 a       356     1     8     2     6
 -3.7045324731889029E-01 a       357     1     8     2     7
 -9.5618980903369774E-02 a       358     1     8     2     8
 -1.1509533201448834E-01 a       359     1     8     2     9
  2.5658181618299780E-01 a       360     1     8     2    10
 -1.0016083863955257E-01 a       361     1     9     2     1
 -1.6004690205611771E-01 a       362     1     9     2     2
  5.3124579728452914E-01 a       363     1     9     2     3
 -5.1329979822376270E-01 a       364     1     9     2     4
  3.0781251309861329E-01 a       365     1     9     2     5
 -2.5631889627745158E-01 a       366     1     9     2     6
 -4.3502375276526356E-01 a       367     1     9     2     7
 -4.5690926350332735E-02 a       368     1     9     2     8
  1.0635198752761776E-01 a       369     1     9     2     9
  1.8935799216653212E-02 a       370     1     9     2    10
  2.6845921008893292E-01 a       371     1    10     2     1
 -3.6920106742202258E-01 a       372     1    10     2     2
 -4.9201843317972332E-01 a       373     1    10     2     3
 -3.8631046114195161E-01 a       374     1    10     2     4
 -6.0910511949336832E-02 a       375     1    10     2     5
  1.1252818941343100E-01 a       376     1    10     2     6
  2.2258168603763492E-01 a       377     1    10     2     7
  7.2783583035232816E-02 a       378     1    10     2     8
 -4.9891024438673470E-01 a       379     1    10     2     9
  3.8951454917782513E-01 a       380     1    10     2    10
 -1.7534069796201261E-02 b       381     2     1
  4.8990979091177382E-02 b       382     2     2
 -3.8083077289198020E-02 b       383     2     3
  3.4165940251391358E-02 b       384     2     4
  2.6073754803879599E-02 b       385     2     5
  2.0987494863375176E-02 b       386     2     6
 -3.1879777129666706E-02 b       387     2     7
 -3.5683867540744998E-02 b       388     2     8
  2.9928702568183477E-03 b       389     2     9
 -4.8182691125907381E-02 b       390     2    10
 -2.7800401474576864E-01 a       391     2     1     3     1
  7.2430205939061543E-01 a       392     2     2     3     1
 -4.2451086047727882E-01 a       393     2     3     3     1
  9.9917139893115980E-01 a       394     2     4     3     1
  3.5898801893763282E-01 a       395     2     5     3     1
  2.7039714558443156E-01 a       396     2     6     3     1
 -6.2965279573719424E-01 a       397     2     7     3     1
 -5.8853038436045446E-01 a       398     2     8     3     1
  1.2465788692613008E-01 a       399     2     9     3     1
 -8.0748982000260461E-01 a       400     2    10     3     1
  6.9830419438040026E-02 b       401     3     1
