################################################################################
# Neural network connection values (weights and biases).
################################################################################
# Col  Name       Description
################################################################################
# 1    connection Neural network connection value.
# 2    t          Connection type (a = weight, b = bias).
# 3    index      Index enumerating weights.
# 4    l_s        Starting point layer (end point layer for biases).
# 5    n_s        Starting point neuron in starting layer (end point neuron for biases).
# 6    l_e        End point layer.
# 7    n_e        End point neuron in end layer.
################################################################################
#                      1 2         3     4     5     6     7
#             connection t     index   l_s   n_s   l_e   n_e
############################################################
  6.0373100813913887E-02 a         1     0     1     1     1
  1.2464405419155823E-01 a         2     0     1     1     2
 -1.5301649052470501E-01 a         3     0     1     1     3
  3.1085495066342178E-01 a         4     0     1     1     4
  3.7444835666481147E-01 a         5     0     1     1     5
  1.3240791619578718E-01 a         6     0     1     1     6
  8.4664196534514971E-02 a         7     0     1     1     7
  1.7761597231146437E-01 a         8     0     1     1     8
  2.1621002678185733E-01 a         9     0     1     1     9
  2.9932030690019689E-02 a        10     0     1     1    10
  2.0727938122216785E-01 a        11     0     2     1     1
  3.1442152859878258E-01 a        12     0     2     1     2
 -2.1835587619190980E-01 a        13     0     2     1     3
 -1.4921974517918322E-02 a        14     0     2     1     4
  3.2347640410847139E-01 a        15     0     2     1     5
  2.5433451091832254E-01 a        16     0     2     1     6
 -1.5533228300752652E-01 a        17     0     2     1     7
  1.7632032821723606E-01 a        18     0     2     1     8
  2.5762733182401426E-01 a        19     0     2     1     9
  3.8133537931128286E-01 a        20     0     2     1    10
 -2.4322503282884375E-01 a        21     0     3     1     1
 -3.9221929425669816E-01 a        22     0     3     1     2
  1.3150331005762551E-02 a        23     0     3     1     3
 -1.6605337190638486E-01 a        24     0     3     1     4
 -5.4342924177879524E-02 a        25     0     3     1     5
  1.8032617309149676E-01 a        26     0     3     1     6
  1.4927015187193782E-01 a        27     0     3     1     7
  1.3289651657713811E-01 a        28     0     3     1     8
 -1.5179863064528448E-01 a        29     0     3     1     9
 -6.7376877360404555E-02 a        30     0     3     1    10
  9.3053549094756424E-02 a        31     0     4     1     1
 -1.3322929019203406E-01 a        32     0     4     1     2
  1.0775345831231373E-01 a        33     0     4     1     3
 -6.8297895791248425E-02 a        34     0     4     1     4
 -1.0047109350364841E-01 a        35     0     4     1     5
  1.4758411856473441E-01 a        36     0     4     1     6
  3.1338969864390454E-01 a        37     0     4     1     7
  2.5624774697718563E-02 a        38     0     4     1     8
  3.0140740777907044E-01 a        39     0     4     1     9
 -3.7578156330673124E-01 a        40     0     4     1    10
  6.4625185263360932E-02 a        41     0     5     1     1
 -8.0594286194522663E-02 a        42     0     5     1     2
  1.5356964760010797E-01 a        43     0     5     1     3
 -2.6774657399298718E-01 a        44     0     5     1     4
  3.5472116734267745E-01 a        45     0     5     1     5
 -1.1308235815795661E-01 a        46     0     5     1     6
 -1.4237551206553936E-01 a        47     0     5     1     7
  8.5850031060135834E-02 a        48     0     5     1     8
 -1.7058567499299240E-01 a        49     0     5     1     9
 -3.0375618922743775E-01 a        50     0     5     1    10
 -1.9492410452261733E-01 a        51     0     6     1     1
 -1.2787780146018707E-01 a        52     0     6     1     2
 -1.1612995997825086E-01 a        53     0     6     1     3
 -1.8805823855482382E-02 a        54     0     6     1     4
  6.2835593263753042E-02 a        55     0     6     1     5
  5.3774730860740069E-02 a        56     0     6     1     6
 -1.3763888600809843E-01 a        57     0     6     1     7
  1.1137854476385549E-01 a        58     0     6     1     8
 -1.4116373582147099E-01 a        59     0     6     1     9
 -5.7802476647399320E-02 a        60     0     6     1    10
 -1.6112686497538323E-01 a        61     0     7     1     1
  1.2122482699880854E-01 a        62     0     7     1     2
 -6.7381991089803986E-02 a        63     0     7     1     3
  1.3888490984477767E-01 a        64     0     7     1     4
 -4.1389859462219562E-02 a        65     0     7     1     5
 -1.5370376711521003E-01 a        66     0     7     1     6
 -2.5707889992193128E-01 a        67     0     7     1     7
  1.4254436232378986E-01 a        68     0     7     1     8
  3.8375162098911640E-02 a        69     0     7     1     9
  1.0313364451193183E-01 a        70     0     7     1    10
  2.7333505939895919E-02 a        71     0     8     1     1
  2.7196274499527370E-02 a        72     0     8     1     2
 -8.9326676980260492E-02 a        73     0     8     1     3
  1.2121164156050804E-01 a        74     0     8     1     4
  6.5491984468580983E-02 a        75     0     8     1     5
 -1.5368103467019395E-01 a        76     0     8     1     6
  3.1002652885605586E-01 a        77     0     8     1     7
 -2.1025314901136638E-01 a        78     0     8     1     8
 -3.5135076677760207E-01 a        79     0     8     1     9
  2.3819646303173561E-01 a        80     0     8     1    10
  3.5350008849597125E-01 a        81     0     9     1     1
  1.9398897347095134E-01 a        82     0     9     1     2
 -3.7776235995596985E-02 a        83     0     9     1     3
  3.0935537051130463E-01 a        84     0     9     1     4
  1.0165409524461234E-01 a        85     0     9     1     5
  4.4565810685695588E-02 a        86     0     9     1     6
 -1.3549103712163221E-01 a        87     0     9     1     7
 -3.3373236471353335E-01 a        88     0     9     1     8
 -1.8331242501051717E-01 a        89     0     9     1     9
  3.8418127627526677E-01 a        90     0     9     1    10
 -3.1897287812748037E-01 a        91     0    10     1     1
  5.9095306367378505E-03 a        92     0    10     1     2
 -3.9787870990177554E-02 a        93     0    10     1     3
 -5.1455907847789389E-02 a        94     0    10     1     4
 -3.4064222696410973E-01 a        95     0    10     1     5
  2.8972833567538309E-01 a        96     0    10     1     6
  3.6941344288146311E-01 a        97     0    10     1     7
  3.5373718960008227E-01 a        98     0    10     1     8
  2.0902352018794312E-01 a        99     0    10     1     9
  5.4974999992485743E-02 a       100     0    10     1    10
 -2.4723740488160834E-01 a       101     0    11     1     1
  4.8118366040570794E-03 a       102     0    11     1     2
  1.6737410241938069E-01 a       103     0    11     1     3
 -1.3058015556753602E-01 a       104     0    11     1     4
  2.8100028847748043E-01 a       105     0    11     1     5
  8.7971119888324220E-02 a       106     0    11     1     6
 -1.4102823717102744E-01 a       107     0    11     1     7
  2.0614136759673532E-01 a       108     0    11     1     8
 -7.5157888260565117E-02 a       109     0    11     1     9
 -8.3681654815603690E-02 a       110     0    11     1    10
 -8.8433277431494386E-02 a       111     0    12     1     1
  1.0075717921024321E-01 a       112     0    12     1     2
 -2.6119410540074262E-01 a       113     0    12     1     3
 -1.1181063538953745E-01 a       114     0    12     1     4
  5.6276223374418247E-02 a       115     0    12     1     5
 -1.2659607930656963E-01 a       116     0    12     1     6
  3.3738787630266720E-02 a       117     0    12     1     7
  3.5026878658171751E-02 a       118     0    12     1     8
 -5.9142539630055488E-02 a       119     0    12     1     9
 -2.5292245859135504E-01 a       120     0    12     1    10
  1.3450605571716095E-01 a       121     0    13     1     1
  2.6659829824227804E-01 a       122     0    13     1     2
 -2.2684393980462222E-01 a       123     0    13     1     3
 -3.0044586224795278E-01 a       124     0    13     1     4
 -2.8873262075265199E-01 a       125     0    13     1     5
 -1.5003473649331761E-01 a       126     0    13     1     6
  5.4059185962038327E-02 a       127     0    13     1     7
 -3.2829473930332975E-02 a       128     0    13     1     8
  4.4919320440587107E-01 a       129     0    13     1     9
  3.0084894885720925E-01 a       130     0    13     1    10
  3.2364122781207499E-01 a       131     0    14     1     1
 -1.1940078884397244E-01 a       132     0    14     1     2
  2.1678996110327961E-02 a       133     0    14     1     3
  3.8334277674356881E-01 a       134     0    14     1     4
 -3.5843486434918498E-01 a       135     0    14     1     5
 -6.1119909715552215E-02 a       136     0    14     1     6
  1.8702060836870701E-02 a       137     0    14     1     7
  1.4577131049522191E-01 a       138     0    14     1     8
  1.7376607994839744E-02 a       139     0    14     1     9
 -1.8179225655679898E-01 a       140     0    14     1    10
 -9.6393172349910239E-02 a       141     0    15     1     1
 -3.6645714110400829E-01 a       142     0    15     1     2
  1.2688606102449929E-01 a       143     0    15     1     3
  2.0584832533002844E-02 a       144     0    15     1     4
  3.4530391321493220E-01 a       145     0    15     1     5
  1.8696615899441507E-01 a       146     0    15     1     6
 -1.3364701987829158E-01 a       147     0    15     1     7
 -2.2654915045397420E-01 a       148     0    15     1     8
 -2.3048050201220560E-01 a       149     0    15     1     9
 -2.7183938688024850E-02 a       150     0    15     1    10
  2.1200108668584414E-01 a       151     0    16     1     1
  1.7728373434416078E-01 a       152     0    16     1     2
 -2.7800408647755687E-01 a       153     0    16     1     3
  3.1370192028876774E-02 a       154     0    16     1     4
 -3.2133421591021610E-01 a       155     0    16     1     5
 -3.7743234886637167E-01 a       156     0    16     1     6
  3.4566066129990181E-01 a       157     0    16     1     7
  2.8314137676911039E-01 a       158     0    16     1     8
  8.5710528306142550E-02 a       159     0    16     1     9
 -1.6260485157352450E-01 a       160     0    16     1    10
  1.2269503090641178E-01 a       161     0    17     1     1
 -5.0666437600188442E-02 a       162     0    17     1     2
 -1.7211975786697373E-01 a       163     0    17     1     3
 -2.7071036684289767E-02 a       164     0    17     1     4
 -3.4245335723905074E-01 a       165     0    17     1     5
 -3.8465097263070702E-01 a       166     0    17     1     6
  2.5500767878356179E-01 a       167     0    17     1     7
  2.7797674093290436E-01 a       168     0    17     1     8
  3.3574298367408384E-01 a       169     0    17     1     9
 -3.1917243775152392E-02 a       170     0    17     1    10
  2.3982091589143098E-01 a       171     0    18     1     1
 -3.5695365182586297E-01 a       172     0    18     1     2
 -2.6251274715067568E-01 a       173     0    18     1     3
 -5.4878432030783617E-02 a       174     0    18     1     4
  2.7507622890460121E-02 a       175     0    18     1     5
 -8.1998424859782121E-02 a       176     0    18     1     6
  3.1781964838233256E-01 a       177     0    18     1     7
 -3.0092764780479575E-01 a       178     0    18     1     8
 -1.8255974522472060E-02 a       179     0    18     1     9
 -4.3286306405127087E-04 a       180     0    18     1    10
  9.7246470988608752E-02 a       181     0    19     1     1
 -3.3947063508024306E-01 a       182     0    19     1     2
 -1.7475336691917784E-01 a       183     0    19     1     3
  2.5854583859555528E-02 a       184     0    19     1     4
 -2.9954449347391265E-01 a       185     0    19     1     5
 -3.1297805932950040E-01 a       186     0    19     1     6
 -2.6178675301348814E-01 a       187     0    19     1     7
 -3.5888595320747529E-01 a       188     0    19     1     8
 -4.5002491325886088E-02 a       189     0    19     1     9
 -3.7650561651892916E-01 a       190     0    19     1    10
 -3.6481650524133857E-01 a       191     0    20     1     1
  7.7799752330897379E-02 a       192     0    20     1     2
  5.1670158950236467E-02 a       193     0    20     1     3
 -3.4784188189286086E-01 a       194     0    20     1     4
 -3.6679465065080208E-01 a       195     0    20     1     5
 -3.0020882437728924E-01 a       196     0    20     1     6
  9.2804609323527798E-02 a       197     0    20     1     7
 -2.1061185907406296E-02 a       198     0    20     1     8
 -3.8066416048677609E-01 a       199     0    20     1     9
 -1.9180655444577302E-01 a       200     0    20     1    10
  7.6442702690973086E-01 a       201     0    21     1     1
 -1.2215013644547107E-01 a       202     0    21     1     2
  2.0712848793215111E-01 a       203     0    21     1     3
 -9.3682372512442480E-01 a       204     0    21     1     4
  1.0817877459015577E+00 a       205     0    21     1     5
 -4.1429078344204151E-01 a       206     0    21     1     6
 -1.0683223247846774E+00 a       207     0    21     1     7
 -8.9049498019502105E-01 a       208     0    21     1     8
  2.0040935066538781E-01 a       209     0    21     1     9
  1.3563668440093057E+00 a       210     0    21     1    10
 -8.8552133051200832E-01 a       211     0    22     1     1
  9.8429344146933731E-02 a       212     0    22     1     2
 -4.3180434508694970E-01 a       213     0    22     1     3
  9.9725282739777699E-01 a       214     0    22     1     4
 -7.2491045609563443E-01 a       215     0    22     1     5
  3.0362878181335917E-01 a       216     0    22     1     6
  1.1480085751999389E+00 a       217     0    22     1     7
  1.4872695804311653E-01 a       218     0    22     1     8
  1.1707810955523527E-01 a       219     0    22     1     9
 -1.0673555543019508E+00 a       220     0    22     1    10
  4.0792561228278806E-01 a       221     0    23     1     1
  1.1544899104800872E-01 a       222     0    23     1     2
  7.1883223481413419E-02 a       223     0    23     1     3
 -4.3949669041260320E-01 a       224     0    23     1     4
  4.9461854903716784E-01 a       225     0    23     1     5
 -2.3179043805928756E-01 a       226     0    23     1     6
 -4.9430381814147363E-02 a       227     0    23     1     7
 -3.3225651138953782E-01 a       228     0    23     1     8
  3.0334091225664300E-01 a       229     0    23     1     9
  3.9136949430731566E-01 a       230     0    23     1    10
  2.0027421971007472E-01 a       231     0    24     1     1
 -3.5966475287637939E-01 a       232     0    24     1     2
 -7.4371864363279847E-02 a       233     0    24     1     3
  1.8550433385243245E-01 a       234     0    24     1     4
 -2.6746675799833919E-01 a       235     0    24     1     5
 -2.8824214838204498E-01 a       236     0    24     1     6
  3.5335230590600053E-01 a       237     0    24     1     7
  1.1553970939524304E-01 a       238     0    24     1     8
  3.8587318456691616E-01 a       239     0    24     1     9
 -1.2490009104311288E-01 a       240     0    24     1    10
 -1.9270519460022098E-01 a       241     0    25     1     1
  5.0818818427207008E-02 a       242     0    25     1     2
 -3.4574626940176201E-01 a       243     0    25     1     3
  3.7594008702968656E-01 a       244     0    25     1     4
 -3.0621847226060150E-01 a       245     0    25     1     5
  9.4832589722475560E-02 a       246     0    25     1     6
 -8.2881924284372438E-02 a       247     0    25     1     7
 -8.9161166143762391E-02 a       248     0    25     1     8
 -1.7707086219659854E-01 a       249     0    25     1     9
 -2.4096156785831266E-01 a       250     0    25     1    10
 -8.3508351286261706E-01 a       251     0    26     1     1
  3.0389681578216376E-02 a       252     0    26     1     2
 -1.7260502266730732E-01 a       253     0    26     1     3
  6.6255600059450670E-01 a       254     0    26     1     4
 -1.0261878091254601E+00 a       255     0    26     1     5
 -1.1631550590278444E-01 a       256     0    26     1     6
  1.1536707480810742E+00 a       257     0    26     1     7
  5.8658424832434886E-01 a       258     0    26     1     8
 -7.7684865796720168E-02 a       259     0    26     1     9
 -1.4661987074069440E+00 a       260     0    26     1    10
  7.7242450581754302E-02 a       261     0    27     1     1
 -4.8148035124711698E-02 a       262     0    27     1     2
  4.3073446521354031E-02 a       263     0    27     1     3
  1.2130486962350336E-01 a       264     0    27     1     4
 -1.8603011567950159E-01 a       265     0    27     1     5
 -8.7928120051550512E-02 a       266     0    27     1     6
  1.4508265508738065E-02 a       267     0    27     1     7
 -2.2164495501874909E-01 a       268     0    27     1     8
 -8.3005923456901554E-02 a       269     0    27     1     9
 -1.6062552739749977E-01 a       270     0    27     1    10
  9.2350432695608511E-02 a       271     0    28     1     1
 -2.2040801427171927E-01 a       272     0    28     1     2
 -3.6092199903166561E-01 a       273     0    28     1     3
  2.5802219084815553E-01 a       274     0    28     1     4
  2.0545783484215574E-01 a       275     0    28     1     5
 -1.9385297687841924E-01 a       276     0    28     1     6
  7.2301754241457739E-02 a       277     0    28     1     7
  2.8176812544800051E-01 a       278     0    28     1     8
 -5.1149219516400085E-02 a       279     0    28     1     9
 -2.5194829910515643E-01 a       280     0    28     1    10
 -4.4829585379415865E-02 a       281     0    29     1     1
  3.4335643170818247E-01 a       282     0    29     1     2
 -4.1463204130051910E-02 a       283     0    29     1     3
 -2.1725084666316280E-01 a       284     0    29     1     4
 -3.2052939024727006E-01 a       285     0    29     1     5
 -1.1978182748472022E-01 a       286     0    29     1     6
  3.4926637842104358E-01 a       287     0    29     1     7
 -1.3532883158624066E-02 a       288     0    29     1     8
  1.5152626790653352E-02 a       289     0    29     1     9
  1.3244176813412736E-01 a       290     0    29     1    10
 -6.9466411294070585E-01 a       291     0    30     1     1
  3.6146422341656870E-01 a       292     0    30     1     2
  5.1286035200384147E-02 a       293     0    30     1     3
  3.6108445880442053E-01 a       294     0    30     1     4
 -6.7274241658851719E-01 a       295     0    30     1     5
 -1.4020525615781684E-01 a       296     0    30     1     6
  7.4196860771610662E-01 a       297     0    30     1     7
  1.9418826970021699E-01 a       298     0    30     1     8
  5.8073347387261713E-03 a       299     0    30     1     9
 -1.3046867715481396E+00 a       300     0    30     1    10
  6.2407692056318576E-02 b       301     1     1
 -3.3552834989086573E-02 b       302     1     2
  3.8084542467159754E-02 b       303     1     3
  1.4755999271136187E-02 b       304     1     4
 -4.4122897421216842E-03 b       305     1     5
 -9.8937283440167778E-02 b       306     1     6
  4.7451908089763316E-02 b       307     1     7
 -1.3789202560958175E-01 b       308     1     8
  1.1374551868468713E-01 b       309     1     9
  2.7221049265395380E-02 b       310     1    10
  6.4229089452238919E-01 a       311     1     1     2     1
 -1.6074216971525038E-01 a       312     1     1     2     2
  1.8790887676189455E-01 a       313     1     1     2     3
 -1.1558178717620408E-01 a       314     1     1     2     4
  1.6175763376112010E-01 a       315     1     1     2     5
  2.4143675201079386E-02 a       316     1     1     2     6
 -2.7511417265473133E-02 a       317     1     1     2     7
  2.6412228048835823E-01 a       318     1     1     2     8
  5.9486218774812853E-02 a       319     1     1     2     9
 -3.1057891194396370E-01 a       320     1     1     2    10
  4.3084535732591434E-01 a       321     1     2     2     1
  3.5056966790695654E-01 a       322     1     2     2     2
  8.2995393139298504E-02 a       323     1     2     2     3
  2.1114814781769042E-01 a       324     1     2     2     4
 -2.9353790664045110E-01 a       325     1     2     2     5
 -1.4288186497374791E-01 a       326     1     2     2     6
  2.2420427120269734E-01 a       327     1     2     2     7
  2.9263690466922732E-01 a       328     1     2     2     8
  3.3584958747536059E-01 a       329     1     2     2     9
 -2.1427848664960499E-02 a       330     1     2     2    10
 -3.3814191940537952E-01 a       331     1     3     2     1
 -1.1582375813631630E-01 a       332     1     3     2     2
 -2.1909205927825776E-01 a       333     1     3     2     3
 -7.5242630159769203E-02 a       334     1     3     2     4
 -1.6675551418012036E-01 a       335     1     3     2     5
  4.2246100752763915E-01 a       336     1     3     2     6
 -2.9727356330573407E-01 a       337     1     3     2     7
  4.6589955177065207E-01 a       338     1     3     2     8
 -2.3030316179510371E-01 a       339     1     3     2     9
  2.1400019435430315E-01 a       340     1     3     2    10
 -1.4183465075183332E-01 a       341     1     4     2     1
 -1.1926524758670831E-01 a       342     1     4     2     2
 -6.5919123588300310E-01 a       343     1     4     2     3
 -3.6212109553762015E-03 a       344     1     4     2     4
 -1.4845276115539635E-01 a       345     1     4     2     5
  5.0847493724687598E-01 a       346     1     4     2     6
  1.3746239996075602E-01 a       347     1     4     2     7
  7.1955230588052393E-02 a       348     1     4     2     8
 -4.1740796925896678E-01 a       349     1     4     2     9
 -2.5051022588551153E-01 a       350     1     4     2    10
  3.7707295775176247E-01 a       351     1     5     2     1
 -2.2842793440989623E-01 a       352     1     5     2     2
 -5.4171381109280081E-01 a       353     1     5     2     3
  9.8748290331544877E-02 a       354     1     5     2     4
 -3.4328553541280721E-01 a       355     1     5     2     5
  1.9073378628492507E-01 a       356     1     5     2     6
  6.1200568991050516E-02 a       357     1     5     2     7
  3.8847078473848366E-03 a       358     1     5     2     8
  4.3779338701523207E-01 a       359     1     5     2     9
  3.5243480579759451E-01 a       360     1     5     2    10
 -2.3824697827528657E-01 a       361     1     6     2     1
 -4.1923097076635307E-01 a       362     1     6     2     2
 -4.7114339413224855E-02 a       363     1     6     2     3
 -1.2299041737200793E-01 a       364     1     6     2     4
 -4.2933148118944559E-01 a       365     1     6     2     5
 -4.4556501270768878E-01 a       366     1     6     2     6
  4.2962622661419071E-02 a       367     1     6     2     7
  2.9267335897002339E-01 a       368     1     6     2     8
 -3.6239184025294491E-01 a       369     1     6     2     9
  2.6749463989852729E-01 a       370     1     6     2    10
 -4.2529400845051628E-02 a       371     1     7     2     1
  2.9133565295087049E-01 a       372     1     7     2     2
  2.6675658047410744E-01 a       373     1     7     2     3
 -4.5863955718449839E-01 a       374     1     7     2     4
 -1.3209213914113346E-01 a       375     1     7     2     5
 -1.4605215767362728E-01 a       376     1     7     2     6
 -3.4742270615645426E-01 a       377     1     7     2     7
 -3.1905351503553403E-01 a       378     1     7     2     8
  1.8967382573883787E-01 a       379     1     7     2     9
  5.7584034016612851E-01 a       380     1     7     2    10
 -6.7363175815728771E-01 a       381     1     8     2     1
  2.0970691404706510E-01 a       382     1     8     2     2
 -3.8435281062517729E-02 a       383     1     8     2     3
 -1.9338590832414507E-01 a       384     1     8     2     4
  3.0514364846877462E-01 a       385     1     8     2     5
  2.4789790399959077E-01 a       386     1     8     2     6
 -4.3999201632256851E-01 a       387     1     8     2     7
  2.6169117251392648E-01 a       388     1     8     2     8
  1.2634148630651890E-01 a       389     1     8     2     9
  3.2749073834517228E-01 a       390     1     8     2    10
 -7.8615896673891350E-02 a       391     1     9     2     1
 -1.5253135904614859E-01 a       392     1     9     2     2
 -3.4926838660524867E-01 a       393     1     9     2     3
  1.2818800215244833E-01 a       394     1     9     2     4
  3.1758913482044598E-01 a       395     1     9     2     5
  2.5158690207647871E-01 a       396     1     9     2     6
  2.6884792926092299E-01 a       397     1     9     2     7
 -6.8145318513436512E-02 a       398     1     9     2     8
 -3.8897112489193814E-01 a       399     1     9     2     9
  4.5593695812584756E-01 a       400     1     9     2    10
  1.0872130223192379E-01 a       401     1    10     2     1
 -3.8025685451456537E-01 a       402     1    10     2     2
  5.7508493462213615E-02 a       403     1    10     2     3
  4.7255306900645672E-01 a       404     1    10     2     4
  2.3032836806465107E-01 a       405     1    10     2     5
 -1.2293979742161111E-01 a       406     1    10     2     6
 -5.3093317176052290E-01 a       407     1    10     2     7
 -3.3334798357118384E-01 a       408     1    10     2     8
  3.6050468474935360E-01 a       409     1    10     2     9
  2.9925022481430458E-01 a       410     1    10     2    10
 -1.0836570637721792E-01 b       411     2     1
 -5.2986789033638161E-02 b       412     2     2
 -2.2246047673312980E-02 b       413     2     3
  2.9039982078339355E-02 b       414     2     4
  5.5292585307682642E-02 b       415     2     5
 -1.0472536052555724E-01 b       416     2     6
  3.5452953968379830E-02 b       417     2     7
 -1.8619865205579823E-02 b       418     2     8
  7.6349727689624627E-02 b       419     2     9
 -1.5092480701249877E-01 b       420     2    10
  4.8946713878588156E-02 a       421     2     1     3     1
  7.5961821530084295E-01 a       422     2     2     3     1
  3.9026790658419436E-01 a       423     2     3     3     1
 -3.2998034975872592E-01 a       424     2     4     3     1
 -6.8873184066356105E-02 a       425     2     5     3     1
 -7.6749013409682940E-03 a       426     2     6     3     1
 -1.5096674908497136E-03 a       427     2     7     3     1
  5.5385500055758277E-03 a       428     2     8     3     1
 -8.4500083245465984E-01 a       429     2     9     3     1
 -7.2691002302173058E-03 a       430     2    10     3     1
 -5.8867504287828921E-02 b       431     3     1
