################################################################################
# Neural network connection values (weights and biases).
################################################################################
# Col  Name       Description
################################################################################
# 1    connection Neural network connection value.
# 2    t          Connection type (a = weight, b = bias).
# 3    index      Index enumerating weights.
# 4    l_s        Starting point layer (end point layer for biases).
# 5    n_s        Starting point neuron in starting layer (end point neuron for biases).
# 6    l_e        End point layer.
# 7    n_e        End point neuron in end layer.
################################################################################
#                      1 2         3     4     5     6     7
#             connection t     index   l_s   n_s   l_e   n_e
############################################################
 -2.1373911212099062E-01 a         1     0     1     1     1
  7.5274656786335783E-02 a         2     0     1     1     2
  1.2664516664916931E-01 a         3     0     1     1     3
  2.4869628817012995E-01 a         4     0     1     1     4
  9.4248130282687054E-02 a         5     0     1     1     5
  2.0223579375429186E-02 a         6     0     1     1     6
 -1.7178415235741787E-01 a         7     0     1     1     7
 -1.9760934607249196E-02 a         8     0     1     1     8
 -1.0392783244926151E-01 a         9     0     1     1     9
  2.8854581845025729E-01 a        10     0     1     1    10
  2.8436627293352951E-01 a        11     0     2     1     1
 -8.7879856223069819E-02 a        12     0     2     1     2
 -2.5217154384327295E-01 a        13     0     2     1     3
 -2.0939384541645259E-01 a        14     0     2     1     4
 -4.3321007871110519E-02 a        15     0     2     1     5
  1.8421446921388515E-01 a        16     0     2     1     6
  3.2862099554622909E-01 a        17     0     2     1     7
 -2.6064183776696104E-01 a        18     0     2     1     8
  2.5252509729204808E-01 a        19     0     2     1     9
  3.4864661048508189E-01 a        20     0     2     1    10
 -4.1028674564218559E-01 a        21     0     3     1     1
 -2.7962214078363978E-01 a        22     0     3     1     2
  9.6617179586061683E-02 a        23     0     3     1     3
 -4.3181198485675198E-01 a        24     0     3     1     4
  2.7657283573898134E-01 a        25     0     3     1     5
 -6.4323615269751833E-02 a        26     0     3     1     6
 -2.0344996585148387E-01 a        27     0     3     1     7
  3.4521887862568956E-01 a        28     0     3     1     8
 -2.8207849009063468E-01 a        29     0     3     1     9
 -3.9686998489666322E-03 a        30     0     3     1    10
 -2.6178491424747513E-01 a        31     0     4     1     1
 -2.3474807021093852E-01 a        32     0     4     1     2
  3.3646428409730278E-01 a        33     0     4     1     3
  1.6854718367412461E-01 a        34     0     4     1     4
  1.0163163866109376E-01 a        35     0     4     1     5
  1.3263528398146590E-01 a        36     0     4     1     6
 -1.9684306802794291E-01 a        37     0     4     1     7
  2.9099965635483305E-01 a        38     0     4     1     8
  1.5587208768276098E-01 a        39     0     4     1     9
 -1.7059390004101399E-01 a        40     0     4     1    10
 -2.7790015860456269E-01 a        41     0     5     1     1
 -2.4283422179270142E-01 a        42     0     5     1     2
 -1.5787150570702366E-01 a        43     0     5     1     3
  2.5546159063879614E-01 a        44     0     5     1     4
 -1.8815707180757574E-01 a        45     0     5     1     5
 -2.9620602123841544E-01 a        46     0     5     1     6
 -2.1738656000528359E-01 a        47     0     5     1     7
 -1.9845477075425760E-01 a        48     0     5     1     8
  1.0522976380250848E-01 a        49     0     5     1     9
  8.8116909391651954E-02 a        50     0     5     1    10
  4.5053614465868780E-02 a        51     0     6     1     1
  2.2002074192973377E-02 a        52     0     6     1     2
  4.0409591593573135E-01 a        53     0     6     1     3
 -6.7685572594579968E-02 a        54     0     6     1     4
 -1.8616003216816218E-01 a        55     0     6     1     5
 -2.6244404577508568E-01 a        56     0     6     1     6
  2.4758560125073031E-01 a        57     0     6     1     7
  3.5508834451344351E-01 a        58     0     6     1     8
  3.2582100203251840E-01 a        59     0     6     1     9
 -2.6627757600878721E-01 a        60     0     6     1    10
  1.5111330116681834E-01 a        61     0     7     1     1
 -3.0567925545283627E-02 a        62     0     7     1     2
  9.7436150734094770E-02 a        63     0     7     1     3
  1.4720870347152734E-01 a        64     0     7     1     4
 -1.8099486581544846E-01 a        65     0     7     1     5
 -1.6478928348280308E-01 a        66     0     7     1     6
 -3.7652764211362363E-02 a        67     0     7     1     7
 -3.3133053588133082E-01 a        68     0     7     1     8
  6.4252727063999898E-02 a        69     0     7     1     9
  3.5926263573666427E-02 a        70     0     7     1    10
  2.2633960345458970E-01 a        71     0     8     1     1
  4.2233781197315740E-01 a        72     0     8     1     2
 -3.4586944471154440E-01 a        73     0     8     1     3
  2.6677847285501294E-02 a        74     0     8     1     4
 -3.5487195288034507E-01 a        75     0     8     1     5
 -1.6350039114087073E-01 a        76     0     8     1     6
  1.3961621345168515E-01 a        77     0     8     1     7
  1.6782787954038542E-01 a        78     0     8     1     8
 -1.9293595526743432E-01 a        79     0     8     1     9
 -3.6124881419130411E-01 a        80     0     8     1    10
  5.0601735708770482E-02 a        81     0     9     1     1
 -2.2379734105192742E-02 a        82     0     9     1     2
  1.5201247593954520E-01 a        83     0     9     1     3
 -1.3677149389428800E-01 a        84     0     9     1     4
 -3.4735611097120245E-01 a        85     0     9     1     5
  1.6261937097374213E-01 a        86     0     9     1     6
 -1.4770506766141561E-01 a        87     0     9     1     7
 -4.3417259610343539E-01 a        88     0     9     1     8
  3.0862536412073560E-01 a        89     0     9     1     9
  3.8295366219495980E-01 a        90     0     9     1    10
 -1.2575786955869372E-01 a        91     0    10     1     1
 -2.7551522994323491E-01 a        92     0    10     1     2
 -1.5458518813540820E-01 a        93     0    10     1     3
  5.0397820209620345E-02 a        94     0    10     1     4
  5.7291630155254299E-02 a        95     0    10     1     5
 -2.8664745028869197E-02 a        96     0    10     1     6
  2.3733383740260478E-02 a        97     0    10     1     7
  3.1097690761831699E-02 a        98     0    10     1     8
 -1.1950387526814291E-01 a        99     0    10     1     9
  1.0471966725993784E-01 a       100     0    10     1    10
  2.7439518362043619E-01 a       101     0    11     1     1
  1.5582189501622246E-01 a       102     0    11     1     2
 -3.0499796219471303E-01 a       103     0    11     1     3
  4.0688066051145784E-02 a       104     0    11     1     4
  2.7060593658167620E-01 a       105     0    11     1     5
  3.1949038607592722E-01 a       106     0    11     1     6
  2.1388744650523550E-01 a       107     0    11     1     7
 -1.4949951868612929E-02 a       108     0    11     1     8
  3.0707854920310318E-01 a       109     0    11     1     9
  1.2191286223201279E-01 a       110     0    11     1    10
  1.9820696980722566E-01 a       111     0    12     1     1
 -1.0346114427162068E-01 a       112     0    12     1     2
  2.5940275366304711E-02 a       113     0    12     1     3
  4.9337827514951617E-02 a       114     0    12     1     4
  1.1309222944770775E-01 a       115     0    12     1     5
  1.8873894867089853E-02 a       116     0    12     1     6
 -4.8797264955742381E-02 a       117     0    12     1     7
  5.1925559124934864E-02 a       118     0    12     1     8
  1.9792951200812536E-01 a       119     0    12     1     9
  6.9811486227382407E-03 a       120     0    12     1    10
  2.7904628386920027E-01 a       121     0    13     1     1
  2.4548076850714814E-01 a       122     0    13     1     2
  2.3279702121857893E-01 a       123     0    13     1     3
 -9.1401350240900556E-02 a       124     0    13     1     4
  2.2521612483172251E-01 a       125     0    13     1     5
  2.8644064119776314E-01 a       126     0    13     1     6
 -6.9402532809037409E-02 a       127     0    13     1     7
 -3.6389783836618378E-01 a       128     0    13     1     8
 -1.3688244934143884E-02 a       129     0    13     1     9
  8.3872648211317360E-02 a       130     0    13     1    10
 -2.8401692880381335E-01 a       131     0    14     1     1
  3.2323925522466734E-01 a       132     0    14     1     2
 -3.1786145687568663E-02 a       133     0    14     1     3
  2.9205459177617538E-01 a       134     0    14     1     4
  2.3777003849948058E-01 a       135     0    14     1     5
 -1.2601994158633964E-02 a       136     0    14     1     6
 -2.6424679448179317E-01 a       137     0    14     1     7
 -3.5350008551656387E-01 a       138     0    14     1     8
 -2.6421582425865264E-01 a       139     0    14     1     9
 -4.0490853888886175E-01 a       140     0    14     1    10
 -3.1528040389583201E-01 a       141     0    15     1     1
 -1.7885082438476990E-01 a       142     0    15     1     2
 -2.9796358887967261E-01 a       143     0    15     1     3
  2.7464848374750317E-01 a       144     0    15     1     4
 -1.5092312053513995E-01 a       145     0    15     1     5
 -6.1251708968790765E-02 a       146     0    15     1     6
  3.4899097893502690E-01 a       147     0    15     1     7
  4.0296310026266624E-01 a       148     0    15     1     8
  3.7220319057757627E-02 a       149     0    15     1     9
 -3.5171874869977710E-01 a       150     0    15     1    10
  3.1586565250285675E-01 a       151     0    16     1     1
  1.1368958425419017E-01 a       152     0    16     1     2
 -1.8452534417000765E-01 a       153     0    16     1     3
 -3.5291963221578632E-01 a       154     0    16     1     4
 -1.9131121391664022E-01 a       155     0    16     1     5
 -4.5266384671121174E-01 a       156     0    16     1     6
 -3.9892660603032243E-01 a       157     0    16     1     7
  9.9750534708668057E-02 a       158     0    16     1     8
  8.6607268556212369E-02 a       159     0    16     1     9
  2.0030723496242656E-01 a       160     0    16     1    10
 -3.0043101302819447E-01 a       161     0    17     1     1
 -2.1438416561907164E-01 a       162     0    17     1     2
 -4.0161094662644597E-01 a       163     0    17     1     3
 -6.6993045398178463E-02 a       164     0    17     1     4
 -3.7936648443765203E-01 a       165     0    17     1     5
  2.2506536975764571E-01 a       166     0    17     1     6
 -1.9864761006361362E-01 a       167     0    17     1     7
 -2.9650732728306067E-01 a       168     0    17     1     8
 -2.9141630547071362E-01 a       169     0    17     1     9
 -2.5412905922581575E-01 a       170     0    17     1    10
  3.8568555697828188E-01 a       171     0    18     1     1
 -2.0446842236829318E-01 a       172     0    18     1     2
 -3.0567600093088204E-01 a       173     0    18     1     3
  3.0052420970196548E-02 a       174     0    18     1     4
  2.4632735776043807E-01 a       175     0    18     1     5
 -2.6057383558044201E-02 a       176     0    18     1     6
  4.2076748645703516E-02 a       177     0    18     1     7
 -2.1475685967985084E-01 a       178     0    18     1     8
 -2.7208805970538036E-01 a       179     0    18     1     9
 -4.1652605979596816E-02 a       180     0    18     1    10
 -1.1082264187279124E-01 a       181     0    19     1     1
 -1.5734022740999543E-01 a       182     0    19     1     2
  4.9768524038928719E-01 a       183     0    19     1     3
 -3.6431405914484166E-01 a       184     0    19     1     4
 -3.5816069361408537E-01 a       185     0    19     1     5
  2.6454094634430431E-01 a       186     0    19     1     6
  2.6259888733902947E-01 a       187     0    19     1     7
  2.9946604580778668E-01 a       188     0    19     1     8
 -3.8766120344270745E-02 a       189     0    19     1     9
  2.4701053926548386E-01 a       190     0    19     1    10
 -3.5725164335862669E-01 a       191     0    20     1     1
 -3.3439061401516501E-01 a       192     0    20     1     2
 -9.7684521931983903E-01 a       193     0    20     1     3
  6.8977881524677576E-01 a       194     0    20     1     4
  2.8823491553802727E-01 a       195     0    20     1     5
 -4.1148878693727597E-01 a       196     0    20     1     6
  1.0351077406618947E+00 a       197     0    20     1     7
  1.0943422114517896E+00 a       198     0    20     1     8
  6.7110547506658136E-01 a       199     0    20     1     9
 -9.4201321210656008E-01 a       200     0    20     1    10
 -4.1004472432437250E-01 a       201     0    21     1     1
  5.7704821231342418E-01 a       202     0    21     1     2
  1.1398129149863967E+00 a       203     0    21     1     3
 -7.3812975387987756E-01 a       204     0    21     1     4
 -3.0811591729172394E-01 a       205     0    21     1     5
  2.6309493842903892E-01 a       206     0    21     1     6
 -7.7903602913307968E-01 a       207     0    21     1     7
 -7.8009287358423329E-02 a       208     0    21     1     8
 -6.2287192653590040E-01 a       209     0    21     1     9
  8.8123959009251074E-01 a       210     0    21     1    10
 -3.3733910275068213E-01 a       211     0    22     1     1
  1.5507023124750183E-01 a       212     0    22     1     2
  1.4217864302128894E-01 a       213     0    22     1     3
 -1.1081803514841883E-01 a       214     0    22     1     4
 -3.7270059749826207E-01 a       215     0    22     1     5
  3.6479207274036851E-01 a       216     0    22     1     6
 -3.9164543268888091E-01 a       217     0    22     1     7
  1.4869585471428465E-03 a       218     0    22     1     8
 -3.7564748900292438E-01 a       219     0    22     1     9
 -2.6302071504819197E-01 a       220     0    22     1    10
 -3.3591970884058553E-01 a       221     0    23     1     1
 -2.6171317845932446E-01 a       222     0    23     1     2
 -4.1964288539881411E-01 a       223     0    23     1     3
  6.8362220965786935E-01 a       224     0    23     1     4
 -5.7702243436307116E-02 a       225     0    23     1     5
 -4.1828041152322093E-01 a       226     0    23     1     6
  4.8813023588030580E-01 a       227     0    23     1     7
  1.3683497742796552E-01 a       228     0    23     1     8
  6.6521427739689509E-01 a       229     0    23     1     9
 -3.6438446127989854E-01 a       230     0    23     1    10
 -2.1486952718439681E-01 a       231     0    24     1     1
 -4.3065644414229984E-02 a       232     0    24     1     2
  2.4951216791317368E-01 a       233     0    24     1     3
 -1.5334541218312472E-01 a       234     0    24     1     4
  1.2170092460805863E-01 a       235     0    24     1     5
  4.8638101335003694E-02 a       236     0    24     1     6
  9.5398500061527669E-02 a       237     0    24     1     7
 -1.3806516271197317E-01 a       238     0    24     1     8
 -2.1019691614990887E-01 a       239     0    24     1     9
  3.4476744652612146E-01 a       240     0    24     1    10
  2.1557725662981603E-01 a       241     0    25     1     1
  3.2643716786230348E-03 a       242     0    25     1     2
  7.0597319731310271E-01 a       243     0    25     1     3
 -7.5995264753772551E-01 a       244     0    25     1     4
 -5.8514344386589909E-02 a       245     0    25     1     5
 -1.6407730208219573E-01 a       246     0    25     1     6
 -6.0186906180079269E-01 a       247     0    25     1     7
  2.8961709592922446E-02 a       248     0    25     1     8
 -9.5592756358004971E-01 a       249     0    25     1     9
  5.2557380505413642E-01 a       250     0    25     1    10
 -6.1596064108374957E-03 a       251     0    26     1     1
 -5.6966237551325916E-01 a       252     0    26     1     2
 -8.0408558762190163E-01 a       253     0    26     1     3
  6.1243573502311321E-01 a       254     0    26     1     4
 -1.3395434424641028E-01 a       255     0    26     1     5
 -2.0001811623884209E-02 a       256     0    26     1     6
  8.5674967441386862E-01 a       257     0    26     1     7
  3.1460845673934085E-01 a       258     0    26     1     8
  9.5345761566137743E-01 a       259     0    26     1     9
 -2.8719177851964123E-01 a       260     0    26     1    10
 -2.9008932090308664E-02 a       261     0    27     1     1
 -8.9746919581525406E-02 a       262     0    27     1     2
 -9.6682209669578412E-01 a       263     0    27     1     3
  1.0069845407307090E-01 a       264     0    27     1     4
  2.1506569516557428E-01 a       265     0    27     1     5
  1.3845122612807258E-02 a       266     0    27     1     6
  8.2250477709977732E-01 a       267     0    27     1     7
  7.2669425060526149E-01 a       268     0    27     1     8
  8.2026190770081098E-01 a       269     0    27     1     9
 -9.5690008826418194E-01 a       270     0    27     1    10
 -9.2230877605538331E-04 b       271     1     1
  5.4461087555744622E-02 b       272     1     2
 -1.0673004088299437E-02 b       273     1     3
 -8.7952427082556281E-02 b       274     1     4
  5.9557172030654207E-02 b       275     1     5
 -2.5868762079278129E-02 b       276     1     6
 -6.3808042654134971E-03 b       277     1     7
  2.1253959753799469E-03 b       278     1     8
 -6.4659219798852306E-03 b       279     1     9
 -3.3590981388108884E-02 b       280     1    10
  2.5304685406520400E-01 a       281     1     1     2     1
  3.8529945360024287E-01 a       282     1     1     2     2
  1.2421204372508934E-01 a       283     1     1     2     3
 -1.4192914090438005E-01 a       284     1     1     2     4
 -9.3353334729311711E-03 a       285     1     1     2     5
  1.5901499292255258E-01 a       286     1     1     2     6
 -1.7774050680632589E-01 a       287     1     1     2     7
 -1.6933444506785966E-01 a       288     1     1     2     8
  2.2494398585306219E-01 a       289     1     1     2     9
 -2.4170076136510624E-01 a       290     1     1     2    10
 -4.6709653213626334E-01 a       291     1     2     2     1
 -4.6081489016804905E-01 a       292     1     2     2     2
 -3.0061303801908301E-01 a       293     1     2     2     3
  1.5444524434372892E-01 a       294     1     2     2     4
 -4.6519852346392242E-02 a       295     1     2     2     5
 -3.8527913964730404E-01 a       296     1     2     2     6
 -2.3752600354488496E-01 a       297     1     2     2     7
  1.1955709054799900E-01 a       298     1     2     2     8
  3.2792378437647746E-01 a       299     1     2     2     9
  4.9873739204775314E-01 a       300     1     2     2    10
  3.8798074950849426E-01 a       301     1     3     2     1
 -2.0367381185049116E-01 a       302     1     3     2     2
  1.8062978118917151E-02 a       303     1     3     2     3
  2.6574763644051269E-01 a       304     1     3     2     4
 -4.1597717213556384E-01 a       305     1     3     2     5
 -1.7312896014777601E-01 a       306     1     3     2     6
 -3.4069038417013864E-01 a       307     1     3     2     7
 -2.4182718499438852E-01 a       308     1     3     2     8
 -5.0602943238248554E-01 a       309     1     3     2     9
 -8.3289076068014584E-02 a       310     1     3     2    10
  1.4943938689090538E-01 a       311     1     4     2     1
  1.3081097721360635E-01 a       312     1     4     2     2
 -4.3442306216846238E-01 a       313     1     4     2     3
  1.3499643468922207E-01 a       314     1     4     2     4
 -1.8648949639512155E-01 a       315     1     4     2     5
  2.1635722961769422E-03 a       316     1     4     2     6
  3.9199286066073391E-01 a       317     1     4     2     7
 -1.3983251552897764E-02 a       318     1     4     2     8
 -1.7839222903484578E-01 a       319     1     4     2     9
  2.0458970486976649E-01 a       320     1     4     2    10
 -4.3023637346951366E-01 a       321     1     5     2     1
 -4.0654481717712287E-01 a       322     1     5     2     2
 -9.2867706879465883E-02 a       323     1     5     2     3
 -6.2153230635925712E-02 a       324     1     5     2     4
 -2.2658745261106453E-02 a       325     1     5     2     5
 -8.7139721030159892E-02 a       326     1     5     2     6
  8.3739412364555958E-03 a       327     1     5     2     7
 -3.9126296245207104E-01 a       328     1     5     2     8
  2.0547220332935104E-01 a       329     1     5     2     9
  8.8251975061095056E-02 a       330     1     5     2    10
 -2.1859451852626099E-01 a       331     1     6     2     1
  2.0072350961762356E-01 a       332     1     6     2     2
  1.2621969756769544E-01 a       333     1     6     2     3
  1.3838137085949223E-01 a       334     1     6     2     4
  2.2136641893560047E-01 a       335     1     6     2     5
 -2.5094737235411824E-01 a       336     1     6     2     6
  1.4898439056363127E-01 a       337     1     6     2     7
  2.0495558460118418E-01 a       338     1     6     2     8
  1.0670334909442178E-01 a       339     1     6     2     9
  3.5154668342646539E-01 a       340     1     6     2    10
  3.3969537394013366E-01 a       341     1     7     2     1
 -1.3154890443576095E-02 a       342     1     7     2     2
 -1.2635738979217305E-02 a       343     1     7     2     3
 -2.1394552541651868E-01 a       344     1     7     2     4
  5.2263010677029553E-01 a       345     1     7     2     5
  3.3810498297098746E-01 a       346     1     7     2     6
 -7.5067522898672689E-02 a       347     1     7     2     7
  8.5665452456310756E-02 a       348     1     7     2     8
 -4.5385570609402515E-01 a       349     1     7     2     9
  4.5269783014907866E-01 a       350     1     7     2    10
  1.1491784873868439E-01 a       351     1     8     2     1
 -4.4643931975259105E-01 a       352     1     8     2     2
  4.3213593760744344E-02 a       353     1     8     2     3
  6.7504539453264994E-03 a       354     1     8     2     4
  9.3956243051526611E-02 a       355     1     8     2     5
  2.4605223917699098E-01 a       356     1     8     2     6
  3.1063860056372733E-01 a       357     1     8     2     7
 -4.9984045871063826E-01 a       358     1     8     2     8
  5.4322842845258235E-01 a       359     1     8     2     9
 -1.0321610656231836E-01 a       360     1     8     2    10
 -2.5651709445076126E-01 a       361     1     9     2     1
 -2.8393934702059509E-01 a       362     1     9     2     2
 -2.0824290341935650E-01 a       363     1     9     2     3
  3.0150225888780030E-01 a       364     1     9     2     4
  5.1176600029352948E-01 a       365     1     9     2     5
 -3.8348799264871047E-01 a       366     1     9     2     6
 -1.5911519019322531E-01 a       367     1     9     2     7
  3.0545170190285999E-02 a       368     1     9     2     8
 -1.6524264918712489E-01 a       369     1     9     2     9
  1.6148791265507417E-01 a       370     1     9     2    10
 -3.2089619317703105E-01 a       371     1    10     2     1
  9.0302775238688515E-02 a       372     1    10     2     2
  5.2009207884053985E-02 a       373     1    10     2     3
 -7.0326115264709399E-01 a       374     1    10     2     4
 -7.7596453940788346E-02 a       375     1    10     2     5
  3.3322938504492783E-03 a       376     1    10     2     6
  2.8235775059607565E-01 a       377     1    10     2     7
  3.4532128721463318E-01 a       378     1    10     2     8
 -3.1307702445671642E-01 a       379     1    10     2     9
 -1.1139491020892660E-01 a       380     1    10     2    10
  7.5535466955813563E-02 b       381     2     1
  6.6288590809221684E-02 b       382     2     2
 -5.4319848782306258E-02 b       383     2     3
 -6.6991085468119854E-02 b       384     2     4
  5.9663612448225989E-02 b       385     2     5
  1.0069960680204169E-01 b       386     2     6
  3.2195388772050200E-02 b       387     2     7
 -2.6745794407620781E-02 b       388     2     8
  3.5534105314085233E-02 b       389     2     9
 -4.8495634838262712E-02 b       390     2    10
  1.6990844218884815E-02 a       391     2     1     3     1
  9.6800238756897562E-03 a       392     2     2     3     1
 -6.1823242586176652E-01 a       393     2     3     3     1
  3.9505524157556558E-02 a       394     2     4     3     1
  8.7090333824612554E-01 a       395     2     5     3     1
  2.3786952893893605E-02 a       396     2     6     3     1
  2.9304118291579188E-02 a       397     2     7     3     1
 -4.8420877885474228E-03 a       398     2     8     3     1
  8.1475650479861210E-03 a       399     2     9     3     1
 -3.0343512953180901E-01 a       400     2    10     3     1
  7.8987468244377967E-02 b       401     3     1
