################################################################################
# Neural network connection values (weights and biases).
################################################################################
# Col  Name       Description
################################################################################
# 1    connection Neural network connection value.
# 2    t          Connection type (a = weight, b = bias).
# 3    index      Index enumerating weights.
# 4    l_s        Starting point layer (end point layer for biases).
# 5    n_s        Starting point neuron in starting layer (end point neuron for biases).
# 6    l_e        End point layer.
# 7    n_e        End point neuron in end layer.
################################################################################
#                      1 2         3     4     5     6     7
#             connection t     index   l_s   n_s   l_e   n_e
############################################################
 -3.8222292188926238E-01 a         1     0     1     1     1
 -4.4004249596931416E-01 a         2     0     1     1     2
 -8.1046917079016256E-01 a         3     0     1     1     3
  2.2494252046143096E-01 a         4     0     1     1     4
  4.4349137718296139E-01 a         5     0     1     1     5
  9.8834951463027310E-01 a         6     0     1     1     6
  6.2520604787850348E-02 a         7     0     1     1     7
 -1.4894505335638264E+00 a         8     0     1     1     8
  1.2014239925234489E+00 a         9     0     1     1     9
  3.9027359507531906E-01 a        10     0     1     1    10
  4.9353467044938826E-01 a        11     0     1     1    11
  7.1930616259018110E-01 a        12     0     1     1    12
 -2.4575710860497971E-01 a        13     0     1     1    13
  3.9397251914484249E-01 a        14     0     1     1    14
 -2.8209366947294384E-01 a        15     0     1     1    15
  6.8866078512579487E-01 a        16     0     2     1     1
  1.1860076177039598E+00 a        17     0     2     1     2
  6.7144423605644477E-01 a        18     0     2     1     3
  2.6540853233384953E-01 a        19     0     2     1     4
  1.3779107772008092E+00 a        20     0     2     1     5
 -1.0698691557414159E+00 a        21     0     2     1     6
  4.6466270520478364E-01 a        22     0     2     1     7
  7.3940793559971263E-01 a        23     0     2     1     8
  3.5639812483065172E+00 a        24     0     2     1     9
  1.1933155575667816E-01 a        25     0     2     1    10
  5.0056094431239651E-01 a        26     0     2     1    11
  3.2048083796470540E-02 a        27     0     2     1    12
 -3.5576969610506235E+00 a        28     0     2     1    13
  8.7323931107478270E-01 a        29     0     2     1    14
 -3.1931153203962370E-01 a        30     0     2     1    15
 -8.3705989031135630E-01 a        31     0     3     1     1
 -4.5814108474543919E-01 a        32     0     3     1     2
 -4.9040230068697138E-01 a        33     0     3     1     3
  6.6682048753974210E-01 a        34     0     3     1     4
  2.8924543283521335E-02 a        35     0     3     1     5
  9.1719042701141307E-01 a        36     0     3     1     6
 -1.1468669605096247E-01 a        37     0     3     1     7
 -1.4779553328837089E+00 a        38     0     3     1     8
  1.1843769198514693E+00 a        39     0     3     1     9
  5.4825397692678046E-01 a        40     0     3     1    10
  2.1354731140220051E-01 a        41     0     3     1    11
  1.2204221094524829E-01 a        42     0     3     1    12
 -2.7327834869616768E-01 a        43     0     3     1    13
  4.8114899089806501E-01 a        44     0     3     1    14
 -4.1879473824569663E-01 a        45     0     3     1    15
  6.6279245480333282E-01 a        46     0     4     1     1
  9.8701165714232542E-01 a        47     0     4     1     2
  3.3660466059909322E-01 a        48     0     4     1     3
  5.2204062002268992E-01 a        49     0     4     1     4
  8.5752545496470789E-01 a        50     0     4     1     5
 -5.1220915533922784E-01 a        51     0     4     1     6
  1.2539461706312029E+00 a        52     0     4     1     7
  3.6233271545220780E-01 a        53     0     4     1     8
  3.2479868920757067E+00 a        54     0     4     1     9
  1.1927651287081806E-01 a        55     0     4     1    10
 -1.2859135391863074E-02 a        56     0     4     1    11
 -8.7639196774848091E-02 a        57     0     4     1    12
 -3.8611411807346321E+00 a        58     0     4     1    13
  8.2191666156941512E-01 a        59     0     4     1    14
 -3.8147651306012820E-01 a        60     0     4     1    15
 -6.6343533429240620E-01 a        61     0     5     1     1
 -2.9488449118748827E-01 a        62     0     5     1     2
 -7.9088115998213082E-01 a        63     0     5     1     3
  7.0141395505124993E-02 a        64     0     5     1     4
  1.6117090143801630E-01 a        65     0     5     1     5
  5.6909740900724881E-01 a        66     0     5     1     6
  1.0423955622808005E-01 a        67     0     5     1     7
 -8.2060876455525555E-01 a        68     0     5     1     8
  9.0825963638225815E-01 a        69     0     5     1     9
  5.5376751403688307E-02 a        70     0     5     1    10
  3.3773963018037600E-01 a        71     0     5     1    11
  2.9353459197974080E-01 a        72     0     5     1    12
 -2.7342611304174175E-01 a        73     0     5     1    13
  1.6955033915903528E-01 a        74     0     5     1    14
  3.0292222669793273E-01 a        75     0     5     1    15
  8.4886544099711980E-01 a        76     0     6     1     1
  6.5174099212567127E-01 a        77     0     6     1     2
  1.1548318476691267E-01 a        78     0     6     1     3
  9.0527860263689752E-01 a        79     0     6     1     4
  1.0161634679832778E+00 a        80     0     6     1     5
 -1.1964979639294167E+00 a        81     0     6     1     6
  1.0570093511083292E+00 a        82     0     6     1     7
  4.3765883930441768E-01 a        83     0     6     1     8
  3.2119876297983905E+00 a        84     0     6     1     9
 -5.6881485289301625E-01 a        85     0     6     1    10
  4.0773218909338194E-01 a        86     0     6     1    11
  4.0394387949840094E-01 a        87     0     6     1    12
 -4.0263485661910456E+00 a        88     0     6     1    13
  7.5026439412453205E-01 a        89     0     6     1    14
 -1.0541648378345028E+00 a        90     0     6     1    15
 -6.9044341484254601E-01 a        91     0     7     1     1
 -3.0901916045053480E-02 a        92     0     7     1     2
 -5.1404789956262098E-01 a        93     0     7     1     3
  6.8117083290089997E-01 a        94     0     7     1     4
  5.2838836739480333E-01 a        95     0     7     1     5
 -2.8807891280772158E-02 a        96     0     7     1     6
 -5.1857005027883774E-01 a        97     0     7     1     7
 -5.6993136004236389E-01 a        98     0     7     1     8
  1.0032362619897877E+00 a        99     0     7     1     9
  7.2636605071585481E-01 a       100     0     7     1    10
  1.2392960476971096E-01 a       101     0     7     1    11
  1.3982114614386498E-01 a       102     0     7     1    12
  2.4403769462551111E-02 a       103     0     7     1    13
  3.3581459434115252E-01 a       104     0     7     1    14
 -1.5574040652403859E-01 a       105     0     7     1    15
  4.6954402458743899E-01 a       106     0     8     1     1
  5.3716496022024451E-01 a       107     0     8     1     2
  7.2949845461985430E-01 a       108     0     8     1     3
  6.1442029050051350E-01 a       109     0     8     1     4
  1.2772618252887091E+00 a       110     0     8     1     5
 -5.6001189320306832E-01 a       111     0     8     1     6
  1.0103700945443042E+00 a       112     0     8     1     7
  4.3561401593546317E-01 a       113     0     8     1     8
  3.3197439130646065E+00 a       114     0     8     1     9
 -6.4698451321505337E-03 a       115     0     8     1    10
  1.6703411592357706E-01 a       116     0     8     1    11
  1.4847621372403516E-01 a       117     0     8     1    12
 -3.5268732798510096E+00 a       118     0     8     1    13
  6.1884181570949337E-01 a       119     0     8     1    14
 -9.8359346616903409E-01 a       120     0     8     1    15
  1.2022549381609322E+00 a       121     0     9     1     1
  1.1753522545202948E+00 a       122     0     9     1     2
  6.7521951473317376E-01 a       123     0     9     1     3
  9.9681972044197864E-01 a       124     0     9     1     4
  9.8506887078957550E-01 a       125     0     9     1     5
 -7.6414129699274502E-01 a       126     0     9     1     6
  1.5583372960009916E+00 a       127     0     9     1     7
  1.6147111319706022E+00 a       128     0     9     1     8
  3.0707713315493148E+00 a       129     0     9     1     9
 -2.2435343992802611E-02 a       130     0     9     1    10
  9.1472850077627166E-01 a       131     0     9     1    11
  3.9703321905431227E-01 a       132     0     9     1    12
 -3.7715780360284192E+00 a       133     0     9     1    13
  6.4104700277019921E-01 a       134     0     9     1    14
 -7.7237876074610035E-01 a       135     0     9     1    15
 -1.0518588465419023E+00 a       136     0    10     1     1
 -3.1225147764086681E-02 a       137     0    10     1     2
 -6.2919559108136647E-01 a       138     0    10     1     3
  2.3317460668545414E-01 a       139     0    10     1     4
 -1.9971359871494382E-01 a       140     0    10     1     5
  7.3020877590998245E-01 a       141     0    10     1     6
 -8.0257786001708659E-02 a       142     0    10     1     7
 -1.3521223858099003E+00 a       143     0    10     1     8
  6.3906450842217610E-01 a       144     0    10     1     9
  2.4330682404881188E-01 a       145     0    10     1    10
  3.0679659138707377E-01 a       146     0    10     1    11
  3.2518592843682853E-01 a       147     0    10     1    12
 -3.5568354199079993E-01 a       148     0    10     1    13
  3.2330608751042988E-01 a       149     0    10     1    14
 -4.8186670210727905E-01 a       150     0    10     1    15
  8.8115552902747107E-01 a       151     0    11     1     1
  6.4487116121808352E-01 a       152     0    11     1     2
  4.2658433979313193E-01 a       153     0    11     1     3
  8.3932685290653986E-01 a       154     0    11     1     4
  8.8297320191664275E-01 a       155     0    11     1     5
 -5.5269734134337234E-01 a       156     0    11     1     6
  1.2056899948499527E+00 a       157     0    11     1     7
  4.5543225066059445E-01 a       158     0    11     1     8
  3.1229527789560314E+00 a       159     0    11     1     9
 -3.7191753917589759E-01 a       160     0    11     1    10
  2.5889789732226404E-01 a       161     0    11     1    11
 -1.8736177780450175E-01 a       162     0    11     1    12
 -3.9848653917672019E+00 a       163     0    11     1    13
  5.5145612541238087E-01 a       164     0    11     1    14
 -5.2427744398252651E-01 a       165     0    11     1    15
 -1.2526919306808868E+00 a       166     0    12     1     1
 -1.7955090674782428E-01 a       167     0    12     1     2
 -1.0308426761278477E+00 a       168     0    12     1     3
  3.9999306094127614E-02 a       169     0    12     1     4
  4.3194152387480705E-01 a       170     0    12     1     5
 -4.5346336916703750E-01 a       171     0    12     1     6
 -8.0356813960760842E-01 a       172     0    12     1     7
 -2.4792572345654659E-01 a       173     0    12     1     8
  9.1118758007505418E-01 a       174     0    12     1     9
  3.2175747509479424E-01 a       175     0    12     1    10
  3.2801052275008280E-01 a       176     0    12     1    11
  2.3218779482690402E-01 a       177     0    12     1    12
 -3.4749380180953948E-01 a       178     0    12     1    13
  7.1972983240143795E-01 a       179     0    12     1    14
  4.2859188216202750E-02 a       180     0    12     1    15
 -5.2865765876763460E-01 a       181     0    13     1     1
  9.7398468121939252E-01 a       182     0    13     1     2
  9.3441038437040477E-02 a       183     0    13     1     3
  5.3324263715149967E-01 a       184     0    13     1     4
  1.0445980721207133E+00 a       185     0    13     1     5
 -8.1726956436359532E-01 a       186     0    13     1     6
 -9.4919473637288276E-01 a       187     0    13     1     7
 -9.3786345495951584E-01 a       188     0    13     1     8
  3.4253200881675427E+00 a       189     0    13     1     9
 -5.1388168893518449E-01 a       190     0    13     1    10
  3.3016076800264160E-01 a       191     0    13     1    11
  2.1117611329581240E-01 a       192     0    13     1    12
 -3.5591030593629300E+00 a       193     0    13     1    13
  7.4077273546644096E-01 a       194     0    13     1    14
 -5.6611581584302006E-01 a       195     0    13     1    15
 -2.1352671340374472E+00 a       196     0    14     1     1
 -4.0026980783404648E-01 a       197     0    14     1     2
 -1.4150959897843376E-01 a       198     0    14     1     3
  2.9364721956634759E-01 a       199     0    14     1     4
  2.5454417332502109E-02 a       200     0    14     1     5
 -9.4470266513668499E-01 a       201     0    14     1     6
 -1.5179987786504316E+00 a       202     0    14     1     7
  1.4049240710483166E+00 a       203     0    14     1     8
  8.3592423509662428E-01 a       204     0    14     1     9
  6.8403748942212583E-01 a       205     0    14     1    10
  4.6028122826501228E-01 a       206     0    14     1    11
  1.9071666084793082E-01 a       207     0    14     1    12
  3.4739960986806351E-01 a       208     0    14     1    13
  7.4109988417793593E-01 a       209     0    14     1    14
  5.6428612860658411E-01 a       210     0    14     1    15
 -2.1999506142050143E+00 a       211     0    15     1     1
  3.9450337966727911E-01 a       212     0    15     1     2
 -1.4959523186827295E+00 a       213     0    15     1     3
  3.1031899275189040E-01 a       214     0    15     1     4
  1.3437524204528313E+00 a       215     0    15     1     5
 -2.0009596050775058E+00 a       216     0    15     1     6
 -5.8029194195135565E+00 a       217     0    15     1     7
 -6.2980763085868396E+00 a       218     0    15     1     8
  4.1787407726332502E+00 a       219     0    15     1     9
  1.6407304335851505E-01 a       220     0    15     1    10
 -1.1060843653987655E+00 a       221     0    15     1    11
  3.7572991123433673E-02 a       222     0    15     1    12
 -3.5928741610522512E+00 a       223     0    15     1    13
  7.0653671105808269E-01 a       224     0    15     1    14
  1.2403839327361434E-01 a       225     0    15     1    15
 -1.0263087040991401E+00 a       226     0    16     1     1
 -4.3342993077868663E-01 a       227     0    16     1     2
  2.1437496515112993E+00 a       228     0    16     1     3
  2.3502603659939139E-01 a       229     0    16     1     4
  1.0856693987293253E+00 a       230     0    16     1     5
 -1.5144685082457028E+00 a       231     0    16     1     6
 -1.4203295628637327E+00 a       232     0    16     1     7
  3.2432814920896460E+00 a       233     0    16     1     8
  1.2881773534931400E+00 a       234     0    16     1     9
  1.7195310481884718E+00 a       235     0    16     1    10
  9.1996409205056762E-01 a       236     0    16     1    11
  8.7669478181123495E-01 a       237     0    16     1    12
  6.1702760041407989E-01 a       238     0    16     1    13
 -1.0246564372114633E-01 a       239     0    16     1    14
  2.7352266793157618E+00 a       240     0    16     1    15
 -3.8266544836033547E+00 a       241     0    17     1     1
  6.7307307265135008E-02 a       242     0    17     1     2
  2.8832255919005743E+00 a       243     0    17     1     3
 -1.7987155381917856E+00 a       244     0    17     1     4
 -6.7655011034639356E-01 a       245     0    17     1     5
  3.9443583627634018E+00 a       246     0    17     1     6
  4.4060017826139113E+00 a       247     0    17     1     7
 -1.6989871945633411E-01 a       248     0    17     1     8
  2.0501293174745308E+00 a       249     0    17     1     9
 -1.4477529590077740E+00 a       250     0    17     1    10
 -4.7658430547084842E+00 a       251     0    17     1    11
 -1.3464891556501288E+00 a       252     0    17     1    12
  3.6602708518960059E+00 a       253     0    17     1    13
 -1.1292947594109226E+00 a       254     0    17     1    14
 -3.2204951074797155E+00 a       255     0    17     1    15
  2.3854515423738216E+00 a       256     0    18     1     1
  1.0860699274649903E+00 a       257     0    18     1     2
  9.2103655506166726E-01 a       258     0    18     1     3
  1.2399769361891781E+00 a       259     0    18     1     4
  3.4833777808990498E+00 a       260     0    18     1     5
 -8.0428749525890783E-02 a       261     0    18     1     6
  2.2760746991020517E+00 a       262     0    18     1     7
  3.7610117416978273E-01 a       263     0    18     1     8
 -1.3719000193727787E-01 a       264     0    18     1     9
  4.5627190955308250E-01 a       265     0    18     1    10
 -9.7258192664522836E-01 a       266     0    18     1    11
  9.2167411709635960E-01 a       267     0    18     1    12
 -9.7555462732160381E-01 a       268     0    18     1    13
  2.5313242092755961E+00 a       269     0    18     1    14
 -2.6680918879580782E+00 a       270     0    18     1    15
  6.6183839640995645E-01 a       271     0    19     1     1
 -1.1718126590124744E+00 a       272     0    19     1     2
 -8.0151875303603759E-01 a       273     0    19     1     3
 -8.3491753313479422E-01 a       274     0    19     1     4
 -1.6432290653599684E+00 a       275     0    19     1     5
  1.8268459599486659E+00 a       276     0    19     1     6
 -2.1938805891219793E+00 a       277     0    19     1     7
 -2.3385806659429942E-03 a       278     0    19     1     8
  1.7687617707176782E+00 a       279     0    19     1     9
  4.3180039634082007E-01 a       280     0    19     1    10
  1.0286865085428376E+00 a       281     0    19     1    11
 -7.1876278533922158E-02 a       282     0    19     1    12
 -9.4562695310012337E-02 a       283     0    19     1    13
 -1.4844734666038650E+00 a       284     0    19     1    14
  1.2100424496955209E-01 a       285     0    19     1    15
  2.7430212868256389E+00 a       286     0    20     1     1
  7.1247301588910128E-01 a       287     0    20     1     2
  8.0066257556269238E-01 a       288     0    20     1     3
  1.6208104348267638E+00 a       289     0    20     1     4
  2.2716516803038442E+00 a       290     0    20     1     5
 -1.8725492184910972E-01 a       291     0    20     1     6
  1.3575387621072177E+00 a       292     0    20     1     7
  1.1052268186063918E+00 a       293     0    20     1     8
  1.3966192863092795E+00 a       294     0    20     1     9
  6.2556478285599093E-01 a       295     0    20     1    10
 -2.0705634158254574E-01 a       296     0    20     1    11
  6.3050176073029252E-01 a       297     0    20     1    12
 -1.5220173356093532E+00 a       298     0    20     1    13
  2.4363802011125655E+00 a       299     0    20     1    14
 -1.8020862778178577E+00 a       300     0    20     1    15
  2.0746759361152365E+00 a       301     0    21     1     1
 -1.0937040958272035E+00 a       302     0    21     1     2
 -6.1544413799346842E-01 a       303     0    21     1     3
 -1.7338463199392912E-01 a       304     0    21     1     4
 -1.4244419639118360E+00 a       305     0    21     1     5
  1.4712901093737301E+00 a       306     0    21     1     6
 -1.6754937521431879E+00 a       307     0    21     1     7
 -1.9617025625413734E-01 a       308     0    21     1     8
  1.7321428285944196E+00 a       309     0    21     1     9
  8.5445300964313309E-01 a       310     0    21     1    10
  8.8130810879530708E-01 a       311     0    21     1    11
  7.5296963735762140E-02 a       312     0    21     1    12
 -7.9305384831224526E-02 a       313     0    21     1    13
 -8.4989243006701232E-01 a       314     0    21     1    14
 -8.9644937806967262E-01 a       315     0    21     1    15
  2.2048801081809453E+00 a       316     0    22     1     1
  6.4446857258928603E-01 a       317     0    22     1     2
  1.0641640088525022E+00 a       318     0    22     1     3
  8.4337099453552722E-01 a       319     0    22     1     4
  1.6537164284343147E+00 a       320     0    22     1     5
 -3.0192583630757774E-01 a       321     0    22     1     6
  1.4331134087057298E+00 a       322     0    22     1     7
  1.2506545041033901E+00 a       323     0    22     1     8
  7.6923293076079924E-01 a       324     0    22     1     9
  9.4940242933611341E-01 a       325     0    22     1    10
 -5.5657701813187432E-01 a       326     0    22     1    11
  4.4704455650139036E-01 a       327     0    22     1    12
 -1.4085259860411459E+00 a       328     0    22     1    13
  2.3619379641075731E+00 a       329     0    22     1    14
 -1.1248724944709629E+00 a       330     0    22     1    15
  1.1506693364141685E+00 a       331     0    23     1     1
  5.4405835208953612E-01 a       332     0    23     1     2
  2.6198109686038173E+00 a       333     0    23     1     3
  1.1460405010578547E+00 a       334     0    23     1     4
  1.9102956440986798E+00 a       335     0    23     1     5
 -4.2173652963770336E-01 a       336     0    23     1     6
  1.1850457273597697E+00 a       337     0    23     1     7
  1.2961641185649857E+00 a       338     0    23     1     8
  8.1783733776768153E-01 a       339     0    23     1     9
  1.4385838778579518E+00 a       340     0    23     1    10
 -3.7409607556656982E-02 a       341     0    23     1    11
  8.1378812281603419E-01 a       342     0    23     1    12
 -6.4343187734632301E-01 a       343     0    23     1    13
  1.8233894902882115E+00 a       344     0    23     1    14
  1.3749965849300689E+00 a       345     0    23     1    15
 -3.6001289257627689E-01 b       346     1     1
 -3.2258366321212519E+00 b       347     1     2
 -9.1738516092781497E-01 b       348     1     3
 -4.9936886956977613E+00 b       349     1     4
 -7.3712647496801429E+00 b       350     1     5
  8.5403464379799210E-01 b       351     1     6
 -6.1678602317529074E-01 b       352     1     7
  3.8990007806188065E-01 b       353     1     8
 -5.1991752128449455E+00 b       354     1     9
 -2.6814510927211379E+00 b       355     1    10
 -2.0613049012139650E+00 b       356     1    11
 -3.2182157712178325E+00 b       357     1    12
  2.0294010695562510E+00 b       358     1    13
 -5.1269480556326599E+00 b       359     1    14
 -1.9159225757959977E-01 b       360     1    15
  3.4986825168269533E+00 a       361     1     1     2     1
  3.2140454753959674E-01 a       362     1     1     2     2
  4.4004446622758753E+00 a       363     1     1     2     3
 -2.7308748386683330E+00 a       364     1     1     2     4
  1.3441950965305389E+00 a       365     1     1     2     5
 -2.1172961844677234E+00 a       366     1     1     2     6
  6.3548439240304500E-01 a       367     1     1     2     7
 -9.8762379536825415E-02 a       368     1     1     2     8
  1.5880712463907196E+00 a       369     1     1     2     9
 -3.4706913681173446E-01 a       370     1     1     2    10
  1.8110549376654224E+00 a       371     1     1     2    11
  6.3940639515620434E-01 a       372     1     1     2    12
  9.1460372240184207E-01 a       373     1     1     2    13
  1.3152156333501064E+00 a       374     1     1     2    14
  2.7795337460584973E-01 a       375     1     1     2    15
 -8.9513984388755197E-01 a       376     1     2     2     1
  1.0917423882308510E+00 a       377     1     2     2     2
  4.2228931906275271E+00 a       378     1     2     2     3
  3.4786371759963580E-01 a       379     1     2     2     4
  3.2889106386430872E-01 a       380     1     2     2     5
  1.6211573366955558E+00 a       381     1     2     2     6
 -1.6024368627290282E+00 a       382     1     2     2     7
  8.5811222851983138E-01 a       383     1     2     2     8
  1.4407079134805884E-01 a       384     1     2     2     9
 -1.6275435165052818E-01 a       385     1     2     2    10
  5.8059168426128748E-03 a       386     1     2     2    11
  3.1153277312855461E+00 a       387     1     2     2    12
  3.5393873026167449E-01 a       388     1     2     2    13
  4.5735465743595777E-01 a       389     1     2     2    14
  1.7672952495312679E+00 a       390     1     2     2    15
 -1.0284990639533227E+00 a       391     1     3     2     1
  1.9235932155579207E+00 a       392     1     3     2     2
  8.8541128721421603E-01 a       393     1     3     2     3
 -8.7065772920199180E-01 a       394     1     3     2     4
  4.9993829117978916E-01 a       395     1     3     2     5
  5.0369691375941192E+00 a       396     1     3     2     6
  1.0949582517366154E+00 a       397     1     3     2     7
  4.0640010239239277E-01 a       398     1     3     2     8
  6.2565363211020120E-01 a       399     1     3     2     9
  1.6615514676790450E+00 a       400     1     3     2    10
 -4.8470557143948312E-01 a       401     1     3     2    11
  2.4690822627254980E+00 a       402     1     3     2    12
 -2.6853096331821913E-01 a       403     1     3     2    13
  1.4293266514583882E+00 a       404     1     3     2    14
  8.7160972753012744E-01 a       405     1     3     2    15
  5.1135263433815881E-01 a       406     1     4     2     1
 -1.7668376620143218E+00 a       407     1     4     2     2
 -1.0186701525170727E+00 a       408     1     4     2     3
  1.0168211335888551E-02 a       409     1     4     2     4
 -1.0687073025296947E+00 a       410     1     4     2     5
 -2.5390841744223258E+00 a       411     1     4     2     6
 -1.7901167802306539E+00 a       412     1     4     2     7
 -2.2289744327036133E-03 a       413     1     4     2     8
 -5.0602040708222029E-01 a       414     1     4     2     9
 -5.7239962720509734E-02 a       415     1     4     2    10
 -8.7462725532324759E-02 a       416     1     4     2    11
  3.4114874187374289E+00 a       417     1     4     2    12
 -5.4753478698378888E-01 a       418     1     4     2    13
  2.9765792715378558E-01 a       419     1     4     2    14
 -1.2972384349616350E+00 a       420     1     4     2    15
  3.3442756098712667E-01 a       421     1     5     2     1
 -2.8352068614380116E-01 a       422     1     5     2     2
 -2.0041184762166244E+00 a       423     1     5     2     3
  1.5200698626516770E-01 a       424     1     5     2     4
  5.8701996646562427E-01 a       425     1     5     2     5
  1.6053155310743317E-01 a       426     1     5     2     6
  2.9320921833719731E+00 a       427     1     5     2     7
 -9.1786292101395439E-02 a       428     1     5     2     8
 -9.5395106528930040E-01 a       429     1     5     2     9
  2.6200204163863892E+00 a       430     1     5     2    10
 -1.2364301410698535E+00 a       431     1     5     2    11
 -2.1908054102672962E+00 a       432     1     5     2    12
  2.4110254584748478E+00 a       433     1     5     2    13
 -4.5345276701606874E-01 a       434     1     5     2    14
 -2.0777527518007166E+00 a       435     1     5     2    15
  4.6204662461127510E-01 a       436     1     6     2     1
  2.0147781714755295E-01 a       437     1     6     2     2
  7.4772717209050021E-01 a       438     1     6     2     3
 -1.6556875207532242E+00 a       439     1     6     2     4
  1.0478296927430326E+00 a       440     1     6     2     5
  3.2417641607995047E-02 a       441     1     6     2     6
 -2.5944963062665422E-01 a       442     1     6     2     7
 -3.0383175769675486E-01 a       443     1     6     2     8
  6.8773345049161694E-01 a       444     1     6     2     9
 -1.1416472643300213E+00 a       445     1     6     2    10
  8.6283759834441842E-01 a       446     1     6     2    11
 -2.8541055585463426E+00 a       447     1     6     2    12
  1.8484523105053136E-02 a       448     1     6     2    13
 -3.2091215225185765E-01 a       449     1     6     2    14
 -2.4482064536930556E-01 a       450     1     6     2    15
 -2.4158219274901085E+00 a       451     1     7     2     1
 -6.1107894088306591E-01 a       452     1     7     2     2
 -1.1036874702527155E+00 a       453     1     7     2     3
  1.4481468703902913E+00 a       454     1     7     2     4
 -9.1010875454651063E-01 a       455     1     7     2     5
  5.0644257378797660E-03 a       456     1     7     2     6
  1.9024706420480502E+00 a       457     1     7     2     7
  1.1354333377741999E+00 a       458     1     7     2     8
  1.8192790205539702E+00 a       459     1     7     2     9
 -1.8567709212518817E+00 a       460     1     7     2    10
  8.0639729702942198E-01 a       461     1     7     2    11
 -1.7977572631364536E+00 a       462     1     7     2    12
 -4.8567479584754214E-01 a       463     1     7     2    13
  8.3961559333949498E-01 a       464     1     7     2    14
 -6.5094807711118793E-02 a       465     1     7     2    15
 -7.5434425904496491E-02 a       466     1     8     2     1
 -1.8915915710095021E+00 a       467     1     8     2     2
  1.4842002897142479E+00 a       468     1     8     2     3
  1.9417354278769297E+00 a       469     1     8     2     4
  7.6287413618985334E-01 a       470     1     8     2     5
 -2.1884402133824530E+00 a       471     1     8     2     6
  1.4307567954901840E-01 a       472     1     8     2     7
  2.1804111583145691E-01 a       473     1     8     2     8
 -3.0278697623983750E-02 a       474     1     8     2     9
  1.3298295889109435E+00 a       475     1     8     2    10
  7.7811867819485514E-01 a       476     1     8     2    11
 -3.0526608739600625E-01 a       477     1     8     2    12
  2.3647893036254350E+00 a       478     1     8     2    13
  3.9983654727934581E-01 a       479     1     8     2    14
 -1.7422206631124926E-01 a       480     1     8     2    15
 -2.9310686612941095E-01 a       481     1     9     2     1
 -7.6594651369475741E-01 a       482     1     9     2     2
  5.7928915015899318E-01 a       483     1     9     2     3
  1.8969613889139529E+00 a       484     1     9     2     4
  6.1947200260565660E-01 a       485     1     9     2     5
  3.1442625703722588E-01 a       486     1     9     2     6
 -6.1685017224777927E-01 a       487     1     9     2     7
 -4.2004327180154805E-01 a       488     1     9     2     8
 -2.9740820585519556E-01 a       489     1     9     2     9
 -2.1703721863204319E+00 a       490     1     9     2    10
 -1.0115353842151869E+00 a       491     1     9     2    11
  2.5347113987858045E+00 a       492     1     9     2    12
  1.4803620938168751E+00 a       493     1     9     2    13
 -4.4214295312177271E-01 a       494     1     9     2    14
 -1.6717100503806055E+00 a       495     1     9     2    15
 -2.8294796601787309E-01 a       496     1    10     2     1
  7.3218252495708458E-01 a       497     1    10     2     2
  7.5429559669636381E-01 a       498     1    10     2     3
 -1.9256300857499695E+00 a       499     1    10     2     4
 -1.0590037490351665E+00 a       500     1    10     2     5
 -1.9675473058262964E+00 a       501     1    10     2     6
 -4.5321881274233239E-01 a       502     1    10     2     7
 -2.8863308977429253E-01 a       503     1    10     2     8
  6.6895118204830928E-01 a       504     1    10     2     9
  2.8744100981040792E+00 a       505     1    10     2    10
  1.7176959945860450E+00 a       506     1    10     2    11
  1.9150751758170828E+00 a       507     1    10     2    12
  8.0778692283201292E-01 a       508     1    10     2    13
  7.2098938689949155E-01 a       509     1    10     2    14
  1.2525016059036953E+00 a       510     1    10     2    15
 -1.2450582556671883E+00 a       511     1    11     2     1
  1.6713384932600350E+00 a       512     1    11     2     2
  1.6247877796451780E+00 a       513     1    11     2     3
 -2.0294841571913707E+00 a       514     1    11     2     4
  4.8516293178362635E-01 a       515     1    11     2     5
 -2.8148926849235916E+00 a       516     1    11     2     6
  2.0930780432128460E+00 a       517     1    11     2     7
 -6.6639856911315309E-01 a       518     1    11     2     8
  1.3138515787103180E+00 a       519     1    11     2     9
 -5.1212976218445236E+00 a       520     1    11     2    10
  1.2188545901093246E+00 a       521     1    11     2    11
  1.7865697726549536E+00 a       522     1    11     2    12
 -5.9225115893300373E-01 a       523     1    11     2    13
  1.3262240577289237E+00 a       524     1    11     2    14
  1.9558498044680173E-01 a       525     1    11     2    15
 -1.5472022603901319E+00 a       526     1    12     2     1
 -2.8653392296582303E+00 a       527     1    12     2     2
 -1.0815305814232384E-01 a       528     1    12     2     3
 -5.4405107141744326E-02 a       529     1    12     2     4
  1.1484936120964049E+00 a       530     1    12     2     5
 -1.6359675983218225E+00 a       531     1    12     2     6
 -2.1029705022222780E+00 a       532     1    12     2     7
 -9.5691788954820123E-01 a       533     1    12     2     8
  1.0788373082708094E+00 a       534     1    12     2     9
  5.6737297888037989E-02 a       535     1    12     2    10
  5.2370815371223045E-01 a       536     1    12     2    11
  9.0722904439119223E-01 a       537     1    12     2    12
  3.0926054314638192E+00 a       538     1    12     2    13
  1.8270955621388434E+00 a       539     1    12     2    14
  1.9327324760502580E+00 a       540     1    12     2    15
  2.7978967708647201E-01 a       541     1    13     2     1
  1.7622531319870043E+00 a       542     1    13     2     2
  6.7579552231527951E-01 a       543     1    13     2     3
 -4.1823370868464521E-01 a       544     1    13     2     4
  1.4265842131397248E+00 a       545     1    13     2     5
  6.2720303034785987E+00 a       546     1    13     2     6
 -2.0425886010383870E-01 a       547     1    13     2     7
  1.3633362354060341E+00 a       548     1    13     2     8
 -2.3678652950144205E-01 a       549     1    13     2     9
 -2.2144258528380174E+00 a       550     1    13     2    10
 -4.7174735146997365E-01 a       551     1    13     2    11
 -2.0548051432771106E+00 a       552     1    13     2    12
 -8.7720133964361935E-01 a       553     1    13     2    13
  4.7978325311328546E-01 a       554     1    13     2    14
 -1.0491225486110136E+00 a       555     1    13     2    15
  3.0506275822818618E-01 a       556     1    14     2     1
  3.5992358012108411E-01 a       557     1    14     2     2
 -1.4807520761129995E+00 a       558     1    14     2     3
  7.0569511551076480E-01 a       559     1    14     2     4
  4.4412593521167387E-01 a       560     1    14     2     5
  5.0308559644590711E-01 a       561     1    14     2     6
 -3.0224066818853934E-01 a       562     1    14     2     7
  2.1123953887980770E-01 a       563     1    14     2     8
 -1.8664877315557712E-01 a       564     1    14     2     9
 -3.2325331689632515E+00 a       565     1    14     2    10
  5.1457892616569312E-01 a       566     1    14     2    11
 -1.2126997452744439E+00 a       567     1    14     2    12
 -8.2312689517231241E-01 a       568     1    14     2    13
  5.5824815918751891E-01 a       569     1    14     2    14
 -8.3431955333448471E-01 a       570     1    14     2    15
 -1.9806104118880610E-01 a       571     1    15     2     1
  7.9748974240552406E-01 a       572     1    15     2     2
  2.2832756669476169E+00 a       573     1    15     2     3
 -1.4811343166625794E+00 a       574     1    15     2     4
 -2.1961524214967326E-01 a       575     1    15     2     5
  4.6513464042354286E-01 a       576     1    15     2     6
 -8.6750696691643286E-03 a       577     1    15     2     7
 -1.7477381798337168E+00 a       578     1    15     2     8
  1.8585020802481720E+00 a       579     1    15     2     9
 -1.2538902233255274E+00 a       580     1    15     2    10
  1.4929269872703528E+00 a       581     1    15     2    11
 -8.9479785634917486E-01 a       582     1    15     2    12
  5.0728525455744855E-01 a       583     1    15     2    13
  4.5009486216133265E-01 a       584     1    15     2    14
  9.2872757247236304E-01 a       585     1    15     2    15
  2.6191493915215873E+00 b       586     2     1
  4.4644228056429052E+00 b       587     2     2
 -4.6008075336098910E+00 b       588     2     3
  2.5485972735834563E+00 b       589     2     4
 -4.0468791175169461E+00 b       590     2     5
  4.9657066956784091E+00 b       591     2     6
  3.9096887161600380E+00 b       592     2     7
  2.8267454752646382E+00 b       593     2     8
 -3.8721645589530871E+00 b       594     2     9
  3.1325239986578607E-01 b       595     2    10
 -4.1989516123450565E+00 b       596     2    11
 -9.6085165669908643E-02 b       597     2    12
 -4.4621808674012780E+00 b       598     2    13
 -3.3104342828619338E+00 b       599     2    14
 -3.0333565822008350E+00 b       600     2    15
  1.0215731035541603E+01 a       601     2     1     3     1
  8.7468974963139878E+00 a       602     2     2     3     1
 -9.7415090412391709E+00 a       603     2     3     3     1
  9.1842172692331268E+00 a       604     2     4     3     1
 -7.9214982958437599E+00 a       605     2     5     3     1
  8.1103580301180713E+00 a       606     2     6     3     1
  1.0166023985636915E+01 a       607     2     7     3     1
  9.8558068630546529E+00 a       608     2     8     3     1
 -8.5368573743904754E+00 a       609     2     9     3     1
  4.2413246457150615E+00 a       610     2    10     3     1
 -9.2244637585075822E+00 a       611     2    11     3     1
  8.0239432882730388E-01 a       612     2    12     3     1
 -9.6323181092235028E+00 a       613     2    13     3     1
 -9.7879231974501391E+00 a       614     2    14     3     1
 -1.0638258760701540E+01 a       615     2    15     3     1
  1.1822186437092912E+01 b       616     3     1
