################################################################################
# Neural network connection values (weights and biases).
################################################################################
# Col  Name       Description
################################################################################
# 1    connection Neural network connection value.
# 2    t          Connection type (a = weight, b = bias).
# 3    index      Index enumerating weights.
# 4    l_s        Starting point layer (end point layer for biases).
# 5    n_s        Starting point neuron in starting layer (end point neuron for biases).
# 6    l_e        End point layer.
# 7    n_e        End point neuron in end layer.
################################################################################
#                      1 2         3     4     5     6     7
#             connection t     index   l_s   n_s   l_e   n_e
############################################################
 -2.0967761032508792E-01 a         1     0     1     1     1
  3.3247802609583404E-01 a         2     0     1     1     2
 -4.1336535294397747E-01 a         3     0     1     1     3
 -4.4596126257331514E-01 a         4     0     1     1     4
 -1.4643501946313872E-01 a         5     0     1     1     5
  2.3609880815506955E-03 a         6     0     1     1     6
 -2.3192328728678702E-01 a         7     0     1     1     7
 -2.8232924076421861E-01 a         8     0     1     1     8
  3.1139090280303505E-01 a         9     0     1     1     9
  6.4234514653219776E-02 a        10     0     1     1    10
  1.7237962789152653E-01 a        11     0     1     1    11
 -3.0517170020961648E-01 a        12     0     1     1    12
  3.6752599258104662E-01 a        13     0     1     1    13
  2.3224912491503338E-01 a        14     0     1     1    14
  3.7616875988227640E-02 a        15     0     1     1    15
 -1.9277153548769824E-01 a        16     0     2     1     1
  5.2777197385203201E-01 a        17     0     2     1     2
  2.9268301043724082E-01 a        18     0     2     1     3
 -4.6029439241168896E-01 a        19     0     2     1     4
 -5.7966446901913993E-01 a        20     0     2     1     5
  1.3589628863657936E-02 a        21     0     2     1     6
 -3.6144422761485290E-01 a        22     0     2     1     7
  4.1344441876641974E-01 a        23     0     2     1     8
 -1.3372851343301151E-01 a        24     0     2     1     9
 -9.2520778818760127E-02 a        25     0     2     1    10
 -6.7403167418363108E-02 a        26     0     2     1    11
 -6.1833153843424304E-02 a        27     0     2     1    12
 -3.1915128227055806E-01 a        28     0     2     1    13
  4.0043435766472085E-01 a        29     0     2     1    14
 -2.9253557685949488E-01 a        30     0     2     1    15
 -6.2734646767903399E-02 a        31     0     3     1     1
  2.1596353589859699E-01 a        32     0     3     1     2
 -4.0669596849012657E-01 a        33     0     3     1     3
  3.6060963555767905E-01 a        34     0     3     1     4
 -4.1190842851422027E-01 a        35     0     3     1     5
 -1.8404936259526306E-01 a        36     0     3     1     6
  1.0383496077672440E-01 a        37     0     3     1     7
 -1.7120994844421786E-03 a        38     0     3     1     8
  2.7823131748808624E-02 a        39     0     3     1     9
  1.8013131940527166E-01 a        40     0     3     1    10
 -4.9140124873631752E-01 a        41     0     3     1    11
 -3.7720754578340887E-01 a        42     0     3     1    12
  1.1578908405560323E-01 a        43     0     3     1    13
  3.5550045236502004E-01 a        44     0     3     1    14
 -3.3198634124817161E-02 a        45     0     3     1    15
 -2.8528110126341322E-01 a        46     0     4     1     1
 -4.9066323136345701E-02 a        47     0     4     1     2
 -1.4164819904004594E-01 a        48     0     4     1     3
 -2.8646654711024455E-01 a        49     0     4     1     4
 -5.1318981322393531E-01 a        50     0     4     1     5
  2.5163778161359607E-01 a        51     0     4     1     6
 -4.3834137824263697E-01 a        52     0     4     1     7
 -5.1980880923218238E-02 a        53     0     4     1     8
 -3.2553471243334353E-01 a        54     0     4     1     9
 -2.7572447055797117E-01 a        55     0     4     1    10
  8.9664272002563938E-02 a        56     0     4     1    11
 -3.6681137497062705E-01 a        57     0     4     1    12
  5.8908467631396989E-02 a        58     0     4     1    13
 -3.5772115247503712E-02 a        59     0     4     1    14
  2.6706495191188406E-01 a        60     0     4     1    15
  4.0410734911932228E-01 a        61     0     5     1     1
  4.2543431188109360E-01 a        62     0     5     1     2
 -2.3514520872373762E-01 a        63     0     5     1     3
 -4.2637123945266664E-01 a        64     0     5     1     4
  4.4021268209715708E-01 a        65     0     5     1     5
 -1.7009606828899410E-01 a        66     0     5     1     6
 -4.8129281920501399E-01 a        67     0     5     1     7
  1.4467744555138215E-01 a        68     0     5     1     8
 -6.1679699228679871E-02 a        69     0     5     1     9
 -2.2226584934700214E-01 a        70     0     5     1    10
  2.2654870705990184E-02 a        71     0     5     1    11
 -1.9676514918964222E-01 a        72     0     5     1    12
 -4.3614615558267406E-01 a        73     0     5     1    13
  3.9320443494791313E-01 a        74     0     5     1    14
  1.2736355489092105E-01 a        75     0     5     1    15
  4.2718707901289837E-01 a        76     0     6     1     1
 -1.9110779221637984E-02 a        77     0     6     1     2
 -1.4273808663229756E-01 a        78     0     6     1     3
  2.0269685605175152E-02 a        79     0     6     1     4
  6.4871825452781451E-01 a        80     0     6     1     5
 -3.7483149437005647E-01 a        81     0     6     1     6
 -4.3989722020509947E-01 a        82     0     6     1     7
 -4.4710630593117573E-01 a        83     0     6     1     8
 -4.2142102034462281E-01 a        84     0     6     1     9
  5.3433322336811273E-01 a        85     0     6     1    10
 -6.1129010280398403E-02 a        86     0     6     1    11
  4.2515885101972195E-01 a        87     0     6     1    12
  1.8547483920353808E-01 a        88     0     6     1    13
  4.8402683015108416E-01 a        89     0     6     1    14
 -3.3749818583181374E-01 a        90     0     6     1    15
  7.0105012960835766E-02 a        91     0     7     1     1
  3.2827111207068232E-01 a        92     0     7     1     2
  7.8596712297920118E-02 a        93     0     7     1     3
 -5.5945810142505679E-02 a        94     0     7     1     4
  1.4726158455076277E-01 a        95     0     7     1     5
 -8.3956692913494960E-02 a        96     0     7     1     6
 -5.1974709210651060E-01 a        97     0     7     1     7
 -2.0645202956066436E-01 a        98     0     7     1     8
  2.7414701820420495E-01 a        99     0     7     1     9
  3.7088083164295788E-01 a       100     0     7     1    10
  1.5810772936301137E-01 a       101     0     7     1    11
 -3.0963799341047854E-01 a       102     0     7     1    12
 -1.4587434259298912E-01 a       103     0     7     1    13
  3.2633290009467786E-01 a       104     0     7     1    14
 -1.9770370642158777E-01 a       105     0     7     1    15
  2.3687416053009730E-01 a       106     0     8     1     1
 -2.1025314781060195E-01 a       107     0     8     1     2
  2.7066623038207582E-01 a       108     0     8     1     3
 -3.8308804210282439E-02 a       109     0     8     1     4
  4.0870894010265246E-01 a       110     0     8     1     5
 -4.9071531589109402E-01 a       111     0     8     1     6
  5.6029413066056251E-02 a       112     0     8     1     7
 -1.0223143496243919E-01 a       113     0     8     1     8
 -1.1974565123678192E-01 a       114     0     8     1     9
  7.0985077450823753E-01 a       115     0     8     1    10
  5.2394441765785815E-01 a       116     0     8     1    11
 -4.1365471283897104E-01 a       117     0     8     1    12
 -1.6170426129884197E-01 a       118     0     8     1    13
  1.4829259321861429E-02 a       119     0     8     1    14
 -2.5733115279269286E-01 a       120     0     8     1    15
 -4.0258013745121435E-01 a       121     0     9     1     1
 -2.2356768949703704E-01 a       122     0     9     1     2
  3.3099979978528329E-02 a       123     0     9     1     3
 -3.6099370192483576E-01 a       124     0     9     1     4
  1.1263185370054539E-01 a       125     0     9     1     5
  2.2615402922354644E-01 a       126     0     9     1     6
 -1.4340989454602848E-01 a       127     0     9     1     7
  6.9615133316301236E-01 a       128     0     9     1     8
 -3.0526734788428644E-01 a       129     0     9     1     9
 -5.3191299975791639E-01 a       130     0     9     1    10
 -4.5912423227988802E-02 a       131     0     9     1    11
 -3.9612687271548047E-01 a       132     0     9     1    12
  3.1039687929821141E-01 a       133     0     9     1    13
  5.7164312708716025E-02 a       134     0     9     1    14
 -1.2876542740741470E-01 a       135     0     9     1    15
  2.5306970640607018E-01 a       136     0    10     1     1
 -2.8799722096559899E-01 a       137     0    10     1     2
 -4.9204086118178098E-01 a       138     0    10     1     3
 -1.2026008797296821E-01 a       139     0    10     1     4
 -4.4151848323206205E-01 a       140     0    10     1     5
  3.2006134221439048E-01 a       141     0    10     1     6
  3.5329268801204372E-01 a       142     0    10     1     7
 -5.3398387611756182E-01 a       143     0    10     1     8
 -2.0424283519288250E-01 a       144     0    10     1     9
 -7.8224695948937650E-01 a       145     0    10     1    10
 -2.2690250936095016E-01 a       146     0    10     1    11
  1.8344332563558374E-01 a       147     0    10     1    12
  2.8845635368671829E-01 a       148     0    10     1    13
  8.5589862937452285E-02 a       149     0    10     1    14
 -2.0695917907212612E-02 a       150     0    10     1    15
 -5.3878442199120337E-02 a       151     0    11     1     1
 -3.8681957560702684E-01 a       152     0    11     1     2
 -2.3465399529205264E-01 a       153     0    11     1     3
  2.7382428713198120E-01 a       154     0    11     1     4
  5.1426197030558951E-01 a       155     0    11     1     5
 -1.8828078636748877E-01 a       156     0    11     1     6
 -2.7945357485641908E-01 a       157     0    11     1     7
 -2.2957323854976122E-01 a       158     0    11     1     8
  3.7697841847503000E-01 a       159     0    11     1     9
  1.2926900730236973E-01 a       160     0    11     1    10
  5.9320734688605725E-01 a       161     0    11     1    11
 -5.3862004291521264E-02 a       162     0    11     1    12
 -6.1388374627041853E-01 a       163     0    11     1    13
  6.8723544034374429E-01 a       164     0    11     1    14
  2.6250667340542516E-01 a       165     0    11     1    15
  4.1242313411341075E-01 a       166     0    12     1     1
  2.6321567257355502E-02 a       167     0    12     1     2
  1.6232605520209958E-01 a       168     0    12     1     3
 -1.7337507634209712E-01 a       169     0    12     1     4
  1.7035568658589864E-01 a       170     0    12     1     5
 -2.7837845730446853E-01 a       171     0    12     1     6
  4.3488277127405128E-01 a       172     0    12     1     7
 -1.4362036316365465E-01 a       173     0    12     1     8
 -3.9479034299077537E-01 a       174     0    12     1     9
  3.0956153600935588E-01 a       175     0    12     1    10
  2.0895008319712804E-01 a       176     0    12     1    11
  4.6231785730245042E-02 a       177     0    12     1    12
  1.4566236059119059E-01 a       178     0    12     1    13
  1.1345768847615863E-01 a       179     0    12     1    14
 -2.2230114984310806E-01 a       180     0    12     1    15
  2.2666754261121846E-01 a       181     0    13     1     1
  1.3711089044583158E-01 a       182     0    13     1     2
 -1.1975472938604555E-01 a       183     0    13     1     3
  2.0844684594893054E-01 a       184     0    13     1     4
 -7.5553152418827019E-01 a       185     0    13     1     5
  4.2411587688205199E-01 a       186     0    13     1     6
  4.0295534751189432E-01 a       187     0    13     1     7
  4.4847996773155313E-01 a       188     0    13     1     8
  3.7724397786661329E-01 a       189     0    13     1     9
 -1.8169483026604827E-01 a       190     0    13     1    10
 -6.4918274676169796E-01 a       191     0    13     1    11
  7.4698783396533286E-01 a       192     0    13     1    12
 -4.2738369370015197E-02 a       193     0    13     1    13
  5.2556577107830793E-01 a       194     0    13     1    14
  3.5092419092215438E-01 a       195     0    13     1    15
 -3.5448971730594619E-01 a       196     0    14     1     1
 -9.0029435159724822E-02 a       197     0    14     1     2
 -1.8489177346979194E-02 a       198     0    14     1     3
  1.0900438626847829E-01 a       199     0    14     1     4
 -1.0305156093604881E-01 a       200     0    14     1     5
  3.1407227563812301E-01 a       201     0    14     1     6
 -2.3714595892250767E-01 a       202     0    14     1     7
 -4.7724822360878510E-01 a       203     0    14     1     8
  2.2801650395631265E-01 a       204     0    14     1     9
  1.8542457240859364E-01 a       205     0    14     1    10
 -2.7776452500983700E-01 a       206     0    14     1    11
  1.4045380719742853E-01 a       207     0    14     1    12
 -4.7855500361979558E-01 a       208     0    14     1    13
 -2.8978717198761983E-01 a       209     0    14     1    14
 -2.6701315014254329E-01 a       210     0    14     1    15
 -1.6211641623905840E-01 a       211     0    15     1     1
 -4.4814650216592133E-01 a       212     0    15     1     2
 -4.0093687333823867E-02 a       213     0    15     1     3
 -6.7097441002573477E-02 a       214     0    15     1     4
 -2.8764354349483651E-01 a       215     0    15     1     5
 -7.3057056684485991E-02 a       216     0    15     1     6
  6.3355509630041495E-01 a       217     0    15     1     7
 -3.6040395056403329E-02 a       218     0    15     1     8
  2.9106603366899708E-01 a       219     0    15     1     9
 -5.1880471805654793E-01 a       220     0    15     1    10
  1.1977857983578043E-01 a       221     0    15     1    11
  4.3586240689270583E-01 a       222     0    15     1    12
  2.0635627488467087E-01 a       223     0    15     1    13
 -1.3041605823671423E-01 a       224     0    15     1    14
  6.0698456882534557E-01 a       225     0    15     1    15
 -2.7523149701622773E-01 b       226     1     1
 -2.2543153780476614E-02 b       227     1     2
  3.0340593225884782E-01 b       228     1     3
  2.4814749605570741E-01 b       229     1     4
  2.7159653314092330E-01 b       230     1     5
 -7.3121476734364019E-02 b       231     1     6
  1.7287475879398259E-01 b       232     1     7
  3.0581061962085576E-01 b       233     1     8
  1.3960296406840902E-01 b       234     1     9
  3.0869322992630793E-01 b       235     1    10
  1.2283945816522227E-01 b       236     1    11
 -2.6393661939883364E-02 b       237     1    12
 -2.3491500754193054E-01 b       238     1    13
  8.7350176917118771E-02 b       239     1    14
  7.4436658375006709E-02 b       240     1    15
 -1.4505539209682403E-01 a       241     1     1     2     1
  4.8847862223459337E-01 a       242     1     1     2     2
  2.2580750379258541E-01 a       243     1     1     2     3
 -4.1568306185849913E-01 a       244     1     1     2     4
 -2.1778641665324402E-01 a       245     1     1     2     5
 -4.6150562876686452E-01 a       246     1     1     2     6
  6.6007795379815964E-02 a       247     1     1     2     7
  3.1739980201317114E-01 a       248     1     1     2     8
  2.7149686781067839E-01 a       249     1     1     2     9
 -2.2651442511453035E-01 a       250     1     1     2    10
 -3.4840383651509699E-01 a       251     1     1     2    11
 -4.5407490714789694E-01 a       252     1     1     2    12
 -4.6752591170952229E-01 a       253     1     1     2    13
  2.9629830825350961E-01 a       254     1     1     2    14
  1.0611958443271742E-01 a       255     1     1     2    15
  1.1923865041280710E-01 a       256     1     2     2     1
 -2.9761410391994819E-01 a       257     1     2     2     2
 -1.6818690023213331E-02 a       258     1     2     2     3
 -7.4518864399971935E-02 a       259     1     2     2     4
  5.0609768014782475E-01 a       260     1     2     2     5
 -3.7009917142144388E-01 a       261     1     2     2     6
  1.2414457610039139E-02 a       262     1     2     2     7
 -6.4751402948612424E-01 a       263     1     2     2     8
  3.0773882712613831E-01 a       264     1     2     2     9
 -3.3080240206610972E-01 a       265     1     2     2    10
  8.1315206995474940E-02 a       266     1     2     2    11
 -1.0779854418620242E-01 a       267     1     2     2    12
 -3.1281045394291419E-02 a       268     1     2     2    13
 -3.0072283749799217E-01 a       269     1     2     2    14
  2.2187559421178174E-01 a       270     1     2     2    15
  9.6586629085298636E-02 a       271     1     3     2     1
  5.4410685412273806E-02 a       272     1     3     2     2
 -2.8123196727133670E-01 a       273     1     3     2     3
 -5.4767571529825365E-02 a       274     1     3     2     4
 -2.8211691187582638E-01 a       275     1     3     2     5
 -2.6868766721453186E-01 a       276     1     3     2     6
 -3.5581425077956153E-01 a       277     1     3     2     7
 -5.8240541925434763E-01 a       278     1     3     2     8
  2.0492172259806651E-01 a       279     1     3     2     9
  1.1753670938495227E-01 a       280     1     3     2    10
  3.4446642584007220E-01 a       281     1     3     2    11
 -2.8811562245013916E-01 a       282     1     3     2    12
 -1.5241847012458476E-01 a       283     1     3     2    13
  5.0266955976174688E-01 a       284     1     3     2    14
  1.8202726512722800E-01 a       285     1     3     2    15
  4.5523634808279956E-01 a       286     1     4     2     1
  1.3114547593326759E-01 a       287     1     4     2     2
  5.8151037683295957E-02 a       288     1     4     2     3
 -3.5097781692895741E-01 a       289     1     4     2     4
 -2.6063165738965077E-01 a       290     1     4     2     5
 -1.5933566100836755E-01 a       291     1     4     2     6
  6.4982940088995633E-02 a       292     1     4     2     7
 -1.3292833244884258E-01 a       293     1     4     2     8
 -1.0286438953537880E-01 a       294     1     4     2     9
 -1.0494363856524758E-01 a       295     1     4     2    10
  3.8225702428065683E-01 a       296     1     4     2    11
 -3.0912696968515335E-01 a       297     1     4     2    12
 -1.9651728529003270E-03 a       298     1     4     2    13
  4.4122100649720900E-02 a       299     1     4     2    14
 -2.6768965904023101E-01 a       300     1     4     2    15
  1.0645570528332825E-01 a       301     1     5     2     1
 -8.6376117483247430E-02 a       302     1     5     2     2
  3.0224561933394889E-01 a       303     1     5     2     3
 -4.5473583374343018E-01 a       304     1     5     2     4
  3.9075998677096024E-01 a       305     1     5     2     5
  2.1100020717416279E-01 a       306     1     5     2     6
 -3.0081815910181720E-01 a       307     1     5     2     7
 -3.1953628303974102E-01 a       308     1     5     2     8
  4.2946447906890511E-01 a       309     1     5     2     9
  7.6790130803834633E-01 a       310     1     5     2    10
 -2.5162962905247610E-01 a       311     1     5     2    11
  2.9816699028276950E-01 a       312     1     5     2    12
  2.8263643654874865E-01 a       313     1     5     2    13
  7.1162388461182932E-02 a       314     1     5     2    14
  2.6485625081136061E-01 a       315     1     5     2    15
  3.6713132688170508E-01 a       316     1     6     2     1
 -1.0229332519118589E-01 a       317     1     6     2     2
 -4.0489965387947313E-01 a       318     1     6     2     3
 -3.3029952431512138E-01 a       319     1     6     2     4
  1.1775533593478030E-01 a       320     1     6     2     5
  3.1085605615339518E-01 a       321     1     6     2     6
  5.9731143470444381E-01 a       322     1     6     2     7
  7.7053825604982518E-01 a       323     1     6     2     8
 -3.9250303772702050E-01 a       324     1     6     2     9
 -2.4978118788613179E-01 a       325     1     6     2    10
  1.6209340441731537E-01 a       326     1     6     2    11
 -3.2043848029686954E-02 a       327     1     6     2    12
 -8.6051216478382694E-03 a       328     1     6     2    13
 -2.0982711906176613E-01 a       329     1     6     2    14
  3.6569130159811203E-01 a       330     1     6     2    15
 -1.4645063303845210E-01 a       331     1     7     2     1
 -2.3596311095394895E-01 a       332     1     7     2     2
 -2.7619125393240351E-01 a       333     1     7     2     3
  4.8996977501096317E-01 a       334     1     7     2     4
 -7.9713605768573004E-02 a       335     1     7     2     5
 -4.2626350933823637E-01 a       336     1     7     2     6
  3.6206326914590820E-01 a       337     1     7     2     7
 -4.1476910373608689E-01 a       338     1     7     2     8
 -1.0710158536986873E-01 a       339     1     7     2     9
  3.7205550551799427E-01 a       340     1     7     2    10
 -2.0986518924898656E-01 a       341     1     7     2    11
  2.3767634534883833E-01 a       342     1     7     2    12
  6.1320266967004433E-01 a       343     1     7     2    13
  2.2927042165170174E-02 a       344     1     7     2    14
 -3.6790863759228470E-01 a       345     1     7     2    15
  8.7821165029252038E-02 a       346     1     8     2     1
  3.1331101551184543E-01 a       347     1     8     2     2
 -3.0820626591300464E-02 a       348     1     8     2     3
  2.0713242172945356E-01 a       349     1     8     2     4
 -1.6815434417581773E-01 a       350     1     8     2     5
  2.8124839067750906E-01 a       351     1     8     2     6
 -2.2578382104711747E-01 a       352     1     8     2     7
 -2.0050672636593084E-01 a       353     1     8     2     8
 -9.9692497715781300E-02 a       354     1     8     2     9
  6.6130415591872202E-02 a       355     1     8     2    10
  3.9794730682714724E-01 a       356     1     8     2    11
  1.6021376521234762E-01 a       357     1     8     2    12
  1.9461466635138872E-01 a       358     1     8     2    13
 -2.4726437974073975E-01 a       359     1     8     2    14
 -1.5879643555312065E-01 a       360     1     8     2    15
 -3.4276817925445713E-01 a       361     1     9     2     1
 -7.2772263175929830E-02 a       362     1     9     2     2
 -5.2160403287212120E-01 a       363     1     9     2     3
 -2.1922297372145466E-01 a       364     1     9     2     4
 -3.1963577321361780E-01 a       365     1     9     2     5
 -2.5135643763637642E-02 a       366     1     9     2     6
  1.3268801290796084E-01 a       367     1     9     2     7
  4.2029388582941124E-01 a       368     1     9     2     8
  1.6341005858155014E-01 a       369     1     9     2     9
 -3.0682754166629628E-01 a       370     1     9     2    10
 -8.2611682317000126E-02 a       371     1     9     2    11
  3.8947765118215788E-01 a       372     1     9     2    12
  2.9779666144130934E-01 a       373     1     9     2    13
  4.8277621756506928E-01 a       374     1     9     2    14
  3.5064816818171179E-01 a       375     1     9     2    15
 -4.3405437378388273E-01 a       376     1    10     2     1
  5.1639106712403071E-01 a       377     1    10     2     2
  6.0380675956379283E-02 a       378     1    10     2     3
  1.7991652920732881E-01 a       379     1    10     2     4
  1.8182762052717910E-01 a       380     1    10     2     5
 -2.5598696507990071E-01 a       381     1    10     2     6
  1.6687926471792888E-01 a       382     1    10     2     7
 -4.8833551201029390E-01 a       383     1    10     2     8
  4.0069653525644233E-03 a       384     1    10     2     9
  5.1090643778590616E-01 a       385     1    10     2    10
 -2.0681769543621059E-01 a       386     1    10     2    11
 -1.3881386083837682E-01 a       387     1    10     2    12
 -4.2447998311924634E-01 a       388     1    10     2    13
  7.6868920647276084E-01 a       389     1    10     2    14
 -5.9180486204079041E-01 a       390     1    10     2    15
 -3.4351471149645968E-01 a       391     1    11     2     1
 -2.8795242457513193E-01 a       392     1    11     2     2
  1.4234685907200489E-01 a       393     1    11     2     3
  4.9616184558910960E-02 a       394     1    11     2     4
  1.8128468229485981E-01 a       395     1    11     2     5
 -4.7909231298414540E-01 a       396     1    11     2     6
 -6.9195658124936321E-01 a       397     1    11     2     7
 -2.0761677393531006E-01 a       398     1    11     2     8
 -1.9449277994063671E-01 a       399     1    11     2     9
  5.9375248563488037E-01 a       400     1    11     2    10
 -2.1388595136984531E-02 a       401     1    11     2    11
  4.4604946217248137E-01 a       402     1    11     2    12
 -4.1712237960192050E-01 a       403     1    11     2    13
  2.0814162126186211E-01 a       404     1    11     2    14
 -4.3190547440141551E-03 a       405     1    11     2    15
 -3.3702454148043043E-01 a       406     1    12     2     1
 -1.7739169590175255E-01 a       407     1    12     2     2
 -6.6574010202082286E-03 a       408     1    12     2     3
  3.9178192284836949E-01 a       409     1    12     2     4
 -3.6463396363127604E-01 a       410     1    12     2     5
 -6.2806193226691143E-01 a       411     1    12     2     6
  4.4039848870141546E-01 a       412     1    12     2     7
 -1.4417144060757103E-01 a       413     1    12     2     8
 -3.2135145257201431E-01 a       414     1    12     2     9
  1.1040963027383187E-01 a       415     1    12     2    10
 -1.0921512626213285E-01 a       416     1    12     2    11
 -2.7426176824150883E-01 a       417     1    12     2    12
  2.7816192593426153E-01 a       418     1    12     2    13
  1.1726592927459277E-01 a       419     1    12     2    14
  5.2209304511343935E-01 a       420     1    12     2    15
 -4.0387540504524783E-01 a       421     1    13     2     1
 -4.8182701132473936E-02 a       422     1    13     2     2
  1.9001064150698927E-02 a       423     1    13     2     3
  4.0041338878261967E-01 a       424     1    13     2     4
 -2.6956932097845177E-01 a       425     1    13     2     5
  3.8098694941700512E-01 a       426     1    13     2     6
 -2.7018203570446769E-01 a       427     1    13     2     7
  1.6355552723245131E-01 a       428     1    13     2     8
  1.5330990699782460E-01 a       429     1    13     2     9
 -1.3701872731970546E-01 a       430     1    13     2    10
 -5.7979694303393525E-01 a       431     1    13     2    11
 -3.4958158244884624E-01 a       432     1    13     2    12
  3.8336417832483066E-02 a       433     1    13     2    13
 -4.1502941543480837E-01 a       434     1    13     2    14
 -4.5228109586102341E-03 a       435     1    13     2    15
 -2.6398912638117511E-01 a       436     1    14     2     1
  2.5597432947710580E-02 a       437     1    14     2     2
  3.0069105699667770E-01 a       438     1    14     2     3
 -6.5901359558621933E-02 a       439     1    14     2     4
 -7.0554483571328153E-01 a       440     1    14     2     5
 -3.5914239798730357E-01 a       441     1    14     2     6
  4.8386621588052361E-02 a       442     1    14     2     7
 -1.6788747973765411E-01 a       443     1    14     2     8
  2.4670889568376597E-01 a       444     1    14     2     9
  2.9733985440169386E-01 a       445     1    14     2    10
 -1.9039251445256405E-01 a       446     1    14     2    11
  5.4815558471645887E-01 a       447     1    14     2    12
 -1.9457585980469583E-01 a       448     1    14     2    13
  2.8774407201334806E-01 a       449     1    14     2    14
  8.2304366400874174E-01 a       450     1    14     2    15
  3.2821751984921316E-01 a       451     1    15     2     1
 -2.2693242098575511E-01 a       452     1    15     2     2
 -2.1893905095889110E-01 a       453     1    15     2     3
 -4.9637540701081645E-02 a       454     1    15     2     4
 -2.7997893312629685E-01 a       455     1    15     2     5
 -2.2800755872288264E-01 a       456     1    15     2     6
 -8.6615733952864829E-02 a       457     1    15     2     7
  2.5755414781564095E-01 a       458     1    15     2     8
 -2.0586039022540456E-01 a       459     1    15     2     9
  1.7645003199009388E-01 a       460     1    15     2    10
  1.4848051989345823E-01 a       461     1    15     2    11
  4.0384883911667963E-01 a       462     1    15     2    12
  4.6839488155143172E-01 a       463     1    15     2    13
  1.1553651811299078E-02 a       464     1    15     2    14
  3.5841670979593954E-01 a       465     1    15     2    15
  1.4430308899288033E-01 b       466     2     1
 -1.4256955496596943E-01 b       467     2     2
 -1.8970217802116893E-01 b       468     2     3
 -7.5882462159687178E-02 b       469     2     4
  2.9238245022053932E-01 b       470     2     5
  6.1988347093151625E-02 b       471     2     6
  1.7235267719028419E-01 b       472     2     7
 -1.4262903400520485E-01 b       473     2     8
 -4.3339171570537023E-02 b       474     2     9
  1.4898986637801828E-01 b       475     2    10
  1.3576761041553806E-01 b       476     2    11
  2.2707667766449946E-01 b       477     2    12
  1.0888567486612608E-01 b       478     2    13
  2.5792127991975677E-01 b       479     2    14
  4.8642589747881042E-02 b       480     2    15
  7.8506192186625157E-01 a       481     2     1     3     1
 -6.5799815892422353E-01 a       482     2     2     3     1
 -1.9662092215459989E-01 a       483     2     3     3     1
  6.5603422501161424E-01 a       484     2     4     3     1
 -1.2649998935711186E+00 a       485     2     5     3     1
  8.9893220090812120E-01 a       486     2     6     3     1
  7.0239297117976907E-01 a       487     2     7     3     1
  9.4644717309582638E-01 a       488     2     8     3     1
 -9.4481509865118263E-01 a       489     2     9     3     1
 -1.0503043898058650E+00 a       490     2    10     3     1
  7.0596145099773699E-01 a       491     2    11     3     1
 -2.1799056765686983E-01 a       492     2    12     3     1
  9.7554486060999934E-01 a       493     2    13     3     1
 -9.4834798993099734E-01 a       494     2    14     3     1
  3.5194538096853972E-01 a       495     2    15     3     1
  7.2264003413577360E-01 b       496     3     1
